500 128
0 -0.018502422 0.11288226 0.14035562 -0.07720708 -0.039339848 0.031232523 -0.00038965925 0.00018513798 -0.05437751 -0.09910326 -0.0979479 -0.17707308 -0.11993702 -0.039569378 -0.101109624 0.13376676 0.2185528 0.049865745 0.30002642 -0.06689593 0.02775034 0.14779127 0.20592394 -0.16487126 -0.0019611653 0.0075899055 -0.025470836 -0.25735655 0.0868691 0.028404012 0.20551637 0.017972922 0.011653171 0.044128124 -0.06201175 0.042978726 0.24599035 -0.1135962 -0.028742857 0.07035377 0.014713007 -0.05706379 0.18797919 -0.11229184 0.14600241 0.16267022 -0.2973781 -0.060172543 -0.20666029 0.022640225 0.14088884 -0.10460274 0.27159834 -0.09699645 0.14842767 -0.09611574 0.17929818 0.041115448 0.17184873 0.1678316 0.108438164 -0.1750629 0.056400206 -0.10826559 -0.118270166 -0.025213284 0.24452835 -0.014244684 -0.070566535 -0.095472865 -0.28657103 0.09728744 0.0680839 -0.035062674 -0.18235551 -0.07585567 0.14106894 0.028468277 -0.03476182 0.07466612 -0.12678848 -0.17667437 -0.18303277 0.091572896 -0.09178193 -0.12309628 0.03718463 0.07236368 0.11022266 -0.009063176 -0.27252978 -0.092546836 0.04468127 -0.052686915 -0.10580696 -0.12569802 0.23169039 0.08968694 -0.019023368 0.054108024 0.026005492 -0.18875517 0.19878912 0.24173488 0.08149625 0.1656672 0.059723467 -0.15883963 0.2123391 -0.1040632 0.018561868 0.032065358 -0.1497287 0.14504214 -0.15411647 0.10391784 -0.17607132 -0.012744695 0.08000725 -0.28055358 0.0067429338 0.011676671 0.21687229 -0.02114674 0.15508118 0.09561914 -0.07560622 -0.035727993
1 -0.3434857 -0.011223376 -0.07464856 -0.061924893 0.027653018 0.08689243 -0.06001655 0.011861508 -0.089771755 -0.0015852799 -0.08918759 0.07718443 -0.07387139 -0.021143408 -0.19341324 0.0931416 0.1284787 0.06817119 0.14724326 0.16114187 0.041410197 0.23923622 0.19017206 -0.122215524 -0.20652714 -0.14419775 0.12788494 -0.14269213 -0.13103078 0.07831061 0.1006217 0.06454791 0.012573042 0.009251654 0.010207989 -0.2678722 0.17566176 -0.07915882 -0.12721165 0.10776728 -0.00061683625 -0.13763098 0.027594294 -0.065954074 -0.010429759 0.04888682 -0.17872934 0.029568804 -0.046379287 -0.011608824 0.04275191 -0.025032185 0.040759552 -0.06560173 0.03658498 -0.11017495 0.11853729 -0.11060669 -0.050732195 0.1434045 -0.10788952 -0.08928221 0.07180265 -0.06514851 0.037413765 -0.045400504 -0.085133485 0.11959134 -0.043189596 0.17335622 -0.3277104 -0.016476842 0.11452507 0.019725855 0.14029355 0.19555408 0.09825181 0.2742636 -0.17314255 0.11462315 -0.038709715 -0.22808303 -0.17247216 -0.17754388 0.041023742 -0.038812734 -0.035040367 0.044212937 0.040088084 -0.19663215 0.041816745 -0.23397897 -0.08495736 0.07708005 -0.16496636 -0.027363187 0.14729817 0.328264 -0.02149546 0.19186881 0.12090948 -0.24202503 -0.19138308 0.04499854 0.34828702 0.15422514 0.18154648 0.05157531 -0.076949246 -0.03871655 0.029995723 0.052389637 -0.13679227 0.036555618 -0.19448878 0.15068577 0.057489723 0.17698537 0.18187809 -0.18040943 -0.03258317 0.06480517 0.23718025 0.06033145 0.09255261 0.014354303 0.104764625 0.03479455
2 0.029094813 0.039087582 0.13408536 -0.052702546 0.21871717 0.1111173 -0.004247645 -0.062386572 -0.016672174 -0.08604526 -0.10310192 0.084372066 0.03451233 0.059304856 -0.29245263 -0.065635756 0.32025853 -0.016369332 -0.012323753 0.3446421 -0.1061795 0.01129725 0.13060604 -0.17758617 -0.07274939 0.10684741 0.13661692 -0.2114573 -0.07009527 0.18978114 0.03859447 0.023204407 -0.016646141 -0.035223957 -0.21868509 -0.2975611 -0.036986176 -0.13512337 -0.06453335 0.04318103 -0.22652337 0.07926906 -0.04752214 -0.06207996 -0.01887124 -0.2839086 -0.036244683 -0.0012071308 -0.034602687 -0.096124835 -0.032050762 0.1916294 0.01805646 -0.16448551 0.17842294 -0.12427662 0.13204752 0.15164152 -0.20140602 0.042572796 0.0024670253 0.10459142 0.04746945 -0.08334422 0.054335214 -0.333255 0.15071152 0.05850761 -0.1343901 0.18339393 -0.14311077 0.022063581 -0.2433097 -0.09019025 0.01154429 0.039023556 -0.29928958 0.19347718 0.090005435 0.16867036 -0.21043895 0.07662978 0.10233603 0.012362191 0.07615901 -0.22918767 0.012849441 0.0066558965 0.124034375 0.0089211585 -0.023940044 -0.12475855 -0.033864543 -0.11906782 0.19791077 -0.09466066 0.1671816 0.080664225 0.14894728 0.1613822 0.05526637 0.005348036 0.10990414 0.14746462 0.020327609 0.030801794 0.34717667 0.006706762 0.14647588 -0.084809005 0.14612299 -0.09038214 -0.13248846 -0.0557448 -0.21458347 -0.052738782 -0.24928004 0.2688291 0.10399195 -0.20985782 -0.0043265116 0.01318322 0.13465303 0.009315323 -0.073390014 0.2153969 -0.17088239 -0.10221534
6 0.0415232 0.044999264 0.044004217 0.15821236 -0.21947272 0.00474852 -0.22935288 -0.06696583 0.09955257 -0.11543236 0.008680279 0.13927303 0.04862148 -0.19223784 0.03471308 0.10488096 0.17168398 -0.17056209 0.059316903 0.14585353 -0.021505218 0.2916954 0.14314373 -0.19340523 0.043884642 0.00040860788 0.1518222 0.04275825 0.15799703 -0.18650724 0.10906489 -0.1340346 0.07496344 -0.04900982 0.13063416 -0.3284863 0.23576117 -0.06085636 -0.009238305 0.31107092 -0.069856584 0.029806651 -0.22248077 -0.08201215 0.02845877 0.11074325 -0.14319253 -0.08040892 0.11550447 0.18483956 -0.24644342 -0.10032859 0.25041384 0.083445415 0.065884344 0.0027414083 -0.016443314 0.10719375 -0.03749878 0.057741802 -0.25845984 -0.16230951 0.088925704 -0.12807344 0.08005759 0.049252436 -0.0474435 0.23105645 -0.08306672 0.14161737 0.017382659 -0.20947416 0.11464078 0.041264605 0.1834951 0.1699283 -0.0015048982 0.35994786 -0.009178665 -0.11606176 -0.04532633 0.05568644 -0.053213436 -0.041813385 0.101362035 -0.041579094 0.111159295 0.09322592 0.030791454 0.010870053 -0.0037470004 -0.1771808 0.059848003 0.034893643 -0.19550161 -0.0924462 0.13353062 0.29842234 0.10464092 0.103579074 0.22918876 -0.042128563 -0.2955962 -0.04677074 0.13145441 0.17355277 0.0053711645 0.0557729 -0.09841261 -0.16772269 -0.18701783 0.049018323 0.014279577 0.23489931 -0.23504318 0.13038145 -0.10604282 0.23004176 0.0868228 -0.14551309 0.12567027 -0.10566598 0.16044737 0.06337426 0.05370892 0.026777025 -0.008533888 0.21337213
5 0.17772377 -0.107141234 0.04691116 0.2653002 0.106909774 0.045637913 -0.28878862 0.20026731 -0.046914473 0.06200283 0.038046837 0.048297785 0.22182223 -0.08037522 -0.09615233 0.06909054 0.13420647 0.076297544 -0.0023998294 0.11676078 -0.014851789 -0.30548063 0.065624915 -0.20971371 -0.14069825 0.027551837 0.16407862 0.28330576 -0.011929326 0.14687435 0.21590821 -0.01530095 0.1632386 -0.067782685 -9.1092166e-05 -0.17766029 0.43842772 -0.14805032 -0.114460684 0.34228837 -0.059271555 0.08325904 0.024847087 0.085001834 -0.0051498637 0.16057234 -0.30941024 -0.025944782 0.1617305 -0.20944399 -0.0918349 0.17021856 0.16095005 -0.103136964 -0.023135094 0.055538636 -0.1827836 0.002452982 -0.09805689 0.32638767 0.09276003 0.20005941 0.054087404 0.016482864 0.16791612 -0.15241161 0.14927617 0.17190716 -0.29145142 0.06537411 0.010220203 -0.0069381283 -0.010207377 0.0022047851 0.21712576 0.16210565 -0.123611845 0.26627266 0.024734218 -0.17104569 -0.3260291 0.024834234 0.021708405 0.03042772 0.2419417 -0.106075615 -0.07962482 -0.06824484 -0.018019898 -0.07688059 -0.20722294 0.14530645 -0.016187873 0.13593416 0.058955505 -0.036623597 -0.10117288 0.067745745 0.2298889 0.15621677 0.27884412 0.14201075 0.11109733 0.29819563 0.14336684 0.0923419 0.014155097 -0.17890333 0.2339005 -0.23078233 0.104412675 0.11852552 -0.035114937 0.18294507 -0.21607013 -0.033218514 -0.014514434 -0.105146386 0.10633327 -0.09951917 0.013113883 -0.03517666 0.115583494 0.10210598 0.037323117 0.051817577 0.038955156 -0.14192782
7 -0.017639488 0.10259122 -0.20463735 0.0073646707 0.15481822 0.14941597 -0.31695455 0.04429087 0.060883183 -0.014764582 -0.03950712 -0.1378021 0.0064424057 -0.21944053 0.10451635 0.35104144 0.2894978 0.14778575 0.1104271 0.16032505 0.04859291 0.16506912 0.05558659 -0.129622 0.06259224 0.1688752 -0.13292441 -0.20871708 -0.03580636 -0.06774236 0.22969708 -0.16131094 0.08069187 -0.056588747 -0.18311818 -0.15649833 0.1830814 0.098983884 0.14063208 0.1357417 -0.11051435 -0.045145314 0.015677718 0.1177297 0.005789302 0.048321668 -0.25036013 -0.115596935 -0.14741756 -0.03953126 0.03970277 0.04250432 -0.11706617 -0.099087544 0.08067036 -0.07537296 0.18333717 0.06612848 0.090965524 0.20268294 -0.0775926 0.17347272 0.04522014 0.020248737 -0.0689007 -0.059711926 -0.24832276 0.00089134625 0.05446836 -0.09118977 -0.18092078 -0.013019004 0.06380851 -0.24462837 -0.1741329 -0.067347385 -0.023274241 0.18202946 -0.14198554 0.08312191 -0.1410365 -0.16238907 -0.040347066 0.009033859 0.16324645 -0.100591786 -0.006473899 0.109164946 0.034199364 -0.12065524 -0.056372713 -0.22433873 -0.08288037 0.07638189 -0.07659906 0.036294416 0.13244799 0.22090235 -0.16740468 -0.06709221 0.09542011 0.14469722 0.06880053 0.11582921 0.2583935 0.11008951 0.25870678 0.284414 -0.027278583 0.13990542 0.07157995 -0.08232773 0.109413326 0.08306711 -0.1642077 0.24074554 -0.22456114 0.12205506 0.08487936 -0.0832779 0.003225676 0.19574688 0.23455264 -0.050455548 0.05091886 0.08821296 -0.07602193 -0.17073394
17 0.09870701 0.026129108 0.021444296 -0.061625943 -0.016789092 0.18211265 -0.18022761 0.08064567 -0.09900873 0.13654986 -0.114687756 0.02565447 -0.10841497 0.07666488 -0.25223744 0.03454267 0.26427928 0.0021415798 0.3270915 0.05532594 0.2510816 0.33877674 -0.005267026 -0.101788074 -0.12194324 -0.11166586 0.019967256 -0.24710885 0.03610488 -0.08401601 0.06543444 -0.06424689 -0.12166138 -0.063884415 -0.16367291 0.03184714 0.17284471 -0.01570578 -0.0994988 -0.032611158 -0.10900714 -0.07805071 -0.02490959 0.21935935 0.021418905 0.24325095 -0.19137119 0.03839726 0.028709615 0.028317945 0.014278953 0.027389955 0.10164717 -0.082126 0.10433342 -0.045862094 0.05679672 0.06853487 0.013442777 0.20575155 -0.14993525 -0.1270351 0.09678457 0.093209825 -0.015085114 -0.07950917 -0.048112478 0.15652472 -0.11569352 -0.10584111 -0.29950634 -0.038312368 0.04417553 -0.024085684 -0.14028513 0.088473655 0.004465216 0.17484748 0.0156248 0.17640743 -0.0997748 -0.072364934 -0.09040874 0.012262964 -0.083786815 -0.12598526 0.09869382 -0.090531036 0.04097904 -0.24497466 -0.28042477 0.020163136 -0.04866545 0.08973218 -0.008194321 0.11922261 0.008744243 0.16712318 0.037588082 0.08642076 0.19204234 0.040532697 -0.08173335 0.011391954 0.11768277 0.19191271 0.075642094 0.079839215 -0.14556824 -0.0016017203 0.09740591 0.14238334 -0.1165421 0.038243353 -0.1879767 0.076506525 -0.087301835 0.13941658 0.18536645 -0.18594198 0.1248826 0.17272721 0.21679305 -0.015425947 0.041132897 0.037739974 -0.055524934 0.003922826
20 -0.002434139 -0.11745053 0.07474757 0.115592614 0.0132167535 -0.053118996 -0.04422289 0.022651168 0.115452036 0.09669635 -0.05251713 0.09766572 -0.10993485 -0.020355549 -0.051123623 0.14415275 0.25726816 0.009227139 0.1254968 0.052968644 0.27419588 0.10387914 0.052151725 0.028898181 0.07618416 0.21239306 -0.09357302 -0.3468994 0.04009288 0.13289608 0.21495315 -0.2801403 -0.0995111 0.03275681 -0.7242694 -0.1475472 0.19909742 0.003826098 0.1290544 0.12923017 -0.2140568 0.050823458 -0.2158301 0.103605844 -0.091684684 0.003639522 -0.34857073 -0.016635036 0.0032498594 0.0069785947 -0.048773028 -0.0072760596 -0.057760004 -0.0027863742 0.031204551 -0.1766396 0.12297059 0.08766398 0.06918632 0.29920512 -0.2223406 -0.27981684 -0.2688711 0.16501504 -0.18141142 0.10703299 0.26456848 -0.06470007 -0.06043989 0.062079277 -0.24254757 0.11587595 -0.03118338 -0.1325713 -0.28550568 -0.0229654 0.054606628 0.22649626 0.048636448 0.19793805 -0.22804065 0.013639114 -0.07930397 -0.14455223 0.13174257 -0.053220287 -0.08018194 0.020900536 0.21627355 -0.083082065 -0.34628665 -0.19134308 0.18792757 0.25960487 0.17515506 0.13166401 -0.14594151 0.32788494 -0.2258758 0.12040304 0.12135772 0.14156675 -0.07068094 0.09183123 0.077650316 -0.08163196 0.32230455 -0.04816559 0.18025121 -0.004986197 -0.09134908 0.036053345 0.11213077 0.04195881 -0.06401235 -0.09087731 -0.10072311 -0.028149456 -0.15418287 0.030130401 0.13899355 -0.056608666 0.17319177 0.03000048 0.10544791 0.067647845 0.0057009174 -0.03141623
10 0.15744637 -0.04662121 0.21848291 0.0026223613 0.19202708 0.088554084 -0.23500031 0.19883431 -0.029504096 0.06327531 -0.2135649 -0.0010344178 -0.124913335 -0.10137448 -0.09267132 0.0693739 0.16657144 -0.040646188 -0.07865489 0.2489965 -0.06628239 -0.19491595 0.16119727 -0.06395046 -0.16286482 0.0666261 -0.07380694 -0.23490134 -0.17701204 0.16633604 0.104297765 -0.034192715 0.060874924 0.06136893 -0.1778192 -0.16780202 0.046962757 0.0070373355 -0.07732094 0.17959385 0.07372218 -0.25279114 -0.08916208 -0.017488873 -0.083527856 -0.22580557 -0.087400265 -0.05019519 -0.04481378 -0.056648497 0.084255874 0.17575595 0.14798799 -0.055632535 0.03392166 -0.013034145 0.15077709 -0.12837857 -0.24277902 0.05884571 0.042632286 -0.13551366 -0.031781364 -0.042941198 -0.05554671 -0.14434956 0.19371593 -0.061806608 -0.111091055 0.032202378 -0.20323175 -0.046533912 -0.09812521 -0.23379588 0.03837842 -0.16764137 -0.1126421 0.18409349 0.100171685 -0.07241006 -0.12213929 0.076929174 0.005342541 -0.005688264 0.07700014 -0.22621404 0.032706004 -0.024817728 -0.07451542 -0.10055227 -0.11965067 -0.05672236 -0.12293405 -0.13389818 0.023665505 -0.21415138 0.2563841 0.41697326 -0.047546186 -0.2508859 0.07485042 -0.066897035 0.18526882 0.14280908 -0.06862663 0.00945735 0.23523648 0.14237456 -0.05250096 -0.1958938 0.12044008 -0.06134056 -0.14812973 0.07260516 -0.012307342 0.041384265 -0.086775675 0.22928298 0.116002575 -0.019496799 0.018804293 -0.066878304 0.2722319 0.047671128 0.029739548 0.06970459 -0.26201865 0.045794107
9 -0.06467131 0.11774056 -0.16567382 0.19138017 -0.20057905 -0.06385162 -0.028903635 0.025559256 -0.12486097 0.02184074 0.1306068 0.0022118709 0.016880717 0.027535638 -0.04118477 0.14084266 0.018211214 -0.005914801 -0.035112604 0.38274494 0.16343053 0.13704623 0.08802877 -0.277772 -0.11632765 -0.11875777 0.045077182 -0.09950128 0.3045048 0.052664924 0.16442363 -0.33871365 0.04276674 0.37356973 -0.14472443 -0.1925894 0.085190386 -0.07915818 0.05486474 -0.09418866 0.098983675 -0.068695605 -0.04788754 -0.030139009 0.072240405 -0.034298614 -0.20639513 0.044738512 0.16829938 -0.2170817 0.07203208 -0.1971102 0.12788498 0.098499805 -0.09322925 -0.09605752 0.29601634 0.19906995 0.028952757 0.16346402 -0.0018045607 0.19298238 -0.06157089 -0.054965537 0.07692543 -0.20648101 0.10479857 0.039945804 -0.3018913 -0.020475524 -0.103759736 0.026921522 0.022206683 -0.029667227 0.010438862 0.0892317 0.18003385 0.29535532 -0.13504079 0.014684029 -0.03863041 -0.31663707 -0.28333884 -0.05716962 0.021866228 -0.3861547 -0.071464114 0.039812636 0.10626294 0.07450296 -0.025323274 -0.10405957 -0.21936406 0.111927055 -0.14520639 0.07324417 -0.018183397 0.090541214 0.09973486 0.07587242 0.37158594 0.020281693 0.012395379 0.14385964 0.14827897 -0.029928723 -0.05966062 0.37790316 -0.14677158 -0.20042141 -0.070699304 0.0017347462 -0.1941568 -0.045090295 -0.11965269 -0.048583705 -0.1508909 -0.05941596 -0.19946192 -0.11054698 -0.1371957 0.044231545 0.3355732 -0.0154680535 -0.09127406 -0.09692653 0.12218211 -0.03978182
11 0.010244591 0.20833418 0.038053025 -0.031172585 -0.06293744 0.18103714 -0.17623483 -0.023645828 -0.11543565 0.21953057 -0.0861946 -0.059673134 -0.04743628 -0.31910878 -0.019443765 0.10513293 0.12492399 0.13144396 0.23773326 -0.098494805 0.18021144 0.26754677 -0.043947306 -0.106093355 -0.08312271 0.12747084 -0.11908795 -0.1357741 0.030205263 0.09905217 0.0897182 0.13356218 -0.15134378 0.06676396 -0.14240256 0.030357802 0.23504113 -0.121286355 -0.17094629 -0.0009450313 -0.0315913 -0.16676225 0.0911474 0.1654295 0.15287755 -0.08549405 -0.17244932 0.05629063 -0.0653618 0.06570743 0.032695163 0.14547923 0.059284884 -0.08311916 0.3612573 -0.22454771 0.20421295 0.22595923 0.11131977 0.10604113 0.11302523 -0.36581737 -0.08179415 -0.29669183 -0.036492106 -0.3070774 0.20050015 -0.022418298 -0.043361556 -0.044225037 -0.38041255 0.12527561 -0.07241647 0.028976584 0.04580395 -0.1935835 -0.13147914 0.009762742 0.017076323 0.22407965 -0.060555696 -0.24041714 -0.120472655 0.20377317 0.12753706 -0.25017485 0.28111845 0.13284214 0.22788858 0.1866084 -0.22803399 -0.107322626 0.00067738554 0.14271742 -0.05536106 -0.046088573 0.15785281 0.030503305 -0.028286705 0.103185646 0.30418244 -0.1359404 0.043611836 -0.080603085 -0.016021715 0.15456621 0.33299392 -0.07665306 -0.02608203 -0.07418199 -0.013187356 -0.08981385 -0.09615508 0.16249861 -0.02802381 0.2759415 0.019047888 0.0026579108 0.010700692 -0.12732683 -0.055380937 0.15983072 0.1632215 -0.045240194 0.28731608 0.2468923 -0.06747726 0.010059183
4 -0.017641721 -0.037039377 0.09359648 -0.0750116 0.00922095 0.07113254 -0.15902896 0.11619015 -0.37630498 0.008924772 0.0028069366 0.19204149 -0.002040692 0.023862896 -0.18449183 0.044534862 0.029955786 0.050598744 0.19891088 0.09541808 -0.02573108 -0.028997198 0.06935695 0.09395653 0.05181356 0.1204028 0.07274878 -0.021977028 0.112701625 -0.05969565 0.07498332 -0.039622027 -0.10819845 0.052943036 -0.13152228 -0.23912078 0.2033451 -0.02914715 -0.11963464 0.05547296 -0.1486876 0.07623958 -0.3078005 -0.14421968 0.0026724753 0.17619777 -0.07271403 0.05196504 -0.0030385277 -0.16395815 0.14448786 0.013676182 0.21755187 0.06272972 -0.16146594 -0.048128534 0.12946263 -0.054683983 -0.18455072 0.13375898 0.1656329 -0.001909325 -0.1790487 -0.064940415 -0.044924404 -0.08248323 -0.04561377 -0.056466147 -0.18551631 -0.1980927 -0.042047024 -0.0793356 0.18721595 -0.29655266 0.15714282 0.07082796 0.26758763 0.20539035 -0.10716517 0.049376927 -0.25663194 0.118007936 0.012551582 0.22783908 -0.1284054 -0.004896653 0.13462064 -0.073269345 0.101035856 0.09704957 -0.21189424 0.11341701 -0.012914053 -0.071681306 -0.13212317 0.057640683 0.0720344 0.19376682 0.40580487 0.04700442 -0.022136934 -0.019427955 0.04679204 0.25018358 0.10047152 0.08834106 0.3300543 -0.08819962 -0.024014924 0.06799517 0.21030565 -0.036581844 0.043905016 0.11872709 0.09768894 0.00010567303 -0.17804256 -0.18148226 -0.0004616083 0.06392731 0.0138668725 -0.04450812 0.3148567 0.13590655 -0.11696146 0.14634529 0.07171999 -0.065444216
14 0.12634052 0.18600233 -0.12901497 -0.002302054 0.056765042 -0.06703079 -0.08593815 0.14919646 -0.16417195 0.024526848 0.0035932702 0.036196083 -0.20614438 0.30723056 -0.1253159 0.28262064 -0.00941618 0.049234893 0.22299828 0.12619825 0.19156961 0.13322845 0.043355852 -0.2482572 -0.0027020832 0.040023435 -0.07339635 -0.13616626 -0.040214878 -0.018784657 0.1859373 -0.06824139 -0.1217423 -0.017971024 -0.2885325 -0.18979917 0.26848358 -0.03666646 0.058817256 0.29064113 -0.021429902 -0.018857 -0.15897599 0.039344974 -0.24173182 0.09870479 -0.19705437 0.109784506 0.05705924 0.12689903 -0.073129885 0.06870168 -0.1295915 -0.16527483 0.03376057 -0.011469567 0.12733114 0.18160988 0.042671688 0.1680624 -0.11042366 -0.2591973 -0.059297632 -0.032294787 -0.13161679 -0.023833627 -0.22731069 0.10805679 -0.06567666 0.015776193 -0.08546061 0.12822618 -0.002755674 0.004523564 -0.24614233 -0.11738702 -0.0056377193 0.31524235 0.058732953 0.09439569 -0.13928944 -0.16267897 -0.03328881 0.01806257 0.09598283 -0.27308503 -0.047782015 -0.039726865 0.08571253 -0.050434973 -0.39383695 0.012052609 -0.025495723 0.12249031 -0.24442998 -0.1292299 0.20140593 0.12478649 -0.13248041 0.06636714 0.30312216 -0.09214315 -0.10844111 0.01881752 -0.2641441 -0.0010410638 -0.034070123 0.07283958 0.18216279 -0.05595465 0.09593332 -0.17167865 -0.054200817 0.022664204 -0.20187053 0.15758179 -0.06521932 -0.03620771 0.08133013 0.049133196 0.095123306 0.00015717922 0.18628609 0.016040193 0.17041029 0.024409048 -0.039897416 0.08082831
36 0.16801707 0.37215355 0.16790116 0.09864526 0.24958089 -0.10249035 -0.079354905 0.29469907 -0.13305545 0.015761787 0.0701429 -0.121280834 0.042975243 -0.1276696 0.019362193 -0.14824322 0.24324785 -0.04411709 -0.16374905 0.1033112 0.17030655 0.1258382 -0.022674723 -0.22265178 -0.03767924 -0.096480094 0.011316902 -0.1930673 0.094872214 -0.13276477 -0.07515372 0.13051206 0.008585179 0.16318639 -0.14039166 -0.13600765 0.024415687 -0.16872957 -0.03570969 -0.043511532 0.09863322 -0.13588719 0.08532151 0.1463952 -0.017415226 0.005746729 -0.22786869 -0.068771675 -0.03336054 -0.11042153 0.021656875 -0.29861733 0.30287227 0.1026965 0.18270037 0.03950906 0.2842639 0.14978968 -0.13388959 0.23402518 -0.0013045382 0.094053484 -0.020754782 -0.17591491 -0.008874091 -0.023393806 0.27552465 0.13874772 -0.20544304 -0.0638253 -0.20725684 0.35099006 0.1274771 -0.028287526 -0.15497512 0.05848608 0.03985896 0.41663525 -0.123501845 0.11833477 0.041978545 -0.08402496 -0.16783848 0.18032067 0.065711364 -0.16734768 -0.14072055 -0.009989371 -0.18352701 0.08010622 -0.25769547 -0.07045672 0.0022485494 -0.042306013 -0.0922979 0.13175577 0.07082827 0.18207237 0.015765239 -0.13400406 -0.013472883 -0.18142056 -0.10164642 0.09951987 -0.15020287 -0.06292804 0.38371378 -0.035284568 0.068877034 -0.06365143 0.14665869 0.12934503 -0.02178607 -0.08867146 -0.02393795 0.09164625 -0.26499015 0.0958956 0.17823285 -0.14128275 -0.37351525 -0.013838984 0.20046009 -0.16537774 0.07893632 0.15757464 0.024723565 0.12909643
16 -0.19269148 0.14645481 -0.14138079 0.058142934 0.1392237 0.043929555 -0.21159238 -0.122990996 -0.04821185 -0.027474616 0.08529269 0.04890609 -0.13706791 0.097598135 -0.025374668 0.01925933 0.1608668 0.1530836 0.17306636 0.059773095 0.08455376 0.1663833 0.035191517 -0.027716117 -0.094596714 -0.088929385 -0.027941959 -0.07484703 -0.10290618 -0.009811899 0.13953716 -0.1524785 0.055731405 -0.09045999 -0.14920758 -0.14609325 0.32200387 0.0604896 0.044502337 0.1689134 0.04793662 -0.101195775 -0.08417107 -0.0073954 -0.08575908 -0.010186538 -0.22550851 0.018692184 0.014937904 0.09172014 0.14237559 -0.07399047 0.18049745 -0.074170455 0.16375586 -0.031683385 -0.0014035287 -0.045101915 -0.06665784 0.13772821 0.0043453174 -0.10678232 -0.01041632 0.03758271 -0.139474 -0.112390995 -0.025917215 0.096553266 -0.15638575 -0.21131623 -0.036852837 -0.015278262 -0.009275784 -0.11179466 -0.103134856 -0.14861916 -0.029241914 0.27610114 -0.026638802 -0.011886783 -0.12550993 -0.12859258 -0.118264005 0.15680243 0.013596587 -0.02319781 0.0036525389 -0.12881851 -0.0504362 -0.10904102 -0.25521094 -0.09249227 -0.014772798 -0.025451548 -0.1130197 -0.092774175 0.08446459 0.22222078 0.08957778 0.034019504 0.07112081 -0.13986766 0.07144492 -0.067072816 0.059050206 -0.058352828 0.05040301 0.08845559 -0.07662655 -0.04672359 0.0385199 0.0248125 -0.11462955 -0.06179274 -0.07936791 0.11587432 -0.28791595 0.13910195 0.12773494 -0.058898084 0.045210652 0.18538527 0.09964724 0.10475991 -0.014781652 0.011697247 -0.06649074 0.023096334
13 -0.30826426 0.15647426 0.30216962 0.101081036 0.09148825 -0.17233416 -0.10245193 -0.22426893 -0.109147325 0.1521218 -0.027287293 0.27655703 0.086628154 -0.17416014 0.13554554 0.072179645 -0.2518558 0.21312696 -0.095331505 0.23403005 -0.1676457 -0.09518165 -0.03985609 -0.22161436 0.055783067 0.22094843 0.09678169 0.077689916 -0.0610427 0.022236118 0.24649078 -0.12032523 -0.023199433 -0.06113962 -0.03718058 -0.11371588 0.04603195 -0.104736075 -0.001611851 0.30835372 -0.18463211 0.07248306 0.18887532 -0.05455656 -0.04137585 0.44933093 0.042358637 -0.06974923 0.1360196 0.09913513 0.050750576 0.14660971 0.078170486 0.03490934 -0.092069015 -0.16165851 -0.019883154 0.077841565 -0.47620457 0.12753682 -0.17081152 -0.23930675 -0.108759224 -0.12248249 0.092674285 0.056021582 -0.120872185 0.041951578 0.07715478 0.13403022 -0.13972585 -0.16133627 0.016135998 -0.052460913 0.14518428 0.06005803 -0.23553635 -0.09874623 0.016756345 -0.11305968 -0.21628274 0.030868106 -0.13865505 0.0907052 -0.07090237 0.08964348 -0.021617033 0.115094334 -0.083189264 0.047504812 -0.107632525 0.039824624 0.021059647 0.20181692 -0.27010167 0.21004784 0.4141869 0.033715054 0.192638 0.031632278 -0.11669875 0.14885853 0.034324575 -0.015866324 -0.004429562 0.098248675 0.42503121 0.16688749 0.0938943 0.10160983 0.08039125 0.06322031 -0.040223595 -0.2389142 -0.033921342 0.050888024 -0.15071249 -0.16917063 0.07076402 0.009304811 -0.059197314 0.019801077 0.13382912 -0.038466584 0.11552821 -0.086606294 -0.3275287 0.220078
3 0.054931544 0.118927754 -0.02864562 -0.16578509 0.01528517 0.039123245 -0.22297214 0.2187356 -0.07891547 0.030827874 -0.08210135 0.11249643 -0.17058432 -0.09916285 0.05579852 0.049283873 0.02066742 -0.10251327 0.32687017 -0.15433493 -0.112571254 -0.106013015 0.0029440115 0.20056999 0.10590321 0.092033 -0.052634753 0.003335285 0.08118845 0.055149548 0.27102694 -0.2984775 -0.14433438 -0.20095551 -0.032804325 0.009176228 0.2150278 -0.0019764565 -0.046476785 0.058991384 -0.19691125 0.17316249 -0.107919194 -0.13116947 0.11837156 0.13058598 -0.06204094 -0.047172632 0.024277356 -0.022357294 -0.0089562 0.0010969061 0.07298843 -0.15552865 0.07238237 -0.088304825 0.4065764 0.03262108 -0.2940308 0.1679811 -0.30091885 0.0087916665 -0.08723857 -0.10660977 0.05419291 -0.2153378 0.17470182 0.09804502 -0.15134703 -0.114665225 -0.13675871 -0.043384682 -0.056868173 -0.18224378 0.25881353 0.18113758 -0.05985202 0.20345666 0.17783843 -0.123114236 -0.09837021 -0.040318284 -0.30650836 0.16892475 -0.21139973 -0.10314066 -0.00094501534 -0.076416865 0.10321349 0.10197308 -0.010289007 -0.036133453 -0.044049826 -0.05791163 0.085305244 0.097903244 0.13402379 0.16193184 0.10157246 0.05392612 -0.065926984 0.21501224 0.03594352 0.19413307 -0.10769141 0.33084378 0.08808652 0.16540623 0.11454218 -0.09619 0.23350354 0.013044834 -0.19395055 -0.026317932 0.15794308 -0.25835624 -0.2800438 -0.060208354 0.0067515713 0.018141078 0.1666655 -0.24987245 0.26008752 -0.042109136 -0.09810756 -0.19290742 -0.012643077 0.009154614
27 -0.0008752082 0.25040996 -0.15216766 -0.02535906 0.097559325 0.06697825 0.032598976 0.037116293 -0.06984473 0.07578416 0.01692002 -0.095674954 -0.051604256 0.028265094 0.040488277 0.087189645 0.142401 0.029202253 0.30399486 0.25547847 0.30253723 0.12596177 0.120293476 -0.21921262 -0.060363945 0.050268125 -0.006279026 -0.14538227 -0.13701376 0.040245116 0.093858615 0.019898163 -0.024827773 -0.11486604 -0.2212884 -0.06897007 -0.019039903 0.035123527 -0.0729231 0.16878444 -0.031018194 -0.21323667 -0.12331348 0.06199348 -0.09139028 0.040257894 -0.38136917 0.066114224 0.036545724 0.0040416955 0.3186889 0.017157827 -0.07597625 -0.06848932 0.11203101 0.009218362 0.020279441 0.018154565 0.108078085 0.1028845 -0.09970175 -0.23580585 -0.16951537 0.061689988 -0.071857765 0.13960052 -0.14272675 0.1453542 0.034515508 -0.09385598 -0.21162961 0.009179798 -0.0075377515 -0.04898657 0.074841484 0.10827144 -0.029806335 0.090812586 -0.007102621 0.034507934 -0.06141319 -0.2472983 -0.31190595 0.048568938 0.041992072 -0.30017304 0.16292934 0.002640305 0.04770191 -0.11146499 -0.29181507 -0.22512253 0.014260948 -0.015663175 -0.1730599 0.12136838 0.06638319 0.13034917 0.22111975 0.108305074 0.20819992 -0.09025873 -0.06649848 0.14429604 -0.05313605 -0.10118231 0.18076399 -0.1469976 0.1553133 0.0440891 0.03706789 -0.078441404 -0.12680492 0.05776876 -0.19607522 0.012042121 -0.11557345 0.02770479 0.06721827 -0.051195186 -0.09148266 0.19077422 0.17528884 0.07728958 -0.042963672 0.13000657 -0.19806123 0.03611178
8 -0.062386442 0.0048834123 0.06283344 0.13273124 0.09731037 -0.18831988 0.014832977 0.15582158 0.01766139 -0.10248789 0.06665122 0.08101648 -0.09393049 -0.08994764 -0.107613094 0.1691619 0.048691686 0.04821171 0.2699439 0.059225313 -0.07760518 0.04571644 0.24968152 -0.058818985 -0.13381606 0.24684201 -0.095828675 0.020729933 0.08441677 0.16769283 0.07335831 -0.17986745 -0.081792094 -0.14180782 -0.17254682 -0.15788843 0.1733242 -0.034039337 0.048295435 0.071815185 -0.03615761 0.09656967 0.03931288 -0.113962345 -0.061473455 0.070371054 0.03086357 0.17174253 -0.10981455 -0.11962937 0.094528645 0.026830025 0.12847617 -0.06263437 -0.036441274 -0.099493735 0.20095004 0.11719391 -0.28990835 0.0022090357 -0.0821562 -0.05371403 -0.07166757 0.022085143 0.0135929175 -0.090621725 -0.04141544 -0.033573523 -0.08648413 -0.01016386 -0.04744471 0.035531342 -0.09088267 -0.0026860388 0.0026287907 -0.07602081 -0.15391548 0.19199799 -0.032188106 0.08193601 -0.05932791 0.05791174 -0.2516798 -0.050313648 -0.063992314 -0.1704897 0.14086159 0.014678713 -0.053776205 -0.07824535 -0.25472134 0.049135465 -0.11949937 -0.0071861125 -0.10899058 -0.027231468 0.07486206 0.19740108 0.18636513 0.202999 0.20991446 0.06477675 -0.021099782 0.13775848 0.06145043 0.04993102 0.1246241 -0.038439393 -0.06803654 -0.07528221 0.064257525 0.034862872 -0.08384325 0.12194248 -0.09679837 -0.03851719 -0.12903295 0.04705148 0.21662201 -0.032159857 -0.077772684 0.13282241 0.2698497 0.03812245 -0.09213236 0.04334605 -0.07819743 -0.042712405
21 0.080416374 -0.00040019496 -0.08794655 -0.077934615 0.17200467 -0.13027874 -0.087628104 -0.029394181 -0.13698812 0.028276386 -0.011927336 0.14343621 -0.06427078 -0.021318644 -0.097564675 0.12267763 -0.10530725 0.057472937 0.21342914 0.13631248 0.3615348 0.1161392 0.16249277 -0.27478004 -0.29257685 -0.011349889 -0.065212525 -0.006386438 0.030119574 -0.080566816 0.17350541 -0.16490102 -0.13192245 0.21298607 -0.30533037 -0.1316392 0.09568822 0.065617874 -0.032012094 0.08179266 -0.026073677 -0.1579654 -0.30517408 -0.052658956 0.021249522 0.041499995 -0.15032773 0.19632971 -0.02935132 -0.021764807 0.022218302 0.045697134 -0.0068207798 0.051219687 0.15174402 0.19304383 0.19496146 0.21476595 0.07324566 0.39067817 -0.06252847 -0.048906215 -0.037351094 -0.007820715 -0.03645665 -0.017571712 -0.0802508 0.14400932 -0.10376781 -0.014654268 0.0086078085 0.14617711 0.024390481 -0.070306875 0.033027556 -0.06697857 -0.016861362 0.13342237 -0.032544505 0.114476174 -0.121604 0.012080721 -0.24462807 -0.007723586 -0.011639685 -0.13837959 0.17382088 -0.24602142 0.018534457 0.004178536 -0.28441453 -0.17328092 -0.07859951 -0.018687457 -0.037379455 -0.09948765 0.053063303 0.16751558 0.08912097 -0.003532259 0.12489516 0.0016781498 0.12476712 0.10359075 -0.027167633 0.18251008 0.024496127 -0.13976645 0.13457462 0.2201308 -4.969151e-05 -0.0423198 -0.16713488 0.048151217 0.058511157 -0.028440535 -0.042952146 0.29684424 0.06398058 -0.034903634 0.079570495 0.19101873 0.14689006 -0.14776927 -0.046598133 0.023005655 -0.061666127 0.03451743
18 0.062680796 0.11328735 -0.04758365 0.027565712 0.012676092 -0.0023382246 -0.20260759 0.1759932 -0.053088337 -0.022827048 -0.09474004 0.15966135 -0.14543596 0.13916525 -0.11449278 0.18568838 0.04748351 0.069974154 0.09342864 0.19726697 0.12045621 -0.014441551 -0.020738896 -0.1982979 -0.10919911 0.12892574 0.025821188 -0.048989195 -0.10459038 -0.08164435 0.14103338 -0.060089998 -0.23365587 0.13190266 -0.13876106 -0.054687284 0.18671107 0.08029817 0.06779117 -0.04398187 -0.0013679455 0.037911132 -0.14594911 0.084172145 -0.00672188 0.11530582 -0.106202565 0.084247164 -0.106796116 0.02996384 0.13037997 -0.11516743 0.25319648 -0.13330512 0.20782888 -0.08652408 0.17185162 0.09353777 -0.043175526 0.26064944 0.039245702 -0.08220779 -0.024268001 -0.030556506 -0.07262634 0.09508427 0.059572503 0.09426831 -0.17155889 -0.32977033 -0.09421933 0.12483244 0.013506985 -0.14936437 0.08727362 -0.067430995 0.037299626 0.24878255 -0.060476106 0.111357994 0.033955492 0.08949358 -0.14138259 0.24127854 0.080296814 -0.117019095 0.13326 -0.14097813 -0.004843335 -0.011760474 -0.29711217 -0.07131071 0.13044217 0.07313414 0.08386745 0.09519421 0.1204823 0.13303268 0.16028541 0.23453446 0.24882053 -0.14116086 0.030990023 0.04114686 0.1032173 0.19498928 -0.094394915 0.034841526 0.06284371 0.005448817 0.025043065 0.11492703 0.08390066 0.2310408 -0.267451 0.033453353 -0.0029246665 0.1538989 -0.04334109 -0.059829745 -0.12564151 0.15478629 0.009757089 0.12664486 0.08870236 0.12642588 -0.25351754 0.04598341
19 0.028632378 0.07291397 -0.22830379 0.024720203 -0.009505671 0.04700811 -0.17454523 -0.0727048 -0.25146672 -0.09847604 -0.035503317 0.3209814 -0.18300173 -0.056448635 -0.115130536 0.13266777 0.17571057 0.18159695 0.13950261 0.11052795 0.10543278 0.0077044666 -0.16757633 -0.052348826 -0.064004175 0.15005206 -0.26034304 -0.046942003 -0.062889196 -0.094982974 0.072799444 0.16807123 0.028513195 -0.054073233 -0.25913185 -0.15069322 0.3363426 -0.12774104 0.2140854 0.24313334 0.034355942 -0.036772992 -0.18879782 -0.028511973 -0.071300104 0.10253334 -0.12172181 0.19065377 0.04140799 -0.110821925 0.11684168 0.0568512 0.054006994 -0.012898351 0.003539392 -0.021909503 0.28059566 0.09564316 -0.09269578 0.38106474 0.007960114 0.052045643 -0.045695696 -0.2875571 0.08763742 -0.09066861 -0.0703329 0.11514037 0.1279791 0.023258641 -0.030495113 -0.19257027 0.00726038 0.06516256 -0.0066998224 -0.12629056 -0.025863765 0.20403385 0.04354144 0.070147 -0.020543309 -0.12214431 -0.12721373 0.05175697 -0.10579574 -0.2785899 0.123053506 0.11205634 -0.021036632 -0.08058055 -0.42467508 -0.07533939 0.017300602 -0.035102077 -0.26502845 -0.024965147 0.01370355 0.16766386 -0.2962046 0.07259957 0.15048654 0.01029688 0.03969901 -0.04170513 -0.02568645 0.13758105 0.083948575 -0.11959252 0.1987664 0.09944341 0.021761075 -0.040027436 -0.014579142 0.024682423 -0.04135944 0.04187257 -0.30253956 0.09569911 0.04396028 0.03281411 -0.02496775 0.28764668 0.10066314 0.13673213 0.027026225 -0.11612919 -0.16080159 0.07647069
32 0.23502223 -0.079984985 0.106067725 0.049693506 0.17110233 0.13742116 -0.16181 -0.091096364 -0.19308855 -0.05267892 -0.17061315 0.17012934 -0.18253605 0.09490502 -0.052242395 0.14144424 -0.056897532 0.09783546 0.0034016315 0.079240926 -0.107777484 0.36090794 0.18388739 -0.09454607 -0.23570193 0.22415143 -0.04097566 0.0706802 0.083568186 0.28817242 0.14796457 -0.14886837 -0.03338665 0.18633984 -0.030116664 -0.071434595 0.11969499 -0.25711226 -0.10693673 0.08786193 -0.036976956 -0.04173172 -0.095905825 -0.022099301 0.021162204 -0.07005383 -0.324227 -0.05540138 0.17389403 -0.01631591 -0.0009068881 -0.1334711 0.08385271 0.058645934 0.16120075 0.02731073 -0.16406049 0.0014870907 -0.13984106 0.23961174 0.00836593 -0.18929042 0.017623778 -0.1922277 0.20562366 -0.08616285 0.14603375 0.08779314 -0.1181969 0.070495315 -0.04989744 0.1516557 -0.013126857 -0.008542773 -0.00662383 0.11837018 0.31780818 0.070510834 0.06847533 -0.027649976 -0.018136155 -0.27724195 -0.22453612 0.072537534 0.008522482 -0.16638868 0.16945973 -0.051618025 5.0029514e-05 -0.017176222 -0.21700995 0.035244007 -0.19222914 0.021848409 0.03150633 0.32880858 0.067657135 0.092740834 -0.023085311 0.033124436 0.25833416 0.10442784 0.051611207 0.040945522 -0.040094033 0.13798578 0.19688499 0.13816524 -0.09980215 -0.05056752 0.035099357 -0.03875875 0.14920972 -0.11054079 -0.19299327 -0.051129136 -0.035648264 0.0916403 0.2829817 -0.056185298 -0.02842883 0.27061522 0.34190845 0.00950631 0.032950297 -0.028555661 0.07707682 -0.012103728
15 0.26856425 0.22707136 -0.1654344 0.027749462 0.1282165 0.020935645 -0.15158084 -0.029679103 -0.24977708 -0.13185175 -0.044978913 0.19929734 -0.14104436 0.104838274 -0.084578864 0.120438844 0.06690231 0.11250171 0.16409664 0.04740271 0.21686889 0.3900512 0.09577502 0.00912382 -0.0037126385 -0.03421181 -0.18508646 -0.27535486 -0.13308924 0.07052042 0.17156722 -0.0041936226 0.03135724 -0.14887287 -0.055659596 -0.13606425 0.4230132 0.032620467 0.07813168 0.20983692 -0.05334938 -0.03385172 -0.09458994 0.0036469712 0.014069537 -0.08305567 -0.14293696 0.14463316 0.157052 0.041224785 0.18736681 0.019891141 0.022646232 -0.06304762 0.18607913 -0.08073392 0.32713026 -0.04187524 0.10310545 0.103689134 -0.025459953 -0.07459491 -0.023618488 -0.15344974 -0.23815596 -0.13467021 -0.07492008 0.036107853 -0.0739795 -0.001496528 -0.16131912 0.008978536 0.033708792 0.10056292 0.07498879 0.14510967 0.025303474 0.28412193 -0.01650116 0.08362679 -0.16487548 -0.14238755 -0.11152193 0.06153554 0.09074327 -0.08200038 0.14026937 -0.19045228 -0.065770954 0.10497238 -0.32857475 -0.19966039 -0.15054922 -0.061749432 -0.07746332 -0.064794905 0.011796045 0.076652996 -0.07627374 0.07537078 0.23093958 -0.08024711 0.07389824 -0.041629333 -0.20212387 0.06199217 0.035158128 -0.06401827 0.101595215 -0.012283976 0.13326013 -0.14609459 -0.03374666 0.09943071 -0.2106428 0.11891405 -0.20805946 0.14443438 0.18271507 0.08828848 0.037559558 0.12670131 0.053330224 0.015232882 0.09134156 0.17391562 -0.2204054 -0.09729713
22 -0.08629157 -0.056224637 -0.085511774 0.20709845 0.1172257 -0.06975878 -7.945996e-05 0.014592243 0.010252358 -0.0742557 -0.038098853 -0.040812004 -0.17393102 -0.18430682 -0.02996037 0.16211519 0.061263777 0.062261473 -0.045214538 -0.013630362 0.00042034904 -0.08883313 0.20956764 0.063638054 -0.38964525 -0.12653406 0.09464697 0.12460394 0.2315182 -0.1117821 0.07845276 0.019617766 -0.038357902 -0.19839048 -0.17672847 0.035081435 0.10267204 -0.22685304 -0.047968894 0.25039527 0.0341905 0.064659655 0.21012503 -0.2985278 0.102949716 0.18624444 0.003401389 0.23816377 -0.10216453 -0.07708748 0.01069791 0.11656011 0.2968259 0.038186364 -0.08694491 -0.07591431 0.22459568 0.21235014 -0.26130444 0.20337018 -0.120417826 0.013308515 -0.18773372 -0.016426431 0.013264218 -0.06676086 0.016008088 -0.045219377 -0.15489966 0.13103274 0.06890823 0.0157493 0.14958319 -0.2857279 0.050814364 0.10830714 -0.31596512 0.04754289 -0.09611819 -0.3823067 -0.23703673 -0.23322338 -0.26669496 0.026328852 -0.10390195 -0.27209017 0.07465591 -0.14859691 -0.149928 -0.04435357 0.053970266 -0.05373401 -0.11171947 0.16922174 -0.10275284 0.03520859 0.155006 -0.015798977 0.28244764 0.16497782 0.026001932 0.10175883 -0.030634947 0.30166283 -0.018388517 0.20068799 0.11779661 -0.013880813 -0.018046055 -0.019097105 0.2057065 -0.07158328 -0.00064340676 0.059004955 0.024610646 0.09527441 -0.12868105 -0.049503323 0.05860773 -0.15200102 0.11480292 0.103265814 -0.03625961 0.022036148 -0.065289035 0.19494121 -0.12914278 0.06329704
37 0.0029917916 0.10034377 -0.17249878 -0.106229566 -0.009206007 -0.040209435 -0.124436945 0.020435793 -0.09725764 0.17748135 0.038247842 0.08097371 0.00821766 0.0256845 -0.08622731 0.19561033 0.26358977 -0.0034352534 0.28781933 0.14344509 0.13875066 0.12252737 0.19083612 -0.103932306 -0.21652421 0.054966748 -0.07535041 -0.035109695 -0.12659976 -0.12555853 0.14102241 -0.05839275 0.08520172 0.046566617 -0.16765244 -0.12072395 0.3000246 0.122053415 -0.029615425 -0.022303618 -0.046800144 -0.1403184 -0.19611442 0.028505957 -0.05391927 0.18261415 -0.094361626 0.1259603 -0.033719856 0.08408972 0.04494076 -0.06995421 0.11197454 -0.23124485 0.23413439 0.10609175 0.043097906 0.00911349 0.0006077362 0.15162455 0.052412916 -0.0062124347 -0.06679822 -0.100671925 -0.08544283 -0.1799981 -0.061648194 0.33267742 -0.0060873376 -0.11094172 -0.09818358 0.020722216 -0.20405559 -0.14381944 -0.04111707 0.020731656 -0.047588035 0.18433543 -0.059752848 0.2185615 -0.15778449 -0.20523593 -0.24481592 0.07210514 0.15034236 -0.20193973 0.032282934 0.0050891764 0.014170679 0.021412943 -0.24374568 -0.018762633 -0.06810327 0.24606358 0.065303646 0.014354517 -0.08149664 0.1984451 -0.06555234 0.028940905 -0.11801728 0.23725505 0.05583145 -0.016437294 0.0639335 0.07327901 0.1244532 -0.056149617 0.11611089 0.053012315 0.024743352 -0.07170797 0.049848773 0.12198722 -0.08445985 0.11360957 -0.18912885 0.007654365 0.0683231 -0.021815693 -0.09199915 0.113522306 0.21220489 0.06631323 0.0796493 0.033735793 -0.28159177 0.044849858
12 0.1015201 0.14097364 0.14128672 -0.07119318 0.16904266 -0.10363356 -0.24124053 0.020422801 -0.19234364 0.2172573 0.09250154 0.22665058 0.21578097 0.017637959 -0.09862015 -0.047022697 0.23877604 -0.18077004 0.06329527 0.034698498 0.0685742 0.017899537 -0.033609852 0.10473803 -0.080047 -0.0022645656 -0.0152499555 -0.1612543 -0.11408355 -0.06664321 0.011604979 -0.2209297 -0.13965914 -0.123672344 -0.18264508 -0.0348593 0.1393176 -0.010190551 -0.2053869 0.24482083 -0.0826964 0.19295844 -0.07559688 -0.21997999 -0.04408533 0.33308232 -0.08585281 -0.082721844 -0.11119836 -0.19605643 0.10904705 0.12680648 0.20280536 -0.14997116 0.01265138 0.10161832 0.2646472 0.21159796 -0.22598293 0.074624665 -0.09613215 0.023394397 -0.23895745 0.06377846 -0.21866335 -0.12979092 0.087530114 0.17354913 -0.12551408 0.066381276 -0.17176245 0.14696655 -0.06802698 -0.14157975 0.2663091 0.2190544 0.023001786 0.36393946 -0.010152804 -0.034726825 0.002476639 -0.08535984 -0.13545838 0.1456937 0.0013866643 -0.12220629 0.10123521 0.14534399 -0.0530762 0.16402432 0.04757232 0.031333126 -0.19996144 -0.03756023 -0.12834698 0.2795326 0.28056625 0.020759286 -0.12425873 0.09311981 -0.15170273 0.25512844 -0.11469975 0.00091005414 -0.16647346 0.039289754 -0.010723552 0.07791025 -0.10954661 0.018021837 -0.126126 -0.083240286 -0.2657901 0.12742749 0.0957714 -0.021573288 -0.26740855 -0.23908342 -0.09834174 -0.19000153 0.13809994 -0.0029097386 0.067962885 -0.031878192 0.20273498 0.013172276 0.0020862985 -0.010432997
25 0.12067765 0.09505348 -0.14809188 0.06492432 0.09440882 0.055397525 -0.133746 0.05127237 -0.09817398 0.145777 0.055296056 0.12352094 -0.04579381 0.1896515 -0.21003455 0.13193364 0.041270547 0.112288445 0.02880515 0.052202508 0.26125905 0.15447426 0.15851606 -0.26614562 -0.22561862 0.010088673 -0.053919308 0.042308062 -0.04584316 0.03223511 0.08656722 -0.07971674 0.14417648 0.10942601 -0.42007622 -0.057594944 0.32803252 0.048848078 -0.05740721 0.113101855 0.23932229 -0.057604536 -0.19491334 0.07554675 0.021479633 0.054726906 -0.12523659 0.14873564 0.0735576 -0.009799807 0.066505976 0.1224859 0.012808673 0.0027629691 0.2166611 0.016035294 0.041274197 0.07957807 -0.0014934655 0.17910898 0.07211009 -0.3856348 0.05367054 -0.14699396 0.030822147 -0.104600996 -0.19306551 -0.02150028 -0.045185227 -0.01646638 -0.13691688 0.110597074 0.0071608243 -0.12101883 -0.036247827 -0.08235647 0.048628822 0.32655376 0.025900574 0.09925134 -0.0935778 -0.0380731 -0.2745577 0.31238344 0.16192032 -0.14345767 -0.0060300897 -0.07718267 0.044127367 0.09608786 -0.20672995 -0.068266764 -0.10990452 0.06654176 0.079671144 0.045723498 0.16078514 0.06748655 -0.020879792 0.0026371635 0.05623859 -0.15472642 0.0626995 0.073532864 0.007237261 0.0065882155 0.20533602 -0.1423234 -0.03346493 -0.008321076 0.06673258 -0.031102262 -0.024303362 -0.011106945 -0.11058127 0.11817887 -0.14986128 0.16181558 0.14625603 0.20010474 0.015844386 -0.0112578105 0.12684898 0.015110038 -0.009410189 -0.15573779 -0.15863906 0.036822997
23 0.0096674515 0.13726892 0.2002336 -0.10195538 -0.07493134 0.051753007 -0.1319233 0.08529417 -0.1740628 -0.05939538 0.08125501 0.1647713 -0.017489027 -0.24199109 -0.09067958 0.0536861 0.1718377 0.07826305 0.17944379 0.2486009 0.18981807 0.18406361 -0.1275796 0.004911161 -0.1288567 0.06785136 -0.14248651 -0.10106534 0.017262848 0.023685085 0.030236268 -0.09323659 -0.021451969 0.27124834 -0.047208287 -0.012072352 0.25158697 0.060479812 0.001213371 -0.037017908 -0.1147935 0.18357104 -0.15083742 -0.011251311 0.061355803 0.090499915 -0.38991484 -0.03480878 0.23009384 0.10789638 -0.046609726 -0.047434818 0.2501343 -0.03573054 0.045464575 0.0707997 0.09997336 0.017267773 -0.1579567 0.3156123 -0.035128154 0.20451653 -0.14448604 -0.05099098 -0.13002245 -0.0487013 -0.1786573 -0.036674846 0.010722597 -0.10735969 -0.13757 0.14276183 0.05704501 0.036920678 -0.14655359 0.17727664 -0.0027997366 0.3583118 0.055759765 0.13543983 -0.11044284 0.012550077 -0.2314535 0.028209653 -0.10818977 -0.10702182 0.086424164 0.0929224 0.03291448 -0.154408 -0.027397202 -0.035920274 0.056687314 0.042294215 -0.077962466 -0.008776385 0.08645315 0.14095801 0.056103136 0.09029573 0.23691535 0.022332737 0.19394742 -0.009389199 0.11721996 0.0077654193 0.08987092 0.0832603 -0.3088836 -0.060168408 0.032460544 0.2518065 0.018621778 0.11701781 -0.08814703 0.018741192 -0.24225621 0.16973335 0.14831631 -0.15870823 0.09760678 0.11479571 0.16008836 -0.19591628 -0.020697063 0.048512954 -0.11719421 0.11923698
24 0.11919377 0.14527895 -0.026347592 0.07230196 0.056372665 -0.005140172 -0.20538665 0.076581016 -0.079676546 0.020833584 -0.12826853 0.05336785 -0.27192354 0.09891206 -0.06835902 0.025628095 0.15436707 0.036495235 0.19827266 0.2697858 0.23776962 0.07466891 0.1707732 -0.13562435 -0.09556085 -0.056189306 -0.22578984 -0.09715784 0.06622387 -0.07878388 0.17323108 -0.14373344 -0.09401454 0.16712368 -0.07340661 -0.10439025 0.28548628 0.028691215 -0.11866154 -0.022830307 -0.03961657 0.015010883 0.022302607 0.12845664 -0.117478885 0.18252969 -0.10194332 0.039226316 -0.053209268 -0.019993585 0.106066115 -0.100190744 0.35823363 -0.018736668 0.21496667 -0.029264417 0.042844146 0.005009823 -0.12065852 0.24916078 0.10345153 -0.005981111 -0.030707076 -0.0506734 -0.19867454 -0.019596523 0.200014 0.052373283 -0.14897856 -0.26591069 0.0054289163 -0.028381525 -0.17728558 -0.09712971 0.048497703 0.09144022 -0.04423373 0.021086415 0.09646153 0.13132907 0.12642963 0.046998095 -0.19611506 0.019000899 0.0955921 -0.010028958 0.14562412 -0.0042021354 -0.14482008 0.07035955 -0.31914872 -0.079768166 0.067379996 -0.06206814 -0.09523567 0.15338507 0.08234762 0.0019174814 0.14924744 0.2734406 0.13276692 -0.078232475 0.012156124 0.16138978 -0.11128557 0.067928314 0.08545184 0.021444587 -0.056755006 0.13794278 -0.032206085 0.14824943 -0.15316078 0.2638468 -0.10572495 0.0873253 -0.14288764 0.14437436 0.1770171 -0.1303921 -0.00869104 0.1479098 0.0108649125 0.081594735 -0.015234903 0.2106255 -0.16511595 0.09828609
51 0.09214626 0.044769432 0.20850085 0.035168335 0.07576457 -0.05412633 -0.20292969 0.10465812 -0.028936146 -0.031626172 0.008603101 0.117643386 -0.2823629 0.016779551 -0.30725056 0.15891951 0.3518473 0.15201992 -0.022774793 0.016294405 0.03914778 0.41457987 0.0070686317 -0.06786759 0.1867302 0.109742366 0.007100698 0.16875324 -0.013613543 -0.05171378 0.26312545 -0.18720679 0.017720543 0.042602904 -0.17358501 -0.09327905 0.23390397 0.04768778 -0.15565945 0.11066779 -0.11382543 -0.06364827 0.11649285 0.08721051 0.2166991 -0.12519646 -0.28489345 -0.15075386 -0.16979596 -0.020574013 -0.08713368 0.048398744 0.074474744 0.07909381 0.11955721 -0.12418922 0.12118712 0.023800308 -0.12352257 0.16125399 0.15455286 0.039253168 -0.0064635733 -0.09139557 -0.123005055 0.098612934 -0.09539737 0.2838885 0.17920989 -0.11869277 -0.29447252 0.11784778 -0.009629547 -0.07772691 0.009584323 0.08501989 0.07149608 0.37458155 -0.19944082 0.20074615 0.08557826 0.013088815 -0.1714049 0.08463207 -0.01914475 -0.085467346 0.1107747 0.0822946 0.12802108 -0.21360312 -0.061921593 -0.22485343 0.055624332 -0.110406354 -0.08613853 0.04468168 -0.068894155 0.20657715 -0.044905346 0.17480348 0.097744435 0.1805129 0.0020402276 0.10875315 0.16400214 0.022635283 0.14937997 0.002819836 0.0008059063 0.10275586 -0.058402512 0.105136625 0.057235524 0.24578108 -0.16926381 0.08222551 -0.1574433 0.2960354 0.13907231 -0.05012911 0.09080325 0.08865527 -0.01950497 0.06129822 0.12338386 0.020532567 -0.013907693 0.2894206
40 -0.11339181 0.124361075 -0.05612598 0.034675848 0.03569295 0.031376224 -0.27490184 0.09512181 -0.109060265 -0.11456138 -0.088397235 0.12772806 -0.10046843 -0.1743716 -0.099856086 0.022723228 0.07126754 -0.04381012 0.027522536 0.112391494 0.07583201 0.3093166 0.21148291 -0.023745699 -0.09026831 -0.07759883 -0.17084207 -0.11490024 -0.019072076 -0.06800278 0.10312488 -0.034175493 -0.19570825 0.16640683 -0.25961387 -0.26297528 0.07878748 0.15450667 0.16078018 0.07184083 0.14987195 -0.015990475 -0.20060875 0.121257246 -0.068630405 0.02170419 -0.13391033 0.036209844 0.039120816 -0.1427332 0.018605761 0.06338624 0.1747464 -0.2184323 0.034162108 -0.027455643 -0.08349363 0.2635128 -0.044340085 0.13416885 0.23144293 -0.07865511 0.0032469674 -0.13210328 -0.037132867 -0.13460517 0.00945404 0.09733541 -0.18712373 -0.06703006 0.014420164 0.021728756 -0.055227578 -0.10805331 0.15799786 -0.085715406 0.079670906 0.16572706 0.026705503 0.17112723 -0.06463063 -0.17170401 -0.3231717 -0.015299184 -0.052541386 -0.08946101 0.17506267 -0.0112172 -0.04207335 -0.09430147 -0.15829208 -0.11173401 0.14828818 -0.12982881 -0.013615445 -0.011773822 -0.10825693 0.083329864 0.23956205 0.09444006 0.067307785 0.05091473 0.079110935 0.19629028 -0.14164945 0.13556878 0.15100694 0.013902563 0.08981715 -0.10211166 -0.0853606 0.13130482 0.04233568 -0.041992385 -0.18947145 0.03362536 -0.15113467 0.02693282 0.15071473 -0.12024574 0.00081356784 0.1388922 0.29495654 -0.056621384 0.08028845 0.09447283 0.024132414 0.029466735
253 0.0021241175 0.27420735 0.31256297 0.32497716 -0.19899036 -0.107138805 -0.23036164 -0.051178925 0.06730372 0.114633165 0.16156442 0.26541573 -0.24179272 0.25620115 -0.21752185 -0.2692672 -0.025520116 0.1545912 0.1315166 0.1638249 -0.18340929 -0.036285203 0.06741922 -0.16131243 0.17036305 0.074621536 0.0018278683 0.23658668 -0.0494174 0.22843134 0.008274338 -0.25396258 0.02191638 -0.1414915 -0.056821235 -0.37915537 0.23722789 -0.26774716 -0.21103327 -0.036800176 -0.065749854 -0.013823202 0.010857298 -0.048094776 0.19717851 -0.030000893 -0.11053879 0.04405287 -0.07671031 -0.24182774 0.0034983566 0.12129531 0.1719266 0.088084415 0.046086565 0.17613627 -0.26396823 0.16815436 -0.19830874 0.20496242 -0.24485365 0.11274396 -0.19607475 0.24117334 -0.020655485 -0.120449066 0.0021333788 0.044391543 -0.14146098 0.14999509 0.110566095 -0.35033605 0.22856288 -0.09642362 -0.03385648 0.07501114 -0.11735898 0.33014914 -0.095897995 -0.031375255 -0.28364572 -0.18303289 -0.018025449 0.07026664 0.06972716 -0.16166507 0.04789275 0.22390132 0.07633325 0.4027599 0.0842183 0.0019421072 0.16806312 -0.16145872 -0.40170443 0.046529062 0.21940029 0.11900991 0.28949016 0.042736415 0.23080032 0.043664016 -0.1998527 0.048093848 0.19063237 -0.2059958 0.24481167 -0.047699396 0.16712357 0.0027640068 0.06990191 -0.07617194 0.14276168 0.06101543 -0.062379245 0.034780186 0.047828615 0.06554586 -0.026063267 -0.23759869 0.18805622 0.17528692 -0.040772356 -0.012184417 0.04058408 0.29436284 -0.24286467 0.14492904
55 -0.033612642 -0.040991966 0.12820445 0.30064836 0.23701778 -0.3165305 -0.29411796 -0.31687737 -0.0058498573 0.16544455 -0.03933804 0.102369115 0.24367289 -0.16878372 0.016784823 0.0023911835 0.0865085 0.031001763 0.119292475 -0.05895778 0.10368401 0.11248234 -0.18772052 -0.14637978 0.05427224 -0.02964358 0.07800938 -0.064563364 0.04061954 -0.11394178 0.14377484 0.1371516 0.1506414 0.045721896 -0.0299039 0.2193791 -0.16421844 -0.0011273886 -0.08451369 -0.22528243 -0.20710932 -0.013142107 0.12825185 0.019456144 0.11205736 0.07944169 -0.16229244 0.18178277 -0.029522588 0.12520477 0.1708987 0.04046548 0.02439047 -0.23950309 0.03737902 0.11419972 0.22162074 -0.16868494 -0.2845947 -0.15203235 -0.17110069 -0.013712612 -0.32441196 0.10455675 -0.03834398 -0.09648482 -0.07677922 0.37245202 -0.4864789 0.11081123 -0.123016275 -0.1150158 0.13811885 -0.10014347 -0.1039107 -0.12996447 -0.17684792 0.25752297 0.33768204 -0.075917915 -0.116577975 -0.27285552 0.09832373 0.07115546 -0.2519484 0.10043245 -0.31903943 0.41220978 0.010215004 -0.11545867 0.08540835 0.06385981 -0.032674544 -0.05025736 -0.07759556 -0.27385223 0.053679276 0.025358044 0.12053271 0.31520995 -0.055255964 -0.22212046 0.110061094 0.1313344 -0.073742375 0.4247766 0.083819635 0.08666801 0.033917304 0.12281377 0.075054124 -0.12818778 0.11925334 -0.2551174 -0.2559173 -0.034625024 0.047068007 -0.0034821068 0.1749754 0.08301725 0.19431561 -0.2225678 0.28618968 0.30051672 0.01595169 0.1384516 0.032666728 -0.18099225
30 0.008258664 0.041681167 0.03857823 -0.05502322 0.15452042 -0.10007134 -0.24743581 0.09062115 -0.11040496 -0.051855005 0.003930535 0.08380925 -0.17426327 -0.1257964 -0.13259448 0.15518916 0.10695841 -0.13258582 0.15037502 0.10535663 0.27936813 0.1450472 0.1040227 -0.02708039 -0.31234127 0.118032746 -0.2604179 -0.08595659 0.017784866 -0.13880417 0.14839554 -0.08033391 -0.053104736 0.17641342 -0.08546821 -0.24254449 0.25968236 -0.0015051753 0.024704067 0.120369054 -0.12398295 -0.049757857 -0.19091925 -0.07699003 -0.041803554 0.055845827 -0.055608485 -0.054528862 -0.016739078 0.031682745 -0.003969863 0.011377957 0.1847712 0.010460399 0.22309075 0.06721484 0.102636546 -0.0105541935 -0.13060428 -0.0035672192 -0.07398575 -0.028578106 -0.016170954 -0.14704248 -0.14134392 -0.17593731 0.08614976 0.11438428 -0.12038188 -0.09507009 0.0514977 0.030663015 -0.11922902 -0.20059896 -0.032892823 0.08409335 0.018835157 0.04285675 -0.031929668 0.15876345 0.13955285 -0.12709741 -0.124510944 0.077585496 0.21338391 -0.1204327 0.061686292 0.02437491 -0.034611423 -0.017508158 -0.24674113 -0.027660875 0.16557467 0.047845226 -0.07241121 0.022337545 0.041498024 0.009111687 0.01988664 0.15868118 -0.0057189586 0.0029674333 0.08473403 0.3333112 -0.0675795 -0.08315333 0.02329341 0.12119864 0.1488051 0.11390929 0.023189068 0.16643202 0.07437291 0.15531874 -0.14964302 0.21824674 -0.016484926 0.13455819 0.17082217 -0.036745448 -0.04055119 -0.0025814818 0.17804407 -0.0678992 0.08846957 0.16829613 -0.21869817 -0.049032982
33 0.12511566 0.019370263 0.26513264 0.110570185 0.018227959 -0.15061997 -0.12590301 0.03305454 0.076683946 0.1554237 0.10236184 0.2725112 0.055746607 -0.17309502 -0.10898846 -0.10303685 -0.0055343253 0.04227217 0.07514034 -0.03127695 0.014007979 0.14111397 0.026564576 -0.0973644 -0.253384 -0.06265866 0.11180946 0.22942562 -0.19073679 0.06644968 0.06725163 -0.14482583 -0.27802724 -0.38526243 -0.0050078225 0.004302348 0.111892 0.00818797 -0.0074619264 0.1302148 -0.1289925 0.34006625 0.09383169 -0.28609678 -0.10766802 0.20907135 0.17580673 -0.20397975 0.10786908 0.02747683 0.066202275 -0.01164565 -0.007314732 0.100461766 -0.05053295 -0.08537005 0.22566299 0.24377823 -0.28491092 0.04489534 0.1662736 -0.08929548 -0.27408817 -0.12484904 -0.07012242 0.06278502 -0.03706553 0.053314645 -0.16154961 -0.13433021 0.026142476 0.043865368 -0.0001310499 -0.27023682 0.0952995 0.2748462 -0.067369096 0.17693913 0.10670344 -0.19917837 -0.1116414 -0.2321893 0.08896648 -0.05613003 -0.087576166 -0.008196128 0.0073093395 0.314318 -0.03094436 0.08304568 -0.13925137 -0.10360731 -0.11717261 0.3233724 0.0031599875 -0.25146222 0.24086282 0.13463286 0.116868526 0.18378043 -0.09579003 0.10053483 0.13118865 0.028429598 0.0928304 -0.089002915 0.3083569 0.24611916 -0.065675944 -0.30237797 -0.13753384 -0.2034562 -0.07419586 0.040660344 -0.06641426 -0.049169455 -0.018361507 0.08598865 -0.021224024 -0.28556725 0.14726163 0.24052732 0.27818844 -0.15166543 -0.04314667 -0.14355049 -0.06313763 -0.0683569
28 -0.11372139 -0.0035577302 -0.11724321 -0.13253322 0.087132886 0.1191362 -0.22397593 -0.060800582 -0.07066323 0.018883444 0.19148056 0.058512736 0.014077031 -0.08637086 0.07254473 0.08765299 0.1829655 -0.069172844 0.107335694 0.07673227 0.1784161 -0.021859374 0.03863113 -0.06393845 -0.21771356 0.023079539 0.19850196 -0.16044867 -0.038845904 0.082020506 0.08794162 0.0051749335 -0.073646545 0.24282685 -0.20397536 -0.08292694 0.3585449 0.062718265 -0.0428702 0.10424361 0.0066272947 -0.141011 -0.13068959 0.060918603 -0.023634009 0.18438105 -0.1881495 0.14720689 0.008478957 0.08635706 0.24574237 -0.14859681 0.118058726 -0.08446386 0.07586897 -0.18913978 0.05357879 0.108563714 -0.23241585 -0.016521785 -0.006436529 0.011350721 -0.07517803 -0.15737589 -0.007116122 -0.12748642 -0.21417359 0.0034588173 0.12407205 -0.103218846 0.10456302 -0.100973085 0.023543227 -0.11158177 0.06717861 0.06747206 -0.07136931 0.13772452 0.04446519 0.003968596 0.015482288 0.030180668 -0.16348004 0.14857452 0.108454645 -0.2080983 0.15031235 -0.14722908 -0.07934572 -0.11364709 -0.18499309 -0.19344294 -0.06664296 0.13080148 -0.13502832 0.011751117 0.09547267 0.23664209 0.061130233 0.16153622 0.15646702 -0.041164856 0.04987124 0.121242754 -0.08683892 0.09905223 0.1884447 0.018044924 0.16388945 -0.012181024 -0.05330137 -0.04197348 0.011075178 -0.034876008 -0.105001025 0.06086286 -0.019362362 0.14783512 0.1758068 -0.12574665 0.09616634 0.036408406 0.13269387 0.0128584625 0.0031424458 -0.08003697 0.04460634 -0.036841452
41 -0.14679521 0.1100758 -0.19019973 -0.016215282 0.04828976 -0.110920936 -0.2868589 -0.015575047 0.011377209 0.14999203 -0.045834564 -0.026225029 -0.10271799 -0.13650957 -0.15548277 0.14028685 0.2637776 0.16127656 0.21267438 -0.056195036 0.089704715 0.082237646 -0.014526576 -0.10991825 0.063514955 0.13130431 -0.10229177 -0.09755359 -0.065777585 0.028563963 0.31527504 -0.21685676 -0.039644957 -0.040571716 -0.30223042 -0.056943703 0.058144033 -0.059437666 -0.36595976 -0.0029480744 0.17419867 -0.05129789 -0.15270057 0.079718195 -0.007480932 -0.0039797025 -0.1723692 0.038509388 -0.020512888 0.07451671 -0.04496281 -0.030470366 0.18189465 -0.12967429 0.05316642 -0.16848299 0.12627316 0.11748556 -0.010340407 0.10529114 0.21761383 -0.13157637 -0.059681315 -0.20120671 -0.06679562 -0.24251886 -0.01205234 0.008757001 -0.13817951 -0.20752634 -0.04607868 0.1695173 -0.20382534 0.057585068 0.12675461 -0.12878756 0.04124693 0.15216339 -0.043440647 0.1709554 0.02106379 -0.06614542 -0.09257996 0.10787312 0.13033465 -0.21201988 0.18271163 -0.096018605 0.04326308 -0.11072058 -0.39251184 0.027107393 -0.0095878905 -0.050877143 -0.0012311557 0.117205985 0.17084885 0.15503995 0.050819483 0.03981095 0.15074964 -0.005316614 -0.07796748 0.09272151 0.018786414 -0.06851401 0.08106106 -0.04306668 -0.014777203 0.057462692 0.072153315 0.13315743 0.054743595 -0.009361529 -0.25496972 0.12680833 -0.09755225 0.040770937 0.08053809 -0.17246088 0.098471336 0.028714987 0.024537556 -0.010725758 0.043033708 0.10106278 -0.1113701 0.033678826
29 -0.025146317 0.19266878 -0.09172946 -0.0052109626 0.09084572 -0.14756428 -0.2502156 0.024516366 -0.055923186 -0.05435354 0.14215022 0.002549324 -0.20551373 -0.072708435 -0.22027713 -0.05909769 0.18936796 -0.06405077 0.16305327 -0.03380681 -0.04615233 0.053843472 -0.0020395543 -0.21740879 -0.13843575 0.019211141 -0.12817916 -0.15295969 0.10806223 0.014171704 0.14135586 -0.17076965 -0.078944884 0.26662472 -0.03674388 -0.08486705 0.1956103 0.01965556 -0.08694479 0.08766002 -0.03893682 -0.13149586 -0.1891741 -0.16142093 0.05845043 0.030048983 0.16365333 -0.15476339 0.060356587 0.14354344 0.03835094 -0.079249285 0.10574494 -0.2615663 0.18456145 -0.19967128 0.09423025 0.17219013 -0.037124593 0.112202264 -0.015529311 -0.09896158 -0.11395366 -0.19104704 -0.14964846 -0.14628612 0.051058732 0.037525583 -0.1183679 -0.09148503 0.021963248 -0.101381324 0.030303992 -0.18368515 -0.023257917 0.13174458 -0.05620269 0.047122367 0.06334702 0.1459787 -0.0030379985 0.018116077 -0.08191763 -0.011200743 0.19624843 -0.07379106 -0.062120177 -0.049639523 0.044759884 -0.22043517 -0.28553596 -0.060776863 0.01759638 0.0062490087 -0.08981248 0.0855741 0.09559851 0.1194914 -0.02084441 0.11747745 0.06108156 0.15119927 -0.03850206 0.34066856 -0.25413528 0.04325171 -0.00018433241 0.1760312 0.05235117 0.070511565 0.034566 0.2532156 -0.12913 0.048141163 -0.16244388 0.027014434 -0.102444805 0.060918603 0.21111046 0.038438246 -0.063556254 0.12551916 -0.033302195 0.07972069 0.06570282 0.15068261 -0.20029661 0.035841025
26 -0.044534624 0.17050862 -0.12387903 -0.047559816 0.081260845 -0.15293665 -0.10493225 0.105446145 0.044461753 0.12340434 -0.010299971 0.07439989 -0.08525102 0.057866596 -0.10661159 0.014225529 0.11445748 -0.10418995 0.14426923 0.14416078 -0.039428264 0.1545397 0.094068244 -0.12494431 -0.13320799 0.14061172 -0.044387568 -0.074947685 0.09177687 0.14144868 0.15494555 0.035296313 -0.12579711 -0.07110917 0.031833358 -0.13693526 0.14687744 -0.027360892 0.0008415948 0.12836967 -0.10069856 -0.08724058 0.082108594 -0.14697835 -0.074290164 -0.06031635 -0.06386803 0.085373014 0.09915002 -0.104004666 0.05606269 0.040931467 0.16617848 0.16094574 0.071933925 -0.13450648 -0.015132178 0.07350628 -0.27005634 0.25395566 0.08021607 -0.16160826 -0.0076989625 -0.06899364 -0.0046023424 -0.124677554 0.10870916 0.09260936 -0.016466223 -0.116656974 -0.08954937 0.036418956 0.061349478 -0.09633207 0.08536887 -0.14346173 0.023714613 0.22776479 0.12484232 -0.040949427 -0.069623865 0.07223196 -0.18645813 -0.041113563 0.022512317 0.011821619 0.1310239 0.002435855 -0.15245768 0.0015923709 -0.0932436 -0.20616809 -0.04281418 0.0320338 -0.09740965 0.07294998 0.08057112 -0.0120056225 0.019410182 -0.051324006 -0.028521912 0.16304782 0.050138522 0.1992104 0.06223032 0.07226469 0.2638629 0.098165125 -0.13744682 0.084772296 0.050494798 0.004341671 -0.22123569 0.028245762 -0.14147727 -0.03833272 -0.21070923 0.15389442 -0.012676843 -0.15393253 -0.023245847 0.029511193 0.090120226 -0.08715537 0.13478275 0.028468737 -0.052595515 -0.0628725
48 0.09834442 0.25427347 -0.035303388 0.028680228 0.09876644 0.02782785 -0.15323006 0.22522508 -0.11561986 0.17238939 -0.0009356091 0.1745328 -0.15910132 -0.10011064 -0.11024641 -0.028120104 0.17084044 0.044546444 0.36980602 0.38192272 -0.16383137 0.24252777 0.19189844 -0.33454067 0.09734036 0.22493933 0.0062580924 0.006671496 0.26922715 0.16778791 0.16585729 0.1882427 0.036814116 -0.19164032 -0.022666637 0.04598441 0.1588363 0.02093271 -0.13495395 0.056596655 -0.094857916 0.3018248 -0.13479692 -0.13399333 0.014245293 0.013933547 -0.046259798 0.17174697 -0.10160819 -0.00094868906 0.23391303 -0.06403052 0.07846823 -0.059083972 -0.14353359 -0.06497198 -0.14964834 -0.12207468 -0.29564708 0.036429215 0.10228634 -0.09073384 0.21371073 0.19848117 0.09802976 -0.043170948 0.16712108 -0.0751576 -0.13574107 -0.0062543177 -0.066976435 0.06585088 0.18256678 -0.035205424 -0.05791687 0.10182341 0.22436257 0.5124567 -0.30555472 0.0032240301 -0.23565398 0.13704233 -0.011243605 0.14011256 0.043624558 -0.18572433 0.11882892 0.041822746 -0.20781358 -0.08374872 -0.1492823 -0.0856015 0.035034638 0.16423465 0.009730268 -0.07317426 -0.0021040046 0.08014895 0.058262162 0.00092563935 0.41010392 -0.011458818 -0.012358249 0.4833668 0.29447114 0.03670058 0.18927224 -0.2545453 -0.11749379 -0.18491878 -0.10705378 0.1576936 -0.45379493 -0.048369374 0.19909795 -0.1655341 0.14021097 -0.016740937 -0.029428156 -0.16819112 -0.09180509 0.044318527 -0.0035259244 -0.03657774 0.278117 -0.26324457 -0.2462216 -0.037696805
39 0.20501061 0.19454736 0.039467797 0.0064543895 0.012425689 -0.07572173 -0.08361646 0.065190025 -0.0029093788 -0.04170408 -0.063713945 0.12380436 -0.103050396 -0.29393724 -0.0011130762 0.1703678 0.11182978 0.098228075 0.031062512 0.08822713 0.14568487 0.2431174 0.31880125 -0.15093665 0.0038411256 0.1287827 -0.030535648 -0.082854755 -0.043635804 0.092818804 0.11748645 -0.13660057 -0.14485 0.16594051 -0.15811975 -0.13821287 0.23125273 0.061115764 -0.09360141 -0.04424629 -0.14575821 -0.091493726 -0.06016047 0.06756318 -0.05532394 0.15468602 -0.105815865 0.14917523 0.08654052 -0.068371825 0.09059522 -0.022080176 0.10902504 -0.022107478 0.15728433 -0.0770241 0.017062545 0.12915479 -0.15829837 0.06731394 0.2191689 0.0035956898 -0.02649983 -0.05061043 -0.022514855 -0.1627329 0.044817556 -0.024335727 -0.041891765 -0.24280623 -0.08098746 -0.013090437 -0.10169949 -0.12448541 -0.059005525 -0.011606572 -0.00734416 0.1284894 0.032527246 0.049726363 -0.039358296 0.14470972 -0.0112016015 -0.18432412 0.057510298 -0.3661461 -0.063393265 -0.011203214 0.124837585 -0.03190231 -0.09980607 -0.16672544 -0.012053269 0.0049563753 -0.057166647 0.03649653 0.057414547 0.06419762 0.13675152 -0.07312103 0.3141354 0.027085578 -0.10892269 0.1596637 -0.15954696 0.22016299 0.11860687 0.049957454 0.013820062 -0.04580191 -0.19944414 0.20088686 -0.006991118 0.15295441 -0.11806051 0.025801087 -0.33900735 0.080621794 -0.02435579 -0.10508451 0.014010175 0.04764874 0.10205646 -0.051944103 0.0666654 0.03062096 -0.09731527 0.018433677
44 -0.18496943 0.2866912 -0.18228753 0.040246684 0.065782584 -0.04443205 0.02936481 -0.030341655 -0.15043467 0.06980226 -0.15166254 0.07372354 -0.13642398 -0.004623181 -0.17625889 0.06791774 0.27622873 -0.12438965 0.030450093 0.16455217 0.0078036934 0.03884101 0.0051404713 -0.1447433 -0.28510684 0.05771833 -0.07673274 -0.235037 -0.034114223 0.0030609518 0.12511595 -0.14720334 -0.24219221 -0.034984987 -0.12415613 0.075965114 0.24227993 -0.13410212 -0.117985286 0.030996246 -0.1363731 0.06740635 -0.19771321 0.019436266 0.031080976 -0.036215346 -0.190325 0.10429338 0.22869176 0.054265548 0.04134756 -0.0027578713 0.22410026 -0.299094 0.07271244 0.14256558 0.21300992 0.105648875 0.049696244 0.19144689 0.08613952 0.0898737 -0.09914968 0.11420879 -0.13613111 -0.10368974 -0.04246663 0.2430725 -0.020469818 -0.12393905 -0.024831446 0.09604168 -0.08538818 -0.15504955 -0.0835214 -0.07918703 0.044859376 0.23948184 -0.13339485 0.2916686 -0.009315123 -0.09695144 -0.16013409 -0.0031189139 0.13509923 -0.040622532 -0.015585829 0.027978841 0.061764285 -0.10219119 -0.12340662 -0.16930597 -0.08096647 0.1366355 -0.15270425 0.05355471 -0.011442264 0.121756144 0.027062956 -0.04527403 -0.00022689445 -0.012688676 0.12597208 0.15621568 0.025978634 0.047213167 0.12135518 -0.044139646 -0.0054836627 -0.076385096 0.00017588052 0.13287146 0.24102762 0.17817289 -0.0043837423 0.06230959 -0.16044591 0.044767085 0.13839968 0.0056561604 -0.07175368 0.022564106 0.16548635 -0.090474464 0.045334958 0.12534113 -0.22450125 -0.0035545463
34 0.1366354 0.18440457 -0.16498253 -0.10088749 0.2463104 -0.09734477 -0.25342607 -0.0030440553 -0.08403449 0.14912406 0.02804457 0.003663466 0.009616963 -0.11094019 0.11687361 -0.24270274 0.025006032 0.10404478 0.13552819 0.110627264 -0.029647086 0.13030817 0.0830526 -0.16386282 -0.217497 0.22527811 0.040597674 -0.12140093 0.05846636 0.18569978 0.32083592 -0.13448854 -0.22192404 -0.047368664 0.08709327 -0.511745 0.1441113 -0.22047922 -0.06659122 0.12258484 -0.20599477 0.08568247 0.20301999 0.027798476 0.033142656 0.21412054 0.1414359 0.09478419 0.06937609 -0.1908912 0.10584212 -0.07327611 0.15623254 -0.017394818 -0.109064884 -0.21756923 -0.08553958 -0.03808141 -0.16811962 0.12117004 0.072569326 -0.198444 -0.07354826 -0.10237442 0.05457055 0.11551746 0.010792758 -0.1183438 0.09685575 -0.018954422 0.05105281 -0.06194132 0.027590873 0.008522366 0.1968781 -0.027216291 0.071302794 0.45094946 0.101606674 -0.031748906 -0.05026616 -0.13066582 -0.13629873 -0.0066511724 0.111392066 -0.07070085 0.07724775 0.070393115 0.04053501 -0.14098227 0.021893702 -0.097756684 -0.16775653 0.058157634 -0.13323782 0.118133806 0.07675343 0.07345739 0.2274192 0.04010926 0.00792025 0.19324556 0.0019963894 0.19948493 0.11113413 0.030679772 0.22710644 0.11764152 -0.021160783 0.03320142 -0.011858925 -0.017473536 -0.11129963 0.006220205 0.053069398 0.06279711 -0.056012604 0.035734095 -0.082648546 0.045870133 0.043450344 0.23840691 0.13809016 0.069168344 0.1621158 -0.14465228 -0.06891272 -0.36008766
71 0.20207258 0.12716906 -0.077539936 -0.04728138 -0.25145906 -0.11971396 -0.1707675 -0.022238715 -0.26786363 0.0023833567 0.107016295 0.13139138 -0.13721357 0.06262572 -0.26081955 0.17663136 0.21408087 0.18219073 0.30927268 0.38846684 0.22323772 0.15049319 0.1002514 -0.02403518 -0.08873032 0.05298123 -0.21033975 0.010979643 -0.0864114 -0.011383634 0.11837072 0.20200256 -0.037439007 -0.11661568 -0.20673072 -0.07682366 0.36250797 0.22338767 0.16906065 0.14605993 0.0048307143 -0.29949734 -0.18139571 -0.019063674 -0.07388153 0.15790269 -0.025417317 0.03703885 0.13034694 0.1114131 -0.1738224 -0.053960934 0.09444189 0.13540187 0.3898601 -0.05490222 0.14188047 0.19035296 -0.053943813 -0.06722361 -0.1985432 -0.22899161 -0.1748648 0.09016553 -0.101131804 -0.040462937 -0.18763758 0.1384709 0.13355966 0.013519075 -0.07981865 -0.08423565 0.06389529 -0.058087748 -0.09697352 0.0019158918 -0.09054821 0.16009153 0.08316159 0.16656762 0.040450387 -0.2539644 -0.37719563 -0.01614069 0.009855468 -0.30336493 0.08794635 -0.19336495 0.08607429 0.17037706 -0.39381456 -0.053272113 -0.1667492 0.05879835 -0.10604882 -0.08371797 -0.04390447 0.130473 -0.045418426 0.22175136 0.23648635 -0.06355705 0.009960561 0.32113513 -0.045135226 -0.09587665 0.18493745 -0.22213697 -0.004716185 0.0950899 -0.10317653 -0.06773655 0.01741551 0.13426244 -0.08723814 0.108972885 -0.15310405 0.19444145 -0.040647928 -0.10373035 0.1009092 0.13959287 0.02688714 0.12770654 -0.043852568 -0.049400393 -0.32411185 -0.27681476
50 -0.093504965 0.049064185 -0.08443719 0.038624957 0.0021730536 0.020375704 -0.029406084 0.03262746 0.022718422 0.041504003 0.12155135 -0.044520583 -0.017768329 -0.034827385 -0.1460128 0.05191587 0.26410693 -0.11724686 0.094944336 -0.01353106 0.16571425 0.024982855 0.015217478 -0.12420977 -0.0023174242 0.10464869 -0.13910915 -0.05164814 0.08004137 0.06170026 0.17766109 -0.09224036 -0.021670034 0.17213777 0.010653912 -0.14719695 0.23113143 -0.016165176 -0.11741618 0.08025301 0.15789102 -0.040074073 -0.14330195 0.1488574 -0.065302566 0.18875587 -0.09166554 0.20160964 0.1314787 -0.037951745 -0.06484264 -0.021149097 0.1659232 -0.26762488 0.017983014 -0.19463032 0.070536226 0.22958589 -0.10876213 0.18731123 0.058085393 -0.07917792 -0.105229855 -0.046342045 -0.058035094 -0.062426127 -0.19235447 0.12219864 -0.00092993147 -0.17177181 -0.18536994 -0.17245047 -0.09693728 -0.046122447 -0.03792391 -0.1507831 0.08849487 0.17107233 -0.08842309 0.1269708 -0.088002756 -0.05021675 -0.2535072 0.22873555 0.12369323 -0.19084448 0.06255878 -0.18868782 -0.051628422 0.03089132 -0.29814896 -0.08284923 0.048011396 0.14211094 -0.052975204 -0.078851365 0.004198168 0.1642568 0.05309871 0.08269415 0.001702308 0.022474984 0.020806836 0.14904155 -0.10259743 0.08339326 0.12813045 -0.049862593 0.099324524 0.01818765 0.08581333 -0.022176336 -0.12338508 0.13130324 -0.07098959 0.05719425 -0.15585937 0.15316412 0.21834427 0.0356575 -0.09783223 0.034890223 0.16814785 -0.12072307 0.049149577 -0.05032174 -0.18124712 -0.06244114
35 -0.14037086 0.06582188 0.05972897 0.037924137 0.085664876 -0.05742802 -0.20696138 0.033335935 0.13637103 -0.0823008 0.013926797 0.14736551 -0.14620021 -0.14590232 -0.0064669712 -0.12205442 0.045964 0.07027372 0.10417708 0.007847676 -0.09269558 0.025113236 0.050521445 -0.15987907 -0.2462018 0.07298371 -0.07640092 -0.00784949 -0.011619544 0.04674496 0.27762052 -0.016937109 -0.14486742 -0.12933894 -0.051188387 -0.15688704 0.09628959 -0.028533366 0.14518434 0.04405914 0.11943285 -0.019801686 -0.022245407 -0.11624299 -0.020516718 0.21522532 -0.035731904 0.050788607 0.10290788 -0.15593863 0.11132068 -0.03184224 0.23608403 0.15280809 0.03431211 -0.32208857 -0.0025178096 0.14957443 -0.30342674 0.076652996 0.006951977 -0.16474488 -0.12613195 -0.056875072 0.07032498 -0.19395787 0.032814723 0.17106903 -0.087735675 0.011260657 -0.0668867 0.071993716 0.042585667 -0.0005755242 0.32754424 -0.012130729 0.00030785718 0.3324725 0.1057566 0.2674795 -0.010676611 0.13987134 -0.022623967 -0.22428563 0.08410258 -0.095353976 0.0022522013 -0.07318288 0.07496566 0.21281649 0.11048797 -0.18420152 -0.10471488 0.032854747 0.018704182 0.055002127 0.20308262 0.07950728 0.12205258 0.10056764 -0.04987453 0.15885563 0.0016639801 0.062642194 0.16461518 -0.02229824 0.29128623 -0.00041614263 0.027058126 -0.02089759 0.021037221 0.11639922 -0.09773031 0.031247647 0.020436859 0.03781634 -0.20015143 -0.15903504 0.15536907 0.1810306 0.104648255 0.15014641 0.05660331 0.031563185 0.07479221 -0.043403015 0.025577113 -0.12170533
46 -0.025242288 0.20307758 -0.0028381716 0.03838992 0.10308508 0.13808742 -0.0962505 -0.018725209 -0.042714674 0.08323663 0.07560581 0.15622118 -0.17042659 0.07481314 -0.2630677 0.18845452 0.26021844 -0.09030324 0.17386164 0.17999385 0.14125465 0.114909545 0.010984192 -0.22671224 -0.12798044 0.006973242 -0.018712813 -0.064877994 0.019924609 0.0769539 0.24282333 -0.16835769 -0.08075586 0.08342935 -0.15141048 -0.10289364 0.18525411 -0.049462955 0.023963343 0.00960623 -0.026649192 -0.107511014 -0.109044276 -0.07903219 0.057056777 -0.012305878 -0.2339453 0.10647082 0.043967754 0.062249392 0.15014784 -0.03546863 0.21373245 -0.121938184 0.05720213 -0.03354084 0.11205779 0.042293247 -0.031749632 0.048703454 0.15297973 0.01637992 -0.12015479 -0.05084994 -0.07252109 0.004964795 0.050500177 0.15558049 -0.00969309 -0.072493196 -0.11890438 0.22265288 -0.04843165 -0.17099294 0.052316684 0.059209168 0.051172134 0.15200107 -0.10801146 -0.008933764 0.104011014 -0.043259773 -0.12324269 0.09019734 0.12211797 -0.09387754 -0.03290495 -0.07231149 0.054228723 -0.17540549 -0.27140275 -0.25149927 0.13532346 -0.018823793 -0.024419045 0.029665945 -0.034888953 0.14752014 -0.0886194 0.07115759 0.27829143 0.035824593 0.07315316 0.10835276 0.10939762 -0.076927885 0.05531113 -0.08952759 0.17599174 -0.1023686 -0.05180631 0.10934982 0.026294708 0.11631283 0.08007054 -0.031037576 -0.24392223 0.14217295 0.09181169 0.1070186 0.013507558 -0.08254959 0.17019804 -0.024385663 -0.05684665 0.18840133 -0.07844291 0.021624316
60 -0.03389164 0.14737846 -0.2952712 -0.08931666 0.11754225 -0.15273371 -0.09355306 0.15606222 0.046065237 0.12454797 0.0035944902 0.13577493 -0.18773372 0.054855756 -0.19024456 -0.00291897 0.18201704 0.046374656 0.118161164 0.15497601 0.20214148 0.109331414 0.14593807 -0.31844953 -0.009782855 0.17123333 -0.244648 -0.052727684 0.019442234 -0.07044643 0.19985212 -0.14995112 0.0062649013 0.123801306 -0.19415113 -0.18673958 0.16791658 -0.035307314 -0.008532742 0.230095 -0.059006274 -0.05433681 -0.04928552 0.063990764 -0.10077827 0.036825377 -0.0114371115 -0.06705359 -0.06975802 -0.0899078 -0.0836331 -0.010333305 0.18588546 0.10332426 0.010394844 -0.055934146 0.24395728 0.0713813 -0.035736494 0.034127016 0.038359903 -0.10445701 -0.094274774 -0.052532203 -0.023715107 -0.09831817 0.008979581 0.076696716 0.041085463 -0.2907115 -0.06347632 0.10168552 -0.11716534 -0.13290969 0.15682894 0.076743595 0.08525371 0.1403957 0.08801766 0.11506234 -0.023569219 -0.18756537 -0.019634025 0.111021176 0.16878796 -0.05635539 0.055426802 0.12000139 0.117453724 -0.01238182 -0.23742352 0.040109854 0.043464605 0.03474191 -0.0052871816 -0.08361308 0.047640506 0.09808464 0.05236705 0.039174054 0.11500561 -0.0046800547 -0.047589377 0.19930512 -0.0007102543 0.12198753 -0.08029128 -0.018853553 0.014036562 0.11874559 0.02224913 0.14768808 -0.02467647 0.15473552 -0.1531527 0.077877454 -0.07123201 0.06634038 0.17321059 0.08421313 -0.105876364 0.17233743 0.15306833 -0.06571596 0.10952677 -0.012035154 -0.180589 -0.08111816
62 -0.14742628 0.30688912 -0.071015015 0.048880614 0.022788413 -0.04834652 0.077177435 0.20851451 -0.07551988 0.25935298 -0.17535251 0.16037208 0.08011231 -0.048066854 -0.18602902 0.1879381 0.21494807 0.0007199657 0.029064229 0.27103442 0.20508115 0.061822917 0.03686853 -0.10934894 -0.11517097 0.056795124 -0.18656921 -0.1620685 -0.063344024 0.39163944 0.06715311 -0.26549286 -0.10354264 0.05457704 -0.15646492 -0.04983395 0.22042532 -0.13458797 0.03172537 0.20612027 0.14998299 0.052142467 -0.16490725 0.015196571 0.10094726 0.035417847 -0.1010038 0.015731284 0.013657535 0.14492951 -0.04995576 -0.06468275 0.22791253 0.0039468687 0.24936341 -0.0070838626 0.11243553 0.04224243 -0.13223912 0.11240607 -0.07241821 0.0024750757 0.00016701198 -0.03457779 -0.12002526 -0.08284944 -0.15775695 0.088614866 -0.04622878 -0.15145941 -0.15078986 0.08975952 0.0617812 -0.14152452 -0.033069253 -0.12559791 0.0048067146 0.2274264 -0.052897915 0.04594343 -0.11930659 -0.10079227 -0.028483804 0.024587674 -0.1080432 -0.08790963 0.031607572 0.038713697 0.08930195 -0.25911504 -0.060233932 0.021971922 0.068787485 0.04377416 -0.15410258 0.028646797 0.15260252 0.16996591 0.15986736 -0.045595083 0.1707258 -0.07991838 0.088958375 -0.10443337 -0.07962005 0.067251526 0.079193115 0.14991605 0.058523044 0.08886228 0.06247142 -0.036629766 -0.12748785 0.25135913 0.04611151 0.07070554 -0.23266442 -0.0116571775 0.10329942 -0.016145138 -0.072403945 -0.054040775 0.21281408 -0.14980851 0.0724134 0.116654396 -0.08708417 -0.037642237
43 0.028867977 -0.004473599 0.18831594 0.06317874 0.20271339 0.078101374 -0.22039346 -0.14811622 -0.035896223 0.053631056 0.004938626 0.06799846 -0.11100331 -0.044278868 -0.2568977 -0.023784295 0.13757023 0.033227257 -0.023976717 -0.037308715 -0.05447663 0.09729035 0.09198214 -0.43646872 -0.255472 -0.0070378687 -0.09753032 -0.08790271 -0.01853524 0.11104835 0.023663078 -0.29700923 -0.11386225 -0.063701 -0.09096308 -0.31333828 0.075700484 0.12688966 0.033673573 0.2102847 -0.0953876 0.2170836 0.10820651 -0.09565454 0.15322684 0.14453864 0.0634194 -0.057840563 -0.048005182 -0.25393423 0.14226794 -0.086178295 0.16925918 -0.14790256 -0.21719712 -0.13997436 -0.07375309 0.22084936 -0.15855077 -0.028016828 -0.02950443 -0.05128246 -0.17194736 -0.0071999966 -0.13723534 -0.039862752 0.10987433 -0.059413332 -0.07316052 0.096750244 -0.040998224 0.078633696 0.16828533 0.09272993 0.31437218 -0.0136044 0.11392413 0.2267727 -0.07093593 -0.08028776 -0.05517224 0.056093022 0.047035724 -0.17492472 -0.021982424 -0.11359961 -0.037034705 -0.043600086 -0.07487033 -0.0250111 -0.08097538 -0.115957424 -0.26094595 -0.001065 -0.018802524 -0.0016860394 0.07111254 0.13713045 -0.007842411 0.061137266 0.03509097 0.071566015 0.17168146 0.11064445 0.12141051 -0.008498212 0.2156168 0.07277355 0.09060461 0.1444385 -0.09881746 -0.18609843 -0.2624069 0.13643932 0.03143702 -0.0118776895 -0.18233375 -0.18979189 0.089179814 -0.15831326 -0.11088612 0.24590746 0.11781236 0.19396017 0.033406015 -0.16271828 0.1104313 -0.21826868
38 -0.010642663 0.14984725 0.058843657 -0.04812442 0.03753602 -0.048300125 -0.23357703 0.32545093 0.09747192 0.040953517 -0.04872156 0.07942288 -0.2660767 -0.14168663 -0.18505995 0.146995 0.045400478 0.058157083 0.28650156 0.32348308 0.02563225 0.19210821 0.10487176 -0.18445641 0.09143877 0.19383651 -0.04372631 -0.14378175 0.11500677 0.2267222 -0.03834609 -0.22389802 -0.12705232 0.15818234 -0.10002676 -0.103210434 -0.0018581167 0.12806174 -0.09250906 -0.03260436 -0.0783402 -0.08377771 -0.11612463 0.12158043 0.06922539 0.15710032 -0.3377783 -0.07378879 0.10634411 -0.03886112 0.048132014 0.05332382 0.1911308 -0.09141732 -0.05190965 -0.09522384 0.08339411 0.21503353 -0.15594867 0.051640153 -0.11944356 0.14524253 -0.013999849 0.06833508 0.015269995 -0.25176278 0.08734462 -0.14115612 -0.31450456 -0.038700905 0.16472562 0.016313335 0.09761998 -0.023730174 -0.059797104 -0.2669295 -0.15549985 0.04872573 0.01556157 -0.12704441 -0.08119905 -0.066131815 -0.19274554 -0.07403478 -0.103609934 0.013591199 0.29902124 -0.14624768 -0.13958102 -0.07535148 -0.20361985 -0.29066393 -0.006180217 -0.055046313 -0.118124925 -0.089985766 -0.03986626 0.15461905 0.41729617 -0.0073481635 0.26371697 -0.07452751 -0.022774488 0.19408813 -0.117963225 0.30462104 0.11797583 -0.05872277 -0.066799656 -0.24479015 0.10163949 0.06734357 -0.038366046 0.075282544 0.12559265 -0.14022112 -0.22810945 0.30405673 -0.043315694 0.04253959 0.083948575 0.2742249 -0.13869575 0.022511827 0.16081204 0.051426757 -0.056425914 -0.16910987
47 0.07759093 0.15574181 0.06198386 0.07500482 -0.090680175 0.0019306364 -0.23247486 0.10174784 0.0912781 0.07772168 0.017790634 -0.06004958 -0.1196658 0.10773171 -0.15299766 0.20402503 0.13166057 0.15031041 0.08060071 0.32075167 -0.12351424 0.17188431 0.013366205 -0.060736638 -0.14048798 0.24796416 0.03844923 0.026922764 0.119897194 0.16808496 0.16148363 -0.21221542 -0.028763128 -0.04098316 0.16743977 -0.12394358 0.069705784 -0.03128381 -0.10056557 -0.010048776 -0.005097888 -0.088615976 0.0010147293 -0.017771952 -0.072681755 0.01862783 -0.28610632 0.021139983 0.039722815 -0.021468602 0.21253027 0.17623003 0.043751102 -0.11454709 -0.12868479 0.0073756347 0.077414684 0.1172107 -0.2808655 0.08054395 -0.017150508 -0.06487584 0.07259422 0.020167153 0.05302004 -0.12270497 0.13071975 -0.02824445 -0.23820685 -0.22102822 0.07848749 -0.13430077 -0.052692905 -0.078617744 0.13009445 -0.095455036 0.106970064 0.23825808 0.08601574 0.064516865 -0.001078644 0.008631677 -0.20331293 0.104317114 0.002778931 -0.13338964 0.14790815 -0.07639864 -0.12275388 -0.15947695 -0.22273968 0.021010026 -0.0050791902 -0.07940968 -0.1266366 -0.18204466 -0.052707773 0.1970666 0.21372929 -0.00544892 0.045708094 0.009533597 -0.2539061 0.17349789 -0.15809438 0.18824127 0.09661755 -0.2364095 0.19150424 -0.06807335 -0.11843781 -0.101198725 0.005794322 0.0825129 0.0687939 0.054079525 -0.0713019 0.19746886 -0.01971317 -0.01806014 -0.06567965 0.16847071 0.15023898 0.0034927083 0.11089446 0.10487745 -0.12826325 0.06151859
54 -0.001008761 0.09548059 -0.027290763 -0.13107572 -0.12632316 -0.17595963 -0.28569707 0.09787271 -0.18773921 0.06440473 -0.047575146 0.006763338 -0.16499247 -0.2478735 0.014933408 -0.07343359 0.14564987 -0.20456602 0.14215855 0.03158154 0.1802087 0.045876898 -0.044323042 -0.37506533 0.001269628 0.20098333 -0.22576287 -0.17452559 0.0016163444 -0.098861516 0.18185446 -0.2479454 -0.1105777 0.11681648 -0.34212175 -0.09635043 0.120412424 -0.006646597 -0.036348302 0.1848515 -0.03130692 -0.28692248 0.15931325 0.06712915 -0.14588436 -0.055776566 -0.015732173 -0.012174033 -0.033023186 0.17222716 -0.01211787 0.14151064 0.012112545 -0.102861635 0.10275923 0.028490068 0.16123116 0.12000312 -0.083285786 0.1967844 -0.18145496 -0.15592422 0.086461164 -0.27398568 -0.15632434 -0.18627779 -0.02462735 0.14864273 -0.052191466 -0.073437735 -0.034291595 -0.05655273 -0.03684615 -0.0065458836 0.07745836 0.0071159187 0.015493924 -0.0017228866 -0.09356118 0.17471914 0.0918882 -0.14318447 -0.13275208 0.18811005 0.062655374 -0.21328442 0.06606208 -0.046677202 -0.048783347 -0.08297743 -0.20029543 -0.02619753 0.092618726 0.048232894 -0.10034437 0.043258544 -0.04104992 0.0027677158 0.0018861584 0.08559302 0.42885977 -0.06659728 0.061388306 0.1480852 -0.051884484 0.08015374 0.10476126 0.044559337 0.1294344 -0.059780754 -0.07136327 0.0059215915 -0.2776274 -0.004352209 -0.09043874 0.006825121 -0.10100698 0.07898236 0.34586117 -0.0906784 -0.055232834 0.2805186 0.10275308 -0.11099777 0.031936176 0.3430429 -0.12403815 0.07294836
169 -0.7015118 0.06236132 0.19173734 0.22252409 0.13466293 -0.23863174 -0.50042695 -0.2353705 -0.21820098 0.19880679 0.32893744 0.4739609 -0.01700882 0.027735315 0.11728072 -0.078096256 0.012140205 0.29404476 -0.33259568 -0.06058523 -0.010377851 0.3508412 0.073692776 -0.23274507 0.10934552 -0.27497238 0.019754875 0.14229055 -0.18004383 -0.5685014 0.15397333 0.089260444 0.107813746 -0.1788041 -0.18106222 0.54161054 0.18967433 -0.085834265 -0.1647241 -0.55212104 0.38759813 0.13129857 -0.52005523 0.012794499 0.35317498 0.3458727 -0.28980297 0.55141675 0.0109438645 0.503968 -0.08176796 0.11005355 0.13460153 -0.017491639 -0.12668954 -0.2500247 0.22634882 -0.32065287 -0.13525744 0.1808661 -0.824177 0.4741661 -0.30916536 0.089664355 0.11888104 0.23345903 0.679197 -0.21438618 -0.47608542 -0.116985984 0.045233812 0.12916808 -0.15528585 -0.022006867 -0.10338443 -0.05936177 0.22936471 -0.0075123096 0.6348485 -0.1667248 0.6391676 -0.36319086 0.062199693 0.6643265 0.23909335 -0.26081967 -0.52365613 0.5172945 0.07325349 -0.261624 0.6616079 -0.30799747 -0.13913058 -0.1425049 -0.42593476 -0.13492334 0.30604956 0.42567712 0.19718443 -0.08982033 0.23265973 0.3780011 0.26753896 0.56153977 0.034912545 0.90473336 0.730496 -0.18760733 0.3646966 0.15947583 -0.43374068 -0.6647839 -0.31132644 -0.18307824 -1.0174971 -0.2524146 0.10333171 -0.25796154 0.32259303 0.28215492 0.3461423 -0.5555881 0.40039438 0.27632737 0.32159552 0.060943443 -0.5583138 -0.5867623
31 -0.050387114 0.2786148 -0.17907561 0.027158722 0.034023806 -0.059739057 -0.28283644 0.1387408 0.060713157 0.036199927 0.058421727 -0.028948877 0.049332466 0.1060887 -0.12778485 -0.19283068 -0.09854822 -0.34210372 0.07236446 0.077355534 0.026377784 0.062054645 -0.09988758 -0.25881064 -0.27504712 0.063628465 -0.07511746 0.16940065 -0.023163361 -0.14155182 0.40021446 -0.09482556 -0.23447753 -0.10012197 -0.1396306 -0.2522995 0.15011363 0.03050997 0.23187426 0.27961212 -0.08046071 0.25404084 -0.033326052 -0.14676373 0.24675748 0.046545897 -0.045020483 -0.024384324 0.086431265 -0.08902712 0.21089102 0.16263556 0.18676801 0.04648409 0.105851695 -0.53466797 0.077319846 0.008124747 -0.22332142 0.10500347 0.2328142 0.038376637 -0.13041644 -0.13531749 0.17671582 0.021657567 0.09735076 0.10693412 -0.12730844 0.2186294 -0.23572437 -0.042219862 -0.018482858 -0.19154082 0.05672239 0.09696501 0.15971337 0.30784234 0.107737474 -0.228936 -0.013275289 0.14983718 -0.09598294 -0.03975809 -0.14582226 -0.025353886 0.010700717 -0.20236187 0.11679188 -0.0191664 0.031146187 -0.18160781 -0.10589098 -0.1438458 -0.043982733 -0.016257253 0.20921953 -0.060273495 0.1658858 0.106652446 -0.050645 0.04194122 -0.004507519 0.05047041 0.0024228953 0.20954378 0.186486 0.06838533 -0.12248275 -0.115152724 -0.26202703 -0.24819325 -0.07928617 0.12782507 0.21610804 0.23733786 -0.035939682 -0.26165983 -0.073730364 0.034165088 0.09819177 0.24679916 0.119764514 0.012443897 0.15789604 -0.107834764 -0.1855437 -0.14977364
49 0.032525364 0.19391428 0.005974952 0.02141893 -0.13551524 -0.02059658 -0.23567976 0.15633647 0.12717743 0.15806697 -0.054766495 0.025743978 -0.21186379 0.06701276 -0.10099503 0.09773936 0.24529088 0.07368988 0.056615833 0.20100032 -0.08008702 0.20387062 0.08145703 -0.034630336 -0.009491907 0.15636958 -0.093532205 -0.050873764 0.19634357 -0.03004664 -0.048650887 -0.2873315 -0.042000715 -0.06607012 0.0014827359 -0.051743113 0.09818657 -0.037045732 -0.043483153 0.04004211 0.013930091 -0.081864744 -0.038523063 0.031903237 -0.0489154 -0.06029154 -0.17889701 -0.086359814 0.18222024 -0.036105093 0.26731205 0.048490144 0.070153914 -0.10228694 0.008107333 0.05697569 0.23549366 0.17914452 -0.27624202 0.019579723 -0.10906098 0.13089375 0.20257886 -0.09113898 0.078723595 -0.26589054 0.06256985 -0.022030914 -0.12791671 -0.1512144 -0.1495818 -0.039951988 -0.022434775 -0.07469679 0.04764662 -0.022502868 0.14116728 0.33737394 0.031799547 0.009162704 -0.01985765 -0.08652723 -0.1572058 0.10517622 -0.031299725 -0.13618779 0.07912165 -0.046345256 -0.054947816 -0.07800458 -0.28864074 -0.041935936 -0.020667657 -0.061394755 -0.14247495 -0.09004209 -0.0101139005 0.15073028 0.25172487 0.094651096 0.17731155 -0.024231192 -0.088359326 -0.0018718411 -0.0012293843 0.069152854 0.16975732 -0.08075122 0.009525253 -0.099612325 -0.026602432 -0.047318738 -0.14369461 0.19173664 -0.11405345 -0.014049853 -0.11343352 0.14663462 -0.11526814 0.011471263 -0.03290758 0.17247783 -0.050086804 -0.07211385 0.039381035 0.13136347 -0.059339035 -0.08261306
184 0.1036965 -0.07211678 -0.17453183 0.18253417 0.18136263 0.032262284 -0.36935896 -0.12642153 -0.23373707 -0.24193045 0.47876334 -0.59782094 -0.0206829 -0.5288859 -0.4040065 0.0843112 0.20123598 0.2822594 -0.13735 0.18944822 -0.0150696775 0.113004275 -0.025439542 -0.21852581 -0.33789596 -0.23723088 -0.38696203 0.2862495 -0.2671845 -0.37051517 0.27745578 -0.30723897 0.51181 0.25242308 -0.47526965 0.36370525 -0.4668532 -0.1852871 -0.13130002 -0.45808086 -0.09046161 -0.15429802 -0.16685906 -0.29764453 -0.36365208 0.17599167 -0.022293191 0.12266007 0.29404262 0.13242246 -0.31054306 -0.05770313 0.05594369 -0.286798 -0.047841642 -0.23839493 0.2923632 -0.29031128 -0.3100073 -0.13371012 0.00022644637 -0.15638281 -0.56747806 0.41627178 0.3505386 -0.2199513 0.47836766 0.46407557 -0.11476783 0.20902963 -0.28303567 -0.1825094 0.34814808 0.3448364 0.21485268 0.35199285 0.21889588 0.3769471 0.46929944 -0.18535149 -0.35777453 0.26332384 0.3232988 0.52864164 -0.41085905 0.10567445 -0.9056886 0.69431 -0.47912604 -0.12172356 -0.1892753 -0.40916806 0.22797552 0.12569578 -0.25409523 0.21875826 -0.21990998 -0.037715945 0.6555015 0.24350107 0.020761082 -0.06891629 0.29117414 -0.120658785 -0.07781456 0.22197913 0.07004959 0.3334454 0.018219523 0.18455987 0.19409189 -0.8822309 -0.058245946 0.26789346 0.053772226 -0.06568645 0.3237214 0.17530012 -0.0042047584 0.31640798 0.5136918 -0.046758905 0.24951254 0.0040675043 0.8034816 0.17019416 -0.12855746 -0.40777376
61 0.0719612 0.17504276 -0.17127055 -0.19949971 -0.040011737 -0.04777966 -0.08992453 -0.12892933 -0.07959176 0.03457221 0.102272995 0.043003716 -0.06673844 -0.029060276 -0.110099435 0.1761622 0.2815326 -0.01474365 0.28413317 0.062472645 0.16722736 -0.0030838526 0.06835991 -0.11757664 0.017615836 0.13243616 -0.08800699 -0.107745506 -0.087900326 0.08342728 0.17588525 -0.021509474 0.057028756 -0.026839664 -0.19787954 0.102389805 0.09044883 0.13766299 0.02532104 0.10015338 0.119868465 0.005769649 -0.16557822 0.036960207 0.056555208 0.1297913 -0.19820528 0.030954769 0.07869476 0.029987833 -0.046659373 -0.117468335 0.068796456 0.08514475 0.22498055 -0.13157113 0.024607057 0.2694374 0.037877813 0.1256139 0.15543857 -0.014743234 -0.21097317 -0.05353963 -0.0061095855 -0.13595042 -0.1860208 0.21438189 0.030477006 -0.07926202 -0.103786245 0.004868822 -0.068812154 -0.020569006 -0.003608066 -0.0764319 -0.008043802 0.15497254 -0.10440356 -0.015326072 -0.089162104 -0.19345312 -0.1855861 -0.05773217 0.18830797 -0.117933966 0.13357964 -0.09668209 -0.078125514 0.03512024 -0.29807007 -0.13600217 -0.07007774 -0.0030725538 -0.09971091 0.095980525 -0.017906643 0.2850301 0.06038547 0.18810627 -0.08484322 -0.021740712 0.09581486 0.1649491 0.03174741 0.07850999 0.19241871 -0.20541003 0.05099946 0.03602864 -0.010683549 -0.0033103263 -0.13101272 0.025374908 -0.17213567 0.21703903 -0.19480486 0.12115967 0.12592879 0.015025363 0.011679072 -0.035966467 0.23884228 -0.13822904 0.045113854 0.14089224 -0.18673031 -0.00075117504
53 0.10259451 0.08604273 -0.20623825 0.124977805 -0.08813397 -0.20992833 -0.18699743 -0.012686424 -0.29321262 0.0036174827 -0.11827892 0.05267976 -0.14454901 -0.020405265 -0.21431163 0.25422618 0.0023908396 0.05391692 0.11557209 -0.09218633 0.13509806 0.12105853 0.18762678 -0.22743225 -0.08560164 -0.03975527 -0.26842183 -0.044594184 -0.17347741 -0.15709387 0.21848032 -0.068728335 -0.021205151 -0.023100171 -0.07861837 -0.07845672 0.06543675 -0.08305165 0.070535436 0.08983187 0.17120557 -0.061239623 -0.021229252 -0.056118503 -0.024090257 0.08919427 -0.032352693 0.11590869 0.051942043 0.018620158 -0.057874214 0.12863535 -0.018801425 0.0399708 -0.066768944 -0.027511586 0.20708792 0.163626 -0.13809648 0.21643026 0.12223911 -0.17895108 0.10006704 0.0014700445 -0.17509049 -0.16241483 -0.07301878 0.056372408 0.0376678 -0.16281205 -0.2618251 -0.31146568 0.053769384 -0.09861111 -0.17747009 0.11663208 -0.020707343 0.22653513 0.11427454 0.1355988 0.06545249 -0.24822997 -0.25465876 0.12022239 0.014039913 0.06473966 0.13081819 -0.10989876 0.017070556 -0.023153963 -0.4616855 0.033805132 -0.11463619 0.02116339 -0.093201466 0.042375486 -0.08203352 0.084961146 0.06801956 -0.10119248 0.33299315 -0.06993271 -0.043568827 0.036596548 0.1253103 0.03727016 0.17980066 -0.07098011 0.066929124 0.20371626 -0.0884726 0.139921 -0.08028512 -0.075153396 -0.18788908 0.028812036 -0.3060158 0.25693738 0.047825497 0.0064228363 0.23360068 0.10360382 -0.027688125 0.024489125 -0.13241976 0.028538985 -0.11089464 -0.14672224
42 -0.03327559 0.019156793 -0.089447305 0.08087309 -0.054878023 0.1125818 -0.29645443 0.055221558 0.112732746 0.14374302 -0.034283467 0.01697726 -0.004590129 -0.019661484 -0.06926816 -0.08404507 0.07414734 -0.14807846 0.042517576 0.20069999 -0.06532475 -0.05016896 0.0029058189 -0.2669895 -0.3573099 0.15773037 0.10293504 -0.07540656 0.074682176 0.06666651 0.08222795 -0.19067149 -0.07687304 -0.01059984 -0.052538563 -0.0069380016 0.12443433 0.034687065 -0.06683906 0.24305336 -0.040893644 0.15029792 0.10591015 -0.13353531 0.08225799 -0.06445023 -0.057852957 0.115780205 0.3136818 -0.06855864 0.13269185 -0.050126933 0.16359659 0.09552573 0.18084837 -0.24172863 0.05218268 0.22347187 -0.18365158 0.028831102 0.025729489 -0.13469031 -0.052408505 -0.09532045 0.08094191 -0.043632843 -0.020379866 0.010717986 -0.03938774 0.06667005 -0.081147164 -0.09811583 -0.001780937 -0.14917675 0.011233332 0.102314614 0.07005271 0.3205874 0.23073292 -0.11721775 -0.12324129 -0.10637962 -0.11695456 -0.014367007 -0.0644056 0.052726507 0.03745686 0.004101394 0.12552351 0.011694668 0.04390496 -0.15698963 -0.034515332 -0.016138861 -0.097699665 -0.13429138 0.045088813 0.07534885 0.21415865 -0.06257186 0.058840852 0.19023876 0.034314 0.045805477 0.12090083 0.1567892 0.218933 0.12612148 0.053388685 0.025922174 -0.015985843 -0.10541567 -0.19309929 -0.1047719 -0.10402042 0.10715979 -0.10239289 -0.07832768 0.07395589 -0.06805649 0.12143647 0.14438045 -0.016860103 0.045930777 0.0033854253 0.038571965 0.2571059 -0.0084901275
192 0.13160035 -0.013671071 0.35350683 0.09590887 0.20171784 -0.25773773 -0.30025277 0.25086305 -0.27188095 0.124006696 -0.1297591 -0.39413977 -0.21571267 -0.29564002 -0.85493016 0.08519868 0.19009973 0.64741206 -0.27388364 -0.19026317 0.20115721 0.23361072 -0.6249404 -0.26907194 -0.31011045 -0.079653785 -0.36173162 0.045546453 -0.38889873 -0.38722354 0.59012204 -0.24043894 0.11430404 0.11472783 -0.1531619 0.482206 -0.54008126 -0.4986697 0.04619554 -0.22968024 -0.12365899 -0.057402458 -0.09296214 -0.12757891 -0.25588217 0.08776342 -0.2848258 0.39617786 -0.5407444 0.25259352 0.1316921 -0.21292664 -0.29033434 -0.15644823 0.58752304 -0.2885333 0.40926504 0.13003902 -0.3273033 -0.19680458 0.027030153 -0.0586218 -0.7148583 0.19654661 0.28446066 -0.39856791 0.2736762 0.010125868 0.039075084 0.5853713 -0.10138859 -0.6768394 0.1590222 0.019798886 0.29273072 0.05209113 0.42060766 0.36310628 0.5937802 -0.14647284 -0.5533003 0.15337686 -0.07843999 0.18383995 -0.0426805 -0.14852713 -0.5443392 0.93879974 -0.8285564 0.42211556 -0.095840044 -0.7133383 0.48160836 0.32371372 -0.17775811 0.12933724 -0.038960468 0.2312776 0.77149904 -0.35138127 -0.19940239 -0.06744898 0.012576197 -0.3377091 -0.22865735 0.2901724 -0.38814613 -0.028316421 -0.16561261 0.058672357 0.07998631 0.057296183 0.10610608 0.17541444 -0.0947122 0.08841127 0.110479705 -0.028972806 0.17244317 -0.16636343 0.11653047 -0.4620079 0.2448752 0.35059455 0.16396055 0.11663507 0.19664064 -0.42846552
67 0.13898993 0.00019638427 -0.109172195 -0.13683155 0.039824307 -0.0701418 -0.09362949 0.0106198825 -0.058450915 0.18209818 -0.2446465 0.08221734 -0.24830443 -0.22797881 -0.14018174 0.17219898 0.22226924 0.0040486716 0.09710769 0.2774068 0.16240063 0.025907788 0.055821236 -0.29394168 0.077800274 0.06308313 -0.08120683 -0.030685509 0.04085504 0.10372378 -0.047841202 -0.12711821 -0.024909578 0.21376847 -0.13000041 -0.07942259 0.20775232 -0.10237157 0.041914936 -0.08442061 0.13880897 -0.16065143 -0.062672615 0.08518073 0.08671965 -0.011553962 -0.18213134 0.012404165 0.14977613 0.039520457 0.12040477 0.10375517 0.13459907 -0.17238389 0.053706378 -0.15911666 0.29084307 0.05100449 -0.012334235 0.1821673 0.31162825 -0.05624741 -0.08324415 0.02594135 -0.06701985 -0.15931076 -0.039959412 0.08181589 -0.046124548 -0.12183303 -0.09843337 0.1114112 0.12017046 -0.00022034119 0.07453588 -0.03583909 0.082974605 0.16647695 -0.05852391 0.20544802 -0.018828642 -0.115166724 -0.26975983 0.05583043 0.10558031 -0.052008197 0.010928805 -0.003706344 -0.0781289 -0.10047746 -0.062658004 -0.11472292 -0.10430716 -0.031352624 -0.12619416 0.13034348 0.0072237113 0.12583445 0.08418123 0.07499 0.20560661 -0.07136352 -0.1835932 0.16921134 -0.1399481 0.018192971 0.14248472 0.01286095 0.05687681 0.0026936524 -0.11614256 0.06842621 -0.09514975 0.19350706 -0.11579137 0.124810405 -0.039784875 0.13373032 -0.0032882132 0.00780767 -0.036875475 -0.00012463678 0.20901649 0.023412421 -0.035352677 0.15665679 -0.13945802 0.022792194
56 -0.02945034 0.13295035 0.012271212 -0.046458434 -0.05360577 -0.03310887 -0.059748396 0.006299313 -0.063045606 0.08236629 0.057276893 0.10222907 -0.006201589 0.015384802 -0.30710438 0.19318768 0.092376165 -0.11587915 0.045390204 0.21677421 0.26585683 0.043562338 0.0047726603 -0.2493778 0.05657239 0.08346945 -0.076330185 -0.20165688 0.08344118 -0.17148477 0.23028038 -0.08165768 -0.002836683 0.10188731 -0.20856854 -0.13738541 0.00798991 0.016700162 -0.02841133 -0.051452857 0.06887813 -0.08361616 -0.009397339 -0.13398004 -0.15859304 0.033617735 0.015483453 0.03282564 -0.0073046274 0.0921516 0.08361622 -0.08410844 0.027118785 -0.10496697 0.3112671 0.04783319 0.090033874 0.071698554 -0.1418732 0.05709065 0.055916887 -0.07702754 0.05212702 -0.005451455 -0.22403078 -0.14478712 0.10142758 0.14205703 0.118749544 -0.038173363 -0.109047204 0.22048943 0.16676898 -0.1641137 0.13624461 -0.03809522 -0.051568024 0.116763055 0.18732312 0.13148493 0.056391783 -0.17129783 -0.055917002 -0.039950784 0.15388533 -0.15649666 0.08169965 -0.09325675 -0.110703826 -0.10351871 -0.39423338 -0.043397766 0.086180374 0.19818974 0.010304305 0.0112654725 0.022418927 0.034933563 -0.11339058 0.2425623 0.1444411 -0.11430378 0.03666367 0.2612081 -0.1302758 0.06748678 0.24713069 0.0043358984 0.14128318 0.23868093 -0.11807131 0.116862565 -0.13880998 0.013975329 -0.09482363 0.08711028 -0.12895964 0.120478086 0.2263603 -0.11738307 0.17782953 -0.030922145 0.19365224 -0.07478496 -0.118262134 0.17565665 -0.20140141 -0.05076071
72 -0.029352643 0.18341081 -0.04093773 -0.052798413 0.056870494 -0.14839844 0.04991138 0.022200452 -0.0988473 0.15819907 -0.030677697 0.09500004 -0.08509132 -0.34084177 0.03487737 0.30672246 0.071085416 0.25173956 -0.034134537 0.20618145 -0.15755613 0.1772878 0.15282246 -0.21096556 -0.20201391 0.055616364 0.36829832 0.12095164 -0.051864136 0.12062867 0.23317549 -0.2026088 -0.09283089 -0.10077638 -0.15017006 -0.11287027 0.27531725 -0.121195294 0.035083268 0.30343485 -0.19685593 0.22107501 0.0987461 -0.26829374 0.07859064 -0.0041623376 -0.08358561 -0.020138692 0.049016383 0.017127823 0.13719614 -0.19229108 0.13984089 0.041270167 0.11147208 0.072677635 -0.15688929 0.2947099 -0.33133456 0.24998622 -0.1695405 -0.11317921 -0.1761145 -0.15073855 0.03123479 0.19574806 -0.0066640386 -0.06483434 -0.091656536 0.20374702 -0.0118383365 -0.12831682 0.071725406 -0.036565125 0.07597495 0.19782734 -0.17228758 0.058154143 0.062002145 -0.17063285 -0.13643472 -0.2609065 -0.26991487 -0.042224634 -0.0006745533 -0.004681727 -0.10580043 0.01965353 0.08398344 -0.034857884 -3.781682e-05 -0.16219236 -0.007016757 -0.11807537 0.060487643 0.018857624 0.17943121 -0.13296138 0.12555929 0.030229796 -0.1376693 0.2907135 0.041391682 -0.06916775 -0.036267117 0.08640806 0.21588612 -0.22563502 0.05284275 0.07882816 0.33093295 -0.024874084 -0.045420736 -0.0018486822 -0.10687126 -0.007791224 0.01633002 -0.38298064 -0.075820535 -0.0073623736 0.024324005 0.21679837 -0.067850195 0.08779482 -0.08166115 0.3467671 -0.20112137 0.023857858
64 0.09666294 0.09584933 -0.038803395 -0.02588402 -0.015677942 0.058704328 -0.026357388 -0.16119643 -0.11686001 0.028860096 0.060241442 0.16980198 -0.16945377 0.1080574 -0.22330298 0.15161973 0.06049719 0.10105133 0.12217814 0.083769836 0.15242782 0.09171292 0.3015125 -0.22436246 -0.11906403 0.25999084 -0.08429735 -0.11056249 0.0096923085 -0.10829688 0.25618947 0.03805765 -0.050996743 -0.07129878 -0.36483264 -0.06480545 0.14778641 -0.14411058 -0.093993306 0.08253546 0.14289747 -0.10661116 0.01632633 0.14392939 0.11981135 -0.04631558 -0.06918517 0.0861595 0.23341122 0.022566905 0.25453478 0.09638491 0.21314892 -0.026068853 0.14368221 0.089453146 0.26460183 0.017769108 -0.025915297 0.17644231 0.14590155 -0.098008856 -0.14959773 -0.12790681 -0.032004416 -0.20703709 0.04071173 0.048099905 -0.05184416 -0.22299626 -0.06252967 -0.08571892 -0.024352597 -0.087561615 -0.046785593 -0.019081827 -0.033054233 0.17918907 -0.07213697 0.097150154 -0.2639557 0.05473073 -0.11688455 -0.04983484 0.24831672 -0.13158312 0.08528406 -0.04141725 0.13711135 0.13192265 -0.04664997 -0.15472905 -0.058510352 0.04599623 0.100168094 0.086119786 0.09495835 0.16444014 -0.17345026 0.040873673 0.3016226 0.09313059 -0.08412969 0.1562824 -0.1449396 0.18059422 0.112190366 0.0368296 0.04636831 -0.016977472 0.034525592 0.13153554 0.0506655 -0.027963586 -0.11537422 0.0018384714 -0.08509874 0.039623376 0.1360885 0.029990917 0.019651925 0.1368652 0.09262793 0.08902123 0.0070678866 0.06581186 0.012226158 -0.029648865
