500 64
0 0.023363406 -0.0226445 0.24808699 -0.13267577 0.120885275 -0.16954252 0.2989985 -0.22421381 0.22168253 -0.17018323 -0.15443602 -0.38972494 -0.030195506 -0.07853823 0.06830053 0.3145793 -0.12943338 -0.23139778 -0.080072336 -0.16055767 0.15527111 -0.09259454 0.614239 0.14693266 -0.10178381 0.09204734 0.5661267 -0.144523 0.20055129 -0.1121886 -0.1066224 0.4794031 0.035025936 0.34361395 0.45174474 0.017266825 -0.011427361 0.052370537 0.34190235 -0.3476816 -0.30372515 0.17408021 0.1869309 -0.3375403 0.44415334 -0.08006277 -0.065989524 -0.0679155 0.21704128 -0.17790225 0.043248575 -0.26566714 -0.11831544 0.2706587 -0.058160547 0.09285688 -0.25488186 -0.09164784 0.041301813 -0.45351654 -0.23521966 0.24375369 0.026270783 0.32096487
2 -0.20453833 -0.072212026 0.6669145 0.13248189 0.24003856 -0.01110828 0.29289404 -0.38540497 -0.29333696 -0.05088392 -0.016279504 -0.14603037 -0.54007864 0.032501318 -0.038239468 -0.07346687 -0.22861418 0.045465376 0.35772145 -0.24109712 0.30764347 -0.0836982 0.21581417 0.54121697 0.16574721 -0.044737693 0.26447403 0.052644763 0.24017456 0.17226113 0.122854136 -0.14949636 -0.23352185 0.035082128 0.14586896 0.029054752 -0.09548543 0.21695252 0.2874577 0.18514358 0.14630513 -0.025007691 0.10355438 -0.078917064 0.29946223 0.19555272 -0.090894215 0.0779984 0.452338 -0.07238607 -0.2364224 -0.36302644 -0.0066547347 -0.0682899 0.41888815 0.027586505 0.35885766 -0.62622315 0.62120324 -0.25801 0.21081325 0.2151464 0.00036699334 0.21949972
1 -0.2091831 0.029434832 0.17003585 -0.0047481167 0.29826686 0.13488725 0.078566045 0.029106095 0.06688858 -0.20162557 0.07808348 -0.2126759 -0.31482527 -0.22579026 -0.047599826 -0.029600017 -0.2462123 0.065941356 0.12901892 -0.02003802 0.28690597 -0.4223992 0.69976926 0.26327115 -0.23956227 0.114361666 -0.06717416 -0.12689082 0.017986976 0.2371463 -0.25487685 -0.01212532 0.09373964 -0.020052738 0.26349464 0.35711324 -0.13950099 -0.03697604 0.28114998 0.055147793 -0.2887164 -0.0008469891 0.053019956 0.16093467 -0.13100754 0.060889747 -0.28521678 0.114815734 0.26411623 -0.07445753 0.3170073 -0.45276147 -0.044020396 0.17103212 0.098988764 -0.03133734 -0.18016674 -0.08860941 -0.14147803 0.004459038 0.23536077 -0.16096532 0.24032146 0.47813192
6 -0.081863046 -0.11969032 -0.078205 0.022893975 -0.025973655 0.34976822 -0.13190706 -0.021562446 0.20471291 0.15696947 0.020595651 -0.277306 -0.24338886 -0.30543652 -0.22479174 0.18925442 -0.28557613 -0.29634148 0.17993072 0.063251145 0.01687878 -0.38081592 0.29002878 0.5199364 -0.27535284 -0.18143518 -0.25958383 0.05637939 0.4211234 0.05956272 -0.49846524 -0.0014542205 -0.2731187 0.036199387 0.2569003 0.67217153 -0.06724221 -0.103041925 0.6148695 0.19559923 -0.04650048 -0.1375656 -0.27684718 0.31965023 0.04461366 -0.3258677 -0.37266204 -0.011887818 0.056598037 -0.04288384 0.23413104 -0.14111689 -0.14295323 -0.087082736 0.056834802 0.11338124 -0.19135858 -0.019058755 0.07143278 -0.11069244 0.07010573 -0.13250038 -0.26527658 0.4468041
5 0.30033037 0.040935975 0.41643712 0.38583878 0.5374716 0.35586363 0.42831334 0.12973572 0.6636808 -0.023083774 0.27170953 0.013618931 -0.33442757 0.016649805 -0.40996188 -0.18760592 0.036807675 -0.0055089477 0.07210685 -0.3369295 0.03591058 -0.428771 0.4158072 0.2927201 0.22348516 -0.32022524 -0.012450481 -0.2609907 0.13242269 0.29966274 -0.21960336 -0.07586687 -0.17181961 0.098340966 0.44718882 0.27223173 -0.051401008 -0.4500619 0.40121567 0.27761027 -0.083442606 -0.3050685 0.19507664 0.54465836 0.23516947 0.1696823 -0.22800227 -0.14491294 -0.0126357665 0.022045922 -0.034101818 0.20193297 0.041531976 0.15826687 -0.13769321 0.05506561 0.12885474 -0.017026613 0.22830577 -0.16579881 -0.18608831 0.02110222 -0.078172445 -0.10619821
17 -0.26584652 -0.04327535 0.33609533 0.06525666 0.09285521 -0.027613321 0.26713902 0.06409073 0.056512974 -0.029673621 -0.06990523 -0.28892195 -0.13380034 -0.18490654 0.059134107 0.38426745 -0.28015533 -0.05801322 0.05656343 -0.2154232 0.32751992 -0.33706108 0.47278786 0.27576584 -0.28987306 0.115976945 0.3770901 -0.33260992 0.029385064 0.13903631 -0.18413864 0.07321251 -0.06488694 0.23057422 0.3202846 0.20442116 0.07874677 -0.03732478 0.082823746 -0.10644407 -0.39857247 -0.063836195 0.0015513153 -0.077021435 0.17952807 -0.06444033 -0.15177682 0.14548911 0.02798854 0.22103359 0.06794674 -0.28024903 0.094360836 0.24229373 0.029657485 -0.1824527 -0.23099056 -0.06266922 -0.041545387 -0.10640256 0.04004763 0.18304513 0.35765216 0.2772265
20 0.10554796 -0.15205696 0.10968361 -0.26193932 0.12848733 -0.17188609 0.22338757 0.3959457 0.20998684 -0.5135024 0.112387575 -0.22132315 -0.1145188 -0.25018334 -0.21080369 0.51868975 -0.12374849 -0.19240253 -0.15518881 -0.35917625 0.45386893 -0.25646225 0.28536913 0.19506076 -0.34444886 0.18901297 0.1732186 0.02030772 -0.15924388 -0.056198433 0.050208777 -0.15348116 0.006696868 0.14829874 0.22999376 -0.03014882 -0.12307818 0.027964385 0.23987441 0.13438879 -0.23904866 -0.3036349 -0.22713618 -0.2056281 0.003240917 0.095969684 -0.06676258 0.20740898 0.02153573 0.33449984 0.14328681 -0.12654603 0.4897063 -0.29228422 0.10008433 -0.36729378 -0.6407248 -0.21682176 -0.23010598 -0.32487026 -0.09467295 0.3529721 0.021435443 0.45711556
7 -0.21955934 -0.009188941 -0.12862971 -0.15847561 0.41839144 -0.19111723 0.23921554 0.23345314 0.4009968 0.03702963 0.15830524 -0.3176784 -0.19977728 0.16931558 -0.031351894 0.31771713 -0.36996508 0.09398544 0.07444777 -0.019221416 0.5184674 -0.26373214 0.68533874 0.252415 -0.4474391 0.07086211 0.19762278 0.13031273 0.17191128 0.19997059 -0.27589574 -0.14383195 0.0027452877 -0.02100154 0.15661733 0.30433634 -0.013366694 -0.12924524 0.16492553 0.098321676 -0.21515091 -0.025625115 0.045899272 -0.084852464 -0.17832956 -0.089999646 0.049999516 0.109836996 0.11856984 0.013463859 0.15885326 -0.2020257 0.090436235 0.12831393 -0.042310137 0.19543563 -0.2321377 -0.088162616 -0.27912712 -0.4641009 -0.02249676 0.11380339 0.19981726 0.3224394
10 0.04785384 0.08432526 0.49501655 0.15274273 0.20298335 0.12002011 0.45293912 -0.026014153 0.034864314 -0.096092455 -0.10336277 -0.1404946 -0.39201674 0.06728857 0.20655712 0.1820078 -0.21225353 -0.12690353 0.3819241 -0.19436063 0.16627176 -0.044613365 0.38179606 0.5619072 0.09833784 0.14753215 0.15485986 -0.1831596 -0.008645549 0.07118985 0.23673269 0.11574856 -0.26297507 0.06952161 0.1307496 0.17020343 0.049669296 0.10882162 0.42014104 -0.115720645 0.03543503 0.33756223 0.10192293 -0.23249494 0.46736723 -0.12592849 -0.23099782 0.16129763 0.3221768 0.2765975 -0.3336004 -0.20960188 -0.297057 0.14301494 0.35614243 0.21161775 0.41407317 -0.43046072 0.4446696 -0.37184098 0.017663967 0.3345263 0.11264355 0.013310194
9 0.07647174 0.2699726 0.5283048 -0.013755614 0.5732072 0.06492591 0.19964941 0.2155674 -0.08470559 -0.32983455 -0.045342628 -0.4146459 -0.0016612565 -0.093549825 -0.10872807 -0.031376954 0.012566851 0.17242344 0.10992317 -0.23045315 0.28579086 -0.272346 -0.22775586 0.16439967 -0.39549863 -0.36668292 0.04190461 0.10180171 0.14861894 0.15310806 -0.09288875 0.105535634 -0.20801413 -0.09232392 0.25381514 0.30494288 0.09412632 -0.054923266 0.42795137 0.16182788 0.03823462 0.25293127 0.2343696 -0.0080303755 -0.05885463 0.12395322 -0.14338133 0.05870842 0.29334536 0.25697836 0.5709585 -0.392737 -0.18683237 0.27340022 0.1505928 -0.018221723 -0.6997053 -0.056343406 0.24688919 -0.34855655 0.2062048 -0.55585736 -0.06071379 0.36630327
11 0.005484728 -0.04348648 0.19617233 -0.1891225 -0.0033209778 -0.27464476 0.16991065 -0.15980236 0.37075654 -0.3163892 -0.3014092 -0.17004493 -0.15330288 0.0028267084 -0.03769909 0.3174763 0.028779974 -0.55137026 -0.06704003 -0.3760839 0.314551 -0.31989294 0.5080428 0.38798773 -0.42866835 0.112877406 0.58272386 -0.27861196 -0.023710163 -0.07350399 0.08008603 0.39306644 0.28172386 0.31104648 0.53259987 -0.17539851 0.0683325 -0.14148036 0.23245502 -0.31016064 -0.06713842 0.099184476 0.12980542 -0.2040752 0.52688867 -0.042556506 -0.03045923 0.10060871 0.042193193 -0.10564889 -0.16555174 0.048259933 0.07552576 -0.065963626 -0.011753562 0.11974742 -0.27964118 -0.31094944 0.09860682 -0.1601824 -0.01107487 -0.04798335 0.12514868 0.4840202
4 0.14188074 -0.06407199 0.59771806 -0.06551492 0.3452991 0.012489467 0.28779677 0.18106413 -0.0018546969 0.22646546 0.36516953 0.097320534 0.1950087 -0.41664842 -0.2547983 0.21757153 0.14879234 -0.16954796 0.010689351 -0.27801168 -0.15628955 0.12745115 0.6831676 -0.06263242 -0.48028004 0.040792204 -0.12556897 -0.3791986 0.21945585 -0.1503803 -0.03956698 0.15469964 -0.14024454 -0.03734738 -0.07636029 0.013463972 -0.07836556 -0.41281316 0.37273628 0.2874931 -0.19961947 0.21056923 0.14997156 0.10826963 0.4107072 -0.054759484 -0.23187172 -0.014424384 0.44295636 -0.13165577 -0.05065951 0.25748932 -0.031964425 -0.0056123715 0.57849073 -0.37162358 0.26134956 0.020374557 0.21622516 -0.640807 0.07805281 0.055648934 0.0956374 0.30434236
14 0.20231083 -0.056887474 0.4532298 -0.17028351 0.24336821 0.06787798 0.002893645 0.024221592 0.050363455 -0.44322574 0.18352436 -0.19672811 -0.14544359 -0.3591926 -0.12264213 0.49743733 -0.14609714 0.09654272 0.2052465 -0.059767887 0.4015639 -0.2970347 0.34426582 0.07438896 -0.34428698 0.29408112 0.23815359 -0.19656678 -0.38723487 0.011631015 -0.24215788 0.019488443 -0.107463196 -0.10861617 0.3695592 -0.1528894 0.11543165 0.071675315 0.16872093 0.18216784 -0.25177583 -0.09997179 0.11010899 -0.08737304 0.030853381 0.2107401 -0.24390306 0.05173809 -0.10086929 0.21007667 -0.16860949 -0.17913452 0.0710458 -0.23582041 0.25389662 -0.18480536 -0.28593853 -0.5121651 -0.052571945 -0.06366807 0.034900054 0.0032774033 0.47765213 0.41043356
13 0.08560632 -0.55313516 -0.18647303 -0.12678638 0.4251048 0.048142217 0.32073775 -0.26318344 -0.16538496 -0.15620926 0.5360048 0.24111494 -0.0015298144 -0.35213122 -0.30543798 0.3123135 -0.2648879 0.37118176 0.01799703 -0.22425573 -0.004790799 0.3363311 0.43644643 0.07044893 -0.12655316 0.117262006 0.059101723 -0.0469947 -0.17406939 -0.059525486 -0.170295 0.17017297 0.09533024 -0.07571305 -0.08529304 -0.12521963 -0.41189674 -0.2474841 0.19275819 0.20795046 0.31570905 0.30187646 -0.18404683 0.32730252 0.21157733 0.10984426 -0.32645404 -0.40008715 0.010118671 0.4195797 0.2082672 -0.11104899 0.2095504 0.1058091 -0.018899491 0.0699223 0.16230166 -0.69106805 0.20175473 0.026100745 0.0050864755 -0.37450162 -0.2468157 0.07671478
36 -0.049386587 0.40370795 0.25890937 -0.07931137 0.32709372 0.029525515 0.64541125 -0.18468054 -0.13179535 -0.42361164 -0.17921261 -0.6246521 -0.010610682 -0.115585156 0.11779681 -0.0062322286 -0.08380861 0.007924929 0.063289426 -0.2968464 0.038713187 0.0427159 0.0682957 0.28894204 -0.012801265 0.12472428 0.36557212 -0.049006853 0.17881556 0.27128518 -0.24241692 0.49573627 0.29847032 -0.07032441 0.27501708 -0.19141375 0.090112455 -0.15234265 0.50596535 0.006875541 0.0007583472 0.08672075 -0.0816773 -0.16315135 0.24301833 -0.13586357 -0.34275395 0.13991556 0.36714628 -0.013864705 -0.2112392 -0.4247277 0.19592333 -0.021981629 0.079597704 0.05596113 -0.5204808 -0.11808274 0.57725024 -0.60041636 0.22406065 -0.08770963 0.14868355 0.02020432
16 -0.1348936 -0.060034186 0.4885965 0.030812658 0.2222396 -0.075693265 0.14481582 0.06779511 0.07534047 -0.10253549 0.1166078 0.0474736 -0.15079135 0.057639036 0.09122311 0.5250974 -0.24172482 0.06255598 0.32770735 0.05366648 0.2487624 -0.30585915 0.5154969 0.25206193 -0.14710656 0.13147174 0.27537316 -0.07614968 -0.060820904 0.0257381 -0.25853136 0.11598056 -0.08872161 -0.2586644 0.2444743 0.12232198 0.25425643 -0.093106054 0.15823479 0.0697771 -0.08923213 -0.013321542 0.025417687 0.112795636 0.27761817 -0.19356292 -0.16470861 0.07010862 0.1909749 0.20571357 -0.060455628 -0.114319205 -0.1547623 0.14551371 0.21790858 -0.1387309 -0.025517726 -0.2553955 0.048915837 -0.049583446 0.17131214 0.041524258 0.30251884 0.20383233
3 -0.21728587 -0.4196948 0.32327914 -0.02528168 0.42515936 -0.099713005 0.18652666 0.33958212 0.06862702 0.0022657372 0.14367723 -0.1311797 0.28365842 -0.08377843 -0.19561185 -0.0365725 -0.44317368 -0.20957723 0.1287443 0.0824438 -0.14838457 0.1846993 0.44398043 0.11677822 -0.2184442 -0.05394681 0.113655925 -0.17248255 -0.5330538 -0.11344559 -0.29305837 0.09305639 -0.09793493 0.20070215 -0.04522297 0.24297464 -0.010998074 -0.4242442 0.48491246 0.026336938 -0.034351725 0.14450747 0.30961883 -0.009324538 0.089993805 -0.1574847 -0.25521773 -0.26460877 0.4096524 0.12527333 -0.39527798 0.3240295 0.11771193 0.22779809 0.27479985 -0.21174784 -0.088938296 -0.19641182 0.09115776 -0.7226795 -0.18623002 -0.3816342 0.0906167 0.1782701
27 -0.0027817152 -0.25167415 0.34588188 -0.08563341 0.31170616 -0.14868803 0.06607563 0.30743718 0.037918363 -0.27704737 -0.0048475675 -0.13871923 -0.20502412 -0.24014783 -0.05255358 0.34504345 -0.015477738 -0.071401924 0.08902844 0.16975503 0.054400917 -0.27520266 0.67092663 0.011959835 -0.5183142 0.35198513 0.21370375 -0.14555416 -0.042490512 0.16342546 -0.38149443 0.05873192 0.21928026 -0.07999073 0.15309568 -0.16776124 0.12844485 0.07708187 0.21098383 0.14322908 -0.18036294 0.09668624 0.20530118 0.104945466 0.45749822 0.13997668 -0.12559384 0.073807545 0.07682762 0.123826645 0.014082545 -0.21310796 0.039617434 -0.4997407 0.11969205 -0.11522406 -0.14376436 -0.1534975 0.00893413 -0.14099167 0.24364524 -0.02390842 0.53748024 0.33192608
8 0.012094903 -0.10817593 0.04177466 -0.10606298 0.14554624 0.07867576 0.38304254 0.3388626 0.05641729 -0.20651306 0.29899168 -0.41325763 -0.20605311 -0.4487387 -0.3166285 0.38801733 -0.045702443 -0.2883808 0.15639177 -0.21085839 0.08286759 0.020599449 0.29943314 0.14457749 0.086953185 -0.21510172 0.12464722 -0.15672134 0.09285342 -0.07474983 -0.06283619 0.20538335 -0.06374377 0.24871539 0.024231164 0.13697435 0.10838197 0.09800496 0.15380037 0.2724716 -0.2791202 0.13939673 0.13665865 -0.03488952 0.30971768 -0.0051618824 -0.090666115 0.278634 0.42263576 0.23241633 0.14252871 0.23926316 -0.09619641 0.22157638 0.35737398 -0.058739025 0.3766779 -0.2435552 0.23851705 -0.18534158 0.18121864 -0.29241523 0.2516631 0.20260713
21 -0.088139966 0.09276505 0.49531537 -0.042355217 0.06165422 -0.104062065 0.2125591 -0.024997698 -0.13192898 -0.21022536 0.20082693 -0.18114904 -0.13800661 -0.14741091 -0.26073074 0.6535817 -0.09482591 -0.17523186 0.23553175 0.0070882277 0.39769435 -0.16898122 0.26047185 0.10160618 0.06690952 -0.025894703 0.3603511 -0.12898839 -0.27997807 0.048095617 -0.29237643 0.08415615 -0.0076457867 -0.046230692 0.4122962 0.2462798 0.13566513 -0.22152151 0.45783892 0.17325488 -0.13109276 0.042996906 -0.06436337 -0.12711193 -0.0085062245 -0.07201283 0.042574894 0.046547428 -0.1542383 0.27401808 -0.069855615 -0.08037884 -0.27250072 0.068002984 0.24083541 -0.42007083 -0.13762389 -0.3104347 0.04512678 -0.05533178 0.09321168 -0.19632465 0.21674736 0.14314213
18 0.12663159 0.12417137 0.21153694 -0.30477384 -0.022706322 -0.21501155 0.15312713 -0.15151775 -0.042540498 0.06337294 0.37390998 -0.2785921 0.05039429 -0.41825905 -0.043322403 0.5827217 -0.17685576 0.07842737 0.030694973 -0.057632882 0.40675962 -0.3499434 0.35019308 0.020783668 -0.23291147 -0.2709717 0.48729646 -0.12459935 -0.058537453 0.4273948 -0.26687372 -0.071653806 -0.13939346 0.19463117 0.24980955 0.27397037 0.074425906 0.04067803 0.20119803 -0.06991559 -0.31500217 0.013001699 0.017637871 -0.4516492 0.4218868 -0.028327804 -0.054154657 0.1848269 0.20432004 -0.123447 -0.1559816 -0.09591306 -0.07571616 0.37280348 0.051694516 -0.18986054 0.06422384 -0.12555827 0.32562608 -0.06500598 -0.055701237 0.2324244 0.22723475 0.1999019
22 -0.12535235 -0.1518164 0.37223196 -0.34064877 0.28443345 0.5559525 0.041057684 0.3594976 0.23029351 0.26995948 0.27649388 -0.085476115 -0.31035936 -0.39201477 0.06993937 0.07037155 0.054515608 -0.1873518 0.017955564 0.037039395 -0.3236202 0.06229238 0.89971566 -0.20854896 0.037555233 -0.2696374 0.25723252 -0.1399743 0.046821423 -0.04348058 -0.08985276 -0.07733797 -0.21752052 0.41701835 0.19161999 -0.05008192 -0.4340522 -0.1240031 0.38710916 0.14607982 -0.19838212 -0.100646615 0.021159068 0.025827775 0.533488 -0.20525768 -0.24598573 -0.33212465 0.14019698 0.03404934 0.29824582 0.018555986 -0.19622405 0.45363724 0.028472362 0.10750876 0.031559605 -0.1051058 0.20372322 -0.17374787 -0.23116438 -0.29594678 0.14451407 0.32931384
32 -0.41976395 0.06465742 0.23651206 -0.09321781 0.47317377 0.19207592 0.50699574 0.113704726 0.16465098 -0.23072611 -0.27292854 -0.088873275 0.08240899 -0.1924129 -0.13040122 0.2964269 0.20723625 -0.22671594 0.12665436 -0.43040606 0.21226883 -0.10228549 0.19678774 0.422388 -0.099221885 -0.1375242 0.30922034 -0.14146623 0.06730514 0.46079183 -0.085963145 -0.11102743 -0.33064774 -0.09798576 0.41135293 0.38874352 -0.004610646 -0.035237428 0.37392798 0.3215879 -0.25111222 -0.13022508 0.29332718 -0.030691354 0.037956465 -0.082103424 -0.63207763 -0.200333 0.2641569 0.37986702 0.17509806 0.0045944536 0.40473077 0.46695644 -0.022398636 -0.00201297 0.24979088 0.115824744 0.14256184 0.29079413 0.34587848 -0.33356088 0.0031304637 0.25222278
12 -0.34080908 -0.571567 0.18923415 -0.15781182 0.35827374 -0.38134602 0.4207999 0.33320725 -0.043059647 0.11486534 0.27573672 -0.38018534 0.06890179 -0.2048593 -0.41564322 -0.024219573 -0.27693823 0.14746532 -0.124816135 0.15375417 -0.15258491 -0.13272698 0.117353745 0.032495324 -0.18932453 0.24940732 -0.013776259 -0.36322126 0.014860867 0.056964956 0.16971143 0.2940983 0.43421033 0.1027336 -0.11025336 0.19107974 -0.028009176 -0.19437823 0.2498167 0.078780904 0.15867426 -0.4747744 0.23908015 0.16870573 0.21700147 -0.060545973 -0.034990173 -0.16131423 0.44359446 -0.12879844 -0.29549524 0.13596034 0.015690437 0.31868383 0.3962778 -0.25022942 -0.24174619 -0.24193099 0.15081733 -0.60674316 0.08286028 -0.29891002 0.12475019 0.25733766
19 -0.15243725 0.13395973 0.009405421 -0.39884895 0.50721484 -0.009825943 0.26510414 -0.07964777 0.16783585 -0.05169712 0.25996798 -0.37072694 -0.1353043 0.062369246 0.009335824 0.6148237 0.13571176 0.08375406 0.13494228 -0.14648722 0.013693472 -0.23943835 0.6980835 0.06498767 -0.28976142 0.06632963 0.053751096 0.075820185 0.0010247752 0.14421809 -0.10610674 0.33021927 -0.2591438 0.065662615 0.10664824 -0.045664504 0.20183331 -0.10434167 0.30039185 0.055605177 -0.18985467 -0.37848237 0.21980369 -0.06385652 0.057055723 0.1309516 -0.30587032 0.1116628 0.019005712 0.32348686 -0.38764396 0.09849937 -0.30046067 -0.33167693 -0.022820158 -0.3915438 0.07481471 -0.48905852 -0.24981001 -0.24387236 -0.046920914 -0.17081946 0.30951574 -0.14372262
15 -0.2865894 0.2291805 0.11519373 -0.20697096 0.43242928 -0.05373214 -0.14900967 0.09796054 0.013778454 -0.083757184 0.03213955 -0.15142924 -0.19200425 -0.104626924 -0.200875 0.56656396 -0.125358 -0.15527146 0.10671762 0.2385961 0.022777943 -0.5631362 0.45124397 0.1600077 -0.11580223 0.23088259 0.31594545 0.059241712 -0.2855576 0.35010794 -0.26465422 0.11161391 -0.11439178 -0.13690305 0.28726456 -0.020783085 0.2117597 -0.07903255 0.2916102 -0.25524265 -0.25637862 -0.2568632 0.20893878 0.04454085 0.33261263 -0.028938433 -0.37989935 0.058363426 -0.15890361 -0.049686283 -0.09634025 -0.063492 0.013061213 -0.15973225 0.31092095 -0.23260313 0.031217989 -0.5747294 -0.122957 -0.12798473 0.19609274 -0.032082196 0.2496125 0.36483452
25 0.25530103 0.30283844 0.24300483 -0.26216114 0.05548128 -0.107061364 0.16540818 0.21628243 -0.018539067 -0.2594361 0.119909145 -0.09534026 -0.43880072 -0.31315047 -0.244623 0.5951576 -0.32078236 0.03000001 0.2888724 -0.082608975 0.33241734 -0.46065038 0.51161134 0.10495259 -0.06860902 0.25586087 -0.0740664 -0.116877 -0.25224268 0.23465852 -0.21988642 0.12627012 -0.18399441 -0.1392271 0.26588765 -0.090026 0.12860191 -0.21754315 0.3438436 -0.13744569 -0.16087025 -0.2096537 -0.068889774 -0.25232038 0.35537252 -0.12895918 0.021538092 0.30794784 0.08406483 0.13727824 -0.014276483 -0.028848143 -0.08503879 -0.14446943 0.34566456 -0.29534197 -0.06313951 -0.16289175 0.10136538 0.039199896 0.10139141 -0.033313304 0.17314628 0.14210732
37 -0.052755818 0.014768332 0.17138377 0.020368144 0.42341036 -0.35719058 0.07926699 0.2242151 0.066749245 -0.13886766 -0.07416749 -0.2483362 -0.20624183 0.05874456 0.054643396 0.72102994 -0.30846807 0.007511371 0.2504192 -0.15003403 0.28386304 -0.43260157 0.4643767 0.120855175 -0.19396575 -0.041944183 0.19148733 -0.02248245 0.11609694 0.11272217 -0.20690045 0.18087408 0.07318297 -0.20861307 0.26642644 0.11696057 0.27675363 -0.0043847 0.23324865 -0.085126445 -0.04893729 -0.100008525 0.033806246 -0.036153093 0.38614827 0.026373724 -0.10138696 0.1922612 0.009334378 0.06467987 0.0044418313 -0.101088054 -0.15246424 -0.1897927 -0.021752113 -0.23683451 -0.15149282 -0.20644282 0.08128406 -0.10377688 0.20706598 -0.05859213 0.30431587 0.18062393
23 -0.18646309 0.2060964 0.16622499 -0.3515447 0.30852714 -0.17733844 0.30608413 0.31790537 -0.12586486 0.03385471 0.2827427 -0.26855695 0.15831889 -0.27033553 -0.29428577 0.59927773 -0.073696405 0.34805325 -0.026357198 -0.45102802 0.33774823 -0.14115542 0.27657428 0.1295699 -0.12771161 -0.14551653 0.3771605 -0.007670622 0.06310675 0.13228571 -0.060272146 0.2095405 0.04546558 -0.05691583 0.40449697 0.17478295 0.03284707 -0.37475345 0.11747415 -0.070336744 -0.2421378 -0.024221895 -0.33969852 -0.10508329 -0.07678507 0.122603126 -0.24533325 0.25866887 0.26236883 0.25302044 0.22024435 -0.14081551 0.087047614 0.42346275 0.37175807 0.1676383 -0.23708329 -0.117028445 0.1196702 -0.10588052 0.056090154 0.14384615 0.078565486 -0.11744474
55 -0.1805151 0.35405418 -0.0725503 0.2755252 -0.16360946 -0.74021834 0.14553858 0.19443761 -0.16718496 0.00066482625 0.060935345 0.04303243 -0.08693976 -0.2513262 0.12523824 0.2630451 0.24643405 0.3050005 -0.14360596 0.3388159 0.44617966 0.08813854 0.23317344 0.31522664 0.052555025 -0.57812476 -0.41183046 0.315157 0.06370607 -0.12461151 -0.044813782 -0.39523587 -0.17041227 0.45875674 0.07633437 -0.101159975 0.3408295 -0.09366162 0.34063458 0.16875708 0.5096401 0.3021319 0.21912712 -0.038033854 0.025215285 0.038960814 -0.23428784 -0.51849645 0.0760279 -0.2868913 0.22453068 -0.09165358 -0.079412505 -0.03275306 0.37010056 0.32168517 0.20779091 -0.23326464 0.07157693 -0.30070734 -0.6050048 -0.40031993 0.26678157 0.21414259
24 0.25270495 0.019908467 0.1645115 -0.21808697 0.009740118 -0.15291616 0.50440985 -0.08039508 0.08477387 0.11533441 0.2229436 -0.14400832 0.25618792 -0.31371847 0.004253583 0.3697482 -0.09430617 0.059874836 -0.086990654 -0.05646293 0.21449555 -0.17610298 0.3332259 0.2433927 -0.23698977 -0.19510208 0.7964816 -0.33963695 -0.02945176 0.27288663 -0.15679294 0.29436943 -0.10053934 -0.17128262 0.23760884 0.32656977 0.0254439 -0.10943716 0.4300245 0.21782517 -0.15211238 0.068091445 0.05144035 -0.32263613 0.4550643 -0.15471017 -0.02776655 0.28652418 -0.047678765 -0.073005006 -0.10336174 -0.3447883 0.06069938 0.30343282 0.067309104 -0.3160299 -0.029089041 -0.07819345 0.25186422 -0.046992466 0.049813535 -0.0058048926 0.10192949 0.0053498987
40 -0.15954925 -0.056019228 0.20392339 0.041272927 0.08496671 -0.13171181 0.43262252 0.21457519 0.02331443 -0.22602963 0.022268109 -0.15276474 0.0115797995 -0.22814402 -0.07142075 0.43478724 0.046002783 -0.15219596 0.14701836 -0.20360994 0.25794443 0.01396098 0.29205188 0.21151365 -0.3749647 -0.011804495 0.38303635 -0.30595455 -0.1611393 0.07084364 -0.29833442 -0.0077450983 -0.08312613 0.050581537 0.1556464 0.2244015 0.17213808 -0.06892505 0.095097914 0.39922604 -0.21247332 0.12764135 0.023981351 -0.14892854 0.37146744 -0.23174329 -0.2130612 0.23886211 0.08315871 0.26070413 0.06926389 -0.24054262 0.08677277 0.124665216 0.07440041 -0.13799605 0.09247525 -0.05320585 0.34131262 -0.08318305 0.24407285 -0.10396191 0.20043743 0.14223531
253 -0.19970699 -0.29902717 0.23081854 0.07094615 0.44459116 0.078387976 0.3980918 -0.5669069 -0.10348826 0.46193033 0.8378521 -0.43917662 -0.071694456 -0.48461232 -0.4194314 0.22937876 -0.07628061 -0.1609802 -0.05726249 -0.27104202 -0.19101334 0.024664052 0.58881783 0.1556121 0.35669628 -0.07332326 -0.29194334 -0.20476468 0.43036112 0.11362643 -0.18280506 -0.36443907 0.10851704 -0.063242115 0.2806182 0.32523254 -0.35334337 -0.1705059 0.20545413 -0.0921958 -0.21036151 0.13217561 -0.40491322 0.080681674 -0.09153508 -0.07882591 -0.25402108 0.46380335 0.06807762 0.30885643 0.3906133 -0.3718248 -0.2175375 -0.34042978 0.62280434 0.010808535 0.24711482 -0.33636764 0.44469956 0.16414586 -0.04004454 -0.41396096 -0.4039627 0.08406173
51 -0.042299174 0.13616776 -0.27762187 -0.32402858 0.026203686 -0.13017274 0.17366654 0.4520798 -0.12917687 0.3158444 0.17001365 -0.23178397 -0.19701058 -0.2780821 -0.25014138 0.20916684 -0.46073604 -0.0071742837 0.19199312 -0.2995925 0.15998937 -0.13622004 0.4420927 0.520644 -0.538943 0.11974734 0.32227787 0.1384916 0.20801738 0.38368148 -0.3297122 0.29505682 -0.17429127 -0.15985137 0.27808458 0.16832353 0.07382663 -0.2188776 0.33608454 0.0877416 -0.3048752 -0.36819863 0.02613475 0.07656565 0.11496016 -0.022659428 -0.19489136 0.3143508 0.48312408 -0.2876048 0.26237583 -0.21896476 0.1341414 -0.16537218 0.22967514 0.0020395694 -0.17274542 0.12219273 -0.05392531 -0.37641492 0.082876235 -0.048247993 -0.0032160443 0.0897288
33 0.005247131 -0.88093126 0.060234897 -0.12212145 0.20117466 -0.112171605 0.1338466 0.32053664 -0.022760244 0.16153753 0.19453076 0.073706545 -0.44379094 -0.21635777 -0.234812 -0.038628306 0.13907516 0.06613461 0.034960583 0.0050897487 0.007849068 0.014317902 0.26143116 0.11103092 0.11868952 0.35174507 0.10029923 -0.59602726 0.03893684 -0.20995776 0.19269015 0.019551938 0.4618882 0.18399192 0.36530495 0.0894075 -0.07105101 0.016169805 0.401225 0.051093455 0.27408335 0.10228988 -0.16476928 0.22135204 0.24331756 -0.12575167 -0.3052396 -0.2894433 0.18229653 -0.0013193863 -0.045689754 0.029510515 0.097105116 0.34601268 0.4734747 0.06545056 -0.042003114 -0.46638504 -0.13752715 -0.20081612 0.3695071 -0.36010957 0.14173168 0.15563019
30 0.037163474 0.19335817 0.040853936 -0.09883704 0.0008639362 -0.36896437 0.3785981 -0.08074617 0.13272582 0.11195686 0.03358941 -0.10341597 0.0034305053 -0.1298791 -0.068793856 0.4791352 -0.016279865 0.038652956 0.0717453 -0.1150046 0.22350886 -0.46961582 0.3214531 0.034858525 -0.2727803 -0.09542285 0.4469114 -0.17292945 0.10630965 0.23701331 -0.14536294 0.15788685 0.0023025824 -0.058307055 0.19885305 0.4382738 0.033446368 -0.25742567 0.40950832 0.15480669 -0.14260504 -0.18360874 0.046359148 -0.2106816 0.34397158 -0.16208705 -0.32098374 0.22823682 -0.20079209 0.003281561 -0.21012945 -0.21533975 0.100002415 0.25987872 -0.035327446 -0.23098479 0.09893157 -0.22702047 0.20357531 -0.048147436 0.14694995 -0.061940998 0.06862888 -0.015599301
29 0.06831686 0.091584675 0.09156768 -0.30074978 0.07340393 -0.17364487 0.3553076 0.075692065 0.10960517 -0.040591586 0.32756588 -0.06045059 -0.19729982 -0.013012328 -0.1751323 0.17956749 -0.13228828 -0.022058044 -0.065752566 -0.1312603 0.17210631 -0.21983577 0.14924802 0.10920796 -0.38653728 -0.12349754 0.3999875 -0.14208694 -0.0131017985 0.25242713 -0.21158917 0.4135948 0.117097475 -0.13845432 0.061808005 0.27787566 0.12615728 -0.16001405 0.387627 0.3055581 -0.11414858 -0.046028532 0.23501857 0.023790997 0.44908935 -0.037566975 -0.2587834 0.17034401 -0.0644258 0.081685305 -0.32351223 -0.37711117 0.06353326 0.28894362 0.04876477 -0.23848462 -0.067524694 -0.27884272 0.2308779 -0.0027993582 0.12460672 -0.24107791 0.24424826 -0.020484282
28 0.113465324 0.020472936 0.16035697 -0.16508372 0.53071636 -0.33691692 0.16687885 0.33039767 0.037455168 -0.050521854 0.3099436 0.16337453 -0.10624444 -0.18368305 0.06936082 0.4304789 0.09594882 0.193524 0.20366144 0.033352695 0.10443917 -0.2476095 0.47601277 0.022138124 0.029373081 -0.19253188 0.014277216 -0.058726747 0.1067186 0.17933491 -0.307037 -0.12598382 0.026091956 0.20381303 0.1525224 0.17812158 0.13064969 -0.04235017 0.24882835 0.2298428 0.040328607 0.09391847 0.04405775 -0.12564594 0.20129034 -0.11475338 0.00095146464 0.35056514 -0.047415324 -0.014093424 0.17383017 -0.20812738 0.10620047 -0.060100526 0.061580542 -0.11741203 -0.017809888 -0.26008332 0.22940089 -0.12751335 0.30851617 -0.19621718 0.37583748 0.02566078
48 0.17560472 0.093065865 -0.59906036 0.40110537 0.646556 0.58740306 0.54162365 0.44987115 0.09217938 0.34854323 0.412386 -0.47460705 -0.33708566 -0.31247407 -0.5005312 0.19475889 0.40303886 -0.30672228 -0.3285756 -0.20912163 0.0202329 -0.27175257 0.24599588 0.400145 0.45647946 0.0408745 0.48673028 0.010703644 -0.33171928 -0.2299075 -0.20669541 0.6030366 -0.1891662 0.071525455 -0.04030774 0.13819058 -0.041706927 -0.04440113 0.6028217 -0.23093314 -0.2011471 0.60221356 -0.06447416 -0.04660899 0.14626154 -0.09604903 -0.366836 -0.12767436 0.2766816 -0.03858565 -0.07466428 0.041912485 -0.0700584 -0.37333834 0.5102348 -0.052635636 0.10238074 -0.2096262 -0.017611558 -0.06145227 -0.017503383 0.14206049 0.070246585 0.114665225
41 0.1767826 -0.0049223253 0.30458406 -0.17963995 -0.008832497 -0.25240684 0.37481216 0.15372701 -0.0812787 -0.23148401 0.1393757 -0.14351228 -0.06662746 -0.20222364 0.1713111 0.060755584 -0.20995255 -0.44361433 0.07275327 -0.22116749 0.14550485 -0.27597755 0.6824773 0.4376392 -0.49757016 0.04394321 0.2460322 -0.30812308 -0.057204887 0.13560203 -0.29720882 0.23315944 -0.32187042 0.042866368 0.3444265 0.19245443 0.049650386 -0.11658151 0.27667588 -0.039305296 -0.1438126 0.05008141 0.19329897 -0.063172355 0.41491055 -0.03675214 0.15498078 0.42567796 0.030995686 0.041746903 0.109223336 0.09136557 -0.0027515725 -0.16419873 0.18581879 -0.18171301 0.007946823 -0.14471531 0.21548653 0.07971361 0.25138408 -0.31288514 0.016499268 0.06203055
26 0.082693145 -0.4275877 0.19146241 -0.1781827 0.334052 0.31705093 0.38886252 0.27557713 -0.045435008 -0.04307401 0.12862656 -0.33650908 -0.04943764 -0.14979814 -0.13797043 0.17526832 0.00089013926 0.08344927 -0.01867851 0.00020932323 0.03312416 -0.18827757 0.48279494 0.34049633 -0.05253216 0.16390441 0.12857795 -0.0042208433 -0.06529017 -0.091142274 -0.009214796 0.06330918 0.023838492 0.09328272 0.2530869 0.24286741 -0.13016808 -0.0890883 0.08453999 -0.024148997 -0.099786974 0.08182416 0.24034631 -0.13513212 0.19909732 -0.029148098 -0.07169313 -0.0705645 0.35301936 0.0986931 -0.033684175 -0.06438573 -0.039067544 0.1948031 0.11728607 -0.3641157 0.1413249 -0.31492448 0.05838225 -0.18352425 0.123721994 -0.31962666 -0.041191973 0.040058
39 0.070465565 0.00034462643 -0.0614249 0.01810864 0.2922132 -0.07837391 0.4282333 0.10491499 -0.1362376 -0.28451145 0.020217234 -0.55815846 0.17699611 -0.08274932 -0.06488067 0.32999524 0.031168304 -0.20365989 -0.0933998 -0.03876931 0.1998803 -0.14480038 0.03431035 0.28276053 -0.13830733 0.032784387 0.41134697 -0.13606149 0.04179707 0.34947747 -0.34177187 -0.07891789 -0.074632704 0.048163652 0.156739 0.24624841 0.16249748 0.119312115 0.40271387 0.39434975 0.09302223 0.1394282 0.04030445 -0.3464906 0.42224178 0.013020777 -0.14397511 0.1072928 0.17525621 0.12486315 -0.17686257 -0.23774962 0.05773789 0.1206995 0.24240863 -0.0012274699 0.23160812 -0.19043669 0.12540162 -0.12873481 -0.0075874575 -0.05001072 -0.006611091 0.28762266
169 -0.5592972 0.059345514 -0.07658352 0.4145073 -0.034629997 -0.58111024 1.3501687 0.25994068 -0.43209288 0.19538288 0.5006939 -0.24939717 -0.60667616 -0.6801195 -0.7875552 -0.32916158 -0.025665596 -0.36460266 -0.5990406 0.8119791 0.0148056345 -0.35535648 0.10610603 0.6913202 -0.93895245 -0.34452614 -1.0193119 0.771817 0.1789614 -0.31089664 0.8088331 -0.4562158 -0.36720848 -0.016646853 1.1335171 -0.97673136 0.8645167 -0.15116082 0.7660859 -0.2919684 0.14291863 0.67924494 -0.249352 -0.23612382 0.28035873 -0.18903396 -0.39033395 -0.111380026 -0.32262263 -0.4842879 0.43964988 -0.09949856 0.38554978 0.24813554 -0.72498083 0.008872628 0.12856786 -0.9802957 -0.38851964 -0.25280443 -0.7857605 -0.36464286 1.2663093 -0.3719095
44 0.08261776 0.19487216 0.04625429 -0.33953243 0.12744543 -0.21910812 0.22489794 0.37792623 -0.21872663 0.17066917 0.13700277 -0.2665149 0.012865633 -0.017549433 -0.18579225 0.3543818 -0.3368948 0.025679398 0.1163399 -0.14119565 0.2687946 -0.3339451 0.41353267 0.1463455 -0.19160193 0.007027774 0.39327264 0.039145768 -0.10387925 0.1329445 -0.17553024 -0.00046525372 -0.0043170545 -0.13276902 0.52815217 0.08036404 0.23312856 -0.317122 0.23001838 0.07758353 -0.12321759 0.028925294 -0.2600578 -0.038607296 0.35325864 0.04516395 -0.21842222 0.12321439 0.24513154 0.23483923 -0.1574932 -0.019120075 -0.18555686 0.33677366 0.02487446 -0.06749409 -0.19856778 -0.08311444 0.069658235 -0.26341647 0.26547468 0.13921979 -0.07234226 -0.012608583
34 0.0064934497 -0.79871994 0.39872834 0.057378445 0.31904 0.026300805 0.04709581 0.3526863 -0.28948438 0.06277262 0.1933181 -0.10517147 -0.2953014 -0.05815624 -0.07479394 0.08775975 0.16763525 0.09368314 -0.14626233 -0.12044325 -0.081308775 -0.32265797 0.64425224 0.12712738 -0.33658418 0.02365079 0.37514997 -0.024480006 0.25229383 -0.09306618 -0.22441655 -0.119299404 0.03704194 0.35000044 0.2018484 0.059119433 -0.1532395 -0.39777854 0.29486042 0.08197025 0.20033918 0.2348271 -0.008492363 0.013920072 0.26984453 0.051465828 0.21450697 -0.046320405 0.54718244 -0.01310872 0.014021462 0.11474746 0.059594024 0.08446436 0.20513779 -0.20823671 0.072714895 -0.12242482 0.48595518 -0.2121311 0.36099103 -0.2772654 0.06490139 0.09611935
184 -0.33774233 0.78988093 0.03480158 0.03283236 -0.5996261 -0.5866736 0.47971117 -0.35083595 0.83211404 0.37134498 0.079230994 -0.8523371 -0.16781627 -0.5369058 0.14260493 -0.11527548 -0.26631883 1.2723166 -0.6713861 0.3607742 0.59707516 0.17649223 0.044246368 -0.06585651 -0.4040879 -0.49269882 -0.47568634 -0.016564973 -0.26232255 -0.2029244 0.36842358 -0.44605395 -0.08610978 0.32748762 0.5848718 -0.13099913 0.098768495 0.6895761 0.74616706 -0.07235793 0.4222131 0.38882816 -0.36864895 0.8000814 0.911267 -0.8980727 -0.14081432 -1.0662026 0.40090376 0.1164788 0.7035823 0.48874718 0.6209078 -0.38315082 0.6408887 -0.74514204 0.06349154 -0.95850587 0.1817963 -0.09888863 -0.12410223 -0.33066574 0.09889358 -0.37148988
71 0.120773405 -0.14178963 0.056794338 -0.4829837 0.41123423 -0.17872518 0.04555359 -0.13172337 -0.0017693769 -0.07565553 0.090837315 -0.11594282 -0.48667544 -0.49029338 -0.094183624 0.87326044 0.016891528 0.11457358 0.2713259 0.060446475 0.1012128 -0.4945351 0.39772612 -0.2309593 0.048520096 -0.08542438 0.07452136 -0.15212497 0.14624116 -0.052398097 -0.45736203 0.08680767 -0.37317222 0.014841347 0.23505874 -0.0009656166 -0.033402473 0.23746862 0.15576206 0.123567626 -0.32761738 -0.44552726 0.21281868 -0.1995453 0.09920288 0.016478114 -0.24889256 0.24113666 -0.1402853 0.053363796 -0.083692655 -0.24383162 0.04278038 0.11434673 0.3573439 -0.35291597 -0.27424383 -0.3464409 -1.693331e-05 -0.078071244 -0.053772517 -0.09948467 0.72129613 0.110219434
35 0.19273092 -0.71985924 0.21407239 -0.32407764 0.22234344 -0.024062384 0.40302032 0.31134745 0.21037506 -0.0042107785 0.18543664 -0.15290706 -0.3278863 -0.030268338 0.08302426 -0.071677454 0.25287962 -0.08159356 0.09417913 -0.10839649 -0.22986317 -0.11200975 0.47514883 0.39260888 -0.13220157 0.018345982 -0.025524748 0.13023509 0.073035486 -0.058395837 -0.12096747 0.20856619 -0.05163892 0.29958797 -0.024908887 0.17141919 -0.17458801 -0.077193685 0.36701953 0.18172988 -0.0728304 0.1548578 0.056585252 0.049786992 0.41302603 -0.17542417 -0.12627967 0.06330591 0.52537674 0.1935487 -0.1082007 -0.1448205 -0.24542344 0.17402211 0.30501896 -0.2696598 0.2895984 -0.23997623 0.111746736 -0.2549828 0.08545235 -0.28341413 -0.036867432 -0.02341948
50 0.11650057 -0.049285572 -0.027035255 -0.1424929 0.30653575 -0.2012863 0.20247859 0.1808201 0.09001924 -0.30959982 0.29229403 0.033671975 -0.061355248 -0.1599395 0.07190415 0.473541 -0.050512243 -0.008692432 0.028831352 -0.19543792 0.22976069 -0.42675874 0.2806727 0.26381284 -0.13236934 -0.06858643 0.27506378 -0.22481596 0.022416852 0.24804386 -0.4436452 -0.055801943 -0.08393735 0.23075865 0.2989012 0.23587751 0.3414949 -0.116525196 0.23219241 0.12262612 -0.1627838 0.049530078 0.0063266987 0.06097083 0.31346473 -0.040114824 0.03783777 0.38007608 -0.041853946 -0.21900299 0.012770133 -0.10258255 -0.239296 -0.13082765 0.09408871 -0.19147907 -0.13106728 -0.25458518 0.15678883 -0.031125283 0.09906846 -0.26479352 0.23104247 -0.07640965
46 -0.009962605 0.14951746 0.0072716475 -0.16243401 0.26097977 -0.12516421 0.3352807 0.17455585 -0.108875886 -0.080432385 0.11872494 -0.32490698 0.0912941 -0.1519834 -0.06798268 0.26129144 -0.24295199 -0.09245524 0.20673256 -0.25388712 0.20122047 -0.44731516 0.16887015 0.242344 -0.38553974 0.1595553 0.09151735 -0.16262399 -0.014462324 0.058485877 -0.34997562 0.16200057 -0.014322373 -0.14219108 0.252072 0.16143131 0.050856516 -0.27221072 0.035206757 0.14940897 -0.23520085 -0.09934876 0.13119487 -0.14810836 0.3697783 0.06313774 -0.27833322 0.059732363 0.14859526 0.110658206 -0.08850371 -0.0023182821 -0.0036720783 -0.074163295 0.26796857 -0.109613 -0.100253396 -0.1633177 0.05774788 -0.28259215 0.018079361 -0.09215177 0.17754795 0.03540504
192 -0.8845855 0.43109378 -0.2734326 0.58315647 -0.33770296 -0.9131308 -0.341841 -0.07521427 1.0421613 0.04047071 0.07505411 -0.5182026 -0.19270563 -1.1930705 0.44482154 -0.030063098 0.08459298 1.2330409 -0.17268452 1.0584904 -0.18855926 -0.122984946 -0.011657625 0.4779476 -0.21760695 -0.28397223 -0.28152388 0.29924652 0.24458633 -0.15884747 0.2965832 0.080612905 -0.49773046 0.5731277 1.3939414 0.021685539 0.016865697 -0.1690516 0.6284643 0.87390023 0.59845346 0.44126368 0.08294637 0.728048 0.27250448 -0.47612345 0.0829685 -0.4469816 0.6344338 0.6436454 -0.067428164 0.3605079 0.525226 -0.09448556 0.5053506 -0.7432212 -0.3778837 -0.60863847 -0.049313337 0.208574 -0.05638746 0.631444 0.024404328 -0.08601259
47 0.13972951 -0.24282219 0.26829723 0.23071176 0.23451746 0.10684918 0.5194862 0.005680854 -0.019704254 0.09497328 0.22412764 -0.43198943 -0.0142362015 -0.4040003 -0.13037245 0.120345615 -0.06965271 0.10005835 0.10754378 -0.16038269 0.13424055 -0.041867126 0.40789178 0.37696227 0.008309833 -0.07126952 0.09834736 -0.29539683 -0.24890335 -0.30507916 -0.27753717 0.020158328 -0.30188498 0.08969428 0.43263063 0.30169567 -0.13487338 -0.11513635 -0.012706217 -0.023334185 -0.1490927 0.095524214 0.14191167 -0.25939012 0.3321014 -0.15102272 -0.23845416 0.2585893 0.109638534 0.14283054 -0.13086793 -0.17958975 -0.25593245 -0.18486285 0.27958858 0.05730113 0.2500895 -0.11750431 0.3334434 -0.2872295 0.47702911 -0.25875592 0.03327318 0.08457837
43 -0.3360433 -0.5997903 0.46173382 -0.12023157 0.1275485 0.0981952 0.31311205 0.43885565 -0.0051272283 0.2108386 0.15840094 -0.096371464 -0.42493588 -0.2776094 -0.07570121 0.19306684 0.20612572 -0.24212973 -0.233705 -0.20183519 -0.0900512 -0.10490863 0.115478545 0.43036196 -0.21490811 0.08848112 0.12590083 -0.021972865 0.09888186 0.040570263 0.11417455 0.062356494 0.39018103 0.25054723 -0.005768581 0.3120135 0.06304586 0.1284707 0.13858806 0.2237167 -0.10385334 -0.12549727 0.15274408 0.0036218774 0.48090178 -0.38532647 -0.13707769 -0.09101927 0.5536252 0.11086023 0.18770133 -0.35757902 -0.12765324 0.21466088 0.5711581 -0.3464822 -0.12048145 -0.043612707 0.13571784 -0.024136929 0.19575946 -0.3106491 -0.014197777 0.056218594
49 0.058354016 -0.27323103 0.38506687 0.07949971 0.412179 0.06377234 0.46572334 -0.03904534 -0.08623607 0.19098997 0.18909685 -0.43093133 -0.1042584 -0.3336301 0.029658398 0.15486996 -0.104222745 0.10609263 -0.11478285 -0.13605857 0.068873316 0.0054844357 0.285784 0.40475452 -0.059281398 -0.070348516 0.33918658 -0.30986458 0.051533822 -0.060351867 -0.13894531 -0.0025985143 -0.33776242 0.07945242 0.4360527 0.30121702 -0.0902049 -0.066525474 -0.09199087 0.056259383 -0.21051864 -0.06000431 0.19782318 -0.24356185 0.3935743 -0.16516925 -0.2656165 0.1932391 -0.043763407 0.10580693 -0.28665495 -0.13178755 -0.19422264 -0.087110415 0.29214612 0.0077098547 -0.008877768 -0.14790912 0.046859212 -0.3823777 0.3270514 -0.30589366 -0.012172184 -0.018381475
60 0.0033382787 0.021430947 0.114679456 -0.30441 -0.0569412 -0.41869742 0.5111902 0.1576487 0.018796075 0.05424448 0.0496131 -0.08634345 -0.016246593 -0.066993676 -0.1594023 0.4605961 -0.11692898 -0.14251727 0.041736323 -0.09077563 0.23200922 -0.3676563 0.35633162 0.3201825 0.0063458313 0.16091262 0.43471116 -0.18740766 0.015425193 0.21870957 -0.24386497 0.015670333 -0.1661728 -0.105069205 0.07949817 0.28608695 0.16924694 -0.24080196 0.27704832 0.17243485 -0.14400809 0.025946038 -0.14042754 -0.08899925 0.2526269 -0.030059278 -0.107767366 -0.07392197 0.13324969 0.1442262 -0.06788305 -0.24691534 -0.025195604 0.03805246 -0.051399276 -0.2485462 0.066869035 -0.08241448 0.23045804 0.13533686 -0.022755159 -0.047647268 0.029998112 -0.008541016
54 0.06707328 0.34106314 -0.12585492 -0.1864995 0.22958493 -0.2874661 0.08524199 -0.023151798 0.060874205 0.017693907 0.1576254 -0.27212614 -0.21279971 0.07705393 -0.25679296 0.37992913 -0.079828165 -0.21668467 0.19707984 -0.1558795 0.23106763 -0.065533854 0.06206341 0.4664119 -0.50694555 0.022981467 0.4394 -0.3466275 0.19302975 0.06439493 -0.1765276 0.22803298 -0.21503179 0.07616801 0.13398258 0.21899214 0.21672338 0.07253057 0.2687614 0.34748143 0.070842385 0.010099912 -0.022705868 -0.13500103 0.6444856 -0.000115264105 -0.076344535 0.3077509 -0.13907085 0.051195506 -0.2300934 -0.035112426 0.03891446 -0.037388008 0.16626634 0.08178943 -0.09740375 -0.40090573 0.22513354 0.11802923 0.15502658 -0.40889585 0.23353066 0.15877037
38 -0.19345894 0.10303081 0.24319826 0.13250631 0.36256918 0.24320155 0.38706383 0.31569952 -0.18000014 0.24024975 0.24852629 -0.43455222 0.18685268 -0.123350814 -0.43811226 0.31580058 0.106351584 -0.41094568 0.19923387 0.19518134 0.08958344 0.13827693 0.33094954 0.30847564 0.036609348 -0.16556613 0.5601968 -0.34540772 -0.22919104 -0.0158381 -0.072383925 -0.18762667 -0.29287094 0.08376778 0.48820862 0.24205574 -0.14273432 0.16284093 -0.07946536 0.07929508 -0.18356772 0.2631237 0.116648905 -0.46623877 0.2897327 -0.26173273 -0.39048642 0.18290669 0.28665176 0.05445704 0.07183265 -0.09101971 0.04914431 0.036913168 0.5354492 0.024306417 0.2546409 -0.40237096 0.3625406 -0.23936917 0.50414634 0.16250902 0.037952222 0.40112862
31 0.0342808 -0.7071975 0.45004228 -0.12938717 0.39095894 -0.048431553 0.08906288 0.20618096 0.06369809 0.012458266 0.39006758 -0.03727562 -0.5375305 0.41925195 -0.24723554 0.03984261 0.46701047 0.476273 -0.03317375 -0.13916047 -0.051346593 -0.37178317 -0.121718846 0.40370464 -0.36879647 -0.18147239 0.07062255 -0.031743277 0.16669063 -0.4853503 -0.12462906 -0.11413145 -0.09967023 0.48130256 0.18428998 0.2262671 0.2962542 -0.5044306 0.28193113 -0.018007917 -0.06865135 0.012464087 0.124419376 -0.07824304 0.14402086 -0.24907076 -0.056742456 -0.02507609 0.92820066 0.34181264 -0.19820286 -0.20164762 -0.02450765 -0.0016612322 0.1576177 -0.03440889 0.08051993 -0.23740286 0.1840678 -0.28091887 -0.14849333 -0.19775611 -0.16125752 0.072787926
62 0.057885095 -4.1326442e-05 0.18156599 0.005836817 0.24950956 -0.10853079 0.43912756 0.12041424 -0.18236367 0.009399042 -0.055190276 -0.41257936 0.19521141 -0.05901229 -0.062001746 0.5181711 -0.34269184 -0.05752753 0.1822349 -0.27363092 0.28956917 -0.12910333 0.102892935 0.23206127 -0.34341243 0.31757158 0.30200434 -0.23439766 0.17333895 -0.27590623 -0.067536056 0.2411775 0.061100077 -0.07235329 0.47308046 0.13832514 0.05936796 -0.1577312 6.582601e-05 0.10505047 -0.29375973 -0.0010312843 -0.1140479 0.033496227 0.2732489 0.14182612 -0.18951112 -0.04645131 0.22639954 0.12576693 0.05697467 -0.00028130322 -0.02639701 0.16965923 0.33555493 -0.079430625 -0.03269699 -0.1238962 0.123244114 -0.15886292 0.017023118 0.00909162 0.11385225 0.1854711
61 0.049681604 -0.21246165 0.1048771 -0.45744872 0.35088757 -0.15171757 0.31800407 0.091428734 -0.124257244 -0.21675846 0.12239136 -0.26390266 -0.30265313 -0.13984123 0.1844512 0.31352392 -0.21925353 -0.3596662 0.18599047 -0.1767355 0.28808746 -0.6973926 0.3412534 0.0565074 -0.10667086 -0.04427829 0.18682556 -0.15690292 0.13446851 -0.022792768 -0.23736116 -0.079992354 -0.31089452 0.17628857 0.4077872 0.08048915 0.016520185 0.2020179 0.050554715 0.28515515 -0.17612529 -0.06438733 0.15201822 0.05632052 0.09606123 0.094843194 -0.055070844 0.316419 0.077118844 -0.12880534 0.09222054 0.072852515 0.1441558 -0.04693617 0.16791965 -0.36522013 -0.31101888 -0.3700799 0.080470994 0.14061654 0.0655972 -0.06764556 0.22328374 0.070123
42 -0.040885318 -0.4119093 0.36818323 -0.0026715575 0.38762504 0.05007363 0.27205214 0.37588993 0.00772092 -0.12912418 0.18592824 -0.039393254 -0.35276604 -0.056511294 0.023626914 0.16182493 0.14423628 0.27369323 0.062363822 -0.10979402 0.02383722 -0.1021782 0.332876 0.10928105 -0.17371738 0.11581006 -0.00010324221 -0.22372021 0.045825753 -0.26054892 0.005376026 -0.17452538 0.10588555 0.21378465 0.3272004 0.17966014 0.15149489 -0.27781078 0.22213078 -0.059722137 -0.23175941 0.2864433 -0.17059383 -0.050421372 0.2576278 -0.086872675 -0.13946846 -0.09023455 0.4084538 0.38829297 -0.043111566 -0.19395526 -0.072230026 -0.12496149 0.0930262 0.0052865976 0.07290111 -0.041146565 0.09093591 0.074383974 0.1208923 -0.22973661 -0.041559808 0.08391714
53 0.2018529 -0.06823734 -0.056116443 -0.41153967 0.14784491 0.1145891 0.1407002 0.07019074 0.22986689 -0.0049436074 0.17852958 -0.1613797 -0.013490893 -0.31992146 -0.14259951 0.4464514 0.38944697 -0.026499946 0.14063339 -0.069158845 0.14442718 -0.5737761 0.35620502 0.20264827 -0.28107288 0.41300008 0.1598106 -0.28515637 -0.16718559 0.25047645 -0.15735374 0.15708302 -0.28408617 -0.04718117 0.52317005 0.12293509 0.3697243 -0.22531953 0.22015895 0.04741506 -0.1271685 -0.4815301 -0.073777504 -0.17155793 0.07271622 -0.17015408 -0.21351235 0.25998896 -0.2867516 0.11154294 0.1623325 0.14266099 -0.08080939 0.1436714 0.47054657 -0.27602598 0.19664842 -0.2534618 0.18716069 -0.34531796 0.10847306 -0.08060712 0.06809386 0.028955324
67 0.050851684 0.31134805 0.055709243 -0.22287881 0.23300615 -0.026826888 0.12400991 0.48881137 -0.23545615 0.10858975 0.09257096 -0.3769659 0.0058683637 -0.060023397 -0.08791436 0.24936256 -0.2800508 -0.19844146 0.016216606 -0.12744993 0.23010015 -0.46980155 0.33657277 0.22963937 -0.4154599 0.12354133 0.31279066 -0.09880394 0.0014679633 0.21186534 0.06370407 0.024912648 -0.022114657 0.06238873 0.29493907 -0.1529558 0.1751747 0.11354485 0.1402362 0.11860666 0.025402732 0.07396011 0.05325804 -0.47516426 0.44641677 -0.1876606 0.025603041 -0.08474013 0.15766734 -0.056194734 -0.044860207 -0.29977542 -0.007567496 0.22143954 0.2226236 -0.196747 -0.14627522 -0.054159325 0.38754216 -0.3363111 0.4224531 0.00230677 -0.025739273 0.26588348
108 -0.1325233 -0.09827096 -0.47398132 0.42940706 -0.39144903 -0.34322378 0.18559936 0.32211766 0.5154732 0.112688996 0.17836277 0.44474465 0.11027716 -0.32072136 -0.053478826 -0.29570818 -0.8472952 0.5968378 -0.62843543 0.61078703 0.44526732 -0.09479407 0.4101185 0.1500505 -0.3815126 -0.14207909 0.03642005 0.7996117 0.6682142 -0.20836978 -0.31933624 0.14054444 0.05894513 0.25332764 0.86454153 0.02025982 -0.017802391 0.07243841 -0.003250091 -0.23220678 0.4127002 0.26917297 0.1755294 -0.29369313 -0.120739944 -0.30029166 -0.93296087 -0.41704586 -0.20932363 0.48808762 0.68023723 0.456893 -0.08564389 -0.27588525 0.64976674 -0.37780043 -0.0901719 -0.27279118 0.76017016 0.20055784 -0.5185479 0.23518205 0.056727055 0.23798285
72 -0.25920025 -0.63236684 0.33829972 -0.3042871 1.0167164 0.34306058 0.27484614 0.016801104 -0.08839563 0.16244417 0.1878428 -0.18438375 0.115511015 -0.18433873 -0.034205 0.15676776 -0.096522614 0.14737183 -0.06718841 -0.08645613 -0.23766968 0.37990946 0.5255609 0.13662243 -0.4925953 -0.14818498 0.305465 -0.32178742 -0.03628042 0.21530491 0.03794007 0.024300402 0.07385214 0.30349034 0.38058123 0.13403858 -0.21959859 -0.2475735 0.18162109 -0.05886176 -0.024605218 0.07251946 -0.2193136 0.4490502 0.47177047 0.016237937 -0.20058407 -0.3618883 0.19362485 0.4289579 0.040816743 -0.08769581 -0.17067036 0.13188703 0.12687252 0.16076711 0.1330315 0.07364944 0.2934385 0.10990788 -0.41245282 -0.673688 0.12463848 0.08429315
64 0.24071209 0.11705127 -0.08686649 -0.33843023 0.12475095 -0.25900286 0.30284637 0.046209056 -0.015110473 -0.1649037 0.07470439 -0.30716696 -0.5991047 -0.06946969 -0.11316081 0.30602258 -0.2257808 -0.30449715 0.14959764 -0.06480033 0.11659661 -0.49123043 0.18720841 -0.03947422 -0.2127229 0.1361871 0.19697973 -0.10857237 -0.0823132 -0.040372204 -0.2444257 0.13098967 0.021132383 0.043951232 0.3375627 0.12002475 0.21834551 -0.11123178 0.33978015 0.104669064 -0.0962317 0.116073586 0.2498736 -0.040551063 0.43897742 0.25669312 -0.21159601 0.27452788 -0.08131811 0.1418778 0.16530435 -0.18861242 -0.25184804 -0.13794991 0.35161847 -0.09308447 0.17074084 -0.30947375 -0.034123812 -0.03880682 0.49012405 0.01606981 0.12504774 0.13978444
56 -0.10892586 0.13789074 -0.07746299 -0.14668557 0.036610957 -0.2504228 0.5346371 -0.15818621 -0.10062061 0.04154616 0.09725986 -0.38726464 -0.23159787 -0.19398773 -0.075735226 0.16889063 0.01825498 0.047345966 0.05218303 -0.015641281 0.2858687 -0.56552523 0.28720203 0.13944894 -0.34115967 0.18463838 0.41454515 -0.378154 0.20606418 0.07409521 -0.48750997 0.011417846 -0.43317533 0.16701601 -0.14963768 0.20039868 0.26986006 -0.17542367 0.3287352 0.008393183 -0.057473466 -0.11067338 0.07233653 -0.20900838 0.07504116 -0.16538924 0.07515736 -0.066174336 -0.18653144 0.2572131 -0.23117113 -0.11006363 0.07582957 0.25816828 0.098415345 -0.050341245 0.04208191 -0.17764175 0.25361085 -0.056034476 0.10244767 -0.098584175 0.35302567 0.1572092
114 -0.051499665 0.16674082 -0.14549625 -0.040545296 -0.052493747 -0.54251426 0.592768 -0.27893686 -0.16653532 0.47565365 0.34136042 0.12727427 -0.9744312 -0.13800378 0.3197909 0.59409195 0.031033736 0.61347157 -0.64487535 -0.22045998 -0.43159464 0.2933778 -0.07666273 0.8794456 -0.2676666 -0.03199412 -0.40895313 -0.0074560083 -0.45394877 0.4862337 -0.3661477 -0.14073803 0.6878693 0.43194407 0.18247716 -0.56155694 -0.40702274 -0.7068717 -0.07441825 0.9357799 0.4335016 0.843044 0.4632172 0.16763529 -0.1165963 -0.3603451 -0.28861612 -0.845017 -0.28911623 -0.14365664 0.876281 0.603501 -0.27432626 0.42290053 0.18865898 -0.17912738 0.11075594 -0.7102997 0.29922205 -0.41256064 -0.15622029 -0.014547257 -0.021001223 0.8112606
68 -0.007984629 -0.09736449 0.1116718 0.24380116 0.3242226 0.34650695 0.3848186 0.2848127 -0.26505437 0.24904025 -0.15506123 -0.5603971 -0.37527046 -0.5688543 -0.2775505 0.35614133 -0.028177045 -0.14698006 -0.14532682 -0.3188281 -0.07634712 -0.03197114 0.19906713 0.27705565 -0.16307549 0.1956452 0.28364864 -0.106317095 -0.035199698 -0.018846506 -0.21948193 -0.14793475 -0.38562807 0.08898165 0.22399497 0.4304039 0.20567548 0.2937897 0.21849048 0.27152607 -0.19575487 -0.08505105 0.15454851 -0.14724533 0.18267143 -0.12617917 -0.43314683 -0.2744176 0.23740081 0.26494715 -0.109120466 -0.11971728 -0.3531396 -0.011619426 0.118101 -0.119077824 0.084933676 0.14683497 0.25433162 -0.3061503 0.23616634 -0.050441273 0.112144664 0.081924066
80 0.1122876 -0.017752651 0.004000344 -0.7148362 0.40182003 -0.14855994 0.52723706 0.19082241 -0.20757663 -0.32821152 0.054138936 0.027972177 -0.077030465 -0.26755562 0.17805332 0.44592956 -0.32263786 -0.2937201 0.087752186 0.17232066 0.22670653 -0.3166111 0.6112664 -0.1130196 -0.12692 0.17017211 0.15556933 -0.1984298 0.23850892 -0.26381198 -0.3175082 -0.018211719 -0.5470403 0.2540255 0.34837526 -0.16090113 0.12729344 0.17535545 0.25983727 0.30471686 -0.29720864 -0.040758654 0.21213596 -0.08462596 -0.16950637 0.056473702 0.14366302 0.08832368 0.18950948 -0.007649214 -0.14432639 0.171358 0.21687864 -0.06819511 0.11299382 -0.31882265 -0.19771251 -0.47137657 0.18604556 0.004317278 -0.02000272 0.25342074 0.085382245 0.23435076
121 -0.5671978 -0.27647284 0.541238 -0.49011052 -0.02164213 0.54443204 0.5527034 0.3688391 0.62089616 -0.06268556 0.9756641 -0.06753184 -0.4588177 -0.38305274 -0.2766862 0.0017682491 0.12158384 0.33022994 0.101749465 0.18971136 0.06364239 0.12536915 0.51941454 0.077412166 0.05162343 -0.31649408 0.31767544 -0.7927067 0.5658632 0.18856789 -0.459509 -0.23839453 -0.046532787 -0.06884732 0.4814268 0.05771721 -0.10997006 -0.1441373 0.21058798 0.33737126 0.47638938 -0.029542739 -0.09751708 -0.11461457 0.48828515 0.5529376 -0.58237576 -0.5303582 -0.019714622 0.1491186 0.0352566 -0.007205487 -0.18541451 -0.05478246 -0.34568676 0.24362777 -0.16288437 -0.106173374 -0.25272658 0.089677066 -0.034714464 -0.052017637 -0.7341971 -0.08980654
78 0.03065743 0.2229853 0.08707718 -0.3155341 0.17478643 -0.10527709 0.35763344 0.40908122 -0.15916656 -0.13259403 0.11927284 -0.42857826 0.017844388 -0.018674565 -0.1835774 0.3931015 -0.32873502 -0.14702073 0.0956037 -0.05352712 0.14231299 -0.38285723 0.2698608 0.31266478 -0.071065344 0.30097944 0.1349388 -0.020969652 0.033801664 0.0085680615 -0.28797713 0.11871655 -0.2977651 -0.16658501 0.32079935 0.08502278 0.15554218 -0.12277382 -0.052827727 0.044610742 -0.26746082 0.06726949 -0.020028125 0.032978266 0.37127456 0.36403936 -0.09234326 0.09773316 0.35414222 0.019089539 0.0825464 -0.1431413 0.031163158 -0.055669643 0.27699435 -0.11556376 -0.15601511 -0.27868757 0.077937014 -0.10129727 0.08677882 -0.025649209 -0.09270727 0.18556127
75 -0.07004357 -0.0541373 0.09173777 -0.55137086 0.40623042 -0.22960171 0.5319564 -0.091979325 -0.006627619 -0.27954787 0.02771964 -0.18061687 -0.21635458 -0.11850463 0.17646894 0.48178545 -0.16440426 -0.32101476 0.13602334 -0.08350765 0.37500933 -0.6805557 0.3929737 -0.030509153 -0.07159519 -0.012065407 0.26566964 -0.15990917 0.30607814 0.05773617 -0.41685653 -0.04593675 -0.3197004 0.18444896 0.31481263 0.0023933798 0.17334388 -0.01070472 0.123188816 0.3253898 -0.22284025 -0.055159967 0.07200063 0.031012235 -0.02485324 -0.029448735 0.29129264 0.21728535 0.04743725 -0.08151284 0.098709494 0.12512946 0.1834279 0.02314522 0.22663817 -0.26623037 -0.21877596 -0.24406451 0.15247199 -0.057482444 0.02614704 0.029761476 0.28234297 0.26146066
329 -0.123735145 0.093797825 -0.36587355 0.6425402 -0.5402544 -0.33865792 0.6834508 0.18434432 0.5778622 0.37424317 -0.19043317 -0.5546125 0.11002742 -0.52050436 0.18616766 -0.5307121 -0.33286408 1.1668446 -0.86285233 0.015412549 0.33811906 -0.16221195 0.1153307 -0.20037669 -0.48336524 -0.5446147 -0.2826432 -0.1216185 -0.086684756 -0.36946827 0.19380824 -0.72853255 -0.058520798 0.42082837 0.57902175 -0.48811793 0.7844993 0.87661314 0.83599114 0.07016276 0.23925108 0.5844267 -0.30557278 0.510864 0.6868834 -0.18887326 -0.44060487 -0.46669915 -0.08265869 -0.01215441 0.7682211 0.56472987 0.15109065 0.41264698 0.6905569 -0.23897514 -0.11870056 -0.6001469 0.1746313 0.021694496 -0.63534975 -0.15464257 0.13126451 0.15003024
52 0.02018165 -0.42220554 0.26391003 -0.18320727 0.4336418 0.13522413 0.20005816 0.43306258 -0.09227617 0.19736208 0.21546638 0.0070809717 -0.19303559 -0.27302155 0.17532273 0.22912396 0.24741568 0.14056197 -0.037260108 -0.11249185 0.25770423 -0.09321935 0.14091197 0.13799536 -0.076155595 0.1390947 0.17656538 -0.009454355 0.1789182 -0.27236938 -0.33691686 -0.12932304 0.024499591 0.2689879 0.2057944 0.40634784 -0.12633915 -0.03736074 0.38757852 0.13161476 -0.061305296 0.18378909 0.031697024 -0.21483348 0.46192077 -0.035599824 -0.28551915 -0.21254481 0.29242614 0.23154067 0.23143692 -0.3763076 -0.23219496 -0.019400397 -0.12508543 -0.054440435 0.1408564 -0.30060306 0.0729719 -0.054582365 0.05176227 -0.28875798 0.003608277 0.060125753
95 -0.106464624 -0.004993043 0.09880536 -0.36679974 0.38877442 -0.04710196 0.469916 -0.30405357 -0.04596632 -0.35979256 0.20383163 0.10736293 0.07612046 -0.13793677 0.3311221 0.4053132 -0.028784884 -0.07471362 0.19306706 -0.05001057 0.07003923 -0.6657571 0.5147877 0.3481644 0.13484311 0.25848654 0.43405432 -0.13596821 0.23664735 -0.07326132 -0.38200685 -0.36446396 -0.33150354 0.19328487 0.21296643 0.1808554 0.3809341 -0.25513017 0.11705744 0.1209793 -0.12987211 -0.21016636 -0.4145742 -0.016391795 -0.027241994 -0.30588812 -0.06627629 -0.010883783 -0.11737048 0.11836133 -0.02635874 0.018114481 -0.19092806 0.24359888 0.25182307 -0.33341724 -0.29364544 -0.44082075 -0.047867365 0.03291067 0.2156904 -0.03562786 0.48634592 0.27381667
65 0.090862535 -0.11084701 0.16144693 0.0009778895 0.016676288 -0.0076870606 0.42755446 0.16169433 0.013331973 -0.028434478 0.18216144 -0.29532623 -0.2915185 -0.31480414 0.0656242 0.2962788 -0.07197888 -0.22703208 0.11021039 -0.24819255 0.0034928564 -0.24653345 0.24513787 0.01744292 -0.17509195 0.09910372 0.097889856 -0.03525653 0.002431964 0.033773914 -0.047758695 0.10254901 -0.19413999 0.039811637 0.30018348 0.38963908 0.033898186 -0.16528626 0.0821018 0.27310058 -0.23753045 -0.14560011 -0.19341943 0.07132527 0.281158 -0.09556767 -0.2095152 0.079358205 0.32693046 -0.18107073 0.012666892 -0.04623752 -0.15510163 -0.23576382 0.19380943 -0.17408349 0.05865216 -0.05726178 0.28793177 -0.14664772 -0.16119474 -0.1296973 -0.075895995 0.061064184
148 -0.48835474 -0.42500612 -0.9036193 -0.075897805 -0.0115257315 -0.3286225 0.8590821 -0.40134615 -0.5002501 -0.006106582 0.7195174 -0.03990683 -0.76818436 0.34166983 0.17042539 0.61890924 0.16898371 0.7621924 -1.2636994 -0.025771959 -0.5531235 0.10464869 0.42279646 0.8794382 -0.22314778 -0.5641763 -0.40835884 -0.8612452 -0.72642094 0.19574876 0.004130986 0.20374271 0.50024563 -0.5363721 0.64692956 0.10130686 -0.7634284 -0.30933487 0.14672804 0.88633484 -0.38547325 -0.1185557 0.58525497 -0.059074905 0.22761513 -0.03550671 0.3884612 -1.2056186 0.34474495 0.4195419 1.1537915 0.39630976 -0.7672396 -0.14364026 -0.37498024 0.09178086 -0.3019487 -1.2568816 0.7578199 -0.1065912 0.13397059 0.13819766 -0.32483202 0.27858168
70 0.068442844 0.0036746226 0.14082971 -0.2675398 0.10762243 -0.054338973 0.23827618 0.2089934 0.06602958 -0.43257445 0.19336261 -0.1972435 0.003740266 -0.1694888 -0.0009782822 0.41536674 -0.029236019 -0.2671264 0.017912213 -0.18294328 0.1973611 -0.5141605 0.35641363 0.23846643 -0.2954604 0.103370436 0.21357134 -0.0998081 -0.023220168 0.20279275 -0.2480785 0.087176636 -0.1529895 -0.020325601 0.43535262 0.12735376 0.12914968 -0.038703863 0.02552435 0.08559349 -0.064761244 -0.06399262 -0.05703519 0.06135235 0.27552965 0.04893992 -0.16918649 0.19900016 0.03920532 -0.082297914 0.019637559 0.0015158273 0.16568565 0.19464616 0.1995188 -0.25869596 0.20228492 -0.23335159 0.27369568 0.01034695 0.22427917 -0.056238033 0.03644556 0.20079736
85 -0.12992573 0.14032157 0.22647005 0.090622544 0.23546872 -0.03512224 0.5375639 0.2666589 -0.16539982 0.12693162 0.17574072 -0.37588197 -0.38477048 -0.3146427 0.18174972 0.27311754 -0.2205209 -0.22278956 -0.008180595 -0.41883534 0.09045284 -0.2152227 0.34176415 0.085551456 0.094578564 0.1277079 0.27727205 -0.052335456 0.21057746 0.07678124 -0.073816635 0.031287428 -0.11501381 -0.20951398 0.34936768 0.3327674 0.0037567548 -0.14998055 0.09560834 0.02661571 -0.16336778 -0.12113751 -0.3346578 0.19871049 0.11348466 -0.10964281 -0.20790702 0.17526749 0.32276163 -0.38342407 -0.051015694 -0.09175607 -0.06431699 0.07155622 0.21216838 -0.02405607 -0.14920369 -0.25721264 0.22017895 -0.15327956 -0.093152136 -0.14025359 -0.19258589 0.016694756
66 -0.071926616 0.08495376 0.1437635 0.24066374 0.2669619 0.27285483 0.41578832 0.32785463 -0.14960656 0.21267886 -0.12346432 -0.4823783 -0.28991836 -0.37106466 -0.05794718 0.27127132 -0.054824784 -0.09676031 -0.10813614 -0.27730125 0.058433827 0.030178938 0.14581977 0.18478794 -0.17096381 -0.036895387 0.44322434 0.04844452 -0.13759784 0.10723314 -0.26423597 -0.15333486 -0.3417667 0.22899717 0.122630514 0.3371639 0.08078335 0.021275079 0.2046593 0.17194338 -0.33940253 -0.14150472 0.13179463 -0.3061131 0.4621162 -0.14298186 -0.37316108 -0.17658369 0.12129519 0.002796843 -0.21739613 -0.19840223 -0.06725843 0.013462276 0.12206568 -0.18982454 -0.09674607 -0.0058793123 0.23122445 -0.36755246 0.18048853 -0.33448893 0.028144028 0.17077613
63 -0.108073086 -0.30150795 0.12342038 0.10679825 0.40736887 0.21569875 0.8204225 0.11212719 0.17607541 0.2632413 0.5106176 -0.51888883 0.053250622 -0.30178887 -0.21108763 0.043414336 0.049902853 -0.018263843 0.050403044 -0.02339739 -0.27534214 -0.043582015 0.42362756 0.3278261 0.32561758 -0.1384413 0.25442904 -0.1134763 -0.39070755 -0.14445171 -0.37463775 -0.04508644 -0.08854343 -0.19435687 0.36805847 0.22785121 -0.16200659 0.07210063 0.10143518 -0.051385168 -0.35126257 0.25333336 0.25266227 -0.26331842 0.260821 0.11087023 -0.15185927 0.22538777 -0.015396822 0.13473491 -0.16991971 -0.13680108 -0.18773593 -0.32583693 0.5144444 -0.063933894 0.23150018 -0.14945602 0.011807064 -0.32818326 0.20249712 -0.34145573 -0.11907916 0.14118342
77 -0.15374723 -0.029317312 0.008901835 0.02277057 0.49115893 -0.13348623 0.32396755 0.16753632 0.0328576 0.18436074 0.052270405 -0.38486198 -0.04227426 -0.21609421 -0.36868337 0.20412757 -0.014134513 -0.16168891 -0.087215245 -0.17997967 0.081654795 -0.30763423 0.4291112 0.18779023 -0.2046071 0.35116178 0.48291996 0.10926348 -0.21825974 0.1401336 -0.062851764 0.03687693 -0.26177758 -0.09668542 0.29664308 0.03743288 0.012460697 0.13342105 0.18157728 0.19311593 -0.11321615 -0.03452209 0.0021473705 -0.64516914 0.25904578 -0.19841444 -0.1897971 0.053531066 0.012346005 -0.05318535 -0.008986166 0.092762105 -0.04552003 -0.010199924 0.23550613 -0.2163914 -0.065283164 -0.0897153 0.2640749 -0.36305943 0.1448495 -0.07511083 -0.26622742 0.018169185
87 0.24555035 0.19145218 0.08833872 -0.12637407 0.0037956317 -0.17286403 0.28438568 -0.009205835 0.011167202 -0.3521186 -0.11424809 -0.17413355 -0.17376262 -0.112098545 0.16815533 0.36432236 -0.30870813 0.028327366 0.31341466 -0.22009505 -0.040887505 -0.16185744 0.36331216 0.51498055 -0.32648212 0.16357952 0.32067382 -0.26807132 0.014329026 -0.039462306 -0.23694444 0.066094115 -0.17100294 0.08667598 0.43985456 -0.083902925 0.008730877 -0.040870745 0.14830726 -0.02165376 -0.33832452 -0.0163541 -0.066124976 0.0049021794 0.5475777 0.2946338 -0.014608312 0.34423614 0.0035441422 -0.027900236 -0.26406434 -0.048125155 0.3526632 0.18413661 0.24015047 -0.07836131 -0.019126965 -0.32958066 0.04633522 -0.0048640026 0.028237818 -0.071816996 0.012050916 0.35632488
69 0.18541446 -0.21223398 0.10219855 0.008566083 0.326821 0.112777226 0.37321836 0.13669494 0.18362035 0.26695713 0.37032476 -0.3033644 -0.09617297 -0.10676597 0.08820335 0.23431884 -0.029231379 -0.1403776 -0.02431954 -0.3880387 -0.011613614 0.10886857 0.34125522 0.34045932 -0.10977097 0.22803293 0.06596081 -0.007936131 -0.11548949 -0.38344264 -0.022810116 -0.100045435 0.33584258 0.14104606 0.41006535 0.418437 -0.06560424 -0.15955137 0.33981377 0.093304045 -0.119395584 0.21195371 -0.086265855 -0.11193845 0.17582506 0.0936816 -0.2303898 0.10466319 0.18369819 0.26144153 -0.104997225 0.11932382 -0.17780037 0.15149723 0.12242546 0.15373644 0.102999315 -0.3059408 -0.046668448 -0.05446261 -0.01131958 -0.27667314 0.09489005 0.09233992
57 -0.32268757 -0.3320096 0.11286434 -0.18018577 0.51784116 0.24154268 0.11917252 0.17025815 -0.06776774 0.024787562 0.23605542 -0.12442346 -0.38300171 -0.1103653 0.2354586 -0.12293428 0.05164474 -0.10994003 0.10923495 -0.11667154 0.028939767 0.2998578 0.642665 0.08191491 -0.13682391 0.07563525 0.31097445 0.116766304 -0.042074617 -0.15596272 -0.15156084 -0.40476227 0.3303371 0.18496783 0.27427608 0.3496498 -0.011002974 -0.21580853 0.37245455 0.3471683 0.319981 -0.11189252 0.113516 -0.020557148 0.5222119 -0.0227391 0.036616288 0.17952321 0.30389047 -0.079111665 0.2845744 0.083716266 -0.016184982 0.18839383 0.14489645 -0.08216963 0.32988542 -0.28262457 0.12296596 0.20586437 -0.10304648 -0.30441275 0.21476382 0.37580463
76 0.0910042 0.059854325 -0.13620062 -0.32251206 0.4318378 -0.29114455 0.51257414 -0.1236454 0.071301416 -0.08037303 0.093723044 -0.39484808 -0.013335898 -0.0052620536 0.103348784 0.3288033 -0.11438981 -0.1777074 0.36202082 -0.078884296 0.07063639 -0.29198548 0.19032066 0.20429768 -0.33124608 0.14860308 0.24063314 -0.08321313 0.04462341 -0.067490295 -0.12998869 0.23879987 -0.13173614 0.15396734 0.34726655 0.23162286 0.061943762 -0.1723284 0.13454871 0.15477316 -0.24170218 -0.18420176 -0.080765896 -0.10836446 0.33532915 0.21228708 -0.1844295 0.007318535 -0.07450677 0.18305272 -0.07276718 -0.33873394 0.12987569 0.08398527 0.13489215 0.054850105 0.23265333 -0.44745213 -0.072470754 0.027524913 0.24689329 0.16277775 0.07721197 0.20817058
90 0.15305111 0.09977465 0.021134734 -0.15772001 0.16857205 -0.07060381 0.27485943 -0.038210865 -0.18253936 -0.1211258 -0.07052763 -0.31673136 -0.3472446 -0.16223206 -0.054399565 0.31819105 -0.09438564 0.0003658001 0.32485598 -0.06379289 -0.01904442 -0.38353407 0.2825985 0.19086824 -0.23560984 0.32769093 0.03565161 -0.022115726 0.034374297 -0.101929024 -0.15450123 -0.14221454 -0.23366694 0.23618661 0.20148239 0.17636433 0.12857509 -0.04431402 0.1958178 0.09345203 -0.27957755 0.059528526 -0.16067378 -0.10930368 0.3945481 0.23121284 -0.25399885 -0.07312298 0.0037829746 0.028268525 -0.1018881 -0.12890698 -0.07161779 0.07043319 0.13256913 -0.11370351 -0.10335346 -0.22783676 0.26762626 0.016722728 0.1310784 -0.058542218 0.01092521 0.40501553
73 0.21590549 0.24440497 0.146936 -0.28174233 0.25943282 -0.18071294 0.027186122 0.068426095 -0.13878945 -0.034664337 0.061100163 -0.15473975 -0.5147513 -0.037070647 0.053511262 0.283185 0.025760902 -0.2257171 0.26171836 0.12437212 -0.16644944 -0.45327407 0.48677695 0.29971805 -0.33515388 0.04200927 0.17017174 0.06724972 0.0118044205 -0.09813805 0.09412158 0.28399065 -0.31506956 0.12221205 0.26913652 0.0651139 0.2046698 0.1442518 0.2546048 0.11917222 -0.11207127 -0.050999187 -0.015879143 -0.06684007 0.4364439 0.37088594 -0.3040614 0.12759978 -0.07533526 0.17947416 -0.067584805 -0.14045288 -0.0911631 -0.07703882 0.282091 -0.081276074 -0.23326786 -0.25601083 0.28904164 0.20644724 0.15853222 -0.08048338 -0.209808 0.14039917
58 -0.27247253 -0.82436943 0.44487366 0.19797756 0.6122128 0.025186554 0.16354443 0.21872433 0.27018586 0.070329726 0.4459948 0.020359881 -0.136495 0.4675411 -0.51964223 0.2890688 0.28056738 0.7730444 0.053878542 -0.121319845 -0.3479652 -0.6818955 -0.06937241 -0.018995494 -0.45225102 -0.28372014 0.13780591 0.06462274 -0.31284052 -0.37809303 -0.45552316 -0.018018141 0.14493595 0.13955839 0.30081016 -0.024178185 0.29024938 -0.4504528 0.3623752 0.07662004 0.019541128 0.057639346 0.1398339 -0.13419487 0.17541242 -0.16192462 -0.02322294 0.27723444 0.6521018 0.285549 0.114068665 -0.25879556 0.4993685 0.10020423 0.112411655 -0.028632956 0.08606245 -0.19337869 0.31607917 -0.1923334 0.061748765 -0.4368547 -0.26470163 0.22723177
88 -0.32331014 0.083417095 0.0769639 0.22145836 0.15229246 -0.1131932 0.33106825 0.08127638 -0.0058359094 0.31820646 0.20514297 -0.2989759 -0.6894651 -0.0026394296 -0.0032796331 0.110101834 -0.3290233 -0.033316758 0.23158744 -0.2309104 -0.09172865 -0.4127708 0.5230624 -0.00081630884 -0.29259297 0.13935962 0.2657236 -0.30515528 0.34228733 0.2733276 0.041960087 -0.079955 -0.071074724 -0.3303479 0.18034646 0.20005897 -0.107771166 -0.046080023 0.14170685 0.47516623 -0.22023113 -0.14639623 -0.48359343 0.122337975 -0.12526138 -0.11740964 -0.45753247 0.6464841 0.25130415 -0.09112678 0.17089716 0.014267823 0.07354653 -0.07369572 0.27507406 -0.08199963 -0.15149736 -0.03097686 0.3430076 -0.10639094 -0.14770085 -0.10470075 0.027133586 -0.026074003
81 -0.045448802 0.08513471 0.28940737 0.34270597 0.033340506 0.27415326 0.451512 0.22893801 0.05410929 0.08914999 -0.087243564 -0.09786795 -0.43262926 -0.30869287 -0.2031598 0.43060282 0.18149084 -0.32937703 0.07858688 0.06645763 -0.18487296 0.0028728568 0.23539132 0.084322006 -0.11387145 0.056536883 0.14640087 0.0026423587 -0.09221901 -0.047234606 -0.28015432 -0.3686521 0.032454196 0.04130021 0.2142196 0.48110348 0.032654837 -0.0034757722 0.34022987 0.35902444 -0.34927976 -0.054529887 0.028755957 -0.012987016 0.2780764 -0.11625116 -0.5189011 -0.0564983 0.41662726 0.007056781 0.014536219 -0.11408559 -0.039614722 -0.033642806 0.4494863 -0.1275397 -0.03292142 0.11266664 -0.021720706 -0.122803345 0.16316147 -0.038235072 0.021407673 0.3837509
93 0.19869676 -0.059350725 -0.12920676 -0.52105534 0.19818385 -0.07038797 0.19942656 0.105367705 0.16867644 -0.3191957 0.0013039114 -0.26845497 -0.34315428 -0.32008994 0.14058939 0.81936955 0.0036851598 -0.12568313 0.35827157 -0.2634817 0.20518169 -0.7088386 0.39484113 0.2754827 -0.40782216 0.068145126 0.19164018 0.2976042 -0.085370824 -0.08742121 -0.033099137 -0.12695801 0.20500715 -0.27273875 0.10949891 -0.30713388 0.19179101 0.42616323 -0.06846197 0.40524358 -0.06469208 -0.07556079 0.17107897 0.015915805 -0.1817692 0.27861717 -0.29983357 -0.04154257 0.14147687 0.10014813 0.011594856 -0.31494272 0.38484317 -0.1291482 0.3613829 0.06790922 -0.23396957 -0.4974457 0.02531536 -0.25957376 0.086845495 -0.21147579 0.23878865 0.03603911
100 0.047140475 0.2769844 0.03799547 -0.21177398 0.21787827 -0.13175489 0.44474438 0.11055505 -0.19307801 -0.1316493 -0.008673862 -0.15831907 -0.19443136 -0.12262148 0.17457779 0.2908985 -0.30852926 -0.2142082 0.34482524 -0.17161784 -0.04429015 -0.27151904 0.5680145 0.3180666 -0.24093778 0.13428482 0.36797214 -0.116525665 -0.044219073 -0.19415948 -0.12649557 0.22437054 -0.29358968 -0.03187661 0.21477279 0.051780954 -0.068797514 0.0041566235 0.1410071 -0.3000622 -0.1558649 -0.102300145 0.18609008 -0.022545634 0.3452566 0.13055202 -0.17334102 -0.13396172 -0.18073164 0.19491799 -0.17916101 -0.23287576 0.28099772 0.08661004 0.17286706 -0.123926416 0.12526701 -0.3362834 0.21308042 0.1368221 0.008819679 -0.0078079 0.1276656 0.2982734
74 -0.013552396 -0.5496355 -0.020429298 -0.453087 0.24197105 0.414896 0.0019341131 0.08461426 -0.03251175 0.25506946 0.312798 0.41505793 0.011580825 -0.41792643 0.22673103 0.18076818 0.14559339 0.06643773 0.19843747 -0.21393633 -0.09174704 -0.17497973 0.22194056 0.07854642 0.11172675 -0.017977383 0.3102992 -0.22652973 0.4126606 0.18259585 -0.22376132 -0.029882528 0.13570209 0.01643691 0.60435444 0.1491183 -0.1781074 -0.252934 0.3798056 0.13890906 0.1817818 0.15455772 -0.28458947 0.3590256 0.71767384 0.123179406 -0.49491593 -0.35227147 0.36852914 -0.123087145 0.3154563 -0.27677545 0.16518112 -0.42174459 -0.019163007 0.2786239 -0.22925498 -0.3695264 -0.03489883 -0.033450842 -0.18876348 -0.6284755 0.05497302 0.1841547
109 0.028649163 -0.38247553 0.3849841 -0.053157996 0.35479146 -0.0962619 0.31485814 0.25988448 -0.032229263 0.22030333 0.1942042 -0.21169788 -0.2169841 -0.083048254 0.28958872 0.2604275 -0.014799482 -0.08177784 -0.14974052 -0.27734777 -0.08330443 0.18964186 0.3292279 0.14571998 -0.14140673 0.028670743 0.020732358 -0.15880263 0.015831225 -0.31410736 0.08572963 -0.13673753 0.2760388 0.110969365 0.41508698 0.38753495 0.17635252 -0.18648675 0.3166618 -0.06702996 -0.20696181 0.0096836155 0.17177944 0.14645751 0.23258212 0.08510733 -0.22728828 0.0030520267 0.49143708 0.21099608 -0.1521169 -0.07649847 -0.18441989 0.0754376 0.31013197 0.14878444 0.0687534 -0.094663985 0.0037700378 -0.1534529 -0.12947732 -0.2977197 0.05781723 0.22277999
84 -0.09138792 0.040601548 0.08458834 0.13570465 -0.14590922 -0.36726174 0.30433083 0.2871633 -0.40763173 -0.26392645 0.24861544 -0.6139774 0.07768254 -0.13806969 0.021300722 0.23971616 -0.47738954 0.19389766 0.355214 -0.12913497 0.12668227 -0.53145176 0.270199 0.15389253 -0.21686533 0.11843091 0.21023463 -0.04859346 0.050822128 0.22578047 -0.38759398 0.029690668 -0.28769818 0.080468446 0.18124297 0.3385612 0.19919933 -0.14565995 -0.034121513 0.09247176 -0.32328036 -0.1792701 -0.20992677 0.09634771 0.06364657 0.27489227 -0.26905498 0.27625036 0.54464287 0.015391497 0.24569967 0.031585205 -0.04974584 0.076159865 0.058950353 -0.10394954 -0.14049043 -0.20335612 0.32762113 -0.14061803 -0.0453361 0.056646287 0.0036277974 0.24508294
110 0.15854421 -0.19048183 -0.03645798 -0.59343493 0.15378158 -0.084116 0.052526847 -0.11652108 0.3310636 0.014529414 0.13227844 -0.324549 -0.57012373 -0.064030364 0.15053983 0.47513616 -0.0069244956 -0.3315793 0.30481204 -0.21382688 0.07467022 -0.3909279 0.511332 0.0033423677 -0.22225572 -0.20589906 0.5403983 0.22923839 0.011866702 -0.034712903 0.111019105 0.35017836 0.062498607 0.0010087937 0.46837664 -0.17544101 0.4655124 0.4451131 -0.069679454 0.5567195 -0.6479674 0.18044686 -0.05059946 0.1463688 -0.27966738 0.2689647 -0.6480316 -0.15523115 -0.03675666 -0.045477036 -0.1882076 -0.39002734 0.3195054 0.2831645 0.26927033 -0.3205029 -0.39009613 -0.38111344 0.0022778015 -0.031158146 0.17216693 -0.106013544 0.28162795 0.18316981
241 0.36454192 0.051410727 0.0963367 -0.65503466 -0.07818701 -0.19755542 0.10108352 -0.092341214 0.30635205 0.06996211 0.35066786 -0.48932135 0.01005031 -0.30442536 0.03148382 0.50478435 0.43434748 -0.28329584 0.17595115 -0.15320937 0.25357395 -0.59654194 0.61417794 0.37858012 -0.16950966 0.11799412 0.35357797 -0.0071023097 -0.13652062 -0.34804735 -0.36210433 -0.0737625 -0.6834421 -0.8149968 0.38927254 -0.27439538 0.3440366 -0.40431628 0.061268475 -0.090982355 0.22684266 -0.8776676 -0.09604645 0.043764535 0.04862348 -0.460084 0.11708212 -0.29400212 0.050233737 0.23838435 0.017807258 -0.2043429 -0.18231976 0.42923847 0.41086942 -0.3872766 -0.2277299 -0.5820563 -0.005924431 0.2529268 0.039897017 0.10388563 0.19186963 0.5901456
94 0.07493554 0.3961895 0.0027995687 -0.38269907 0.14824648 -0.020034607 0.13089533 0.16626482 -0.045173943 -0.30018425 0.18809503 -0.3160242 -0.3377092 -0.29871452 0.16601147 0.5906831 -0.2750862 -0.121988855 0.31962478 0.28914794 -0.2625424 -0.45564657 0.29983371 -0.0508491 -0.18713738 0.01348369 0.14486356 -0.122032985 0.038188025 -0.088265784 -0.55333376 0.11377727 0.0030066927 0.11854699 0.33238512 0.25454557 0.38267693 -0.054559283 0.22974943 0.029259766 -0.31553438 -0.044630893 0.011896399 0.2137069 -0.071054436 0.18218917 -0.28370234 0.19862664 -0.051098228 0.24723151 -0.21592523 -0.36904252 0.06179411 0.20185906 0.14948048 -0.32352856 -0.09573547 -0.27845395 0.029542806 0.002825212 -0.0451617 -0.08373741 0.26137465 0.098579116
89 0.060251314 0.213668 0.05112876 -0.2960703 0.029886428 -0.06262587 0.48818323 -0.053788282 0.44448063 -0.3900466 0.007517347 -0.20202549 -0.045720883 0.13012983 0.27009284 0.3508384 -0.22627321 -0.32038233 0.1618334 -0.5646397 -0.07645307 -0.25737208 0.4753054 0.39217022 -0.4724233 0.341752 0.24825351 0.08216254 -0.0063854465 -0.1498558 -0.27549326 -0.08598157 -0.16673177 0.24477048 0.38456255 0.014320115 0.17500101 -0.3509905 0.06299588 -0.14848639 -0.41682568 -0.03054964 -0.004535661 -0.25072515 0.33788097 -0.049338654 -0.015999977 -0.06386916 -0.009190299 0.20325643 0.022555012 -0.21752533 -0.040968534 -0.097542666 0.3505377 0.041140147 0.20405842 -0.14216498 0.18247625 -0.028618615 -0.052729335 0.043808024 0.07127481 0.21802697
436 -0.4142332 0.8790296 0.1510566 -0.18024382 -0.5408211 -0.7508996 0.60988444 -0.636808 1.308666 0.3045402 0.008397591 -1.0106678 -0.42544064 -0.11943614 -0.22986265 -0.21064092 -0.25763464 1.295652 -0.38499537 0.5727519 0.6765364 0.075081475 0.04780378 0.12817879 0.034293476 -0.5985329 -0.6865385 -0.57634354 -0.5360153 -0.19977602 0.6070485 -0.81207776 -0.10115795 0.62264633 1.024061 -0.297105 -0.32393292 0.5907104 0.83808154 -0.3115442 0.0003886259 0.41580117 -0.52801925 0.98083955 1.1519043 -0.766698 -0.18022826 -1.4703208 0.2868504 0.12921557 0.83086705 0.10591946 1.2347251 -0.57632875 0.5984669 -1.3628037 0.3219959 -0.77697927 0.74402016 -0.31577864 0.05219085 -0.53966784 0.042048827 -0.6385827
102 -0.011094271 0.32166234 0.11469932 -0.18934616 0.21778451 0.0757473 0.26937008 0.22913389 -0.04150862 -0.38636595 0.04548957 -0.45623344 -0.031228838 -0.04508127 -0.16089001 0.2788571 -0.18585101 -0.022161245 0.061893664 -0.20864181 -0.12516637 -0.3795467 0.26828593 0.4239201 -0.1057996 0.46689484 0.16772205 0.04378154 0.11941248 -0.07180081 -0.27459982 0.12927502 -0.02909908 0.00037691818 0.14845191 -0.09576906 0.25182188 0.25831378 0.17842233 0.1352496 -0.38349137 -0.01916921 -0.045753494 -0.0891307 0.34994507 0.22791183 -0.4143909 -0.019420972 0.270666 -0.0071114316 0.1723315 -0.20022434 0.17497787 0.2528283 0.2537141 -0.2765177 -0.32643744 -0.15927067 0.04819644 -0.13979436 0.26538327 -0.32040802 -0.11052045 0.33311057
415 -0.24344188 0.2226667 -0.3149691 0.6833557 -0.30112582 -0.41360897 0.5134459 -0.028582944 -0.40779155 -0.17487171 0.32207558 -0.13223357 -0.061905354 -0.36807215 -0.30695146 -0.24682936 -0.6746234 0.6928582 -1.0675807 0.5412487 0.24114254 -0.1133463 0.5404769 -0.048414417 -0.3449592 -0.39491174 -0.5107471 0.14776482 -0.1201347 -0.41878033 0.53672373 -0.8564929 -0.22211629 0.6343877 1.011208 -0.8180248 0.9694717 -0.23795237 0.8123397 0.38329366 0.45169118 0.3823998 -0.041654687 0.35638827 0.2836511 -0.22380556 -0.44900137 -0.13415566 -0.32272774 -0.35653237 0.27214444 -0.6189016 -0.3984115 0.55828696 0.3623955 0.32566044 0.3088984 -0.04417359 -0.37894422 -0.6833046 -0.43781888 0.018608605 0.26439536 0.0031522398
487 -0.7017761 0.12159852 -0.74096084 0.7325802 -0.39767385 -0.99189895 -0.4925953 0.12433556 1.617039 0.544222 0.160127 -0.3793047 0.117703445 -1.2020853 0.49244294 0.018894996 -0.38874978 1.0544224 -0.51275027 0.77388895 0.17978485 0.13359515 0.15192099 0.47860503 -0.28969562 -0.13082615 0.10602456 0.8850734 0.36935 -0.0065160757 -0.03302838 0.34111145 -0.71380943 0.04391474 1.3125753 0.24966754 0.21160632 -0.6497093 0.43201298 0.48254657 0.700138 0.6220163 0.5486338 0.2543376 -0.087306045 -0.34281248 -0.3612753 -0.3001308 0.72402245 0.6432604 0.32574278 0.07107292 0.48733583 -0.0871441 0.5487649 -0.5797974 -0.27759436 -0.7922771 0.7764198 0.82338804 -0.5579194 0.6926398 0.23885716 0.29814458
299 0.28649816 -0.1797491 -0.31678644 0.18936455 0.15037246 -0.6394479 0.44056627 0.046661958 0.42495564 -0.34898078 0.16161141 0.50257 0.13976915 -0.27504063 0.22222473 -0.26385167 -0.71174216 0.7428544 -0.47981417 0.15489437 0.40367922 -0.14822984 0.39999142 0.2034404 -0.17932469 -0.482292 -0.4528832 0.6481422 0.5518785 -0.21480884 -0.43162644 0.4014864 0.023458552 0.03977635 1.4034129 -0.086698554 0.7033062 0.69405746 0.031136522 -0.23579772 0.6962538 0.35076723 0.3433732 0.055348422 0.26519585 -0.8085801 -1.2040999 -0.73929894 -0.45064583 -0.40127704 0.5908886 0.6818977 0.15906589 0.19712019 0.9419593 -0.4702574 0.223594 0.11755255 0.5278065 0.48956415 -0.7365904 -0.21574754 0.21558526 0.02228949
99 0.08425663 -0.2202926 0.022122271 -0.36618307 0.30284512 -0.04845715 0.21009155 0.38020927 -0.020904018 -0.25098735 -0.07764579 -0.08341026 -0.36674473 0.010965535 0.37286913 0.4490934 -0.3617185 0.05853468 0.29962805 0.09721342 -1.0230287e-05 -0.72825456 0.37960267 0.31198567 -0.0021000784 -0.14615291 -0.05433519 -0.14281844 0.073846824 0.43613768 -0.08073331 -0.11320116 -0.4195276 -0.09724518 0.06740024 -0.0115295695 -0.0015210059 0.04588058 0.09020349 -0.039640103 0.18832314 -0.25950313 0.038878772 0.0028597098 0.08071677 0.23845123 -0.4255259 0.20131876 -0.05785197 0.3433126 -0.07086371 -0.25351858 0.38941342 0.5249458 0.39561242 -0.33326042 -0.018374855 -0.1735999 0.19045378 -0.21278478 0.18183252 -0.118904434 0.6741773 0.14480744
181 0.2491844 0.1326368 0.2024862 0.034455817 0.3047876 -0.2627219 0.27766415 0.0803396 0.20283139 -0.11693396 0.06818576 -0.007997522 -0.08478319 0.14027578 -0.03846539 0.3076925 -0.41649893 -0.13078271 -0.052502338 0.13675408 -0.06797744 -0.10912274 0.4642778 0.34335452 -0.13320656 -0.06220886 0.14980192 -0.29094476 -0.07710098 0.09360803 -0.0890188 -0.3039864 0.09912921 0.0574872 0.30130094 0.21777917 -0.013790508 -0.07458029 0.117885895 -0.013559505 -0.12542292 -0.17648192 0.13847408 0.0269566 0.37669614 0.03661174 -0.23166685 0.14985995 0.50773484 -0.1293532 -0.46947643 -0.21327458 -0.111610614 0.2579869 0.2798743 -0.18219449 0.17403124 -0.11919103 -0.043822024 0.059424236 -0.1862103 -0.15853187 0.07966144 0.21450137
140 0.24518687 0.10510953 0.18541339 -0.3458975 0.67629313 -0.29023626 0.09627084 -0.3140978 0.08112456 -0.04792728 0.400409 -0.6627211 0.14363599 -0.0029432697 0.20590767 0.3359629 0.0859321 0.19389315 0.29873663 -0.18443987 0.41368106 -0.36819196 0.3947055 0.36472443 -0.10121888 0.26156166 0.32506803 -0.0908729 -0.11613589 -0.20092608 -0.28042844 -0.11805082 -0.52849084 -0.6831763 0.54873145 0.048315212 0.6186862 -0.40602487 0.048445877 0.6370401 0.04029959 -0.21963115 -0.34809673 -0.20819964 0.04134612 -0.26995218 0.026217178 -0.36690217 -0.46045935 0.16482288 -0.083201334 -0.12811503 -0.26359138 -0.0068044136 -0.008021976 -0.5095183 0.0054443437 -0.20075941 0.19134657 0.012015351 0.5739263 0.13186519 0.6485236 0.40383878
83 0.3469317 -0.088882096 0.06390231 -0.09688647 0.03068774 -0.19323269 0.08097562 0.049572043 -0.030027092 -0.3299161 0.55160314 -0.2530483 -0.11005686 -0.27281207 0.18962929 0.6064357 0.2776249 -0.2820575 0.0303654 -0.45102686 0.07886508 -0.47417143 0.42582813 0.48110127 -0.36013478 -0.0747075 0.4353711 -0.3273773 -0.063558795 0.0969586 -0.44817203 0.38778293 -0.10890361 0.19845177 0.2771739 -0.07681783 0.19288193 0.4535044 0.39109695 0.05957382 0.16457972 -0.11670352 -0.25075525 0.031362344 -0.033238135 -0.4078295 -0.14699034 0.31533656 -0.21415302 0.0010770247 0.03405575 -0.062805265 0.16168684 0.16128458 -0.008815993 -0.14451985 -0.039121643 -0.18747018 0.501827 -0.15069552 0.3916658 -0.1488595 0.26888275 -0.14066559
45 -0.3369154 0.178492 0.17406581 0.17049551 0.19786975 0.20815748 0.80413043 0.034512345 0.25920227 0.14847621 0.14024475 -0.46287256 0.105215654 -0.26694435 -0.5475197 0.31594396 0.18710807 -0.39421678 0.218701 0.19492234 -0.11665895 -0.09233571 0.56730837 0.5840482 0.4112101 -0.37102756 0.47477275 -0.09877884 -0.32147044 -0.08036624 -0.16961354 -0.30473316 -0.28761354 0.08190346 0.07521013 0.2679214 -0.0036633203 0.14892355 -0.02487962 0.13792552 -0.06445518 0.8526341 0.24731797 -0.5328398 0.23554862 -0.15324934 -0.0813539 0.21360005 0.3570821 0.18668987 -0.014463617 0.05545549 -0.12519793 -0.012141816 0.6502493 -0.008439521 -0.1065221 0.19351451 0.3415514 -0.4737048 0.37835482 -0.38306782 0.054927785 0.3644049
86 0.20436564 0.20008518 -0.04276154 -0.2795289 0.22546329 -0.13095243 0.40299287 0.1055401 0.36928695 -0.29154155 -0.12603275 -0.08318453 -0.06864152 0.4243469 0.08601648 0.40204293 -0.46030477 -0.15104844 0.047639694 -0.099511765 -0.33164203 -0.42536816 0.7754925 0.3346302 -0.41483584 0.52530867 0.07769209 0.35242343 -0.14612405 0.1222323 -0.22514716 -0.16866797 -0.038632374 0.36258754 0.37891376 0.3520967 0.18739074 0.08891435 0.12996523 -0.030003773 -0.09846124 0.2056269 0.059188556 -0.11711276 0.2422239 0.16488877 -0.054997176 -0.121249646 0.27615803 0.14545998 -0.16642068 -0.16396876 -0.023533512 -0.031592686 0.21480317 0.012202114 0.2804962 -0.101287276 0.29535532 -0.07199682 0.24798337 0.08160292 -0.038821653 0.090744585
106 -0.102958165 0.63800347 0.11837533 -0.09801896 0.30851465 -0.12821738 0.6620355 0.25198317 0.27535895 -0.03819213 0.11939748 -0.32838544 -0.49855894 0.0070489384 0.12687364 0.05862292 -0.24489191 -0.011210069 0.2797841 -0.2932903 0.28336972 0.082862094 0.093089156 0.07606402 -0.11100849 0.4460561 -0.26909673 -0.44721323 0.20735294 -0.07413067 -0.18866548 0.2577171 -0.24530886 0.123038985 0.26772782 -0.19381574 -0.20135657 -0.05428612 0.19012007 0.18570003 -0.42796552 0.044380974 -0.062178373 -0.4742476 0.4497777 -0.012839539 -0.1864839 0.17778063 0.22906654 -0.07775673 -0.45608222 -0.5282138 0.12971292 0.39111078 0.02422678 0.026554376 0.18659669 -0.23653652 0.50464535 -0.13194674 0.03979085 0.04460494 0.11173158 0.265044
103 0.20389979 0.41139624 0.37152255 -0.48662212 0.28394902 -0.34587276 0.5745986 -0.27192256 -0.009612989 -0.061782725 0.33450451 -0.07423716 -0.27945668 0.15701853 0.091336675 0.4603962 -0.241364 0.031136664 -0.110563286 0.23010541 0.05650259 -0.5107991 0.7164236 0.25647226 -0.36305287 0.23042692 0.47026664 0.22869372 0.015940133 0.4215811 -0.3001199 0.14026634 -0.44097984 -0.23790191 0.013692058 0.32442468 0.07845866 0.11570162 0.27544108 -0.06654629 0.09380073 0.1307635 -0.101679154 -0.041376658 -0.027085407 0.2306338 -0.07830133 -0.20454946 0.34829783 0.1867097 -0.36863172 -0.0542581 0.034069657 0.42895073 0.06188562 -0.19125794 0.10316551 -0.05929541 -0.14022598 0.0710974 0.3197731 -0.11919147 -0.084946774 0.40583876
394 -0.9619278 0.9927272 -0.88937855 0.5719031 -0.4009115 -1.2606308 -0.53400874 -0.13577309 1.1513133 0.2048458 -0.18611802 -0.61414015 0.14291504 -1.4366801 0.40261033 0.021628072 0.2914129 1.008859 -0.14663926 0.69697684 -0.284747 -0.062829055 0.3264479 0.3336221 -0.4200753 -0.13057871 -0.31482002 0.32643595 0.22196156 0.11133342 -0.022352813 0.18323293 -1.0945898 0.5388436 1.8224988 0.27254036 0.41257548 -0.26334107 0.8066315 0.67307544 0.88934034 0.7485542 0.419299 0.7083981 0.20129636 -0.5124717 -0.09892086 -0.4121507 0.9031216 0.95275116 -0.14587922 0.01644892 0.6428027 -0.40644854 0.63836586 -0.7098061 -0.3077206 -1.2530304 -0.01207986 0.4969403 -0.039015688 0.7451485 0.018344363 -0.15463056
312 -0.7248391 0.20529367 0.059671335 0.64279485 -0.38417643 -0.77522874 0.82951385 0.37730715 0.25578886 0.040274967 0.25434497 -0.318044 -0.4647325 -0.9099122 -0.30353665 0.044156395 -0.56092936 0.030636605 -0.8214174 0.37660566 -0.26938444 -0.19772474 0.461469 0.49228364 -0.19047636 -0.15731198 -0.7651337 0.65236074 -0.037609767 0.004453268 0.85773915 -0.55689615 -0.46981722 0.31094742 0.50549924 -0.7330647 0.82565784 -0.42187944 0.36885428 -0.0928029 0.54283345 0.62495965 -0.22009125 0.47605884 0.17211159 0.3521781 -0.571457 -0.09269852 -0.3476217 -0.4537754 0.5638125 -0.7751345 0.26551634 0.17565857 -0.49120948 0.31799078 0.096693575 -0.9067092 -0.052211117 -0.59415996 -1.014065 -0.36676645 0.7014368 -0.36490974
128 0.015053587 0.102145046 0.0069685583 -0.27506894 0.022172464 -0.13279109 0.27608657 0.09077624 -0.10542014 -0.25798059 -0.03585515 -0.37400597 -0.43724766 -0.17188323 -0.1177537 0.2856547 0.0078019546 -0.17642675 0.06972268 -0.042807136 0.054885887 -0.5308635 0.4583305 0.34040874 -0.31928658 0.25389737 -0.092697024 -0.24562687 -0.079368666 -0.37655213 -0.22079754 0.14467907 -0.23819038 0.23924626 0.21012053 0.2469844 0.0525795 -0.19322842 -0.016581854 -0.0359691 -0.3796624 0.074365884 -0.05420515 -0.064924695 0.15207961 0.22568971 -0.07762911 -0.063445956 -0.3894555 0.11566034 0.012530101 -0.058848664 0.20397031 0.053484347 0.30629838 -0.15258774 -0.19723205 -0.050641853 0.23402973 0.059441335 0.054675277 -0.077705145 0.12506306 0.38679144
348 -0.6923262 0.59539235 -0.6188349 -0.03430481 -0.5373176 -0.75172865 0.56443477 -0.51519316 0.913306 -0.059940144 0.0464663 -0.44087294 -0.0790212 -0.17889674 0.17770866 -0.32013613 -0.53905946 1.450227 -0.7357844 -0.15469828 0.37623352 0.21847215 0.2270236 0.083565935 0.226944 -0.37448964 -0.48862803 -0.47951654 -0.4944521 -0.28205106 0.72796655 -0.4353493 -0.54947835 0.33083218 1.3380344 -0.15979932 0.5147241 0.8674581 1.3567661 -0.2622269 0.16209954 0.74354005 0.010832189 0.72629267 1.1728308 -0.6030244 -0.28233474 -0.9854214 0.14082521 0.16985545 0.9938141 0.56634545 0.94470686 -0.13732527 0.8703203 -0.65931576 0.08700578 -0.436782 -0.039271686 0.08052363 -0.27818304 -0.9070367 0.40189192 -0.28874332
98 -0.092638806 -0.11798984 -0.04094359 -0.002711008 0.17170104 0.019320799 0.5724278 -0.25125647 0.16645391 -0.107037455 0.11006048 -0.44330922 -0.19318663 0.17439915 0.11291108 0.6465213 0.025700843 -0.057854272 -0.17692831 -0.10042275 0.5108258 -0.18266402 -0.093264 0.14311486 -0.56415385 0.037352502 0.36651877 -0.1892699 -0.23133704 0.33437052 -0.4174547 0.021248475 0.0657488 -0.10277403 0.1832746 0.4029059 0.46135983 0.11266182 0.72640574 0.17505431 0.1885509 0.11714278 -0.07056797 -0.012074387 0.3753667 -0.086268984 -0.18092127 0.2035255 -0.23260199 -0.12610322 -0.5607342 -0.26881686 -0.052656483 0.038037837 -0.078676045 0.0025076307 -0.033683777 -0.10584818 0.6054546 -0.21670838 0.33283567 0.025757696 0.21869361 0.13331969
91 0.15850714 0.13453124 0.25675598 0.26657343 0.027201103 0.03134059 0.33304784 0.15348415 -0.09509755 -0.0051830905 -0.019768085 0.086986504 -0.13721511 -0.18223034 0.050371516 0.32042855 0.13758902 0.05025986 -0.016434265 -0.29078642 0.013309931 -0.36792684 0.38008383 0.30961657 -0.018784493 0.25688168 0.14037164 -0.27675533 -0.032512467 -0.090850644 -0.23450722 -0.037742402 -0.0178976 -0.18156296 0.49299207 0.29361612 -0.14792259 0.02799158 0.21587977 0.0036884337 -0.13125537 -0.09438467 -0.18565407 -0.06294694 0.1521154 -0.07711372 -0.47416365 0.15193424 0.41065228 -0.2753635 -0.04691997 -0.13384975 0.010542073 -0.043649063 0.0026124555 -0.25650215 -0.1816608 -0.12162651 0.15198754 -0.22043149 0.00061091664 -0.11550207 -0.065218456 0.25767758
393 -1.0153521 0.76905954 -0.72144336 0.71450615 -0.24483296 -1.1747589 -0.29647243 -0.074656606 1.4595741 0.2944673 -0.41701046 -0.3665806 0.22168195 -1.4632319 0.4528351 -0.17084874 -0.040347155 0.9146806 -0.5064553 0.74455714 -0.106332265 -0.21012942 0.3010598 0.42174825 -0.24782486 -0.093879685 -0.3644579 0.63242954 0.45490262 0.028142534 0.13325724 0.57335716 -0.71937555 0.512777 1.496739 0.07737356 0.43095148 -0.40392002 0.54757446 0.80383044 0.71493936 0.42066735 0.20530929 0.35308486 0.19251317 -0.55722016 -0.062801234 -0.6093546 0.8706372 0.8674471 -0.07104386 -0.11601974 0.6005276 -0.3169178 0.5971642 -0.8212291 -0.037645426 -1.3400066 0.5502144 0.64080405 -0.37363657 0.73068964 -0.06897893 -0.0220628
401 -0.5723359 0.37614065 -0.47595885 -0.105614014 -0.47645578 -0.68185914 0.58689404 -0.19848205 1.1038718 0.23181127 -0.3263049 -0.4257524 -0.18224932 -0.3206119 -0.14769545 -0.6489805 -0.6658613 1.3639226 -0.86020625 -0.5223065 0.13954245 0.21746105 0.33698183 -0.033977397 0.033573028 -0.6242546 -0.44082975 0.08224718 0.24598348 -0.28878257 0.17642319 -0.3625745 -0.29413489 0.12453554 0.8222832 0.009447462 1.0160197 1.019929 0.8792916 -0.31141883 0.39973322 0.3720763 0.161723 0.3951623 1.0258948 -0.6739218 -0.73409986 -0.92125016 -0.080845274 0.021798858 1.0626339 0.518714 0.60301167 0.002017328 0.88566804 -0.8881257 -0.04845023 -0.95282435 0.16297938 0.16690807 -0.7369371 -0.6650029 0.32189968 -0.23595509
178 -0.0017256126 0.23805478 0.25392923 -0.5089184 -0.071587205 0.23142006 0.25937217 0.1514283 0.10881454 -0.4031873 0.18712632 -0.5231255 -0.18435805 -0.32607752 0.07546222 0.59156066 0.55596375 -0.32042924 0.1945566 -0.0759968 -0.2567506 -0.55328673 0.8271721 0.3550946 -0.23052515 0.3038096 0.44578955 -0.14988281 -0.24275777 -0.19466771 -0.49510077 -0.08968745 -0.524996 -0.38775784 0.4315335 -0.34604257 0.4363336 -0.49906635 0.2851583 -0.30410084 0.1401232 -0.92040914 -0.11600953 0.16733705 -0.1997503 -0.6004381 0.10510896 0.09820458 -0.28260344 0.21914592 -0.061491467 -0.16076991 -0.07353299 0.29473016 0.5591457 -0.26753324 0.25012934 -0.76350206 0.18403171 0.21746388 -0.08979532 0.0768939 0.17777883 0.4889176
187 -0.053266015 -0.26766068 -0.20454007 -0.7514642 0.90920234 -0.22120762 0.548163 -0.055081457 -0.28513637 -0.31077966 -0.028145611 0.11912551 -0.014999006 -0.3145249 -0.0026560903 0.8138363 -0.38915884 -0.33995956 0.15265545 0.23001638 0.31769264 -0.514523 0.7889963 -0.24034782 -0.0066641592 -0.042668704 0.324699 0.08270857 0.27278876 -0.23055083 -0.20561314 -0.19654645 0.08498778 0.5242771 0.38863063 -0.41563585 0.1348337 0.12632388 0.06875401 0.292889 -0.69577974 -0.102236755 0.23360063 0.08542525 -0.3432534 -0.059767187 -0.19500293 0.14206105 0.050705794 -0.26500085 -0.24984439 0.24847977 0.16902582 -0.46694258 0.35308242 -0.41622713 -0.2676062 -0.66969085 0.030758288 -0.1334988 -0.1759486 0.109867565 0.15034136 0.077028215
291 0.050842248 -0.8350817 -1.6559309 1.0266628 0.06633267 0.22288357 0.80765766 -1.3140099 -0.28645894 0.27653316 1.8567667 0.24765235 -0.9284342 0.52451843 0.12232983 0.7732028 0.21601567 -0.10464945 0.5735506 0.060442787 0.64178956 1.1166624 1.0944576 -0.09312122 -0.53578466 0.41695216 -0.33816054 -0.63269925 -0.12049071 0.46133757 -0.58602804 0.067436166 -0.63936967 0.7192446 1.0629631 -1.1857171 0.75111586 -0.65116096 0.06244193 0.03326754 0.6585006 -0.1302814 1.2581878 0.33916512 1.0420163 0.06475063 0.29422325 -0.6023501 0.73582345 0.6580698 1.2761554 -0.9155898 0.3773897 0.526212 0.8940596 -0.89411294 -1.3099474 -0.9188502 -0.2488416 -0.27786252 -0.5146326 -0.19753413 -0.26450026 -0.39036793
59 -0.3238027 -0.525395 0.4214693 -0.028091766 0.6083815 0.054739326 0.3139357 0.3082845 -0.3086451 0.32365716 0.25048453 -0.24039765 -0.27687576 -0.02406867 0.3104053 0.26302347 0.14111775 -0.044913027 -0.052005697 -0.26974583 -0.3564571 0.016626492 0.22856182 0.22504658 0.109010205 -0.065629296 0.29384086 -0.07676938 0.13018902 -0.46565172 -0.121202394 0.018519541 0.49861538 0.08035123 0.3192429 0.09729915 0.30707526 -0.13399929 0.69712716 0.052440237 0.10379998 0.07866343 0.17676082 0.077731505 0.46796206 0.116371535 -0.1414014 -0.17782538 0.396968 0.19214338 -0.03850224 -0.16419412 -0.015120458 -0.086704716 0.2596644 -0.2729409 0.4159084 0.0052367817 -0.0325468 -0.14859623 0.01864665 -0.25497702 -0.09711339 -0.1555207
482 -0.805094 0.048449308 -2.1538553 0.8296437 -0.12706551 -1.0322907 0.26939884 0.37916085 0.3024632 -0.74055254 0.96573216 -0.069869176 -0.7580198 -0.75751156 0.20041245 -0.34274936 0.18503243 0.61848336 0.39174524 1.3899908 0.17422707 0.14601377 -0.4076403 1.0550084 -0.34627607 -0.2738932 0.13571033 0.7731063 0.63750404 -0.22169507 0.33924747 -0.6604166 0.0970634 -0.022190206 2.2961 -0.0018916263 -1.3616155 0.3975933 1.1004146 -0.570088 -0.045000333 0.9060283 0.18078227 0.44984236 0.33576488 0.6792183 -0.43610033 -0.82048553 -0.20562342 1.0991607 0.08288701 0.50003976 0.021698732 0.07802879 0.46068886 -2.0859284 -0.45669484 0.27077475 0.8239163 -0.68901265 -0.52070636 0.21807015 0.25823614 0.016121456
443 -0.05872579 1.005732 0.31836256 0.0035323019 -0.4747785 -0.7235672 0.96655387 -0.19929342 1.5059599 0.52295274 0.12963064 -1.0614332 -0.4595237 -0.31522685 0.2556062 -0.10586421 -0.27902249 1.2275003 -0.55546784 0.55509526 0.95044047 0.019806577 0.24472578 0.106684424 -0.24104081 -0.52317244 -0.7429875 -0.17722553 -0.8220635 0.040593058 0.3340389 -0.59762645 0.041217346 0.74965984 0.5165417 -0.3133686 -0.46360254 1.0096629 0.37224305 -0.32286543 0.396317 0.14041676 -0.6729133 1.1405346 0.9163216 -0.98015517 -0.08876476 -1.374946 0.44470686 0.23184007 0.786587 -0.008233199 1.0256044 -0.9104603 0.76040643 -1.1274033 0.48992857 -1.0230527 0.45782667 -0.49862373 -0.12619458 -0.31662795 0.0183186 -0.5441835
105 -0.03722075 0.1007508 0.12720022 0.13290796 0.46663475 -0.089562304 0.37700164 0.1893844 -0.1515077 -0.108952194 0.05796039 -0.080414645 -0.28153467 -0.2806716 -0.062050443 0.16823241 -0.13561244 -0.08652043 0.14596565 -0.26535448 -0.01106629 -0.45795935 0.2678778 0.102202564 -0.16516557 0.098853864 0.22609648 -0.1948686 -0.06501178 0.30596352 0.1187928 0.09035464 -0.106161214 -0.21229188 0.28775123 0.24635711 -0.13839208 -0.022077583 -0.0032485528 0.14159127 -0.122559436 -0.078935385 -0.40471873 0.042323623 0.23010989 -0.20030692 -0.35816723 0.13877447 0.2855184 -0.051996686 0.15703022 -0.038180448 0.112988226 -0.21181144 0.15542603 -0.3199392 0.018496515 -0.1263624 0.1105225 -0.015702965 -0.19091105 -0.15742512 -0.33951116 0.13202405
92 -0.49837452 0.18264222 0.23607731 -0.14582273 0.3671882 0.00013373396 0.3366078 0.26646143 -0.06282652 -0.077213064 0.16855395 -0.48537526 -0.539896 -0.022127511 -0.054377425 -0.006473343 -0.32032695 -0.21521446 0.2071333 -0.41564438 0.45610914 0.044390254 0.22405186 0.29107523 -0.09725031 0.3666554 0.29675376 -0.19225493 0.034401204 -0.2557995 -0.42090458 0.344983 -0.21296485 0.0088349 0.3219514 -0.27349553 -0.3187399 0.024919653 0.28937835 -0.045050584 -0.2614031 0.12855709 -0.1467627 -0.66466844 0.20576733 -0.13117214 -0.16051538 -0.09038721 0.07308333 -0.09364067 -0.083656 -0.3194831 0.08416891 0.23499514 0.24591692 -0.2812499 0.21232049 -0.12694502 0.54922336 -0.26569 0.31716043 -0.06390026 -0.07235796 0.009711187
96 -0.07020309 0.14522673 -0.08066026 -0.13743435 0.31381673 -0.20649427 0.2576149 -0.49594268 0.08626589 0.011313635 0.23766465 -0.683915 -0.18191451 0.10181732 -0.102873795 0.08535228 -0.1040663 -0.09720718 -0.025296727 -0.020304028 0.08823841 -0.20558353 0.27313873 0.27017868 -0.46820527 0.18811409 0.50659555 -0.29182735 0.1827021 0.1130612 -0.07376635 -0.060399987 0.10989849 0.15750207 0.2617027 0.3666233 0.12218368 0.12932982 0.23584604 0.09118622 0.20586468 0.035726104 -0.20943509 -0.5861367 0.64133567 -0.22592926 0.035940938 0.29844624 -0.12670025 -0.20635536 -0.29004025 0.041717287 0.047106646 0.20368117 0.049312595 0.19538154 -0.19846718 -0.16816516 0.44729486 -0.11207803 -0.039254207 -0.120526396 -0.043688726 0.29614043
131 0.039707296 0.07298434 0.21469067 -0.34880748 0.24114327 0.0036413334 0.1542196 -0.064646654 0.024917047 -0.7199598 0.00049146777 -0.12760772 -0.072928816 -0.24643952 0.19778961 0.4134821 -0.07421107 -0.4025836 -0.012733874 0.009522297 -0.30468464 -0.36090073 0.36307332 0.15316056 -0.5593376 0.6654556 0.3695884 -0.24289803 0.038768552 0.06436693 0.028544638 -0.09795421 -0.13877301 -0.025889944 0.31960472 0.20234644 -0.02576561 -0.037461314 0.25870404 0.008085725 -0.4380558 0.12374842 0.1234841 0.022310803 0.13199107 0.2871639 -0.09574885 -0.11706306 -0.09858597 -0.28569043 -0.10468996 -0.44323042 0.66770524 -0.37631753 0.46954128 -0.26553968 -0.23361905 -0.24226554 0.1646324 -0.2135346 -0.35401106 -5.823977e-05 0.20989761 0.5323157
229 -0.4122995 -0.34948713 -1.8845432 0.7907235 -0.044803422 -1.1730705 0.45858938 0.15341684 0.28785822 -0.47462142 0.8486033 0.25499243 -0.78265744 -0.3043227 -0.21071438 -0.34600493 -0.019876892 0.54927796 0.026887374 1.0156777 0.2592101 0.67028 -0.06225154 0.802727 -0.4905785 -0.37473205 0.027284501 1.0521792 1.1576426 -0.08631923 0.28161362 -0.33901367 0.33467016 0.565237 2.2262292 0.11601226 -0.69777226 0.66682845 0.19693674 -0.7575162 0.29692203 0.36748835 -0.36849725 0.37210938 0.079024486 0.54106057 -0.5691954 -0.905771 -0.13128473 0.84933996 0.36887753 0.07648774 0.10459553 -0.045818903 0.88954204 -1.9478424 -0.5015452 0.090943016 1.1132133 -0.0797104 -0.5671247 0.1939438 0.29357648 0.4398202
434 -0.90732926 -0.04533183 0.16642924 0.6272286 -0.024168728 -0.34906197 1.6669244 -0.26856518 -0.54779536 -0.14073367 0.82667774 -0.16694358 -0.20544854 -0.71847725 -0.5281163 -0.02038521 -0.5376038 -0.21635531 -0.51084435 1.0090296 -0.47761014 -0.4576762 0.09177984 1.5047832 -1.1590236 -0.65801483 -1.3700237 0.4567688 -0.18230057 -0.68168145 1.1901668 0.10821979 -0.5529693 -0.06163162 1.461071 -0.91398436 0.8018017 -0.01586437 1.0430704 0.29330352 -0.16043518 0.5977399 -0.67533803 -0.75666106 0.24353266 -0.8030607 -0.38105357 -0.49080157 -0.06682743 -1.0044901 0.80604994 -0.16954173 0.35834596 0.05622213 -0.689188 -0.054526903 0.15243812 -0.67262 -0.72447145 -0.21932827 -0.41484073 0.3071795 1.1868238 -0.44046733
158 -0.3579069 -0.7888036 0.43657947 -0.30186534 -0.013928443 0.2755391 0.27163038 0.16480666 0.6568245 0.4060247 0.62390906 0.24594927 -0.3017875 -0.3884845 0.13805646 0.26196373 -0.03418061 -0.12621269 0.047813337 0.03798093 -0.06452536 -0.011678048 0.06687674 0.026263034 0.27252653 -0.042062555 0.2509041 -0.35442236 0.32925728 0.011190754 -0.30042696 0.07873318 -0.056422506 0.006908778 0.36044267 -0.03620616 -0.19796282 -0.39876518 0.26418573 0.19989285 0.24879254 0.5222187 -0.6882569 0.41322726 0.3461121 0.20004402 -0.7610932 -0.5387699 0.3415193 0.38498 0.26755488 -0.16593003 -0.2632681 -0.335881 -0.13174824 0.4434816 -0.28235596 -0.3422146 0.55382514 -0.02443111 0.18194398 -0.52799183 -0.21847989 0.19980396
