500 64
0 0.011486384 0.09708487 -0.0055703223 0.0027869113 -0.2741855 -0.10027436 -0.18365546 -0.053663384 0.13387558 0.06286134 -0.07505779 -0.036477566 0.01488959 0.21656342 0.10234061 0.013276817 0.105947085 0.1320357 -0.021434912 -0.0014825859 0.12564456 -0.2529653 0.063898236 -0.037372544 -0.04274116 0.027827574 -0.05364925 0.12130855 0.09024426 -0.15009047 0.106081456 0.010420768 -0.10391303 0.045030236 -0.15328239 -0.035484314 -0.0016655432 0.04540221 0.036728896 -0.012002092 0.05366362 -0.037219074 -0.0065170154 -0.30216312 -0.12884611 0.025813552 0.4190287 0.124628484 0.08670153 -0.11836953 0.05458411 -0.03959574 0.0078060282 0.087686904 0.04542523 -0.096682295 0.2425552 -0.05189314 0.00032664326 -0.026975228 0.17486358 0.16333444 0.08003258 -0.2984343
1 0.01744252 -0.060901828 -0.005910015 -0.1669805 -0.16446207 -0.12749115 -0.07303713 -0.07733699 0.18009809 0.12031633 0.033186898 0.054415513 -0.18117243 0.011601084 0.08652097 -0.059611723 -0.036926866 0.20886317 0.14698343 -0.16618645 0.049777843 -0.10316765 -0.101992 -0.12308534 -0.0078096613 0.012311663 0.082031146 0.014596328 -0.06344902 0.08138747 0.020725505 -0.080088384 -0.12273027 -0.0023086693 -0.21204554 0.052224435 -0.042316206 0.11479874 0.0763699 0.105281234 -0.061991405 0.20912057 0.06417354 -0.22141531 0.028725285 0.057134125 0.3099874 -0.07714665 0.03551407 -0.31578135 0.066799074 -0.17005283 0.025198856 -0.06658005 -0.14968956 -0.14075647 0.16864653 0.096304104 -0.2631857 0.0735126 0.0305234 -0.14716081 -0.11871058 -0.16953118
2 0.058796763 -0.0004546274 0.11091351 -0.17468226 -0.116651215 -0.11453706 0.0033994904 -0.043474283 -0.096318096 0.10497542 -0.022414038 -0.056263793 -0.002440181 0.14608178 0.13398467 0.009817171 0.05973531 -0.1348303 -0.12820755 -0.034895245 -0.10400269 0.08585532 -0.022957237 0.061235398 -0.12898661 0.15760152 0.18227671 0.069658205 0.0016572671 -0.34763187 -0.15884352 -0.0015838504 0.07458943 0.06129505 0.021528803 0.06562294 0.18374494 0.05272812 0.246454 0.122476235 -0.0066788564 0.11554997 -0.02242741 -0.2541909 -0.15465643 -0.0299758 0.2653879 0.016047241 0.008448163 -0.088346355 -0.03489965 -0.20966397 0.08169107 0.115198456 0.078581035 0.04335442 -0.005144658 0.078282714 -0.06668414 0.26270708 -0.25821474 -0.1170642 0.13191897 -0.12407653
3 -0.002430889 0.166338 -0.08217039 -0.04531316 0.08089678 0.23124254 0.10177727 -0.032497015 0.07911995 0.028606502 -0.23741598 -0.20510639 0.09399198 0.009447857 0.06023735 -0.0011467197 0.050961588 -0.08976595 -0.016932221 0.001133981 -0.00043198257 -0.041214958 -0.09099684 -0.15965645 -0.06787413 0.06264271 0.16048104 -0.057912122 0.11197346 -0.36461377 -0.049428403 -0.094223 0.1486967 -0.03617092 0.010143896 0.18091379 -0.17488016 0.048991453 0.12172756 -0.0054144138 -0.024427935 -0.037177272 0.093023196 0.093016505 0.24737866 -0.0827887 -0.13278174 -0.16222404 -0.009520443 -0.18512739 -0.144557 0.037117444 -0.1599079 -0.09778865 0.09629476 -0.084590144 -0.1261571 -0.049896654 -0.08858946 0.08592298 -0.13825014 -0.038785312 0.18783683 -0.31633687
260 0.20056894 -0.053543333 -0.17891274 0.12367357 0.0106502855 0.037669543 -0.13373774 -0.047858644 -0.12361493 -0.006962038 -0.012072214 0.012805101 -0.035777833 0.13459149 0.019777432 -0.041608855 0.14142406 0.11097301 0.14237513 -0.13583258 -0.09378518 0.051919304 -0.18074112 0.022239914 0.1258203 -0.04618875 -0.10782571 -0.017781334 0.2261826 -0.15556449 0.03453527 -0.020034967 -0.2333931 0.041104104 -0.12563388 0.11828131 0.09224031 -0.09249709 0.06349153 0.051680945 0.06364062 0.024233768 -0.081746705 -0.058058057 -0.22013633 0.058759663 0.17135842 -0.18127471 -0.019626202 -0.17696628 0.24000965 0.04090183 0.01833414 0.0029161386 0.068553165 0.06732639 0.19030705 -0.22946735 -0.16963503 -0.10797882 -0.018439943 0.24933165 -0.05272123 -0.3074174
5 0.06525073 0.12105059 0.20103587 0.001063871 0.0650337 -0.11081892 0.037093025 0.035073623 -0.017023703 -0.06956799 0.06296668 -0.06888596 0.15171374 0.011823853 0.03916085 0.17785081 -0.12416318 0.062476184 0.060795624 0.07872488 0.13357504 0.033927117 -0.054985333 -0.08088877 -0.08207853 -0.0715045 0.15772347 0.037076388 0.05881498 -0.05562881 -0.17742567 -0.018036986 0.12361121 0.03228593 -0.13792236 6.842724e-05 0.17460543 0.14776832 0.21837547 -0.017313834 0.08557335 0.2325661 0.04488031 0.15136178 0.044257052 0.32183892 -0.21113911 -0.10740615 -0.14056481 -0.19960457 -0.057165436 0.035223406 -0.19736229 -0.07730494 0.018139645 0.07982452 -0.14564511 -0.07385496 -0.19042152 0.1315547 -0.052965175 -0.058055796 0.0928777 -0.3503482
6 0.095627725 -0.085952066 0.05555765 0.09808401 0.082907975 0.009221183 -0.1317948 -0.04166467 0.36753064 0.007900193 -0.070410445 -0.23586139 -0.13111787 -0.06224531 0.09679196 -0.039983712 -0.0106652565 -0.16113617 0.24812968 0.04396065 0.14080724 0.0017641387 0.021841275 0.043158535 -0.18149434 0.10606978 0.15416643 -0.055359602 -0.07018626 -0.079512775 -0.058247913 -0.005861881 0.0327767 0.22581208 -0.22995692 -0.025556492 -0.114057355 0.12001473 0.09301181 -0.13001694 0.074817225 0.2516452 -0.024693465 -0.13979308 -0.04323731 0.030742092 0.024035858 -0.06775583 0.07924573 0.017413035 -0.083329864 -0.22262578 -0.24118455 -0.07342607 -0.1035824 0.071176514 0.07552883 -0.1019878 -0.20698404 0.021834219 -0.064591706 -0.18750486 0.13554235 -0.06547709
7 0.09161072 0.19745298 -0.026277173 -0.12105184 0.019948669 -0.029187134 -0.015809916 0.032005224 0.030011112 0.21366915 0.098680645 0.09779251 -0.17762344 -0.08817292 0.052640054 -0.21914294 -0.028429087 0.13463712 0.13123424 -0.06982232 0.12953006 -0.01819819 0.10381659 -0.23022008 -0.16683428 0.15660179 -0.07931354 0.019782048 -0.017061193 -0.003862073 -0.114966415 0.04181223 -0.08385935 0.08515619 -0.1470152 0.020556094 -0.11051655 -0.03591656 -0.0033212893 0.12325044 -0.20364767 0.027492965 -0.030980777 -0.3732931 0.074133605 0.05195136 0.1560191 -0.22399871 0.17215589 -0.20451921 0.037033685 0.037946116 -0.06582531 -0.111920856 -0.14782734 -0.04884696 0.14389843 -0.07727429 -0.024279358 -0.052208062 -0.2210077 0.10559309 -0.2061637 -0.06635953
8 -0.060671125 -0.11403849 -0.14779313 -0.013282454 -0.15996784 0.043665435 0.012350648 0.04044522 0.14814453 0.2525154 -0.06298034 -0.14366622 0.09110457 -0.113561764 0.063601 0.0061377194 0.0045406413 -0.12170322 0.011243975 0.02706148 0.15840632 -0.058749903 -0.08690906 -0.047647376 -0.047137264 0.09894285 0.20266043 0.069521345 0.115883775 -0.19459826 -0.11544976 0.09036067 -0.056552857 0.049203657 0.062832184 -0.030862572 0.11479655 -0.11774006 0.22271667 -0.0015423446 0.053146668 -0.024236837 -0.064058185 -0.017075256 0.26095465 0.006279544 0.01171144 0.01954981 -0.017352689 -0.13540573 -0.14229283 -0.027391762 0.058759756 0.08254618 0.29587197 -0.040004387 -0.11667652 -0.057677455 -0.27910218 0.23480757 -0.35544047 -0.023928402 -0.012317548 -0.17872807
9 0.08738345 -0.056043874 0.13126355 -0.15976179 -0.09562426 0.0047110133 -0.112331815 -0.15244427 0.062427636 0.04207629 0.017907454 -0.07199233 -0.055835325 0.04964646 0.12391981 -0.0488847 -0.0051322607 -0.025722593 0.27709395 -0.020594982 0.13552539 -0.15471216 0.08249551 -0.12488526 -0.22990665 -0.049223967 -0.05807665 -0.12131401 0.09350104 -0.100142546 0.09169141 -0.094900854 0.06793912 0.06438372 -0.11800168 0.07705391 0.10574183 0.010632408 0.15663768 0.13780873 0.011600076 -0.047650773 0.17354791 -0.30359486 0.12380622 0.0053227153 0.19777963 -0.10639611 -0.10519611 0.12905289 0.009820418 -0.10424741 -0.06992656 -0.061441973 -0.05094567 -0.053610828 -0.25438035 -0.18026085 -0.20066828 0.055893734 -0.21636249 -0.0528987 0.045428563 -0.30947316
10 -0.0037159133 -0.08515301 0.023448536 -0.12736061 -0.07520203 -0.11404106 0.015676811 0.031219194 -0.16644453 0.11139483 -0.011346804 -0.12922892 0.008183919 0.19265628 0.124440596 0.029862296 -0.082289584 0.020308135 -0.16499087 0.047786605 0.10599218 -0.077252015 -0.0070798397 -0.20173211 0.06606993 0.13702329 -0.05045554 0.051613536 -0.006618108 -0.33629447 -0.009923135 0.017287675 0.046265103 0.054086056 -0.033136997 0.0048739435 0.28090024 -0.0904706 0.1639641 0.16101776 0.08856349 0.07585839 0.08105212 -0.24549444 -0.08139797 0.10011891 0.2061375 0.15867046 -0.05547729 -0.047767293 -0.024574844 -0.19619703 0.02619949 0.014390787 -0.09487875 -0.11173667 0.181483 -0.00086467376 -0.13325313 0.32902747 -0.22111464 -0.018876228 0.060854767 -0.13955536
11 -0.06679889 -0.0008625918 -0.06887834 0.048644777 -0.13616763 0.046809573 -0.029584624 -0.059413575 -0.038697347 0.063704014 0.0499108 0.17931592 -0.09975274 0.0025092931 -0.068001054 -0.012009193 -0.090897515 -0.10115725 -0.07249498 0.054938603 0.0093876375 -0.18389007 0.012318481 -0.10211289 0.11730515 -0.018004362 -0.21088712 0.11824519 0.28945506 -0.13741668 0.043514993 -0.06032442 0.012176923 0.14595772 0.0915209 -0.16234308 -0.010346423 0.091006026 -0.03097116 0.24299398 0.008289002 -0.13798752 -0.063675605 -0.32297286 0.06598972 -0.12837534 0.36878994 -0.113850676 0.03167084 -0.039498746 0.07008362 -0.021200584 0.054666717 0.17201884 0.0651931 -0.017060615 0.20743243 -0.032690838 -0.12880567 0.04115761 0.033180438 0.26468804 -0.23078267 -0.051647294
12 0.021075476 0.09960715 -0.054640748 -0.014877811 0.0022863247 0.15493238 0.08636142 0.10469118 0.11035847 0.04295915 0.0043576118 -0.15321735 0.12559924 -0.15348987 0.018312775 0.16989201 0.13149019 -0.09951996 -0.085140124 -0.06214722 -0.076992646 0.10936298 -0.25676984 -0.10275596 0.02763789 0.08034611 -0.015562312 0.049105242 0.11022061 -0.12623592 -0.053592052 -0.15666245 0.16726086 -0.10864593 0.08045609 0.03334217 -0.0842025 0.007841971 -0.15798654 0.22563508 0.096605726 -0.001318224 -0.015858086 -0.06761227 0.21267293 0.08870784 -0.14160351 -0.11386808 0.17097928 -0.1388215 -0.15696704 -0.105498046 -0.009729951 0.040232524 0.048713885 -0.15315509 -0.04493024 -0.2681135 -0.023486739 0.31824967 -0.09859161 -0.026497263 0.09088612 -0.32092685
13 0.19423428 0.011578184 0.032170523 0.020574372 0.079841174 0.1873159 0.061910145 -0.04864973 0.13619253 -0.058697753 -0.08811881 -0.2691493 0.013141227 -0.22044045 0.08986296 0.20625745 -0.030727606 -0.037145775 -0.09698298 -0.0727094 0.019204855 0.26578048 -0.096797325 0.14575195 -0.08235953 0.118508264 0.09409638 -0.03982256 0.34865144 -0.122413464 0.09287123 0.02173404 0.23032534 -0.009567436 -0.08268612 -0.042335648 -0.07346088 -0.043120433 0.10575052 -0.02757903 0.079065666 0.03619452 0.021006938 -0.013938281 0.27299756 -0.08411107 -0.052484665 -0.02454082 -0.16565074 -0.12920384 0.07211548 -0.27725446 0.01692809 -0.09388863 0.23312655 -0.11212811 -0.060976796 -0.10806004 0.06648589 -0.033604823 -0.06090008 0.0015606125 0.12059221 0.018376844
14 -0.043059845 0.094848566 -0.121943235 -0.0020227467 -0.08134505 -0.0052294135 -0.11710228 0.00808829 0.086729236 0.15173262 0.16373329 0.0810957 0.02518645 0.077134326 -0.04537611 0.12134696 -0.23394704 -0.05205889 0.15098093 0.020000346 -0.05251214 0.02839756 -0.061528515 -0.0684941 0.09747007 -0.2475382 -0.1598227 0.0036131095 0.16781168 -0.115876906 -0.09704703 0.10408019 -0.10164998 -0.07718044 -0.07662137 -0.089088015 0.028576756 -0.060031336 -0.0680262 0.21141268 -0.12404766 -0.17835036 -0.06634585 -0.30575505 0.25906956 -0.10613724 -0.09795786 0.10126459 0.11980304 0.105542585 -0.018759664 0.022358628 0.12801188 -0.16510257 -0.07265983 -0.12259253 0.2204047 0.022731181 -0.25330546 0.048583504 0.007146047 0.2846115 -0.019175837 -0.034772176
15 -0.04782586 -0.022561723 -0.030889075 0.20256491 0.043345015 0.043821782 0.022752423 -0.030507931 0.114013836 0.111966625 0.01698879 0.09833452 0.034856405 0.1173478 0.044591255 0.041463703 -0.10049408 0.08758602 0.013393256 -0.004695983 -0.1173803 -0.10251781 -0.30267772 0.022161547 0.00936054 -0.10369386 -0.18843745 -0.039540257 -0.0104571795 -0.18052867 -0.05545844 -0.004810546 -0.060841154 -0.075363144 -0.07778979 -0.04711965 0.046821356 0.101916075 -0.028640334 0.14874642 -0.33179614 -0.078568555 0.011042707 -0.25862214 0.22050717 -0.1935356 0.30036154 -0.08258812 0.06615654 0.095903926 0.015788574 0.15904194 0.018955324 -0.11750066 -0.14586648 0.03397922 0.1510823 0.0015385632 -0.21034415 0.26452667 -0.051202368 0.023533743 -0.19382802 0.06808347
16 -0.14425577 -0.018729871 -0.17661308 -0.17762367 -0.09288378 -0.11726869 -0.033151902 -0.09187453 0.15042228 0.19413187 -0.02671243 0.1008147 -0.017778631 -0.05636594 -0.046719108 0.06856991 -0.22214909 -0.08375121 0.09788758 0.14383051 0.009746814 -0.106857136 0.08551604 -0.020176895 0.063435905 0.123224355 -0.066016085 0.11634006 0.20441978 -0.11411082 -0.18897086 0.047683574 0.13580611 -0.30384266 0.08573313 -0.08186962 0.007725795 0.10477323 0.14640427 0.021073142 -0.184594 0.10714888 0.039236106 -0.14931309 0.11886465 -0.06991451 0.12190527 -0.105972305 0.145311 -0.037659198 0.015321822 0.0021332735 -0.022923358 -0.07204872 -0.27923644 -0.10661474 0.26527134 -0.06328521 0.035299215 0.26682788 -0.053747922 0.048381343 -0.07535608 -0.13807261
17 -0.022235679 0.10161913 -0.019935785 0.07362008 -0.14994448 0.022411982 -0.09075302 -0.24036202 0.12985338 0.050586138 0.020122925 0.06327173 -0.020048132 0.22380011 0.12907042 -0.12167973 0.10887967 -0.10066293 0.06742733 -0.070432 -0.014717786 -0.11622689 -0.12331474 -0.17602013 -0.07199277 0.1104689 -0.086945534 0.11896874 0.03149039 0.11376807 -0.18004966 -0.0067798677 -0.035307534 -0.078331806 0.031201962 -0.09519754 -0.18005013 0.062020287 0.19776244 -0.054939892 -0.17309499 0.07766233 0.14856042 -0.29972878 -0.005260739 0.03101812 0.4705392 0.045736875 0.11855454 -0.16986446 -0.0134534305 0.043670636 0.04996709 -0.07130845 0.009780136 0.055476777 0.12091996 0.009118399 -0.13899565 -0.09329459 0.039064895 0.16624111 -0.01393201 -0.1250498
18 0.101932645 -0.06348314 -0.15286699 0.09868921 -0.14849827 0.090340376 -0.044740636 0.0210508 0.09998591 0.1199775 -0.22239545 0.062589996 -0.1340306 0.2647896 0.038657118 -0.08786363 -0.0870671 -0.10435102 0.021054937 0.022457873 0.0772769 -0.07753489 0.0060990625 -0.18542838 -0.025089651 -0.09123995 -0.048359822 0.13661833 0.12537283 -0.12507482 -0.13903911 -0.05740712 0.028214918 -0.1082396 0.009354518 -0.13186261 -0.05754636 -0.020639472 0.24003126 0.041795604 0.08313709 0.01970394 -0.0769614 -0.16545928 0.16146542 -0.15666457 0.22925818 -0.014217653 0.07954291 0.16741888 0.14028181 0.07264781 0.06784913 -0.0590654 0.2897784 -0.053742375 0.11938878 -0.36211 -0.13927479 -0.059705436 -0.10529803 0.09476142 -0.09178031 0.082618006
19 -0.12586506 0.08388032 -0.11481384 -0.08905377 0.31260824 0.15310666 0.052952074 -0.07746797 0.04504727 0.13152543 0.033275615 0.0547641 -0.07829835 0.10829881 -0.05220542 0.2591031 -0.089786164 0.09269332 0.08689172 -0.114857554 0.006605475 -0.13932635 -0.09872325 0.17717198 0.031339873 0.08331208 -0.117225885 -0.0922972 0.25086528 -0.06472413 -0.15818717 0.06696588 0.07688488 0.022269372 -0.013283084 -0.1136637 -0.13147327 -0.0012725338 -0.024150236 0.080233164 -0.06797772 -0.006980563 -0.036281634 -0.18354893 0.27315536 -0.100809656 0.033014998 0.007688723 0.14653872 0.08574634 0.03225619 0.16635391 0.03438979 -0.26688853 0.040899143 -0.084620364 0.17775065 -0.11672472 -0.2664196 0.012996213 -0.18464983 0.018102482 -0.13413198 -0.11446586
20 -0.026936645 0.17825554 -0.023279833 0.022439588 0.010424445 -0.15014692 -0.12918223 0.06791804 0.02482738 0.04664502 0.16836493 0.1240153 0.035713773 -0.004068975 -0.172306 -0.09466363 -0.010637908 -0.047701903 0.14345033 -0.036207676 0.0718284 0.012774475 -0.02730743 -0.01536975 -0.15250376 -0.016019365 -0.11258236 -0.024220364 0.07564504 0.088269055 0.104619965 -0.111671224 0.019131236 0.06164819 -0.08761822 -0.14909413 -0.16085999 -0.029477002 -0.01319597 0.17279463 -0.26658604 -0.061420258 0.011003109 -0.47187284 0.09796893 -0.087502 0.27996182 -0.05951557 -0.011877006 0.03835688 -0.18050286 -0.058846656 0.15247717 -0.13083437 0.05716172 0.13293657 0.19951193 0.049856704 -0.1380515 -0.08820087 -0.11413764 0.21203221 -0.017579759 -0.13310283
302 0.02304975 0.021011911 -0.050206367 -0.03331674 0.06548428 0.18482983 -0.021615965 0.10367053 0.07831597 0.2045601 -0.285459 0.20834789 0.15313077 0.22145419 0.08608574 -0.15119736 -0.04388253 0.049379032 0.21427822 0.17976236 0.046045676 -0.09845027 -0.13824968 -0.03310281 0.019290254 0.14767534 -0.17533968 -0.068480335 0.16813031 -0.10257323 -0.041014582 0.020515973 -0.09351846 0.08165082 -0.105763786 -0.038111366 0.17443337 0.04745684 0.013190995 0.1631915 -0.03842626 0.096955955 0.030866794 0.12297381 0.09878312 -0.03184391 -0.07344337 -0.18748462 -0.0064894278 -0.1618406 -0.034890715 -0.10916441 -0.012922968 0.043304417 0.20015475 -0.19354916 0.004453745 -0.18466912 -0.1493288 0.15882339 -0.07166201 0.27531826 0.052988723 -0.08273783
22 -0.012138096 0.035229158 -0.13209952 -0.097307004 0.110088445 0.03045131 0.06065913 -0.03971602 -0.024294911 0.20838992 0.047873385 -0.258943 -0.12514772 0.027696189 0.026762815 0.13238055 0.19082709 0.09238838 -0.060765635 0.08199551 0.036899406 0.093427874 0.03528954 0.022596275 -0.02487303 0.106126204 0.23783077 0.0033427784 0.05449898 -0.117208965 0.051359754 0.02135985 0.14081256 -0.16458794 0.029984534 -0.042156465 0.080042444 -0.0742078 0.25922513 -0.13606834 0.18678454 0.09844304 0.069637395 -0.04553289 0.2383432 0.16585328 -0.05865351 -0.001383621 -0.09270368 -0.26035488 0.027583953 -0.3048338 -0.19990335 -0.19354534 0.105986744 -0.02679914 0.018204957 -0.12560833 -0.013746297 -0.0048321667 -0.11458727 0.113272555 0.16858783 -0.18240114
23 0.016100602 0.17024972 -0.042288642 -0.056746982 -0.019242227 0.040047392 0.07370188 -0.2591904 -0.058908813 0.06117498 -0.15083049 -0.066976 0.07323099 0.0608711 0.1787921 -0.15721989 -0.0995763 -0.10773931 0.19187823 -0.08381665 0.19871022 -0.0062657665 0.11907367 0.029514292 0.22289371 -0.06082845 -0.097683474 0.11512303 0.019954026 -0.008145664 -0.08281497 -0.042939577 0.039319295 0.010406927 0.005766005 -0.056491178 0.03343738 -0.05893982 0.12979913 0.1336351 0.061194547 0.007383643 -0.024147755 -0.223041 0.3338083 0.0700869 0.26329282 -0.12962867 -0.11444083 0.224433 0.065529324 0.07555894 -0.027279744 0.083367474 0.026058402 0.15370621 0.10230449 -0.082325794 -0.09005492 0.040998198 -0.14441587 0.03838536 -0.223498 -0.28305253
24 0.25020576 -0.019416282 -0.12872723 0.08640174 -0.06674603 0.03710949 0.05039058 -0.050277818 0.13604446 0.13582307 -0.3475354 0.111814074 0.02344249 0.27065015 0.16783692 -0.11282428 -0.02175845 -0.10813736 0.0763609 0.06823629 -0.08854072 0.13197535 -0.020034265 -0.29167843 0.016643753 -0.052567456 -0.12689383 0.19474317 0.193742 -0.059187926 -0.17363605 0.06955714 0.11158543 0.079640955 0.05953105 -0.12535445 -0.015222139 -0.019898163 0.19136393 0.025261331 -0.033697493 -0.06891186 -0.03862102 -0.14872262 0.1976838 -0.048446294 0.10856788 0.071057685 0.08542981 0.13959432 -0.15915929 0.09377067 -0.034633342 -0.10052518 0.08770319 -0.050976098 0.033485215 -0.19334112 -0.120794974 0.023984134 -0.012354815 0.0066208486 -0.22095853 -0.04214599
25 -0.09671568 -0.10202463 -0.050714377 0.17923895 -0.06760817 -0.07516713 0.018061819 -0.044672817 0.011047571 0.24158983 0.10238791 -0.0024798624 0.041958895 0.023503706 0.07431533 -0.025176391 -0.22840202 0.13542403 0.14220794 0.116443455 -0.066241845 -0.05539029 0.03711557 -0.10137477 -0.10504596 0.07507593 -0.3622125 0.034725755 0.21923174 -0.19328064 -0.19688615 -0.047807895 0.045636427 -0.11216261 0.0015902156 -0.17687355 -0.13724856 0.14427899 -0.06703402 0.26187554 0.09893074 0.03274438 0.09365968 -0.2148072 0.200548 -0.056732193 0.065331765 0.029313419 0.10137835 0.0992394 0.042614907 0.07304117 0.16649769 -0.025003767 -0.059880875 -0.0114436615 0.20101744 -0.09921502 -0.11632368 -0.02743954 -0.23642583 0.01333987 -0.060293045 -0.0016626759
282 -0.10148745 0.049578276 -0.03175774 0.0925857 -0.03941298 0.23379624 0.048315257 -0.1908442 -0.013733253 0.07303128 -0.1399879 -0.05039251 0.046205796 0.01875454 -0.009417095 0.05495298 -0.020558583 0.17924215 0.09104732 -0.028602151 -0.045530878 -0.10377645 -0.016275048 -0.16624504 0.010161037 -0.09296033 -0.2269723 -0.084302545 0.022538116 -0.039276607 0.016403275 -0.1554965 -0.15994206 -0.10191004 -0.06777244 -0.0026825415 -0.06379936 0.18238826 -0.07668274 0.29514277 -0.13851036 -0.12270313 -0.05955108 -0.09274074 0.13725743 0.02246653 0.19756906 -0.021259783 0.007794761 -0.09253798 0.18199025 -0.047430385 0.096231684 -0.16419685 0.033546362 -0.13250463 -0.037706703 -0.21879247 -0.24681737 0.030021453 -0.11460554 0.27014887 -0.13022287 -0.2897831
27 0.07337537 0.019567752 -0.290908 -0.1725371 -0.031720724 -0.04670353 0.094353065 -0.17598236 0.18778703 0.07343824 0.1494584 -0.0020374209 -0.120662525 0.012786574 -0.08796643 -0.022725396 -0.21168149 -0.044301935 -0.08103865 0.09974947 -0.0043351925 0.06844492 -0.0020184538 -0.14701639 0.072795324 0.14329028 -0.13339782 -0.025146304 0.15303652 -0.0026973102 -0.04249237 0.11197977 -0.13269916 0.07006433 -0.05252925 -0.032766044 0.060599852 0.07395566 -0.032121994 0.082082085 -0.19135492 -0.0021723078 0.14649285 -0.30823967 0.28170806 -0.062447403 -0.01864486 -0.050983656 0.012641267 0.045763433 -0.056995448 -0.015863782 0.1555415 -0.04499013 0.13415633 -0.21724083 0.2795322 0.048610017 -0.28369564 0.038081825 -0.013071892 0.18807933 0.01465355 -0.03521894
28 0.060236935 -0.058842003 -0.23817115 -0.10950986 0.13180865 0.029344445 -0.023520699 0.036956113 0.093326874 0.2745547 -0.22175372 -0.04977431 0.053177293 0.11719794 0.028978933 -0.093805715 -0.22030836 -0.03748397 0.082313105 -0.11383801 0.042318694 0.047537703 -0.015739601 -0.027504185 0.0140372235 0.045277532 0.030864205 0.12362795 0.3747039 0.11149161 -0.063879564 -0.04253959 0.11209245 -0.15957235 -0.026152866 -0.11748166 0.1235341 -0.09701365 -0.1745785 -0.021156102 0.123491816 -0.094963 0.1428816 -0.24162968 0.31571597 -0.12327647 0.022341112 -0.14475095 -0.05261185 -0.048108142 0.000604878 -0.04885438 0.1410718 -0.10011286 0.1340534 -0.014101296 0.09452238 -0.110538945 -0.14603701 0.11612877 -0.063757166 -0.001083893 0.015707389 -0.16373304
29 -0.020984458 -0.0085418215 -0.065236114 -0.095395446 0.063271336 0.04684691 0.15607058 0.09429264 0.14886643 0.07996119 -0.097492516 0.081745535 0.26847875 0.06679846 0.2135172 0.05890134 -0.11508867 -0.12690331 0.19674475 0.008111133 -0.09991099 0.08606026 0.025992446 -0.14840029 -0.07400979 0.01827719 -0.009370065 0.07465574 0.34684685 -0.11242215 -0.115053825 -0.14279225 0.114331305 0.20222354 0.1602977 -0.22055098 0.12203271 -0.07525247 0.10626336 0.13728832 0.075648546 0.028539583 0.05618295 -0.09847151 0.24030246 -0.022102024 0.043484077 -0.16502571 0.17127146 0.038128134 -0.0017792577 0.15075825 0.07568161 -0.039274957 0.056858018 -0.1670717 0.0034336408 -0.25117204 0.0045594783 0.0891185 0.121341236 -0.0085914405 -0.13366966 -0.093155265
30 -0.00038533434 -0.06803736 -0.15738459 0.17036943 0.044047277 -0.009938961 0.096009426 -0.08401706 0.036034454 0.042351004 -0.16549972 0.0934608 0.17830935 0.090414554 0.182435 -0.10179183 -0.012316008 -0.0330617 -0.014070188 0.009486716 0.0028318728 0.13993137 -0.10467195 -0.11065935 0.17317186 0.057968527 -0.25323525 0.13722806 0.28451046 -0.11151343 -0.02948304 -0.036689468 0.1302541 0.23983653 -0.073699206 -0.13130443 -0.093363896 -0.056193974 0.16880547 0.12499822 0.0029702047 -0.095631786 -0.0065728864 -0.121370435 0.35804296 -0.08485737 0.022483395 -0.06733977 0.25564668 0.035196077 -0.027278319 0.12600337 0.00619699 -0.033280794 -0.03581904 -0.13194363 0.06595594 -0.2844313 -0.0014888312 0.061823253 -0.07082364 0.05987654 -0.1602975 0.0160276
32 -0.0709764 -0.105567105 -0.1297756 0.025325945 -0.009152846 -0.099636264 0.078373276 -0.1682563 -0.017729178 -0.014064303 -0.10589694 0.08907428 0.068443686 0.017121213 0.0777734 -0.011898985 0.07127232 0.102626 0.091701716 -0.07386353 0.22035706 -0.032922253 0.0823599 -0.10158914 -0.04418299 -0.0015189508 -0.071844995 0.015507073 0.18001781 -0.17355166 -0.12765428 0.090433545 0.24069203 0.0058763083 0.13675785 0.016742235 0.15580125 0.10963595 0.124413446 0.041150834 -0.1470923 -0.16865389 -0.009670216 -0.080438614 0.2881695 0.024732303 0.09585049 -0.10537217 -0.16290587 -0.06176378 -0.06655554 0.10803639 -0.17439176 -0.06628352 0.08419743 0.083952524 -0.014884239 -0.39671987 -0.13133429 -0.02835371 0.10387804 -0.060196273 0.053618047 -0.34801123
33 0.10186147 -0.06019694 -0.10553362 -0.116741076 0.0071317954 0.3044483 -0.10501271 0.0037603222 0.18063007 -0.009819227 -0.1532025 -0.18403807 0.10429038 -0.1810581 -0.081773944 0.15983373 0.010242266 0.06375473 -0.115437895 -0.00041326258 -0.09094554 0.08191073 -0.14384088 0.021754576 0.031360336 0.02836369 0.1419338 -0.044291485 -0.054102223 0.07229925 -0.09111658 0.14498456 0.09699683 -0.09853148 0.031504076 0.062130775 0.13132408 -0.081746094 0.20438462 0.076422565 0.16625237 -0.18600865 0.042789157 0.0021211416 0.22562598 0.118323915 -0.18446244 -0.22013181 -0.12704642 -0.20186408 0.07881317 -0.2476386 -0.15908001 0.04663608 0.1399177 -0.1323464 0.07664645 -0.1044056 -0.0775615 -0.082161754 -0.012454234 -0.08503915 0.10895525 -0.17806473
34 0.21674989 -0.009846393 -0.15525658 -0.022622554 -0.025440607 0.16616142 0.07953443 -0.11543846 -0.0873806 0.0122083295 -0.16694035 -0.18730147 0.17934294 -0.10334151 -0.07801305 0.12891155 -0.104838125 0.011049399 0.10978136 0.01868009 -0.082792394 0.21486416 -0.14678064 0.018296273 -0.018576864 0.07202405 -0.006638276 0.08975604 0.043238893 -0.12145678 -0.05340649 -0.012914394 -0.20473188 -0.044259276 0.11199978 0.14368246 0.028145216 -0.047399897 0.07917432 0.09255373 -0.06483728 0.05511437 0.11878944 0.0317925 0.27801824 -0.043154243 -0.11181402 -0.16301782 -0.19947128 -0.22418123 -0.045118466 -0.17837343 0.03789725 0.039626934 0.06692717 -0.08562563 -0.064410254 -0.017762555 -0.31399712 0.006303179 -0.11562471 -0.0608991 0.22809593 -0.25685406
35 0.120552234 0.09234847 -0.08043187 -0.102012254 0.016750325 0.36650416 -0.007460754 -0.07165056 -0.032603454 0.027017215 -0.17420167 -0.09383153 0.10816522 -0.115314536 -0.0690695 0.19356354 0.009334981 -0.11318122 -0.048105877 -0.019308556 0.045731764 0.15845138 -0.054121677 -0.09124255 -0.035890434 0.059754632 -0.039339233 -0.031592462 0.20946054 0.08741879 0.090945974 0.064522006 -0.07901952 0.074343264 0.21275547 -0.047163326 0.07519108 -0.11199612 0.2172885 0.060874768 0.15762076 -0.099438764 0.18183284 0.025682494 0.15913911 0.023356818 -0.12586497 -0.11523146 -0.06351779 -0.21411689 -0.025556281 -0.0998259 0.019458434 -0.14575823 0.016749144 -0.1796202 -0.06895842 -0.199025 -0.0974876 0.17896324 -0.043252714 0.023346785 0.21705952 -0.29116955
36 0.0875021 0.049516283 0.111390896 -0.0006411401 0.005291092 0.017121546 -0.020668082 -0.06951668 -0.075231016 -0.06310819 0.001538744 0.109551646 -0.102639735 0.13659358 0.07845407 -0.10942927 0.015262848 -0.09262634 -0.05060508 0.09713161 -0.08643584 -0.14779738 0.110823154 -0.119955055 0.041071437 -0.09964777 -0.090787455 0.038994554 0.0019748756 -0.17188631 -0.12610407 0.012408467 0.17133231 0.09521433 0.03374565 -0.13844417 0.03471846 -0.08303286 0.18036065 0.25609678 0.037136633 0.16579685 0.22544008 -0.1416817 0.0066657066 -0.02695739 0.26011884 0.07659373 0.026394153 0.08972167 -0.17089595 -0.07592166 0.14523767 0.16312182 -0.03579855 -0.07462226 0.14022514 -0.17141838 -0.1300616 -0.041967966 0.052164588 -0.014030378 -0.1645513 -0.47345576
37 0.049426503 0.03212482 -0.17934221 -0.0061258865 -0.081395574 -0.104186736 0.023526542 -0.15196645 0.068294115 0.117486835 -0.010843447 0.07285669 0.037818566 0.08771494 0.078283735 -0.058759104 -0.19041206 -0.08532531 0.18261746 -0.121963374 -0.007613685 -0.059232652 0.0498016 -0.11024099 0.11509664 0.23658687 -0.19359437 -0.13625343 0.2783074 0.03652784 -0.02959416 0.07080034 -0.02267779 0.0023053724 -0.08233854 -0.1833983 -0.0146221025 0.104493506 -0.03839409 0.13657013 0.050032675 -0.0977524 -0.036824986 -0.32165074 0.20049612 -0.09561706 0.23050424 -0.07049589 0.16429982 0.03681941 -0.0906139 0.1425135 0.12162919 -0.09672256 -0.081189424 -0.14166345 0.17640415 -0.09393786 -0.12647924 0.054656785 -0.087660074 0.08437668 -0.23227906 -0.16976693
38 0.1400894 -0.052654933 -0.2310062 -0.00295977 0.056068916 -0.062151723 -0.09102361 0.094529234 -0.085954405 0.230236 -0.13586986 0.13123532 0.25744542 0.19686882 0.08273352 0.12046197 0.07603406 -0.061053846 0.014223967 0.1893899 -0.036064908 -0.10429892 0.038195312 -0.06999312 0.105216324 -0.028230162 0.025217615 0.11739318 0.1375329 -0.0045469576 -0.029802278 0.07202981 0.051719487 0.110152125 0.07492171 0.16537754 0.1555319 -0.077262945 0.16662441 0.21493295 -0.16921808 -0.023976173 0.05257462 0.05618558 0.2535715 0.11179359 0.28231904 0.14534812 -0.1444466 -0.16529293 -0.021880163 -0.12730752 0.048804406 0.11070717 0.16980086 0.013278157 -0.084099345 -0.20025013 -0.13862647 -0.13211021 -0.04183318 0.028543135 0.05039354 -0.0016416725
39 -0.012779963 -0.10920903 -0.16609874 0.050106216 -0.07012379 0.051435452 0.15628804 0.15442765 -0.037159503 0.0029877163 0.00757817 0.122335956 0.17491508 0.093462944 0.2165472 -0.17486471 -0.029895827 -0.08705597 0.034685645 -0.12465324 0.018767914 -0.013098736 0.01638141 0.045467548 0.07747432 0.08461701 -0.15237544 0.040685933 0.14110555 -0.15200141 0.1271824 0.056924496 0.045144815 -0.031106988 0.085318 0.038513184 0.026836399 -0.20429087 0.23909034 0.27642614 -0.0076259966 -0.12327953 0.13257837 -0.18144922 0.19361791 -0.06825605 0.020619765 -0.17644982 0.013756042 0.18627946 -0.13524336 0.015001846 0.022014031 -0.15694991 0.25188786 -0.14610165 0.06485058 -0.20433636 -0.15332118 -0.017321281 -0.18425988 0.07267127 -0.117795914 -0.1636033
40 -0.03324348 -0.04389183 -0.062053848 0.023833554 -0.09133454 0.103580475 0.08875339 0.04875634 0.11798008 0.037149426 -0.26485765 0.1699998 0.17145622 0.19568807 0.22016226 -0.1912246 -0.10183615 -0.10863542 -0.01276573 0.08490624 0.049499627 -0.12029044 0.056374967 0.04653015 0.019847862 -0.06541144 -0.057829138 0.097522736 0.19303748 -0.034625437 0.06645913 0.10525675 0.15686467 -0.04525536 0.011794666 -0.04184569 0.06510519 0.08626688 0.13514565 0.27507573 -0.04520622 -0.08039538 0.23391338 -0.0810701 0.30165157 0.084999844 -0.05203712 0.13251296 -0.034263927 -0.020104898 -0.022736078 0.1320259 -0.11203348 -0.086336635 -0.008875588 -0.045646027 0.14079659 -0.16813594 -0.17904785 0.026351057 -0.20568365 0.111208156 0.0008158826 -0.27055907
41 -0.023052892 -0.23540357 -0.27352825 0.07308704 0.034179017 -0.031795323 -0.12478835 -0.022166198 0.08754061 0.08322816 0.07136683 0.15070318 0.059397977 0.11866633 0.088068165 -0.0028481584 -0.12261719 -0.016358104 0.06551247 0.12466944 -0.07667063 -0.03916516 0.012728132 -0.16407466 -0.057606887 0.03511713 0.00508642 -0.08167961 0.1899878 -0.12198764 -0.016696882 -0.13835506 0.20342295 0.10808878 0.14802566 -0.10349194 -0.039146826 0.035476513 0.30988798 0.24051207 -0.02439417 -0.0891 0.16191843 0.015788883 0.14249727 -0.16783829 0.057810176 -0.04181331 0.029656058 -0.007900648 -0.021923803 0.18052849 0.16016455 -0.16361627 0.016527483 -0.22256981 0.07511333 0.09892906 -0.15230674 0.22229621 -0.11606875 0.15717399 0.017623415 -0.18141095
42 -0.040814865 -0.12842983 -0.11652786 -0.06322499 0.08454902 0.3104031 -0.03619798 -0.06656444 -0.03435481 -0.09955374 -0.057109248 -0.23276249 0.25001493 -0.050181475 -0.068978935 0.1486829 -0.057888083 -0.083734356 -0.0048593394 -0.19473402 0.027657602 -0.006945398 0.04513816 -0.09066654 0.119516194 0.017569197 0.018013306 -0.07317544 0.18434413 0.011379365 0.020347062 -0.080482505 0.15807025 -0.043822013 0.14068185 0.004261761 0.17711894 -0.089372195 0.068367735 0.13036966 0.1516482 -0.020796388 0.15340953 -0.11109469 0.28041387 0.016438413 -0.07385324 -0.30333716 -0.1431435 -0.105192415 -0.025083512 -0.15719819 0.0051162457 0.023665357 -0.049405225 -0.082827024 -0.04771592 -0.22721627 -0.12397226 -0.07665877 -0.19346352 0.054970358 0.06660829 -0.20906407
43 0.14309153 0.042143803 -0.08908833 -0.14989153 -0.1898206 0.13865502 -0.090998106 -0.008208788 0.03691203 0.029269747 0.0006148122 -0.2268955 0.1742037 -0.23331553 0.05758969 0.11169208 0.15705012 -0.1362457 0.025677608 -0.120887615 -0.04395381 -0.14738955 -0.03846151 0.013204431 0.06396227 -0.06033475 0.058349878 0.00888641 -0.031988405 0.019174263 -0.112880394 0.084447935 0.034528688 -0.15275103 0.20027064 -0.098801225 0.21983354 -0.07615663 0.15060164 0.21506685 0.05978248 -0.020317953 6.9780435e-05 0.0144773405 0.12186544 0.09414223 -0.08500172 -0.0797085 -0.20516099 -0.1899823 -0.06706464 -0.29406816 -0.17193078 -0.042766966 -0.07815302 -0.14544173 0.095437 -0.10561455 -0.1611053 0.052375033 -0.24287443 0.1096697 0.024790179 -0.16071562
44 0.20115034 0.01109149 -0.1683378 0.09138956 0.094744615 0.0114904 0.16142641 -0.08805297 0.17083308 0.085356474 -0.081128806 0.03446697 0.1921244 0.034869418 0.08318861 -0.043433864 0.04639067 -0.1569906 0.1787679 -0.066479534 -0.06342102 0.02479748 0.020914631 -0.28632048 0.13115993 -0.039846476 -0.22495127 -0.09971992 0.112348884 -0.049940754 0.05065835 -0.070775725 0.09696198 -0.1239155 -0.019729443 -0.14408772 0.12284016 0.063154116 0.15058939 0.2348494 0.009527621 -0.103039645 0.16929401 -0.10147085 0.20925815 -0.07679201 0.12860785 -0.095249906 0.11337556 0.14165959 0.0064227423 0.10288515 0.00936567 -0.1380915 0.035791025 0.05991724 0.11721934 -0.21065621 -0.08060844 0.276898 -0.23091124 -0.0018746599 -0.07632526 -0.024089802
45 0.116452314 -0.091616146 -0.07441032 0.053563446 -0.19344245 0.05936257 -0.038529776 0.0883594 -0.21667664 0.22722194 -0.20155793 0.022209378 0.023388758 0.010669494 -0.07483336 -0.07607713 0.10436902 -0.15665461 0.26567122 0.25444263 -0.07263489 -0.13589457 -0.063542426 -0.15690087 -0.10998978 0.15445489 0.00505868 -0.009656707 0.026150942 -0.09706087 -0.037489355 0.20934103 0.03155474 0.13066204 0.03277555 0.30263323 0.105311505 -0.013701249 0.03948406 0.20897374 0.028029721 0.14655128 0.00972924 0.078565076 -0.101088166 0.048056427 0.29331416 0.15400338 -0.17561181 -0.22778851 -0.104825504 0.0028738189 -0.13099788 -0.026766898 0.032402135 -0.06890446 -0.02578678 -0.0699977 -0.06990865 -0.02576416 -0.016918192 0.07076213 0.029067816 0.01996511
46 -0.028353926 -0.038915604 -0.17689343 0.054247223 0.15570514 0.019968227 -0.072336905 0.018187195 0.09868393 -0.045396693 -0.0944559 0.0918226 0.1813713 0.16814391 0.039695866 -0.077441104 0.0069616176 -0.052426524 0.21199906 -0.013984041 -0.04891444 -0.09518598 0.050770402 -0.17016126 0.11334203 -0.011789673 -0.22882034 -0.036703717 0.23847707 0.0010167061 -0.09859296 0.038296565 -0.014324364 0.042379566 -0.078536674 -0.17170087 -0.08012664 0.06317536 0.28762093 0.212085 0.13935207 -0.034570556 -0.046549205 0.0020733094 0.31386498 -0.20334943 -0.024265258 -0.06863757 -0.010128777 0.18569931 -0.07599322 -0.055145003 0.078393795 -0.074662775 0.014293691 -0.021265622 0.21337064 -0.15577103 -0.07752143 0.20233569 -0.22477259 -0.04253354 -0.18026063 -0.09281283
47 -0.041232534 -0.032402024 -0.31413743 -0.06451737 -0.04592366 0.11912157 0.03670968 -0.005585572 -0.15638676 0.37541947 -0.10325114 0.085644506 0.24557216 0.012886486 -0.029038139 0.058024388 0.07308134 -0.05994335 0.13803816 -0.014340684 -0.062301703 0.05803118 0.052834976 -0.27640715 0.20916986 -0.011501598 -0.04710049 0.051065225 0.0801906 -0.15239179 0.06486582 0.06608621 0.071254544 0.01763104 0.059558794 -0.027147219 0.12168517 0.0043493747 0.27893165 0.050238073 0.011675807 -0.007121568 0.06666607 -0.035269648 0.16341357 -0.22957669 0.04239046 0.1244644 -0.06464048 -0.020999957 0.01597762 -0.06289445 -0.0938938 0.014054327 0.09358081 -0.16457227 0.037480343 -0.09666371 -0.32106763 -0.06477617 -0.087684534 -0.18110378 0.027661271 -0.08193342
48 0.018435875 0.053490996 -0.18120457 0.038269736 -0.033688962 0.09354951 0.06271846 0.11508627 -0.07610629 0.22608036 -0.04417763 -0.1997151 0.116743684 -0.12528521 0.15131317 0.12158137 -0.0128715085 -0.122321956 -0.12467511 0.1302882 0.1892198 -0.004035591 -0.16515094 -0.17476533 -0.00030852485 -0.044321075 -0.16815877 0.042096324 0.053535756 -0.13862266 -0.16072862 0.15965624 -0.11153371 -0.026162922 0.22164315 0.08777459 0.05359148 0.016296428 0.21231 0.12275217 -0.005839238 0.007697615 -0.009363822 0.12844159 0.15519558 0.09724903 0.20913398 0.064036995 -0.3112949 -0.106390886 -0.001293349 -0.06574269 -0.25589192 -0.1420184 0.16988154 -0.11332611 0.073713854 0.04044752 -0.13801861 -0.04204182 0.011211767 -0.10212135 0.09801224 -0.061168626
49 0.04504531 -0.03501733 -0.43324688 0.0027910997 -0.031694897 0.16788971 0.04869344 0.14082327 -0.07795282 0.14034347 -0.15239045 0.03506936 0.22456071 0.07285171 -0.023684122 0.08872201 0.112408064 -0.053375944 -0.013007058 0.006931752 0.03631796 0.034524415 0.09289768 -0.20661163 0.094448045 0.016731225 -0.0014248168 0.051050518 0.07841029 -0.15679619 0.10355868 -0.03687221 0.048359808 0.060035493 0.043945268 0.09102298 0.090463094 0.09766005 0.24008971 0.22832288 0.0953729 -0.10629161 -0.061122175 -0.13503657 0.3449543 -0.080121204 -0.08638505 0.07797223 -0.07392357 0.09295973 0.040067386 -0.17819768 -0.11408444 -0.20280422 -0.0014783093 0.020670379 0.012218882 -0.11585012 -0.14064042 -0.08593968 -0.10490162 -0.12693883 -0.032015353 -0.152306
50 -0.0842391 -0.015132589 -0.13801882 0.24448484 0.22575255 -0.07004385 0.2195037 -0.022898173 0.05466631 0.25215083 -0.19936463 0.08240467 0.1011795 0.095093824 0.08859968 -0.070134364 -0.0918518 0.037029542 0.1491693 0.13605732 0.060227524 0.119772546 0.08130071 -0.09945789 -0.08512079 -0.055226807 -0.120295495 -0.08794432 0.3234775 -0.11528938 -0.0432823 0.040131316 0.041835885 -0.058097593 0.044109296 -0.18546999 -0.10415378 0.03164343 0.105107576 0.13085146 0.11105783 0.011634648 -0.14947462 -0.19109488 0.15404034 -0.2254276 -0.015790878 -0.09484854 0.08307699 0.14996834 -0.0072797253 -0.01343382 0.14256433 -0.10074444 0.013459188 -0.011715494 0.022266794 -0.05852873 -0.121992335 0.08026992 -0.23838294 0.04917874 -0.10904815 -0.17818801
51 0.10868169 -0.051781993 -0.11466255 0.0955054 0.07833632 0.07489054 0.058686394 0.062089983 0.14731134 0.037839882 0.043528385 -0.14735831 0.16184556 0.11473243 0.13922936 -0.122463964 0.032836992 0.073089816 0.21775334 -0.20952332 0.07055576 0.043200087 0.068896644 -0.24869059 0.059329156 0.01168856 -0.020155318 0.0121505475 0.09301801 -0.050802633 -0.14461142 0.11298049 0.0014829854 0.21996622 -0.022827614 -0.14279637 -0.09405666 0.19083038 0.13109072 0.24790846 0.116141774 0.04413437 0.03579159 -0.094515085 0.36419865 -0.05991608 0.10583512 -0.07264818 0.14062823 0.08924073 -0.037116025 -0.12739113 0.038493056 0.1367184 -0.046719503 0.12513106 0.10399579 -0.17199835 -0.17864934 0.101993196 -0.091247246 -0.11112638 -0.21214345 -0.0096690245
52 -0.039466158 -0.09991063 -0.1419521 -0.06889922 0.14506674 0.10079426 0.003281128 -0.12611207 -0.075313255 0.061372377 -0.12317335 -0.08557778 0.23565447 -0.23267193 0.08785417 0.004672694 0.04195438 -0.021500416 0.15559013 0.058440812 0.05391351 0.12908049 0.0014386711 -0.03880389 0.024344867 -0.03602051 0.032750618 0.010704874 0.21992156 -0.0022411074 -0.018387945 -0.038845494 -0.082070485 0.061470952 0.18164739 0.06179357 0.14601134 -0.22109984 0.15088825 0.059110407 -0.008150414 0.06428334 0.065726824 -0.13209775 0.15911812 -0.03624904 -0.19949545 -0.2774236 -0.1653588 -0.09394871 0.056275852 -0.30919847 -0.05108336 0.044141557 0.01897131 -0.18925229 0.04957551 -0.18212475 -0.16288158 -0.10266898 -0.10581551 -0.14252102 0.15697953 -0.21260428
53 -0.06645459 0.010901346 -0.10678039 0.24430281 0.226934 0.047128174 0.15839197 -0.086767696 0.16050023 0.04753446 -0.116815835 0.19558784 0.064417824 -0.07462081 0.20882338 0.06340493 -0.24280934 0.0383837 0.26421854 0.035332546 0.1324239 0.038624495 -0.08458155 0.013808812 0.2872799 0.02034415 -0.17922127 -0.013133797 0.11942295 -0.22943123 -0.025389068 -0.025356028 0.10127571 0.08559744 0.06785774 -0.15304567 -0.017920103 0.029560016 -0.06844831 0.14701153 0.09604189 -0.19355308 0.09852919 -0.10523211 0.12710376 0.01919246 0.054916322 -0.08826984 0.05443369 -0.06673902 -0.03642056 0.1658514 -0.017900508 -0.05401513 0.12649278 -0.017321944 0.05012395 -0.13731241 -0.20717649 0.11971255 -0.22475782 0.07253501 -0.030407503 -0.021800533
54 -0.038141288 -0.043793794 -0.21279062 0.23250227 0.010795844 0.061468963 -0.006357122 0.13847394 0.04209793 -0.0009462701 -0.11976143 0.118320756 0.025868231 -0.01160202 0.3174359 -0.049362563 -0.115682825 0.05196488 0.038769357 -0.08138247 -0.102379724 -0.10269205 0.07046068 -0.08071133 0.23822117 -0.057590257 -0.06654119 0.044179793 0.29253557 -0.13292234 0.0040587233 0.0023972767 0.04612194 0.18615063 -0.016883465 -0.006445284 0.15562907 -0.10170947 0.07291174 0.17058355 -0.1839116 -0.015147546 0.11234955 -0.19008353 0.24658711 -0.2689474 0.085753284 0.060680617 0.055597328 0.056475896 -0.0590185 0.2591995 0.051287003 -0.06253651 0.15396331 -0.14860277 0.019091845 -0.10182946 -0.07615222 0.1453405 -0.048965126 0.088102385 -0.01265714 0.05752694
55 0.010692356 -0.07813831 -0.023003293 -0.12462573 0.12252013 0.18521929 -0.03153618 0.00016654427 -0.14247124 0.09380964 -0.14828603 -0.20584352 0.09737455 -0.019555697 -0.13136412 0.16286263 0.05112762 0.019642059 -0.10187089 0.08089139 -0.13431194 0.19620375 -0.051529564 -0.03505873 0.012719856 0.10161514 -0.0058047897 -0.13498248 0.0671693 0.0046558827 -0.21846053 -0.09447764 0.027053792 0.09120491 0.11972748 0.08433418 0.022586783 0.011250383 -0.10787752 0.1869866 0.057307977 -0.05075119 -0.0068947333 -0.29787946 0.034514677 -0.0438322 0.015973715 -0.2513207 0.07793222 0.11167867 0.04848281 -0.14273882 -0.28974202 -0.18108736 -0.01868119 -0.1499125 -0.06110546 -0.24711117 0.09596636 -0.09138379 0.15457559 0.13546352 0.2530077 -0.040995333
56 0.02354977 -0.06158585 -0.07586561 0.11688601 -0.0255724 -0.07783975 0.14946106 -0.056389157 0.19827127 0.0017190505 -0.09628631 0.07274538 0.23457244 0.23175411 0.16919515 -0.042365544 -0.014004678 0.07270626 0.085078396 -0.08644108 -0.21140867 0.11041271 -0.029967597 -0.080690406 0.26015565 -0.0264508 -0.152818 0.06475036 0.28185108 -0.08778825 -0.2594436 -0.13120382 0.19337979 0.18475595 0.07113101 -0.06678565 -0.023680892 -0.06343834 0.084900826 0.20606023 0.014233452 -0.1432362 -0.02818397 -0.15329891 0.04234363 -0.07282416 -0.10015178 -0.02075275 0.08720492 0.059155874 -0.026249474 0.032642774 0.22345649 -0.14549512 0.26627058 0.026234755 0.0065734726 -0.12366246 -0.028565576 0.052846193 -0.14841671 0.024870455 0.009528237 0.061472803
60 -0.017376766 -0.080770135 -0.0749454 0.1723493 0.0639198 -0.024936788 -0.048099242 -0.07945118 0.035425615 0.016147938 0.02103575 0.034631148 0.11373249 0.21738969 0.10742202 -0.019290539 0.0074291453 0.06407428 0.06473002 0.0017450516 0.057180602 -0.034077764 0.0041366876 -0.34672514 0.22461788 -0.11060515 -0.16978101 -0.04188203 0.28114054 -0.12536846 0.03600008 0.0112504875 0.15879852 0.042051144 0.07888288 -0.06439065 -0.14072354 -0.01765143 0.2129147 0.13922709 0.14953193 -0.061356567 -0.011731394 -0.051384233 0.27154762 -0.17155772 -0.06521098 -0.095596686 0.1481871 0.084386095 -0.20615216 0.13477078 0.03672475 -0.15621245 0.089996465 -0.12075153 -0.038048156 -0.27472103 -0.03707045 0.13891272 -0.120018825 0.094810456 -0.13972503 0.021469783
61 -0.060656305 -0.0134305805 -0.13185859 0.27133933 0.11418015 0.03227637 0.08648886 0.083767116 0.2912279 0.024303492 -0.14964318 0.07234627 0.14263938 0.12671858 -0.032766696 -0.07857867 -0.13374713 0.05189685 0.22268498 0.141362 0.0062880614 0.13923484 0.063879006 0.10421085 0.16200684 0.03220604 -0.07918121 -0.20150605 0.29310048 0.069572486 -0.16706495 0.024968635 -0.038489815 0.051795352 0.17922159 -0.09463148 -0.028229767 0.047663122 -0.09449654 0.060110398 0.06613813 -0.11329702 -0.087167576 -0.06723665 0.21039084 -0.039307024 -0.042522885 -0.04078679 0.1951814 -0.06970673 0.020723613 -0.044205382 0.037376806 -0.18805172 0.21682039 -0.016375793 0.038804814 -0.054633677 -0.06867101 0.14171666 -0.1686476 0.17653987 -0.05764137 -0.20211062
62 -0.09787168 -0.15769193 -0.20832817 0.01621014 -0.022855364 0.0066762534 0.050338402 0.04034076 0.1643287 -0.103616394 -0.005771458 0.13226835 0.09953376 -0.014365528 0.11625924 -0.09893794 0.001313122 0.049006037 0.123840645 0.044830475 -0.04481514 -0.04966593 0.080776185 -0.20001017 0.048272032 -0.14519604 -0.05681019 -0.2690228 0.14097086 -0.10286292 -0.012516252 -0.080357365 -0.07910653 -0.057037316 0.1357298 -0.15276 0.021552574 0.039522786 0.13388003 0.22246195 -0.06386332 -0.039347827 -0.06635467 -0.17081119 0.38340795 -0.08581612 0.0517274 0.004312875 -0.07231188 0.1160618 -0.13891645 -0.06464733 -0.022557482 -0.012882898 0.09337637 -0.109442055 0.029335517 -0.285117 -0.019414235 0.20082325 -0.18360683 0.09276679 -0.2095984 -0.17891525
63 0.20536077 -0.040998373 -0.24940227 -0.06726923 -0.2121361 0.2782088 -0.01563879 0.00035737795 -0.20571598 0.23021804 -0.325822 -0.12615027 0.014954565 0.1011449 -0.07194843 0.039595976 0.07004042 -0.00930583 -0.06961141 -0.048037764 0.049306706 0.039841354 -0.0279379 -0.16315986 0.09557545 -0.0812995 -0.011519233 -0.0035304297 -0.008365177 0.0566177 -0.020840878 0.15154172 -0.0758683 0.082452215 0.16281542 0.050378624 0.14954838 -0.07853858 0.28643784 0.1260021 -0.010846189 0.08038884 -0.11778497 -0.030791182 0.13576639 0.08622982 0.0038315745 0.07397652 -0.15071574 -0.08016417 0.05571188 -0.10873335 -0.13143842 -0.13602416 -0.010959894 -0.18938623 -0.018552009 0.09733324 -0.25172418 -0.110860154 -0.060026206 -0.03758074 -0.0073416326 -0.13733427
64 -0.11625228 0.0014095086 -0.1445227 0.11236063 0.08019051 0.13306901 0.04774619 0.10963531 0.14579332 0.21466596 -0.00892279 0.031776052 -0.04350359 0.13388461 0.0654017 -0.044896938 -0.11625596 0.0005812189 0.24248825 0.0014239405 -0.22993875 -0.053551823 0.0834827 -0.060883377 0.020880466 0.15166904 -0.3166879 -0.10191196 0.0396361 -0.033874042 0.030452585 0.021775676 0.12573889 0.09097365 0.0059267436 0.006019517 0.100203246 -0.17848715 0.19702192 0.2976293 0.11148974 -0.01319703 -0.032908518 -0.21277252 0.20333098 -0.13174434 0.06832554 0.029473264 0.12701508 0.012347878 0.061470594 0.08823536 0.18050039 -0.1706335 0.18984944 -0.18073905 -0.04984218 -0.010122195 -0.13936965 0.15806031 -0.104874246 0.093103305 -0.027377293 0.026601974
65 0.014888123 -0.06291876 -0.27623495 0.16458699 0.04327535 0.22441103 0.10245362 -0.13778853 -0.040616218 0.024935942 0.11630127 -0.064796254 0.21383685 0.08725913 0.24228626 -0.094891004 -0.0021994812 0.027022617 0.16501763 -0.060106635 0.022823108 0.15190154 -0.07724561 -0.07865212 0.03246199 0.027579227 -0.0376204 -0.1371743 0.07563074 0.042765215 -0.016902354 0.007074411 0.19194396 -0.040921737 0.118647665 -0.23954502 0.13103853 0.09932008 0.29883125 0.16916688 0.051521145 -0.020593198 -0.064428344 -0.00827298 0.26743615 -0.11446682 -0.026581042 0.06114469 0.04084244 0.11706598 -0.033781942 -0.05890069 0.048348024 -0.015444859 0.029766751 -0.052417863 0.17486317 -0.26554298 -0.0070360806 0.07563396 -0.18810351 0.051523555 -0.026176242 -0.22211543
66 -0.11225324 -0.079545766 -0.13031799 0.023494085 -0.11480887 -0.043722596 -0.021419656 -0.16277397 -0.02842677 0.14190893 0.05443149 0.05155623 0.2828189 -0.07477963 0.21424092 0.084356345 0.1479786 -0.15491429 0.06084699 0.043536663 -0.14078903 -0.012666916 -0.085902356 -0.24507928 0.10100932 0.090248495 0.017241923 0.057083678 0.003723541 -0.1420678 -0.049663723 0.10168739 0.099122286 0.049396556 0.10175317 -0.16183732 0.13211727 -0.0864588 0.27522066 0.14833671 0.083793595 -0.03931678 0.059024706 -0.06954961 0.10806684 -0.046098318 0.02812716 0.060216457 -0.15034193 0.12155432 0.06111574 -0.058380317 -0.20440306 -0.082252026 0.07490098 -0.20324028 -0.084939204 -0.12999141 -0.17163463 -0.22995639 -0.027249474 -0.09566612 0.040872294 -0.3128949
67 0.111331396 -0.026661774 -0.15590268 0.13632897 -0.014755793 0.09179825 0.11904871 0.12665333 0.07774391 0.0385192 -0.10310528 0.0369388 0.18576503 0.019435324 0.10250588 -0.16129225 -0.110361405 -0.03944481 0.18351531 0.069964215 -0.29452178 0.040382586 -0.014759471 -0.123855114 0.08702873 -0.031636916 -0.19367896 0.00019101829 0.02286298 -0.163331 -0.11672149 -0.18904592 -0.040674563 -0.093343064 0.15912421 -0.24511322 0.11350948 0.036039535 0.033234462 0.20725393 -0.10645079 -0.04879617 0.20209812 -0.05257505 0.19904637 -0.07312745 0.14919315 0.013956716 -0.05193185 0.1474131 -0.07267563 0.13737585 0.00023235871 -0.027599208 0.19890736 -0.07818052 -0.14934385 -0.14972925 -0.19928862 0.15690318 -0.11882216 0.019550448 -0.067211635 -0.18296961
68 -0.12109282 -0.14571184 -0.18361954 0.11012014 0.031608112 0.21739858 0.043279685 -1.1097348e-05 -0.19251457 0.11046726 0.008532273 -0.150258 0.2646622 -0.046912096 0.23751754 0.1451308 0.05075764 0.07163262 0.23932701 0.04722632 -0.044395108 -0.1516217 -0.09464928 -0.3048437 0.083038144 0.042385284 0.15790738 0.047145687 0.16336969 -0.11031905 -0.02347718 0.028904118 -0.026504979 -0.02851951 0.0695857 -0.027099853 -0.07119508 -0.088147566 0.22716878 0.1874363 0.08790625 -0.004035454 0.011581014 -0.046043973 0.25168595 0.049217485 0.1514117 0.032862976 -0.13419522 0.07373552 0.1271537 -0.039726533 -0.09734885 -0.1677111 0.030027695 -0.087103404 -0.084769115 0.03557079 -0.14508745 -0.12805691 -0.01776785 -0.11319532 0.07574662 -0.13355741
69 0.009739661 -0.097137816 -0.14530078 -0.12927195 -0.02624612 0.27593955 0.028532919 -0.15205565 -0.003574831 0.13741009 -0.108485304 -0.20257704 0.29162833 -0.09902992 0.07282509 0.08582802 0.108607724 -0.06822217 0.12122615 -0.1214785 0.13149852 -0.06511049 -0.18860868 -0.065920904 0.009433426 0.074196585 -0.039429035 -0.10429993 0.18615715 -0.0318632 -0.16402042 0.05678397 0.19886051 -0.097954504 0.24040706 0.0049170344 0.14537579 -0.15153475 0.11511793 0.09055866 0.22905596 0.04256222 -0.060661566 -0.08628984 0.15774569 -0.10153679 -0.013035386 0.008129218 -0.05769354 0.040101584 0.08599203 -0.16816375 -0.14306754 -0.010273578 0.095841266 -0.1313925 0.14227116 -0.054654557 -0.2552987 -0.10260208 0.05642122 0.027017947 0.08464344 -0.10241858
70 -0.0071640904 -0.08776224 -0.06531065 0.15739611 0.04260334 -0.023695422 0.036917754 -0.012242187 0.14868121 0.015940903 -0.09582714 0.25779578 0.1439099 0.03624262 0.24493831 -0.033494283 -0.14064579 0.15692088 0.17951874 0.023961052 0.0979325 0.22940043 0.046184 -0.08240175 0.25435653 0.014718736 -0.1954571 -0.027395178 0.13120137 -0.089455046 0.04710314 0.057893276 0.034668427 -0.080807135 0.1263669 -0.042592447 -0.16867717 0.15717131 0.06079947 0.21894647 0.089489624 -0.10151751 0.09152916 0.039514188 0.16082302 -0.19190706 0.14394154 -0.14636709 0.095321484 0.042514715 -0.09852795 0.10184345 0.10680171 -0.1345519 0.11751107 0.09726728 0.10341779 -0.11148487 -0.2594352 0.14204483 -0.1459154 0.0435005 -0.10237014 -0.061326064
71 -0.081030734 0.043277476 -0.05772111 0.08454955 -0.024391267 -0.11018635 0.10521978 -0.05829007 0.3616634 0.07413248 -0.07413968 0.09175461 -0.029310914 0.034816258 0.0069838953 0.024427477 -0.15234897 -0.016919987 0.21886317 0.081293285 0.0665366 0.14161818 -0.13625363 0.059389506 0.24886796 0.012577542 -0.3080743 -0.13351558 0.21276426 0.15586206 -0.12693776 0.14585851 0.03849475 0.03848027 0.022369003 -0.086884975 -0.0959909 -0.033400804 -0.14131589 -0.05235204 0.08014718 -0.046280384 -0.09053992 -0.19145767 0.19070044 -0.02658789 0.084631056 0.0005095049 0.06637077 -0.036179394 0.07903524 0.07641561 0.11011545 -0.26436535 0.15657419 0.09646961 0.09774491 0.08088124 -0.22117552 0.038970463 -0.0532377 0.13520476 -0.03562215 -0.1741439
73 -0.08200296 -0.09509782 -0.2945384 0.0570341 0.119957075 0.024280934 0.027324967 0.06548433 0.048643414 -0.03284358 -0.0043600625 0.12475294 0.19337799 0.14676061 0.034769733 -0.10049586 0.00043135305 0.16316958 0.18492606 -0.09743832 -0.157999 -0.112924196 -0.06563067 -0.066222474 0.20280157 0.082571566 -0.26409736 -0.23252042 0.3031111 -0.030982807 0.008256515 -0.008999222 0.1415737 -0.017611975 0.080062404 -0.03014747 0.01124865 0.0017537441 0.21265687 0.17515907 0.093619786 0.07186969 0.1282659 -0.025407627 0.10525158 -0.1988817 -0.007119105 -0.01403488 -0.08175951 0.055413514 -0.04938437 0.13499497 0.09290641 -0.14932024 0.15416607 -0.012750522 0.076936774 -0.17815238 -0.11514568 0.19705981 -0.17224061 -0.01657292 -0.110839166 0.02468653
75 -0.11799042 0.024215722 -0.21255437 0.109678484 -0.0011102259 -0.13308395 0.06121332 0.041986004 0.17030036 -0.058481146 0.05754239 0.07785323 -0.13398063 0.10592681 -0.08931472 -0.14026551 -0.026857026 0.15508576 0.30749908 0.112549484 0.1008863 0.07862902 0.027001826 0.098631166 0.14152467 0.014819234 -0.16174579 -0.08753956 0.16562553 -0.06868596 -0.22764356 -0.1052385 0.026410295 0.067435056 0.032350883 -0.119954616 -0.14505589 -0.00075283065 0.02625803 0.12285415 0.18920107 -0.04274983 0.02382204 -0.10738263 0.14355734 -0.16578987 0.031917267 -0.202915 0.10358314 -0.14414372 -0.016101219 0.04171274 0.17273386 -0.20211571 0.3142854 -0.012574417 0.088052 0.028905233 -0.21643612 0.053999502 -0.04911301 0.08340129 -0.14820999 -0.09045817
76 -0.08276956 -0.05470169 -0.20445983 0.047156878 0.08519553 -0.09690991 0.033221606 -0.06531669 0.07037168 0.013935153 -0.08268312 0.07804455 -0.043277968 0.11676787 -0.06255053 -0.21226367 -0.052734338 0.18103646 0.059334375 -0.10595288 -0.25789368 0.11700732 -0.041037302 -0.047468938 0.099173814 0.050022997 -0.15105835 -0.05933421 0.17296165 -0.06572877 0.0230758 0.13703397 0.28199914 0.08008862 0.041287508 0.056560334 0.07259833 0.028212545 0.14493936 0.23700206 0.13775747 -0.022320407 -0.026873486 -0.020095509 0.27287182 -0.2176157 0.14300506 0.017262368 0.10004216 0.033854906 -0.048881467 0.1350856 0.08864862 -0.24561368 0.19861777 0.05227907 0.017668568 -0.09680243 -0.13027777 0.21932478 -0.044663686 0.029037775 -0.16002691 -0.17967246
77 0.028886465 0.06835951 -0.19288063 0.19491404 0.036601104 0.12491839 0.15339081 0.18498516 -0.118042514 0.23028077 -0.054486748 0.0375091 0.32046288 0.0223237 0.013726954 0.046807304 -0.10209591 -0.16376986 0.10628582 -0.041839898 -0.09895812 0.17383018 0.0070714257 -0.10562355 0.08513327 0.03304033 -0.20437637 -0.084600314 0.029338168 -0.16357692 -0.01886292 -0.053369097 -0.05826852 -0.035777673 0.033229563 0.07951308 -0.016066803 -0.0013368847 0.04936065 0.27500254 -0.15769397 -0.0957098 -0.016143475 0.055396345 0.25432855 0.0017419884 0.25106293 -0.00029771676 -0.061700907 0.16603075 0.016018217 0.061610185 0.11747077 0.0004721176 0.10823431 -0.0063660783 -0.031016402 -0.27799484 -0.0724558 -0.01532597 -0.09722351 -0.0643132 -0.10519201 -0.23072486
78 -0.035905268 -0.040693536 -0.16475649 0.06256629 0.018358663 0.014195871 0.062522635 -0.039581202 0.22658512 -0.0037884165 -0.13428925 0.012528926 0.030210853 0.020516573 0.06990282 -0.08880126 0.18164572 0.13937958 0.107160196 0.006842058 -0.09824215 -0.04055356 0.063105434 -0.19683978 0.14617577 -0.11280543 -0.30128354 -0.19230174 0.21547946 0.055972055 -0.09269704 -0.028195422 0.13375609 -0.012977589 0.17743658 -0.091755986 -0.08157183 0.12991378 0.21548353 0.21577458 0.065849006 -0.025628986 -0.021273931 -0.08347941 0.16054726 -0.06587324 0.09345768 -0.050041936 -0.04671178 0.2116018 -0.20169522 0.028805835 0.15575337 0.06015575 0.03626219 -0.023691341 0.025141122 -0.20431568 -0.2008008 0.18744844 -0.2264587 0.12748043 -0.07006498 0.028348183
80 -0.011907915 0.076863416 -0.08571522 0.14038172 0.012536252 -0.114529125 0.0671354 0.09992153 0.13494301 -0.016010948 0.007203834 0.08622718 -0.14680135 0.11466033 -0.10774658 -0.12883207 -0.25756335 0.086731814 0.23716159 0.07969812 0.0012464141 0.14385457 -0.06310717 0.17653248 0.16854845 0.07020293 -0.055633057 -0.11704045 0.2703673 -0.034063045 -0.17514254 0.035904508 -0.01914267 0.028483454 0.13388292 -0.109553486 -0.14101237 -0.07376437 -0.009927241 0.16840748 0.1271145 0.026933484 -0.030716565 -0.1305991 0.23244382 -0.11549662 0.013851529 -0.19354238 0.16073032 0.021501517 0.06991227 0.01859705 0.16689588 -0.30688247 0.1122185 0.037414942 0.12909105 0.065730624 -0.11687822 -0.010232896 0.019822085 0.22164612 -0.1450465 -0.06295507
81 0.05745018 -0.09684136 -0.2490875 0.020285483 0.021407738 0.20211388 -0.045757055 -0.11528261 -0.04438996 0.1331726 -0.0047499286 -0.06307637 0.20635144 0.03816868 0.2557077 0.033227425 0.19428916 -0.08676756 0.10777508 0.11164955 -0.085632466 -0.08970636 0.0238849 -0.19154914 0.03780376 0.005453389 0.086875156 -0.09211313 -0.0628056 0.013049457 -0.19714114 0.13680747 0.08247526 -0.02908783 0.09051268 -0.034016788 0.20473407 -0.17166182 0.22509775 0.11753222 0.198225 -0.057658933 0.012368494 -0.0016946697 0.29192257 0.113047846 0.02021686 0.024907082 -0.09366893 0.06400957 0.0070034373 -0.12899865 -0.20828979 -0.11449644 0.15774243 -0.13789955 -0.026484378 -0.14696561 -0.013188268 -0.19782513 -0.08841042 -0.025714613 0.121133074 -0.15287992
83 -0.05753592 -0.0010566205 -0.0050108815 0.11757828 0.039444193 -0.074582465 0.01277027 0.07007391 0.20606595 0.14283477 -0.17677693 0.17171295 0.009715703 0.17495029 0.25253224 0.12329917 -0.21518384 0.1535332 0.050667986 0.09427864 0.028156558 0.15701044 0.15748669 -0.031323925 0.05211762 -0.0067616324 -0.206079 -0.01649002 0.19699533 -0.18568026 0.09093891 -0.00780926 0.043541122 -0.071282305 -0.01812834 -0.21441169 -0.0015665935 0.2333582 -0.052195717 0.16399196 -0.12500918 -0.085459985 0.057389744 -0.023682611 0.08247977 -0.14939636 0.15127282 0.07190269 0.10316861 0.09908311 -0.007893932 0.12066376 -0.06354149 -0.14081952 0.26561987 0.12954131 0.05359115 -0.02353841 -0.06522175 0.0595148 -0.21568078 -0.009336845 -0.12916832 -0.18862274
84 -0.07079038 -0.0006708631 -0.036067408 0.25622404 0.08145913 0.22598498 0.027789732 0.035453547 0.06610251 0.016905276 -0.04994825 -0.04281347 0.22922496 0.13927472 0.1165679 -0.20413245 -0.047301732 0.09345854 0.14313573 -0.017327094 -0.006290838 -0.12874252 0.10178027 -0.25562865 0.025903404 -0.053800676 -0.079288304 -0.15671489 0.18546353 0.03292515 -0.07450917 -0.0020141215 0.16664575 0.055622652 0.092237994 -0.22430971 -0.023255318 0.20027085 0.24736024 0.18251939 0.06960479 -0.09864927 -0.038944356 -0.22385672 0.2026552 0.016896334 -0.011537163 -0.0642882 0.03211027 0.21542092 -0.055341538 0.14133695 0.10584874 -0.005993491 -0.057684455 -0.13015838 0.14634275 -0.11999342 0.05546383 0.12054875 -0.17482784 -0.0359942 -0.0008923435 -0.093063205
85 -0.00864647 0.09478545 -0.2648811 0.2701814 0.00039987147 0.2644403 0.050612915 -0.04898703 -0.12663846 0.009544547 0.0431787 -0.081979506 0.07969276 -0.12146171 0.25138816 -0.05877215 0.024399923 0.019335533 0.0033837198 -0.11735291 -0.017020244 -0.0004421714 -0.056943044 -0.120349385 0.038773257 -0.0223662 -0.0030376855 -0.10456068 0.1653134 -0.03686675 -0.19287845 0.1001757 0.0684359 -0.15209746 0.12846649 -0.055725943 0.113237604 0.1281633 0.19036426 0.18295892 0.10360926 -0.063886195 0.07604374 -0.05332339 0.41522312 -0.065396585 0.092398345 0.06009784 0.08880787 0.21196671 0.062928446 -0.17308924 0.02762845 -0.107088 -0.027073584 -0.098659925 0.078961335 -0.1839074 -0.008376558 -0.045080096 -0.14190212 -0.001330595 0.05110304 -0.07599255
86 -0.060134374 -0.011360291 0.0032315056 -0.019241631 0.07407275 0.16160353 0.070129886 0.027304916 0.07576474 -0.117933765 -0.07049499 0.15291268 0.012131357 0.10794494 -0.12239011 -0.019899156 -0.1262472 0.21440487 0.10280169 -0.14202625 -0.22024693 0.012129178 0.0016410692 -0.11882883 0.0923192 0.0020098118 -0.14843474 -0.12805653 0.23093101 -0.13501802 -0.08782842 0.1123959 0.09624123 -0.008539728 0.029724758 -0.0011908514 0.040754277 -0.07982019 0.22019377 0.33110023 0.20104237 -0.018004881 0.023755558 -0.04328685 0.10259449 -0.08301631 0.14445838 -0.0018269817 -0.033920586 0.12668426 0.072903134 0.15124749 0.11358716 -0.07965406 0.1080986 -0.2405601 0.2345413 -0.13131307 -0.1657488 0.19015652 -0.045516673 0.13476844 -0.077285714 -0.18714862
87 -0.19964825 -0.026604816 -0.11713953 -0.07818549 0.013574369 0.11624256 0.14418364 0.081146635 0.0985039 0.024562772 -0.0611568 0.07679772 0.009126533 0.07121232 -0.035237048 -0.1100049 -0.05639397 0.1908228 0.092312984 -0.14778964 -0.18850994 -0.048943248 0.020549113 -0.058525715 0.1335668 0.07329616 -0.17461805 -0.016704567 0.3245932 -0.1383903 0.026350645 -0.08525214 0.27187097 0.0514089 0.07228256 -0.14180215 0.24986257 0.04929937 0.15874574 0.2960597 -0.01942131 0.12077096 -0.0053442083 -0.027452609 0.1156654 -0.26065964 0.057893947 0.07328804 0.020561304 0.12122212 -0.03166545 0.10906043 0.093929835 -0.20462064 0.045749772 -0.07676157 0.20222919 0.01084452 -0.10816553 0.06603483 0.0067567397 0.15808824 0.021366797 -0.08508168
89 -0.16435374 0.015422481 -0.051770434 0.045727763 0.07588318 -0.067597724 0.011260704 0.0063006054 0.14216913 -0.09184234 -0.20762032 -0.0101311095 0.04380363 0.032067005 -0.11133954 -0.09262623 -0.09663742 0.15825151 0.17643826 -0.045663584 -0.20638485 0.15879056 -0.022341708 -0.16793264 0.0101774605 0.08225994 -0.21820052 -0.15826134 0.10142723 -0.12589279 0.10543856 0.052671574 0.16557136 0.11493934 0.16818218 -0.07034262 0.36063486 -0.004385963 0.083271824 0.20961735 0.15917015 0.06970444 0.03815678 -0.11570162 0.29515138 -0.19797535 0.08183385 -0.014721056 0.023848971 0.060401514 -0.00028212415 0.22356488 0.054821167 -0.055647522 0.06766127 -0.09024267 0.086445116 -0.031909574 -0.083570406 0.16470118 0.01792014 0.10248557 -0.023445163 -0.13407551
90 -0.08355422 -0.059263375 -0.19735077 0.14475499 0.08017171 0.052026276 0.01725616 0.08034688 -0.02555974 0.018100841 0.011324161 0.12458136 0.11298307 0.03664235 0.104936086 -0.17809854 0.008311183 0.019944482 0.12067143 -0.06392293 -0.1058591 0.022665046 0.030307747 -0.08464112 0.14042807 0.034922484 -0.25109482 -0.2044265 0.2542459 -0.0670643 -0.015904987 -0.034724575 0.20044202 0.055445857 0.15953672 -0.20777905 0.007175218 -0.11115354 0.2480445 0.23559268 0.09847549 -0.002132259 0.11801536 -0.14618531 0.20021138 -0.19890992 -0.05073797 0.034620207 0.04145462 0.21035706 -0.11518187 0.06281249 0.0409033 -0.16789445 0.18966688 0.055024635 0.08645564 -0.18632764 -0.06598323 0.10239602 -0.055447564 -0.14253175 -0.05328552 -0.14113179
91 0.099022515 0.0461459 -0.16292237 0.15436827 0.0882141 0.14291872 0.07615638 -0.07736802 -0.10880197 0.13033947 -0.026405836 0.07705941 0.21751054 0.08949705 0.20959902 0.04161074 -0.02182998 -0.11385943 -0.024418574 -0.035399843 0.046694636 -0.06797239 -0.12511943 -0.24046311 0.08136578 -0.051906765 -0.16310118 -0.05444532 0.17412612 -0.1331694 -0.08998595 -0.03448012 0.12549779 0.019373275 0.21821171 -0.1358278 0.119230755 0.018651053 0.28378287 0.22981112 0.064974114 -0.12894216 -0.08382765 -0.021884408 0.16333999 -0.1328577 0.0063859834 -0.0053883027 -0.08762774 0.06450627 0.07894486 -0.13408396 0.031014375 0.026367772 0.064919725 -0.15490413 0.09961518 -0.40141976 -0.009804016 0.05939065 -0.04421664 -0.117415704 -0.010859783 -0.10073623
92 0.21513249 0.07309362 0.026646024 0.19603083 -0.0025421334 0.040508863 -0.045621738 0.07358316 -0.13428709 0.114782855 0.028630916 -0.065783605 0.27489376 0.05920872 0.06499243 0.032293696 0.08543645 0.007148208 0.08265868 0.019025361 -0.07481499 -0.033559006 -0.030737655 -0.07190064 0.040492136 -0.065461025 -0.23785752 0.08044123 0.26308873 -0.18197542 0.0074227224 -0.042024978 0.1233224 -0.0533369 0.20367654 0.033789847 0.13156202 0.08685367 0.115974486 0.19908312 -0.059088316 -0.08603869 -0.11546544 -0.018804206 0.10540326 -0.0059290547 0.2738026 0.25066665 -0.002238892 -0.0025251578 0.07518824 0.17452289 -0.03958912 -0.15580523 0.16250528 -0.03527896 0.09432833 -0.028937712 0.13586459 0.17059934 -0.17289077 0.08184907 -0.16165458 -0.23898026
93 -0.23386973 0.17038073 -0.037658393 0.17253046 -0.013109047 -0.011359465 0.12130592 0.045200326 0.22491369 0.0652973 0.05373866 0.073096044 -0.06505752 0.1659038 -0.0758041 -0.12690274 -0.011746215 0.26678193 -0.017263621 0.039733652 0.04207125 0.08584178 -0.08440707 -0.037994143 0.25952306 0.14632647 -0.006584289 -0.22772564 0.035688266 0.054702125 -0.12483616 0.15946534 -0.068324566 0.07147966 -0.015782483 -0.19583067 -0.07432032 -0.08634378 -0.13906325 0.11332348 0.04394559 0.05431058 -0.08208516 -0.08556558 0.14746195 -0.14168209 0.1382448 -0.11959292 0.053644534 -0.026841799 0.0063774316 0.12924346 0.079801746 -0.107687406 0.3149874 0.025264604 0.13457344 -0.12956177 -0.18489623 0.09112244 -0.045388304 0.26146775 -0.0070424 -0.027758176
94 -0.1422214 0.036679253 -0.11111515 0.21957372 0.048993755 0.11620586 0.044080175 -0.03201797 0.18873328 -0.016112383 -0.0814678 -0.029033938 0.022033988 0.19179875 0.04115567 -0.11008108 -0.041753326 0.20360191 0.17493077 0.034359157 -0.041993726 0.06308925 -0.08416384 0.029545156 0.27452642 0.053696774 -0.15014887 -0.1629906 0.091229424 0.20550977 -0.044735122 0.027650476 0.080629535 0.021710075 0.097609065 -0.19641463 0.0393412 -0.06445906 0.11760935 0.01804716 0.1099624 -0.018393662 0.08409483 -0.05599876 0.25871673 -0.055345576 0.10044486 -0.27045217 0.10911728 -0.09987962 0.01955157 0.18392052 0.019891636 -0.2349001 0.054840717 0.089267194 0.07757456 0.040648054 -0.26868254 0.15100092 -0.04865138 0.19210327 -0.14018242 -0.012629416
95 -0.2219805 -0.039818052 -0.18203482 0.26291636 0.09743167 0.016495913 -0.027222358 -0.007756009 0.23547322 -0.019827606 -0.20891497 0.119817026 -0.038023315 0.09826004 0.042276423 -0.13924573 -0.03569609 0.19910797 0.3016352 0.18947792 0.026217183 0.14127856 -0.014327466 0.054838166 0.10085002 0.106189616 0.015460066 -0.099593595 0.07043264 -0.20666648 -0.05062287 -0.006657781 0.15413664 -0.10013672 -0.028092783 -0.07217379 -0.04012147 -0.15430441 -0.016253002 0.100179486 0.05073271 -0.071029484 0.06939241 -0.24084876 0.14123067 -0.20273331 0.16264988 -0.15553468 0.034207627 -0.147126 0.015478287 0.025009936 0.07070679 -0.09946259 0.017277384 0.111106925 0.21690339 0.059977826 -0.048979815 0.10671458 0.054618604 0.15896106 -0.10293945 0.067149654
96 0.08700405 0.07278707 -0.2731917 0.14130245 -0.025347188 -0.11154653 0.06536429 0.13737796 0.08505823 0.10697379 -0.06641424 0.09206399 0.15768577 0.036531005 0.097192846 -0.117502324 0.11772785 -0.15536815 0.012862574 -0.033563152 -0.17432378 -0.1021442 -0.016260767 -0.27630213 0.22424598 0.09024514 -0.08101853 0.02529193 0.2949918 -0.097484946 -0.034712538 -0.12638222 0.11638681 0.24732429 0.11794243 -0.0077261496 0.17489499 0.020452777 0.05776783 0.24520658 0.025304513 0.1382585 0.097880766 -0.00024799255 0.045321003 -0.11112428 0.044941656 -0.12990396 0.054677106 0.051638875 0.041706897 0.22254379 0.013921351 -0.030005462 0.058295287 -0.11965129 0.093473285 -0.27155885 -0.15118916 0.0063268756 -0.06315033 -0.08389885 -0.02596892 0.02507109
98 0.2214437 -0.05218138 0.052849166 0.19072379 -0.024779867 0.044938218 0.034291383 0.094869345 0.12801558 0.21766452 -0.06784765 0.13672338 0.14056168 0.027813205 0.081790075 -0.043925196 -0.00032565562 -0.104085244 -0.069371365 0.11218287 -0.21108933 -0.086538516 0.12141271 -0.19483802 -0.004124944 0.09590931 -0.005898172 0.15945408 0.21907161 -0.23879305 -0.015652753 0.023775386 0.17404807 -0.012465788 -0.010276382 -0.049073618 0.08230012 0.08175815 0.0090172645 0.16838601 -0.08170144 -0.0063420446 -0.16402659 -0.14156687 0.0026406595 -0.1462143 0.03201892 0.01205328 0.22262634 0.0856374 0.09229833 0.0313142 0.08035177 -0.18228984 0.3124332 -0.1570327 0.11984752 0.0147982165 -0.07922863 0.06927417 -0.15548012 -0.070117176 -0.17594491 -0.2035515
100 -0.078518905 -0.12031564 -0.14986365 -0.09598012 0.08636714 0.050180726 0.036390934 0.020623803 0.07791577 -0.07267516 0.00570127 0.086160116 0.12502457 0.16608277 -0.0045002075 -0.21567886 -0.013893855 0.30687338 0.013979112 -0.0787006 -0.100297436 0.08748613 -0.050969265 -0.20575163 0.2638796 0.06721755 -0.22247647 -0.17358792 0.32487392 -0.10593134 -0.17797934 0.054551776 0.12190865 -0.04020911 0.12386734 -0.1441956 0.012089549 -0.04096803 0.10272989 0.27433726 -0.015353144 -0.03973162 -0.047643896 -0.0837582 0.017715149 -0.08627127 0.09447593 -0.025152039 0.043752115 -0.095189616 -0.031553317 0.015945766 0.18414213 -0.02064941 0.16411951 0.06591541 -0.019839615 -0.07770638 -0.056806773 0.19301571 0.007610724 0.15324834 -0.15654464 -0.13166024
102 0.10165935 0.08086189 -0.20092224 0.12192608 -0.00342152 -0.0088709695 -0.029385753 0.08117594 -0.0092509 0.07736544 -0.047499303 0.06409397 0.10036277 -0.010554252 0.06684945 -0.075781845 -0.056141764 0.03428706 0.15443215 -0.025571676 -0.217672 -0.062365193 0.027238838 -0.15140955 0.17960075 -0.054358713 -0.11415474 -0.2080285 0.08670013 -0.12344272 -0.18944131 -0.101088814 0.15216492 -0.12138123 0.18274501 -0.11622112 0.010972962 0.07061344 0.036727745 0.26684794 -0.033325844 -0.11737404 0.0023431361 -0.08497886 0.24884099 -0.11182349 -0.013880984 -0.09294873 0.084875725 0.20834017 -0.052144073 0.16367234 0.11549935 -0.02786179 0.10371012 -0.070497215 0.057248276 -0.25912982 -0.01186416 0.31659436 -0.24085872 -0.0022976885 -0.12652174 -0.027527574
103 -0.11031115 0.07644727 -0.1604879 0.07164134 -0.05919465 0.061621677 0.044184774 -0.2541727 0.14526334 -0.036824446 -0.023003181 0.14715734 0.0973424 0.15499556 0.05404725 0.05655815 -0.18722695 0.29901552 0.002279117 -0.013020937 -0.028591372 0.12042636 0.07377413 -0.16310872 0.11933884 0.01871507 -0.12427885 0.00053106283 -0.019087084 -0.24929613 -0.08967544 -0.045345634 0.07732772 -0.06280082 0.1456238 0.06378611 -0.049877133 -0.0013577145 0.08033941 0.38806576 -0.045645673 -0.11343324 0.0053487187 -0.15920597 0.027660273 -0.16003957 0.0702127 -0.12162953 0.0077876854 0.08959043 0.15665811 0.27071276 -0.0032597447 -0.16333525 0.048633043 -0.019804168 0.13445212 -0.1880842 -0.17149514 0.044206373 -0.0471695 0.076660015 -0.094028175 -0.006304447
106 -0.031143466 -0.05819898 -0.03707726 0.2526504 -0.090214305 0.024777194 -0.029531015 -0.009322706 0.17596485 0.0052892496 -0.018108977 0.20605691 0.20918499 0.0065727173 0.117697075 -0.1235057 -0.0919721 0.18780486 -0.12805599 -0.1447279 -0.20836417 -0.16166723 0.13897723 -0.040163044 0.1522941 -0.043756858 -0.043165535 -0.0030675372 0.13740946 -0.09826532 -0.14229728 -0.06262123 0.11152381 0.02619578 0.0366796 -0.057726454 0.32446662 -0.10924599 0.14103355 0.09455428 -0.030524364 0.050852723 -0.10780584 -0.06541616 0.13796876 -0.03737733 0.025201743 0.013321677 -0.037310284 -0.031554457 0.034772154 -0.051986776 0.11748452 -0.1992747 0.27079797 -0.08541385 -0.031009994 -0.2610115 -0.033160158 0.06284491 -0.24441466 0.09508055 -0.17374623 -0.06886218
109 -0.06907057 -0.12841518 -0.18254992 -0.14135009 0.018435357 0.2899941 0.02340594 -0.14199181 -0.048209462 0.16387726 -0.046777226 -0.18567605 0.2358125 -0.14096984 -0.00430112 0.05382788 0.20845135 -0.0012880218 -0.015227297 -0.020257734 0.06354227 0.0058084084 -0.16288139 -0.124988355 -0.09487162 -0.03810091 -0.0433438 -0.17636666 0.24685436 -0.030768275 -0.01432731 0.043543052 -0.05853738 -0.010320985 0.06771648 -0.12016339 0.041836098 -0.16866334 0.02805832 0.018972145 0.1383382 -0.027428837 0.059124723 -0.06110603 0.19021648 -0.10294785 -0.015589492 -0.074304216 -0.19188711 -0.03196149 0.010751621 -0.24357438 -0.09421486 0.070250414 0.015424 -0.21188109 0.11651313 -0.23696913 -0.2721104 -0.020173138 -0.098673426 -0.0238932 0.041843794 -0.1796464
110 -0.14687121 -0.020948043 -0.013549791 0.016036391 -0.092329316 -0.012369192 0.005075119 0.18543385 0.35669255 0.040493425 -0.23961999 0.18151355 -0.1722944 0.07897019 -0.084032536 0.044023655 -0.10531085 0.28258586 -0.006573114 -0.09341114 0.09738124 0.06740423 0.0715384 -0.00870946 0.25762874 0.021098027 -0.039717846 -0.17537616 0.153127 0.0021306742 -0.004293733 0.045693792 0.01957791 -0.0031037254 -0.12258726 -0.16038004 -0.021082213 -0.05213679 0.052504655 0.15572968 0.049898807 0.014837408 -0.003018418 -0.049130607 0.20496182 -0.086092226 -0.017177757 -0.25579783 0.06242149 -0.08695142 0.026072087 0.062377486 0.066801496 -0.1106809 0.28602973 -0.054810397 0.17321475 -0.037401266 -0.041218836 -0.12360458 -0.01695924 0.09891573 -0.23431757 -0.0644299
111 0.06773456 -0.02568299 -0.10402907 0.13436975 0.01637761 0.02295483 0.024680011 -0.004471177 -0.023566086 -0.07930811 -0.16521728 0.07149363 0.16342904 0.116626084 0.2987251 -0.112616725 -0.062216543 0.07471512 0.0603256 0.090974174 0.07200011 0.08997284 0.10690342 -0.11607821 0.087075725 0.0035701261 -0.053003088 -0.08042513 0.36010015 -0.04985964 -0.10808161 0.011003547 0.13449588 0.019315973 0.10741957 -0.019308945 -0.15010238 0.15379915 0.0032884309 0.09700505 -0.03315334 -0.13453326 -0.010922094 -0.17437077 0.12793714 -0.20401096 0.054818884 -0.084298745 0.05932025 0.20056152 -0.060572505 0.24499579 0.084609814 -0.055221427 0.15697592 -0.011528741 0.08082777 -0.24489096 -0.051627196 0.21958195 -0.19962355 0.009157849 -0.19814585 -0.14064837
275 0.25492284 -0.105396345 0.115741454 0.25192094 -0.2378501 0.10255275 -0.077755615 -0.06136091 -0.10207546 -0.023349047 -0.025062114 0.15496655 -0.032074705 0.0048898417 0.03456577 -0.19369079 0.06109648 -0.09009546 0.04116226 -0.055131957 -0.16390985 0.06391739 -0.12516439 0.026831813 0.12749062 0.06513578 0.028545724 -0.0071656206 0.04438167 -0.024062714 -0.022273146 0.023797503 0.13985208 0.10583261 -0.13454926 -0.12536514 0.16154978 0.13794462 0.18420048 0.18670268 -0.2255247 0.115822144 0.03356822 -0.14276221 -0.025975132 0.03925237 -0.09585976 0.05195551 -0.09829001 0.12134732 0.15319014 0.00034364412 -0.0663172 0.032104664 0.24860767 0.042100776 0.19291873 -0.083078384 0.19044125 -0.12643331 0.15759067 0.12684828 -0.0006089565 -0.2708091
116 -0.04423444 -0.14080685 -0.018203128 0.060089324 0.08409134 -0.030355213 0.057019558 -0.16295388 0.09614573 0.12387468 0.147216 0.07837458 0.14500655 0.083538786 0.07504189 -0.00164278 0.13457634 0.19792917 -0.016189411 -0.14891535 -0.20129481 -0.023018429 0.07515471 -0.11397255 0.14138313 0.095801786 -0.044049423 -0.14970066 0.07122168 -0.12682573 0.013530761 -0.05492644 0.035570815 0.11237824 0.030220231 -0.008947349 0.08742476 0.01578783 0.18051097 0.46592763 -0.05768934 0.03878416 0.06330012 0.11533779 0.20557253 -0.18193744 0.074510425 0.05499724 -0.031937484 0.13608548 -0.062684506 0.05178179 -0.012081143 -0.20705976 0.16445889 -0.05861084 0.14093044 -0.33707446 -0.035865404 0.12882625 -0.036599535 0.008841814 0.00023325848 -0.046701916
117 -0.07693959 0.029437216 -0.148004 0.28254023 0.010046329 0.008154535 -0.111127414 -0.046565153 0.11714786 0.12448707 -0.083719395 0.094371945 0.2072559 0.17458665 0.20035535 -0.124778315 -0.005335515 -0.16394548 0.1149746 0.1030485 -0.0028054344 0.19627397 -0.059351295 -0.016639384 0.051670745 0.13912404 -0.13432737 -0.28243253 0.20801915 -0.044442806 -0.02259998 0.057202347 0.036202393 -0.043740638 0.07435124 -0.013794896 -0.05822525 0.098367274 0.066622406 0.129522 0.13502173 -0.14243852 -0.003215939 -0.11611743 0.2445107 -0.14698534 0.0022638896 -0.07963377 -0.1743648 0.15683635 -0.035703406 0.053758323 0.06650179 0.06527943 0.1367142 -0.07966322 0.021398911 -0.1582845 0.013017221 0.04476025 -0.26675007 0.04309632 -0.2256855 -0.11435688
118 0.110783845 -6.182469e-05 -0.08551149 0.22654246 -0.110997185 -0.081510365 0.19178204 -0.0038315337 0.26953435 -0.021146629 0.16585565 0.14816998 0.07145913 0.098698586 0.039405223 -0.16061455 -0.14729632 0.15172692 -0.03362463 0.037365027 -0.008204986 0.14191546 -0.038048882 -0.22464697 0.19330256 -0.04950398 -0.08058704 -0.19400279 0.015601282 -0.030063244 -0.008789538 0.026697539 0.14615314 0.049845424 0.03432974 -0.07338471 0.093419306 0.009692256 0.014546717 0.19618115 -0.003225144 0.09192243 0.04759021 0.009865837 0.21002477 -0.28409052 -0.032990452 -0.14678192 0.04286157 0.14243165 0.023895705 0.055464048 0.10884753 -0.1571083 0.048267357 -0.0059804106 0.21422401 -0.035361335 0.027206587 -0.032588277 -0.22508861 0.20763732 -0.12122335 -0.21222582
4 -0.10114612 0.051872417 -0.1303073 -0.018080885 -0.033441138 -0.016968945 0.061638918 0.07586044 0.21442106 -0.025052177 -0.17892718 -0.292062 -0.14524974 -0.12352099 0.072278954 0.010316723 0.05320677 -0.17906845 -0.0050153877 -0.011714324 0.11131225 0.035841785 -0.01195284 -0.05367871 0.032061346 -0.09583162 0.14648706 0.2135555 -0.01629388 -0.21696523 -0.07071962 -0.006679745 0.15772195 0.06390909 0.0065903314 -0.071118474 -0.024697922 0.020380413 0.23155235 0.14508384 0.042339075 -0.013603159 0.032189168 -0.058967747 0.23191924 0.17952138 0.042829067 -0.1005135 -0.2300243 -0.18085916 -0.042603683 0.08690402 0.09952147 -0.02488539 0.18517505 -0.040920552 -0.14463255 -0.020930948 -0.15552577 0.086334355 -0.25652355 -0.13751614 0.17366634 -0.2196387
120 0.21114473 -0.22245462 -0.21984272 0.04675442 -0.055206142 0.20389117 -0.1202598 -0.096276276 -0.050922077 0.14279847 -0.112511314 -0.0009105264 0.146589 0.0002574102 -0.09887879 -0.024171926 0.19528623 0.020150695 0.16697194 -0.028010393 -0.27296758 -0.029155456 -0.14249466 -0.022464365 -0.0019148946 0.084459804 -0.05266478 0.1550386 0.26142707 -0.1290179 -0.12252889 0.032628935 0.06406434 -0.047546558 0.086815 0.09041417 0.14413454 0.1547667 0.14998102 0.12673743 -0.06973088 -0.09043884 -0.1179329 0.012062209 0.06941188 -0.14253551 0.015194165 -0.015405002 -0.31853983 0.07683279 -0.01272015 -0.11916837 -0.11139063 -0.14140229 0.09206574 0.025856901 -0.11786545 -0.038081344 -0.16208978 0.041265007 -0.18146625 0.076044686 0.004363873 -0.13337061
122 -0.03895844 0.01771751 -0.049506962 0.17232819 -0.11371113 0.100743055 0.20479594 -0.042843763 -0.018473435 0.043654505 0.0145579185 0.08376123 0.12606852 -0.024420599 0.109788336 -0.1449512 0.048687253 0.1181423 -0.059166595 -0.023094494 -0.27517703 -0.060101215 -0.029666204 0.027458532 0.040365946 0.12769565 -0.28455418 -0.025460728 0.2923041 -0.19304398 0.019793622 -0.06501319 0.14791127 -0.01770342 0.034000527 -0.2602041 0.20995013 0.079494186 0.24071872 0.21414876 0.06551353 0.027127832 0.09412448 -0.017654777 0.15775332 -0.20574102 0.01875756 -0.045541324 -0.047340702 0.036773738 0.009899038 0.047972582 0.046227694 -0.13458684 0.293274 -0.10592789 0.025184276 -0.11970169 -0.041378878 0.12033806 -0.15344419 -0.002488227 -0.056667253 0.037862826
21 -0.07308904 0.020602852 -0.33299628 -0.053256284 -0.22755833 -0.027411226 -0.10295635 -0.08769604 0.11346575 0.09442132 -0.15302576 0.015600762 0.025467793 0.23353563 0.12949225 0.03339477 -0.12222227 -0.08658246 0.1518201 0.19753547 0.07974141 -0.093540154 -0.079560705 0.105139896 -0.17530245 0.039429236 -0.15802732 0.09396565 0.17573619 -0.043268934 -0.11431597 -0.022552602 0.21181594 -0.082184255 0.124002986 -0.027363194 0.10563315 0.021383459 0.13388127 0.10400729 0.0034993927 -0.09497048 0.070567854 -0.22882144 0.088075355 -0.0033951802 0.0322765 0.05581344 0.11841992 0.06981151 -0.12003235 0.1438067 0.0106047485 -0.1061744 0.01957219 0.033245005 0.0849357 -0.048496008 -0.26270202 -0.045966957 -0.21433978 0.21185587 -0.16488928 0.09892111
126 0.21127522 0.119982824 -0.2715204 0.29269665 -0.032976393 0.13262662 -0.06764268 0.17061673 0.045942243 0.23662816 0.012136827 0.07101236 0.07119404 0.12839104 0.2112558 -0.00924397 0.00022548709 0.07855219 0.20821477 0.06297068 0.03292751 -0.0104958685 0.13499881 -0.14680508 0.12665373 0.1276066 -0.17187132 -0.15529086 -0.07351039 0.06813105 -0.082180776 -0.056249946 0.103429265 0.0006801111 -0.0773764 0.052140422 -0.12135902 0.20165606 0.052596394 0.09067783 0.14907585 0.060528982 -0.06764083 -0.012478437 0.1954902 -0.14886312 0.072722696 -0.13151793 -0.010781078 -0.009197617 -0.003916073 0.037316862 0.030551618 0.19055684 -0.11700402 -0.0024580995 0.3297819 -0.06628219 -0.01681948 0.11029774 -0.04239702 -0.0788537 -0.095974505 -0.06711707
127 -0.036145017 -0.11645348 -0.15747122 0.054939806 0.04219209 0.14257233 0.033184152 0.06831142 0.067532115 0.09375297 -0.06985673 0.12974876 0.2140025 0.17801937 0.11678756 -0.07029335 -0.051950425 0.052185148 -0.028879084 -0.105969705 -0.03611013 -0.15763383 0.012430772 -0.18399325 0.15527742 0.03031298 -0.04100857 -0.2711176 0.21377496 -0.073193096 -0.18185209 -0.13810937 0.039542362 0.13676529 0.13699009 -0.15846436 -0.032774184 0.09738203 0.23898944 0.17011128 0.07506473 -0.17871432 0.02103974 -0.14724524 0.17210366 -0.08080553 0.00018708417 -0.079945065 -0.15550861 0.06866275 -0.086968936 0.08907482 0.23921916 0.01033578 0.14378156 -0.06276554 0.065672375 -0.19471726 -0.013103711 -0.020872101 -0.23329194 0.0076799854 -0.11806281 -0.12904048
128 -0.08566657 -0.0016162889 -0.20656909 0.013696658 0.10031143 0.09456425 0.06865034 0.020133236 0.06847814 0.0018544594 0.03740178 0.13558158 -0.037083775 0.042809878 0.15759364 -0.2274401 -0.07232745 0.063284546 0.20009717 -0.1542045 -0.07126175 0.031035801 -0.11602828 -0.13722414 0.27619287 -0.044361483 -0.2805662 -0.12081932 0.17867722 -0.1597887 -0.09640587 -0.050031416 0.17218415 0.04840514 0.0022891334 -0.0521855 0.08288027 -0.027819695 0.09270833 0.23385581 0.11711853 0.058105346 0.14868392 0.07247912 0.21192926 -0.14374076 0.05459612 0.05596546 0.02415881 0.008789185 -0.13837662 0.18471281 0.21118176 -0.13133472 0.12124207 -0.05823468 0.14273305 -0.1138153 -0.14650877 0.15611868 -0.076730445 0.113549374 -0.12471951 0.008315588
129 0.14466214 0.056802064 -0.1353825 0.068513654 0.100300655 0.12840089 0.10419813 0.10229498 -0.17873518 0.1498465 0.024868777 0.02027963 0.20400827 0.018974395 -0.047964513 -0.16965353 0.056666303 -0.062749945 0.011055809 0.0901872 -0.27500713 -0.16950369 -0.11461704 -0.07550457 0.06640101 -0.05751377 -0.01035298 0.09478138 0.22457719 -0.17426106 -0.17367028 0.07577617 -0.09943449 0.13647933 -0.027906414 0.05814435 0.17066865 -0.07017325 0.16051212 0.14800844 -0.09854823 -0.059113663 0.14259912 -0.04162122 0.27080852 -0.19072711 -0.09682134 -0.09821153 -0.029832885 0.086460926 -0.034803033 0.08915912 -0.03137402 0.045255486 0.15567382 -0.0659471 0.12020156 -0.31783402 -0.055769306 0.10101233 0.02942007 -0.10226726 -0.046192244 -0.18591364
130 0.03766085 0.07552807 -0.011793082 0.10353182 -0.06282698 0.11109269 0.07036412 0.14849564 0.024659019 0.10026181 -0.090485394 0.119582176 0.15794198 0.051666435 -0.077667065 -0.14276907 -0.010297291 0.14145732 -0.059732847 -0.18224004 -0.09829739 -0.08153759 0.078569174 -0.26308128 0.04029349 -0.032345913 -0.23692043 -0.029782262 0.17062005 -0.04812441 0.08044495 -0.012605087 0.14427853 0.09343146 0.21426575 -0.10859472 0.18799013 0.02190594 0.23569204 0.30227074 0.08356867 0.017895717 0.06675729 -0.10501632 0.15259525 -0.15797366 -0.009773429 0.029626591 -0.08458469 0.11815578 0.11585789 -0.035846118 -0.006245127 -0.18344508 0.224055 -0.11728263 0.12628654 -0.26149577 -0.011037911 0.14570841 -0.008746623 0.013048217 -0.1251783 -0.0903078
179 0.25064385 -0.03160708 -0.030960364 0.17505735 0.03516902 0.10784776 -0.029337863 -0.090191804 0.07899368 0.04890703 0.062206287 0.05174753 0.14170699 0.1495917 0.14866048 -0.08533483 -0.09411392 -0.08628891 0.0010442319 0.069157586 -0.13028204 -0.19303113 0.058105145 -0.27070394 0.2839117 0.07262257 0.03694892 0.13768524 0.079922006 -0.11322187 -0.13393134 -0.01797393 0.25829843 0.029430697 -0.0910117 -0.15411589 0.063153386 0.053504895 0.16037618 -0.016345626 -0.07081838 -0.026336947 0.0031958825 0.04385832 -0.00019195705 -0.15255468 0.11009569 0.03225294 0.15076125 0.041530233 -0.14474954 0.08915845 0.06892499 -0.17660566 0.36087012 -0.15976088 0.017008275 -0.14808202 -0.0960323 -0.14234018 -0.033396862 -0.05982331 -0.08564929 -0.12137602
132 0.05412956 0.04494968 -0.08180806 0.21937266 0.07255714 0.19750005 -0.089878015 0.15507373 0.010812651 -0.036645647 -0.0150524005 0.10426853 0.19623975 0.10784839 0.15711531 -0.07858608 -0.14225881 0.032525457 0.023155916 -0.00502186 0.16268152 -0.08642066 0.13241935 -0.02224651 0.06922036 0.09766827 -0.2125784 -0.2770338 0.15435845 -0.1436533 -0.1713208 -0.008522719 0.038796812 0.1633589 0.1685158 -0.05141023 -0.08568854 0.05421712 0.134451 0.22870941 0.01957422 -0.1836572 -0.11474742 -0.14983207 0.20207056 -0.18958972 0.08995898 -0.050421856 -0.082345955 0.035520006 -0.063938804 0.07092101 0.18682566 0.06972805 0.10513203 -0.042807676 0.037743066 -0.19337514 0.028954452 -0.037880268 -0.20315503 0.091379404 -0.0796431 -0.14963858
133 0.20076282 -0.21307592 -0.15443474 0.17955284 0.13566805 -0.027495459 0.009575972 0.013452668 -0.030972838 0.18462583 0.01259836 0.047816005 0.16944605 0.0025608107 0.1115776 -0.1948794 0.042724293 0.00086765765 0.017569885 -0.015851574 -0.026569767 -0.19122082 -0.114665605 -0.27321273 0.117777854 -0.080939755 -0.1232696 0.076433316 0.1570929 -0.18057352 0.024918627 -0.017182289 0.24181822 0.1434433 0.04838369 -0.17455216 0.12780574 0.011334844 0.13175789 0.25627977 -0.04001775 0.034228038 -0.0620813 -0.12887742 0.14876081 -0.026900912 0.011109948 -0.08794729 0.12400939 -0.02596225 0.064957045 0.13462572 0.11451722 -0.28181916 0.09593427 -0.12472788 0.056873977 -0.15774944 -0.0804847 -0.11468665 -0.049647156 -0.112362534 -0.10213808 -0.027252328
135 0.03801447 -0.059721194 -0.17848058 0.07292807 0.086787246 0.056290288 -0.09827399 -0.06724763 0.13944013 0.25994536 -0.07226759 0.041842435 0.2679561 0.14759952 0.25310656 -0.0015335912 0.086999826 -0.058156226 -0.04066118 -0.082369745 -0.2361787 -0.14525339 -0.03840645 -0.15193407 0.08430761 0.023716517 -0.25067502 0.121633485 0.03190113 -0.20304564 -0.10907184 -0.118013866 0.17019908 0.163075 -0.11166005 -0.02444861 0.14390135 0.081157096 0.0117359795 0.012308391 -0.10928186 0.10145074 -0.000982423 0.019932097 0.14121592 -0.17870367 0.11785838 0.03446463 0.08592074 0.15499939 0.10282873 -0.024626754 0.07852316 -0.19329974 0.15214518 0.06755009 0.070567675 -0.17419542 0.08065816 -0.15445963 -0.025509458 -0.047176883 -0.013080089 -0.19680463
136 -0.118968375 -0.076534234 -0.29136625 0.005844919 0.12978382 0.088326864 0.021857822 0.069886334 0.11815696 0.059614196 -0.10540188 0.002451998 0.08812944 0.10087916 -0.109985486 0.06800721 -0.04962532 0.008768371 0.17863274 -0.0005150488 -0.028814785 0.009208778 0.08938448 -0.3078578 0.058610585 0.10593005 -0.2505613 -0.087858826 0.23708005 -0.216115 -0.07545379 0.10293529 0.22443555 -0.03854676 -0.05904442 -0.10844193 -0.10983434 0.06818794 -0.11213858 0.1499326 -0.068632826 0.05460127 0.09401052 -0.025947502 -0.020289944 -0.22753729 0.1393387 -0.08311858 0.02023095 0.10904866 0.073656164 0.21448907 0.091621265 -0.06550381 0.14090674 -0.18426414 0.02870593 0.022679523 -0.0064056534 -0.029985387 0.029401982 0.21468112 -0.028934216 -0.25375742
138 0.0018016865 -0.07184208 -0.090968035 0.046370853 -0.0662716 0.23409319 0.19150846 -0.016302932 0.012208913 -0.02528792 0.0283878 0.11368611 0.15909013 -0.06889506 0.040549014 -0.20883904 -0.11819193 0.2178474 -0.053283893 -0.0609163 -0.061098523 -0.14559603 -0.14273952 -0.26911065 0.14186239 -0.045935765 -0.11149753 -0.17821062 0.17834525 -0.146839 -0.05029428 -0.018434005 0.24347946 0.0014590207 0.09716594 -0.13599607 -0.039291944 0.052500255 -0.04893574 0.3236375 0.053390488 -0.0523559 0.09229096 0.05083042 0.086742595 -0.13629447 0.060422152 -0.021882756 -0.057675734 0.11122048 0.0702737 0.1354625 0.14969777 -0.20289296 0.086353734 -0.104011804 0.078615636 -0.11246559 -0.11153505 -0.016956082 -0.19517349 0.08137301 -0.13638029 -0.16968098
139 -0.07215811 0.011584622 -0.07649526 0.15554245 -0.020264152 -0.13856886 -0.056861162 -0.05489716 0.05784011 0.074770585 0.09188284 0.08312954 0.086612016 0.06215141 0.18567173 0.0071102926 -0.07082618 0.18042691 0.1365449 -0.028025001 0.0059085 -0.05263622 -0.04100118 0.09954077 0.11677899 -0.0567094 -0.28571758 -0.01761494 0.3522111 -0.010725746 -0.011865062 -0.0076904916 0.13160947 0.05430423 0.03205446 0.04948467 0.16656719 0.08313489 0.07480969 0.21741375 -0.075447015 0.12022248 -0.13954085 -0.0578547 -0.006843124 -0.1837778 0.1071454 -0.0058323443 0.050439376 -0.11296002 -0.0438738 0.14826764 0.14591615 -0.13677509 0.3536521 -0.08248684 0.061368607 0.0113345105 0.0166889 0.31872985 -0.105025455 0.15169957 0.032366097 0.1500384
398 0.0145270275 -0.05090398 -0.112172194 0.15703884 -0.09048393 0.1342361 -0.015378897 0.055758007 0.027198924 0.018536657 0.064687714 0.16532704 0.1182802 0.08914884 -0.089125305 -0.006757091 0.040445164 -0.092336915 0.12229904 -0.10459046 0.02895764 0.025816625 0.023574332 -0.15797731 0.25611833 0.12645562 -0.1928207 -0.15231659 0.3212373 -0.22445202 -0.0022462076 0.07300372 0.22230445 0.028076572 0.123683415 -0.06126551 -0.060482267 0.109910905 -0.09894189 0.01788784 -0.0057846485 0.06443116 -0.11228736 0.13509342 -0.017236708 -0.19687964 0.11704022 -0.15207787 -0.0029810166 -0.0093573565 0.042388313 0.15870811 -0.04126136 -0.06720438 0.28872353 0.01885394 0.029279763 -0.16730742 0.04824131 0.13453993 -0.20654854 0.2981479 0.0063320105 -0.00015539929
143 0.22333688 -0.15591672 -0.11242888 -0.009750247 0.0039339783 0.1272901 -0.0048188074 -0.16917115 -0.057537045 0.15452927 0.107319154 0.078612745 0.13029832 0.17805707 0.28218886 0.10687922 -7.895659e-05 -0.013893021 0.15803291 0.08095142 0.19651532 0.028818175 0.050556216 -0.1609745 0.12997954 -0.14352962 0.01963286 0.1244019 0.1783567 -0.15940936 -0.049182173 -0.1455955 0.01938029 0.017327037 -0.072161414 -0.14253241 -0.05270962 0.04479943 -0.13052693 0.09790902 -0.09611848 0.04739126 -0.08788558 -0.14891015 0.12131802 -0.11637538 0.18922089 -0.17274533 0.011045039 -0.033122495 -0.10735306 0.24298914 -0.06955265 -0.20930082 0.070766024 -0.09381365 0.16993076 -0.05269694 -0.14278302 0.054754347 0.058016893 -0.080392055 -0.21384643 -0.10964813
146 -0.091025144 -0.0011781653 -0.08903202 0.14132535 -0.0051489766 0.12253357 0.044091918 0.0023815911 0.042606585 -0.07722921 0.05635077 0.08773009 0.33167246 -0.0447975 0.029297348 -0.17129129 -0.08377712 0.07843532 0.13201524 -0.042009912 -0.09957832 0.0926168 -0.08812782 -0.23892517 0.112684794 -0.048606247 -0.04617076 0.042635813 0.21509002 -0.32874432 0.08160946 -0.017876647 0.037320107 -0.055983998 -0.007636095 -0.14070298 0.029425796 0.0565278 0.1641758 0.11982495 -0.086383685 -0.106515296 0.011273646 0.07348989 0.18931156 -0.20752253 -0.0013718267 -0.1322071 0.0735202 0.23564267 -0.00047240412 0.062547766 0.029602159 -0.074741855 0.3289441 0.015760735 0.22387598 -0.06391633 -0.077833876 0.0034761296 -0.14349252 -0.004619792 -0.17759424 -0.0852042
149 0.086006194 -0.10056037 -0.12330415 0.14920875 -0.08010838 0.23317179 -0.029840434 0.030999586 -0.005818152 0.05731439 0.120998226 0.061676938 0.23910473 0.16000602 -0.074691206 -0.20440798 -0.043520212 -0.011826341 0.0076965224 -0.039270878 -0.04705596 -0.10555558 -0.102043055 -0.12991072 0.2905199 0.19133183 -0.024778886 -0.20178643 0.08418937 -0.007276963 -0.13413359 -0.02979582 0.11817829 -0.092758976 0.10668298 -0.26901254 0.11793445 0.0028695078 0.14927858 0.19085954 0.071563445 0.026180012 0.11614889 -0.03880058 0.2017811 -0.19328019 -0.1276014 -0.14487822 0.036434878 0.12049791 -0.12987001 0.11854748 0.043820508 -0.012818496 0.1111573 -0.07982933 0.11166339 -0.2676259 0.062278964 0.09382188 -0.04037579 0.03487029 0.008379624 -0.124417245
151 -0.12800975 -0.04791385 -0.016454382 0.003587599 0.08986444 0.13930897 0.16299587 0.08636957 0.15223905 0.034186292 -0.11770928 0.107571244 0.21131611 0.09736907 -0.021567522 -0.15654695 0.057717998 0.16415605 0.15576069 0.00955829 -0.03431143 -0.0737012 -0.07971099 -0.09452688 0.19680043 -0.014743017 -0.10879027 -0.089533776 0.24909309 -0.05313283 -0.18072172 0.06193171 0.1030409 -0.025106698 0.19306101 -0.18945129 0.022479244 0.09591405 0.01957558 0.022954293 0.11172079 -0.024031665 -0.04275135 -0.12921779 0.14639018 -0.18854702 0.03818465 -0.05315103 0.046449546 0.21487485 -0.07013757 0.072016835 0.22270289 -0.17238896 0.13599668 -0.059297632 0.2844463 -0.11142633 -0.104515135 0.07417839 -0.15448509 0.21017992 -0.14887998 -0.079728596
152 0.051500168 -0.06097184 0.050899327 0.13629788 0.0068072104 0.19360018 0.015275624 -0.023245271 0.104288474 0.120731235 -0.13356872 -0.017168568 0.059595123 0.069212094 0.1178267 0.086846 0.106660716 0.052199036 0.12987866 0.16203481 0.13960767 -0.027518287 0.057433303 -0.1276251 -0.030335493 0.009491002 -0.1579467 -0.1635303 -0.08250981 0.15794647 -0.18781018 -0.12898372 0.035844598 0.13765474 0.072526604 -0.18298616 0.10248507 0.14440651 0.058952983 0.32130155 0.15163086 0.0729624 0.1204976 -0.0456463 0.12571049 -0.015145278 -0.1615966 -0.2862433 -0.23035395 0.15011221 0.051533956 -0.049110748 -0.22552164 0.01601077 -0.0744672 0.015799299 0.16756976 -0.23183526 -0.022902623 -0.08791881 -0.117684975 0.069500804 -0.12207047 0.010029325
154 0.06782046 -0.069110796 -0.14039475 -0.014768761 -0.018887548 -0.046185456 0.11957057 0.060340516 -0.0029398724 0.17209396 -0.17282821 0.18047793 0.076770045 0.09818294 -0.131449 0.01751551 0.11140951 0.09193561 0.20930469 -0.12970077 0.10312775 -0.09704486 -0.14437892 -0.006007189 0.028527075 -0.035391178 -0.22008027 -0.10344492 0.20260237 -0.19997348 -0.08625001 -0.15055376 -0.031544622 0.1316472 0.084788054 -0.044874754 0.03786848 0.09793872 -0.03478917 0.18814331 -0.14131546 0.068203405 -0.13289353 0.11597796 0.028387869 -0.18676575 0.1587647 -0.14204527 0.0074282344 -0.06612593 -0.0046794713 0.14254364 -0.0632237 0.0014639429 0.26607612 -0.04574019 0.024157183 -0.22323246 -0.036626372 0.0965021 -0.14941089 0.13104315 -0.25435525 -0.2267614
155 0.058386244 0.04629205 -0.05672035 0.23731802 -0.03002824 0.05535267 -0.09552995 -0.11494989 0.13437763 0.27421328 0.121735215 0.15122536 0.042004623 0.005660376 0.09490523 -0.04050412 0.07381645 0.034541152 0.0968299 -0.003160548 0.11143955 0.035750028 0.10587234 -0.04496918 0.07950458 -0.05420703 0.09329515 -0.21626669 0.053955223 0.26009393 0.03926272 -0.062500164 0.07575916 0.23202111 0.06051491 0.09832237 -0.08568186 -0.011676008 0.25000426 0.26227427 0.13232002 0.016235301 0.07779578 -0.1412298 0.1190351 -0.04880916 0.05885577 -0.11366885 -0.13064036 -0.086379126 0.19146268 0.16246396 0.031132776 -0.035232242 0.04576533 -0.12302087 -0.05588789 -0.26620218 -0.2006379 -0.024714615 -0.26174912 0.028767101 -0.021501238 0.038368013
157 -0.09692215 0.09885247 -0.07555849 0.026013998 0.018704118 -0.077601835 0.162417 0.2115992 0.14015388 -0.03452678 0.03923311 0.04379602 -0.014542605 0.029882317 -0.12208186 -0.1365741 0.025101135 0.34846663 0.08428151 -0.023391569 -0.05508474 -0.05469342 -0.08496309 -0.08536212 0.29580873 0.057858683 -0.145293 -0.068817265 0.19453679 -0.032205075 0.06413957 -0.07860148 0.112068 0.07236202 0.09630649 -0.19148827 0.09456583 0.12680155 0.017597932 0.06005052 -0.032388132 -0.019757468 0.08064308 -0.083654895 0.10317646 -0.07997227 0.21172263 -0.09853047 0.16183557 -0.0007594744 -0.068474926 0.1368479 0.08869604 0.060952142 0.1791961 -0.010249546 0.24799776 -0.16462615 -0.2142068 0.063425325 -0.02886038 0.3161788 -0.09953728 -0.006286458
161 0.076508634 0.0802215 -0.08143979 0.21792255 -0.034806896 0.15384641 0.1887325 0.05288668 0.15015447 0.059170146 -0.03276966 0.015870906 0.29851574 -0.052662663 0.030246306 -0.145066 0.08763596 0.07869043 0.053661957 -0.15309304 -0.0604927 -0.032181792 0.018885855 -0.11080827 0.17243525 0.017737659 -0.19554688 0.046934348 0.22411367 -0.2551659 -0.014652772 -0.11105519 -0.0021230173 0.1904087 0.067448966 0.035039242 0.12885268 0.18056995 0.07707889 0.16667795 -0.03888249 0.07376395 0.024226153 -0.08446454 0.05746879 -0.18660003 0.10762573 0.10314003 0.007603219 0.15357687 0.027712302 0.13080454 0.09639089 0.018760715 0.30633602 -0.13313223 0.09800334 -0.20948467 -0.053292934 -0.016400378 -0.18569595 0.08892211 -0.016001573 -0.10592284
172 0.13119328 0.008277603 -0.19894925 0.13840258 -0.012481074 0.19449972 -0.07707568 -0.10633068 0.11690222 0.24316351 -0.25793198 0.20743555 0.118731506 0.21071805 0.15742087 0.06956282 -0.15534069 0.14742097 0.1252662 0.08467764 -0.07455346 0.04724651 0.16216531 -0.17556456 0.04849646 -0.04401343 -0.068131484 0.23000483 0.015924728 -0.11417444 -0.20080696 0.0035489767 0.09317132 -0.09631846 -0.03311882 -0.057663247 -0.073629 -0.07767167 0.050963618 0.14727668 0.079406284 -0.029098563 0.05097556 0.059276335 0.053126227 0.0015881062 0.14305493 0.109635174 0.16314656 0.108259805 -0.09765251 0.05197424 -0.06589443 -0.22802673 0.15019333 -0.036326673 0.20818402 -0.14780033 -0.16212797 -0.054973703 -0.0878417 0.0030680173 0.074276365 -0.06294012
173 0.098698296 0.12757847 -0.077767044 0.093589045 0.059585277 -0.025869163 0.032619886 0.009915222 0.11424077 0.16328073 -0.046758536 0.05312809 0.04789497 0.11727955 0.30899945 0.046147518 -0.08518736 -0.033341285 0.01996 0.21964051 -0.14491884 -0.13118577 0.09574393 -0.22797523 0.056342334 -0.19996324 -0.2591564 0.21232451 0.0522337 -0.11741606 -0.026684135 -0.0572462 0.031457983 -0.052590128 0.031790867 0.05044937 -0.049383774 0.1092206 0.020334868 0.12779191 0.06699346 0.198652 -0.16705471 -0.12287593 0.12920761 -0.116273805 0.21414928 0.07109469 -0.13025375 0.058816664 0.15217632 0.13418038 -0.06533966 -0.14291295 0.24135461 -0.009850057 0.027788322 -0.047768928 -0.22235082 -0.15056598 0.019490879 0.10149832 -0.1355899 -0.088195644
174 0.008531094 -0.07447014 -0.18443255 0.08694896 -0.057633217 0.123581566 -0.060654525 -0.18980674 -0.08812677 0.13849922 -0.1097012 -0.10586815 0.30644938 -0.06005208 0.20792279 -0.06495444 0.053006653 0.105203494 0.043969624 -0.18168166 -0.09280267 -0.12018176 -0.18444648 -0.12401087 -0.10999222 -0.11223631 0.032127436 -0.09839128 0.12988845 0.11053541 -0.032010175 0.07760593 -0.001797034 -0.024697345 0.10578847 -0.11410135 0.20018122 -0.029559324 0.08581041 0.067095436 0.15547426 0.077734575 0.032654274 0.027442181 0.15270643 -0.019090025 -0.10417764 -0.109017625 -0.24976403 0.15968503 -0.054815937 -0.14178029 0.04088649 -0.2670455 0.14476575 -0.05202095 0.16950326 0.01715509 -0.2902676 0.059335597 -0.07638402 0.033285484 -0.036096174 -0.13324533
176 -0.08545374 -0.09233791 -0.057686348 0.033064898 -0.14341205 -0.07882511 0.030109946 -0.03933295 -0.072270304 0.16419652 0.0018727646 0.023897246 0.17799664 0.09042154 -0.04448946 -0.01451596 0.023430234 0.09032591 0.021106139 0.09590588 -0.19741978 0.079282574 0.03036372 -0.08472622 -0.004823039 0.181705 -0.102331534 -0.0050838403 0.08688174 -0.031388614 0.03790045 0.09206554 -0.105489716 0.17191297 -0.15247454 -0.03621836 0.096058205 0.22051017 -0.19980302 0.19658548 -0.26864812 0.18116589 0.05703548 0.07619441 0.011724314 -0.02616611 0.12923373 -0.167539 0.051471636 0.07970979 0.1233688 0.07293463 -0.14859557 -0.06162404 0.1804437 -0.00435568 0.2081306 -0.0078111556 0.043850042 0.15239139 -0.15834723 0.340626 -0.23828904 -0.16217786
177 -0.07641239 0.021149626 -0.15795732 -0.057871934 0.09831113 0.03420067 0.13554057 0.0481092 0.14492978 -0.046141557 -0.1972313 0.17789502 0.10091853 -0.049530055 0.08509137 -0.061810736 0.09835297 0.27539635 0.124199845 -0.08529462 -0.045392346 -0.057563208 -0.14937529 -0.1716272 0.20677893 -0.058021523 -0.11086304 -0.08302952 0.16824698 -0.035399076 0.03168321 0.014816111 0.12736957 -0.1423001 0.13340254 -0.16768225 0.115419455 0.09201417 0.121502124 0.040146474 0.18594277 -0.061313868 0.08999661 -0.1744506 0.16486947 -0.22977401 0.07153241 -0.09839073 -0.0042355717 -0.00028694537 0.046834286 0.18099916 0.0881454 -0.085550524 0.28963888 -0.0081057735 0.09252393 -0.12747183 -0.1982831 -0.008972314 -0.07889885 0.17229034 -0.048171334 -0.16253762
