500 64
0 -0.0054408587 -0.006346158 -0.00021946833 -0.006792248 0.004677134 0.0015021123 0.0060247313 0.0014330368 -3.175123e-05 -0.005707312 0.0012851451 0.0007635534 0.00027386725 -0.0038821227 0.003350652 0.0010348052 0.0026214684 0.0070499196 0.006897671 -0.006524015 -0.006489111 -0.0070175137 -0.0013073648 0.006907004 0.0005079011 -0.0020441934 0.0019629903 0.0029760955 -0.002968156 0.006231961 -0.0011011399 0.0060436213 0.0040459638 -0.00061139214 0.0008559224 0.004529623 -0.0030670867 -0.00032966264 0.0053011007 -0.00295517 -0.0017646757 -0.004334906 -0.0067244912 0.0070096436 -0.00034594486 0.0011615132 -0.0010043341 0.0048397444 0.0035408249 0.005016173 0.0015678683 0.007511406 0.00744253 -0.0066359835 0.003051821 0.0035090928 -0.004921835 -0.004453624 -0.0043832366 0.0073480704 0.0072660074 -0.0027828948 0.0066905553 0.0007037923
1 -0.0024343699 0.0015361393 -0.0022778786 -0.0052204514 0.0027884108 0.005157072 -0.006224092 0.003982729 0.007147404 -0.000417547 0.0049224305 -0.0004497695 -0.0066156336 -0.004662757 0.004689957 0.0006820223 -0.007394579 0.0060041 -0.0007381798 0.004675893 0.0013723772 0.0046771183 -0.0027748535 -0.0044900537 0.0036679711 0.002207151 0.004218727 0.0034532286 0.0029104871 -0.0040784036 -0.004995495 -0.00688125 -0.002419201 0.0030478365 0.0023099491 -0.002762049 0.0006946412 0.0053958036 0.004835051 0.0007183136 0.0070150783 0.0037266654 0.0043466594 -0.001533238 -0.00094377 -0.0036521642 0.0006869453 0.0055684936 0.002905225 0.006139025 0.007455048 -0.0043712445 0.0031473653 -0.0031616979 0.005405005 0.005069328 0.0026824628 0.0043891887 0.0011108143 0.0010021811 0.004360842 0.002144972 -0.00039427073 0.0068417634
2 -0.006665461 -0.0028725893 -0.004387941 0.0013195382 0.0059802546 0.007373991 -0.0027675899 -0.0047005527 0.0002578975 -0.005455446 -0.004678909 -0.0075615826 0.005498903 0.0056182747 0.0033301716 -0.0012937349 -0.0022111728 0.0068125837 0.0038547248 0.007446188 -0.004714969 -0.0016288108 0.0024533186 0.0005077103 -0.0035028628 -0.006415727 -0.0018010105 -0.0050028665 0.0031787618 -0.0008552607 0.003066157 0.0018448017 0.0016008365 -0.0036148762 -0.006776374 -0.006500821 -0.005544224 0.000965059 0.003020301 -0.0020161325 -0.004379371 -0.00078178354 -0.0041533974 -0.002121433 0.0074674557 -0.0028674873 -0.004154174 0.006653366 0.0021509035 0.0043015373 0.00571693 -0.00365324 0.004127604 -0.0066362983 -0.007518501 6.6021974e-05 0.007747139 0.0012631462 0.0024950309 -0.0057646013 0.0028068272 -0.00181005 0.0024855349 -0.0023293819
6 -0.00011271955 -0.0070653036 0.0027715855 -0.0048807585 -0.005053943 -0.006720557 0.0030153664 -0.0028534834 -0.00064295914 0.0013297894 -0.0049472568 -0.005989476 0.0063117463 -0.0072392817 -0.0046902583 -0.006974936 0.0052616927 0.004613644 -0.0068452796 0.00756796 -0.0007141535 -0.0046246867 0.005369549 0.0024680828 -0.0008412051 0.003382394 0.0059980243 -0.0063740374 -0.003524661 0.003311473 0.0038053258 0.0063765272 -0.0045400434 0.0063999775 0.0036144743 -0.00018113622 0.00049799355 -0.002886935 -0.0058017722 0.0015015657 -0.0071509103 0.00532863 0.002019701 -0.0023776572 0.0061742943 -0.0011447142 0.0064327926 -0.002090114 -0.001532451 0.0048862817 -0.0006465338 -0.0049989996 -0.00656615 0.0012044057 0.0043586795 0.006058152 0.0037560945 0.0077770925 -0.0044284766 -0.00089583365 0.0027471085 0.004003729 0.0028550967 -0.0068533802
5 -0.006676617 0.0018388988 -0.004292269 -0.0012688461 -0.0044446867 -0.007018149 0.0043907105 -0.0030682532 0.0066317017 0.007362284 0.0008422707 -0.0032092077 -0.0017374887 2.3360748e-05 0.002586771 0.0056787236 0.0011841963 -0.0073507857 -0.0022905192 -0.0015330459 -0.00667331 0.0048725605 -0.0020525095 -0.0047052503 -0.003966281 -0.004363323 -0.0057363445 -0.00505644 -0.0070615173 0.0043804576 -0.0029878353 0.0026285811 0.007082233 -0.0077382512 -0.0033754508 0.0062030856 0.0020607745 0.00056799495 -0.004011064 0.0027341377 -0.004180818 0.0023087123 0.003874496 -0.005337526 0.003190677 -0.0031025761 -0.005507886 -0.0012370239 -0.0069727176 0.007294206 -0.0015266786 0.0053369403 0.0057034856 -0.0016954038 -0.004895266 -0.0006720734 -0.0040682703 -0.006023082 0.0053145094 0.0070556533 -0.0066962163 0.0049647093 0.0027479692 0.0044028927
7 0.0069998326 -0.0017102453 0.0015640024 -0.0074133924 -0.0023314466 -0.0054914835 0.0017515427 0.005211108 -0.005522577 0.0013207688 0.0023676215 0.0035197397 -0.00497293 0.0008697794 0.0003624023 0.0076395175 -0.004942703 0.0037695225 -0.00030091344 0.0047176275 0.0028748782 -0.0071896953 -0.0075608892 -0.0026175764 -0.0020203094 -0.0045583383 -0.0055460553 0.0018757132 0.001171632 -0.0052405 0.0008242265 -0.0042355414 -0.006059707 -0.0032057907 -0.0076366263 0.006010462 0.004042575 -0.006984637 0.00069945736 0.0070153736 -0.0010358907 0.0076577314 0.0061643715 0.007629649 0.0018390841 0.0036235696 0.0023012594 0.0016028957 -0.0060626324 0.0050286604 -0.002824917 -0.00027745744 -0.007179768 -0.007774001 0.003479021 -0.006626727 0.005224098 0.004622695 -0.0020992206 0.0039769276 0.0015194028 -0.005474681 0.0048805242 -0.0037543648
20 0.0021306546 -0.005141588 0.0075724144 -0.0025462888 0.0044251056 0.0040118964 -0.0044998466 0.006252735 -0.006524538 -0.0024022225 0.0032866045 -0.0006821204 -0.002571772 0.0077493684 0.005813634 -0.00489914 -0.0020369214 -0.0027276552 0.003778927 -0.0015272388 0.0029733567 0.0004587052 0.007205725 0.00439885 0.00074174267 0.00613485 0.003444608 0.0029086112 0.004457599 0.004028331 -0.0043296884 -0.0076242313 -0.0026516123 -0.0004299787 -0.0012831145 -0.00073272234 -0.0068222936 -0.00040101493 0.0042863595 -0.005993443 0.00036545965 0.0041988157 -0.0050161295 -0.0038534633 -0.0069211116 -0.0020146514 0.0050439565 0.0035354428 0.004221762 -0.0065388456 -0.00039843752 0.0061256164 0.007004835 -0.007273651 -0.007625539 -0.0069189556 0.005967703 -0.005695503 0.00681157 0.0009403377 0.005327546 -0.0022242046 -0.0014318667 -0.0072967056
17 0.006930095 -0.004576535 -0.0023067947 0.0072175427 0.0067476276 0.0031184822 -0.0014860062 -0.005257678 0.0069660307 -0.0008649336 0.0033421265 -0.0011663586 0.0066033984 0.0029173905 -0.0059920503 0.0022624237 0.0075016245 0.004078858 0.0009840254 0.0070431065 -0.0028580255 0.0057456773 -0.004818768 -0.001579915 0.0069448305 0.0024576164 -0.005327755 -0.0025174671 0.0052435393 0.0064697466 0.00060626003 -0.0073496946 -0.006318566 0.0053687673 0.005233687 -0.0046291966 0.00079679507 -0.0046824547 -0.0020131888 -0.0045044883 -0.0035798452 -0.0066209016 -0.00391397 -0.007735586 -0.0053746738 0.0021654686 -0.0016962332 0.0051358314 -0.004890455 -0.002844198 0.0033693993 -0.0003206819 0.0051474734 -0.0055958237 -0.0007624036 0.003372386 0.0036823791 0.0005535926 -0.0037587292 0.00036116797 -0.0053488747 -0.007431331 0.0056141703 -0.0005043286
10 -0.00016612567 -0.006316714 0.0021028088 0.0077052526 0.001132431 0.004122782 -0.001304954 -0.0014602444 0.0030517369 -0.0016048589 0.0075384253 -0.0041740276 -0.0017370353 -0.0067163147 0.0036114908 -0.00750818 0.006556721 0.006797033 -0.0010432196 0.0076609543 -0.0006775206 -0.0019595113 -0.00076060963 0.00077907037 -0.003008066 0.0040983423 -3.3205433e-05 0.0077558677 -0.004617013 0.0068880883 0.005254949 -0.005027265 -0.006070872 -0.002943059 -0.0066159917 -0.002681464 0.0052336757 0.0036829566 -0.0016430243 -0.0032703977 -0.007426185 -0.0045347586 -0.00015556932 0.0035453031 -0.00013424082 0.0022888987 0.003878228 -0.0005155912 -0.0001404159 0.0035722787 -0.0016743054 0.0019076003 -0.005356042 0.0042538047 -0.0078003807 -0.0054074614 0.0003214368 -0.0038647635 -0.0058730836 0.0019712076 0.003178087 0.0075740563 -0.004895722 0.002043767
9 0.0017465394 -0.0052831075 -0.0064250724 -0.00561 -0.004845842 -0.0073759244 0.0043392805 -0.0025401504 0.0070681586 -0.002390884 -0.0035119904 0.005503293 -0.0063646645 0.0017053414 -0.0017770742 -0.0019675174 -0.006722322 2.9260766e-05 0.0053744954 0.0023679768 -0.0050277133 -0.005037452 0.0018386967 0.006808185 0.0037202851 0.004582551 -0.003847201 -0.0030774812 -0.0037890784 -0.007110997 0.0014123145 -0.0015624728 0.0029477607 0.0073506986 0.007093428 -0.0042637014 0.0046548704 -0.0016976066 -0.00077722676 -0.006895295 0.007694847 -0.0016066076 -0.006270282 -0.007545248 -0.004046144 0.003564281 -0.00015137285 0.007787369 0.001322434 -0.0058178655 -0.005004492 0.0022535063 -0.005900443 0.0027510945 0.0070791384 0.0026428695 0.0056098206 -0.0045921137 0.0073697953 0.005677351 -0.0064199646 -0.0031419345 0.0075433883 0.00075242104
11 -0.0029646861 0.0010103264 -0.0041192365 -0.0013367708 0.006206371 -0.0043348484 -0.005635717 0.00495996 -0.0072872424 -0.007130087 -0.0043885405 -0.0032619135 -0.0057161427 -0.00026230325 -0.004823024 0.003185587 0.0074613467 -0.00015410231 0.00018357552 0.003583346 0.00044035545 -0.0035928967 -0.007603142 0.0028905617 0.0060418183 -0.0048601218 -0.0018395509 -0.007082429 -0.0061576026 -0.006216128 0.004528672 0.0011052754 0.007572729 -0.005748704 0.0033062813 -0.0034850496 0.0015581847 -0.0008764328 0.0062618908 -0.00472536 -0.006102861 0.0058761016 -0.00096141855 0.001177326 0.003144951 -0.00662184 -0.0041717677 -0.0033140944 -0.0037900282 0.0011923915 -0.0057372516 0.0033301527 0.0019042238 0.0037941108 0.002365049 0.0038195008 0.0021545007 0.0012452524 0.007705269 0.004853637 0.0028333564 -0.0034073312 0.0064857854 -0.0060065957
4 0.003784314 0.0024433855 0.006984969 -0.002719428 0.004747764 0.0053309174 -0.0036166147 -0.00527887 -0.0010668205 0.0005028584 -0.0039043308 0.0033329069 -0.0017511618 0.0032866877 0.0027403496 0.005672408 0.0056171617 0.007062678 2.8599969e-05 -0.00034422075 -0.006673299 0.005661096 -0.002671956 0.0031810196 -0.002027402 -0.0009838638 0.007740097 0.0010844965 -0.002500702 -0.0003794081 -0.00037576826 0.002777384 0.0054209465 -0.003774654 0.0043010763 -0.00045053387 -0.00033748383 -0.003525447 -0.0037620093 0.0058820527 0.007355053 0.0032944246 -0.0013391298 -0.002886946 -0.0012819066 0.0037506341 0.0057865954 0.0015924651 -0.00305643 0.006584233 -0.0037402408 0.0022377926 0.002363627 0.002546176 0.002796946 -0.0010786385 0.006022068 0.0036460059 -0.001274909 0.0016575557 0.0073413136 0.00646252 0.00043174243 0.0011206575
14 -0.0048804493 0.00021854736 -0.00057955703 0.002688829 -0.0072516277 -0.001967063 0.001058716 0.0067197527 0.005762216 -0.006712017 -0.007252812 -0.0071247327 -0.005906796 0.0063628703 0.0070900405 0.0045977724 -0.0025758157 0.0011218635 -0.006873608 0.0035359142 0.0053504515 -0.006393673 0.0012395078 0.0067068688 -0.0044945814 0.0045370776 0.00055571704 -0.0046214694 -0.0015844516 -0.00516291 0.0027343864 0.0018370823 -0.0007977814 -0.0062082056 -0.0010316896 0.0065515996 0.0014491447 -0.0039934376 -0.0060665184 -0.007179746 0.00028808924 0.0067535215 -0.0014755755 -0.0024664665 0.0048962007 -0.0072801975 0.0016701219 0.0006819038 0.00075330614 0.0014747436 0.004314646 0.0018457794 -0.0049143094 0.0075096283 0.005041788 0.00026298282 0.0034681507 -0.004110203 -0.003880792 -0.0033090864 0.004212377 -0.0061534927 -0.00018950642 -0.0065198895
36 0.0013345721 0.00010521833 0.003916626 0.0007912397 0.0023990287 -0.0073118517 0.0030896177 -0.0041512735 -0.0054412214 0.00092849846 -0.0031740703 0.003286986 -0.0011625015 -0.004971297 0.0072095264 -0.004561015 -0.0026485138 0.00038192052 0.0037632685 0.007020408 -0.006884552 0.0050450824 0.005455404 0.0008342554 0.0071001356 -0.0014979539 0.00018577189 0.0023471946 0.0010460379 -0.005404467 0.0003647252 0.004696521 0.005363891 -0.007304254 -0.0045000524 0.0005433948 2.9080635e-05 -0.0073175747 -0.0075281486 0.0022163305 -0.0008242056 -0.0052982634 0.0027175108 -0.0018975476 -0.0018778201 0.0046091955 -0.0074408236 0.0008924834 0.004714977 -0.000502464 0.007287846 0.0020749003 0.00766332 -0.004290893 0.0045672543 0.000116476316 0.005846387 0.00020068558 0.007783412 0.0022861094 0.00053520163 0.0035044064 -0.0056735887 -0.005292808
16 -0.0049149003 0.007602233 -0.006940207 0.0017740608 0.0059224144 -0.0055260435 0.0024322153 0.004284435 0.0041123657 -0.0072933035 0.0042095687 -0.00323311 0.004641768 0.006509247 -0.004285598 0.0028617617 -0.0043640067 0.006018633 0.0023558594 0.0019646797 -0.00020893094 0.0020526976 0.0039531346 0.0045852736 -0.0013932514 -0.006740465 0.0046760463 0.002126268 -0.0069376184 -0.0019419712 -0.0006813411 -0.0022974885 0.0023913202 0.005892606 0.0050639967 -0.0057646404 -0.007446534 -0.0062215757 0.0062904507 -0.0014227898 0.0062900777 0.004037427 0.002141475 0.0024529141 -0.0042004073 -0.0069507095 -0.005164368 -0.0045266952 -0.005401153 -0.006482269 -0.0016302945 0.0077711716 0.002090454 0.0026383607 0.0036449314 -0.0069130384 0.007516732 -0.0063385344 0.001752651 -0.0033397528 0.0055012214 0.0076418333 0.004664229 -0.0056474274
13 -0.005350526 0.005314368 -0.0071783583 0.0073504825 0.0045035784 0.0036611068 0.0062017203 -0.001383536 -0.0006170318 -0.0030222693 -0.00020955772 0.0029047893 0.000109459084 -0.004062669 -0.003986398 -0.0010957918 0.0077355434 -0.0009110002 0.0021512222 -0.0048265755 -0.0021240609 -0.004568222 -0.0007113657 0.005999618 0.00037821912 0.0029967052 0.0062341583 -0.007626471 0.004813706 0.00050694065 0.0051997425 0.00078276795 0.00060781057 0.0044150795 0.0054951366 0.006637855 -0.0010457457 -0.0060838116 -0.004805302 -0.007727184 0.0010635516 0.0042825337 0.00072755065 0.00079268205 -0.0030526302 -0.006105829 -6.428166e-05 0.0037597707 0.0020505146 -0.0063178656 -0.007288069 -0.0047545307 0.0061968346 0.002877775 -0.0051573124 0.0071421415 -0.0025138338 0.0060917833 0.0007490939 -0.0042973775 0.0065568364 0.003502021 -0.0013045935 0.0044975886
3 -0.0020037084 -0.005585264 0.0018825716 -0.0006869031 -0.0055222437 0.0036649366 0.0047841924 0.003311989 -0.0014593848 0.005192461 -0.0017168148 0.0048103356 0.0035926346 -0.0014364966 0.00448192 -0.0041347276 -0.001227406 -0.0014334277 0.0039496 -0.0025761307 -0.0040607457 -0.0032491323 0.004820085 0.0072238375 -0.0059735985 -0.0055944235 0.007163844 -0.0055667954 -0.005270987 0.0028492606 0.004417874 0.0038287074 -0.006141916 -0.002005517 0.0070986953 -0.0007447619 0.0059592193 -0.0005953717 -0.004318395 -0.0020011873 0.0058224355 0.005956751 -0.0048193545 0.002096362 0.007469432 0.0011458246 0.005444001 -0.0006152214 0.0040999097 0.0019905907 -0.0016830964 0.0066588293 0.0047031757 0.0011543718 -0.007004236 -0.0016646772 0.0030532952 0.0035839863 -0.003403607 0.0051421574 -0.002441113 -0.002262649 0.003726441 0.0011169977
27 0.005599147 0.0074191703 0.00035532756 0.0018877205 -0.0073944484 -0.0056330566 -0.0027043517 -0.0047982386 0.0028460212 -0.0044889716 -0.0025741057 -0.0010540412 0.005818128 -0.0034582312 -0.0014741755 0.0046561267 0.004659833 -0.0076283207 0.002671276 -0.0024698619 -0.0044199587 -0.007099893 -0.0067708767 0.0073460606 -0.0038415468 0.00346925 0.0056158816 -0.004402406 0.0012618544 0.0021753798 -0.0069217808 0.0021174306 0.0076532387 0.0029292344 -0.00693287 -0.0042075105 0.0011944222 0.0027878224 0.0048625907 -7.8260106e-05 0.004909783 -0.0054551368 -0.0015434301 -7.741244e-05 0.0049670334 0.0005482262 -0.0031205695 0.0034821627 -0.0037849632 0.0015935004 0.0020520305 0.0032444266 0.00316106 -0.0028323557 0.00043568082 0.0019337845 -0.0065931957 -0.006559804 0.0016588261 0.0021755593 0.006887673 -0.003211129 -0.0075555914 -0.006149609
8 -0.0045226044 0.0033007727 -0.0017217009 -0.004169519 -0.002059544 0.006615412 -0.0058755404 0.0013768794 -0.0075511113 -0.0034191897 -0.0074073193 0.00027681072 0.0025191868 -0.005519277 -0.0058882316 -0.0003391218 0.0012794764 0.0029193275 -0.0053818757 0.00326126 0.0036452704 0.0049169194 -0.006005056 -0.0075838096 -0.005890944 0.0058759977 0.0072173257 -0.00030162715 -0.0011129817 -0.0043133446 0.00046172802 0.004034239 0.0013992365 -0.0009863748 -0.0030440164 0.002246644 0.007172432 -0.007121609 -0.0012525513 0.0072000017 -0.0037090466 0.0048812353 -0.0025958207 -0.0050787134 -0.005120739 0.006280138 -0.0068492526 -0.0024267999 0.005537391 -0.0067248587 0.007181897 0.0017221716 -0.0067907884 1.5697135e-05 -0.0069626914 0.0002497969 -0.006412929 -0.0004082369 0.0047022672 -0.00036055458 -0.00433689 -0.0016252146 0.0068130693 -0.003161482
18 0.0075540133 -0.0035344933 -0.0036379425 -0.00090090925 -0.0031838436 -0.00052505743 0.004601137 0.0028190478 0.0058358354 0.006628627 0.0021697446 0.004810514 0.0026717358 -0.005535107 0.005205494 0.0022989814 0.0021924567 -0.001823579 -5.9171456e-05 -0.0026937905 -0.006156336 0.0044548437 -0.0050958893 -0.0010118025 0.0027130502 -0.004458121 0.0058044204 -0.00080152793 -0.0062604006 0.0060101883 0.0025090561 -0.0004653174 0.007191223 -0.0060370704 0.0060854806 -0.007284366 0.0076154075 0.0025818844 -0.002055999 0.0069654835 -0.0076191295 -0.004591645 -0.0053256215 -0.0008199052 -0.0067958343 0.002124494 0.002536858 -0.0030079768 -0.001455263 0.006023549 0.003997523 0.007443249 -0.0017238358 0.0043184473 -0.0044146054 0.0041116285 -0.004292694 -0.0040436652 -0.00760511 -0.0007751142 0.00462365 -0.0034033558 -0.0057406207 -0.0065002656
19 -0.0074963304 0.005188391 0.0010458293 0.0039738663 0.0056517688 -0.0028389995 -0.0005819579 -0.0049260994 0.005799863 -0.004630612 -0.0075329468 -0.006051187 0.0056607174 0.0032317254 0.005704142 -0.004011697 -0.0063293874 -0.004545004 -0.0049471245 0.0067908373 -0.0019820652 -0.006603586 -0.00090357166 0.0016548007 0.0020122065 0.0034393216 0.0015282469 0.0027204647 0.0006476081 -0.004257206 0.0034613686 0.006129764 0.0055130906 -0.0072866287 -0.001451919 -0.0038081377 0.0038805797 0.00035806818 -0.004660909 -0.0057440526 -0.004972875 -0.00091448694 0.005802883 -0.00082320825 -0.002566951 -0.001048929 0.00466703 0.001464129 -0.0044025816 0.004596256 -0.0061744144 0.003747591 -0.0027855714 0.0039163665 0.001642843 0.0004989107 -0.0015383769 0.0050955205 0.004301617 0.003057576 0.0051933574 0.0048210137 -0.0062578893 -0.0035179043
21 0.0033373707 -0.005107773 0.0007004542 -0.0052852198 -0.0025107004 0.0065338877 -0.0064788046 0.00027609742 0.0028471851 -0.005565063 -0.002375649 -0.006667866 -0.0030528624 -4.3697517e-05 -0.0021629073 -0.0049495017 0.0003277357 -0.0018244755 -0.0068982863 0.005814954 -0.0046922145 -0.0064557963 0.0071490495 0.002623335 -0.005008098 0.0011034168 0.0027654343 -0.0044281622 0.004712753 0.003430593 -0.0035668644 0.006343968 -0.0046053804 -0.007030887 -0.0037281602 -0.007085926 0.005814536 -0.0044849357 0.0017719688 -0.0051353695 0.0048343292 -0.00044901087 0.0029318696 0.0061536822 -0.0030687854 -0.0039028896 -0.00096370466 0.0025799808 0.0040865256 -0.0014724031 0.004433482 0.0027344432 0.0076875268 -0.002220661 0.0028336719 0.0054503367 0.0022593956 -0.0032787202 0.002803885 0.0025642544 -0.0007645673 0.0016784006 -0.007150317 -0.0060774167
22 -0.002351368 -0.0051581576 0.0011329708 0.006151714 -0.0020211535 -0.00010350574 -0.002860638 0.0067544347 0.0033903602 -0.0057578273 0.0052864817 0.0060108085 -0.0077907704 0.00064371893 0.006626537 -0.005943135 0.0016291441 0.0047426336 0.00047961125 0.0069236844 0.0044044713 0.0054162345 -0.005833 -0.0025853436 -0.0036591212 -0.004679996 -0.0021952738 0.0044737863 -0.006716397 -0.0057847053 0.0032774399 0.0060897837 0.0063148206 -0.0046676775 0.0052677603 -0.00538709 0.005901282 -0.0015743681 -0.0069122408 0.002682106 0.0031924543 -0.0050859177 0.0042896294 -0.0055745067 0.0049598753 -0.0019608492 -0.00028695277 -0.004919727 -2.8454297e-05 -0.0012905846 0.001091221 0.00023374439 -0.0058900514 -0.0072717844 -0.004877413 0.003282855 -0.0052480837 -0.0069544176 0.0014939593 0.0016052308 -0.0066087223 0.00042059112 -0.0018888738 0.00654808
32 -0.0008987397 0.001881246 0.006732844 0.0044897916 -0.0033051022 -0.0052758493 -0.0012013902 0.0013663606 -0.0075698914 -0.007789057 -0.0050940556 0.005427854 0.0022809305 0.0031241719 0.002504296 0.007211066 -0.0074314126 -0.0022832735 0.0026447405 -0.0061070104 0.00276062 -0.0028484995 0.003754053 0.004876304 0.0077214977 -0.0014579021 -0.001742318 -0.0073405914 -0.0024834126 0.001312786 -1.5160432e-05 0.004494141 0.006345326 0.0062598847 -0.007638128 -0.002191811 -0.0038427627 -0.006771517 -0.0052531804 -0.004555251 -0.005194003 0.0044815494 -0.0063001635 0.003541522 -0.006889976 0.0029946931 -0.0029281862 0.0075018257 0.00540978 -0.0019561884 -0.006068389 -0.0033609818 0.006984662 0.0015884631 5.3242256e-05 0.0035212708 0.0068065613 -0.0032864292 0.0002722272 -0.006040763 -0.0023825576 0.0027149168 -0.007758912 0.0012297207
15 0.0032926877 -0.007657918 0.0026522097 0.0017262823 -0.0055099656 0.005403114 -0.0067470055 -0.0016657895 -0.0004709287 -0.0001693618 0.0062524513 0.004248119 0.006075281 -0.006924231 0.0012979072 -0.0020053813 0.0019153237 0.006506238 0.0038979445 0.004488185 0.0072345706 0.0022834055 -0.0023966837 -0.0033742716 -0.0034439324 -0.004378623 -0.0027147878 0.002170427 0.0002829218 -0.006690573 -0.007424462 -0.0072610844 0.0051738266 0.004928806 0.0013668729 0.0075005936 0.0044897744 -0.0064397245 0.0018423534 0.00037623508 -0.0041519664 -0.0073535796 0.0074270302 0.0065431837 0.006534877 0.0050648125 -0.0058856676 0.004611237 0.006565862 -0.0060582953 -0.004772986 -0.00018865046 0.005164364 0.0013554022 0.0067081503 0.0071880184 0.004129281 -0.0060642264 0.0018946816 -0.004872784 6.3518375e-05 -0.0052710907 -0.006690264 -0.004935929
37 0.00053760613 0.0052246894 -0.0070727435 -0.0050041997 -0.0042652097 -0.005225642 0.0009718532 -0.002795543 -0.00042131788 -0.003858606 0.00443782 -0.0059580393 -0.006147792 -0.0039753304 0.0015354935 0.006440131 0.002959614 -0.0067944406 0.0013782929 0.0025108585 0.006400534 0.0072881253 0.0029155775 -0.004191366 0.0034268594 0.0013963071 -0.0036385467 0.0024479004 0.0042363615 0.0062540714 0.0033399086 -0.0031662285 0.0032525414 -0.0048867464 -0.0037320994 -0.0059402417 0.0077141374 0.0024157881 0.0070230206 0.0033703565 -0.0045483457 0.0051177256 -0.0050123166 0.007214679 0.0039204676 -0.0047446885 -0.0061970204 0.00484023 0.0069224914 0.0006599454 -0.0013905026 0.0014032981 0.0039358675 0.0027686215 -0.0051991823 -0.004991893 0.0047987453 -0.00715236 0.006756771 -0.0028194005 0.007178535 -0.0053323405 -0.00023159536 -0.0057895775
12 0.0012863458 7.239987e-05 0.00012002133 -0.006117364 0.003350211 -0.006159711 -0.007761671 0.0066333995 0.007110552 -0.0015024455 0.00047694918 -0.004963459 0.004662366 0.004765256 -0.0007602187 0.006067619 -0.0048409933 -0.004936223 -0.0048941197 0.00058991165 -0.0031304935 0.0031532361 -0.0015660521 -0.00013884775 0.005923597 -0.0017700463 0.005213039 0.004727738 0.003982918 -0.0062090694 -0.004690438 0.0045980397 -0.006538273 0.0077240877 -0.0066541093 0.0038831136 -0.002199253 0.005502757 -0.002487969 0.004871995 -0.0029464772 -0.006968383 0.0031767895 0.00039308486 0.000907825 0.0034395554 -0.0050556967 -0.0014252812 -0.0016601991 -0.0056619165 -0.0060757273 -0.0059301434 0.0016455073 -0.0062488327 0.003993451 -0.006282192 0.0036977103 0.0007503119 -0.00667488 -0.0029558928 0.0061672083 -0.0032543764 0.0045349295 0.00289791
25 -0.004504403 0.006939042 -0.004230225 -0.0050723683 0.0010469316 0.0064207627 -0.0017694427 0.006971343 0.0035904152 0.004069004 -0.006284543 0.007505369 0.0006274274 0.0042202836 -0.0030588424 0.00091917795 -0.0071774963 0.0018314677 0.004593798 -0.0064914976 0.005563308 -0.002744426 -0.0037401211 0.0017824911 -0.0018310297 0.0037152865 0.0043903133 -0.0039282334 0.00087255833 0.0022569813 -0.0041279555 0.0075748307 0.0011239684 0.0057277805 -0.0010619175 0.0009525944 -0.004726121 0.0007545365 0.001282509 -0.0014176739 -0.0013341238 -0.0032940896 -0.0022709186 -0.0010709437 -0.004440538 -0.0034303933 -0.0015525474 0.00067328126 -0.0064874846 -0.00038830403 -0.004607234 -0.00028037673 -0.0049234326 -0.0073428145 -0.0008514337 -0.0050003016 0.0067919046 -0.004784873 -0.0028797342 -0.005318778 -0.00064690015 -0.0032257126 -0.006342288 -0.005765575
23 0.0036606311 -0.0063234707 -0.00043605483 -0.0054718326 0.0018734786 -0.0016415011 0.0031083315 0.002945928 0.004993671 0.0035826706 0.004687413 0.0011181287 -0.007687176 7.590952e-05 -0.0015092207 -0.005770933 -0.0055849967 0.007493636 0.0012152486 -0.0032783512 -0.0048520784 0.005341266 -0.0007249021 0.005553886 -0.0061765774 0.0048348056 -0.0013261355 0.0035167534 0.00088791724 0.0032775837 0.004029047 -0.0014455798 0.0077815405 -0.0035189358 0.00047190793 -0.0054946914 -0.0008585372 -0.0076179504 0.0068901363 -0.002647491 -0.006492573 0.0043983865 0.0058132955 0.0004857918 -0.0034905635 -0.0059549618 -0.0074268323 -0.0033309264 -0.0031739061 0.0055167414 -0.0040732077 0.0053923703 -0.004163349 0.00029172882 -0.0061844275 -0.0048279795 -0.0042617447 0.00551855 -0.0063815825 -0.007363424 -0.0022665295 0.0028466592 0.0046970826 -0.005097972
24 -0.00095698447 -0.007175838 0.0020375226 -0.0071585844 -0.0039433297 0.004129743 0.004743515 -0.007741357 0.0063903616 2.9705443e-06 0.0073385313 -0.0048295404 -0.006345774 -0.00437638 0.0047334037 -0.0019799303 0.0009201262 -0.0072014034 0.0007000705 -0.00078702864 -0.0036017827 0.0027867113 -0.0038431443 0.007233992 -0.0044484204 -0.0055271797 -0.003708339 -0.0047046253 -0.0074827652 -0.0006364074 -0.0054240203 0.0021800443 0.006884824 -0.00629499 0.0065005925 0.006892339 0.00014233885 0.005168836 0.0014315055 0.007732023 -0.005591849 0.0040918877 0.0052940324 -0.006937175 0.0046746503 0.007047662 -0.006436864 0.0069492636 -0.006484717 -0.0062941452 -0.007252795 0.0078046382 0.0068428004 0.007009132 0.00048545026 0.0025070652 -0.0064637233 -0.003742808 -0.0040658456 0.0030398865 -0.007713381 0.0018953657 0.0018128282 0.0056775487
51 0.0024768529 0.0031439406 -0.0050147553 -0.00024809883 0.0026481773 -0.0071101296 -0.0050363885 0.005135113 0.0059009697 0.0026129945 -0.0026858617 0.00397686 -0.002490304 -0.004224791 0.0010650463 -0.0077399397 0.0036926286 -0.0039498834 -0.0060771015 0.002920753 -0.0024457523 -0.004699392 -0.0073623946 -0.0014500155 0.003041472 -0.0057036825 -0.005682217 0.0014295109 -0.0051321383 -0.004158919 -0.0036896935 -0.0025433009 0.0028416805 -0.0059692785 -0.004055548 -0.0023866468 -0.00029457023 -0.0064600357 -0.00205215 -0.0010823858 0.0011981922 0.0017489551 8.5579166e-05 -0.004507553 0.002420057 -0.00187985 0.00050011533 0.006601971 -0.0059763775 -0.001613268 -0.0044316887 -0.0004083117 -0.0022389728 0.0032172126 0.0072430214 -0.004469695 0.0044646375 -0.0029400652 -0.0019770227 -0.007251604 -0.0027264338 -0.005577715 0.0039757467 -0.0013985973
40 0.0005036733 0.007563905 0.0062006596 0.0072328825 0.005413368 -0.004927331 0.0028423292 -0.005891491 0.0028457528 0.00294179 -0.002296669 -0.00010911555 -0.004324536 -0.005205749 -0.007235888 0.00159523 0.0059583937 -0.0075786784 -0.003809152 0.004671432 -0.0059057893 0.0015252079 -0.0020613044 0.0012049892 0.0077636573 0.006200893 0.0047999057 -0.00044418796 -0.0008004398 -0.0071091778 -0.0046037086 0.0016036615 -0.0040539424 -0.0068696747 -0.0062076356 -0.0026134772 -0.0075843153 -0.0024720782 0.0035441509 0.0014781134 0.0012617909 -0.0059549822 -0.005040129 -0.0068477686 0.0076214783 0.0015376383 -0.0058855233 0.00067810895 0.004637709 0.002863679 -0.004873146 0.0027743217 0.0068587693 0.006930331 0.0050520943 -0.0048555755 -0.005016647 0.007301667 0.0007000821 -0.0025112533 -0.005647245 -0.0058879643 -0.0074265753 -0.006602526
55 0.004973579 0.005284009 -0.0056608315 0.0032947918 0.003822303 0.00454363 -0.004578835 2.314755e-05 0.0036295168 0.00624519 0.0037746711 0.0041569155 0.0052011325 -0.0068603307 0.00083854195 0.0060258033 -0.0050995895 -0.0011336387 -0.0013817216 -0.0058775195 0.0014785366 0.0015324004 0.002519316 0.0027256422 0.0048913117 0.00624458 -0.0051825084 0.006031507 0.0003694169 -1.7841925e-05 -0.004154084 0.0013006089 0.0054859906 0.0019069089 -0.00096353446 0.0028341557 0.0032855053 0.0040901257 0.006663135 0.0053078653 0.002554115 -0.002881564 0.001982526 0.0018283114 0.00493657 0.0008252451 -0.0015672891 0.0028325561 -0.0056070085 -0.00089075795 -0.003130347 -0.0017031365 0.007773481 -0.0051752753 -0.0041978806 -0.0062682843 0.0014702545 -0.006032363 -0.0042029396 0.00036802905 0.0058482788 0.003818908 0.0030032324 -0.00576933
253 -0.0017148582 0.0011018477 -0.0013146515 -0.00768566 -0.0012244736 -0.0062226043 -0.0013086329 0.004091698 -0.0014886133 -0.002118335 0.005694808 0.0034354269 0.0072414633 0.0052294508 0.0027969687 -0.0043374537 -0.00683895 0.007479451 -0.00056265545 -0.00021785937 -0.0019877846 -0.005204946 -9.53911e-05 -0.0036255575 0.0054773833 0.0060339603 -0.0061080004 -0.0077653904 0.0029382303 0.0037131559 0.0040514222 -0.0034646424 -0.00037294318 -0.0016135203 -0.0024052395 -0.001461274 -0.0033769386 -0.0033048978 0.004585987 -0.002341748 -0.0015408796 0.0021771076 0.0054820115 -0.0042968737 -0.00033434588 0.00632116 0.00627367 0.0026811433 0.006223749 -0.0042012576 0.0025474397 0.002953361 0.0060074213 0.0051923776 0.0041040033 -0.0056479154 -0.006615482 -0.0065155444 -0.0031314713 -0.0071315304 -0.004087513 0.0034299514 0.0024687354 0.0031368264
33 -0.0077188956 0.0069304346 -0.0034534952 -0.0067809834 -0.0017761653 -0.0046197046 3.560131e-05 0.0008612113 -0.002052935 -0.0008115098 -0.006384086 0.0028489644 0.00718525 -0.00637039 0.0058370186 0.0037219515 0.0005513055 -0.0023278582 0.0021085693 0.0041374536 -0.004501392 0.006526713 -0.00095454813 0.0017291371 -0.0015417705 -0.006249023 0.0034858752 0.003963222 -0.0045465115 -0.0018774588 -0.0076962872 -0.0051195985 0.00750941 -0.0017928451 -0.006478412 -0.007055364 0.0002741511 0.00566616 0.0074847504 0.0026230274 0.0040163323 -0.0041375495 -0.0052554854 0.0064077396 -0.0051636416 -0.003567267 0.0017247114 0.003951167 -0.0069772713 0.0013280509 0.0062424205 0.0024943335 0.0014273139 -0.002110027 -0.0050155567 0.0073116813 0.003465037 0.000118031996 -0.0047205156 -0.006918069 -0.0060684504 -0.0035011873 0.002208542 -0.0032667944
30 -0.006044939 -0.005118925 0.00040119732 3.9750794e-05 -0.006012954 -0.0056855297 -0.0006933698 -0.0047311676 0.0024470454 -0.0028381092 0.006440409 -0.0034106383 -0.005243973 0.003662275 -0.0050118617 -0.0011775108 7.421152e-05 0.000542398 0.0028512143 0.0014708545 0.0074647483 0.004261619 0.0059252563 0.0020358001 0.0067978324 0.005734708 0.0075650383 -0.0068973717 0.006101953 -0.0033853694 -0.0040252693 -0.005397488 0.0033854314 0.0011063665 -0.0064636013 0.00015262216 0.0062797917 -0.0008911219 -0.006722354 -0.0071882945 -0.005129138 0.0039550974 -0.0059159193 -0.005655126 -0.0022645597 -0.00022175121 -0.0020238191 0.0064860387 0.0060550137 0.0062168045 -0.003091274 0.0004537464 -0.00057640445 -0.0059403246 -0.0004450334 0.005553375 -0.00688548 0.0016490826 0.0019370529 0.0047302404 -0.004204258 -0.0012372171 0.0017062065 0.0034872042
28 -0.00026494695 0.0029724059 0.0011483079 0.0026998774 -0.00029037884 -0.00722032 0.0066109314 0.0019991996 -0.003249957 -0.0040415297 -0.00540783 0.004990744 0.00039176905 -0.0015517196 0.006193652 -0.0071840263 -0.0010624853 0.0061352826 -0.0011907341 0.0001600207 0.0050894744 0.0029606032 -0.0028063692 -0.00504054 0.0035499728 -0.006453165 0.0047815763 -0.006353346 -0.0041488204 0.00644776 0.0072967918 0.005741925 -0.00026973555 0.0034318757 0.0037077512 -0.0017906493 0.000720211 -0.0075195185 0.0012886426 -0.0074866074 0.0016838526 -0.00083900726 0.0070120683 0.005850168 0.003818761 0.0016813774 0.004352849 0.0010081277 0.0038612864 -0.00082942605 -0.0027074167 -0.006607339 0.0050177434 0.0014540454 -0.0038822596 0.0016827176 0.0063050496 -0.00016312627 0.0069206054 0.0010510472 -0.0068321684 0.0057737087 -0.00045235342 -0.0041767918
26 -0.005142763 0.0065189768 0.0017646349 0.0068953764 -0.004524764 0.0065720906 0.004876797 0.0011424236 0.0010200032 -0.0068096328 -0.003878215 -0.0074302913 -0.0031247125 -0.005864568 -0.005692837 0.003348804 -0.005607581 0.0027758488 0.0031429399 0.0036781523 -0.0060092816 -0.0028123814 -0.0060693226 0.000697335 0.0034812815 0.0051665464 -0.0048499843 0.0033717656 -0.0033359686 -0.00025509254 -0.00058531866 -0.006647393 -0.0075423447 -0.0053612 -0.006745688 0.0037797976 -0.007275257 0.0010287106 0.0065471507 0.003886523 -0.0053232517 0.0048935274 -0.00048909953 0.0077552497 -0.0013559607 -0.0019690294 0.0040368484 -0.0072758505 -0.0015321057 0.00343756 -0.0018564983 0.0004750908 0.006568247 0.0009757158 0.00674318 -0.0025918884 -0.000853905 -0.0028866986 -0.002833921 0.0017208376 -0.005377903 -0.006011798 -0.0039997757 0.0014585486
41 -0.0011434716 -0.0022998727 0.0054846676 0.0031840934 -0.0041570407 -0.0012947384 0.0038552093 -0.0004254642 0.00032265365 -0.0013218877 0.0005250243 0.0032855757 -0.0005885571 -0.0059984196 -0.0030594089 -0.0064058863 -0.00011384496 0.0020997375 0.004715915 -0.004061511 0.003942062 -0.006486221 0.0015403169 0.001546097 -0.0027103715 0.005334156 0.0052322666 -0.0014333354 0.0069937147 -0.0032188606 0.0012287355 -0.00067031925 0.00030794455 0.0021297524 -0.00012154318 -0.0013204388 -0.0067708637 -0.0039729387 0.0022077982 0.0009164467 0.006826756 -0.0072589647 -0.004152635 0.004083273 0.0013002392 0.000357164 -0.00030508477 -0.0067713647 0.004394804 -0.005864385 0.0064469744 0.005045074 0.00048174165 0.0012754947 0.00053193973 0.005201008 -0.007062846 -0.002398084 0.0015104393 0.0059942002 0.006638506 0.005993171 -0.0008699884 -0.0048741167
44 0.0012855278 0.0009964468 -0.0071966453 -0.003993788 0.00039908127 0.0020701063 0.004748964 -0.0001008737 -0.0005703006 0.0056335125 -0.0027560496 0.0013401421 -0.0028758366 0.006054528 0.0066648414 -0.0016186244 -0.0012081161 0.0042227 0.005785764 0.00058961025 -0.0048661474 -0.0031130305 0.006110144 -0.0055137607 0.0027735762 0.0054764664 -0.0056881667 0.007501883 0.0048532914 0.0035374903 -0.0072461427 -0.0011772905 -0.0018787439 -0.006433511 -0.0073692696 0.004540027 0.006301635 0.003726129 -0.0030205168 -0.0067531243 -0.006562076 -0.0012110593 0.0035741422 0.0059916438 0.0017955119 -0.0015957672 -0.0038120635 -0.0056673805 0.0031855823 -0.0031232794 0.0031587488 0.006451851 -0.0035963142 0.0057605924 -0.0068465564 -0.0060318895 0.0012033317 0.0024372116 0.0075674634 -0.0017966504 0.007016937 0.0009594553 0.00641952 0.0063248794
39 -0.0028269973 -0.0070410245 0.0035270173 -0.0030129722 0.0077405586 0.00018271447 -0.004095521 -0.0057754507 0.0050318656 0.005682218 0.001422154 0.005407947 0.0030217953 0.004567508 0.0015818089 -0.002787614 -0.0019189267 0.006126623 -0.0019975975 -0.003356491 -0.0037490171 -0.0006703277 0.0028994023 -0.006928881 -0.0035445297 -0.0041293055 -0.0037522684 -0.0042687594 -0.0028506466 -0.0077728815 -0.0008808253 -0.0041731345 -0.0035739902 -0.0068897903 -0.0024785912 -0.0052653197 0.00067771797 0.0024735115 -0.0065395394 0.005530355 -0.0025042593 0.0032451933 0.002341923 0.0059218616 -0.0017114375 0.0018656803 -0.0043574474 -0.006137238 -0.0016598428 0.005935073 -0.0026214877 -0.0010900623 0.0064973715 0.004730769 -0.0042593754 0.007716232 0.0005539356 0.0015854732 0.0019801457 0.00295381 0.006866585 -0.006880337 0.0008161086 -0.00704291
29 0.00553482 -0.00530685 -0.004293425 0.003201444 -0.005203076 -0.004875977 -0.005944316 -0.007689266 0.002573846 0.0016840677 -0.0012874773 0.002690069 0.0012768742 -0.002955461 -0.00032970164 -0.00096590177 -0.0048336866 0.003732602 -0.0030430004 -0.002900917 0.0063552675 -0.006473338 0.0034818477 0.0016028748 -0.00086357363 -0.002812607 0.007372866 -0.005669768 0.0019437348 0.0071149855 0.002601667 -0.004632248 0.0007106898 0.007741357 -0.00056474475 0.00039003033 -0.0054229675 -0.006314586 0.0011356379 -0.0016965668 0.00097568636 0.0005666398 -0.0074608577 -0.00528488 0.0053504566 -0.004989908 0.005050837 -0.0020748314 -0.0053302497 0.004135182 0.0029683372 -0.006475465 -0.004521692 0.0025671253 -0.0003262459 0.002696907 0.00097584096 -0.0038228843 -0.0010354563 0.0064962474 0.0013775387 -0.007485158 0.00022393018 -0.007551149
48 -0.002923434 -0.0074389908 0.0074052108 0.00742632 -0.0062271594 -0.0013629934 -0.0031475537 -0.0043445127 0.0033450355 0.0077542914 -0.004578377 -0.0042338083 0.0052383975 -0.0013756277 -0.00672828 0.0075298618 0.004980126 0.00080050546 0.0014717561 0.0046371594 -0.0043409476 -0.00037526764 0.0031162724 -0.004053636 0.0036027858 -0.0054766075 0.006290162 -0.002688216 -0.0018278033 0.005211429 0.0031025717 -0.005723103 -0.005440552 0.006458401 0.0061480436 -0.0007774643 0.0017748377 -0.006089036 0.0076537565 -0.005741037 -0.0010328196 -0.0073314733 0.00723311 -0.0022269469 -0.0037112327 -0.0010070835 0.0035667785 -0.006860665 -0.00475548 -0.002090134 0.0032808285 -0.0017269735 -0.0038873232 0.005310971 -0.0016010933 -0.0042396802 0.0028852557 -0.0014953355 0.0021841975 0.007431916 -0.0062430883 -0.0032048489 -0.005741083 0.007463618
71 -0.0005902109 0.0026802127 0.005736845 0.0067872987 0.0056585087 -0.0032292083 0.00382056 0.0053792037 0.005081512 0.003169856 -0.002317662 0.0038279134 0.0014346543 -0.00571301 -0.0006091056 -0.0047250823 1.2965388e-05 -0.004792567 -0.0034404781 -0.0028579442 0.0029031585 -0.002815892 -0.003406359 0.003349579 0.0061449925 0.0021055778 -0.0005212514 -0.0029964044 -0.0049618785 -0.0047629653 -0.0015825717 0.003164971 -0.00320544 -0.0016772627 0.004996366 -0.0055099097 0.005038446 0.0014136828 -0.004008682 0.0036283687 -0.0019064543 0.005947402 0.0056326473 0.0074222465 0.0018044759 0.0023219346 -0.00023433407 0.004933879 -0.0037361193 0.0027390432 -0.0063252267 0.00497121 -0.0033268325 -0.0053299153 0.0047593988 -0.000112174115 0.0064502186 0.0063866926 -0.0019278718 -0.0008155355 -0.007213692 6.108147e-05 0.003503926 -0.00029269746
35 0.00012830389 0.0039969226 -0.00501438 -0.004882094 0.0014280236 -0.005906703 -0.0075231446 -0.000929509 0.0047953525 0.0021594702 0.0048460714 0.0034251062 -0.00017738796 -0.0051933792 0.00075413065 -0.0037768965 0.00043766457 0.0035489239 0.0057207453 0.007740522 0.004519541 0.0048429687 -0.005924883 -0.00092902046 0.0011135594 0.0019735687 -0.0020843528 0.001319057 -0.0049231774 0.006155875 -0.0063280524 -0.00019312071 0.0015823067 0.004021695 -0.0002636929 0.0050911093 -0.005901044 -0.0022384138 -0.0074009052 -0.007346666 -0.0074618766 -0.00678615 0.00022235798 -0.0026257487 -0.004938959 0.0016568609 0.0027856145 -0.00040848894 -0.006447492 0.003071316 0.004348431 0.0062184082 0.0053877034 0.0064982106 -0.00634912 -0.007752029 -0.0062668365 0.0017256547 -0.004535047 0.00644252 0.006423257 0.0031931123 0.006911838 0.0024812622
46 -0.0023775746 0.006362657 0.005295627 -0.0044609043 -0.0037159573 0.006443511 0.00038685562 -0.0027364818 0.0016077522 -0.002745857 0.0017756905 -0.0060636965 -0.000609916 0.001559152 0.0064444584 -0.0073431097 0.003685052 0.005186955 0.004820765 0.0067784684 -0.0023472325 -0.0027631219 -0.007763787 -0.002983809 -0.0049311263 0.0072684963 -0.0016742579 0.0004960112 0.0043093674 -0.007320212 -0.0042866296 -0.0002708268 0.0038842936 -0.0057728244 -0.00035446227 -0.0017056207 0.0020376225 -0.007155513 -0.0015459071 0.00074557035 -0.0010139851 0.0022365227 0.005134918 -0.00366915 0.004421292 0.0015566862 -0.0022639781 -0.0070861047 0.002466562 -0.0044876514 -0.006607354 -0.0036138117 -0.003413704 0.007220471 0.00030454824 0.0010820567 -0.0041949498 0.0026680522 -0.0033325243 0.0067768125 -0.0029127866 0.004642651 -0.006468908 -0.0017218409
34 -0.007095108 0.0037045714 -0.006695152 -0.0051529934 0.0060393387 -0.00032899817 0.005332681 0.0034481003 -0.0010225977 -0.002033485 0.0064431713 0.0024329391 0.0034735384 0.0072492184 0.0062477905 0.0045995335 -0.0035513267 0.0063266843 0.007612464 -0.007302299 -0.0036139514 -0.0040560323 -0.007382768 0.0034739003 -0.0018337857 0.0030853592 -0.0018356178 0.0013232556 -0.0027605093 0.0051887822 0.003524443 -0.0031623521 0.007067387 -0.0016760037 0.0051529943 0.00040039406 0.0005220289 -0.0026964338 1.880224e-05 0.0059451894 -0.0052686245 -2.6664302e-05 -0.00630758 -0.0055897185 -0.0056234337 -0.0050390055 0.006062979 0.0054465085 -0.0061423266 0.003578631 -0.0066040433 -0.0021022565 0.0075712116 0.004095504 -0.0048751575 -0.00054699753 0.0021079113 0.0026709961 -0.0010629118 0.003581444 -0.0034961232 0.0062765395 0.0018005398 0.0022796188
50 0.0073463633 -0.0039793993 0.0064476817 0.007228353 -0.005843208 -0.0025799763 -0.007249626 -0.0070223324 -0.0072656544 0.0005951638 -0.003699399 0.006828138 0.0016184028 -0.0035297286 0.002764478 0.0009194896 -0.007186349 0.0023662124 0.005876924 0.0007330575 -0.0031158763 -0.0058484403 -0.0035375815 -0.0005750298 -0.0050584245 0.00019433426 0.004979037 -0.0048902472 0.0040120636 0.0029860353 0.0027629507 -0.0034521315 -0.007455832 1.4360854e-05 0.0012768178 -0.0033858158 -0.003496666 -0.0005375208 0.0077696494 0.0068270345 -0.0049840435 0.0037972513 -0.0036855878 0.0031953575 -0.0020366944 0.0027729427 0.004258334 0.006030313 0.0004004618 0.0021060607 0.002625517 0.0016309489 0.0072236285 -0.0038230505 0.0018378706 -0.0005279324 0.0073753987 -0.0035429525 -0.002219277 -0.00734814 0.005253298 -0.0004906297 0.0057244333 -0.0059737884
38 -0.006099128 0.0030201084 0.0031130423 0.006517881 0.00053893187 -0.007760617 0.00741123 0.006880999 -0.0065659876 0.0056916806 0.0067010676 -0.007408313 0.004572911 0.006054 -0.0035329491 -0.005322476 -0.007105857 -0.0018400645 0.0070035597 0.002554398 -0.0029098487 0.0071725943 -0.005475859 -0.0058046733 -0.002654992 -3.6239715e-05 -0.0011400966 -0.003518629 0.0030564105 0.0064286394 -0.00770509 -0.0051631327 0.002909245 -0.0015701555 -0.007450308 0.0074350666 -0.0039736778 0.0042922935 -0.00091279746 0.0037992399 0.004209096 -0.0002946183 -0.0057933535 -0.0021832562 -0.0049518947 -0.005602001 0.004155391 -0.0028707164 0.0021685914 0.0025268772 0.0043592067 0.0048480085 0.0037868775 0.007610663 -0.003682184 0.0032853503 -0.0024467672 0.0013862342 0.00012307448 0.0015168819 -0.0032972451 -0.0028184673 -0.0017209372 0.0024631342
47 0.00068207283 -0.0026007069 -0.006137155 0.0054785414 0.0024804214 0.0017263121 0.0036427707 -0.005911339 0.0007512763 -0.0071506505 -0.0029764476 -0.002477303 0.007729874 -0.00570529 -0.0020139043 -0.0078117233 -0.0037776106 0.0031330402 -0.0002550248 0.003961152 0.005334611 0.0077867787 0.00044433112 -0.005996705 0.001007339 0.0052950373 -0.0036726622 -0.0032730892 -0.004426761 -0.001523948 0.00608005 0.0040507903 0.0076398575 -0.002808145 -0.007223055 -0.002843352 0.00068303884 0.003776723 -0.0059751337 0.004682121 0.0010193236 0.0067811417 0.0028904881 -0.0033810746 0.004920455 -0.004010066 -0.0068279863 0.00763933 -0.0016594299 -0.0057560005 0.0071334527 -0.002833066 -0.002002989 0.0028719597 0.0002721201 0.0026564407 0.007141047 0.0012683133 0.0015894703 0.0021137453 0.00257999 -0.004358342 0.004163924 0.004888643
60 -0.0078120483 0.0020709569 -0.002374731 0.0039903317 0.00029303998 -0.0046011265 0.0014176959 -0.0009827286 0.0006367826 -0.004600328 0.0043407064 -0.0021331054 0.002910896 0.0055163745 -0.00028870543 0.0011735935 -0.005848813 -0.0032517996 0.004918226 -0.002067274 0.0029441 -0.0038721017 -0.0024132922 0.004333709 -0.0064867847 0.006432833 0.005984329 0.007194229 -0.001735646 -0.006203821 0.003392615 0.004422145 -0.0033754373 -0.0031572666 -0.0040873075 -0.0077840374 0.00048450378 0.0038253076 0.004256479 0.007712803 -0.0056689335 -0.0014691777 0.005210009 -0.0035778177 0.006882845 0.0043228506 -0.007674515 -0.0048719672 -0.0023513234 0.003878683 -0.0037615383 0.007609972 -0.00026211017 -0.0040855315 0.005951988 -0.00012229176 0.0070860535 -0.0042380043 0.0045527513 -0.0020310536 -0.003691855 -0.001861908 0.0022783517 0.0023251988
43 -0.001574743 0.007674445 0.0064961915 0.0032444277 -0.007758597 0.0021216737 0.0067717154 -0.00396125 0.00029795733 0.0031134721 -0.00018863908 0.0016637658 -0.0065672947 0.006844535 -0.0034305453 0.0016450527 0.002290293 0.003720902 0.0063921437 0.0025099118 -0.0049843 -0.0034020636 0.003576799 0.00088375283 -0.004522817 0.007252399 0.0024348395 -0.0033416192 0.0076799183 0.0076350216 0.0028877452 0.004124545 0.0073853 -0.007555758 -0.0037966587 -0.0074855313 0.0016511567 -0.0058844094 0.0045464854 -0.0026439955 -0.0015181402 -0.0047940034 0.004264279 -0.00074567646 0.002719415 -0.0069426848 0.0045915362 -0.005533424 0.0054273545 0.005154213 -0.006062972 0.0076601184 0.0055420683 0.00030033774 -0.0059693325 -0.0023485322 -0.005391537 -0.0041210093 0.0031331913 -0.0022247282 0.002850051 -0.0015278046 0.0033224567 0.0043204566
169 0.0032942316 -0.005942705 0.0014500705 -0.0020998968 0.007202231 0.0034273958 0.004906439 0.006679538 -0.005328107 -0.0070884605 0.00524169 -0.004813072 -0.0011269193 0.0033472662 0.0052566533 -0.0038742211 -0.00026155612 -0.00468285 -0.002684892 0.0010749297 -0.0074861264 -0.004214192 -0.0012705846 -0.0020815742 0.0019076037 0.0028798473 0.00755049 -0.0064968257 0.0077734296 0.0008567551 0.0042373 -0.00036661528 0.0013173922 0.00048333532 0.0014148992 0.007282257 -0.0075258096 0.001741546 0.006637173 0.0010048829 -0.0027368816 -0.0045965817 0.007642525 -0.0071640243 -0.0045389486 -0.0048902878 -0.002824133 -0.001888927 -0.0069164583 0.0069557754 0.0008562402 0.005145932 -0.00083465315 0.0031613584 -0.0006508392 -0.0070636254 -0.0043778373 0.002608474 -0.0041471934 -0.0043441253 0.0060111284 1.25113365e-05 -0.0066554397 0.007240402
54 -0.0053937314 0.006158098 -0.0028547344 -0.005256236 0.0002460273 -0.0069989883 -0.0041938615 0.0016696703 -0.006878004 -0.0001739393 -0.0025509426 -0.007186924 -0.0072934213 0.0013426119 -0.0018520384 -0.0007086934 0.0074705314 -0.00166966 0.0077469875 -0.0020153061 0.007447001 -0.0055273534 0.0009825644 -0.0030112746 0.0054454515 0.0009851266 0.0018425012 0.0058990866 0.004763065 -0.0042755827 -0.0025536173 -0.0028215211 -0.0014096315 -0.0023009886 0.0046427576 0.0021521233 -0.0035494945 0.004593696 -0.00563502 0.0026904417 -0.00037659743 0.0054453053 -0.0024702519 0.0036319268 0.005603984 -0.0010770361 0.0044332296 -0.0010031858 -0.0057556494 0.0018183832 -0.0009519951 -0.005390288 0.0014789826 0.0013010539 -0.0025490753 0.0042456025 0.00039132315 0.007679773 -0.00681148 0.0028434815 -0.0061590984 0.0007875753 -0.0010596907 0.0042844177
31 0.006694482 -0.005607149 -0.0046171765 -0.004592056 -0.006744605 0.003005186 0.0012213273 0.006958193 -0.0046289377 0.004472965 -0.001751187 0.004562737 -0.0005727588 0.0066066333 -0.005698559 -0.00051248976 0.0039860816 -0.003928725 0.007536248 0.00165134 0.0050104577 0.007098973 -0.0014560113 -0.0064205136 -0.004477267 -0.0073737507 -0.007631191 0.0005305199 -0.00026064535 0.0060092057 -0.0021290742 0.0031851586 0.0066586244 -0.0075444514 -0.0076129646 0.00025515252 -0.0028616644 -0.0042479564 -0.0063094283 -0.005494745 0.0042848247 0.0014448562 0.006144138 -0.0049717096 0.0020516682 0.0042064 0.00609766 -0.0040246053 -0.006603177 0.0028987653 0.0035200347 0.0076733683 0.00435768 -0.00045847107 -0.0037757682 0.0058163707 0.00019610627 0.0030001632 -0.003712007 0.005387725 -0.00525471 0.004305534 -0.005968299 0.0052857106
62 0.006306793 0.003231912 0.0006519061 0.006827894 0.004742566 0.0073616197 -0.005491162 -0.00318795 -0.0034413512 0.0012400384 0.0011030243 -0.00093829725 -0.0062513575 0.005462877 0.001159595 0.0038245851 -0.0042302078 0.0013978236 -0.0012727162 0.0045148293 0.0059923697 -0.00014749049 0.00021121129 0.005912848 0.0056911972 0.005437843 -0.000678789 0.0011260865 -0.0022129088 -0.0077415435 0.006727866 -0.00070482405 0.0073292274 0.005889941 -0.00096883933 -0.007088849 -0.0045170975 -0.004716775 0.0035646483 0.0071205953 0.0032400722 0.0026354832 0.00026956835 0.0045045023 0.0074828407 0.003323445 -0.0009373942 0.0066261063 -0.0041210814 9.461491e-05 0.0026001297 -0.005423531 -0.0020671654 -0.00120863 0.0055369115 0.0069215945 0.0019652313 0.006382892 -0.0035699585 -0.0070647853 -0.0031629247 0.0067550167 0.0073837726 0.007198471
53 -0.003177793 0.0020494056 0.007406692 -0.0075672017 -0.0019030606 0.0033669926 0.0041237874 0.0047822655 0.00492773 0.002154822 -0.0054766783 -0.004733257 6.5838525e-05 -0.003850882 -0.0054072267 0.004203888 -0.0050038276 -0.006881307 0.0065966896 -0.0032302774 -0.0070750695 0.007349959 0.0045432313 -0.00039048068 -0.00650745 -0.0028660514 0.002411369 -0.0031888674 0.0025055872 0.0057656993 0.00269516 -0.0049522677 -0.005935566 0.004616444 -0.0077546868 -0.0045901216 0.0029658244 0.0029567408 0.0008871623 -0.0026700888 -0.0051151793 -0.005735828 -0.0017763844 -0.007792822 -0.0012848398 -0.0042909607 0.0043646866 -0.0033273362 -0.004520976 0.004082979 -0.00586582 -0.005724165 -0.0007557418 -0.003887255 -0.0036107248 0.0022278416 0.0010868721 0.005950315 9.6801545e-05 0.0042237253 -0.0005301302 0.0046272753 -0.0008032883 -0.0031390435
49 -0.0008497341 -0.00094529125 0.007658201 -0.00013132303 0.005182441 0.0046986085 -0.002739729 0.0076108463 -0.004600839 -0.0065223086 -0.005570151 -0.0055868486 -0.0076393634 -0.00085681793 0.0076576276 -0.0014039724 0.0015028473 0.0012040916 0.0029914118 0.0029260307 -0.0010431301 -0.0017706945 -0.0012498301 0.005435231 0.006862177 -0.005581561 0.004174978 -0.0041213 -0.0010347505 -0.0015801223 -0.0062605496 -0.005239189 -0.00664357 -0.005560299 -0.002364536 -0.0077515314 -0.007079168 -0.0064615617 -0.0009890848 0.0015154498 -0.003346396 -0.001327623 -0.0023643011 0.0015414031 0.0073972787 -0.0001658779 0.0069433763 -0.0066034137 -0.0071894797 0.0025753863 -0.0022135132 0.007739204 0.0065334174 -0.003836937 -0.0057512335 0.0020590236 -0.004921617 -0.0074211885 -0.0056086318 -0.0043692174 9.402519e-05 0.007685657 -0.006119839 0.0070234085
61 0.0061829463 -0.0039216597 0.0073254835 0.006241983 0.0049944795 0.0052673197 0.007352938 0.0047560413 0.0064749755 -0.006053095 -0.0060302434 -0.0041631446 0.0058998303 -0.0005241393 0.004340963 -0.005278357 0.0016188815 -0.0004584876 -0.0052547413 0.0038228624 -0.005052116 -0.0031471578 -0.0023569888 0.0060593407 0.0016496185 -0.001545457 0.006093042 0.004016212 0.0016660374 -0.0008703233 -0.0028273743 0.001985536 0.0068878024 -0.00068278256 0.002958269 -0.0046769255 -0.0034096485 0.006019803 -0.0060414895 0.0054251705 0.007625202 0.0070447875 -0.0030283045 -0.0035744077 -0.00011472316 -0.007036149 -0.007083555 -0.005054039 -0.0017065295 0.0005054647 0.0014019342 -0.0069544446 0.0030893595 0.00708441 0.006038689 -0.005762713 0.0012121281 0.0058728657 0.004293482 0.0005464222 -0.0055629755 -0.0027285144 0.00083191146 0.00068282423
184 0.0010440073 0.005093488 0.0021092861 -0.0012543983 0.0060872114 -0.0005699301 0.0045722397 -0.001498657 -0.0076948525 0.001993928 0.0029225491 -0.0075041526 0.006368255 -0.0016950114 -0.0032274493 0.0050874776 -0.007008684 -0.0062861484 -0.0025234465 -0.0043055434 0.0025735497 0.005750077 -0.004534972 -0.005439795 0.005663536 0.00220361 -0.0065864474 -0.0076656025 0.005306622 0.0035229896 -0.0070637437 0.00031459256 -2.1871601e-05 -0.0012791519 -0.0035452999 -0.007508966 -0.0003489054 0.0037984548 0.0003827392 -0.005159121 0.0062327185 0.0032066072 -0.007299525 0.002202995 -0.006366326 -0.0053978595 0.0057100994 -0.0018607195 -0.004775309 -0.0023089123 0.0029758338 -0.003737776 0.004258524 -0.0046700966 0.0035640842 0.0013886977 -0.0034589723 -0.0031901808 0.0054862774 -0.0060119475 -0.0013795764 -0.0053914594 -0.0032548988 0.0053770686
42 0.004313999 -0.00055253017 0.0034593362 -0.00065174577 -0.0039163376 0.0015927752 0.0045338636 0.0027849493 0.0003519739 -0.003478893 -0.0033120774 -0.00011937346 3.998742e-05 -0.0074880407 0.007745455 0.0064075696 -0.0017234036 -0.005445521 -0.004270976 0.0011158411 0.0022548337 0.00032556712 -0.007632626 -0.0034034466 0.0034456982 -0.005422833 -0.002772155 0.007490854 -0.0066155423 -0.0036956738 0.0022534737 -0.0027222156 0.0065275524 -0.0039052234 -0.00579809 0.002692955 0.0030793254 -0.002198674 -0.0011900392 -0.00088781625 -0.000109666544 -0.002549236 0.00543828 -0.0017381395 -0.0063382885 -0.0023344797 0.002576612 -0.0063259723 -0.0070816474 -0.0052327747 0.0024516357 0.0049069845 -0.003717003 -0.0041337344 -0.0038149522 -0.0027376395 0.0031335577 0.0033744345 -0.0071690697 0.0009538274 0.004957069 0.0015170077 0.007215258 0.0026159054
67 0.0020820522 0.0047666063 -0.0011298929 -0.0045228973 -0.005222283 -0.0065892707 0.0025434978 -0.005118134 -0.0062288004 0.0064105326 -0.007369855 0.0025946144 -0.0061177486 0.007100106 0.0010972513 -0.007571607 0.0029677583 -0.0033592791 0.0019967135 -0.00041878034 -0.0017950657 0.0065639624 0.0006678021 0.007647923 -0.0058760582 0.00066404435 -0.0024161283 -0.0024277016 0.0017807588 0.0010234695 -0.001016938 -0.005783571 -0.0007742902 -0.0066541964 0.0054412237 -0.004710307 -0.00047474806 -0.0018287814 -0.0075960876 0.0063351686 0.002601876 -0.006426629 -0.004869326 -0.006826023 -0.0013111169 -0.0006318049 -0.000987018 0.0030915667 0.004874634 0.0031916588 -0.0019248591 0.0066444376 0.0017236256 -0.0018182553 0.0052917087 -0.00507641 -0.001213913 -0.0035949894 0.0076375226 0.0017578374 0.0052707004 -0.0042248894 -0.0028131024 0.0054838047
64 -0.007258279 0.0024623335 -0.0072869086 0.004340459 -0.007068455 0.0012947757 -0.007164216 0.0020799267 -0.00536267 0.0069808085 -0.00020840352 0.005867308 -0.0028082668 0.0046524242 0.0061182226 -0.0021776108 9.021334e-05 -0.0044317944 -0.004216293 -0.0065109404 0.0067721377 0.0032198066 0.005027442 -0.005138928 0.0074284486 0.0060634837 -0.0008274188 -0.0041121 0.0070968657 -0.0052661845 -0.004151519 0.0010092412 -0.0010791615 -0.00347481 0.0055682934 0.004889662 0.0020250988 -0.0069674025 -0.006320106 -0.0040385127 0.0006558925 0.0022611504 -0.002843865 -0.0076127923 -0.004929386 -0.0025429612 -0.0038172563 -0.0029877524 -0.0046247784 0.003785865 0.0013154965 0.0014725393 0.00019989806 -9.1999515e-05 0.001541521 -0.0010526205 0.0078078057 0.0018539986 0.0012420646 0.005995999 0.005963224 0.0019748148 0.0020308946 -0.0028800257
72 0.0028972486 -0.005665271 0.00045309166 -0.005033191 -0.0052214894 0.006704027 -0.0028912555 -0.006759913 -0.006968836 -0.00045687612 -0.0032347483 0.0045947535 -0.005815461 0.0013963095 -0.000749658 0.006789806 -0.0014425243 -0.0018942369 0.004540347 -0.0028273552 -0.001985268 0.004356519 0.0037131088 0.0064115757 -0.0056162197 -0.007782479 0.005381365 0.0018994865 0.0069180555 0.0072101452 -0.0054882118 -0.0021049231 -0.0028674079 -0.0019077841 0.0023440614 0.0064773695 -0.0012612443 0.0055328314 0.005173794 -0.007721202 -0.0066376813 0.0038683284 0.0027195562 -0.001481397 0.00010990075 -0.005163806 0.0041010333 -0.0036936072 -0.006865469 0.0010379079 0.0072004613 0.0066823685 -0.0076853777 -0.006101389 -0.0011518894 -0.0035254864 0.003988992 0.0061711394 0.0067061856 0.00048216278 0.00083031616 -0.0023233346 -0.0033801398 0.0016265565
56 0.003203834 -0.005939287 -0.002603518 0.001191822 0.0073206723 -0.004694379 -0.0030385994 0.007520438 0.0038154367 -0.0042922595 0.005178389 -0.0036869864 -0.00058298046 9.434918e-05 0.0048795207 0.0023585556 -0.000953986 0.003324324 0.0037758818 0.003354462 0.00035287067 -0.00037667528 -0.001920555 0.0074879164 -0.0067828842 0.006559805 0.0036268819 0.0068025384 -0.0040597427 -0.0035676607 0.0003635657 -0.0008256363 0.007323441 -0.0056124185 0.00083864195 -0.003962999 -0.006068732 -0.0048147365 -0.0021928484 0.005207272 0.005431045 -0.0007444865 0.0056283544 -0.004574673 0.0015801833 -0.0033272349 -0.006776364 0.0059389393 0.000106791864 -0.0023695445 0.0006449668 0.0057859495 0.0042917626 0.00083374494 0.0066335285 0.0009214208 -0.0015303432 -0.0023078842 0.004191681 -6.923732e-05 0.0053924965 -0.0027363808 -0.00027819845 0.002451356
192 -0.00057107606 -0.0010967002 -0.003608672 0.0045712967 -0.0044973795 -0.004680063 0.0030642538 -0.002193775 0.0074565443 -0.002891825 -0.006831259 0.0027713312 0.0001958178 0.00035835826 -0.0048591685 -0.0019078348 -0.0014567866 0.0051754764 0.0037681202 -0.007582123 -0.0072285617 0.0065088593 0.0070132487 0.003724931 -0.0037542325 -0.002867951 0.0047268067 0.0047746403 0.00031526262 -0.0010968263 0.0072246627 0.004450818 0.0071943123 -0.003147216 0.007753003 -0.0028161693 -0.0074596857 0.0022645462 0.0005043845 -0.0037985404 0.0031697713 -0.0059374385 -0.0076887123 -0.007261474 0.0017723235 0.0073262663 0.0014384527 0.0010189775 0.002131464 0.005690195 0.0064433767 -0.0062168227 0.0026958948 -0.0061212657 0.0002872767 0.006802348 0.0076025473 0.002055338 -0.0027075605 -0.005905305 -0.007425161 -0.0078069847 -0.00058022194 0.0071156677
75 -0.0013324153 0.0046032434 0.0013391078 0.005205002 0.0072154067 0.0067487787 0.0039953273 0.0043552727 -0.0023882005 -0.0020621137 -0.0073600905 -0.0015728242 0.0015553804 0.0019032664 -0.0040876153 0.0012271623 -0.0053911856 0.0075354422 0.00509581 0.003473169 -0.0043792073 0.005700814 -0.00078171416 0.0003923996 0.0042777895 -0.004436503 -0.0033522833 0.0075843795 0.002846389 -0.0048183003 0.0005100108 -0.001062719 0.0020183136 -0.0018133349 -0.0003923591 -0.0051452294 0.006834895 0.0022604237 0.0066307695 -0.0056550396 0.004365713 0.0041104453 -0.0041630757 0.001733954 -0.006717121 -0.007529049 -0.003975695 -0.003613102 -0.0071115177 -0.0007629822 0.00066963455 0.0063996795 -0.0054655536 -0.00092561106 -0.0073002996 0.0067119016 -0.00012522703 0.0041818386 0.00345636 -0.0051297555 0.0034826596 0.00051317783 -0.0051934216 0.0024055853
78 -0.005971689 -0.0066296915 -0.007505158 0.006604713 0.0053945743 0.005384564 -0.0014548843 -0.0033158597 -0.0013614772 -0.0075760554 0.0051692068 -0.0005109551 -0.0007517008 0.00018729064 -0.006624399 0.0077689243 -0.0009669909 0.002547598 -0.0034556764 -0.005622406 -0.00754993 -0.0037865546 -0.004149837 -0.0063998373 -0.007382587 -0.004465065 -0.0014717072 0.0029338594 -0.0012793207 0.0063498835 0.0058427355 -0.0026795391 0.0025148955 0.0051982114 -0.0011668166 -0.00010963327 0.004380758 -0.006370705 0.006231689 -0.0033337644 0.000113342285 -0.0008930641 -0.0051188427 -0.0058306283 -0.005747859 0.001766908 0.0072112884 -0.0027692742 0.0028435986 -0.0074669346 -0.0018594423 0.0019334977 -0.002668738 -0.0056250454 -0.0057645035 -0.0039912006 -0.005355315 -0.0052458076 0.0019580128 0.006146224 -0.0040611397 -0.0057546156 0.0072487 -0.0069507346
80 -0.006844553 -0.002380153 -0.0071807923 -0.0031949864 -0.001397816 -0.005301356 0.0007903204 -0.0021297557 -0.004315141 0.0030724797 -0.005590062 -0.0015948495 -0.0045048343 -0.0068081575 -0.0006253733 -0.0050456133 -0.006694991 0.0013554838 -0.0023340986 0.0056207795 -0.0065643624 0.005637371 -0.00021096595 0.0035243847 0.0012660922 0.0061432687 -0.00096681796 -0.006618925 0.0028248925 0.0010000317 -0.00033888975 -0.0051257145 -0.006973144 -0.004940556 -0.0029483335 -0.005050367 -0.007496647 -0.0070330473 0.0051661595 -0.0012961678 0.0047409907 0.0020193316 -0.001785886 0.0009930019 -0.0053283134 -0.0078029195 0.0036786306 -0.0038896743 0.0043561966 -0.0047771214 -0.002565684 -0.006878468 0.0075340094 0.0009940007 0.0004424051 -0.002429718 0.007460464 0.0015807851 -0.006827496 -0.0027211797 -0.0020298532 -0.0036765013 0.0036959318 -0.007543764
68 -0.0028862748 0.0058961087 0.0013212536 -0.004996219 0.0029895464 0.005442256 0.0029338382 -0.00030836917 -0.0073024747 -0.0026290396 -0.0068525183 0.0045912457 -0.006414442 -0.0016989311 -0.004660345 -0.0038400532 0.0031254492 -0.0053513856 0.00053639896 0.0069111134 0.000938464 -0.0031603584 -0.0022457633 -0.007173137 0.002042064 -0.0014141944 -0.0064337687 0.005512996 -0.005506845 0.0063700993 -0.0052566016 0.004009776 -0.0027110758 4.9819413e-05 -0.0048133153 0.006705717 -0.0031865868 -0.004266502 -0.0037807573 -0.0017163727 0.0057036346 0.0054642116 0.0011735174 0.006439375 -0.0077519906 -0.0033356722 0.0004934199 -0.00573429 -0.005033394 -0.006798989 0.0030885104 -0.00405888 0.0012772125 -0.0062921005 0.0028224252 0.0017417488 -0.0017502184 0.007803563 -0.00427019 0.00039203247 -0.001761986 -0.006427443 -0.0026883308 -0.0029045308
52 0.0018627144 -0.00518297 -0.003181842 0.007039129 0.004560562 -0.0007050864 -0.0021616416 -0.004989174 0.00042859948 -0.006290452 0.0058698333 0.0066905785 -0.007623688 -0.004091771 0.0020281929 -0.0040297103 -3.0303036e-05 0.0046341848 0.002265944 0.0003655297 0.0027419594 0.007800721 -0.0005948755 -0.005130861 0.0028959906 -0.005427167 -0.0057763117 0.0016276356 0.0025200476 -0.0019108041 0.0076878085 -0.0062281387 -0.0027847374 -0.004839643 -0.007770833 -0.0066042366 0.0021375676 -0.0032690146 0.0057941433 0.00052687805 0.0029080992 0.0057874396 0.00038776008 0.00095678074 -0.0041491403 -0.002953659 -0.0028759206 0.00067628815 0.0059765195 -0.0035135653 0.0011733304 0.0010145702 -0.0015800657 0.0030956238 0.002763485 0.0078105144 -0.00041831107 0.0022448408 -0.00338702 0.0021275256 0.00539697 0.0054518627 -0.0070949886 -0.0013320392
65 0.004772347 1.6619992e-05 0.0047629727 -0.0029795857 -0.005590198 -0.0007129636 -0.0032350286 0.0053818636 0.0074671987 -0.0076207095 -0.0040867478 0.00089116197 0.0048810006 0.0012297878 0.0041854014 0.0024577766 -0.0061749723 -0.0014267425 -0.0036156948 0.0069430983 0.003695499 0.005012552 -0.001915303 0.002282134 0.003169428 -0.0023412432 0.003984542 -0.0045686453 0.006667266 -0.0028091045 -0.0006423793 0.007647426 0.0003314074 0.0044649807 0.0033674238 0.0057346295 0.005178644 -0.003890043 -0.0017367636 0.0063549015 0.0032131595 -0.0050850455 -0.0010849076 -0.00562803 -0.005770346 -0.0058482187 -0.0001723522 -0.0071502873 -0.00075721537 0.0071720365 -0.0027315526 -0.007294329 -0.001129792 0.0033405186 0.0014970714 0.006971612 -0.0014203759 -0.007528738 -0.0053711655 -0.0068551186 -0.0009824197 -0.0068344697 -0.003580498 -0.0006842321
121 -0.005312034 -0.0036516825 -0.0013846619 -0.0037094653 0.005388603 -0.0013201958 0.0018706585 -0.0036092922 -0.0016012789 0.00047791333 0.0055774283 -0.0038617873 -0.0023512195 -0.0068531088 -0.0045263465 0.0073901527 -0.004036389 -0.0033222493 -0.007208228 0.0020732353 -0.000414706 -0.0024454691 0.00015419422 6.246789e-05 0.005339477 -0.0033005206 -0.003108529 -0.0025458871 0.005566057 0.0025682047 -0.004370914 0.002006491 -0.00109133 0.0047856313 0.004830121 0.005522304 -0.0018192728 -0.005312385 0.0077197887 -0.0033819375 0.0052099507 0.005442817 0.0074812416 -0.006267979 0.0055598607 -0.0010986221 -0.00062023895 0.0009357394 -0.0018660015 -0.006309506 -0.0012076471 0.0042536613 -0.0077758348 -0.006594558 0.0020193963 0.005805756 0.004292365 0.0067533734 -0.0012404183 -0.0053403946 -0.006972677 0.0014926039 0.007405105 -0.0012366486
108 0.0076184776 0.007220289 0.0069542862 0.0020474477 0.0044821044 0.0011190287 0.0069329687 -0.0038136586 -0.005307786 -0.0042993827 -0.0017184268 0.0017480046 -0.0034722597 0.0005651763 0.0074483063 -0.0052625043 -0.0012418459 0.00240968 -0.003566334 0.004088903 0.0030349938 -0.0013045901 -0.0057031917 -0.0025056943 -0.003914618 -0.0058493908 0.0001013901 0.0016396601 -0.005371619 0.0072171325 0.00072107284 -0.003734511 0.0078059738 0.006613672 0.0006541963 -0.0052620885 0.002558342 0.007450896 0.0023594997 0.0015898901 0.0011787063 -0.0019221212 -0.0019857974 -0.0005858218 0.0059120925 0.00014186729 0.0052974024 0.0043672286 0.0030598368 -0.0022679141 -0.00052475644 -0.0027955347 -0.006864195 -0.0060041808 -0.00073521846 -0.007209086 -0.0015990223 -0.00023677493 -0.0005600441 -0.00075167924 0.00524105 -0.006636978 0.0030239243 -0.0030348871
70 0.0039991275 -0.006824505 -0.004593267 0.0016514391 -0.00093623355 -0.002278813 0.0055118827 0.0032180736 0.0024398852 1.8842018e-05 -0.0065777516 -0.0029366126 0.007225164 0.0040881373 -0.0039124945 0.002772849 0.006566623 0.002147751 -0.0069355993 0.0076876604 0.0030683258 -0.006820243 0.0013737535 -0.0047286097 0.0069816946 -0.0056245923 0.0023798554 0.00076940417 0.0030754718 0.0041226745 -0.0057377145 0.0045072185 -0.0044420687 -0.004361938 -0.0011484934 -0.0001906583 -0.0065070568 -0.0027726959 8.9615576e-05 -0.0009820096 0.0031962064 0.0036271554 -0.0056292554 -0.0050362633 0.0031881274 0.0030204637 -0.0003880604 0.005406801 -0.0054002274 -0.0039920104 0.0037163564 0.0037688368 0.00699561 -0.004600863 -0.0014897292 -0.0013407102 -0.0020556245 -0.006498526 -0.0036673036 0.0021466268 0.0021035175 0.0031828731 0.001175025 0.0068515847
95 -0.00037094185 -0.005167435 0.0072298925 0.002159822 -0.0076347343 0.005791761 -0.0012621759 -0.007410628 -0.0030539045 0.001916536 0.0038319356 -0.00029826228 -0.0016202035 -0.0005714443 -0.0029828334 -0.0055622784 -0.0035017908 -0.002383745 0.0013113566 0.0036813268 -0.0050863097 0.00036499824 -0.004882245 -0.0062447824 -0.002577072 -0.0030309965 0.003516907 0.007128868 0.0076083587 0.0040002353 -0.002855403 -0.0047113854 -0.0012035359 -0.0022914554 -0.0030404385 -0.0047110477 0.0059036333 -0.0004795752 0.0020372593 -0.0061949245 0.004740188 0.0069446033 -0.007223385 -0.0021491435 0.0073779407 -0.0010651465 -0.0024643007 0.00042309126 -0.0060683247 -0.0058974046 0.003819665 0.0067064613 -0.005468441 0.0063023483 -0.0025760094 0.0058960104 -0.00024437127 0.003729108 -0.00040835276 0.0032982978 -0.0035995373 0.0024517216 -0.0018768872 -0.00047810783
85 -0.005946752 -0.0073369704 0.003792714 0.0070276842 0.005065501 0.0019751969 0.004361383 -0.0012039717 -0.007550996 -0.002231085 0.0067683067 -0.0063191717 0.0024564718 0.0024085368 -0.0075309747 0.0036851468 -0.001176703 0.0072342954 -4.9224964e-06 0.0013748051 -9.579976e-05 0.0047375034 0.0006709458 -0.0048995405 0.0069676638 0.0005719333 -0.0075999824 0.006005175 0.0005606106 -0.0065286094 0.0024615594 -0.0034592447 -0.0018853713 0.0043329843 0.00221945 0.001874396 0.0061495956 0.00014870906 -0.0065378137 0.0011453176 0.0010738666 -0.0025217652 0.0012674113 -0.001351765 0.0030600491 0.0030971367 0.0039803963 -0.0060043773 -0.005886283 -0.0026449035 0.006675644 0.004896887 -0.0064140535 0.00082601263 0.007313472 -0.0016804248 -0.0060623814 0.0070140446 0.0031486924 -4.1804917e-05 -0.0069602034 0.0031498603 -0.005785467 0.0017521571
73 -0.0019740032 0.0034469934 -0.0052059796 0.0030719074 -0.0077290568 -0.007047524 0.000106827596 -0.00617686 -0.0038214363 0.000614087 -0.000999324 -0.005959316 -0.005640379 0.00600858 -0.0042647296 0.0073228697 -0.0075975754 -0.0018388379 0.0060694274 0.0022994766 0.0062808567 0.005026514 0.0037336408 -0.0019695936 0.007141897 0.0058288365 -0.0039233225 0.0049259183 0.0013859626 0.0013493879 -0.00052786677 0.005700551 0.0075210133 0.00072275195 0.0067984434 0.00089597574 0.0057252916 -0.004339617 0.0006519466 -0.00692324 -0.0044824146 -0.0031613694 -0.0039449856 0.005759305 -0.007731531 0.003080546 -0.0029442068 0.0008174908 -0.004763282 0.0034544382 0.0055618677 0.0018232521 0.0076335403 0.0006051108 -0.004039996 0.0020021214 -0.0002310851 0.007349377 0.007570994 -0.003524066 -0.0075794547 0.0074789952 -0.0051668296 -0.0016269396
66 -0.0045892284 0.0017326031 -0.0017518767 -0.0061937287 0.007017993 0.0059717917 0.0013991357 -0.006771146 0.0039225086 -0.003067836 -0.005416337 -0.0014357347 0.0037450332 0.00758289 -0.0043880143 -0.0027203793 -0.0011063875 -0.0011901308 0.0030531522 -0.006205493 0.002161328 0.005957221 -0.0033946298 0.005975974 -0.0018225102 0.0040833605 -0.005769773 0.0030442993 -0.0036322915 -0.0041149035 -0.0070938906 0.0058075874 -0.004832358 -0.00063212705 0.00608353 0.003737613 0.0041685174 -0.0021430075 -0.0037801058 0.0060581313 0.007304378 -0.00070382433 -0.005735404 -0.0017932984 -0.0076141255 0.000773443 0.004886127 -0.005136569 0.0037974461 0.004821207 -0.0013848771 0.00068542524 0.0050279866 -0.0063524675 -0.006101273 0.004625538 0.00534397 -0.0024375252 0.0048822155 0.0066465763 0.006110987 0.005057426 -0.0011446332 -0.0028841677
77 -0.0056800344 -0.0006274848 0.0073989793 -0.0024067557 -0.005760644 0.0062404973 0.0064743147 -0.007089388 -0.005373589 0.0013133081 -0.0064541576 0.0046662614 -0.004650802 0.0018034839 -0.0038378667 0.0043273913 -0.007232726 0.0022384573 0.003268005 0.00605422 5.1341203e-06 0.0016181311 0.0057821777 -0.0040289224 0.007725019 0.0034127256 -0.0024938795 0.003094931 0.0023880128 -0.0053216205 -0.0035671636 -0.002061324 0.00649135 0.00035303668 -0.0032820746 0.0010493348 -0.0015520476 0.0060172277 -0.004918372 -0.005705018 0.0044668177 0.0072346106 0.006734504 0.0019785634 0.0074293776 -0.0032860513 0.005072428 0.0007088117 0.003916266 0.0013891736 -0.0009781802 0.006816308 0.0044421116 -0.0048369817 -0.00055710267 -0.0019103088 0.004332198 0.0071041742 -0.0060089934 -0.0023505008 -0.0022123896 -0.0074888784 -0.0014711687 -0.0003583743
76 0.0059438935 0.0013724469 -0.0028859999 -0.0021754727 0.0004818931 0.0053393696 -0.0036113206 0.0068869074 0.0007672125 0.0006019194 -0.007400119 0.004383985 0.0019729044 0.0067914235 -0.0017553827 0.004353689 0.0026551425 -0.0061979727 0.0004476713 0.0067317705 -0.0012964201 -0.0062496504 -0.0057172566 0.0065486133 -0.0071343733 0.0020175227 -0.0017985873 -0.0074392785 -0.0013330159 0.0024182787 -0.003774119 -0.0035124128 0.004252452 -0.0026379956 -0.0076727085 0.004225202 -0.0031767786 -0.0072790794 -0.0041726884 0.0003802859 -0.0024211307 0.003399511 0.0076152747 0.0070574665 -0.0004607465 -0.00064141984 -0.007341773 -0.0051539186 -0.00022180215 -0.0057071857 0.004333276 -0.005280151 -0.004805631 0.007003463 0.0060661137 -0.0066428264 -0.0001508824 -0.0020110176 -0.0021063033 0.0035945426 4.8847734e-05 -0.005533069 -0.001428317 0.007566287
63 0.0029327618 0.0026125244 0.006556621 0.00020631398 -0.0019831024 -0.00557368 -0.00082050724 -0.0026471883 0.00079066446 0.0035552469 -0.005815222 -0.00049869914 -0.0011763364 -0.0020633517 0.0064557362 -0.003688053 -0.0021063022 -0.0072605275 -0.0023929041 -0.0014439237 -0.0072598103 0.005089039 -0.00078402436 0.003212073 -0.0017379359 0.0065832743 -0.002817746 -0.0019886731 0.00021000773 0.0032524376 0.00045881275 0.0042493623 0.002067138 0.0074073616 0.0066988384 -0.0045071505 0.0012823149 0.007607045 -0.0072231707 -0.0056032287 -0.005813334 -0.0027951172 0.0031935095 -0.005559189 -0.0022863883 -0.0065549314 0.0061307796 0.0042291526 -0.003326347 -0.0014107663 0.00486556 0.006857536 0.00627635 0.002491485 -0.0041173324 -0.0059670038 0.007326286 0.0038706241 0.006291486 0.00767856 -0.0035680588 -0.005121101 -0.001210991 -0.0065581887
57 0.0049843304 0.0041409237 -0.003323508 -0.005398719 0.00063013716 -0.006267589 0.0050168326 -0.0029337008 -0.006024829 -0.0031921384 0.0034174523 0.0055821594 0.0069706854 0.0077601345 -0.0022447302 0.00091210986 0.004774825 -0.0048560603 -0.0017570531 -0.0031189022 0.007224125 -0.0031545542 -0.0030517208 -0.001434861 0.0005327261 -0.00048252582 0.0049337703 0.004818766 0.006456239 0.0073383306 0.0024117387 -0.00095574977 0.005026586 0.0054539368 0.0025361672 0.0048601013 -0.007045521 0.0020409725 -0.0021669057 0.003793723 0.0020447702 -0.0016363 0.0026816267 -0.0050598653 -0.0073022367 0.003537449 0.002082114 -0.0007246622 -0.0029777612 -0.005836166 -0.0048631416 0.0032418054 0.0037512714 -0.002252095 0.0026088783 -0.002950356 0.00012817707 -0.0016980122 -0.003237527 -0.005057603 -0.006927183 -0.0017924241 0.0043889703 0.0010256423
69 0.0023652925 -0.0021430384 0.006882773 -0.004644737 0.0021772126 -0.00081364287 0.0032992652 -0.0076873256 0.004077708 0.0011831359 -0.00020123237 0.00077744015 0.0070610535 -0.0025404424 0.003097011 0.0076028504 -0.0058943667 -0.004964121 0.0034949463 0.0036648195 -0.0050470578 -0.0014110096 -0.0035131457 -0.006296423 0.002574512 0.006752968 -0.0063963807 -0.002782961 0.0075664455 -0.0063055907 0.0072780824 -0.0060071736 0.0072996137 0.004765239 -0.002830239 0.000400993 0.0066176723 -0.0047587147 0.0048955185 5.084056e-06 -0.0035168156 0.0023367112 -0.0039933985 0.00582464 0.0047155595 -0.0010756323 0.0013014805 -0.0018187832 0.0058293655 0.00041842705 -0.004756802 0.0077989935 0.005789075 0.0074436604 0.0055230386 -0.004820178 -0.0039270143 0.0033855727 0.0077266884 -0.0017168105 0.0033700434 -0.007669662 0.004605492 -0.0075160014
87 0.0060020266 0.0055526677 0.002430228 0.006749591 0.0029797433 -0.006425078 -0.00590485 -0.0015832441 0.0043423143 -0.006888418 0.005812234 0.0027070278 -0.004506672 0.00487382 -0.006575733 0.0019019468 -0.0039548124 0.007649136 0.006778319 0.007707097 -0.00017662399 0.0066875583 -0.00021086616 0.0062624617 0.0038631165 -0.002144723 -0.0070135836 -0.005720501 0.0014894772 -0.004821064 0.0037163133 0.00012578376 -0.0006185932 0.0030975423 0.0046045845 -0.0022813776 -0.0070799394 0.0067458926 -0.0024604055 0.0014028023 -0.002824238 -0.005152786 -0.002422997 0.0019244356 -0.0054671466 -0.007565973 0.0050596492 -0.0020748172 -0.0037212817 0.004629146 0.0007591306 0.00042522312 -0.0064510875 -0.0075362357 -0.0041529504 -0.0022264891 0.0044306614 -0.0014446742 0.004408448 0.005741304 -0.0046983655 0.005133652 -0.0062474967 -0.0018749206
114 -0.005764861 0.0073297443 -0.002176224 0.003726347 -0.0072782706 0.00063614035 -0.0036472797 -0.0041534547 0.0010722554 0.006087486 0.0062927604 0.001957942 0.005190868 -0.0016478779 -0.006988039 0.004713772 0.0036691055 -0.0022375367 -0.0019810589 0.0062789805 0.0049009873 0.002668412 -0.0074853054 -0.0053793066 0.0023158293 -0.0059305658 0.004255429 0.0026972592 -0.0017661433 0.00029989914 -0.00092436466 0.0060592606 -0.0033485298 -0.007615642 -0.003996624 -0.006720657 0.0051280437 0.0056587565 0.0043713907 -0.004844309 0.006496647 0.0032815766 0.0026101628 -0.006547055 0.0045438404 -0.0044195745 -0.006823181 -0.0011589193 -0.006307806 0.006000005 0.006018233 0.006782927 -0.0030068422 -0.007538917 -0.005986383 -0.0034561038 0.0038494056 0.0015843399 0.0043172296 -0.0022545203 0.0015913693 0.00052360684 0.007120213 -0.00051279884
90 0.003892737 0.005267931 -0.00053574 -0.00025177366 0.005427744 -0.0029787088 0.0067149927 -5.9465187e-06 -0.0058692363 0.0018561257 0.007089506 0.0026092203 -0.0050973054 0.007185598 -0.0060384464 0.0039247726 -0.0033550556 -0.0055102096 4.192888e-05 -0.0013110249 0.007557152 0.0044443524 -0.0015795947 -0.0036693828 -0.005264103 -0.004121358 -0.0032247668 -0.0040555587 0.004098385 0.005598567 -0.0033160471 -0.0033564619 -0.0054492652 -0.0067706965 0.0053311097 0.00503063 0.0011838005 0.004328343 0.0060263337 0.00042767808 -0.007730447 -0.0046171444 0.0027901174 0.0024634271 -0.0061728703 0.0006219967 0.006076925 -0.00040555486 -0.0007479266 -0.0071071195 0.0065847347 -0.0056376695 -0.0012419466 0.00013946547 -0.0019631619 0.0014839905 0.005143102 0.00051964686 -0.0029243468 0.0055143745 0.001829173 -0.0022977877 0.0056522586 0.0009855671
58 0.0046475613 0.001676107 0.0059920982 -0.007208325 -0.004223735 0.004091173 -0.00021503361 0.0061850557 0.006538321 0.0026586498 -0.0011777715 0.0053208573 -0.0040760045 -0.0058514187 0.00046221845 -0.00083721365 -0.0017079939 -0.004973919 0.0039994484 0.004678322 0.004701375 0.004239582 0.007409902 0.001185737 -0.0019595865 0.006310777 0.007311686 0.0041772285 0.00018698174 0.0038330057 0.0006231387 -0.00778547 -0.006165493 0.0029502288 -0.0027419052 -0.00023657258 0.006146622 0.002958053 0.00071903726 -0.0014866572 -0.006606153 -0.007028979 0.005176824 -0.0022598023 0.0043481225 0.0021387052 0.00064926926 0.0040077358 -0.0069204546 0.0048893476 -0.0058041196 0.0034256687 0.004255079 -0.007373776 -0.00040058946 0.0069089015 -0.0043935603 -0.0044564484 0.00023409352 0.0017231818 0.0057043354 0.0051739197 -0.007768259 0.0028655073
88 0.00044552074 0.0051628794 -0.0021337192 0.007188076 0.001261113 -0.0060654925 0.0048821364 -0.0038134246 0.00040603112 0.0062315487 -0.0050573084 -0.005877659 6.343841e-05 -0.0027671356 0.0046668565 -0.0064110095 -0.0053901277 0.004561905 -0.00039661746 -0.0017539626 0.0019405234 0.007274015 0.0053946334 -0.006867549 -0.0059375158 0.0060904217 0.0063453144 0.00041206533 0.004699744 0.00597232 -4.9578695e-05 -0.0004415621 0.0028782738 -0.004073953 -0.002987855 -0.007557478 0.0031023915 0.0048377854 0.0037170555 -0.0010123678 0.0023054143 -0.0044205305 0.0068391175 0.003940905 -0.0028633652 -0.0014326426 -0.006506323 -0.0034426814 -0.007085899 -0.006268851 -0.0059673055 0.0015628707 0.0040093544 0.002639298 0.0069042253 -0.0040954817 0.0009226669 0.0036246232 0.0031553537 -0.0057550934 0.0033997535 -0.005982413 0.0007253582 -0.0038985938
93 0.002183696 -0.0028141364 -0.0045482004 0.004501987 0.001957941 0.0015656465 0.0029784997 -0.0040494343 0.005501028 0.0070802863 -0.001809122 0.0044407346 -0.0037933637 0.0073000877 0.0015274507 0.00090853026 -0.0029140043 -0.0070972084 0.0027668546 0.007768444 -0.0030082127 0.006470876 0.0034095123 0.0031815362 -0.0046863407 0.0020271738 -0.00025376942 0.0043303394 -0.00290677 -0.0037012466 -0.00094302243 -0.002696191 0.0019448726 -0.0074242325 0.0076926285 -0.003593149 -0.0016438521 0.0017183042 0.004486292 -0.0012137186 0.006879149 0.001641492 0.0006015745 -0.00061838725 -0.0041226875 0.00760902 -0.0023919053 0.00015378268 -0.0068157096 0.0003250512 -0.0006565116 0.001351166 -0.007666177 -0.003927958 0.007723645 -0.006105037 0.000341564 -0.0011815149 -0.0020737022 -0.0027968048 -0.0014805453 -0.00021964745 -0.005403022 0.006172487
84 0.0026335644 0.0075281174 -0.0046673673 0.0008133589 -0.006689659 0.0039553936 0.00021157981 0.0012880825 0.0032476024 -0.0038203897 0.0018002263 0.0026455692 0.0061903433 -0.002365592 -0.000104200655 -0.0034292669 -0.0054327245 -0.0003046363 -0.0033160676 -0.0073777507 0.003989796 -0.005460497 -0.0025028025 -0.007313685 0.0030142814 -0.0034085312 0.003653513 0.006908257 0.0069582188 -0.006821722 -0.003187072 0.0054199016 -0.003316775 0.0043596933 0.0020876257 -0.00058131834 -0.004859372 0.007059456 0.006191199 0.003974924 0.0017342139 0.003516421 0.004682748 -0.0048479 -0.005821467 0.0012763434 0.0060592513 0.0019259587 -0.0016743551 -0.004380782 -0.0031805697 0.0043698223 0.0029143968 -0.0046434114 -0.00046644337 -0.0076607796 0.007734645 -0.0056310296 0.0006821506 -0.0028375112 -0.0052216756 0.0041271774 -0.00041100173 0.0020006488
329 -0.0034529453 5.7345045e-05 0.0043650633 -0.004339488 0.0068419892 0.0024961184 -0.00039050766 -0.003961008 -0.002422531 -0.0014361794 0.0068470673 -0.0016454542 0.006883811 0.00484813 0.0057315216 0.007430276 0.0039700777 -0.0025296258 0.0034517671 0.00065246294 0.004811771 0.0035888772 -0.004101062 0.0048336727 0.0018760412 -0.0063157612 0.00250547 0.007395028 -0.005297836 -0.004160662 0.0025357252 0.0030729529 0.0056955395 -0.005760806 -0.0006595566 -0.0071134265 -0.005960069 -0.0055551305 0.00092720287 0.0030130998 0.0072953436 -0.0026063507 0.0055937944 0.0002568036 0.0038600867 0.00322933 0.0028979527 0.005456475 -0.0010838014 -0.006898627 -0.0034551336 -0.0006759362 -0.00693835 0.00065846083 0.0058763647 0.006379054 0.0057525896 0.0020120651 -0.004882904 -0.0061309794 0.0028561368 0.004488042 -0.0029320347 -0.00024223473
110 0.0045625465 -0.0031075473 0.0014841238 0.0071133156 -0.0076443385 0.0054288297 -0.004416658 0.0009549875 0.0069981464 -0.0012555714 -0.0009224692 0.004443073 0.0060127983 0.002146766 0.004941382 0.006223593 0.0012337578 -0.00086676836 -0.00041195127 0.0017200967 0.0029605636 -0.0028150734 -0.007760686 0.004353115 0.0025254928 0.0065680807 -0.0074178567 0.0025811228 -0.001425603 -0.0022610964 -0.0054205274 0.005263998 -0.0054669827 0.005293602 0.0036473884 0.0076005533 0.002114224 0.004953197 -0.001127203 0.0005326289 -0.0031465017 0.004651029 0.0042939237 -0.0050158417 -0.0042460244 0.0008213903 0.002330797 0.0018227596 0.0001664608 -0.0021155474 -0.0065103844 0.00525728 -0.004402256 -0.0064608734 -7.567076e-05 0.0022037448 0.0017067086 -0.0046430547 0.003828699 -0.00177159 -0.00063357665 -0.00019223236 0.003044146 -0.0013055392
100 0.0023992923 -0.004778637 -0.006927016 0.00241352 -0.00089286425 0.003274929 0.0038562668 0.0030520172 0.003514086 -0.004994433 0.0073222253 -0.0067080157 -0.0019416967 0.002245332 0.0010420354 0.003178301 -0.0048678 0.0036984442 0.0016538874 0.002897404 0.00641103 0.007091762 -0.0036260542 0.0019356814 0.0067818766 -0.005594668 -0.0073624025 0.0024541656 0.0020747303 0.003412757 0.00014022204 -0.0011868294 -0.0025458874 -0.006995034 -0.00058732514 -0.0021002118 -0.006237197 -0.0017140169 -0.005661156 0.0062556034 -0.007035234 0.003821833 0.00764385 0.0057975627 8.942173e-05 0.00098862 -0.0072292336 0.0026213685 -0.005511644 -0.0030611306 0.0038993692 -0.0005579024 0.0017099696 0.004239402 0.006782923 -0.0029825836 0.0070149624 0.0029289846 -0.0033475487 -0.000963189 -0.007091904 -0.00675178 -0.004604828 -0.0031457571
148 -0.0013822844 0.005444579 -0.0036151577 0.005074547 0.0063087177 0.0017724336 -0.005873034 -0.006501772 0.0020741527 0.004240288 -0.003293011 -0.0027161085 -0.0024061445 -0.005292832 -0.002256734 0.007802678 0.0062164105 0.0035659468 -0.0044050296 -0.0010329139 -0.004044609 0.0041066045 0.0035562238 -0.0014731999 0.0006877037 -0.005755361 -0.007689621 0.003554538 -0.00094165147 -0.0014545688 0.0044797487 -0.0016622548 0.00017399159 -0.002232437 0.0051001864 0.0062050987 0.00078325137 0.005360523 -0.0031676325 -0.0012971447 -0.00035499185 -0.0036053488 0.004531455 0.007272808 -0.0016290314 0.007094438 -0.00041521824 0.0030093715 -0.0038258138 -0.00069674186 -0.007043635 0.0025269364 -0.0034510572 0.0015859327 0.004698938 -0.005004994 0.004355682 -0.0020077503 -0.004749302 0.0028496946 -0.0055337558 -0.0039659147 0.002003996 0.006298682
81 -0.007799999 -0.0023418344 -0.0069236155 -0.006219048 -0.00088941667 -0.0012276956 -0.0069862483 -0.0010773786 0.004610708 -0.002805439 0.004273682 0.0049269544 0.005195203 0.0040061055 0.0035705126 -0.007319286 0.0019788686 -0.0041951365 0.0047377567 0.00071413344 -0.0023448074 0.0059271124 -0.006251323 0.0038614701 -0.0005257466 0.0038145839 0.0014577486 -0.004851584 0.0042078793 0.0049200724 0.0019540673 0.0003400706 -0.0059094625 0.0044808327 -0.0059361495 -0.003983798 0.0064794132 0.006921709 0.0013411293 0.0026264382 0.0050917673 -0.005392388 0.003284957 -0.0042347345 -0.0042051817 0.0056174295 0.0053575328 -0.0011032368 -0.006995409 0.0062725088 -0.002180899 0.0014488575 0.0072391555 -0.0064154654 -0.0031496845 0.0011724532 -0.0049504912 -0.00066194346 -0.0034472514 -0.0018828273 -0.00033613824 0.0024088155 0.0026596873 0.0035071257
94 0.0057765525 0.0031616474 -0.0013144666 -0.0025261282 0.0009354863 -0.0039237146 0.0034305486 0.0058822758 0.006324542 0.00088038034 0.0016824697 0.0024185698 -0.0002462128 0.0070337937 0.004853404 -0.0020797048 0.00452686 -0.001767979 0.005212996 -0.007493078 0.0075081494 -0.00015848059 0.000765819 0.005367362 -0.0028892774 -0.0017595247 -0.0012297777 0.0059625027 0.004633592 -0.0003603109 0.0008505916 0.0012609963 0.0024537668 -0.006204007 0.0054500126 -0.0063719666 0.0018266456 0.007160109 0.0011598282 -0.004853157 0.0015983164 -0.0040116273 0.00023957998 0.007518396 -0.00060778274 -0.0059621176 -0.0007708256 -0.0042045927 0.0032145728 0.0071045496 0.006894934 0.002782068 -0.0007672986 -0.0073703104 0.0025267298 -0.006043856 -0.0010242906 0.0058424613 -0.00507508 -0.0059704073 -0.0004001001 4.072023e-05 0.0038095852 -0.0015917287
109 0.0050351066 -0.0067796456 0.0022267709 0.0054231077 -0.0021479668 0.0049124886 -0.006777666 -0.004116826 -0.0009884755 0.00436469 -0.0009612642 -0.0073625636 -0.004652403 -0.002813635 -0.0064682644 0.0040942417 -0.0009335982 -0.0059241015 -0.0035441977 -0.006734642 -0.004640099 0.001039207 -0.005209713 0.00057789346 -0.00667223 0.0069983737 -0.0057635643 -0.00023694367 0.0049036406 -0.0010819269 0.0049588094 -0.0034116851 -0.0051558167 0.002418403 0.0058667264 -0.00081221375 -0.0016141727 -0.007310911 0.0051717255 0.006599 -0.00106611 -0.0006675672 -0.0034289537 0.0065248087 -0.0049278736 -0.0034452663 0.004923615 -0.0007991329 0.001590937 -0.0052166143 0.001744784 0.00048248764 -0.005711796 -0.0064009093 -0.006424471 -0.0038422355 0.0052561504 -0.0032789672 -0.0065610376 0.0023800877 0.004722284 0.0077026724 -0.004771413 0.0007567787
83 0.0047156205 0.0029468392 -0.0073729013 -0.002774488 -0.0031503912 0.0032197034 -0.0014935606 -0.005777753 0.0070379367 -0.0020006958 -0.0020127958 0.0012925541 -0.005375695 0.0024891933 -0.0052495436 0.00061017077 0.00363632 0.00476113 -0.0038427827 0.0020264483 -0.0045012645 0.0054917433 0.00297794 0.0049708583 -0.0005294204 -0.00526939 0.006987566 0.003643145 0.007243102 0.0073058056 0.00041955124 -0.005764728 -0.0071326457 -0.003462374 -0.0077711497 0.0067845476 0.0034618732 -0.004051256 -0.006772772 -0.0027044138 -0.006264426 0.0011788394 0.001232927 -0.004510432 0.006838359 0.00073286117 -0.00447778 0.0020244105 0.0033661658 0.004892703 0.0009714851 0.0038597097 -0.0005729004 0.0021414135 -0.0062304954 0.00295515 -0.0019301896 0.0027123992 0.0055330927 -0.006927495 0.007508531 0.004833027 0.001584272 -0.0061247824
102 0.007309348 0.005790574 -0.0035616683 -2.1052776e-06 -0.0037593886 0.0067437966 0.0075848885 -0.0001721177 -0.0037894684 0.0009610116 -0.0009412457 -0.0014902625 -0.00024594725 -0.007490191 -0.0022567266 -0.00444847 -0.0028528639 0.0003063774 -0.0034312212 0.0057826573 0.0033343264 -0.00033911795 0.00069748424 0.0025520974 -0.007232383 0.0062011583 -0.0032220639 0.004636498 -0.005380218 -0.0004467422 -0.0022431586 -0.0039200513 0.004010245 -0.0037214104 -0.0018513001 -0.0073178275 0.0025307678 -0.0023846258 -0.0035801558 -0.0007530367 0.0041598817 0.002861814 -0.006969606 -0.00035168807 0.006374689 -0.0049371324 -0.0063901553 -0.0038761108 -0.0046461653 -4.876482e-05 -0.00020564364 0.00422025 0.0010692915 -0.0011911689 -0.0041474816 -0.00694712 -0.0068418556 -0.00012823679 -0.002465998 0.0072246636 -0.00021485132 0.0064297086 -0.0016658902 -0.0025648128
241 0.0026791124 -0.0076488145 -0.0066187116 0.006850127 -0.00046963323 -0.0029252796 -0.003544162 0.007572329 0.0049279546 0.0049241064 0.000763462 0.006617912 0.0047816327 0.003560607 -0.007401764 0.006169901 -0.0054710535 -0.005834542 -0.000763738 -0.0007550825 0.0058673946 -0.0013563113 -0.0052712793 -0.006383435 -0.00259569 0.001192876 0.006246527 -5.382573e-05 -0.0032468063 -0.0076244147 -0.00024019093 -0.0054933093 -0.005352019 -0.007800293 0.0027495802 -0.006149398 0.005491385 0.0073939175 0.0022271664 -0.0006677852 -0.0043982957 -0.003925062 -0.0024751392 0.007516234 0.002921448 -0.006714811 -0.0022652494 -0.006499139 0.0041071353 -0.002227003 0.006347059 -0.0049423114 -0.005045362 0.007469344 0.0059017963 -0.005826725 -0.006682692 -0.00040512966 0.005076895 -0.00016488046 0.00778629 -0.0036795218 -0.0038918636 -0.00024105147
99 -0.003923081 -0.006079352 -0.0074777794 -0.0023380825 0.0023605179 -0.00079204526 0.0068501886 0.00034643916 0.0027490268 -0.0009208449 0.0058813216 -0.0067324135 0.0039567384 -0.0004452013 -0.0021072677 0.0072331512 0.0069487984 -0.0013123229 -0.0034421242 0.006557593 -0.007390452 0.0067723054 -0.0062006465 0.0035534406 -0.0014156973 0.0015407371 0.007290999 0.002931682 -0.0069244304 -0.0023822424 -0.0012180697 0.004512559 0.0046342276 0.0017602522 -0.0076216594 0.0035426868 0.0029474602 -0.003443603 -0.0008951877 0.0029635134 0.0059104636 -0.00077374757 0.0048846253 -0.006472808 -0.0041486905 -0.00721303 -0.0049910164 0.005931845 8.134466e-06 0.0061372067 0.0035210573 0.0002371421 -0.0012263563 -0.004500904 -0.0020748237 -0.00438742 0.0037488602 0.0041014836 0.0028140119 0.0020532964 0.003759866 0.0064479653 0.0073749167 -0.0005745606
89 -0.0028962204 0.0017468215 0.0034024292 0.0016723177 -0.00095914153 -0.0025829358 0.0053942837 0.00011271291 0.005639371 -0.0020771348 -0.0016687746 0.006901739 -0.00639493 -0.0030161638 0.0077184313 0.0044005765 -0.0029215647 0.0057360115 0.0009947405 0.0023775885 -0.0075930306 -0.0018549713 -0.001657523 0.0049248594 0.00596964 0.0025911313 0.0020600602 -0.005017238 -0.0034864203 0.0062863845 0.0021948703 0.00499531 -0.0034794922 0.0031330194 0.005998783 -0.0011799657 0.00407453 0.004936367 -0.0037600594 0.0050865263 -0.00395341 -0.0030837301 -0.0018295728 -0.00510162 0.0049455557 -0.0022835836 -0.0020277556 0.0025062494 -0.0037106122 -0.006447875 0.0072321524 0.0033222004 -0.0012383449 0.0006528363 0.0019009411 0.006239165 0.0037461591 0.0041025984 0.0029319834 0.003227413 0.004307932 0.0042720726 0.007345282 0.0041975593
74 0.0019818738 0.0059557995 0.007564795 -0.0051680556 0.0049563134 -0.0027232103 -0.0031741674 0.0059498693 0.0053339973 0.0010422854 -0.0061647906 -0.00613855 0.0030567537 -0.0019808689 -0.0071384995 -0.0073169805 0.0070717405 0.0027180614 -0.0056307185 -0.0036570397 0.0015677752 0.0018293067 -0.0044974405 -0.0010615558 -0.006454026 0.00084955344 0.0038596205 0.0054362565 0.0066337967 0.004482164 0.0070481906 0.00664452 0.006508324 0.0075717247 0.004245052 0.0064580673 -0.0048129875 -0.0045754295 -0.0012066119 -0.0018201661 0.0010506088 0.004637055 -0.0052598417 0.0009157762 0.0007599495 -0.0012208967 0.0044845217 0.0056406613 -0.005112654 0.0023178284 -0.0077746557 -0.0070033623 -0.0046833633 0.00374185 0.0065568853 -0.0042304434 0.0013078706 -0.0013004831 -0.0014607311 -0.0023627433 -0.0010615424 -0.0043000537 0.0004055092 -0.006245528
45 -0.0049721403 -0.0013555078 0.0020213018 -0.0011619533 0.0039917897 0.0068776472 0.0064453776 0.0014683761 0.0057616076 -0.003043089 0.007022561 -0.006572074 0.00114705 0.004249097 -0.0068750787 0.004649487 -0.002814382 -0.002186509 0.0012290832 0.0023217243 -0.004498535 0.006098284 0.0026329237 0.00031918113 0.006447974 0.0048177196 0.006958343 -0.0041976064 -0.00196959 -0.004569935 9.351414e-05 0.0021958442 -0.0023316033 -0.0006684643 0.0057297302 0.00719862 -0.007352269 0.0051038093 -0.0007447402 -0.0052450397 0.004027031 -0.0073470785 0.0048631886 0.00057150907 0.0022212756 -0.0061308374 0.004578881 0.0029120222 0.0073241466 0.0071081873 0.0034898808 0.0055760196 -6.501256e-05 -0.007159778 0.0076534767 0.005030361 -0.0057008686 -0.0010279336 -0.006810959 -0.006019267 -0.0058790995 0.006198289 -0.0033388075 -0.0003098204
140 0.0075370567 -0.00096178293 -0.006006497 0.0015557741 -0.0020048264 -0.00021320088 0.0047606337 0.0074746264 0.0056826854 -0.003704081 -0.0011505927 0.0077105565 -0.003505419 -0.002587237 0.004979516 -0.006791945 -0.0027037335 -0.0059930803 -0.0052270894 -0.0006984931 -0.0012048346 -0.0014275431 0.0069626775 0.005291078 0.0069047064 -0.0049913665 0.0025661746 -0.0049250587 0.005649035 -0.004507966 -4.1162857e-05 0.0015987395 0.00021773901 -0.0060556848 -0.0045040273 0.0076510813 -8.366717e-05 0.0004882879 -0.002461795 0.005073045 -0.0063534747 -0.0072737336 0.005671717 -0.0006543549 -0.0013183944 0.006581929 0.005671961 0.003923859 -0.004695719 -0.00286934 0.007431967 0.00095247617 0.0030694318 0.0054697446 0.005177882 0.0065690507 0.006381972 -0.0037258505 0.0060071438 -0.00035683226 0.0064512156 0.0069232443 -0.0006594072 -0.0012229849
103 0.0016640717 0.004477485 -0.004379913 -0.0027319402 0.0037665628 0.0016210985 0.0033946368 0.0043260073 0.006050562 -0.0033067514 -0.006609857 0.007294502 0.001941805 -0.0049253497 -0.0071093007 0.007359456 -0.006250096 0.0030672825 0.0067735612 0.0064217206 -0.0027331326 0.0067332885 -0.005440194 0.0077504185 -0.002615965 0.0009706827 0.0006094263 -0.0016982547 0.006351408 -0.0015008583 0.004394534 0.0036369707 0.0009664112 0.00780403 -0.0027712055 0.0028655776 0.0009216762 -0.001217101 0.00048674297 0.0017967874 0.0004896643 0.0003063102 0.0039356467 0.00056495087 -0.0037466553 -0.0058035045 0.0015946595 0.0032241843 -0.002278448 -0.0057334155 -0.0052918587 -0.0056120777 0.00074411003 -0.0031897586 -0.00034568788 0.0061297426 0.0004283296 0.002411839 0.0029624263 -0.005903108 -0.0012041606 -0.0022480732 -0.002303455 -0.0015407423
181 -0.0006728491 0.0021911894 0.007159447 -0.0020599547 0.0018767504 0.005808604 0.005581924 0.004184139 -0.0014749098 0.0035756915 -0.0068320637 -0.003689614 0.0025738871 0.0051847054 -0.0024283987 -0.0023283202 -0.0056062993 -0.0015299006 -0.0028922297 0.00016782763 -0.0025953944 0.0034559774 0.0001023883 0.00072480144 -0.00271612 -0.0006387093 -0.0010149798 -0.0030156458 0.005719603 0.0035793274 0.002123754 0.0038256878 0.0006171479 0.0021516045 -0.0011299257 -0.0015150419 -0.00020060648 -0.001177585 0.0076073934 0.0034778595 -0.0033926123 0.007671628 -0.0022108213 -0.0004271047 -0.0042911316 0.0016309984 0.0034674145 -0.001684749 0.0046862965 -0.0021542443 -0.006868431 0.0016691096 0.007649696 -0.0012625054 0.0077133616 -0.0059281 0.007163489 0.0036358065 -0.005319581 -0.0024239891 0.00034444925 0.0024943938 -0.005942358 0.0064399787
91 0.0069609755 0.0034991372 0.0069750575 0.0069097425 0.0011908434 -0.00013623349 0.004514861 0.006357012 0.0052052303 0.0057052234 0.0055836234 0.002784119 0.0009461181 0.0064266287 -0.0051728217 0.0022758315 0.0028482052 -0.0029137174 -0.0031198752 -0.0006581229 -0.002720534 0.0057125133 -0.0020180675 -0.006811123 -0.0061461674 -0.001265265 -0.004501454 0.0031448482 0.0068495106 -0.0029498101 -0.0068096453 0.0070169684 0.005746905 -0.003074116 -0.00738377 0.0030388846 -0.0020273938 -0.0009100385 -0.004450389 -0.003339275 -0.0038255996 -0.0012240721 -0.0029521636 -0.0010034973 0.00090494414 -0.0024472955 -0.0076846527 0.0051245205 -0.007287608 0.0017056605 -0.0075608254 -0.00610057 -0.006792246 0.0016015267 -0.001967337 0.0042265547 -0.006343687 -0.0072842813 0.0058372933 -0.0014217455 0.0061112833 0.0051724077 0.006805236 0.003190291
86 0.0050826855 0.0057703555 -0.00015942518 0.0053576715 -0.0058673364 -0.001625823 -0.0037764693 -0.0039223772 0.0071800267 0.0030277437 0.0014510622 -0.0062262365 -0.0038425967 -0.005081398 -0.0004720575 0.006538058 0.0013996063 -0.005420501 0.0036599808 0.0030842603 -0.0016329833 0.002059513 -0.0020247009 -0.004927398 0.00027488018 0.0042791334 -0.004700781 0.00644897 -0.004799045 0.0064743925 0.006386629 0.005358693 0.002242021 -0.0077278083 -0.0043074666 0.0018500955 0.0038392353 -0.007596917 0.005274809 -0.006943132 0.005276468 0.00378925 0.004094962 -0.0058064573 -0.0033787312 -0.0051234253 -0.0011084806 0.0048414906 0.006558308 0.006656789 0.005172201 0.0029136445 0.0029473086 0.00494464 0.0010846 0.0005189077 -0.006992498 -0.0018997969 0.002992798 -0.005581119 0.005382978 0.003990786 -0.0033102308 0.0032548136
98 -0.0021805968 -0.0032126536 0.006150141 0.00015134561 -0.0022472246 0.0006516723 0.00018421754 -0.0014281529 -0.001022756 0.005506114 -0.00498816 0.0076100305 0.0030070927 -0.0012654726 0.0052295593 0.0011913375 0.007327288 0.0010678348 -0.0010691833 -0.00056804233 0.0016723742 -0.0042436738 0.003366994 0.0036976342 -0.00016335279 0.007530406 0.001511144 -0.00069948076 0.0020922632 -0.006160007 0.003636426 0.0052223676 -0.0034878105 0.00065628317 -0.0020097 0.0054838657 0.0022300836 -0.0032757584 0.0055127004 0.00063785334 0.0078093815 0.002440871 0.002420847 0.0057672085 0.0048535597 -0.005882586 -0.007292427 0.004830972 -0.00021506957 0.0028194545 -0.0030371584 0.0015521586 0.0049953777 -0.0013230855 -0.0017618536 0.00061253156 0.0034497532 -0.0077454657 -0.0044670226 0.0069007766 -0.002410973 0.0076233475 -0.0033820113 0.00094373146
59 -0.004850009 0.0042492603 -0.006401339 -0.0044714063 0.0040441733 0.003117042 -0.0043976046 0.0025315655 -0.0030896307 0.0048781727 -0.0017340012 -0.0033367397 -0.0066791084 -0.004075139 -0.006112822 8.343422e-05 0.0074295667 0.0031764684 0.0027532135 0.0075878142 -0.007248636 -0.0045884866 -0.003504695 -0.002966129 0.0024035457 0.0013555443 0.007324263 -0.0040760245 -0.002655924 -0.0036093355 -0.0009601791 0.0072282306 -0.00062963914 0.007331641 -0.006006808 0.004341721 0.0027986635 -0.005207624 -0.00604453 0.0067003663 -0.0021440727 -0.0064800885 0.0044130636 -0.006765305 0.0028389199 -0.0014401566 0.005180955 0.0058016637 0.007051836 -0.0026704157 0.00637119 0.0021953702 0.00032232396 -0.0027280932 0.007304866 -0.004615782 0.0029250714 -0.004513499 0.0002940559 -0.00045849982 0.0012645507 0.006928037 0.0070821345 -0.005499296
128 -0.0049969507 -0.0052996865 0.0017291488 0.0002991401 0.005854271 0.006850726 -0.0030584193 -0.0061896998 0.007395151 -0.0059210365 -0.003194764 0.0062649376 0.0021118952 0.0046536024 0.006287334 -0.0035472452 -0.0076762754 -0.006680265 -0.0064756987 0.0009769396 -0.005806967 0.003506169 -0.0013731305 -0.0061903144 0.006258015 -0.00259085 -0.003375218 0.000802665 0.0042756475 -0.0071724504 0.007384354 -0.0037565755 0.004839805 0.0077275126 0.004522244 0.0018355945 -0.00032138955 -0.0044945898 -0.00062121125 0.0020755483 0.003993835 0.0013482121 0.0038922224 -0.0057360684 0.0036753998 0.0031868902 -0.006876286 0.0067098117 -0.006230754 -0.0038485257 0.0053957673 -0.0030828887 -0.0051842346 0.0033981996 -0.003271044 0.007711791 0.00058232626 -0.007003433 0.004644026 0.00369788 -0.00050146773 0.0015072857 0.001504469 -0.006372633
178 0.0066744876 -0.0022142217 0.0035590709 -0.00055872183 -0.0048907427 0.007178712 0.005554905 -0.0055789324 0.00033414803 0.00024485786 0.0047162618 0.004835133 -0.0043005473 0.0071579567 -0.006666906 0.00022138373 -0.006314348 0.006383704 0.0016154347 -0.00074187573 0.0064863134 -0.007352675 -0.003015608 -0.006646867 5.3952972e-05 0.0013340903 -0.0015463074 -0.0012339755 -0.0035260872 0.006750471 -0.003094751 0.0019610508 -0.0061350022 0.0029653797 -0.0055927415 -0.004593439 -0.00048017292 0.006566079 -0.0072069704 -0.0058819735 -0.007151828 -0.00029315936 0.004798904 -0.0037942755 0.005651607 -0.005642594 0.0022650128 -0.004725874 -0.0014948723 -0.0023207697 0.006820314 -0.0054681455 0.0043877373 0.00022304633 -0.005035496 0.0031636723 -0.005100435 0.0008191626 0.005023992 -0.0026252326 -0.007463167 0.005730443 -1.8201335e-05 -0.0004971708
299 0.0030373612 -0.0051975967 -0.0062065814 -0.0067255017 0.0010296801 -0.0003969029 -0.003317783 0.0016517381 -0.002177283 -0.0019342166 0.0035438582 -0.00710626 -0.0077874977 -0.0010311801 0.0015703898 -0.0035417709 -0.0077649723 0.004607473 -0.005477594 -0.006628133 0.001782864 -0.0026006564 0.0070347968 0.0053894394 0.0038037763 -0.0021815856 0.0018331761 7.6792734e-05 0.0049918615 -0.001988538 0.002106751 -0.0051358338 -0.0063068126 0.004602101 -0.0029965462 0.0022977903 -0.0033443056 -0.0024451017 0.0025635455 0.003369637 -0.0071987994 0.001971061 0.0038119047 0.0060470495 -0.0051359893 0.004707558 -0.0058175046 -0.00014713108 -0.00042514037 -0.004192125 -0.0025005452 -0.0041345605 0.0067241224 -0.0029428068 0.0072920616 0.0061621414 0.001771896 -0.0015173078 0.002938997 -0.0025443598 -0.004389218 -0.003881132 -0.00643947 0.0010976859
158 0.0011960823 0.0042650388 0.006729958 -0.006923831 0.0039564893 0.004825239 -0.004090462 -0.0030861474 0.0023121743 0.004387856 0.0057499846 -0.0012940957 -0.005656088 0.007667412 0.005763514 0.002125183 -0.0012989576 0.003923374 0.0010539303 -0.007801269 -0.0017388293 0.005199442 0.0039925873 -0.0015974647 -0.004090028 0.0011023538 0.0031901416 -0.002693506 -0.005303474 -0.0053448984 -0.0029633418 0.0037284603 0.0032533223 -0.0075960094 0.0057379687 0.005517057 -0.002752835 -0.0052501787 -0.007145443 -0.0076295626 0.0047644577 -0.0030992718 -0.0021491118 -0.0006471732 0.0014052402 0.003847513 -0.0012450622 0.00016494372 -0.003966182 -0.007600029 0.0029049302 0.0024111578 -0.0053358013 -0.0038047836 0.0030731105 0.0037754572 0.007772228 0.006267187 -0.0027745562 0.0032291284 -0.0058626896 0.0042476603 -0.0054481947 -0.0018818872
187 0.0029525242 -0.0017025259 0.006221856 0.00034143272 0.0008520052 0.0051512523 0.0045229103 0.001365225 0.0024439562 0.0029385388 -0.0070221764 0.0072421078 0.0037473936 -0.0019676439 0.0051496406 -0.0009362117 -0.0032854972 0.0035524578 -0.0050078514 -0.006524977 -0.0028329333 0.00016175848 0.005469969 0.004089208 0.005140019 -0.0037158441 -0.0066940025 -0.006050643 0.004658654 0.006150407 0.0064187455 -0.0077279513 -0.005177514 -0.0063496903 -0.00037419685 0.00085618853 0.004046901 0.0068589407 -0.0030386865 -0.0069901873 -0.0005979029 0.0017574026 0.0022391698 -0.0059119454 -0.00439706 -0.0063441047 -0.0026978008 -0.0044632247 -0.0075218715 -0.005064166 0.00018305203 0.004946161 -0.0038140337 0.0056124283 -0.003988201 -0.006445504 -0.0027258014 -0.0013501592 0.005253215 0.003034246 -0.0020023345 0.0009776646 0.0025726273 0.002304581
