500 128
0 -0.0034371985 0.0027767862 -0.0026247676 -0.0036177114 -0.0029467496 -0.0010629918 0.0030353826 -0.0034709245 0.0036282698 0.00011927571 -0.003433631 -0.0009805348 -0.0037947036 -0.0028840404 -0.0014151547 0.0036819454 -0.003148289 0.0017617045 0.001333232 -0.00014939091 -0.0006259656 -0.003834482 0.0035363704 -0.0012791428 0.0023534803 0.0027998616 -0.0035796242 -0.003438351 -0.0031577277 0.002574298 -0.0022459817 -0.00048115628 0.0033261194 -0.0022516088 -0.0012454627 0.0010695435 -0.0027425042 0.0037620054 -0.0038660446 -0.003579858 0.0019692034 -0.0030999845 -0.0033646305 0.0024271216 -0.0024777653 -0.00045204148 0.0025459176 -0.0017984576 -0.002867662 1.1986914e-05 -0.0038407315 -0.0016579852 -0.0015415559 -0.0038354932 -0.0032897585 0.0011351864 -0.00092112774 0.0023550363 0.0030476928 0.00040597763 0.0003005918 -0.0023201231 0.0006739612 -0.0013315459 0.0017923162 0.0015377788 0.00029808725 0.0011005516 -0.00344028 0.0018104255 -0.0004304147 -0.00084672234 0.0012582965 -0.0021909126 0.0007993857 0.00032934945 -0.0014672272 0.0012491725 0.000482387 0.0030384397 0.0038663237 0.0032251934 0.00016755237 -0.0031682467 -0.002992525 0.0013929917 -0.0018253642 0.0032922311 -0.002745298 0.0010845653 -0.0036840064 -0.00077589886 0.003037812 -0.003559937 -0.0017307887 -0.0033147922 0.0006942854 -0.00014510116 -0.0014703778 -0.0017804818 -0.0019608994 0.0037922594 -0.0015988036 -0.003602361 0.00061669084 0.00046243233 -0.0029890202 0.001070042 0.0023730241 -0.00085028337 0.0004828931 0.0007168584 -0.0025562744 -0.00073600805 -0.0031800643 -0.0022138439 0.00080225256 0.0011226314 0.0014849646 0.0035565486 -0.0033239212 0.001334852 -0.00079604384 0.003637008 0.0031804102 0.0027901512 0.0036291743 -0.0033771207
1 0.0024493486 0.00043706005 0.00096528494 -0.0002532469 -0.0014792011 0.002124312 -0.0036358577 -0.0023226338 -0.0025966393 0.0029611571 -0.0032184208 -0.002174518 -0.001671445 -0.0037738073 -0.0027069603 0.00011375346 -0.00348362 -0.0018405493 -0.0014465248 -0.0013047225 -0.003452053 -0.0022509063 0.0015863752 -0.00086726353 -0.0017361454 0.00054357696 0.0030884317 -0.002736393 0.0018005472 0.0020664146 -0.0034508472 -0.0021327173 -0.00046049312 5.301246e-06 0.002246374 -0.0033262067 -0.0020089138 0.0002635958 -0.0031669359 -0.0027732195 0.0025564688 -0.0033609709 -0.00090183853 0.002083431 -0.0032596125 -0.0036640316 -0.001049431 0.0034290196 0.0018290314 -0.0005502527 0.00022816761 -0.0015724367 -0.003209551 0.0036785821 0.00044606376 0.00042802113 0.0030295744 -0.0024022313 0.0008295675 0.00224482 0.0028296218 0.0027799038 -0.002389625 -0.0029752026 -0.0035067915 -0.0013263075 -0.00032530437 -0.00049506186 0.0026154763 -0.0026554288 0.001181713 -0.0022026945 -0.00046825173 0.00096743257 -0.00011962394 0.0024097776 -0.00077759306 0.0030351616 0.0019145817 -0.0019255991 -0.00050790247 0.0025105635 0.00038858637 0.00037511284 -0.0014484156 -0.0023049293 0.0003061319 -0.00056135247 -0.0023613297 -0.0013450806 0.0014725315 -0.0025901122 -0.0011607053 0.00070478464 0.0036618232 0.0019865907 -0.0028470508 0.0005008664 0.003748381 -0.003655903 0.0026873983 0.00043348735 0.0011969692 0.00040661354 0.0012237804 0.0011961794 0.0022689113 -0.001083097 -0.0013001156 0.00056033663 -0.00031495688 0.0025980868 0.0023821138 0.0009853899 -0.0024609265 -0.0013042105 -0.0017070324 0.0016921866 -0.0016360568 -0.0016610554 0.0016004004 -0.0038741427 -0.0015678193 0.0031926043 -0.00071369077 -0.0004098238 -0.0016554033 0.0027427769
2 0.0012450322 0.0038172603 -0.0035362705 -0.0029061742 0.0012803202 -0.0028835346 0.0024756878 -0.0017009311 -0.0037745168 0.00017562581 0.0031112088 -0.0035092402 -0.002026539 -0.00093578687 -0.0023055715 -0.0030213238 0.003252179 0.0027447024 0.0017727856 -0.0035177276 -0.002590267 -0.0011803597 -0.003213349 -0.0005532346 -0.0028825095 0.0008458692 0.003066052 0.003696109 0.0024147774 -0.0012835453 -0.0012113742 -0.003844035 3.5603805e-06 -0.0024562809 -0.0008032667 -0.0030954233 -0.0019604685 -0.0004618538 0.00036656894 0.002196432 -0.00022286142 -0.0035213677 -0.0035033384 -0.0015644328 -0.00019924884 0.00021574738 -0.00037337188 -0.0028893086 0.0027997943 0.0014906072 -0.0013038003 -0.0026113503 0.002865837 0.0012403919 -0.0026712005 -0.0009377892 0.0032441225 -0.003653687 0.0003221982 -0.0018654923 -0.0022926421 0.0020941126 0.0018633461 0.003231948 -0.0033426117 -0.0016382467 0.00048474784 -0.0019732148 0.0010586068 -0.0033184597 -0.0005918285 -0.0008977589 0.0032606572 -0.0027710425 0.0028056777 0.0010832446 -0.0022468832 0.0026519836 -0.0034778211 -0.00029598898 0.0019728665 0.0027776754 0.0013599605 -0.0027443354 -0.00039206934 0.002978652 -0.0027317451 0.0032153311 -0.0004341765 0.0031870876 -0.0016654632 -0.003626627 -0.0035181313 0.0033583501 -0.0008896233 -0.0031065994 -0.0013825012 -0.0016977617 -0.00079147355 -0.0030628634 -0.0007432364 -0.00059206487 -0.001947226 0.0026640864 0.0035201763 0.0025189943 0.0024353457 0.0030291595 3.420077e-05 0.0021627287 0.0027333049 0.0027018862 -0.00069069513 0.0021313631 0.0038667207 0.0019532698 -0.00078680686 0.003285819 0.0016522311 0.00251215 -0.0026656166 -0.00030183085 0.0010729685 -1.4927338e-05 -0.002874002 0.0020035142 0.0018517766 -0.002826639
6 0.0025935436 0.002467498 0.001099058 0.0037652294 0.0015047513 -0.001191514 0.0020920709 -0.00032410552 0.0010797095 0.00024007788 0.002597952 -0.0025797393 0.00085029704 -0.0024633603 -0.0012060795 -0.0019406347 0.0025358887 0.000525986 0.0027500852 -0.002750928 0.003204454 0.003699991 0.0025079406 0.0016306388 0.0019762574 0.0027572068 0.0006493583 -0.00016029246 0.0012848503 0.0010241632 -0.002462959 0.0029255848 0.0030001153 -0.0010253548 -0.0028883717 0.0016001271 0.0021983234 0.0003309222 0.0013402168 0.002009813 -0.003561377 0.003856048 0.0025957143 -0.0023169343 -0.001721217 -0.0034276526 0.0027154724 -0.002330171 0.0014149211 -0.0009506381 0.0024586234 -9.383046e-05 -0.001892996 -0.0038124404 0.0037731144 -0.000955664 0.00112098 -0.0015222306 0.0033265264 -0.001401844 0.00055273314 -0.001946832 0.0021077653 -0.0012434404 0.0031761634 0.00224927 -0.0037170243 -0.0027464533 0.00064028654 -0.0019144923 -0.0020922928 0.0031357198 0.0013699405 0.0035050856 0.0006786778 0.0011712776 -0.0035448952 0.00037124913 -0.00269465 0.0018271841 0.0007037577 0.002880575 0.0008849321 0.0009324995 -0.00080377964 -0.0029723654 -0.0008404684 0.003140617 -0.0031836648 -0.0018614532 0.003648845 0.00040551848 0.0022212197 -0.0032530383 0.0034581476 0.00047586896 -0.0008676372 -0.0015695487 0.0015634734 0.0033006505 0.003863208 0.0037508844 0.0016699241 -0.002983729 -0.0012327018 -0.0025703039 0.0017090545 -0.0026882442 -0.0036640503 -0.002273728 -0.00041331968 0.0018302025 -0.0033020244 0.003300038 -0.0027900904 -0.0014773518 0.0030481664 -0.00027141342 -0.0038200733 -0.000928094 -3.549072e-05 -0.0020825095 0.0017041919 0.002173322 0.0032259377 -0.001770365 0.0032269335 0.0030417861
5 -0.003103633 -0.0027482607 -0.0031253777 3.5614856e-05 -0.0020161339 0.0009747777 -0.0012091218 0.0028337415 0.0016777569 0.0023301297 0.0030877783 0.0011780333 -0.0018878633 -0.0019254402 0.0016954247 -0.0024827893 -0.0033525538 0.0007051821 -0.00301257 -0.0003386611 0.0005051988 -0.0015361417 -0.0024974812 -0.002219237 0.0020095047 0.0011649772 0.0019614883 0.0011170404 -0.0017548059 0.00081423024 0.0018679692 0.00017210211 0.0016448435 -0.001619551 -0.00019574784 0.0035981059 0.0023697165 -0.00064594514 -0.0014720052 0.0023817967 0.0008233551 -0.0034316091 -0.00069178996 0.00088164484 -0.0024512946 -0.002849839 0.0009128317 -0.0029686696 0.0021821873 0.0010963343 0.003684403 0.0014084319 -0.00356655 0.0017607387 -0.0013981812 0.0014728957 0.00067656895 -0.001057016 0.0011963218 -0.0019598675 -0.0006516788 0.0024861759 0.0016320684 0.002253321 -0.003691327 0.0023117429 -0.0008082025 -0.0007615527 0.0025450687 -0.00028367725 0.0024452747 0.00047722456 -0.000116767296 -0.002838305 -0.0020314287 0.003778511 -0.0037640168 0.00039923936 -0.0022497778 -0.001318755 0.0001429328 0.0026423375 0.0011767268 0.00094581494 -0.0005633418 0.0017118867 -0.00018872299 -0.0015337083 -0.0020855516 0.00188501 0.0035599156 -0.0011570675 -0.0009328399 0.0032590735 0.0010396697 -0.0025286144 -0.0010622302 -0.0011064534 0.0027118125 0.0010078665 -0.0020525956 -0.0019205193 -0.0026687395 -0.0005985606 0.0016889193 -6.958131e-05 -0.002283345 0.002751669 -0.00086662965 -0.0005852486 -0.0024359196 0.0020288366 -0.00010657468 -0.00083721126 -0.0013832975 0.0013500793 0.002981132 0.0016020382 -0.00043139356 -0.00046301424 -0.00061041705 5.8774032e-05 0.0028547505 -0.0031448945 0.0030035565 -0.00034415978 -0.002616796 0.0031209115
7 0.0013809332 0.0031360136 -0.003087539 -0.0026802612 -0.0014127432 -0.0019251524 -0.0025681457 -0.0038629733 0.001252655 -4.1039748e-05 -0.0029288353 -0.00018597211 0.0005338758 -0.002025805 0.001966456 0.0020778961 0.0014170475 -0.003855761 0.0019050458 5.6444052e-05 0.0007673961 0.0010578405 0.0029239042 -0.0017317727 -0.003206392 0.0012109554 0.0022640803 0.00056467176 2.0111374e-05 0.003220788 -0.0003814886 -0.0013921097 -0.001551571 0.002265176 0.0024852047 -0.003806589 -0.003655976 -0.0019273191 -0.0024447213 0.0031080204 0.0036819736 0.0021925808 -0.0017489913 0.002843343 0.0011751173 0.0023844128 -0.0037610685 0.001707069 0.0033320123 0.002948595 -0.0023546931 0.00023203799 0.0036054628 -5.7054996e-05 0.003040325 -0.0037922892 0.0018285568 -0.0021875964 0.0020291638 0.0035095573 0.0014361064 0.0021049192 0.0031993943 0.0025277035 -0.0024453795 0.0016980374 0.0005273706 -0.0028415471 0.001701504 -0.0038138737 0.0007560974 -0.0012196692 0.0028962598 0.0007082341 -3.8677525e-05 -0.00021048659 0.0034463182 -0.0008215664 -1.7910175e-05 0.00032239108 -0.0032507 0.001682551 0.0009665828 -0.002297766 0.0012711415 0.0012506413 0.0010363804 0.0035076179 0.001816787 -0.0007101956 0.0030586785 -0.00075109093 -0.0032442643 -0.0008219394 -0.0021964705 7.6476674e-05 -0.0008226971 0.0013084605 0.0015525097 0.0028834709 -0.00014677354 -0.0012691837 0.0035689422 -0.0011774049 -0.0031589835 0.0016075302 0.0015869285 0.00021683432 -0.0013257617 0.002146561 -0.0028741108 -0.0019296659 -0.0014411013 0.0034127135 0.0022475119 0.002768789 -0.00036396418 -0.0020679964 -0.0016815264 0.003744246 0.002886091 0.0011948391 -0.0010494035 0.0001860161 0.002602332 0.0005883493 -0.0025265384 -0.0025138527
20 0.00091190165 -0.0032042735 0.0020191192 -0.0027237218 0.0005383072 -0.0032667003 -0.0018131604 -0.002387722 -0.0035132358 0.0036710198 0.0024089732 -0.0038525532 -0.0021281722 0.001991771 -0.0019104489 0.00032286992 0.0034025128 0.0005973664 0.0018877251 0.0022278803 0.0010754623 -0.0035987513 -0.0009609164 0.002242586 0.00015216153 0.00068577146 0.0010138376 0.0021871342 -0.0022141545 -0.0025347902 0.0037744087 0.0029134904 -0.0016618804 0.0013677726 0.00090372027 0.0026914186 0.00065208215 0.002725426 0.0014652282 0.0030312575 0.0009203553 -0.0022327763 0.0038858876 0.0017411839 0.00028460674 0.0024755136 0.0033221075 -0.00063477835 -0.002398607 0.0013313941 -0.00089256436 -0.0010971926 -0.00023227102 -0.0025903387 0.0034371805 0.0038824405 0.0011881514 0.003859038 -0.0021087683 -0.002857816 0.003669628 -0.0035940562 0.0014791165 -0.003375488 0.0017649306 0.0027584552 -0.001982139 0.0017483594 0.0019320243 -0.0024528368 0.00094286224 -0.0037305895 0.0027400262 -0.0026027262 0.0013775966 0.00056255766 -0.00066447456 0.0035785881 -0.0016707598 -0.003007862 -0.002946969 0.0019257719 -0.0035995564 -0.0024448184 0.00016043326 -0.0010147648 0.0035916942 -5.280668e-05 0.0012154653 0.0017155894 -0.000929542 -0.0025016728 0.0026245588 -0.003432294 0.0031615128 -0.0008144735 0.0006330558 -0.0015594034 0.0028149365 -0.00078682386 0.0029966652 0.0030387775 0.0021606896 -0.0020012478 0.0030271767 -0.0029066242 0.0010847567 0.0011065116 -0.0016072693 0.0011049265 -0.0035634432 -0.0030259625 -0.00045807954 -0.0022330184 -0.0002058492 0.00026197504 -0.0026662983 -0.0011774668 0.00015438368 0.003887815 -0.0009035115 -0.0019662902 -0.00077435415 -0.0013849105 -0.0013498593 -0.003302167 -0.001120328 -0.0013923851
10 0.0025851387 -0.0032076836 -0.0016412523 0.0024570993 -0.0029003513 -0.0014054299 0.00089617464 -0.0011873266 0.0035174193 -0.0034637125 0.0010716087 0.0014452363 0.0015746191 -0.0026777603 -0.0031131203 0.0037635805 -0.00027713992 0.0011134791 0.0028107543 -0.0026626484 -0.0038834224 0.0008226234 0.0017099627 -0.002235176 -0.00037041193 -0.0013724875 -0.0018200298 -0.0007248557 -0.0032054412 -0.00077764795 0.0026674687 -0.00096514064 -0.003886685 0.0024326576 0.0037737293 -0.00132383 -0.00050426915 0.0015077164 -0.0018404527 0.002375099 0.0013351025 0.0031243416 0.0035495039 0.0018707123 0.0010845269 0.0031428512 0.00043685923 0.0025529012 -0.0015150463 0.0017131579 0.001202507 -0.0016612038 -0.0020880275 -0.0028089888 0.0005573272 0.002492036 0.0034639728 0.0011771714 -0.0010478246 0.0026155624 0.00091533345 -0.0006177302 -1.9504405e-05 0.0021036614 0.0014514016 -0.0034857253 -0.0032463176 0.0016828694 -0.002052921 -0.0025911988 -0.0035326458 0.00051921 0.00075275404 -0.0014546004 0.002545304 0.0017433855 -0.000689736 0.00035653217 0.0022281187 5.3700605e-05 0.0012922876 -0.0028693718 0.0025126433 0.0014680946 -0.0002192079 0.0024726142 -0.003879267 0.001743488 -0.0015432043 -0.0013669563 0.0036075008 0.0024682414 -0.00094035297 0.0027653791 -0.0001102928 -0.001913572 0.0031198943 -0.0004503136 0.003727063 -0.0032633564 0.0014050241 -0.002607337 0.0018035095 0.0019269832 -0.000110817724 0.002955578 -0.0015178673 0.00020011475 -0.0037734003 -7.764058e-06 0.0018768522 -0.0022189 -6.101014e-05 -0.0026376497 -0.0021873033 0.0005612209 0.002145523 -0.0018617932 0.001190418 0.00075599254 -0.0026418287 -0.00090199173 0.00068814645 0.0027921384 0.0038253546 -0.001379277 -0.0030369358 0.0031901961
17 0.0036598698 -0.0032356537 -0.0034835313 -0.0026946324 -0.0022731312 -0.0014532529 -0.00046420677 -0.0012763162 -0.003536542 0.003687994 0.0028677857 -0.0032068002 0.0013348258 -0.00048358593 0.0025500562 0.0024431117 0.0033286766 -0.003017705 0.0012676603 -0.0021924288 -0.00040531176 0.0036910088 -0.0019608624 -0.003847663 0.002568099 -0.0020517414 0.0029385563 -0.0028900842 0.0012579849 0.0034085906 -0.00015847891 -0.0016427521 0.0012667355 0.0005186625 0.00083842804 -0.0036302223 -0.0023818733 0.00086862774 -0.00227158 -0.002460877 0.00033566525 -0.00051878754 0.0021235636 0.0033909183 -0.003359121 0.0010570663 -0.0018614363 -0.0025631387 0.00046500345 -0.0017566577 -0.0019820218 -0.0031028062 0.00078037684 0.0037555527 -0.003329757 -0.00038436233 0.0038352814 -0.0008044784 -0.0024609773 -0.0013074619 0.0034871774 0.0021706219 0.0009753505 0.0018672884 -0.0010935653 0.003638529 0.0020382307 -0.0015641873 0.0019342685 -0.0030835704 0.0026789894 -0.0026097903 -0.0028893293 -0.0017635376 -0.003887743 -0.0030685684 0.00023708444 -0.0034740148 0.00150277 0.00042677933 0.002964336 0.0016916514 0.00073291204 0.0015553164 -0.003553269 0.002023808 0.0030772232 -0.0026409866 -0.0037525669 -0.0012575269 -0.0018213129 -0.001211229 -0.0006987904 -0.00082825776 0.0006260116 -0.0032928823 0.0025631436 -0.0037958296 0.001931064 0.0033962503 -0.002320811 -0.00026638014 -0.0018172952 -0.0011802337 -0.00030658604 -0.0034384588 -0.0020451013 -0.0025302754 -0.00060079584 0.0008184426 -0.0009544775 0.0027598587 -0.002265005 0.0025048556 -0.0032223472 0.0015452093 0.0011401605 -0.0027600187 0.00042412855 -0.001776152 -0.002778652 0.0005861964 -0.003723244 0.0031069112 0.00039695323 -0.00038818666 0.001949893 -0.0029328237
9 0.0024617466 0.0019863679 0.0006073603 0.0023029172 0.0015548101 -0.0026872258 -0.00095071713 0.0004308218 -0.0033606824 -0.0028367937 -0.00067775924 0.002633791 0.0037668766 -0.0003132848 0.0038232626 -0.00018777883 -0.0033094408 0.0033590521 -0.00045331795 0.0025993437 -0.0016177645 -0.002745936 -0.0011467923 -0.0015139282 0.00093774206 -0.0020968702 0.0009794558 0.0029081379 0.003701566 -0.0014102994 -0.0038467555 -0.00040364792 0.0006556864 -0.0037535396 -0.0028528736 -0.0018931677 -0.002140166 -0.0026516619 0.0008045561 0.003601313 0.0022097863 0.0035940222 -0.001195497 -0.0004906463 -0.0024945862 0.0030097992 0.0016536725 0.0034650625 0.0025419903 -0.00036178058 -0.0017991104 0.0012491426 -0.0038926185 -0.00092380616 0.0037001316 6.8027155e-05 0.0033553045 -0.002018566 0.0025383278 0.00304426 0.0022390326 -0.0018225801 -0.0017426136 0.0019983675 0.0017761027 0.0021622693 0.001957102 0.00021045834 0.001960088 -0.0026576875 0.002762449 0.0037457705 -0.001992071 0.0015566105 0.00065746874 0.00045296657 0.0031838675 -0.0018398602 -0.00031706158 -0.0037665404 0.0026805596 0.000761443 -0.0017578992 0.0015314264 0.0021274134 -0.00084588723 -0.0014511684 -0.0025062205 0.00012467585 0.0037140024 -0.00064442784 0.0016976285 0.0017028274 -0.0008843002 -0.00015521921 -0.001082102 0.0027567071 -0.00043798328 0.0008139439 0.0033098552 0.0028731015 0.0014045372 -0.0030148341 -0.002157638 0.0025228802 -0.0029869194 -0.000607911 0.0017471281 0.0019551015 -0.0008733194 0.0012256508 -0.0022818893 0.0006759766 -0.0016934833 -0.0005154338 -0.0015714808 0.003836033 0.0013490008 0.0039054097 0.0028340681 0.0012716654 0.001396829 0.002641552 0.0015891377 0.0012163676 -0.0021739556 -0.003185293 -1.2583555e-06
4 -0.0036619243 0.0035185711 0.0022940885 -0.0027292846 0.0025067702 0.0008749978 -0.0025877417 -0.00052151096 0.0030463487 -0.00172768 0.00038671456 -0.0028114188 -0.0032914137 -0.00089115155 -0.0009894725 0.0012352325 0.0013150083 0.003018523 -0.002693485 -0.0022911837 0.0017269759 0.0031808282 -0.0024447863 0.0008951752 -0.0034925956 -0.00026845947 0.002495185 -0.00018766735 0.0034043838 0.0033194725 0.0010524403 -0.0036547754 -0.0035697538 -0.0024017692 0.0032186485 -0.0027357894 0.001303681 -0.0018075353 0.0007253475 -0.0009369556 -0.0033339327 0.0010972719 0.00051428354 -0.0017856802 0.0005880752 0.0035320607 -0.0023611782 -7.914906e-05 -0.0016195338 0.0024449937 0.0011133972 0.00014799858 -0.0025919185 -0.00041425313 -0.00016348189 -0.0037610107 -0.00237838 -0.0031408784 -0.0008287656 0.003394456 -0.00031902926 -0.0006812818 -0.000115588475 0.0009882929 0.0035290637 -0.0034501646 0.0013061006 0.0015694515 -0.0018769158 0.0019688962 -0.0028666588 -0.0009035865 -0.001338295 0.0016638613 -0.002760437 -0.0030868733 0.0034112702 -0.0009001135 0.0025537622 -0.0026542714 -0.0029779987 -0.00055552536 0.0023479902 0.0021178825 -0.002309664 0.0028012993 6.624718e-06 -0.00227093 -0.0013932135 -0.0034707347 -0.0003336094 -0.0027673168 -0.001691054 -0.0011519627 -0.00012716651 0.0031009426 -0.00174371 0.0024306437 -0.003320907 -0.0015894554 0.0024650749 -0.0034550296 -1.8897797e-05 0.0038376322 -0.00042570362 -0.00378521 0.003596859 -0.0035059794 -0.0038964357 -0.003411117 0.002087565 -0.00030029708 -0.0011790281 -0.0015434552 0.0031207183 0.0011469584 0.002900572 -0.00026240744 -8.2611376e-05 -0.0008829967 0.0021258604 0.0027193383 0.00370725 -0.0030808386 0.0008064631 0.0007784752 -5.5267465e-05 -0.0035586916
11 0.0013421975 -0.0030160123 -0.0021408936 4.765063e-05 0.0016722425 0.0005231547 0.00011332287 0.003837394 0.0008589346 -0.0012773374 -0.00014180412 0.002412688 0.00070596253 -0.0014402745 0.0012095859 -0.0035056993 -2.463063e-05 0.0029361951 -0.0038726383 0.002319711 0.0005393481 -0.0014670105 -0.0014438243 0.0015572339 -0.0021283336 0.0019307305 0.003541515 -0.0027074583 -0.0019284597 -0.0006877024 -0.00039494672 -0.0031573803 -0.001741339 -0.0016151314 -0.0036034693 0.0029681318 0.00041701217 -0.0038541458 0.0014687615 -0.0025508595 0.0029121377 -0.0029349546 0.00074866845 -0.0023437194 -0.0031330101 -0.0035367718 0.002704169 -0.0015066463 0.0020947552 0.0019331427 -0.00045259472 -0.0023240296 -1.5055638e-05 0.0012528925 -0.0023851537 -0.0034818365 -0.00056606816 -0.00072314136 -0.0037178947 0.0022407647 -0.0023918161 -0.000981177 0.0017792718 0.0033770413 0.00016613583 -0.0032359702 -0.0026374469 0.0005913552 -0.0020151897 0.002987401 0.00021328215 -0.00094663125 -0.00075725024 0.0018584948 -0.0015331378 0.0006438881 -0.0007001785 6.0934533e-05 -0.0036864842 0.0009733028 0.0017943501 0.002593939 0.0009773307 -0.0025670168 0.0031627268 -0.0015254339 -0.0018885396 -0.002776901 -0.0014719624 0.0032485758 -0.003379762 -0.00016934922 0.0026016475 0.002453282 0.0025102405 0.0010618418 0.0016410147 0.0021024325 -0.00029198165 -0.0006728306 0.00066199474 0.0033251187 0.00035983615 0.0013710934 0.0010630802 -0.0023203527 -0.00047339353 0.0011124527 0.0037963986 -0.001763689 0.0028153146 0.0004039323 -0.0018946469 -0.0026427268 -0.0008506022 0.00047659653 0.003215003 0.0033008638 0.0028179877 -0.0024058102 2.5107423e-05 0.00021394684 -0.0034955107 0.0016984981 -0.0014305398 0.00040953077 -0.00039983433 0.0019982783
14 -0.0012060502 0.003694927 -0.002764259 -0.002928522 -0.003432209 0.0023912322 0.0015493326 0.0036411474 -0.0028926313 -0.0039040688 0.0032672866 -0.00024214777 -0.0025527647 -0.0006183815 0.00018390425 -0.0029049215 -0.0027155627 -0.0010070845 0.0001340662 0.00072378287 0.0029388263 0.0018418096 0.001740574 -0.00021630988 -0.0036991283 -0.0019343139 0.0007598539 -0.00378906 0.0015379704 -0.0005864585 0.0013857416 0.0014128275 -0.0005126295 0.0006352926 0.0013213253 -0.0017586357 -0.0027295514 -0.00042576774 0.0033423551 0.0021366577 -0.002297005 0.0001568243 0.0028372474 -0.0029738748 -0.0025693881 0.0009182599 -0.0034689866 0.002318459 0.00077722827 -0.0013278467 -0.00328685 0.0028182669 0.0011323453 -0.0020803218 -0.0017028493 -0.00041597098 0.00044664915 0.0034384145 0.0012939565 0.0022200856 -0.0012304548 -0.0004899075 -0.0027284636 -0.00073339307 0.0013001692 -0.0025117872 0.0016453054 -0.003055626 0.0032655485 -0.0005959844 0.0013360986 0.0026026024 -0.0002096537 -0.0025746017 -0.0032626772 0.0028358314 0.0025442601 0.0012210032 0.00040931103 -0.0032592053 -0.0034899998 0.00035371952 8.796409e-06 0.0009714312 0.0020075452 -0.0038382916 -0.003396981 0.00060364645 -0.0035776563 0.00024221676 0.0037234165 -0.0013125192 -0.0029025904 -0.0036374838 0.0023670294 -0.003625755 0.0037289432 0.0009091382 0.0017881679 -0.0007020008 -0.0014466041 -0.002670222 0.00023610116 -0.0009898134 0.0015017093 -0.0033490087 -0.0011543478 -0.0011833244 0.0025928533 -0.00025947404 -0.0021311191 -0.0005763242 -0.0035906578 0.001434161 0.001545279 0.003050093 -0.0035419564 0.0008110841 0.0011034685 0.0036428364 -0.0011804311 -0.0005386194 -0.0020310062 0.0018693999 0.0032241172 -0.0012246543 -0.0016052176 0.0038949687
36 0.00082131877 0.003862981 -0.0018397768 0.00081545254 0.0033698936 0.0014268279 -4.4129192e-05 -0.00032429353 0.0018415294 0.0017336775 0.0031708407 0.0029011914 0.0018280885 -0.0030446423 -0.0024521968 -0.00048479464 -0.00030077327 -0.003552835 4.0769555e-05 0.00117447 0.00044733402 -0.001163717 -0.0014690515 0.0026274174 0.0015543681 0.0009136144 0.0027037202 0.0012825087 0.00032880763 0.002038975 -0.0035711953 -1.5000082e-05 -0.00015100969 0.0031138845 -0.0038418379 0.00040619876 0.0017227624 -0.0017000526 0.0024763716 -0.0020981994 0.0010127618 0.002808513 -0.0023842365 6.9253206e-06 0.0020003538 0.0015779356 -0.0012090382 -0.0005055553 0.0027554368 -0.0026837094 -0.0027426083 -0.0029163572 0.002473028 0.003453521 -1.3075117e-05 0.0013774303 0.0032946388 -0.00022436422 0.003806616 0.0021225167 0.0025545785 0.0007737522 -0.0004148547 0.0038623104 -0.003181172 0.0017708044 0.0005653098 -0.0005079238 -0.0003984698 0.0003261629 -0.001449878 0.0015785731 -0.0030884775 -0.00041438252 -0.0035944364 0.002931352 0.003315215 0.0027847616 -0.0021812848 -0.0022776306 0.000523092 -0.0012908225 0.003775311 0.003028063 0.00027682018 -0.0028625554 -0.001996612 -0.0030521085 -0.0023773336 -0.0031507025 -0.0022004514 -0.00076342124 0.0002761211 -0.00012209451 -0.0005844261 -0.00220229 -0.00097549026 -0.001917191 -0.0022746953 -0.0010869647 -0.0031078132 0.003476163 0.0036704657 0.002615636 0.00014783509 -0.0027805557 -0.0013195332 0.0010604529 -0.0023658893 -0.00041848246 0.0030570684 -0.0029053015 0.00389079 0.0022308095 -0.0035242932 0.002226711 -0.0031942772 -0.0013684431 0.0006056344 0.0038192172 0.003132976 -0.0026837403 -0.0020886892 0.0024514978 0.0036741712 0.00051709346 -0.0024615813 0.00054309034
16 0.003172471 -0.0021647066 -0.0012085321 0.002678371 0.0009848791 0.0006448266 0.0034623381 0.0034449792 0.0021271273 0.0025661662 0.0026695097 -0.0033744115 -0.0018096933 -0.0010448917 0.0007107132 -0.0016263416 -0.0012361797 -0.0026304568 0.00014732343 -0.00023216553 0.0028794715 0.00081668847 -0.000113450755 -0.0025439786 -0.0019346619 0.00148804 -0.0029106082 -0.0012537639 5.5691322e-05 0.0006816509 0.0013511829 -0.00092798966 0.0027231802 0.0038739876 -0.0024919729 -0.0022851108 0.0013665161 -0.0029032463 -0.0038767476 -0.001515513 -0.003691345 0.00049784384 0.0023130905 -0.0038824799 -0.00038899324 -0.001759785 0.0025606316 -0.0015121466 -0.0035421664 -0.0011740366 -0.0037744495 -0.0030584715 0.0008982432 -0.0023005425 0.0010545381 -0.0012099883 -0.0009964153 0.0036043676 -0.0011448247 -0.0016592495 0.0024433532 0.0014139266 0.0011898457 -0.00075309264 0.002526038 -0.0034605013 -0.00046464067 0.00067224907 -0.0012968468 -0.0011686258 -0.0006390833 -0.0034869534 0.0013269249 -0.0007620356 0.00096477417 0.0027205753 -0.00038519278 9.594648e-05 -0.0031414686 0.00024393361 -0.0021348929 0.00020141822 0.0022620696 -0.0017855263 0.0027647177 -0.0024022046 0.00041394203 0.0037961937 0.0029935967 -0.00044942758 0.00055085705 0.0023176624 -0.0006934731 0.0036817093 -0.0008251084 -0.0035365734 -0.0009017189 0.0011774816 0.001795372 -0.0004114499 -0.0020232275 -0.0021804853 -0.0035117213 -0.0029394105 -0.0004292332 0.0012641916 -0.0033055989 0.0016725782 -0.0015426716 -0.00094934343 -0.0013563517 0.0023320224 -0.0031277237 0.0039008644 0.0007284059 0.0026488474 0.003736303 -0.002084065 -0.0013602489 -0.0005180124 0.0018173129 -0.00073547126 -0.0018163626 -0.0019419474 0.0021330423 -0.0023889057 0.0035956309 -0.0021499398
13 -0.0016285457 0.00241865 0.0011610313 -0.0013781128 0.0020936881 0.0024699008 0.0022853808 0.0034980467 0.0029737926 -0.0031697538 0.0032435462 0.0002819837 -0.0008790856 0.000903701 0.0017567964 -0.0039047664 0.0026752076 -0.0020414502 0.0013530934 -0.0037813939 -0.0023168814 0.0011193644 0.0013496411 0.0017567117 0.0026107877 0.002781133 -5.9146394e-05 -0.0009918446 0.0003075154 -0.002337755 0.0030802125 -0.0036978694 -0.0019409164 0.0017296312 -0.0031085191 0.0012711564 0.0017772736 -0.000859296 0.0026267655 -0.0037806847 0.0039023028 0.0032556597 0.0037914969 -0.0019902473 0.0015946765 -0.0009882529 -0.0005688912 -0.0028174662 -0.002421334 -0.0021634947 -0.0033195312 -0.0008134164 0.0032948237 0.0023843872 0.0030227543 -0.0034829902 0.0015269296 -0.0028557216 -0.0010804605 -0.00022908043 0.0009116473 -0.002742158 -0.0005689893 0.0034394616 -0.00040363235 -0.0012158182 -0.0027180098 0.001460518 -0.0015190841 -0.0008024597 -0.0015356252 -0.0002788427 -0.0011133148 -0.002442526 -0.0010380727 0.002340292 0.0038045219 -0.0034633314 0.0033856723 0.0035575011 0.0015324521 -0.00077666383 -0.001082682 0.003875319 0.003894851 -0.00012738035 0.0011815187 -0.0038658306 -0.0008475761 -0.0033240498 -0.0026461664 0.00023278738 0.0023819197 -0.0005487685 -0.00033197287 0.0038494698 -0.0035492314 -0.002464635 0.0018785709 0.0025299499 0.002262699 0.003595471 -0.00081965537 -0.0033557185 0.0034859118 0.000814647 0.0020137383 -0.0024377313 -0.0023753468 -0.00037667225 0.00011489199 -0.0017244077 0.0016053373 0.0025739549 0.00021159372 0.0003105106 -0.00062380463 -0.0018187211 -0.0032438526 -0.0019546326 -0.00326631 0.0038004192 0.0019666879 0.002782878 -0.002260435 -0.00234781 -0.0019134155 -0.001660398
3 0.0030966706 -0.0017847774 0.00198727 0.003865284 -0.002019456 0.00027725034 -0.0003417495 -0.00036184117 0.0020975166 -0.002268826 0.0001783384 -0.0017661238 0.0005105822 0.0023826233 0.0013045006 0.0004648839 0.0019471773 0.00039369045 -0.0003701303 0.0032785602 0.0038689333 0.0028705897 0.0011953398 -0.00022794073 -0.0036165353 0.0017375625 0.003212729 0.0023978984 0.000116423114 -0.003870362 -0.0026453284 -0.00028883692 0.0007399444 0.00072188774 -0.0033788916 -0.0006020329 -0.000257025 -0.0031872059 0.0018804434 -0.0009891385 -0.0017870418 -0.0029117449 -0.0017445966 0.0024644926 -0.0024669548 0.0015466994 0.00038045528 -0.0015530895 0.00014854458 -0.00234115 0.003206607 0.0014238107 -0.000880449 -0.00017185975 -0.0013843599 0.003872105 -0.0028670095 0.0020675007 -0.0034403354 0.0007644879 -0.0026300729 0.0034956073 -0.0026830174 0.00045399685 5.3930267e-05 -0.0016214689 0.0025654144 0.0025197961 1.09669545e-05 -0.0026671481 -0.00010854441 -0.0023521907 -0.00048218522 -0.0018952325 0.0010596015 -0.0027522796 0.0022451107 -0.003416874 -0.0008325343 0.0038931565 0.000420381 -0.0006627558 -0.0032878055 0.0004504692 0.0012707949 -0.0013019834 -0.0023046182 0.0019984362 0.0027606357 0.0024354646 -0.0024908467 -0.0010381601 -0.0034049049 0.0033240402 -0.002252131 0.00024521962 0.003672661 0.0015156746 -0.003116062 -0.0013185989 0.0012484727 -0.0016915271 0.0025834672 0.0027467364 -0.0002308531 0.0015873441 -0.0025466678 0.0014133494 0.0025023133 -0.00088117784 0.0037996261 0.0015302303 0.00037702464 0.0015600754 -0.0019565092 -0.0027188638 0.0021656023 -0.00015440033 0.0011899612 0.0028857454 0.0037784467 0.0020794768 0.0015909199 -0.0020522138 0.0020019133 0.0020882196 0.0028196317 -0.0025800357
27 -0.002546593 0.0038131163 0.00038899848 0.0009769789 0.00268254 -0.0006800581 -0.00047919698 0.0018538737 0.003117805 -0.002752852 -9.978155e-05 0.00320494 0.0037408723 0.0036201747 0.0033823745 -0.0031149108 0.0032530364 -0.0031062611 0.0026375432 -4.7901645e-05 0.00046789355 -0.00038748162 0.002548686 0.00013552478 0.0024920176 -0.0034226587 -0.0007109998 -0.0036926484 0.0019243177 -0.0016012143 -0.003479101 -0.0037018661 -0.0038263511 0.00030062275 0.0038344467 0.0005469756 -5.31223e-05 0.0029442708 -0.0017521553 0.00050223584 -0.0026461203 0.0022499906 -0.00031950264 0.00048302236 -0.0022444234 0.0032478797 0.0023254084 -0.0036384037 -0.0029057816 0.0015300442 0.0038005193 0.002524769 -0.0033735528 -0.0012937794 -0.0020329156 0.00047831252 -0.0008056696 -0.0009887031 0.0025781125 -0.00015341914 -0.00048458783 0.0021835961 0.0020803183 0.0036040046 -0.0025143258 -0.00047370594 -0.0023180586 -0.0005513588 -0.0016094376 0.0025166692 -0.0004662054 -0.0005356004 0.0028157209 -0.0018244468 -0.002373126 -0.0009444228 -0.0011507068 -0.00084773754 0.0014628153 -0.0027221988 -0.0006211701 0.00127777 -0.0035851514 -0.0018215878 0.0029686892 -0.0023720597 0.003888381 0.0013042722 0.0007054045 -0.0030929174 -7.334292e-05 0.00345988 0.0013801446 -0.00029162262 0.0033704082 -0.00046434533 -0.0018460632 0.0032141602 0.0009650361 -0.0009853176 0.0004142475 -0.0017579299 0.00050487765 -0.0011438163 -0.0025905815 0.0014264175 -0.00015738266 -0.0026375817 0.00027653307 -0.00064079347 0.0009281908 0.0038143904 -0.0032273703 -0.0038926653 0.0010297217 0.002668945 -0.0026529268 0.00046572863 0.0023781154 0.00064379536 -0.003697559 0.0032476052 0.0038187548 -0.001083232 -0.0020773723 -0.0021690421 -0.0025149488 0.0027456684
8 -0.0030760018 -0.0017018658 0.00030576662 0.00065180165 0.0013368147 -0.0013386185 0.0022770348 -0.0029878698 0.001735414 -0.003802331 -0.0005884958 0.0035551877 -0.00058262475 -0.0021711283 -0.0018793036 -0.0034286417 -0.0016400964 -0.0031913975 -0.00047464218 -0.0011310267 0.00064395176 -0.0010893121 0.00035440017 -0.0023617796 0.0030747787 -0.0038933214 0.0022415458 0.00072704855 0.0017396981 0.0016010856 -0.0035765953 -0.002383167 -0.00057935563 -0.0009196684 -0.0015877661 -0.00016163212 0.0003695212 -0.003158998 -0.0012052031 0.0025471677 -0.00257016 0.00021931909 -0.00315419 -0.0031907714 -0.00095276977 0.0030317039 -0.0033985006 -0.002439128 0.002630054 0.0014582651 0.00021739 -0.0011063864 -0.003030499 -0.0029189237 0.0031516536 0.0029564246 0.0005484632 0.0021346177 0.00093690463 5.7352763e-06 0.003269624 0.003812646 -0.0021519533 0.0035209253 -0.00043095666 -0.0032231386 0.00037475038 -0.003618735 -0.0031924536 0.0026089076 -0.0021321166 3.7523645e-05 -0.0012969986 -0.003556114 -0.000182182 0.002253822 0.0034877209 0.0009578638 -0.0012181115 -3.5853507e-05 0.0024555312 -0.0020692365 0.0010874079 0.0014215558 -0.0019356424 0.0022530989 0.0023400427 7.940413e-05 0.0022876947 0.00093205046 0.003702588 0.0022243683 -0.0010779358 0.0032530164 0.0018279686 0.0008094216 9.977835e-05 0.0016584534 -0.0028633855 0.003717321 0.000107259526 0.0028241673 -0.0017683666 -0.0013143583 -0.0011869326 -0.00070722663 -0.0031323116 -0.00029824508 0.0017693817 0.0009379036 0.0020704807 0.00072351715 0.002764948 0.0038249695 0.0020272424 -0.0033159421 0.0036135 0.0022702185 0.0010246258 -0.0034811615 -0.0029832113 0.0007691768 0.0037254626 -0.0017347257 -0.0007571955 -0.0026335164 -0.00064903084 -0.0017920828
18 0.0010367663 -0.0022087896 -0.00052621926 0.0028628248 -0.00054901885 -0.0008360576 0.0022798297 0.0018117644 -0.0022001786 -0.003259275 0.0031194906 0.00309044 0.0024964577 -0.0021967378 -0.00096846785 -0.0018964317 0.00035294172 0.00044714514 -0.0007383024 0.0002512549 0.0035473234 -0.0013419528 -0.0020635896 -0.003562265 -0.0038539087 -0.00017321666 -0.0022794132 -0.00067372934 -0.0021783644 0.0025850625 -0.0020097487 0.0023990083 0.0013353126 -0.0013984288 0.000679122 0.00024013022 0.00088721333 -4.7283014e-05 0.0003244928 -0.0015104746 0.0016584061 0.0014245491 0.00024725174 -0.00042088816 -0.0010465371 -0.0011014579 -0.0031877565 0.0012621642 -0.00033289462 0.0035535046 0.0017660622 0.0006329834 0.003823802 0.0029117232 -0.00036639534 -0.001099009 -1.8209092e-05 -0.0027131315 0.0030910706 0.0023449806 0.0034319907 0.0011598527 0.0016168373 0.0022661407 0.003727942 -0.0009138487 0.0013645275 -0.0015133469 0.002395796 0.0017125437 0.00091365224 -0.0016199305 0.0005587044 0.00046408662 0.0009918604 -0.002417879 -0.0020488428 -2.3060652e-06 0.0033983318 0.00019054752 -0.0033690268 -0.0033528092 0.0018997367 0.0007354466 0.0026221108 -0.00016186475 0.00054620573 -0.0011045666 -0.0034447818 -7.227685e-05 0.0019188824 -0.0001016534 -0.0010475607 0.0038993654 0.00041147534 3.2974065e-05 -0.0020444621 -0.0008179352 -0.0018041357 -0.0038722246 -0.000563155 -0.002829454 -0.00024961395 0.0007792843 -0.001573904 0.00064130535 0.0010131211 -0.0026067074 0.0036426366 0.0013886761 0.0008732615 -0.0010432813 0.0017351618 0.0021601578 -0.0021605631 -0.00095068937 -0.0010994627 0.00091428444 0.0019556666 0.00030642675 0.003063449 -0.0007056081 -0.0037185277 0.0024174785 0.0016983293 -0.00092495553 -0.0023350497 -0.0028972002
21 -0.0027241865 0.0013154696 0.0020265975 -0.0024269912 0.0007246245 -0.00080308894 0.002538229 -0.002631647 -0.0039023913 -0.0035388977 -0.0019079944 -0.0018923344 0.00013196706 0.0016383777 -0.0018633187 -0.002806558 -0.00046159732 -0.0016835479 0.0019504912 -0.0007948703 -0.001527846 0.0024385406 -0.0033947092 -0.003885721 -6.7333126e-06 -0.00067195937 -0.003374081 -0.00015324143 -0.0030942452 -0.0008753105 -0.00022841037 0.0028620018 -0.0029571382 0.00092274434 -0.0019212747 0.0013009177 -0.0012585256 0.002144226 0.00083402084 -0.0032824967 0.0014088997 -0.001426011 0.0007118138 -0.0037201135 -0.002372787 0.002266409 0.0037253797 -0.003691064 0.0012994922 -0.00029661998 -0.0023470444 -0.0024759502 -0.0038219981 -0.0019076776 -0.0018620705 0.0008012209 -0.0017855058 0.0017843368 -0.0031153478 0.00247012 -0.0015906587 0.00358022 -0.0010600386 -0.0024077194 -0.0007127074 0.00028270626 0.0024195947 -0.0022923702 -0.0018227132 -0.0015979877 0.002036873 0.0009774761 -0.002252959 -0.0027810803 -0.0017020559 0.00095491065 -0.003315813 -0.00045928676 -0.002601944 -0.002622192 -0.0020594974 -0.002334902 -0.0023739818 0.0031671245 0.00060289085 -0.0019683156 0.0005819359 -0.00018957125 -0.0018271185 0.0026243217 0.0024369005 -0.0015954259 0.0030153608 -0.0014784628 -0.0028864047 0.0020428977 0.0003673719 0.00038587843 0.0026134686 0.0019443244 -0.00053524104 0.001109669 0.0015064671 -0.0032837745 0.0012910439 -0.0029231517 -0.0036069716 -0.000531943 0.003407746 -0.0021991741 0.0027755604 -0.0005844723 0.002603337 0.002202451 -0.0028033992 -0.00077917665 -0.0008129323 -0.0034629214 0.0030468104 0.002104933 0.0005745769 -0.00269989 -0.00026308655 -0.0002679139 -0.003526954 0.00030663292 -0.003467531 0.0018058388
22 -0.002135343 -0.00047269263 0.002107201 -0.0017834018 -0.0009475768 -0.00014646599 -0.0032110622 -0.0019057216 0.002682325 -0.0016964705 -0.00078436086 0.001112685 0.00087991374 0.0038906594 -0.003383804 0.0025971765 0.0033678194 0.0012051705 -0.0024827207 -0.0008468426 0.0007635459 -0.0032467134 -0.0033905571 -0.0006886139 -0.002480356 -0.003887124 -0.0034014634 3.8244223e-05 -0.00047147422 -0.0022423617 0.0011426089 0.00091516145 0.0008734065 -0.0017099513 -0.0024626462 0.00048523 0.0022716601 0.0021974498 -0.0015570135 -9.0569294e-05 0.0008901135 0.0024775174 -0.0024034136 -0.0016276095 0.0033106979 0.0033978573 0.0010766572 -0.00050863664 -0.003535469 -0.0028339457 -0.0031152798 -0.00036627488 0.0027928026 0.003018769 0.0008366066 -2.9715033e-05 0.0015824031 -0.001046725 0.00092493295 0.0035523279 -0.0034749648 -0.00078200235 0.0018874168 0.0033597103 0.0013013167 0.00032935676 -0.0005940596 0.0029459016 0.003810134 -0.00080622063 0.0022006275 -0.0018442505 -0.00050324004 -0.0022958263 0.0022891602 0.0026071013 0.001367475 -0.0008394885 0.0023230633 -0.00043481105 -0.0036726363 0.00020997142 0.0003550712 0.0017709156 0.00059586833 0.0012095375 -0.0033013457 0.0032665213 0.0006603673 0.0016880224 3.8306862e-05 0.001207363 0.0038491932 -0.0022009755 -0.0024956744 -0.0014466378 0.00303834 0.003564635 0.0017700981 0.0030795098 0.00047534495 0.0007860955 0.00026137137 -0.0008965608 -0.0020109792 0.0032362351 0.0022384496 -0.0038214263 -0.0015674087 -0.0025761728 -0.0024916665 0.0012610585 0.00092220283 -0.0024008697 -0.0016334611 0.002542542 0.00074079045 0.0037976594 -0.0018704683 -0.002478289 -0.0014560489 -0.00021531915 -0.0020360854 -0.00075769814 0.002664017 -0.0036734925 -0.0010992856 -0.0028921894
15 -0.0019616617 0.0015886629 0.0038284515 -0.0004914305 -0.00026311548 0.0008958408 -0.00087484386 -0.00096947304 0.0016866417 -0.003123073 0.0015229435 0.0016307101 -9.595854e-05 -0.003366875 0.0019193175 -0.0012732839 -0.0025347502 -0.002946795 0.0011848423 0.0027963796 0.00234181 0.0007228254 0.0030345512 0.00011200259 -0.00046404594 -0.0013319798 -0.00052376365 0.00227266 -0.0009857333 -0.0029785193 -0.0009820062 0.0003588886 0.0011528688 0.0001507284 -0.0016751051 0.0021568297 0.0010115938 -0.0027039538 -0.0033653362 -0.0031913375 -0.003640892 -0.0026904182 -0.0010289479 0.0037946398 -0.0031656136 0.0035007044 0.00016217052 0.0013954758 0.0020152875 -0.0032893314 0.0035235893 0.0036060724 0.0014200441 1.9726742e-06 0.0026461221 0.0036546772 0.00084356 0.0028608849 0.0030712828 0.0021554576 0.0003377653 0.0027058884 -0.0023255877 0.0010860631 -0.0008533754 -0.0035951803 -0.0025514334 -0.0012733731 0.0023015793 0.00023860684 -0.0007014725 0.0012326052 0.0013914416 -7.161208e-05 0.0015035641 -0.00088341517 -0.0010058087 -9.9512645e-06 0.0027541707 0.0025284113 -0.0008095594 0.0031514815 0.0003676755 -0.0012408055 0.0011823145 -0.0033271417 -0.0021439232 0.002808393 0.0030112178 0.0021482783 0.0014849866 -0.001167022 0.0016319866 0.00043407152 -0.00055508094 0.0034102162 0.00049719814 -0.001470487 0.0027783213 -0.002881168 0.0019942885 -0.0023634427 -0.0024314385 0.0014276096 0.0027661626 -0.0037017716 -0.0033212404 -0.003614946 5.4244738e-05 -0.0025858667 0.0029780339 0.0012794482 -0.0011087356 0.003000057 -0.0038831753 0.0026173487 0.0010001203 0.0035298672 0.002026716 -0.0031757348 0.0033581571 0.0027535416 0.0028552443 -0.00024421146 -0.0008433406 0.00022603109 0.0026973514 0.0018091516
19 0.0020983953 -0.000102659964 0.0019554165 -0.0010139731 -0.0020108323 -0.0018608177 -0.0010433034 0.00206831 0.0014891498 0.0006315941 -0.0017537925 -0.003765277 -0.0017917645 -0.0016100383 -0.002228672 0.0012462353 -0.0014187556 0.0028267812 -0.0023784505 0.0006597229 0.002172205 0.0014384984 -0.001641956 -0.0034637132 -0.0026796702 0.00066831254 0.00020158972 0.0032463348 -0.0032656807 0.0038906957 -0.0002010944 -0.0021914258 0.0033475752 -0.0037066343 0.0038500142 0.00329799 0.0018448362 0.0014133842 -0.0018993475 -0.0034498947 -0.0027710942 -0.0026213839 -0.003818737 -0.0017849841 -0.0037231536 -0.0029595012 0.0034083829 0.001781745 0.00090360065 -0.003365366 -0.0025800683 0.0031681233 0.0020716828 0.0014845202 0.0006324726 0.0005438375 -0.0016847029 0.0018090178 -0.0038880564 -0.0024391792 0.0006226882 0.0016453842 0.0030603865 1.0061257e-05 0.0032046637 -0.0020325352 0.0009116808 0.001873423 0.0033123388 0.0007283873 -0.0020704323 -0.0012869935 0.0018307806 0.0011552322 0.0018180662 -0.0025457488 0.003197599 0.00017332051 -0.0018941455 -0.0014196996 -0.001329493 -0.00048640382 -0.0013242862 0.003094187 -0.0013806225 -0.0033882945 -0.002346942 0.0006265212 -0.002261815 -0.0020700498 0.00031613855 -7.53798e-05 0.0034940776 0.0031812873 -0.0025386817 -0.0032159877 0.00368515 0.0020540222 -0.0018789025 -8.773566e-05 -0.0020031813 -0.00302633 0.00079621247 -0.00097367424 -0.0019269201 0.0032722289 -0.002415497 -0.0024140007 0.003469929 -0.00091410696 -0.0024817437 -0.00029554666 0.0013411454 -0.0037186907 0.00032447436 -0.0031643703 -0.001210443 -0.00036033033 -0.00022151084 0.0015233515 0.002775813 0.00055376213 -0.003821836 -0.0022538311 0.0011307468 -0.003270026 0.0019839315 -0.0026188914
32 -0.0018765846 0.0034008014 0.0035383157 0.0010652352 0.002920525 -0.0017171034 -0.002238827 -0.0018628915 0.0009517668 0.0033625409 -0.0023891528 -0.00069531373 -0.00049190153 -0.00036824643 0.0022514078 0.0030065556 0.0007368123 -0.0025272665 -0.001362128 -0.0026658906 -0.00020507982 -0.00022937292 0.0034048075 0.00020428716 0.0031191993 0.0012649164 0.0008670084 0.0023449003 0.003789436 0.00092372287 -0.00027424988 -0.0038012045 0.0019616522 -0.001623302 -0.0009129691 -8.2630875e-05 -0.0004105473 0.0005936347 0.0035849565 -0.0018364487 0.0012601296 -0.0019344473 -0.0024878606 -0.0017339933 -0.0016306248 -0.0033121614 0.0026655672 -0.0036898372 0.0025507784 0.0031077536 -0.002837914 -0.0037365907 0.00029641757 -0.0017763193 0.00013045469 0.003183972 -0.0031578243 -0.0023699042 -0.0027089214 0.0011815475 0.0016581815 0.0011737566 0.0013842935 0.0037816532 -0.0026776302 0.0027983747 -0.0006810498 0.0028512063 -0.0018148801 -0.0020650618 -0.002377451 -0.0032580383 -0.00075721747 -0.0035338115 -0.00070819847 0.0019029905 0.00017113972 0.0010659602 -0.0035125033 0.0029565373 0.0020648635 0.002881612 -0.002425619 0.002153941 -0.00021698163 0.0028744421 0.00016840131 -0.0035372097 0.0009131576 -0.0018961865 0.0003245551 -0.0021390142 -0.003608386 -0.0030754847 -0.0029712694 -0.00038721564 0.0027398926 -0.002087208 -0.0023898464 -0.002431794 0.0029383246 0.0017959295 0.0023637563 0.003396331 -0.0014377604 -0.0013781737 0.0005932376 -0.0028733483 -0.0036643292 -0.002683204 0.00028581725 4.4400273e-05 0.00036285096 -0.0006589604 0.0007362045 -0.00037902955 0.00365496 0.0023594375 -0.0019637467 0.00066117843 -0.00059858203 -0.002476984 -0.0034843038 0.0032386587 -0.0022974 -0.00073451194 -0.0017320629 -0.0018487023
37 0.0009797482 -0.0031304858 0.00259321 0.0009211268 -0.0033718005 -0.0008013077 -0.002975057 0.0011153828 -0.003509077 0.0031282618 -0.0024023068 -0.0007890563 0.00028595267 0.002380408 0.0008076457 0.0032762592 -0.00047313818 0.0022053604 -0.0017779948 0.0015663711 0.00096304715 0.001085791 0.0030786537 -0.001404033 -0.0019062632 -0.0010762884 0.0032739025 0.0011265847 -0.0011879433 -0.0037017749 0.0016620138 -0.0014627321 0.0009594311 0.00077366905 -0.00083047483 0.0032007457 0.00077434 -0.0018138175 -0.0037952024 -0.0023615125 0.0024765772 0.0023193976 3.3207463e-05 0.0018193288 0.0013099757 -0.0036123116 -0.0022650834 0.0034516694 -0.001337248 0.0002533183 0.0025197673 0.0037588172 0.0002916673 0.001898933 0.0026004673 0.0035618474 -0.0008953641 0.0016527163 -0.0026267339 -0.0014376845 0.0014004491 0.002273197 0.0035159166 0.0037531909 -0.0010248004 -0.0004463441 0.00083255523 -0.00131481 0.0006261105 -0.0021204634 -0.00057054154 -0.0006650528 -0.0017808748 0.0023495392 -0.000619744 -0.0007847893 0.00089087774 0.0021815852 0.0012795081 -8.893569e-05 0.0024566231 0.0014114705 -4.7608788e-05 0.0021928223 0.0019241378 0.0034685116 0.0012917948 0.0021487668 0.0017378095 -0.0037148225 0.0031835602 0.0020237612 0.0022605797 -0.00015302937 0.0004296464 -0.000292409 0.0029484916 0.0012618279 0.00057766755 0.00019345201 0.00314467 -0.002218066 0.001007363 0.0012502815 0.002178841 0.001079919 -0.0027701245 -0.0029216984 -0.0037761517 -0.0012497824 0.0011236966 -0.0028024432 -0.00018056543 -0.0037347984 0.0011710123 0.0029215084 0.0008461141 -0.0016965397 0.0033548158 -0.003510489 -0.0013797927 0.0011483263 -0.0036998936 0.0011451248 0.0024916478 -0.0019799296 -0.0025542034 -0.00289564
12 0.0018036781 0.0005790395 0.0029246607 -0.0038747853 -0.0036373273 -0.0018163222 0.0018167027 -0.003319024 0.00067227625 -0.002830322 -0.00025049716 0.0024793241 0.00047881802 -0.0021932106 0.0009037118 0.0022868458 -0.0017650073 0.0031958786 0.0025405749 -0.000688318 0.0033549834 0.0036001788 -0.00064960425 -0.0016846245 0.00021498332 -0.0023047712 0.0026349574 -0.0027972814 -0.0010132102 -0.0025887608 0.0032062158 -0.0030121757 -0.00031048112 -0.00072295277 -0.0031131567 -0.0026329847 -0.00064609956 0.0018087164 0.002159067 0.0017166435 -0.001509568 0.0037681607 -0.0023590734 0.0037462004 -0.003395406 0.0025941164 -0.0011950088 -0.0032888756 -0.002699549 -0.003416143 0.00028762053 -0.00013071044 0.0006670595 -0.0037582102 0.0006580074 0.0029202406 0.0027369293 0.00079883105 0.0015125915 -0.0029582516 -0.0011004965 -0.0033295143 -0.0010916544 0.0030434662 -0.003625794 -0.0005109523 -0.0020824256 -0.0009848307 0.0014699178 -0.0004683631 -0.0020659722 0.0014977909 0.0015491204 0.00034816324 -0.00091609947 0.0010520236 -0.0001383357 -0.000763108 0.0022693158 0.0012665896 0.003126453 -0.00287167 -0.0023734604 7.223489e-05 0.00034078676 -0.0028692386 0.002618807 0.0025070051 -0.0027455776 -0.0034553127 -0.00038895383 -0.0005792294 -0.0019580133 -0.0031488365 -0.0028538944 0.0009042601 -0.0027471757 0.003904283 -0.00075469573 -0.0002306512 -0.0018498235 0.0036127258 0.0032942335 0.0012988704 -0.0011536948 -0.001775486 -0.00017355503 0.0033024026 -0.0028616718 -0.0030799455 -0.001339406 -3.3823802e-05 0.0038992413 -0.002694396 -0.00048463568 0.0030667097 -0.001366768 -0.003758789 -0.0031167695 -0.0018883101 -0.0035744517 -0.0038755436 -0.0009814695 0.001350222 0.002171977 -0.0036980114 0.0031401573 0.0010030689
25 0.0023204812 0.0010132614 0.0018233929 0.002220704 0.00025325795 0.00027279128 0.001801459 -0.0023560817 -0.0032289857 -0.0031032776 -0.002862475 -0.00020345616 -0.0037347006 0.0035577083 0.001634551 0.003500175 0.0010412602 -0.0035935557 -0.0019108201 -0.0011914984 -0.0006470066 -0.0015830369 -0.0011962341 0.00061129936 -0.0028016448 0.003729551 0.0033735628 -0.0023355125 -0.0014861659 -0.0021017052 -0.0022432683 0.0021036782 0.0014410571 -0.001556949 0.00062488386 0.000529332 0.00016640665 0.0012490668 -0.0017729955 -0.001609891 0.0017229691 0.0036783796 0.0007692157 0.0038087363 0.0008082791 0.00067970436 0.0019460187 -0.0031756605 -0.0024460496 3.3862227e-05 0.003642101 -0.0019050585 0.0027749108 -0.0036386966 0.003615197 0.00096020225 -0.00063131965 0.0024588045 -0.0033621038 0.0031909042 -0.0016327489 0.0027943614 0.003575597 0.0014885437 -0.0032634283 0.0033405717 0.001150351 -0.0037768607 0.0011688626 -0.0017256505 -0.002688326 -0.0030702294 0.0037797156 -0.0017685184 -6.704564e-05 -0.0012910474 -0.0013125676 0.0025311967 -0.0003795739 -0.0033585776 0.0018941378 -0.00091712683 0.0001766937 -0.003246729 -0.0035598227 0.0017695156 -0.0034028986 -0.00047043205 0.00086673704 -0.0024008933 -0.0034852012 -0.0012747713 -0.003879794 0.0025317834 0.003716031 0.0037504237 0.0016132923 -0.00012504826 -0.00071903743 0.0005097405 -0.00083808077 0.0037406292 0.00067726104 -0.0017720213 0.00094884634 0.0006996104 -0.00082996284 0.003419345 -0.003159145 0.0009789588 -0.0036199947 -0.0038330685 -0.00056572456 -0.00079549395 -0.00037492358 -0.0017329139 0.001269124 -0.0028910392 -0.00173118 0.0037423074 -0.003160521 0.0037096038 0.0033463156 -0.0035754777 0.0013919306 0.0006666833 -2.9264513e-05 -2.567688e-05
23 0.0037222828 0.0028087378 0.0028787476 -0.0025490161 -0.003026727 0.0017010289 -0.00091540784 -0.001981791 0.0006371013 -0.0014206123 -0.003079267 -0.002651969 0.0016626753 0.0020835537 0.0009326621 -0.003384594 0.0025459246 0.00345885 0.00241255 -0.003606867 0.0025696747 -0.0038797886 -0.003615955 -0.0016336918 -0.0015924681 0.0022758355 -0.0035626 -0.002282574 0.0018679453 -0.0022263266 -0.0036761744 -0.002190415 -0.00046113646 -0.0010397359 0.00058269774 -0.0017068344 -0.0018512703 -0.0030455766 0.00083021866 -0.0022630452 -0.0033443207 0.0021916945 -0.002944315 0.0003447123 0.0033368731 0.001330363 0.0028383348 0.0035372553 0.0006023153 -0.002001267 -0.0031834762 0.0038240438 -0.0018874474 -0.002875756 -0.00010824616 0.001965088 0.0019046578 0.0012702662 -0.00039636611 -0.0015343196 -0.0022751077 0.00089189614 -0.00020491668 -0.0015867341 -0.0026854123 -0.0017415438 -0.0026286251 0.0024781094 -0.0031973482 -0.0015737445 0.0012023812 -0.0016323782 0.0021204941 -0.0020611093 -6.3895444e-05 0.0005174237 -5.337986e-05 -0.00046606368 0.00027379932 -0.0035922504 0.000539593 0.001406302 -0.0017886605 0.00024525877 -0.0016174276 -0.0027149667 -0.0022717009 0.00097478356 0.0034288305 -0.0020939696 -0.00095840835 -0.0024455814 0.00070149224 -0.0024645727 0.0012460125 0.0014803453 0.00025439868 0.00018268892 0.00036818543 0.00074928015 -0.0023228324 0.0010690893 0.0010503412 0.0032819086 0.0010323095 -0.0010402005 -0.00032654847 0.0036195633 -0.0014194443 0.0035735166 0.00012289881 -0.0024209158 0.0038914501 -0.0015529182 0.0025004104 0.0023602957 0.0024394162 0.0038043184 -0.0034944764 -0.0008923648 0.0031005077 -0.0022667148 -0.0026777566 0.001971363 0.0034106027 0.0025917252 0.0010651941 0.00066797214
24 -0.002188531 -0.0011204951 0.0031477087 0.0026278913 0.00046672707 -0.0018431966 0.0020627526 -0.0032842706 0.0016238232 0.0011631828 -0.0017898168 -0.002326714 -0.0038118549 0.0026721742 0.00088686193 -0.0014438477 0.0029215012 -0.0033245157 -0.0015900369 -0.0013231767 -7.78399e-05 -0.0035191565 -0.0020501951 0.0008523044 -0.0030921807 0.0022961649 0.00030534 0.0027408197 0.0024537658 -0.003080108 0.0039043706 -0.0016524381 0.0023606902 0.001305358 -0.0034788758 0.00033756965 -0.0010477989 0.0023477823 -0.0018192541 -0.0026543608 -0.0024270702 0.00011190618 -0.0033398208 -0.003743017 -0.0004668229 0.00036230512 0.0014598542 0.0020694647 0.0022278836 -0.00360522 -0.00039962438 -0.0026100848 -0.0010783823 -0.002884936 0.0026635912 0.0020974777 0.0023438402 -0.00011100845 0.0025086466 0.0031442125 0.0005882937 -0.0010806451 0.00073411973 0.00033042053 0.0022723142 0.0022507831 0.0033932577 0.0022089742 -0.00070507434 0.0015252986 0.003656839 5.764101e-05 -0.0033453477 -0.0002816525 0.002893414 -0.0007151951 0.001651441 -0.00025973064 0.0025261194 0.002731982 0.003388719 -1.8987977e-05 0.0033933567 0.00093176437 0.0022861275 -0.0021741346 -0.0019410249 -0.0036526194 0.0012026022 0.0037941185 -0.0031063517 0.0010736643 0.003704768 0.0030460453 -0.0016732634 0.00052317465 -0.0016266474 -0.00062849466 -0.0016905688 0.0025422915 -0.0036930272 8.716675e-05 0.0024608183 0.00040748742 -0.0007320175 -0.0027156575 0.0013366353 0.0037005881 -0.0018777674 0.0020285498 -0.0038344206 0.0012127575 -0.0018409805 -0.00020664945 -0.002654497 0.0033069248 0.0023197 -0.0006234276 -0.0009251936 0.00210617 -0.0016412127 0.0015230083 -0.00045724664 -0.0010426925 -0.00023542026 0.0015140254 -0.00030956222 -0.0014519038
40 -0.0025329674 0.0022524097 -0.0011638264 0.0009947229 0.00089289475 0.0005510308 0.00088638754 0.0010353777 -0.00059037725 -0.0016131196 0.002629638 -0.0022552724 0.0009257931 -0.0012884564 0.0020261614 -0.0016172768 0.0027057817 0.0037814856 0.0024022304 -0.0020648446 -0.0013439176 -0.0022632738 0.0006959972 -0.0026783927 0.0015240235 0.0038388479 -0.002462288 -0.0033888365 0.0018541055 -0.0015940851 -0.0013521593 -0.0010175887 -0.0015331791 0.003788709 -0.002644913 -0.0020196533 0.0032720368 -0.002524074 0.0029377253 -0.0025367248 0.0037260712 -0.0001470795 0.0015511961 -0.0037059388 -0.0011626709 0.00025006887 0.0021327592 -0.0015778019 -0.0014466333 -0.0034685717 -0.0014870397 -0.0007028605 -0.0007290523 -0.0008238138 -0.0014209439 0.0027789338 -0.002644989 0.0034659808 -0.00064609334 -0.0007083459 0.002271699 0.0018299439 -0.0003588595 -0.0010092204 0.0038446868 -0.0014074518 -0.0033661912 7.4097465e-05 0.00034559818 0.00034834797 -0.0012548192 -0.0010710232 0.00025968192 -0.0029945958 -0.0036311795 0.0014024216 -0.0021791072 -0.0035294641 -0.00052983075 -0.0035427709 0.0013049293 -0.00019867017 -0.0020710502 0.0026752246 0.0016468959 -0.0016632241 -0.0033883583 0.00033552706 -0.0011478857 0.00016947211 -0.0016478674 -0.0026249136 0.0030772374 -0.0010584348 0.0014546275 -0.0037666385 -0.0017359804 7.2613184e-05 -0.003532298 0.0028139828 -0.0002733356 -0.0030811639 0.0004891077 0.0012203899 -0.0005491555 -0.0035546483 0.002173999 0.0034875812 -0.0016030617 0.0022321215 -0.0037030815 0.0028839095 0.00028150997 0.0033120052 0.002725349 0.0020564427 0.002017782 -0.0035452626 -0.003562261 -0.002828901 -0.0030729724 -0.00353089 -0.0030085316 -0.0012733093 0.0005305605 -0.0020681708 0.0026613548 0.002714289
51 -0.0018782107 -0.0005406929 -0.001660643 0.0022013325 0.0038447704 -0.001562637 -0.0035326849 -0.0004026577 0.002097246 0.0018564382 0.0034490412 -0.0002883539 -0.0035061755 0.0036159817 0.0028520992 0.0031755492 -0.0018447037 1.9483077e-05 0.0016243064 0.0015994583 0.0021299657 -0.0038488673 0.0026930524 -0.001206937 -0.0019200414 0.0023790693 -0.0034103796 -0.0022230642 -0.00231065 0.0023338385 -0.002686672 -0.0028518692 0.0032965124 -0.0006687905 0.0017839961 0.00089116715 -0.0012303267 0.0018805583 -0.0020447613 -0.002922076 0.00039072303 -0.0016279874 0.0006562487 -0.0021958598 -0.0033834497 -0.000630456 0.003174311 -0.003677938 -0.0011916923 -0.0009556193 -0.0031232927 -0.0024887568 -0.0015100073 0.0032346426 -0.0030139203 -0.003647507 -0.0031856503 0.0026043612 0.00029188374 0.0032523705 0.00087247783 -0.0009050716 0.0037090597 0.0014253027 -0.00038173792 -0.0024696325 0.0024353315 -0.002531966 0.0018871777 -0.0038460896 -0.0032002185 -0.0026654124 0.0022296992 -0.0032422773 -0.001213146 0.002910492 0.00043614523 0.0033052948 0.0020154093 -0.0021907713 0.0015258545 9.255858e-05 -0.0012222634 0.0003733242 0.0014059045 0.0036998617 -0.0016635327 0.0035570287 -0.00045018588 0.00025242535 -0.00084751303 0.002849965 -0.0012485816 0.002140257 0.0035010565 -0.0038913845 0.0038471264 -0.0035758566 -0.0005864291 0.00023741314 0.0034651703 -0.0018932375 -0.0012796485 0.0007816256 0.0023815387 0.003782678 -0.0016084283 -0.0018651601 0.002628531 -0.0031660723 -0.00035839743 0.0021038302 -0.0013045078 -0.0034254445 0.00071070273 -0.00068649085 -0.0026261748 0.0008956009 -0.001947991 -0.0022537292 -0.00081625965 -0.0029786346 -0.002759853 -0.0035329813 0.0006462722 -4.8723974e-05 -0.0035538888 -0.00030628114
253 0.0037381293 -0.0030784048 0.0022888226 0.0005710278 0.0005774156 -0.003442605 -0.0005590798 0.0018298465 0.0033879052 0.0038446854 -0.0015240321 -0.00047688876 -0.00096420996 -0.0018164976 0.001755494 -2.1823631e-05 -0.0009958212 0.0036739735 0.0013022595 -0.003777898 -0.0014909944 0.002885189 0.00011278361 -0.0006442103 0.0027225763 0.0018669365 0.0027465413 -0.0015789021 -0.0031923815 0.0018421942 -0.002718419 -0.00043901676 -0.0017437676 -0.0037139952 -0.0009316581 -0.0025402126 -0.0028819982 -0.0029771742 0.00371268 0.0019733969 -0.0010731324 -0.0036975038 -0.0012922036 -0.00030308365 -0.0016359743 0.002416783 0.0009672629 0.0035049678 -0.0036401746 -0.0011152377 0.0008432926 -5.8930724e-05 -0.00064630865 0.0005197413 -0.0034559127 -0.0030580992 -6.780281e-05 0.0028505195 0.0017428672 0.00255071 0.0004024194 -0.0014525026 0.0030065125 0.0018177618 -0.0017043775 -0.0031120568 -0.0019245183 -0.0026795925 0.00025908934 0.0012748316 0.0031740288 -0.0028187167 0.0004991621 -0.0017813252 0.002098313 -0.0007336342 0.00012760423 -0.00238429 -0.002988576 0.0025346715 0.0029256546 0.002465613 -0.0011310797 -0.0029583632 -0.0032084726 -1.2135751e-05 -0.00083296123 -0.002529736 0.00020634137 -0.00018660055 0.001635675 0.0025410743 0.0033855215 -0.0030688117 0.00021881892 0.00021468633 0.0022863133 0.0005785691 -0.0011417198 0.00022748242 0.001474487 0.0020290425 -0.0031659182 -0.0022490025 0.002041028 0.0012426098 -0.00055362086 -4.34151e-05 -0.0032179505 0.0034258463 -0.001273811 -0.0011816678 0.0013156285 -0.00025337673 -0.0005230222 0.0026542097 -0.0011659361 -0.00093022775 0.00011399224 0.0039033787 -0.00040866874 0.0006884239 0.0025856502 0.0023027495 0.0030585348 -0.0021081376 -0.0010517051 0.002949648
33 0.0024582488 0.0008752446 -0.0031303857 0.003584479 -0.0030919034 0.003807961 0.003590648 0.0025833955 -0.0011001109 0.00017492971 0.0016771071 0.0029091989 0.0022325655 -0.0027686676 -0.00023329463 -0.0021017839 -2.6188027e-06 0.0027647766 -0.00035829924 -0.0028014663 -0.000700484 9.179097e-05 -0.0025911303 0.0031986232 -0.00019533931 0.0012128494 2.1667473e-05 0.00017799134 -0.001969458 0.0005544165 -0.0016845786 -0.0007882415 -0.00040417002 -0.0033980717 0.0011381083 0.0023638795 0.0009421397 -0.0024227228 -0.0023359177 -0.0026373605 0.0026503555 0.0004574019 -0.0015337395 0.0026289965 -0.00082410924 0.0010130755 -0.0030214044 -0.003510634 0.0009944 -0.00033111963 0.0014907748 -0.0034115105 -0.0019588193 0.00040366268 -0.00085801154 0.0036379455 -0.001974992 -0.0010400796 -0.0031736826 -0.0014167207 -0.0033242095 0.0023465718 -0.0035459306 -0.00040271168 -0.0034309085 0.0033439456 -0.0018975689 -0.001141915 0.0033694594 0.003890935 -0.00083313376 -0.0038475108 0.0023599227 0.0038638061 -0.0025146184 -0.0015152217 0.00043389332 -0.0032530117 -0.0026600766 0.0034426209 -0.00055087666 0.0027154547 -0.0019748097 0.0007629518 0.0036669488 -0.0024101872 -0.0023560612 -0.002306535 -0.0018688932 -0.0025499202 0.0002683508 -0.0005686972 0.0004404034 5.8801124e-05 0.0006181208 0.0025636312 -0.002624989 0.003784395 0.00071080594 -0.0034753608 0.0015682336 -0.0019377206 -0.0027874352 -0.0026360028 0.0006292569 0.00033382187 -0.0027758684 0.0013145946 -0.0008409005 -0.002391867 -0.0028115313 0.0007195677 0.00059038884 0.0027118993 0.00023395706 -0.003766579 0.0020835984 0.003901844 -0.0023937237 -0.0017313141 -0.0002644954 0.0008388293 -0.0017493416 -0.0018808569 -0.0015365259 0.0005300609 -0.0024313403 -0.00070191344
55 0.0023641123 -0.0021640216 0.0008883463 0.0011998031 -0.0005099666 0.0013471287 0.0004315987 0.00324308 0.00040378087 -0.00022970886 -0.00081052026 -0.0010717144 0.0033787163 -0.0027665247 0.0021438764 -0.0015081946 -0.00236257 0.0029008582 -0.0023608503 0.0021357138 0.002817482 -0.0012434992 -0.0010404884 -0.0008417857 0.002336831 -0.0020696558 0.0016760189 0.0018173299 0.0026609106 -0.003867997 0.0016553899 0.0034829404 -0.0030010585 -0.0018730302 0.003355383 -0.0017573505 -5.6497065e-05 0.0020225672 -0.0021215167 0.0031684989 -0.0026532693 -0.0027023077 6.006639e-05 -0.00025117438 0.0036515123 -0.0009098236 0.0037830055 0.0014545976 -0.002577705 -0.00025866082 -0.00056460686 -0.0022953893 0.002877139 -0.00045862127 -0.001980755 -0.0021982826 -0.0020985594 0.00023386296 -0.0009495129 -0.0015038368 0.0037936382 0.0027443261 -0.00087687006 0.00064320926 0.0020276222 -0.0036985877 -0.0022523205 -0.0024809376 -0.002702662 0.0020672749 -0.0016146853 0.002700401 0.0015959196 0.0010472735 -0.0025425178 -0.00028137438 -0.0017354096 -0.0016315086 -0.00080648385 -0.00020695437 0.001608267 -0.0013216985 -0.0027930124 0.0032340835 -0.00096168526 0.0013602256 -0.0012683964 0.0024070393 -0.00061837636 -0.0008425794 -0.0037571625 0.00198624 0.00059500686 -0.0038879283 0.0029161898 -0.0011109805 -0.0009046474 0.0021788015 -0.0015074896 -0.0037840903 0.0032251056 -0.0030495764 -0.0026996399 0.00148148 0.0036795265 0.0003743858 0.0023142537 0.00016993671 0.0036234271 -0.0011171232 -7.274464e-05 0.0037181703 0.001957168 -0.0025895464 0.001364327 0.0007072052 0.0016817098 0.0017475635 0.0009470533 0.002524668 -7.866915e-05 0.0037746856 -0.003394219 0.0008114029 0.00020442871 0.00014202355 0.0029068845 -0.0037572142
30 -0.0032618446 0.0024598564 -0.0012553094 0.003696409 0.00045844595 -0.0017727966 0.0036585752 -0.0037743659 0.0026545248 0.0031137378 0.0015610083 0.0005449405 0.0032002556 -0.0035864583 -0.00048045785 0.003270372 0.00037917073 -0.00092517986 0.00041953215 -0.0036736664 0.0028072677 -0.00060804625 -0.0027633104 0.003114748 -0.0036333445 0.0007587659 -0.0024256315 -0.0038894322 0.0032913724 -0.002301476 0.0016817448 -0.002177164 -0.00095898757 -0.0029080282 -0.0036321392 -0.002543754 0.0023237122 -0.00016035045 0.0026046524 0.0027380127 -0.0032439888 0.0020535397 -0.0031241518 -0.0016183084 0.0031261249 -0.0010039645 -0.0020270266 0.0009507346 0.0031169977 -0.0036482415 -0.0003198877 0.0029322652 0.0036277524 -0.00060343154 0.0029335641 0.003128239 0.0019411206 0.0018442763 0.00069687 0.0035142957 0.0013464245 -0.00040909986 0.0012166841 -0.003047455 0.00125206 -0.00047361423 -0.0009471653 0.0031117934 -0.0030198467 -0.0003795155 6.083464e-05 -0.003515261 -0.002375571 0.0014636496 -0.003775664 0.00017671612 -7.7850695e-05 0.0034914732 0.0021252497 0.002673358 0.00351532 -0.0009151359 -0.0015026735 0.0022914794 0.0010288282 -0.00012813725 0.003628541 -0.0031881295 0.0031294762 0.0032269317 0.0029532928 -0.0030394853 0.0026235178 0.002785139 -0.0005942464 0.00022908836 -0.0016706049 0.0012057899 0.0031823723 0.0012572623 -0.0037090695 0.0016223437 -0.0005178156 0.0018146848 -0.0037949018 0.0010389702 -0.0029999367 -0.0020809716 -0.001299616 -0.002646953 0.003222014 -0.0012645338 0.0026241688 -0.0032348242 -0.00016617776 0.0028866976 -0.0027257814 -0.0013294416 0.0011463454 -0.0022802213 -0.0034789878 -0.0010675971 0.00016888687 0.0011180677 0.002126957 -0.002016646 -0.00012748876 -0.0010350259
28 0.0010489711 -0.0037018724 0.0012824642 -0.0018626982 0.000560589 -0.0031614988 0.00017423047 -0.00052122603 -0.0016348416 0.0003299688 0.001320984 0.0036139009 -0.0028400184 -2.6767416e-06 -0.0019048234 0.0007475664 0.003309441 -0.003720732 -0.00145972 0.0035911668 -0.0021891496 0.0015703248 -0.0009632182 0.0035920534 0.0033600782 0.0030953912 0.002509535 0.0014304208 0.003089487 -0.0032759246 -0.0033781298 0.0017278836 -0.0028606392 0.0016005922 0.0016529469 0.0007924042 0.0021713371 -0.0019260069 -0.0018586179 0.0037306314 0.0007268219 -0.0029798949 0.0007183882 -0.0005515732 -0.002015844 -0.0029281387 0.002588848 0.0002340017 0.0030211164 -0.0023239783 -0.0019117816 -0.001395936 0.0012874291 -0.0027357785 0.0031718896 -0.0019415655 0.0017847029 0.0026750306 -0.0005312594 -0.00233244 0.00030275673 0.0001427519 0.00033824815 -0.0010622658 -0.00018601282 -0.003176934 -0.0031843425 0.0033775123 -0.0027717482 -0.00079377886 -0.00085730915 -0.0022725484 -4.7356127e-05 0.0010328939 -0.002528554 -0.0037225438 0.0002485194 0.000711484 0.0029620552 -0.00203586 0.0036947646 0.003005818 -0.0038969354 0.001184374 -0.0029435956 -0.00012245109 -0.0027205504 -0.00018468285 0.001071562 -0.0036134033 -0.0008537664 0.0015371643 -0.0027601349 0.0033803172 0.002226932 -0.0030232938 -0.0023712753 0.0015773209 -0.0012376651 -0.00085312524 -0.0029227892 -0.00210223 0.0038053668 0.0026877695 0.0032716026 0.0008375634 -9.474172e-05 -0.002507611 -0.0029843578 -0.0033466406 6.0959253e-05 -2.9005661e-05 0.0021866604 -0.00040849033 -0.00010818531 -0.0013813161 -0.0004506705 0.0003213336 -0.003642317 -0.00013150953 0.003024422 -0.0013533464 0.00028133576 0.0024748798 -0.0016000948 -0.0020242406 -0.0011886477 0.0013303217
26 0.0022431077 0.0005088312 -0.0032128892 -0.002397965 -0.0022703542 0.0021620875 0.00089898444 -0.0027524212 0.003463092 0.0010646523 -0.0019974345 0.0013355112 0.00059217494 0.0017916526 -0.002950988 0.0012271558 -0.00026365806 -0.003376876 0.0015952742 0.00045659277 0.00048681375 0.0005578205 0.002758302 0.0017580256 -0.001849153 0.00063323614 0.003182537 -0.0018344473 -0.0028545212 -0.0022826414 -0.0036967169 -0.0035963184 -0.0032276688 -0.0025844395 0.00091862853 0.0020677818 0.0028544778 0.003708834 0.00035204546 -0.0017301181 -0.0013794046 0.0020901726 -0.00038633513 -0.0035334083 0.0027090241 -0.0030734423 3.8284354e-05 -0.0031717867 0.00072151085 0.0016766773 -0.0038984716 0.0030081533 0.0030136048 -0.0036778082 -0.00047669985 -0.0021636859 -0.0026845832 -0.002782247 -0.0019189997 0.0007396883 -0.0030617954 -0.0026573357 -0.0037048713 -0.0038626082 -0.000995033 0.0037374808 0.0013585548 0.0007408519 -0.000249301 0.0006512434 0.002671594 -0.0034418649 0.0015377585 0.0027481378 -0.0037684746 0.0022217298 0.002060636 -0.0021761481 -0.0036164557 0.0020289565 -0.00018317453 -0.002244511 -0.001808942 3.0404082e-05 0.0028154934 -0.0026295097 -0.0015909498 0.0034455115 0.0020843248 2.4050047e-05 -0.00031489006 -0.00071738736 -0.00095033454 -0.0022410867 0.0012715897 0.0017306622 0.0032831018 -0.0029184197 -0.00027046754 0.0021500783 -0.003307079 0.0009558698 -0.0037872826 -0.0023316003 0.0013410398 -0.00043626735 6.016734e-05 0.0020326686 0.0024176107 -0.0018545828 -0.0019588547 0.00069730217 -0.0011135495 0.0019292816 0.00022952376 0.0030060783 -0.0036653387 0.0036548625 0.0013853422 -0.0022825634 0.0022459072 0.0014717621 0.0008415439 -0.0022739419 -0.003214938 -0.0018587641 0.0007098491 -8.070772e-05
44 -0.000104153645 0.00074848096 -0.0033404303 -0.0022596149 2.6508425e-05 -0.00079347723 0.00370816 0.0032735555 -0.0033441358 -0.0037123552 -0.0024521674 0.0008380258 0.0010133805 -0.003717094 -0.00016695302 -0.0018504944 -0.0034505115 -0.0031575675 0.0005392807 -0.003075144 0.0013230531 -0.003426054 0.0013555278 -0.001549947 -0.0021474822 -0.0017741696 -0.0035609016 0.002433521 0.0027480714 -0.00076005445 0.00312103 -0.001119627 -0.00115032 -0.0025902684 -0.0012569261 -0.0028160368 0.00055009447 -0.0020416686 -0.003436012 0.0009464867 0.0035383452 0.00064216735 -0.0017840674 -0.003490187 0.0027469862 -0.0023106239 -0.0018707863 -0.0005213189 -0.0024920255 -0.0024745197 0.0033469505 0.0019617667 -0.0023593116 -9.774996e-05 -0.0009793051 -0.00022514776 -0.0031791425 0.003631328 -8.121073e-06 -0.0016567379 -0.0023490193 -0.003166468 -0.0024954719 0.0015348807 0.00014005041 0.003512259 0.0025403511 -0.00034750486 -0.0038708292 0.002230434 0.002993882 -0.00015872963 -0.0027182326 0.00292515 0.0033994303 -0.0019504719 -0.0021596975 -0.0022075833 0.000590945 0.0030188877 0.00038333438 0.0016993309 -0.0024300122 -0.0011214489 0.0028884737 0.00089898665 -0.0034090548 -0.0030272668 -0.0007538791 -0.0034101934 -0.0002548798 -0.002965228 -0.0016131644 -0.0018826947 -0.00038461311 -0.00037487067 -0.00058309466 0.0028522564 0.0030443682 -0.0020461236 -0.002320578 0.003753702 0.0016784692 -0.0014876836 -0.00064201275 -0.00094776053 0.0026456027 -0.0023231886 0.0034850354 -0.0037506453 -0.003513032 0.0005743819 -0.003872381 -0.0016481236 -0.003776638 -0.0023200815 -0.0024153702 0.00269726 -0.002729983 -0.00035606103 0.0038082094 -0.00215074 -0.0031623074 -0.0020989194 0.003634296 0.001720352 -0.0035414253 -0.0034530892
41 -0.0010177676 0.0020339682 -0.0017489452 0.0006107445 0.002843555 -0.003003437 -0.0026425286 -0.0034829555 0.002272714 -0.0020423722 -0.00025433057 -0.003162151 0.0037442164 -0.0030531622 -0.0016327004 -0.0008942691 -0.00053692056 0.003584048 0.00059069117 0.0002341601 0.0030551918 0.001469664 -0.003187964 -0.0030747587 0.0006269031 -0.00054037385 0.0023053368 -0.000764127 -0.0036174897 0.002217897 0.0017792651 -0.0015437028 -0.0026246533 -0.0010430671 0.0010504455 0.00074315653 0.0035619107 0.00015839028 0.0011556988 -0.00025891565 0.0033963171 0.0028734952 0.0017853926 0.0025393697 -0.0028115746 0.0024572047 0.0026011565 0.0026294894 0.0012433649 -0.0008790707 0.00067883404 -0.0007379469 0.0019200392 -0.002218867 0.0019297864 0.0033052072 0.0036014614 0.0018605752 0.00027361882 0.0009073625 -0.0005347769 0.0018953206 0.00059989083 0.0020687666 -0.0027992686 0.00040355301 -0.0034070115 -0.0026790593 0.00032141604 -0.0009366836 -0.00034570353 -0.0003819892 0.0037483403 -0.003184953 -0.0010083807 0.0018392344 -0.0018104669 -0.0018801892 -0.0017518 0.0038164386 0.0015625696 -0.0037299085 -0.0028860806 0.002455769 -0.0034686087 -0.0025736925 -0.0038885116 0.0033894803 0.0013243885 0.0020316632 0.00049185765 0.0012977219 0.0008239953 0.0038317812 -0.0024371615 0.0029434748 -0.0010976832 0.003225739 -0.0022270258 0.00048102497 -0.0024765942 -0.0034086865 0.00021192282 0.00022253484 -0.000675699 -0.0036997036 0.0011287713 0.0017751419 -0.0033904614 0.00032193155 -0.0036382051 -0.0022747698 0.0014710595 -0.0007373 0.00031255427 0.0016108622 -0.0018979957 -0.0015109532 0.000121696496 -0.0034605237 0.001251017 -0.0006945177 0.0014780114 0.0023599819 0.0018903721 -0.00060893776 -0.0034712935 0.0024355873
48 0.0006555123 -0.0033232358 0.0036248039 0.002657221 0.00054294086 0.0033544633 0.00070868555 0.0037496283 0.0017156856 -0.0018033547 0.0007586416 -0.0021611399 -0.00088446075 0.0028441728 0.0017181378 0.0010845286 -0.0037923702 0.00258061 -0.0019984187 -0.002300825 -0.0015363313 0.0032036898 -0.0013241066 0.0027132784 -0.0030147526 -0.0038085014 -0.00027419275 -0.003236767 0.0014986605 0.0019550647 -0.0012787462 -0.0008368435 -0.0037485098 0.0023280785 0.002038532 -0.0025144087 -0.0012787317 0.0015630623 -0.0037731535 -0.00061099953 -0.0019965565 0.0014938713 -0.0016920598 -0.0025908705 0.0029528867 0.0004512579 0.0012392695 0.001536716 -0.0029638247 -0.001687313 0.0034025055 0.002365108 -0.00019103686 7.1929826e-05 -0.003582105 -0.0038129953 0.0032761558 0.0011201029 -0.0023192815 -0.0005687207 0.002356287 0.0026631514 -0.0018177148 0.003533508 9.2845774e-05 0.0005828155 0.002003482 -0.0013621018 0.0017828679 0.0007128629 0.0023437734 0.0022183657 0.0020079517 -0.0007339356 0.0007594441 -0.0017667218 0.0035172673 0.0019198704 0.0038526307 0.0038692323 -0.0007892659 -0.0016060926 -0.0013653298 -0.0030060422 0.003502782 0.0030125224 0.0012710158 0.00080084667 -0.0033289243 -0.002490972 -0.0034281386 -0.0013319168 0.0038103354 -0.0014286547 0.0008031114 -0.0035065806 0.0010526566 -0.002634483 -0.0016529853 -0.0028655054 0.00039303917 -0.0026862242 -0.0025660996 0.0006790309 -0.003168614 0.0020692847 0.0027650404 0.0018319415 0.0031159548 -0.00097017 -0.0020452973 -0.0018076169 -0.00019231052 0.0019865602 -0.0032790336 -0.0036943953 -0.00075112935 0.00085883593 0.0032537978 -0.0019689365 0.0023823765 -0.0030827515 -0.0032335161 -9.731132e-05 0.0026738206 -0.0028586856 -0.0012818932 0.0005780293
29 -0.0020322406 0.0028640998 -0.002492706 0.00077218236 -0.0028567482 -0.0011312865 -0.003433162 0.002703134 -0.0023346192 -0.00086480565 -0.0030930103 0.00038336343 -0.0021527947 -0.0021005 -0.00017078973 -0.0022742548 0.0033213582 0.0022545934 -0.0033295413 -0.0014493258 -0.002651096 -0.0011895356 0.0035609817 -0.0021243321 -0.0013693238 0.0013185515 -0.00031255768 0.0021424715 0.00017473672 0.0030680923 0.0031752386 -0.0016160029 -0.001204078 0.0020746917 0.0030214034 0.0016783939 -0.0035610844 0.0011485791 0.0010265962 0.0026635039 0.0038335582 -0.003025868 -0.0029864216 0.0033483384 0.0034643896 -0.0031708325 -0.00091941486 -0.0037875639 0.0019872037 0.0021397427 0.0014819385 0.00055606663 -0.0014400284 -0.0009098223 -0.0034050003 -0.002458602 -0.002130149 0.0022212614 0.003031062 0.0024448961 0.0015946049 0.0026672839 -0.0005597632 0.0038060541 0.0028607582 -0.0013345218 -0.0036044687 0.0037035705 -0.0033335646 -0.0009458155 -0.0032979052 -0.0031621587 0.00027650472 -0.0014951553 0.0023461191 -0.0035787225 -0.0010780788 -0.0002088007 0.0036726645 -0.0033060506 -0.0021674067 -0.0023441003 -0.0038933249 9.639792e-05 -0.0031329587 0.0026869006 -0.0018994358 0.0019211074 -0.0014994617 -0.00050092 0.0017210311 -0.0026487182 0.00078663096 0.0024630742 -0.002353665 -0.003814569 -0.0005540078 0.00010056724 -0.0013914818 0.0034738947 -0.003025401 0.0006046781 -0.0011362571 0.0019640585 0.0021935164 0.002347034 -0.0001932804 0.002861465 -0.0023469676 -0.0003546342 -0.0011824961 -0.0012123963 0.0028845686 0.0037265997 0.0037195 -0.0017558741 0.00022933017 -0.003114413 0.001917958 -0.0014244457 -0.00083036843 0.0002187821 0.0023282527 -0.0011536964 -0.0037098397 -0.001412146 -0.0003014721 0.0007404285
39 0.0024443138 0.0013742769 -0.00179206 0.0009659524 0.001499299 0.00029199434 -0.00090019876 0.0034536566 0.0005639892 -0.0033724345 -0.0018401061 0.0020264352 -0.00039818077 0.0032136627 0.0019713982 -0.0038274296 0.00013637083 0.0020422589 -0.0029242777 -0.00013853649 -0.001609324 0.00043861056 -0.0014979724 0.00041846343 0.0013396824 0.0032133437 0.00013863629 -0.002435709 0.003120372 0.0012921443 0.0026207364 -0.0025349096 0.0008799114 -0.0023975812 -0.0033926237 0.0016929737 -0.0032615343 -0.000746438 -0.000869916 0.00369699 0.003809079 0.0007831297 0.003288704 -0.0038259577 -0.0018578703 0.0007772557 0.001929953 0.0019457036 -0.00037750727 7.9777856e-05 0.0031758742 -0.0016398972 0.0013201602 0.0017487942 -0.0032107278 -0.0033596081 -0.0018869231 0.0025600914 0.0024391667 0.0011016243 0.003828602 -0.0018435455 0.001557624 0.0030990224 0.0030347193 0.0006504315 0.0015493674 -0.0013239784 -0.0034315838 -0.0006309226 -0.0031886052 0.0021017112 -0.0018657958 0.003718218 0.0031650912 -0.0007727663 0.0029561066 9.983664e-05 -0.0012389726 0.0021300314 -0.00054880406 0.0025883797 0.0016479467 -0.0013609902 -0.00026745355 0.0022611055 3.1100833e-05 0.0025699297 -0.000851457 -0.0022104704 0.0020966986 -0.0026834996 -0.0016920902 0.0038419573 -0.0012627895 -0.0016604607 -0.0011058209 -0.0019228043 -0.003090257 0.0033675195 -0.002430442 -0.0037448555 0.0023482125 -0.0005538389 0.0013698379 -0.0017464285 0.003903227 0.0038794468 -0.0007664748 -0.003703423 0.0035276122 0.0016314292 -0.0013161033 0.00063186017 0.001731266 0.0034196114 -0.0023785164 -0.00309447 0.002028723 -0.0030833608 0.00010945053 0.0022311746 -0.0025190788 -0.0034147569 -0.0031680483 -0.00035964613 -0.0017551722 -0.0011765668
71 0.0029952496 0.0010408656 0.003428801 -0.000921322 0.0016663327 0.0026482556 0.0031521241 0.00063882105 -0.0030918124 -0.0005860584 -0.0007845016 -0.003799245 0.001696791 0.002258006 -0.0023025686 -9.3887094e-05 -0.0015100975 0.0014479575 0.0030930676 -0.0007364419 -0.0006252317 -0.0027626087 0.0014570768 0.0038495122 -0.0037456343 -0.0023025952 0.0011220113 -0.001651204 -0.0025275408 -0.0033774897 -0.0016737331 0.0016259074 0.0005019437 0.0025989988 0.0018583166 -0.003140097 0.0028932383 0.0015684908 -0.0014884379 0.0015042746 -0.001814401 0.0006928281 -0.0037430392 -0.0037471382 0.0005168952 0.0032243077 0.0010764826 -0.00062812073 0.00049129245 0.0005561999 0.00088193186 0.0021995888 0.0013707122 -0.002610384 0.00089735497 0.001266446 -0.0013366131 0.0022631236 0.0017539804 -0.0029293168 0.003645749 -0.0028184168 0.0020112284 0.0007614462 -0.0037438015 0.0028294462 -0.0017642925 0.003490842 0.0021298353 0.0004015028 -0.00032180728 -0.0034245236 -0.0028642854 0.0008709832 -0.0018639226 -0.0027978818 0.0030465873 -0.003844652 -0.0027919873 0.0038037898 0.0027411946 -0.0030393738 0.0016400024 -0.0023757303 0.0033740154 0.00019403946 -0.00096670375 -0.00017580058 -0.0015300895 0.0023764304 0.0028814445 0.0005749994 -0.0028660866 0.0006897397 -0.0034863504 -0.0030407622 0.0037163557 -0.0038031696 0.0038596056 0.00095817813 -0.002905021 0.0036648032 0.0005719845 5.4711272e-05 0.0016189927 -0.0003150253 -0.0029303825 1.3184403e-05 0.0015160296 0.0027763434 0.0019733766 -0.0013806766 0.0020122787 -0.00090647343 0.003371815 0.0024352614 -0.00064685184 -0.002718179 0.0016059711 -0.0005165509 -0.0015404228 0.0035906537 -0.003057273 0.0017111495 0.0015494701 -0.0006235369 0.000771909 0.0037970927
35 -0.0031977745 -0.0034411417 -0.0018642253 0.0013428829 -0.0025327348 -0.0036626298 -0.0016093432 -0.0036802893 -0.0027730593 -0.0023438735 -0.0010176215 0.00064963964 -0.0033824423 -0.0033392815 0.0035633203 0.00028367277 0.0011507042 -5.709924e-05 -0.0037660769 0.002522258 -0.0036221861 -0.0011354075 0.00093468546 -0.0030346615 0.0017580293 0.00015679796 -0.0035472743 0.0007501693 0.003077284 -0.0021679967 0.00016887428 0.0027955272 -0.0035473215 -0.0025138215 -0.00041147787 -0.0006569154 0.0033335714 0.0038667887 0.0026742553 -0.0015818542 -0.0027804018 -0.0020286527 -0.0018735547 -0.00193117 0.0008217974 -0.0037828928 0.00038245053 -0.0015273714 -0.00031213384 -0.000684054 -0.0032765833 0.0023242047 -0.0022170015 -0.001148338 -0.0015321292 -0.0021341592 -0.0020200338 0.0014885848 0.000103543876 -0.0012620109 0.0031907072 0.0036933648 -0.003525895 4.1282146e-05 0.0033198332 -0.0022689847 0.00023551546 0.0035866818 -6.524777e-05 -0.0018630428 -0.0010421976 -0.0018706882 -0.0023502996 -0.00060804473 -0.003269271 -0.0004921624 0.0010448575 -0.0010138582 0.0025328514 -0.00022294998 0.002719368 -0.00092891185 -0.0035649834 -0.0023798537 0.0022386103 -0.002034031 -0.00065396656 -0.0028847964 0.0015700023 -0.0012855593 -0.0009887984 -0.00015424147 0.0018021446 -0.0037743323 -0.0003020751 0.0011201551 0.0011515416 -0.0014245986 -0.0019264595 0.0021105725 -0.0014397858 -0.0026782015 0.0015620524 -0.0038006383 -0.0011982431 0.0022142332 -0.0021120713 -0.0036068247 -0.00061292486 0.0020143462 0.0007076424 0.0006991869 0.0012703227 -0.0011108334 -0.0015434203 -0.0021209642 -0.00079974736 0.0038291942 0.0031198887 -0.0026410953 -0.0030355523 0.0018685051 0.0001741826 -0.003733348 -0.0011392297 -0.0024721024 -0.002506497 -0.0038394209
34 -0.000744051 0.0037583879 -0.0012803988 -0.0007281946 -0.0001029511 3.2399395e-05 0.0012539319 -0.003217143 -0.00028583992 0.0005902761 -0.0035033748 -0.001721338 6.573698e-05 0.0028096186 0.0016745279 -0.0018930795 -0.0034788447 -0.0036137 -0.0023684036 0.0010091594 0.00012986071 -0.0017331245 0.0008387143 -0.0017875594 -0.0007696622 -0.0033130876 0.001172192 -0.003556417 0.00071144686 0.002876352 -0.0015278851 -0.002895756 0.0009159458 0.0038329465 0.0026802332 -0.0031264287 -0.0035313363 -0.0032365895 0.00015858108 0.0030612452 0.0028549542 0.0026544617 0.00059115415 -0.0020108405 -0.0035334532 0.0015047649 0.000561835 0.00016729945 0.00028139557 0.0011597268 -3.2603493e-05 0.0023530002 0.0022211238 0.0035319321 0.00035708642 -0.00024398344 -0.0009409478 -0.0017268588 0.0029354156 -0.0038365945 0.0015358739 -0.002617014 0.0019926864 0.000802059 0.0028859845 0.0032480462 -0.002315773 -0.0036154916 -0.0033301306 -0.00073624245 0.002544833 0.0035812296 0.002701624 0.0023900557 -0.0011312761 -0.00060253136 0.0005243564 -0.0024027436 -0.0012132368 0.0031600639 0.0022210514 0.0019806165 0.001611856 -0.0018603014 -0.0037659279 0.0017176025 0.0023182747 -0.00020919795 0.0007129295 0.0036857317 -0.0010252249 -0.0011868634 -0.0010081657 -0.0023522398 -0.0022667395 -0.00015159992 -0.002435181 0.00035936647 0.0006453114 -0.0033249995 -0.00055305014 0.0036168364 -0.0009931894 -0.0009022446 0.001158845 -0.000142761 -0.00079907174 0.0005506923 0.00090088043 0.003470147 -0.0036044135 -0.0035505812 -0.00082505075 -0.0011245051 -0.0012765704 0.0014514691 -0.0018381954 -0.0037551494 0.00011801061 -0.0018876117 0.0009050578 0.0025536998 0.0028840087 0.0026648054 -0.0013954222 -0.00062515336 -0.002345848 -0.0020913004
46 0.0034567665 -0.0004962193 -0.00016655162 -0.00030114877 0.00073871476 -0.0035183616 0.0033985744 0.00053034275 -0.0020693303 -0.0007050485 0.0033273075 -0.0032940295 -0.0013049312 0.0014672405 -0.0018529493 -0.0016069063 -0.0012233633 -0.0028527856 -0.0019600047 -0.0034067177 -0.0034405603 -0.00070483395 -0.0032461958 0.0002652204 0.0031670302 0.0014082625 -0.00027745657 0.00058325287 -0.003211434 -0.0001440519 -0.00063607295 -0.00075125054 0.0029990128 0.00023227058 0.0033533627 -0.00040749527 -0.0026757559 0.0018374115 0.0026442711 -0.00020527474 -0.0035361876 -0.0031010685 0.00020788332 3.1038107e-05 -0.0022226202 -0.0028656218 0.0012738485 -0.0035195057 -0.001687314 -0.0024614432 -0.0022686007 -0.0008688569 0.00011991584 0.00059563696 0.0026728283 0.0005185538 -0.00033878622 -0.002124572 -0.0033430841 -0.0019408403 0.0025237722 -0.003213721 -0.0028421488 -0.0027862855 -0.0011818836 -0.0010072447 0.00022119196 0.0026300207 0.0026747936 0.0037292086 -0.002625876 -0.003106252 -0.002324908 0.0013047414 0.0030956857 0.0039024255 -0.0029932803 0.00044791854 -0.0033650028 0.00097594404 0.0018057897 -0.0003856237 0.0018822277 0.00043446498 -0.00024099297 -0.00020807756 -0.0010792888 0.0035966847 0.0006745532 -0.0036150648 -0.003497192 0.0016764427 -0.0021032612 0.0038469625 -0.001112324 -0.0016791732 -0.0014963204 -0.0029349127 2.9300867e-05 0.0004809193 0.003541887 0.0032583247 -0.00027799493 -0.0014209084 0.0034457757 0.0038062334 0.0016151674 -0.003172653 0.0020356437 0.00053947186 -0.0008256114 -0.000635897 0.001110415 0.002484715 -0.0038956085 -0.0030787308 -0.002243287 -0.00022488227 -0.0022203703 0.0025173277 0.00040208385 -0.0026675146 -0.0018716978 0.00014738187 0.0034171287 0.00049897144 -0.002695074 0.0009565598
50 0.0024916723 0.00053972565 -0.00038014277 0.0017842865 -0.0019762106 -0.00315155 -0.0020862655 0.0031177204 0.0020628432 -0.0019247126 0.0011237066 -0.0013015501 0.0033092997 0.0037593236 -0.0023678492 0.0019602666 -7.72221e-05 -0.002495366 0.0029037122 0.0023189685 -0.00073137274 -0.00080245244 -0.001802069 0.0010049912 0.0010050503 0.002308462 -0.0017253389 -0.0023637216 -0.00079590076 -0.0007258495 -0.0014576376 -0.00028290693 -0.00278394 -0.0024155863 -0.0026876607 0.0036014202 -0.00028620224 0.0037628014 -0.0035098866 0.0018405379 0.002417809 0.0023624378 -0.0032561654 0.0026062273 -0.0003777482 -0.0006414048 -0.00059050834 -0.0033196707 0.0006613324 -0.003146471 0.0016538694 0.003508103 -0.0006874258 0.0028723846 -0.0017954514 0.0034151038 0.002758335 -0.0002452494 -0.00080307317 0.00031465985 -0.0009177605 0.0032301627 0.0016054852 -0.0006271359 -0.0009074855 -0.00049598777 0.0014150045 0.0016157684 -0.001755854 -0.0038170426 -0.0027362267 -0.001990981 -0.001583472 0.002422741 0.00067886955 0.0015180621 0.0022331495 0.00081338466 -0.0014713521 0.0023099375 0.0023921616 0.0014922082 0.00293683 0.002120884 0.0024600835 0.0020692588 0.0020555332 -0.0031277551 0.002342092 -0.0007823382 -0.0006962448 0.0009493912 0.002763084 0.0011090516 -0.0035051676 -0.0016838973 0.0032542916 -0.0031072872 0.0025886574 0.0023001328 -0.0029688128 -0.003416892 0.0008438646 -0.003703069 -0.00062963 -0.001218924 -0.0013591144 -0.0008046061 9.3274364e-05 -0.0029671811 0.0026487166 0.0036848306 -0.0028846348 -1.0791595e-05 0.0003266726 -0.0009295811 0.0025043509 0.0024053156 0.00040985708 0.0036185975 0.002884526 0.00045017933 -0.0030831867 -0.0030027619 0.0011457843 0.0030162043 0.0016002262 0.00019719191
47 -0.0038428928 0.0005406168 -0.0024482226 0.00276951 0.0002637461 0.0038094115 0.0012015465 -0.003713759 -5.6345074e-05 -0.0037342869 0.002300209 0.0007315924 0.0032570001 -0.0019691219 0.0017742402 -0.0017102571 -0.0021523822 0.0034627141 -0.0006120915 0.0010262843 -0.002921995 0.00025271825 -0.0017027509 0.0025245582 -0.0033469698 -0.002832554 -0.0037205997 0.002844905 0.0026786223 0.0004518542 0.003064186 -0.0021344326 0.00022144135 0.0029412052 -0.0020280166 7.5188895e-05 -0.0010663825 0.0038220559 0.001978463 -0.0013761017 0.002240406 0.0014153115 0.00027510655 0.003705421 0.0010477526 -0.0032753279 8.757004e-05 0.0017584331 -0.001131189 -0.0016951993 -0.0020085075 -0.0006829869 -0.0013430119 -0.0023738884 -0.0029313206 0.0012224201 -0.0026501582 0.0011427021 0.00069249223 -0.0032636453 -0.00018363488 0.0027811415 -0.0037956962 0.0019551716 -0.0026326354 -0.0031118793 -0.0030964226 -0.0002825093 0.002699206 -0.0010042414 -0.003281126 -0.00015030231 -0.0015610303 -0.0024580793 0.0018104629 0.0014887927 0.0029898218 0.0034959442 -0.0006678768 0.0018350306 0.001731538 0.0028941077 -0.0016656276 0.0035348777 -0.0013073342 -0.0007870257 0.00078667223 -0.0016493894 0.0036929538 -0.0015298595 0.0032145495 -0.0014773823 0.0026686124 0.0036118147 0.0013309125 -0.0029018233 0.0019256705 0.001628783 0.003721021 -0.0011216738 -0.001474428 0.0007577008 -0.0021453586 0.002180127 0.0031928269 0.0033972177 -0.00032670138 -0.0012360233 0.001833533 0.0010096566 -0.00043799603 -0.0021852178 5.7442758e-06 0.0005491172 0.00023634029 0.0028334097 0.0016188577 -0.003596007 0.0025999818 0.0023598874 -0.00045838108 -0.001775229 -0.00012570484 0.0022950503 -0.000774382 -0.0018239588 0.00064889976 -0.0027786207
62 -0.0028117874 -0.003590839 -0.00038511955 0.0012056562 0.0006520243 -0.003676159 0.000368046 -0.0038967645 0.0038999605 -0.0014194399 -0.0018078892 -0.0027318285 0.0019724278 0.0022400238 0.0006702713 0.00050721486 -0.0010763283 0.00060751865 -0.00030314014 -0.0037664666 0.0020666579 0.00014803311 -0.003260878 -0.0035931447 0.0031688325 -0.0036412952 -0.0038241025 -0.003218654 0.0036961867 0.0028986519 0.0037422632 0.0010221123 7.623218e-05 0.0019510562 -0.003790085 0.00022849363 -0.0025558316 -0.0038890345 0.0026901131 -0.0013224311 0.0031099662 -0.0032525393 0.0038043186 0.0026362338 0.001186994 0.0036193894 -0.003430988 -0.0026589208 -0.00068413693 0.003161204 0.0019398844 -0.00058376056 -0.00030232553 0.0030944026 0.0007187543 -0.0017822982 0.003128471 0.002809543 0.0011643802 -0.0025783845 0.00058756006 0.0026014736 -0.002529017 0.0007353693 -0.0017643564 -0.0022292866 -0.0010012088 -0.00077729573 0.00013929013 0.0012499441 0.003577505 0.0030318708 1.8620545e-05 8.45471e-05 0.0026244076 -0.002192173 -0.0007270336 -0.002513286 -0.0022284444 -0.0038839886 0.000886514 -0.0009518168 -0.00029835303 0.00049604673 -0.0029646833 0.00068276643 0.0011962175 -0.0035457748 -0.001613203 -0.0027567253 0.0034538673 -0.0016275144 0.002727257 0.002553817 -0.0024639962 0.0015624196 -0.0036813316 -0.00022735268 0.00090701296 0.00131263 -0.001662611 -0.0008036809 0.0013520345 0.0015100157 -0.0022125335 -0.00090362236 0.0037513808 -0.003168485 0.0035005223 0.002417196 -0.00023132031 -0.0011461145 -0.00370437 0.0016423501 -0.0016646199 -0.0036871852 -0.0011062485 -0.0021106573 -0.0020710477 -0.00032120754 -0.0005605961 -0.0003885449 0.0025624016 0.003043027 0.0003703257 0.00071379787 -0.0019966934 -0.0015293397
54 0.0014308139 0.0030302985 0.0018128501 0.0038283616 0.001055054 0.0022026063 0.00096886506 0.00043073183 -0.0031918336 -0.002265936 -0.00200835 0.00059627154 0.0005606465 -0.0037368522 0.0035577717 -0.0007321155 0.0021616863 -0.0020636648 -0.0015141552 0.0016599211 -0.0033304861 -0.0019201682 -0.0004424804 0.0021291547 -0.0014511792 -0.0031991687 -0.0034385067 0.00019003815 -0.003055482 0.00088382256 0.0033287464 -0.0033076985 -0.0038660592 0.0017249044 -0.0017343566 0.0033294777 -0.00033259543 0.002401526 0.0024260625 -0.0016868563 0.003120015 0.003141687 -0.003217699 -0.0024539346 0.0015002518 -0.002233859 -0.0014816965 0.0022923953 -0.0033197233 0.00055159663 0.0019959917 0.0014313849 -0.0020321521 -0.0029184548 0.0011730598 -0.003840401 0.0009053071 -0.0037224928 -0.00077820604 0.0036240388 -0.0010198733 -3.0645573e-05 -0.0031115394 0.00256466 -0.0029685698 0.0012386126 0.0029151868 0.0021330744 -0.003334972 0.0023965447 0.0019510917 0.003040319 0.0013568837 -0.0021293454 0.002534834 0.0018522533 0.00223771 0.00017907497 0.0015971579 0.0024302385 -0.0038863183 0.0009529743 -8.982432e-05 0.002517164 -0.002427974 -0.001329579 -0.0021617357 -0.0005052753 -0.0021955678 -0.0010369138 0.0023643032 -0.0009465927 0.0034908077 0.0033389053 0.0003621083 -0.0019337846 0.0012124913 -0.00029616128 0.0013017675 -0.0037590498 0.0007207817 -0.0016358496 -1.684506e-05 -0.0025315613 -0.0027519295 -0.0036174636 -0.00010521397 0.0009391401 0.00087345793 -0.0035117788 0.0019425178 0.00075332256 0.0027702162 -0.00018069473 -0.0027574035 0.0012128792 0.0028899498 0.0005640974 -1.7743892e-05 0.00092721434 -0.003333695 0.00350174 -0.0014222275 -0.0007203497 -0.0027254187 0.0036887699 0.00025676194 0.0027378309
60 -0.0035572422 0.0024243894 0.000297947 -0.00045254378 -0.0022201573 -0.0021228672 -0.0010776981 -0.0014734002 0.00047795838 -0.00024201527 0.0001806637 -0.0031980895 0.0022579879 -0.0016954817 -0.0032934686 -0.0026750616 -0.0020609747 0.0026163699 0.00022733472 0.0028259084 0.0021506904 -0.00046509932 0.00033212412 0.0011813424 0.0019108366 -0.0028198904 -0.00076354895 -0.0032254274 -0.0035711147 -0.00074143126 0.0019097388 -0.0024948998 -0.0020398553 0.001369402 -0.0016338525 -0.003805662 -0.0005823693 -0.0036407316 0.0031902888 0.00024840137 -0.00037287732 -0.00015079668 -0.0005734125 -0.0025897496 0.0026920536 -0.002293433 -0.0008635859 0.0008868889 -0.0021398559 -0.0020907281 -0.0002624079 0.002306039 0.001211717 -0.0022329595 0.0019810672 0.00017956804 -0.002145525 0.0009449811 0.00021768271 -0.0033454648 -0.0035199707 0.00052964623 -0.0003249535 0.0010774895 0.003389168 -3.088087e-05 0.0034301016 0.003412203 0.00023689655 0.0038703245 -0.0035663664 -0.0013789372 -0.0029613462 -6.4164095e-05 0.002537948 -0.00024701285 2.3209152e-05 -0.003012144 -0.003066738 0.0028393865 -0.000223459 0.002588821 0.0037717791 0.0004473933 -0.00059525 0.0031227658 -0.0026203187 -0.0013008988 0.0014595408 0.0037155852 0.0032417714 0.0021002989 0.00040067176 -0.0026855995 -0.0018288386 -0.002720109 0.0035990083 0.00067616673 0.0006467086 -0.0029498765 -0.0018170207 -0.0024674372 0.0029743912 0.0006323064 -0.0017453309 0.0030841115 0.00027522346 -0.0033419784 0.00094723015 -0.0034260703 0.00022938749 -0.0019728653 -0.00029011478 0.0016276931 -0.0029366582 0.00192857 0.0035624627 -0.00032733163 -0.0012704933 0.003598481 -0.0017928766 -0.0011939481 -0.0026987863 -0.0028196126 -0.0036612875 -0.0034795075 -0.0017478167 0.002255692
38 -0.0010082126 0.0022231955 0.0029128895 0.0018799293 -0.0021892323 0.000792519 0.002545342 -0.0027731895 -0.0026934373 0.0038885265 -0.002884161 -0.0024623992 -0.0010823156 0.0022542193 -0.0024340353 0.0024029035 -0.003745246 0.0037924098 4.906835e-06 0.0005392531 0.0013062507 -0.00027391384 2.118032e-06 -0.0038168693 -0.002665375 0.00035578973 0.0034653957 -0.00019511062 0.0026170409 -0.00033052993 -0.0023230773 0.00023147197 -0.0009044609 -0.0014447832 0.0024345454 0.0011239948 0.0022948454 0.002091541 -0.001548777 -0.0006440408 0.002078224 -0.0016845299 -0.0024849088 -0.0011100097 0.0012045056 0.0017980356 -0.0013163537 0.00021629734 0.0014603243 0.002357077 0.0019925435 -0.0017314389 -0.001035739 -0.0031333668 0.000407017 0.0020883472 -0.003376221 -0.0037841129 -0.001476946 0.0031757376 0.00084942277 0.002354006 -0.0031949852 0.0008295044 -0.0010988642 -0.00060620246 -0.0038742581 0.003601513 -0.0035115501 -0.0034411417 -0.0011739626 -0.0008358983 -0.00019886131 0.003615128 -0.0022629264 -0.0035499595 -0.0031769532 -0.00064168434 -0.00039995994 -0.0025503836 -0.003107318 0.002483122 0.0033629248 -0.0035950786 0.00059344963 -0.0037377956 0.0016232674 0.0037387405 0.002718364 0.002620123 0.0012673325 0.002429823 -0.0008441518 -0.0005706422 0.002345015 0.0001713234 -7.633528e-05 -0.002543919 -0.003129571 -0.0036914877 0.0023936634 -0.0008161925 -0.0012768571 0.0025315718 0.00096463953 -0.0037357777 0.0008703375 -0.003333428 -0.0004253398 0.0006606503 -0.0026293856 -0.0011786234 0.0012219938 -0.0017262133 0.002384358 -0.0024549486 0.00017480712 -0.003616224 0.0016267659 0.0031162365 -0.0012439444 0.001334272 0.0033975265 0.0011535203 -0.0032771956 0.002915822 0.0033658943 -0.00043042528
43 0.0038997054 0.00097632536 -5.4484448e-05 -0.0011958475 0.00034379878 -0.00071884436 0.0036706857 -0.0015577149 -0.00304817 0.00055050576 0.002392308 0.0037106127 -0.0012205432 0.00090082304 0.0005852843 -0.0021511398 0.0025448957 0.001777227 0.00032604084 0.0023789546 -0.00020843596 -0.0035276893 -0.0009119542 0.0013985938 -0.002343563 -0.0024415734 -0.0019527711 0.0036700163 -0.0013079812 -0.0018118292 -0.0007544625 -0.002160935 0.0023482968 0.0029744785 -0.0029440972 0.0025116524 -0.0014997941 0.0029051602 -6.829081e-05 -0.0018840729 0.0007624566 0.0029371078 0.0018643035 -0.0022007239 -0.00022457303 0.00080574024 -0.00085448934 0.0016487283 -0.0028808112 0.0023573602 -0.003250735 -0.0034948266 -0.001939038 0.0018870219 0.00048758258 -0.0033130043 -0.0024408821 -0.0016108952 0.0027352436 -0.0035792987 0.0008341726 -0.00062977517 -0.0003666106 -0.0005204687 -0.0008101307 0.0030663612 0.0033571941 0.00028553832 0.0005355455 -0.00030815048 0.0036980615 -0.0019891753 0.00017795198 -0.0007802397 0.0013173358 -0.00088370114 -0.0037286484 0.00018247697 0.0020819174 -0.003746551 -0.0023733606 -0.0013178102 0.003412163 -0.002574408 -0.0007058327 0.0011574979 1.15195335e-05 0.0026354282 -0.0024952304 0.003891063 -0.0011970503 -0.002328332 0.0009559559 -0.0031651852 -0.0015302111 0.003858517 0.0006700513 0.0022557972 0.0016762385 -0.0021532099 0.0028622395 0.0036711928 0.0017944991 -0.0004273894 -0.0011924797 -0.0025572274 -0.0030711426 0.0016375763 -0.0006619065 -0.0032268302 0.003725839 0.0032613976 0.001376758 -0.0035797758 -0.0028642975 -0.00020330957 -0.00329521 0.001927802 -0.002368311 -0.0008323536 -0.0012575625 -0.0007559415 0.0026354853 0.00052315876 -0.0013076821 0.0031645386 -0.000936717 -0.0018460944
49 -0.0022435721 0.0009795103 0.0018213498 0.003534328 -0.0007492631 0.0036875906 0.0026637542 -0.0030951393 0.0013321168 0.002873257 0.0028856806 0.00054604205 -0.0023648012 -0.0015138285 -0.0013365404 0.003422624 0.0020730973 0.0020459963 -0.0004559437 0.0013593531 -0.0029645492 -0.0007810637 -0.0011040638 0.0024929512 -0.00063401455 0.0025011338 0.0035251353 0.0019745831 0.0014299985 0.0012097358 0.0035790452 0.00020520258 0.0026311893 0.0025537221 0.00056475494 -0.0005993778 -0.001995369 0.00038876012 0.0030430933 0.0012560101 -0.0016732013 0.002916131 -0.00020492733 -0.002448198 0.002255825 -0.003124191 -0.0026460772 -0.0017727641 -0.0019474865 -0.00032437578 0.00271532 0.002971208 -0.00053243607 0.00075654616 0.0030521678 -0.003127335 0.0005094501 0.0007528367 -0.001215389 0.0012807263 -0.0035260762 -0.0021796096 0.00050364883 0.0032374873 -0.0036204245 -0.0005853162 -0.0023202347 -4.2503554e-05 0.0026671912 0.002863679 0.0021104945 0.0012928423 -0.0015544599 -0.00022118878 -0.0017953645 0.0026662024 0.0018595281 0.00018971469 -0.0011394365 0.002183087 -0.002780927 0.0021266635 -0.0039026942 0.0007250173 -0.0012731871 0.0026288556 -0.0013066694 -0.000570463 -0.0016405847 0.0037602398 -9.801077e-05 -0.0027581826 -0.0010497983 0.0020284916 0.00024971622 0.002001092 -0.003122651 -0.0023514729 -0.001945619 -0.00310932 0.0028816531 -0.002955774 -0.0028753858 -0.0015549504 0.0014526338 0.0023203224 0.0016066434 -0.002860387 -0.0005798567 0.002355859 -0.00073346676 -0.002764821 -0.0031509371 0.0015746821 -0.0023881572 0.00082403474 -0.0009855886 -0.0028343888 -0.00055145385 -6.679899e-05 -0.0027773294 0.0029905457 0.0027011577 0.0010724687 0.0020006835 -0.0015165022 -0.0011675543 -0.00017588877
42 0.0037539955 0.0026378818 -0.0027588082 0.0033018645 0.0012688828 -0.0015774376 0.0013712813 0.0015578752 -0.0011103988 0.0018863708 0.003653204 0.0020102973 0.0038739017 0.001657955 0.00091982656 -0.0032675155 -0.0003963276 -0.00045099945 0.0015783458 -0.0011338921 0.00062381977 -0.00022584038 -0.0009409594 0.0022837168 -0.0012127435 0.0007097654 0.0012911325 -0.0015524892 -0.0033799293 0.0032573582 0.0034531744 0.003629741 -0.0026712688 0.0024390242 0.0031486086 0.0021882032 0.0022736173 -0.0017281576 0.0038469045 0.0009019969 -0.002017795 -0.0007753915 -0.0023500782 -0.0023272398 0.0004462069 0.0007379167 -0.0019069844 -0.0013874759 0.0035259589 0.0022761407 0.0022553876 0.0021884923 -0.0015608052 0.0010277764 -0.0024031622 0.0027412835 -0.0032964288 -0.0015445998 -0.0009745674 0.00022624215 0.0030508453 0.0024198047 -0.0026337444 -0.0031079808 -0.0006075969 -0.00059817114 0.0004615328 -0.0015819406 0.0012868393 -0.001622139 0.00051588786 -0.0033938757 0.0004979715 -0.002688872 -0.0012914541 -0.000814666 0.002732694 0.0034916515 -0.0016826809 0.0025658591 0.002970773 0.003204553 0.0019695212 -0.0036447903 0.0017937418 -0.00034648128 0.0009070785 -0.002323949 0.0025468427 -0.0037778795 -0.0037831212 0.0010685212 0.00019715122 0.0028953808 0.0029063555 0.0027900725 -0.0026658017 -0.0013696249 0.0037842398 -0.0017027174 -0.0017701071 0.0022513713 -0.0004873483 -0.0011145364 0.0016891587 -0.00162134 0.00079564296 -0.002154891 -0.0027936876 0.0015259797 -0.0032638954 -0.0016627661 0.000972008 0.0035495432 0.002952991 0.0005583534 -0.003307583 -0.0030498938 0.0015462944 -0.0026136064 -0.0032412072 0.0037178535 0.0028026511 -0.0031878962 -0.0011859076 0.0038073584 0.0024548054 -0.0030661733
31 0.0009192299 6.363755e-05 -0.0008964888 0.0038328206 -0.0001588863 0.0011456313 0.0013625039 -0.0010642739 -0.0012672602 -0.0001158729 0.0022823657 0.0017765441 -0.0026652392 0.003337909 0.0026232835 0.0004192651 0.0015809067 0.0030318196 0.0019919754 -0.0017369721 0.00017845086 0.00065674394 0.0038901109 -0.00097275 -0.00030843486 -0.003587832 0.0008662873 -0.00082445407 -0.0010427512 -0.001440986 -0.00014508949 -0.0024591838 0.0010691787 -0.0027704614 0.0022694247 -0.0038504733 0.0021956586 -0.0027633046 -0.0011657008 0.0027221057 -0.002005761 -0.0018903245 -0.0028859864 0.0037779778 -0.0023072285 -0.001785271 0.0022718643 -0.003856275 -0.0017747624 0.0030185997 0.0032722885 0.0014999158 0.0005622152 0.0035719294 0.0035245658 3.1585983e-05 0.0016658346 0.0019083259 -0.0032169449 0.00057651615 0.00024702464 0.0017236408 -0.003510878 0.0028509223 -0.0027537227 -0.00012606922 -0.0036831247 -0.00072164834 -0.002275461 -0.0026563394 0.0029512183 0.0019626766 0.001008013 0.0012153389 -0.0026422553 -0.0031001605 -0.00087157195 -0.0038246254 -0.0035941687 0.0005656922 3.9423525e-05 0.00042674792 -0.003420194 0.0027842142 -0.0026936182 0.001035287 -0.001718003 -0.002484178 -0.001977298 0.002873304 -0.0006538998 0.0022763135 -0.0031205064 -0.0007488174 0.001837055 0.0035420323 0.0027986828 -0.0007928036 0.001364456 0.003036181 -0.003289858 0.0015963751 0.00029099672 -0.0025984824 -0.0008130886 0.00276707 0.0026920915 -0.0038050327 0.002441512 0.003767156 0.000696875 -0.0035081594 0.002367872 -0.0015055324 -0.001585831 0.002876794 -0.0024064488 -0.0018714403 -0.00299594 0.0026554274 -0.0034398667 0.0037666662 0.0034361796 -0.0025499472 -6.076615e-05 -0.0038225704 -0.0038579477 0.0030653595
