500 64
388 -0.113209166 -0.34192505 0.08868449 0.17598248 0.13160706 -0.083388545 -0.028158974 0.2795982 0.0456309 -0.28706595 0.3397088 -0.20563632 0.028947935 0.20533508 0.60210687 0.10212004 -0.11523391 0.09769005 -0.42735517 0.015560271 -0.013279587 -0.05021438 0.35450777 0.01805081 0.1343421 0.12204276 0.18254672 -0.2539157 0.19095966 -0.46349272 -0.111984044 -0.1491442 -0.31887832 0.26622525 -0.8810175 -0.1477073 0.11601821 0.6699467 0.6166888 0.70049983 0.32439047 0.1332827 -0.20929599 0.109455496 0.19672814 0.49821302 0.1758441 -0.2611771 -0.42980886 0.4379268 0.34284377 -0.5209479 0.22977108 0.18153925 -0.42795247 0.17455463 -0.17242132 0.0041461256 0.23291892 -0.07405551 0.1434838 0.24135566 0.42445746 0.08076253
371 -0.07000383 -0.3563214 -0.005266131 0.26180884 0.012698717 0.07762086 -0.031713396 0.29911706 0.022909561 -0.22474091 0.29288962 -0.19790138 -0.006926795 0.32803458 0.6271325 0.08475387 -0.1042874 0.1005025 -0.4620846 -0.09708611 0.049803995 0.05375443 0.19740082 0.11306181 0.112674505 -0.006408116 0.08056777 -0.4552153 0.15521184 -0.5044169 -0.01201463 -0.22502403 -0.34949026 0.26074454 -0.8232883 -0.09840988 0.17024146 0.7313366 0.57073385 0.6876357 0.32189453 0.19695732 -0.22619817 0.12996158 0.26882732 0.42656344 0.19823368 -0.2582021 -0.36884034 0.42517024 0.32112086 -0.56400454 0.27271375 0.10844386 -0.40752333 0.12911414 -0.20402142 0.10359971 0.184316 0.027739136 0.05528175 0.23832129 0.31804898 0.22514264
345 0.014716855 -0.30614528 0.06633788 0.2597555 0.13576092 0.06098806 -0.015502867 0.29736823 -0.03951265 -0.2785193 0.39731166 -0.18061605 -0.0062822467 0.2885928 0.5720675 0.10092612 -0.16245174 0.024195002 -0.4921376 0.02875294 0.026337544 0.072267696 0.21128573 0.05911255 0.19012122 -0.02417039 0.070251785 -0.40249643 0.08185446 -0.44681668 -0.086026005 -0.24974929 -0.34577912 0.19526906 -0.8075981 0.017896604 0.13124374 0.6616743 0.6480239 0.7876727 0.28745311 0.24812149 -0.2859435 0.12497301 0.12904859 0.46846545 0.14403415 -0.2706472 -0.51248914 0.42866597 0.35408327 -0.51915014 0.2932236 0.18462731 -0.3647624 0.10483904 -0.096008465 0.14832136 0.18690328 0.004060632 0.11901962 0.2590902 0.38045102 0.22436227
459 0.056967493 -0.311012 0.055305205 0.25523978 0.11570811 0.07108461 -0.03295851 0.21364294 0.11894877 -0.33138642 0.3805919 -0.10057326 -0.0054834727 0.32283264 0.4745292 0.2478824 -0.23227267 0.101647146 -0.5313877 0.0280581 0.076213636 0.047727894 0.34152022 0.14624111 0.011002795 -0.1602941 0.03125658 -0.38358542 0.11853237 -0.46304315 -0.0565718 -0.18961917 -0.30001453 0.26958513 -0.7134956 -0.1895289 0.14058255 0.5079304 0.652294 0.71077853 0.42313614 0.14235277 -0.4113451 0.09209783 0.18707626 0.4914938 0.21233177 -0.32970637 -0.31835794 0.40551603 0.4532875 -0.38367108 0.2523476 0.16975127 -0.3961157 0.3721484 -0.18943094 0.13570689 0.17284805 -0.06252805 0.2184171 0.18296506 0.41537434 0.32299665
428 -0.36632934 -0.11811148 -0.20136881 0.0091616055 -0.38548768 -0.4210488 -0.10437052 0.5910852 -0.06495163 -0.21647067 0.27423394 0.46264514 -0.43435732 0.2850093 0.9999082 0.51769954 -0.2933767 0.3692586 0.054076493 -0.12400281 0.8470353 0.3658027 0.42308083 -0.33269477 0.4500138 -0.2025544 -0.037866637 0.055204116 -0.08609201 0.09167815 -0.060237132 -0.5796492 0.011942562 -0.1191596 -0.40045273 -0.70850384 0.2071292 0.10907551 0.42074996 0.15835728 -0.10914693 0.22015989 -0.049076617 -0.18425497 0.13479762 0.03747698 0.08536042 -0.097894505 0.05922398 0.39609525 0.649539 -0.5656252 0.27360374 0.41858274 -1.1950784 0.37632042 0.23790415 0.10469932 -0.31824303 1.012049 0.19187723 0.85863256 0.26075026 -0.20801951
423 -0.299012 -0.19174035 -0.2046684 0.023508633 -0.24457635 -0.29019296 -0.047382817 0.52362984 0.0506003 -0.32150137 0.22241454 0.3305889 -0.24817833 0.34265748 1.0458798 0.51634043 -0.16833906 0.29498187 0.02867411 -0.14111954 0.85586476 0.4649969 0.36683476 -0.41629538 0.4619817 -0.09545872 -0.10424219 0.1367041 -0.26523155 0.1046468 0.17809184 -0.5369362 -0.07776105 -0.032704767 -0.29729888 -0.577372 0.1857828 0.0976127 0.37937683 0.03557956 0.042049468 0.19881141 0.075189345 -0.23188983 -0.092681564 0.061194178 -0.0917622 0.043554157 -0.1185457 0.27336583 0.64599526 -0.65032715 0.3529824 0.51995564 -1.2272633 0.2514345 0.19743526 -0.03657935 -0.45467028 1.126538 0.28101838 0.7327205 0.35340223 -0.20716734
438 0.03921041 -0.32275188 3.0292846e-05 0.29464397 0.15448697 0.09427833 0.03126351 0.14138778 0.06387601 -0.31186444 0.31110385 -0.22940901 0.031833243 0.3546765 0.5546546 0.16971232 -0.2283819 0.16029765 -0.57695395 0.1370276 0.04240396 0.06926562 0.30867442 0.11244957 0.023255559 -0.007964252 0.1520698 -0.3606644 0.0758851 -0.5003576 -0.011773348 -0.20483713 -0.35577118 0.30042538 -0.8288223 -0.096289456 0.14092228 0.50176007 0.58193296 0.8417236 0.3150434 0.19701774 -0.24541262 0.17130205 0.1954724 0.47327203 0.2860004 -0.20519711 -0.43283498 0.3176422 0.4159165 -0.4892585 0.17288572 0.22944336 -0.4078834 0.23336995 -0.1852229 0.2909341 0.1246115 0.0062907897 0.30985498 0.22285718 0.4764376 0.09063639
336 -0.30225274 -0.15957873 -0.17879798 0.039700333 -0.33970487 -0.2798039 -0.109200925 0.5047718 0.0392311 -0.24881007 0.2698184 0.35932538 -0.3705816 0.3683715 1.0390127 0.65801847 -0.34658906 0.28995624 0.015426287 -0.07057937 0.8802459 0.32209876 0.3629405 -0.36462417 0.40294498 -0.21936978 -0.0018991607 0.07714086 -0.27556786 0.15802972 0.011984166 -0.56123793 -0.003557313 -0.06686385 -0.47747704 -0.6073844 0.27098373 0.10994053 0.537778 0.0065868893 -0.1096904 0.2759066 0.13814391 -0.32342935 0.084841415 0.005588469 -0.0154170655 -0.14529388 -0.021835135 0.2835047 0.7004901 -0.5295683 0.3368721 0.4761859 -1.2023509 0.33133087 0.18777426 0.002923319 -0.43069404 1.0927148 0.22011301 0.8395418 0.2823389 -0.18789887
384 -0.0027863795 -0.39350596 0.014873111 0.30508935 0.062032953 0.042531647 0.023768364 0.28129214 0.073946245 -0.27430958 0.26204363 -0.21096484 0.0926421 0.2928315 0.5433469 0.16410053 -0.22576977 0.07442002 -0.5406524 -0.00048399114 -0.07721656 -0.14390577 0.3075366 0.013850126 -0.006822062 -0.14458366 0.10999623 -0.45564446 0.11615833 -0.44822577 -0.057960648 -0.23974387 -0.34297368 0.23137055 -0.84114146 -0.1833066 0.07819703 0.5845504 0.6683274 0.6065299 0.35780314 0.21854189 -0.19752233 0.16872434 0.25226355 0.5732187 0.3151984 -0.270473 -0.5038751 0.4261669 0.38224852 -0.506248 0.2567191 0.1910744 -0.35860306 0.3238226 -0.12248904 0.13836361 0.15602766 -0.014218324 0.20119314 0.27033454 0.39579627 0.19563994
392 -0.28463942 -0.049987625 -0.14527622 -0.11009373 -0.2831221 -0.35855022 -0.20828633 0.62457496 0.027457312 -0.31602108 0.34251696 0.27056855 -0.32396314 0.49094704 1.0144714 0.47658804 -0.3049985 0.25251418 0.011530305 -0.05101859 0.93128806 0.37462455 0.310188 -0.37639195 0.49483025 -0.21109287 -0.054769114 0.0988153 -0.12055439 0.14843714 -0.06444612 -0.5065297 0.016946496 -0.182778 -0.50251704 -0.48285392 0.20520744 0.157412 0.4404365 0.019937944 -0.11892633 0.29241392 0.062274206 -0.2876099 0.032351036 0.0899432 -0.034838013 -0.073469914 -0.011765902 0.29439366 0.66845095 -0.5339638 0.37506357 0.46330112 -1.0725781 0.38211027 0.2779196 -0.04633732 -0.49600506 0.9573327 0.36361718 0.7886911 0.29823592 -0.123723775
325 -0.22731876 -0.06696418 -0.10203013 -0.006531846 -0.28013682 -0.34962696 -0.069247715 0.59507036 -0.0181249 -0.26116824 0.28827477 0.2609493 -0.29631105 0.31605986 0.9977791 0.5542334 -0.31605974 0.39941275 -0.09475827 -0.0897219 0.89635855 0.5507113 0.36446506 -0.31115222 0.48255146 -0.28394935 -0.07966534 0.11807858 -0.13422565 0.15238553 0.03865275 -0.5739068 -0.000903581 -0.19455013 -0.38488212 -0.5648711 0.29860806 0.012234534 0.43151027 0.24036172 -0.103759795 0.28514144 -0.04209471 -0.21000932 0.08613062 0.011747987 -0.03218625 -0.089368746 0.0012965613 0.34290805 0.5924538 -0.57210916 0.3922455 0.44647148 -1.1809611 0.39449933 0.1607471 -0.017510762 -0.48701456 1.1535262 0.29452243 0.7965792 0.27767456 -0.19380848
464 0.062496185 -0.3695513 -0.049302414 0.19032942 0.15271527 0.014777742 0.045234457 0.20790866 0.072116666 -0.34921858 0.3334736 -0.05958389 0.020756677 0.3128776 0.52768856 0.17399386 -0.15770698 0.16654417 -0.5661443 0.065886214 0.06510988 0.070093594 0.36056316 0.031055216 0.113979034 0.011083181 0.15117134 -0.3672721 0.13695996 -0.46071225 -0.090293996 -0.17622414 -0.2615505 0.1815465 -0.81127757 -0.1118119 0.07873457 0.51336354 0.58353126 0.762204 0.27089486 0.1822167 -0.19630514 0.11565794 0.19324659 0.51185364 0.16373299 -0.20971777 -0.5374721 0.4671163 0.38224918 -0.54425246 0.23861799 0.16454159 -0.4231865 0.17327014 -0.18654853 0.21217835 0.2009165 -0.09272868 0.33999553 0.19550252 0.39957777 0.1990522
403 -0.03229078 -0.28148666 -0.029991068 0.026174398 0.065328084 0.015346746 -0.070154995 0.28963676 0.03379755 -0.32174668 0.2512081 -0.21292213 -0.0010337618 0.29448688 0.63166094 0.13632156 -0.21467522 0.20697731 -0.45870352 -0.0037055223 -0.07541418 0.044498168 0.21928531 0.05303738 0.016800605 -0.042755734 0.038947344 -0.41383353 0.15051381 -0.45043954 -0.056212343 -0.1679746 -0.41267794 0.1414578 -0.72034526 -0.035310842 0.1242582 0.6842252 0.52818304 0.64921683 0.4532398 0.16070744 -0.22977811 0.037550215 0.19060916 0.5426749 0.114380926 -0.15223362 -0.2687821 0.43829286 0.3862094 -0.49679258 0.14825538 0.2449166 -0.3481505 0.17606506 -0.0863623 0.055693742 0.11074422 -0.009973198 0.2019422 0.23964348 0.4700789 0.0016697735
316 -0.018708492 -0.26026177 0.094530955 -0.09197548 0.3069779 -0.15692276 0.07120964 -0.04339083 0.45649916 -0.25880116 0.09471862 -0.25697038 -0.3053863 0.20430054 0.08225325 0.14197463 0.18610258 -0.50579584 -0.077549644 0.32806236 -0.17969464 0.44070417 0.014401024 0.12464244 0.14799227 -0.023927977 -0.67277104 -0.23001187 -0.25959343 -0.012153167 0.15363999 -0.009253494 -0.09954402 -0.31510332 -0.3211142 -0.21502793 0.14751855 -0.007753359 -0.39294526 -0.2858685 -0.41846672 0.36193153 -0.00282044 0.24739987 -0.012456361 -0.28568724 -0.2673695 -0.47578758 0.12276003 0.40402836 -0.15576223 -0.27249923 0.3398364 0.25644213 -0.20207748 0.3686504 0.0448596 -0.07204675 0.23857634 -0.6199713 -0.025752803 0.10173004 -0.046681322 -0.5923464
218 -0.18128423 -0.34085667 0.1971868 -0.19648203 0.41016874 -0.10082686 -0.010061218 -0.0548763 0.42351457 -0.23604083 -0.02441132 -0.14051929 -0.25518802 0.20486525 -0.129529 0.2942835 0.027305625 -0.4528388 -0.04506413 0.26546603 -0.10546091 0.35807776 0.118303806 0.17982748 -0.07190768 -0.09299165 -0.7184728 -0.40878114 -0.2312001 -0.09051898 0.097330436 -0.03279632 0.0138209965 -0.11186643 -0.25822288 -0.3853632 0.03563121 -0.021215431 -0.44537744 -0.3620848 -0.04572167 0.35043734 -0.072623275 0.27571565 -0.22663471 -0.20593655 -0.06621352 -0.3572324 0.05868647 0.18321799 -0.20786768 -0.2956875 0.2506805 0.21909806 -0.14555524 0.32456583 0.14718892 0.05069663 0.26577017 -0.57520974 -0.079261206 0.27456152 -0.06320931 -0.45191652
255 -0.058371514 -0.31750193 0.11891264 -0.15439667 0.33972135 -0.07900958 -0.06377541 -0.06119792 0.26263595 -0.16133837 0.11303292 -0.3197885 -0.23201554 0.35744342 0.107529834 0.19358665 0.13989191 -0.4317383 -0.3864422 0.386146 -0.11458281 0.27194938 -0.02739678 0.29446688 0.06809569 -0.18338835 -0.6315754 -0.19577713 -0.32339224 -0.028791217 0.09359572 -0.060789153 0.015165864 -0.31793556 -0.25624564 -0.3532247 0.103801414 -0.102963656 -0.47098717 -0.27335048 -0.23449226 0.31415993 -0.13746718 0.23173253 -0.086660706 -0.27540657 -0.22982801 -0.50992835 0.11291036 0.3162408 -0.14031953 -0.30179414 0.23372224 0.20455384 -0.15842868 0.34432107 0.045958094 0.112269744 0.22803776 -0.51311505 -0.0011306813 0.11598999 -0.20483045 -0.5941914
250 -0.25151226 -0.42593116 0.041924004 -0.10576203 0.32291752 -0.024322774 0.022117201 -0.03803125 0.34603095 -0.26676014 0.008063138 -0.08748692 -0.29095417 0.18842103 -0.14017498 0.29306892 0.012698885 -0.46220118 0.026404947 0.3161761 -0.15681864 0.3530773 -0.019920351 0.22438523 0.08248081 -0.124659464 -0.5402989 -0.39624366 -0.18267387 -0.031304564 0.035657816 -0.020619666 -0.013093658 -0.15220357 -0.24134707 -0.44576705 -0.025567975 -0.15247002 -0.39358246 -0.35346067 -0.11703172 0.29125375 -0.10510014 0.37254664 -0.2874566 -0.21575357 -0.024837263 -0.3899379 0.094849676 0.21905 -0.2426791 -0.33596465 0.26496348 0.20859396 -0.11126649 0.3467638 0.18375479 0.13329163 0.14096962 -0.53304887 -0.013362426 0.15292363 -0.0744304 -0.5451887
365 -0.08779331 -0.79229826 0.34447563 0.020947257 -0.16791832 -0.2974664 0.12819768 -0.07162534 0.27030805 0.25537685 -0.01840916 -0.3576425 -0.40167284 -0.2281656 -0.10888305 0.2885212 -0.2671918 0.12560137 -0.20649926 -0.3302093 0.3055998 -0.41251123 0.39993533 0.2488095 -0.21964687 -0.6382625 -0.040867224 -0.0697229 -0.92818433 0.26498404 0.616506 -0.3626664 0.19605051 -0.11754817 -0.0125471465 -0.46807393 0.020135958 0.4234791 -0.051132467 0.6355987 -0.96423906 0.07876442 0.100048155 0.08207659 -0.57817054 0.672823 -0.6926037 -0.67303365 0.54622924 0.7171059 -0.7557186 -0.006660376 0.4587098 0.30107966 -0.5793615 0.03749579 0.21539986 0.053775486 -0.107784204 -0.30900294 0.33154476 0.07358869 0.12183531 -0.7655233
272 -0.11664491 -0.30238605 0.13767369 -0.050048575 0.26131898 -0.050944544 -0.019508542 -0.12491498 0.2546434 -0.32860884 0.106488824 -0.26949516 -0.36634412 0.2636016 0.104127854 0.17154123 0.21703649 -0.53847003 -0.23979568 0.41111994 -0.1454757 0.24099237 -0.04931078 0.16121773 0.13358094 -0.07329489 -0.59414417 -0.24680272 -0.4027895 -0.0122010745 0.07051459 -0.036477543 -0.05011698 -0.27646765 -0.29842308 -0.36142132 0.10119393 -0.009636835 -0.4438058 -0.20817383 -0.2533096 0.3729388 -0.019793145 0.19905096 0.009761707 -0.28168 -0.08674406 -0.43553805 0.099964544 0.28722933 -0.22177154 -0.18109187 0.31574544 0.26977557 -0.17967273 0.33392963 0.12142595 0.058219742 0.18519461 -0.5297505 -0.1116843 0.16699998 -0.21116161 -0.655623
489 -0.11576502 -0.47538257 0.1440617 -0.088326484 0.37647954 -0.042153202 -0.014428655 -0.12127564 0.2416523 -0.2151576 0.10909591 -0.23664165 -0.27920082 0.19408314 0.016880143 0.09520253 0.10753691 -0.3842546 -0.18477009 0.25535515 -0.09320472 0.30761203 -0.02794728 0.17174022 0.025676034 -0.072253145 -0.63922334 -0.24920784 -0.32440895 0.049220666 0.07217659 -0.038946107 0.0044373265 -0.31274268 -0.27858207 -0.38439837 0.21470688 0.026058897 -0.56329036 -0.27901143 -0.22667956 0.3265681 -0.058785297 0.28962216 0.12720609 -0.3709333 -0.19564253 -0.48747274 -0.050375223 0.34434682 -0.22184367 -0.2869208 0.363461 0.17754368 -0.2617432 0.3041203 0.08560439 0.15171064 0.21682455 -0.5334505 -0.053039648 0.114076294 -0.28422847 -0.6327227
387 -0.052271884 -0.2479503 0.12992617 -0.20882511 0.31643897 -0.07189861 0.009380676 0.008933198 0.42803082 -0.25838715 0.15654956 -0.25869802 -0.24110861 0.15972158 0.12570958 0.11395022 0.26002303 -0.5166545 -0.16608942 0.3659493 -0.19510564 0.27000067 -0.038457926 0.13050815 0.17858252 -0.025289284 -0.6346212 -0.2789004 -0.35736588 0.051561784 0.06596696 0.025324125 -0.08317418 -0.31137958 -0.31428108 -0.32590178 0.21360533 -0.018534489 -0.4345517 -0.26492238 -0.31544578 0.23356451 -0.17967165 0.23457809 -0.08853825 -0.26894963 -0.18065958 -0.42203578 0.11180662 0.3683492 -0.24126019 -0.25178793 0.35869214 0.2076077 -0.17232402 0.29221317 0.13938855 0.12341234 0.28010705 -0.5971278 -0.050164506 0.09737885 -0.15987319 -0.5820785
162 -0.20361526 -0.33405477 0.113217026 -0.20240031 0.37023205 -0.15046449 -0.047760107 -0.03603598 0.37637153 -0.1667597 0.12219382 -0.13813297 -0.26255628 0.16859186 -0.12810297 0.27135396 -0.011494416 -0.50142366 0.009707566 0.33543432 -0.08799802 0.25395858 0.021372994 0.12694469 0.06309128 -0.14701326 -0.53032017 -0.37855336 -0.24840912 -0.13000022 0.07148324 -0.006564943 -0.085917786 -0.070169695 -0.27910632 -0.35009918 -0.060094967 -0.016043825 -0.429916 -0.3652929 -0.029756961 0.3613463 -0.104364075 0.1545263 -0.25835547 -0.1730688 -0.04688901 -0.40119612 0.12272043 0.19856624 -0.24746539 -0.29509377 0.29665712 0.17985211 -0.11817808 0.28067607 0.083239615 0.122475766 0.28222457 -0.535661 -0.13131158 0.2127974 0.10187964 -0.5440883
254 -0.111581594 -0.3825147 0.10713129 -0.15650548 0.28149238 -0.067639016 0.016636048 0.0071927966 0.31094196 -0.2896247 0.16331579 -0.24031167 -0.33337116 0.15246612 0.050613217 0.18064055 0.11816585 -0.4852985 -0.2094589 0.38846582 -0.23654692 0.25047007 -0.08511843 0.2318687 0.14554533 -0.074026845 -0.5912943 -0.16900168 -0.33785546 0.03851036 0.05809242 0.02348053 -0.05803631 -0.24831606 -0.3065447 -0.30597386 0.10453216 0.008554081 -0.47832823 -0.28141883 -0.36592695 0.331273 -0.18945386 0.21293604 -0.026007267 -0.23596503 -0.20782226 -0.43092245 0.007521767 0.3351761 -0.20625168 -0.26897806 0.33417383 0.27567697 -0.16548517 0.32648966 0.036848705 0.099654466 0.23551446 -0.49747217 -0.073766015 0.18958792 -0.15922622 -0.6768
201 -0.23411587 -0.4815904 0.06302889 -0.12785746 0.311807 -0.030038396 0.03499972 -0.09175813 0.41818333 -0.31324774 -0.014470273 -0.14310016 -0.30194536 0.2270341 -0.111044966 0.25630417 -0.036498006 -0.44742107 0.00075249415 0.31631404 -0.12916824 0.25339732 0.0066230027 0.17596124 0.06287466 -0.10017597 -0.52019435 -0.35102546 -0.33380282 -0.047418997 0.016774122 -0.050172724 -0.01991156 -0.14547056 -0.22579753 -0.4117943 -0.012056828 -0.049173534 -0.49662098 -0.34377372 -0.070437945 0.34496224 -0.14428744 0.24031675 -0.13449751 -0.2979469 -0.062196754 -0.39667645 0.05530037 0.26505953 -0.2824946 -0.32108492 0.32529688 0.23412097 -0.124256454 0.4169949 0.20783857 0.15918802 0.080682196 -0.58306855 0.017217623 0.21848494 -0.14434384 -0.5653977
458 -0.3328316 -0.51181215 0.04947623 -0.1433858 0.29605225 -0.14806338 -0.030676138 -0.19494307 0.40858725 -0.03610347 0.03377908 -0.22440287 -0.29733342 0.4495717 -0.003145731 0.37195 0.18809475 -0.4823397 -0.27171803 0.18975411 -0.07786893 0.13162592 -0.027630124 0.11735345 0.19386795 -0.12966673 -0.41233784 -0.07946251 -0.34848678 -0.23934579 0.15445945 0.010660155 -0.051923804 -0.52739316 -0.068768784 -0.4794838 0.12231869 -0.0675164 -0.4545807 -0.1114334 -0.30798352 0.28476763 -0.029524382 0.1994407 0.10103518 -0.3811122 -0.2354691 -0.37376243 0.053323716 0.4201395 -0.09986309 -0.39394653 0.23641141 0.12580866 -0.28750253 0.21187852 0.20714647 0.092675224 0.4396931 -0.4119379 -0.15109335 0.075426444 -0.099640794 -0.48982567
468 -0.25768188 -0.5258696 -0.0009713929 -0.050357107 0.21712552 -0.017832456 -0.016919702 -0.116873495 0.32549828 -0.16445374 0.0844055 -0.23260646 -0.2522631 0.2932321 0.053438503 0.30789256 0.10506342 -0.4556338 -0.24175374 0.28662583 -0.11003642 0.03726596 -0.023537487 0.20324552 0.24493407 -0.12541258 -0.46055925 -0.10443036 -0.40544865 -0.06883433 0.1609419 -0.013547427 -0.04080252 -0.48457494 -0.031908613 -0.45504966 0.08133796 -0.18545441 -0.47834286 -0.015089361 -0.33758867 0.293388 -0.15187262 0.26269266 0.025600072 -0.44554967 -0.17465736 -0.3031837 -0.03851613 0.37074146 -0.09927935 -0.36818418 0.3061074 -0.013026915 -0.34078002 0.18942426 0.22830908 0.10659017 0.49151495 -0.2783063 -0.05534454 -0.016836617 -0.16782477 -0.55281806
276 -0.15142404 -0.30791506 0.20343368 -0.14470331 0.32078987 -0.1008891 -0.037166536 -0.027815023 0.27461725 -0.31595358 0.08981992 -0.27156982 -0.29466596 0.27120346 0.07765893 0.17246547 0.13088658 -0.5054465 -0.24604419 0.3292926 -0.19250596 0.39697766 -0.014536787 0.16841398 0.10843877 -0.07783294 -0.5664574 -0.22412093 -0.36653933 0.07357767 0.14941968 -0.07890166 -0.015379255 -0.2832484 -0.25499076 -0.3599525 0.113612846 -0.11936845 -0.5267899 -0.18865691 -0.35992983 0.33971757 -0.18784364 0.25466308 0.0033248693 -0.21500954 -0.20050716 -0.35318726 0.13527498 0.35626692 -0.12147269 -0.27287093 0.22072491 0.17949195 -0.3145423 0.27216458 0.059212204 0.080087796 0.27473402 -0.62638766 -0.0037554705 0.12145961 -0.14841835 -0.5655294
472 -0.2540086 -0.4692422 0.021415262 -0.066180505 0.20654829 -0.040917464 -0.023706764 -0.118728526 0.36961323 -0.13131338 0.08286752 -0.17361337 -0.38527232 0.2928276 0.050558686 0.3148057 0.14729735 -0.4903694 -0.2113427 0.31533197 -0.08484817 0.044899326 -0.116725184 0.2006248 0.26519862 -0.10099539 -0.49817237 -0.21441822 -0.3198973 -0.12771545 0.10665421 0.0020163427 -0.035729516 -0.5622024 -0.108922325 -0.2998832 0.11527315 -0.11694097 -0.4286488 -0.09208951 -0.38334033 0.2804122 -0.061780203 0.2785332 0.07027157 -0.36175144 -0.29890352 -0.3502921 0.13065872 0.39004025 -0.12267574 -0.43251258 0.23204145 0.19189218 -0.30566671 0.11771673 0.17922728 0.021223245 0.5365994 -0.41447335 -0.013390676 -0.0060699806 -0.14300062 -0.5519513
373 -0.14940104 -0.6570331 0.33344033 -0.07769387 -0.0891463 -0.2710924 0.09413869 -0.08688951 0.21864012 0.21539731 0.0291279 -0.34766474 -0.40519443 -0.1512804 -0.097432226 0.302442 -0.2599361 0.03335258 -0.251592 -0.27453578 0.37941578 -0.35484022 0.34149697 0.16510265 -0.32331195 -0.5957185 -0.14940794 -0.054153807 -0.95763683 0.276784 0.55928177 -0.36233896 0.14656806 -0.23199965 -0.0026328298 -0.45580214 -0.1330354 0.44759747 -0.25612044 0.6568934 -0.7083924 0.2202933 0.13765438 0.019939557 -0.48683804 0.649235 -0.64740324 -0.58683014 0.5901948 0.79034036 -0.6949553 -0.025830785 0.27505 0.30367073 -0.6212801 -0.018312212 0.29715624 0.09380251 0.024454636 -0.37932286 0.5230433 -0.029903362 0.25275227 -0.64078003
460 -0.20586714 -0.73115224 0.2874753 -0.01759701 -0.15542512 -0.26843622 0.16747522 -0.14914833 0.260743 0.16522 0.0099917 -0.3507207 -0.35267404 -0.031041482 -0.06891139 0.20663917 -0.19468954 0.05183364 -0.11538792 -0.16609272 0.34810543 -0.24082808 0.4291372 0.22399764 -0.2441306 -0.51330084 -0.09219235 -0.024218524 -0.9075756 0.3401941 0.6036981 -0.49656895 0.17201039 -0.083160646 0.08186368 -0.48671603 0.043191485 0.35088953 -0.21501842 0.71938723 -0.8654313 0.15015149 0.14905399 0.04564366 -0.5911933 0.6430822 -0.74109036 -0.61377716 0.6266995 0.8123851 -0.6135735 -0.016266888 0.30825907 0.23200524 -0.5806655 -0.06617663 0.2574617 0.13979101 -0.048818883 -0.29283604 0.4907515 0.021960774 0.1994453 -0.64966303
240 -0.2241848 -0.4399112 0.12191685 -0.17055659 0.40889496 0.04841073 0.14571805 -0.08017919 0.3705395 -0.23197792 0.085339636 -0.19976407 -0.2549567 0.1449295 -0.16597216 0.2179073 -0.011271351 -0.4653545 0.026170105 0.3076993 -0.061445985 0.24026786 0.030805495 0.1269981 0.028692342 -0.17042743 -0.48958287 -0.3547322 -0.3642939 -0.19043507 0.032513145 -0.02210319 -0.049466275 -0.182328 -0.1966665 -0.4304153 0.061039865 -0.03352421 -0.48659778 -0.3301502 -0.095944464 0.39833763 -0.0702507 0.35715434 -0.08612107 -0.35721052 -0.082439095 -0.3683033 0.007623011 0.20974341 -0.23020582 -0.2817878 0.41683167 0.115712225 -0.24284363 0.30115342 0.10016121 0.062279325 0.15130933 -0.60027313 -0.010731709 0.27239347 -0.055806372 -0.47674224
462 -0.07308414 -0.7036504 0.2554328 0.024008265 -0.21410345 -0.22839482 0.27273393 -0.074128196 0.34698942 0.20094968 0.015912643 -0.39448082 -0.49094173 -0.17596965 -0.11849476 0.27909818 -0.07601737 0.06374911 -0.26885995 -0.27553272 0.4026936 -0.2078361 0.35677126 0.32710117 -0.20430784 -0.49042293 -0.10313085 -0.07840378 -0.96011245 0.3194393 0.6700054 -0.35659015 0.23862344 -0.18678951 0.07525684 -0.3589799 -0.102831714 0.5213576 -0.13351971 0.61115897 -0.86233336 0.09746111 0.22173457 0.09241756 -0.43516877 0.5619865 -0.6896398 -0.6671109 0.5716867 0.8120074 -0.7667937 0.036837887 0.3246021 0.20552976 -0.7020684 -0.032733545 0.26145768 0.08087131 -0.14112204 -0.46006113 0.47252646 -0.075525336 0.12283968 -0.50715154
480 -0.1296555 -0.77908474 0.28311187 0.05267327 -0.15669198 -0.21178637 0.077561274 -0.10445299 0.25842384 0.19755259 0.0018013235 -0.32231784 -0.37192065 0.0075188265 -0.074917965 0.19151446 -0.1934922 0.15621205 -0.16907012 -0.30247766 0.27185047 -0.33752713 0.29708207 0.13720481 -0.2812639 -0.5780114 -0.07178681 0.10416857 -1.0113075 0.36919206 0.69844806 -0.40639526 0.2317455 -0.21206044 0.023212168 -0.593746 0.035265714 0.45575052 -0.2144945 0.71084243 -0.7130041 0.13331088 0.04521224 0.07772265 -0.7111781 0.75161135 -0.6893045 -0.5964393 0.550752 0.6863326 -0.72442114 -0.044127885 0.3738446 0.18156925 -0.6470162 -0.07503253 0.26175165 0.04980431 -0.12632358 -0.3297481 0.51544464 -0.09200047 0.17507342 -0.79115707
399 -0.2470701 -0.5237367 0.06876747 -0.01727377 0.19448763 -0.05467316 -0.09170182 -0.13402641 0.4394378 -0.16936369 0.03775059 -0.117492594 -0.40381575 0.33078736 0.0435394 0.30451122 0.26583728 -0.38167694 -0.2873858 0.38269958 -0.13465582 0.03485014 -0.028053226 0.18195775 0.23928943 -0.08472089 -0.5711945 -0.07453685 -0.32042593 -0.14409994 0.19734967 0.03444724 -0.034279875 -0.45238316 -0.017696818 -0.457912 0.15275387 -0.10864928 -0.551026 -0.088711254 -0.33638555 0.27546945 -0.14215805 0.18631175 0.07372847 -0.38643408 -0.093574695 -0.35730225 0.047737654 0.40949732 -0.13161375 -0.4025178 0.32878482 0.14335735 -0.35073647 0.20927976 0.1784421 0.10854022 0.4457295 -0.42472798 0.0003261794 0.051793765 -0.25016654 -0.5187103
271 -0.22718032 -0.4562074 0.036639173 0.24946973 -0.14614205 -0.020173235 0.043487787 0.27141237 0.09841815 -0.2623521 0.28535065 -0.30447823 0.09260181 0.47088626 0.5529446 -0.045916863 -0.32772565 0.08963607 -0.5114386 -0.0066848025 -0.013740495 0.22368109 0.3009323 0.19867268 0.057812657 0.09587317 0.3163067 -0.22824134 0.30842683 -0.43797103 -0.14363357 -0.08645691 -0.093463756 0.26759678 -0.8993238 0.12029694 0.37092888 0.8286557 0.4741985 0.73014975 0.3218074 0.0262774 -0.23837987 0.07712021 0.03937376 0.22016253 -0.19842039 -0.22804874 -0.248744 0.2514091 0.13504602 -0.42165658 0.2760442 -0.03543504 -0.53031486 0.31563675 0.16309834 0.0806576 0.0196539 0.043873653 0.08259502 0.2946799 0.20170917 0.10895071
457 -0.20936334 -0.5908873 0.028617386 -0.1360038 0.1911522 -0.0131560955 -0.06959338 -0.111172624 0.2729358 0.0047735125 0.07292952 -0.16907445 -0.30323794 0.30770826 0.029044256 0.28858578 0.24432491 -0.44694954 -0.20887366 0.42059872 -0.20154402 0.037479475 -0.049557675 0.24218538 0.19538336 -0.13817164 -0.4907458 -0.09534496 -0.26333568 -0.06646753 0.30169165 -0.043920986 -0.08325013 -0.46914202 -0.18561774 -0.44671512 0.10018443 -0.1572985 -0.39422753 -0.10910592 -0.44500005 0.2411589 -0.04900321 0.22339715 0.15705141 -0.3755915 -0.18837105 -0.3770663 0.06974123 0.37154475 -0.076373994 -0.37507734 0.3329622 0.05510776 -0.36518648 0.13419497 0.13497256 0.08349829 0.47342578 -0.41995072 -0.04995804 0.10306438 -0.16150624 -0.52115613
470 -0.3251161 -0.50676537 0.09594648 -0.09569432 0.2764892 -0.1073466 -0.062211853 -0.24230239 0.34999678 -0.0666393 -0.011400815 -0.08907245 -0.34383896 0.3519109 0.0683507 0.2950743 0.2649276 -0.38060176 -0.25685567 0.24611208 -0.12965614 0.067183666 0.041347425 0.14598568 0.22503646 -0.03060817 -0.45542282 -0.10002888 -0.3444667 -0.21361406 0.16349547 -0.0023866934 -0.008090777 -0.4638372 -0.1403212 -0.43693072 0.1970067 -0.17854613 -0.49149302 -0.025808452 -0.35996222 0.29105285 -0.10354924 0.25265315 0.072541155 -0.38923296 -0.24613939 -0.30141717 0.0053621572 0.38698626 -0.09840479 -0.45398882 0.27173126 0.106747255 -0.2686226 0.2920204 0.117297776 0.07193165 0.50436825 -0.43131495 -0.052371502 -0.07810873 -0.1731499 -0.45487383
236 -0.13737458 -0.7156623 0.41184556 0.030639876 -0.1806211 -0.2946848 0.14157951 -0.1257125 0.3326632 0.260423 -0.026002465 -0.2751439 -0.31735447 -0.03542924 0.032937177 0.210772 -0.11786192 0.1324857 -0.17867349 -0.31228048 0.35807428 -0.2617441 0.3473563 0.24742699 -0.30523264 -0.58495206 -0.12522483 -0.06935598 -0.9187723 0.32240123 0.7959051 -0.5392369 0.24112801 -0.27695107 0.09031038 -0.48858047 0.092166394 0.46264428 -0.12463141 0.6885899 -0.84513307 0.14841719 0.08316821 0.037176255 -0.48221183 0.57125926 -0.71127594 -0.64391106 0.6114337 0.76062703 -0.71189797 -0.117527425 0.36228612 0.2685485 -0.4479524 -0.06263231 0.19908448 0.21636027 -0.078070596 -0.42148715 0.4737705 -0.037693445 0.12876576 -0.51783687
426 -0.25032195 -0.45483342 -0.13157316 0.35732904 -0.23848575 0.012769569 0.086091995 0.19098303 0.14205833 -0.38535246 0.23924834 -0.2667176 -0.06786165 0.42969906 0.6820529 0.028775597 -0.43000603 0.02712776 -0.55889964 0.06903931 -0.21581309 0.07304976 0.34290263 0.25953752 0.10280034 0.07564451 0.20567912 -0.2576897 0.3748973 -0.45441425 -0.08782369 -0.071425214 -0.19616835 0.31612524 -0.7972328 0.060762335 0.19447543 0.7696892 0.457993 0.701448 0.24043614 0.2208556 -0.31083086 0.027187506 -0.0028952376 0.30893227 -0.10235702 -0.13684563 -0.37504864 0.17766172 0.18170343 -0.4247644 0.23108315 0.025867978 -0.5869246 0.29759142 0.20319894 0.088029705 0.05186852 0.13294782 0.063762486 0.12533191 0.15640809 0.096781045
319 -0.23231696 -0.36786234 -0.021376291 -0.17220046 0.19443215 -0.1742749 -0.09219914 -0.17391406 0.30889753 -0.07943769 -0.09756222 -0.21820925 -0.29812506 0.37428552 0.014109955 0.32285085 0.17474577 -0.47019777 -0.27207974 0.28048146 -0.1341886 0.0785939 0.027388917 0.114455305 0.20055267 -0.22179477 -0.46489277 -0.1411716 -0.30665684 -0.16621245 0.19064352 0.0026383891 -0.09518173 -0.41442415 -0.17395179 -0.42520583 0.16744748 -0.088950194 -0.51689965 -0.09554699 -0.2577993 0.18562025 -0.024921222 0.21501832 0.09965473 -0.38374263 -0.25327381 -0.45201796 0.079515874 0.42644393 -0.18058549 -0.38626176 0.21511477 0.13037919 -0.26638454 0.17636295 0.080704674 0.23377909 0.56294036 -0.39281422 -0.036860414 0.08547292 -0.16819434 -0.44053915
292 -0.20583387 -0.6585594 0.3557192 -0.085119784 -0.097359 -0.3764346 0.16313006 -0.054363713 0.37089446 0.26218694 0.024676282 -0.32541263 -0.36841923 -0.0386909 -0.15124568 0.31988564 -0.2513152 -0.017921373 -0.08800826 -0.31495017 0.32012108 -0.32016638 0.26608428 0.24609342 -0.22852488 -0.62313914 -0.036242515 0.069303475 -0.9709358 0.20812348 0.6303349 -0.38795498 0.15544601 -0.16669275 0.11922926 -0.44191748 0.092407696 0.33315262 -0.00035993624 0.7683255 -0.6648516 0.056456205 0.11094137 -0.008336021 -0.51145047 0.5963047 -0.64806277 -0.66210073 0.4796898 0.9361652 -0.64271146 -0.03101557 0.3507582 0.21014625 -0.5338236 0.05965769 0.27226767 0.023217794 -0.05118114 -0.38433272 0.4909688 -0.038092 0.05576567 -0.6613533
416 0.010202388 -0.20427251 -0.014708541 0.093271375 0.0725929 -0.020106353 -0.097942516 0.3381318 0.115458906 -0.34282607 0.24856336 -0.20054242 0.057855017 0.22761875 0.56713116 0.12835392 -0.111815974 -0.023236215 -0.31899428 0.06909195 0.07974515 0.038629882 0.18652706 0.072290085 0.06254911 -0.054769736 0.1732116 -0.46692082 0.16381904 -0.50048375 -0.08641513 -0.2029324 -0.42776442 0.083279036 -0.74914354 -0.020051984 0.04595983 0.7043126 0.53989893 0.53823125 0.48895314 0.05677011 -0.17975777 0.09787356 0.18538725 0.5064385 0.2418186 -0.3232538 -0.31225795 0.4628108 0.3151503 -0.41372746 0.06789797 0.18598306 -0.2376617 0.16577466 -0.021078406 0.03897084 0.19669071 0.055029612 0.14150439 0.33106476 0.2775927 -0.061031613
474 -0.12664317 -0.3456937 0.029583182 -0.21108688 0.3807575 -0.042174723 0.15548058 -0.12070605 0.24182726 -0.24818295 0.07508853 -0.13481312 -0.25611615 0.24814422 0.14211987 0.31239048 0.13746952 -0.5311556 -0.20760414 0.33617067 -0.13631546 0.18642974 -0.09463677 0.24059592 0.08959604 0.0038250107 -0.58224976 -0.27217525 -0.30652422 -0.022928294 0.14215958 0.018400578 -0.028937005 -0.44193622 -0.11319368 -0.4808316 0.23105665 -0.116434984 -0.374335 -0.11244787 -0.32878053 0.22694291 -0.11980411 0.076581195 -0.0012664732 -0.25956964 -0.20693797 -0.2842434 -0.036385413 0.35383773 -0.24293281 -0.3666034 0.14812542 0.17300294 -0.2697744 0.3390422 0.100888506 0.024550194 0.46341637 -0.3980211 0.019974161 0.06348559 -0.18380435 -0.66014135
315 -0.09379848 -0.4135337 0.12976532 -0.14111635 0.15268965 -0.16930027 0.04222914 -0.0902477 0.32157132 -0.11709029 0.06389438 -0.13822766 -0.31208748 0.2535799 0.01570827 0.2769403 0.23758969 -0.4528442 -0.23959184 0.46182847 -0.16279663 0.09168272 0.048285913 0.27108178 0.081747055 -0.02871656 -0.5421385 -0.1488081 -0.18695389 -0.0020246815 0.088349365 -0.00056216895 -0.04231053 -0.45637923 -0.21720695 -0.41306573 0.15279402 -0.057697862 -0.40297636 -0.25025526 -0.35380742 0.2548338 -0.1045443 0.15102634 -0.00064390386 -0.17285253 -0.15217306 -0.3718894 0.10935058 0.29966027 -0.20210998 -0.43811375 0.2931848 0.16081612 -0.3227526 0.494369 0.2135353 0.19221824 0.4829995 -0.5338119 0.007834213 0.054791555 -0.26356602 -0.63078517
485 -0.10013623 -0.3937498 0.08177697 0.002822432 0.2728072 -0.14202893 0.10007712 -0.042503092 0.23168017 -0.0750539 -0.034914713 -0.20413084 -0.39565772 0.29775947 0.082355715 0.26173326 0.24231648 -0.6467853 -0.10159446 0.2849871 -0.06329117 0.16790345 -0.06451461 0.2563925 0.19084044 -0.10243339 -0.3833089 -0.22273092 -0.19439863 -0.0748526 0.13614835 -0.13411029 -0.07271762 -0.4412904 -0.24003868 -0.3785985 0.06397881 -0.07283555 -0.43818176 -0.16308473 -0.34144682 0.36039385 0.036965996 0.23844668 0.0055651786 -0.22261299 -0.17485945 -0.33507052 0.0069489153 0.3333829 -0.24134806 -0.39944184 0.15655665 0.14119244 -0.30588678 0.27575225 0.27885714 0.03661268 0.47419778 -0.44461358 -0.09938076 -0.014960447 -0.22942273 -0.60175866
406 -0.32482782 -0.37984782 -0.14141667 0.23682785 -0.11110534 -0.15726788 0.10025249 0.21381259 0.17452513 -0.44438803 0.1879065 -0.36948204 -0.032618485 0.38757914 0.65256417 -0.021036986 -0.39555204 0.01675798 -0.4379673 -0.1341195 -0.06452653 0.14994118 0.39511093 0.1906344 0.17716227 0.07673335 0.17379758 -0.27853912 0.24232984 -0.51912236 -0.06785548 -0.08409493 -0.23319805 0.249589 -0.8922999 0.16170293 0.18510424 0.7472919 0.43505794 0.8718559 0.4045872 0.22019619 -0.32892957 0.17156944 0.08091911 0.35170263 -0.06425528 -0.13812295 -0.36538878 0.3207074 0.15344864 -0.29795128 0.15992351 0.09647358 -0.5219073 0.46073866 0.19688082 0.11343913 -0.026350847 0.18510476 -0.10369855 0.21505532 0.17829183 0.0061071552
476 -0.12031246 -0.43590283 -0.008200647 -0.1112541 0.32511258 -0.11965411 0.15103042 -0.106181696 0.29772565 -0.2299551 -0.02217539 -0.18358445 -0.18368584 0.41384226 0.09215572 0.2063558 0.24693643 -0.6485951 -0.123517744 0.4143295 -0.13740739 0.040790636 0.020478416 0.31524512 0.09004526 -0.15249261 -0.37598228 -0.14863567 -0.20615132 -0.03292959 0.23227842 -0.14240283 -0.08023165 -0.41660857 -0.20539318 -0.36295387 0.16495652 -0.1717728 -0.41043702 -0.10301472 -0.40434465 0.30717325 -0.019541526 0.1836086 -0.0058214776 -0.3162848 -0.07825324 -0.36860463 0.008596611 0.38471162 -0.11152381 -0.3006312 0.14595567 0.026151972 -0.30943796 0.37057224 0.3220657 0.10080265 0.38620603 -0.47829172 0.033314116 0.06059366 -0.21794899 -0.62621254
469 -0.14796013 -0.38570762 0.068189055 0.030569702 0.2472148 -0.07500505 0.09766566 -0.06383764 0.30637833 -0.08665456 0.015091839 -0.16079076 -0.38752463 0.17863974 0.107234515 0.18237954 0.26068002 -0.49892393 -0.22027817 0.35253197 -0.13085625 0.1365692 -0.008505495 0.24792524 0.09802935 -0.02555453 -0.5013932 -0.26106128 -0.2516675 -0.017518 0.23568545 -0.066964895 -0.04531082 -0.44948614 -0.097742744 -0.39693895 0.062438823 0.0049416907 -0.39610505 -0.16549146 -0.36175457 0.35080972 -0.08208763 0.15727182 0.09055849 -0.24695837 -0.038938906 -0.27230412 0.057656433 0.47900674 -0.20581183 -0.46340644 0.22673634 0.15298785 -0.35071322 0.37043092 0.21298654 0.046251062 0.4113299 -0.54611397 -0.09286008 0.12970296 -0.27261585 -0.6243561
452 -0.2064644 -0.71161216 0.25174782 -0.046536837 -0.20633139 -0.27488443 0.15639327 -0.13120475 0.355861 0.34150597 0.00036275137 -0.3453814 -0.37428725 -0.07112357 -0.061958402 0.2826934 -0.17812823 -0.061548613 -0.18663841 -0.29897943 0.42671463 -0.3647822 0.3584373 0.24477473 -0.33365682 -0.66179824 -0.08936503 -0.1608357 -0.95706934 0.23831907 0.54638547 -0.4427197 0.12955153 -0.22734307 0.047995012 -0.3627756 -0.06283554 0.3999437 -0.17167991 0.6444959 -0.77088237 0.22770515 0.20452444 0.103025325 -0.5199888 0.6094714 -0.7376663 -0.6052133 0.62053823 0.7693607 -0.6369109 0.025873033 0.23657835 0.26303184 -0.49692783 0.0024093294 0.27267545 0.060751077 -0.09282435 -0.34111398 0.4111792 -0.0018071304 0.2132048 -0.73888606
154 -0.077870086 -0.40597966 0.07811039 -0.21832086 0.43662643 0.117241666 0.21004793 -0.016593795 0.32004374 -0.2789235 -0.14503975 -0.32609326 -0.5831183 0.22732773 -0.09978448 0.45740184 0.032628924 -0.46118924 -0.022281397 0.3133448 -0.3314943 0.363854 0.033653826 -0.011739521 0.076397344 -0.06832303 -0.28643754 -0.32552105 -0.30049676 -0.15571967 0.023164256 0.0064020664 -0.16275309 -0.16535822 -0.09656095 -0.39974093 -0.1773367 -0.14864802 -0.3083236 -0.40873957 -0.1194261 0.23092705 -0.21662438 0.34233436 -0.1335029 -0.16037764 0.0035271556 -0.37534627 0.1313013 0.082738325 -0.11575241 -0.05170811 0.35760584 0.35689095 -0.22971384 0.49181378 0.08879672 0.15294573 -0.14098723 -0.5749961 0.10861324 0.46184847 -0.15935823 -0.4363704
304 -0.10663326 -0.7257364 0.30558404 -0.010764468 -0.20640719 -0.15698926 0.17097612 -0.081536144 0.24606404 0.16026235 -0.10208198 -0.34711036 -0.37231922 -0.025153276 0.05011365 0.2277364 -0.10421093 -0.0023597705 -0.1396309 -0.22375897 0.38186362 -0.38594002 0.32676527 0.33693403 -0.2998215 -0.5471717 -0.15880236 0.019821879 -1.1032124 0.3776248 0.61920124 -0.45136815 0.1880352 -0.1809581 0.07014265 -0.4255594 0.083113566 0.40848827 -0.24371533 0.62807083 -0.69872254 0.08662585 0.15511231 -0.029839655 -0.5403449 0.65206605 -0.73878986 -0.6450602 0.5488776 0.7818736 -0.62823683 -0.05318513 0.3113665 0.28923637 -0.5116601 0.0232625 0.29564402 0.21120986 -0.013379081 -0.3748355 0.5087015 -0.044408545 0.24192731 -0.78254694
477 -0.099845774 -0.35315782 0.11122721 -0.08934506 0.40237808 -0.16350655 0.11606485 -0.038250558 0.20642215 -0.11496045 -0.028328149 -0.18156336 -0.3611081 0.29843393 0.107159354 0.23575516 0.1860643 -0.549441 -0.1519457 0.39554685 -0.13406691 0.1713391 -0.09723905 0.2410777 0.1387795 -0.14431927 -0.5315754 -0.21488637 -0.25847158 -0.08579514 0.23378682 -0.05846664 -0.09323386 -0.42485508 -0.11143548 -0.48648793 0.19276258 -0.075565554 -0.39782727 -0.13989638 -0.30999854 0.25564224 -0.2262033 0.09883686 0.10695612 -0.27211478 -0.12358114 -0.34340745 0.038777675 0.34076592 -0.2156595 -0.37688804 0.15164585 0.086005405 -0.25186414 0.2622289 0.040862508 0.15526216 0.50027335 -0.4899908 -0.07736959 0.2046207 -0.17467289 -0.67302907
262 -0.27694908 -0.37137523 -0.23417185 0.2448833 -0.10359048 -0.12202284 0.068217576 0.2212255 0.24119788 -0.16315055 0.21216044 -0.25729716 -0.010464174 0.37825468 0.65452236 -0.012233001 -0.32713225 -0.07305041 -0.48744622 -0.12654628 -0.0058512534 0.104654595 0.4392552 0.3302563 0.19305062 -0.00062194257 0.19760476 -0.36881283 0.5075877 -0.47940332 -0.014323996 -0.18211672 -0.018518584 0.4530873 -0.92430264 0.09631148 0.20847698 0.7609323 0.44062042 0.73408365 0.42412782 0.10319745 -0.33981815 0.10190088 0.00072857784 0.20628893 -0.17356412 -0.020717576 -0.15561555 0.2261111 0.059485022 -0.39261588 0.17204635 -0.032900643 -0.5600531 0.26938137 0.22786108 0.16132724 0.018355768 0.10022495 0.048572216 0.16234937 0.22230819 0.10030704
429 0.012366831 -0.31727397 0.03877153 0.20448796 -0.02596101 0.06630461 -0.0455826 0.2876591 0.1365194 -0.2338496 0.2029036 -0.22899956 0.028582951 0.24230275 0.65888035 0.09708942 -0.20076081 0.16747017 -0.39390472 -0.002287331 -0.0184972 -0.018328708 0.2742462 0.037145115 0.19911751 -0.03760497 0.085756555 -0.40264115 0.12511823 -0.43653494 -0.09161706 -0.31837845 -0.343391 0.18345332 -0.8487701 -0.04110162 0.12190328 0.61703783 0.5230834 0.60628295 0.37192014 0.28610623 -0.24282493 0.11624182 0.36743724 0.5060548 0.25682536 -0.35974213 -0.2777324 0.5296647 0.2989501 -0.37922332 0.071680985 0.15090473 -0.33526713 0.16835098 -0.22794603 0.18993622 0.18391152 0.03838819 0.21966763 0.3662892 0.34847268 0.10664846
323 -0.33419186 -0.40728396 -0.19315383 0.16327317 -0.044530302 -0.20941466 0.03323313 0.20033385 0.28044036 -0.35313487 0.33263007 -0.3679299 0.058921542 0.39654797 0.50703055 0.0075865807 -0.24513748 -0.13139115 -0.5920311 -0.17951766 0.02183809 0.13618271 0.43821892 0.346484 0.00448126 -0.015677912 0.09309745 -0.27374262 0.4592594 -0.56152993 0.0136133265 -0.23753704 -0.019785773 0.4090648 -0.62687707 0.18383206 0.24386184 0.8399489 0.48026085 0.73441887 0.4267942 0.16259266 -0.43993014 0.13743454 0.19380064 0.24558173 -0.051463924 -0.033295855 -0.10339927 0.25549978 0.077739224 -0.45445174 0.19021368 0.13739656 -0.5444867 0.40301323 0.19114526 0.26663652 -0.07287482 0.22320296 0.19090793 0.19587041 0.24559282 0.104645714
383 -0.23054366 -0.30186394 -0.24486959 0.033336632 -0.39836732 -0.22392751 -0.07411821 0.5457876 0.02891201 -0.28801766 0.23234607 0.4871107 -0.29792997 0.43996704 0.9870416 0.6197534 -0.28827703 0.26542222 -0.089471005 -0.15162984 0.868551 0.7164859 0.26820597 -0.50059533 0.26393616 -0.19985126 -0.021628678 0.11514867 -0.3513442 -0.051070735 -0.048259903 -0.49362072 -0.013275391 -0.08184501 -0.52693534 -0.64749223 0.1353315 0.022076279 0.37032118 0.12444827 -0.16471742 0.162817 -0.050066937 -0.07381307 0.15646097 0.028094612 0.01427384 0.09813628 -0.07375902 0.4047523 0.6977808 -0.49594924 0.20417657 0.39115658 -1.4061978 0.4274456 0.2668981 -0.043144193 -0.6606826 1.0295091 0.20741998 0.8525827 0.33221778 -0.0064354115
363 -0.048780072 -0.2950491 -0.11052403 0.19367658 0.15653855 -0.040327102 -0.06390986 0.26709595 0.24102847 -0.21801297 0.3521979 -0.22792357 0.12537034 0.20817035 0.554984 0.117077276 -0.29444972 0.07535419 -0.55852705 -0.08086917 0.01285678 0.022426343 0.2815509 0.07038515 0.15454929 -0.08237161 0.049029388 -0.4083959 0.16482458 -0.5457443 -0.13099833 -0.18835048 -0.3221345 0.35953757 -0.8277545 -0.00021982752 0.18549342 0.601606 0.54881966 0.61820716 0.4488503 0.1444976 -0.35272586 0.18946154 0.14593245 0.43158236 0.13825475 -0.13913903 -0.3305254 0.38961884 0.38011816 -0.49320135 0.11566499 0.13230364 -0.40126288 0.14372382 -0.09439287 0.23073296 0.14070824 0.03773593 0.30098885 0.31109896 0.3801485 -0.05346865
344 -0.17156397 -0.22478844 -0.18986048 -0.011101318 -0.4039971 -0.22452757 -0.29163978 0.41330853 0.036079492 -0.24622902 0.13915354 0.4951871 -0.29583198 0.49894935 1.0771035 0.64114887 -0.357706 0.17693336 -0.18725729 -0.0027722411 1.0265282 0.47240603 0.22412378 -0.3706274 0.46311018 -0.2921479 -0.046121046 0.17051779 -0.36792356 0.08302765 0.09732799 -0.4101237 -0.05501842 -0.040268756 -0.53531766 -0.60754937 0.11173352 0.00841664 0.4508268 0.12530915 -0.21911272 0.11258573 0.054458912 -0.16806091 -0.09447941 -0.010432111 0.016144328 0.035930537 -0.19647464 0.42625466 0.7714462 -0.6173682 0.075597234 0.29515222 -1.2681332 0.26296604 0.29529825 -0.1103081 -0.5206819 1.0894288 0.17191254 0.69014615 0.28996488 -0.16146831
202 -0.061468303 -0.29989752 0.13616844 -0.27222604 0.35145313 0.14565657 0.080863394 0.07073961 0.31911436 -0.29158667 -0.18835787 -0.4041386 -0.4443597 0.20599459 -0.0912412 0.5943187 -0.06545728 -0.3310866 -0.12581706 0.23114657 -0.24432844 0.5881991 0.0058505265 0.10669763 -0.00019278607 0.06884699 -0.39642733 -0.5055872 -0.16283822 -0.071486376 0.17129056 -0.032977384 -0.111999035 -0.17753407 -0.0418356 -0.35070333 -0.17673743 -0.08865452 -0.39309114 -0.36731955 -0.06040079 0.04219775 -0.15981215 0.37288952 -0.16035774 -0.11837697 -0.019275248 -0.45198438 0.14310937 0.1408618 -0.15131415 -0.22286928 0.3950133 0.23360232 -0.20192616 0.3388845 0.18564864 0.11609698 -0.068801224 -0.5405148 0.004007896 0.41471884 -0.18686655 -0.47675914
183 -0.13795383 -0.35961527 0.19806086 -0.26076028 0.37973836 0.12352381 -0.027427306 0.07721422 0.25650638 -0.3266394 -0.11170704 -0.18769123 -0.43067798 0.115911655 -0.077124126 0.46687958 -0.038902134 -0.4618085 -0.02150588 0.16745633 -0.26069048 0.48622817 0.020062566 0.062962204 0.07245971 -3.9498864e-05 -0.4349624 -0.30832732 -0.26072517 -0.19865286 0.16417554 0.048567265 -0.16336231 -0.25948164 -0.14176415 -0.5293051 -0.21188828 -0.14752613 -0.3372215 -0.34068966 -0.077050075 0.19041039 -0.15913686 0.3518597 -0.15557925 -0.18414801 0.07620547 -0.4655144 0.046369277 0.1879429 -0.16150635 -0.2842522 0.3412109 0.30307272 -0.13588062 0.46415928 0.14367062 0.17191781 -0.14158711 -0.5223324 0.03151574 0.2938536 -0.12684259 -0.5220906
225 -0.10687563 -0.36769298 0.10659414 -0.15641995 0.30819514 0.17191783 0.05258598 0.032260746 0.27564827 -0.38935018 -0.22530103 -0.17876662 -0.5128871 0.18793777 -0.013123215 0.47019944 0.108454645 -0.536328 -0.049269546 0.27098086 -0.23442402 0.45565894 -0.0056776777 0.09801129 0.017467475 -0.015519692 -0.41468018 -0.3551325 -0.2894692 -0.19667633 0.22578716 0.002314763 -0.149033 -0.032478 -0.053935733 -0.51081944 -0.18362916 -0.117631026 -0.24110915 -0.27021798 -0.104627386 0.106298044 -0.07710713 0.31343257 -0.055223744 -0.17852432 0.10172837 -0.49212158 0.14379868 0.11132816 -0.18984872 -0.19545312 0.2564246 0.27189693 -0.102788344 0.31949773 0.13289952 0.07347316 -0.08965786 -0.5533296 -0.0037025698 0.3759817 -0.14705771 -0.44945246
334 -0.09130079 -0.19908458 -0.096062504 0.022351336 -0.31961522 -0.23726177 -0.2609021 0.40474483 0.12943898 -0.19194198 0.174224 0.31976202 -0.26789212 0.34888428 1.0204422 0.7227315 -0.32630944 0.32720482 -0.12281034 -0.16341428 0.8712146 0.40675652 0.38084346 -0.53424704 0.35405558 -0.2354381 -0.028053075 0.033015687 -0.4150868 0.044313375 -0.21684654 -0.5696519 0.033997253 -0.043507397 -0.5800415 -0.6666841 0.16881716 0.124996 0.43146166 -0.13266508 -0.16829959 0.029440569 -0.04654703 -0.028307937 -0.042812157 -0.04971692 -0.012404035 0.033516552 -0.11551654 0.43069366 0.76470745 -0.6186393 0.049397625 0.28465474 -1.1911695 0.3903248 0.2611526 -0.23138086 -0.5487825 1.087454 0.08651939 0.74414533 0.3306808 -0.16983664
451 0.07232518 0.49996206 0.0017538639 0.034913227 -0.5717667 0.21356356 -0.21726607 0.19382532 0.1038638 0.17440459 0.43508917 -0.20372944 -0.1587868 0.6127982 0.99402785 0.8499078 0.24572268 -0.47141293 0.032276224 -0.18041764 1.318098 0.14450277 -0.2660556 -0.10899089 -0.07104343 -0.56168705 0.3944654 -0.6166248 0.13845657 1.0422238 0.77834547 2.0842385 0.05213213 0.61990756 -0.55194414 -0.47205153 0.5655751 -0.30072582 -0.3786873 0.43201098 -0.02227945 -0.3069638 -0.2661074 1.0308783 0.6933405 0.879463 0.11149931 -1.087756 -0.7979013 -0.5592607 0.53637624 -0.9299198 -0.11229635 0.29203656 -1.0032301 0.106075905 0.018691406 -0.110546835 -0.36484683 -1.3277621 0.072069086 0.24749234 -0.17325516 -0.35016796
396 -0.39417118 -0.4005309 0.95522153 -0.28439966 0.03204723 -0.76991206 0.0199315 -0.2152388 0.35528153 -0.029556513 -0.033822574 -0.3089579 0.1359946 0.24683478 1.1083106 0.22100466 0.626896 0.5532075 0.34731707 -0.15071237 0.13108155 0.31669533 -0.8100579 0.42598578 0.2962371 -1.0837142 0.36831927 -0.7701455 -0.3724614 0.48846054 -0.14423981 0.55757034 0.13916232 0.5207507 0.12442994 0.029295256 -0.07228647 0.65255094 0.03920012 -0.03764848 -0.24198896 0.18009594 -0.06793847 0.19703391 0.0457488 -0.42602083 0.44952786 -0.17915598 -0.44093037 -0.3856078 -0.047491584 -0.22411492 -0.083535865 0.41585204 -0.6207483 0.45661288 -0.099113405 0.08793512 0.013296236 0.1256496 0.9218065 0.2662335 0.58256096 0.05690841
389 0.0029600286 -0.3806633 -0.06648829 0.201673 0.20242196 0.050487764 0.13692836 0.29108977 0.023898708 -0.26013634 0.44915378 -0.19322099 -0.05764627 0.41559255 0.4456545 0.17112315 -0.06200485 0.1753734 -0.5422182 -0.07454105 0.05656267 0.11957245 0.2573156 -0.0089828 0.022603577 -0.11846763 0.044993483 -0.39126518 0.13936631 -0.49681953 -0.1721725 -0.27772382 -0.27159747 0.1744943 -0.8162623 -0.017852208 0.06534594 0.5151558 0.52256846 0.6270137 0.29590797 0.11632724 -0.15848042 0.22801158 0.082236506 0.4620753 0.07833316 0.0066386806 -0.4301857 0.35300604 0.4918436 -0.52284336 0.15683167 0.15575273 -0.54212373 0.20771298 0.0011699101 0.081850186 0.10028174 -0.06970913 0.27226275 0.006685977 0.46164024 0.2278866
206 -0.16126634 -0.32638374 0.19038126 -0.30923977 0.480735 0.080397055 0.048439637 -0.05473697 0.29448283 -0.2721673 -0.2123636 -0.32879895 -0.5231884 0.16744834 -0.083599105 0.5412186 0.028557919 -0.43152222 -0.076194964 0.2756752 -0.300019 0.54517704 0.03318117 0.03308173 -0.06679427 0.029894963 -0.345574 -0.39629108 -0.15486114 -0.2025466 0.071117096 -0.044881236 -0.059133638 -0.17141056 -0.14451477 -0.4996237 -0.13623416 -0.0039645205 -0.3654115 -0.36532536 -0.06847956 0.12825763 -0.1463473 0.36640573 -0.17796747 -0.12779012 -0.078088924 -0.46065477 0.18736264 0.057162635 -0.10834977 -0.12849729 0.3594994 0.3508714 -0.21282922 0.39676562 0.07970368 -0.044254556 0.01415676 -0.49137494 -0.022971535 0.398337 -0.18530662 -0.49896848
266 -0.08499061 0.5184845 0.026471859 -0.06034168 -0.79856163 0.33126217 -0.13624725 0.2385627 0.19545189 0.13850623 0.2626971 -0.19444679 -0.1615726 0.5936329 0.990812 0.77466136 0.12505466 -0.5812108 0.104055084 -0.15231425 1.2216625 0.17230032 -0.31511286 -0.09166598 -0.11850949 -0.64933884 0.3355689 -0.5005095 0.04592779 1.0903957 0.716313 2.0679796 0.12232061 0.57096595 -0.65370345 -0.3234873 0.5417593 -0.36282876 -0.5449415 0.4966936 -0.090747155 -0.24043256 -0.34943518 1.1285431 0.69786465 0.8802765 0.20911746 -0.92956513 -0.69328374 -0.48090187 0.62712574 -0.92997193 -0.14966553 0.45636362 -1.0718533 0.15990005 0.2122763 -0.0777798 -0.39800775 -1.222265 0.045556344 0.09327505 -0.1824743 -0.34932187
386 0.044269465 0.5549525 -0.0504615 -0.05757359 -0.66699517 0.25980452 -0.26767865 0.23501931 0.14055997 0.08692065 0.3354935 -0.25561494 -0.09607149 0.6836059 0.9357946 0.78555465 0.21498896 -0.6015359 0.10666281 -0.2730166 1.0935735 0.10644859 -0.32954985 -0.15109834 -0.2023745 -0.68889296 0.4810537 -0.41522965 -0.018182047 1.0496925 0.69868696 1.9921262 0.030645441 0.50565624 -0.59571236 -0.5583328 0.46167976 -0.19482444 -0.44456613 0.5076527 -0.050179843 -0.41029316 -0.3491348 1.1400698 0.7735316 0.7566841 0.18305284 -0.86641365 -0.6890391 -0.40405008 0.7266568 -0.89944047 -0.097581565 0.28783733 -1.0602872 0.16493055 0.2722265 -0.20602618 -0.49016517 -1.3026578 0.06834415 0.28603494 -0.16452914 -0.3728965
471 0.13774592 -0.4775124 0.15408002 -0.044714358 -0.067205116 -0.64568025 -0.5218361 0.0938112 0.78551024 -0.03514338 -0.08058415 -0.29499376 -0.08526855 0.19537844 1.1246566 0.44293258 0.32280973 0.19444133 0.4063325 -0.44922554 -0.060532104 -0.43578997 -0.33906803 0.3872803 -0.08356466 -0.3295225 0.43449402 -0.7655676 -0.1680869 0.8313951 0.029275881 0.9823886 -0.1506152 -0.25279805 0.7708057 0.056243744 0.30708978 0.7689972 -0.051467247 0.28766653 0.28426734 0.55012345 -0.029245678 0.57159 -0.12911443 -0.5461794 0.14811029 -0.41339338 -0.41391587 -0.6367291 0.042602576 -0.3385297 -0.3563004 -0.025210744 -1.2999483 0.47643444 -0.782091 0.061187092 -0.13057913 -0.13298465 0.70186895 0.2358488 0.6086366 0.050515816
11 -0.30919954 -1.3572341 0.6088384 0.17120215 0.028802456 -0.34505683 -0.22509474 -0.41459414 0.82235366 0.22486351 0.92194474 1.0427823 -0.73354304 0.15170169 1.1914209 0.0535115 -0.87028265 -1.1659342 -0.35248443 -0.7824647 -0.012805224 0.65649813 -0.21068919 0.11294812 0.462388 -0.92744774 0.33939996 -0.86045384 0.9292563 0.03962441 -0.27970058 -0.2144318 -0.87179196 -0.499053 0.071087226 0.34680724 1.008094 -0.37628892 -1.2394905 -0.10603481 -0.06554385 -0.77628577 1.0612787 0.37131992 -0.48174524 0.61714554 1.5964898 -0.28280324 -1.0268983 -0.23895292 -0.06695711 0.3484531 0.6436554 -0.45435435 -0.08682678 0.1633944 -0.34487492 -0.13518107 -0.52704 0.17976077 0.59015304 0.5712373 0.8247071 -0.24388897
14 -0.23428583 -1.3498815 0.7772053 0.014404533 0.14372472 -0.35032752 -0.16175155 -0.26609126 0.59441566 0.34801394 0.7925195 1.1795248 -0.8583513 0.09940931 1.3370422 0.09638483 -0.8976272 -1.066946 -0.33625197 -0.73113394 -0.03839102 0.7420029 -0.0054072416 0.105747275 0.5599541 -0.8014074 0.2994201 -0.82419306 0.9501798 -0.088772126 -0.35760912 -0.044655368 -0.8421083 -0.43379453 0.2155567 0.16907671 0.9690085 -0.493501 -1.3586833 0.17587066 0.0097687235 -0.7154974 1.0198531 0.440249 -0.47275326 0.5054163 1.6459975 -0.2048371 -0.9831575 -0.25941622 -0.16349334 0.29013735 0.6906995 -0.5239314 -0.23182316 0.29021728 -0.40086326 -0.29424116 -0.39313734 0.15124258 0.6495112 0.44911802 0.806116 -0.12277939
442 0.026621671 -0.57097363 0.1845347 -0.20415123 -0.07873565 -0.7115969 -0.37956643 0.06266309 0.579836 0.1449453 0.13851374 -0.3169314 -0.032633066 0.17415683 0.9276855 0.6061864 0.34869072 0.1950658 0.38914198 -0.42043254 0.00474136 -0.40427697 -0.4064826 0.61484575 0.11508298 -0.24412447 0.4936984 -0.67577803 -0.3086858 0.8528308 -0.012172177 0.9048329 -0.13524033 -0.3005796 0.62936544 0.14700188 0.16487944 0.6698243 -0.11859256 0.32651642 0.28915206 0.460316 -0.016989892 0.5322493 -0.04097628 -0.52963406 0.17424548 -0.45731756 -0.3755694 -0.58224297 0.041566577 -0.29120317 -0.42788646 0.051601324 -1.3679776 0.34191597 -0.8394237 0.12741145 -0.19408664 -0.11904361 0.69976896 0.30790317 0.8322789 -0.01457488
394 -0.42135578 -0.3962683 0.9399081 -0.29477623 0.0015673153 -0.61238045 0.067510545 -0.17587535 0.2290935 -0.22513561 -0.0651055 -0.18489407 0.17213409 0.29371378 1.0453587 0.2686512 0.60448915 0.507013 0.2538254 -0.0072347815 0.17724052 0.09761204 -0.87345326 0.3956972 0.2672746 -1.0616343 0.3571272 -0.8594285 -0.546105 0.47907415 -0.049965337 0.6724116 -0.020123828 0.61859477 0.09087719 0.06892406 -0.20680398 0.58022225 0.09811743 0.17729813 -0.27726516 0.43005475 -0.08578044 0.053453173 0.09681871 -0.36283064 0.60878843 -0.16117284 -0.55677444 -0.32662547 -0.20783575 -0.3100583 4.0331655e-05 0.37560937 -0.4647067 0.5461763 -0.048151627 0.06308012 -0.018369602 0.13752228 0.9093893 0.34352016 0.6004432 0.08956609
441 0.20654063 -0.4985413 0.2604886 -0.11004111 0.0696745 -0.72596914 -0.48060757 0.13172522 0.69774044 0.11246558 0.1513448 -0.20513007 -0.022470936 0.24821524 1.0098193 0.57314545 0.15579736 0.23363969 0.24730588 -0.4696877 0.007528143 -0.46408212 -0.3923827 0.3980141 0.13687609 -0.30930233 0.5376652 -0.55347425 -0.17486566 0.76150566 -0.055192433 1.0965201 -0.038533855 -0.13806348 0.73195 -0.056170184 0.2155076 0.7953336 -0.0115997065 0.34123293 0.21806733 0.42495552 0.086925805 0.6114374 0.008155011 -0.67557096 0.19546849 -0.50297517 -0.43224818 -0.49729452 -0.14714122 -0.37389752 -0.36500695 0.1359742 -1.1582752 0.4872767 -0.7861346 0.23827879 -0.19678876 -0.14915945 0.8024793 0.2711395 0.8547727 -0.06960233
440 0.31931382 -0.57835895 0.2133014 -0.09944778 -0.06223242 -0.6001454 -0.53560376 0.036836177 0.6707654 0.05310561 0.11101636 -0.31146652 -0.19307624 0.19871978 0.9828442 0.39749476 0.34439224 0.23106632 0.3117033 -0.40969253 -0.08913795 -0.3121929 -0.5699099 0.5144787 -0.05174389 -0.23131673 0.5369868 -0.69518507 -0.22045805 0.7490521 0.17431465 1.0451835 -0.25385547 -0.22638781 0.73276305 0.069136076 0.17123172 0.66860855 0.099402 0.41063583 0.22875036 0.47353363 0.021900754 0.7687413 -0.15480581 -0.6874316 0.15410171 -0.28948617 -0.4815061 -0.4352499 0.02153775 -0.35380346 -0.2880286 0.026720861 -1.2686874 0.43321484 -0.71797585 0.11197416 -0.20031404 -0.08512272 0.6859026 0.35972852 0.7370772 -0.045788
410 0.03072848 -0.5079268 0.14076036 -0.11113584 -0.07304797 -0.7045249 -0.63447183 0.07937354 0.65914303 -0.04959969 -0.08414875 -0.34566543 -0.16634263 0.26876104 1.0548329 0.40948266 0.30981535 0.26147756 0.539686 -0.5303144 -0.124242775 -0.43728545 -0.43471313 0.4324104 0.038258098 -0.22097906 0.5889616 -0.5810462 -0.120088965 0.82161504 -0.08405844 0.9149833 -0.25574115 -0.31360555 0.7039224 -0.036370713 0.11737664 0.7108363 0.12498979 0.33795962 0.16984221 0.47497267 -0.10499512 0.737127 -0.16834733 -0.50911397 0.20313069 -0.48279333 -0.39134955 -0.5333593 -0.022264475 -0.49457592 -0.25153792 0.024156095 -1.1821697 0.40797824 -0.84636706 0.06652083 -0.25595486 -0.32736906 0.8186533 0.4103177 0.81492037 -0.035123445
421 -0.23456116 -0.044043742 -0.39401868 -0.11984016 -0.28256863 -0.44769603 -0.28306216 0.52229494 0.15751362 -0.06609829 0.28235254 0.34959653 -0.37613806 0.47102135 0.86264485 0.580703 -0.32426864 0.18059419 -0.074176125 -0.17096847 0.99376446 0.56887263 0.4043845 -0.51527375 0.28152058 -0.24347547 -0.0022128094 -0.01155752 -0.45950535 0.049116377 -0.026328359 -0.6307259 -0.03010231 -0.028322946 -0.45046467 -0.46258423 0.27902114 0.13748306 0.4358286 0.066770926 0.13386776 0.13920462 0.092372164 -0.2155302 0.086180456 0.019845415 -0.03657327 0.05503268 0.048366074 0.29962406 0.727813 -0.65536255 0.19201973 0.4067788 -1.0834397 0.40544602 0.27937603 -0.09751674 -0.40939066 0.8292159 0.3422256 0.80858713 0.33784366 -0.11034839
20 -0.24538937 -1.4423406 0.68252504 0.25446403 0.03150431 -0.4086611 -0.2255554 -0.42577827 0.5286561 0.24543007 0.95537114 1.0659218 -0.88190734 0.037159875 1.3549079 -0.010320953 -0.8698689 -1.0359625 -0.36843935 -0.80852145 -0.07086861 0.6923165 -0.12405748 0.17298745 0.40238774 -0.78977877 0.42973635 -0.75497943 1.0018098 -0.043473333 -0.16251765 -0.081692636 -0.8359504 -0.44748574 0.20453753 0.19591093 1.0871713 -0.49702108 -1.2126058 0.0077624833 -0.15425669 -0.86166346 1.0023131 0.622709 -0.59259015 0.3879811 1.6392413 -0.30251753 -1.1273292 -0.19014172 -0.20294568 0.17565912 0.7844732 -0.50376004 -0.13605537 0.21974635 -0.35743123 -0.23854248 -0.49168807 0.19817816 0.5640264 0.46353346 0.7545751 -0.23290595
398 -0.15147276 -0.31860664 0.18617281 -0.49441975 0.40123606 0.23282455 0.09067803 0.07760001 0.25475264 -0.32155263 -0.2615167 -0.15273005 -0.511634 0.10256959 -0.17593087 0.5214878 -0.057388563 -0.26451454 -0.00016549323 0.20575301 -0.39473152 0.543438 0.026313832 0.10280322 0.114535525 0.122949325 -0.31559262 -0.33818933 -0.2015856 -0.08431622 0.19502927 0.046272147 -0.23811078 -0.09731869 0.018010432 -0.37203753 -0.017152747 0.013577459 -0.25779402 -0.37372002 0.04569996 0.0738135 -0.15667786 0.41091102 -0.1196444 -0.08298225 0.02503953 -0.42222258 0.1646746 0.2725943 -0.17379773 -0.30466616 0.2862954 0.24259199 -0.1595475 0.28691772 0.1323855 0.20246916 -0.06683586 -0.55492383 -0.06915372 0.42886686 -0.12382088 -0.26225868
496 -0.45854315 -0.53417754 0.68395823 -0.2049462 -0.023355553 -0.639438 0.007858445 -0.22727163 0.12857823 -0.21115287 -0.18157157 -0.24753253 0.0329174 0.28361282 1.1674666 0.12437876 0.6632442 0.5900203 0.121772625 -0.09197356 0.06981118 0.1869478 -0.8373368 0.43622664 0.31570533 -1.0598333 0.54836106 -0.7116299 -0.4789161 0.4117245 0.012409189 0.7435102 0.1357516 0.48620588 0.036132738 -0.021694196 -0.29218248 0.59104234 0.09760509 0.073478125 -0.28093246 0.25765854 -0.011257777 0.25768897 0.007828633 -0.43742767 0.47495368 -0.19165815 -0.33883178 -0.44065285 -0.14439073 -0.35899043 0.06495253 0.34953505 -0.50856125 0.48930582 -0.095598094 0.023094676 -0.18179558 0.043133155 0.88723546 0.27035663 0.56504893 0.111472905
453 0.09574874 -0.3758056 0.10395659 -0.057947464 -0.112389795 -0.71794885 -0.5115534 0.1741887 0.66416454 0.072272226 -0.14707235 -0.29679134 -0.16014476 0.2500623 1.1726416 0.6084988 0.24215125 0.19330205 0.41439456 -0.4722463 -0.2102699 -0.40548182 -0.4429476 0.5310533 0.009212182 -0.28644058 0.6320211 -0.7597538 -0.041206364 0.79576266 -0.033157155 0.87593335 -0.15936856 -0.31555602 0.7254013 0.07913668 0.14836937 0.65313065 0.06935928 0.36523563 0.19680628 0.38373715 0.036327254 0.8029978 -0.14425057 -0.5182843 0.20657355 -0.5087772 -0.36230785 -0.4850993 -0.0055365777 -0.4380334 -0.35301912 0.17532958 -1.2757765 0.49147764 -0.81598425 0.1839379 -0.2909487 -0.22053175 0.7077507 0.3287377 0.65914804 -0.04156232
300 -0.36164725 -0.5042463 -0.06434475 -0.14158653 0.1075232 -0.02076808 -0.0099591995 -0.11181588 0.31313542 -0.07150085 -0.09735626 -0.07140626 -0.31920642 0.29658815 -0.023036767 0.39108983 0.12469456 -0.40306935 -0.027060717 0.30730847 -0.06973862 -0.015175278 0.1400478 0.15464987 0.13579614 -0.05933317 -0.4257208 -0.38452303 -0.22940141 -0.13281931 0.031109054 0.043046765 -0.15718247 -0.2626894 -0.14224645 -0.43824315 0.078565545 -0.16876522 -0.5509178 -0.19172049 -0.13810728 0.3929346 -0.09944529 0.22402786 0.046533186 -0.34423023 -0.075183816 -0.31582382 0.07910005 0.3820512 -0.23136057 -0.35291773 0.2039804 0.06598505 -0.22397795 0.15152739 0.123551816 0.25643313 0.5033649 -0.38426977 0.06405667 0.05572807 -0.18256599 -0.4720221
448 -0.008433139 -0.44883606 0.13754275 -0.17627887 -0.02339305 -0.74985343 -0.7012129 -0.038100872 0.6342264 0.004157054 -0.08890097 -0.26335025 -0.17518395 0.266344 1.0723467 0.49452752 0.26354235 0.13454178 0.42206275 -0.46933907 -0.10693185 -0.49828064 -0.3767644 0.4114752 0.059654742 -0.35733265 0.5775551 -0.7333936 -0.08786529 0.8292671 -0.10543994 0.8777629 -0.22253595 -0.3876259 0.62654847 0.10663867 0.1276035 0.76966935 0.030751277 0.42182106 0.3005074 0.43974176 0.01594799 0.71349907 -0.1916735 -0.530482 0.12966563 -0.4781901 -0.4032119 -0.6739126 0.1278499 -0.38431635 -0.32559562 0.04840532 -1.3774939 0.35140878 -0.634455 0.18209553 -0.28552327 -0.24281794 0.72989863 0.17783217 0.665386 0.037270546
239 -0.061422247 -0.2561051 0.3097021 -0.5021338 0.46375152 0.25281602 0.09333769 -0.051638067 0.31380635 -0.37156358 -0.19809145 -0.14842628 -0.6045176 0.07125048 -0.09154032 0.524134 -0.016842974 -0.43933216 0.021560768 0.19459346 -0.31378576 0.5239529 0.02002359 0.04873535 0.17266336 0.04690255 -0.30663347 -0.26549488 -0.1329438 -0.15658784 0.14634696 -0.04539546 -0.30682307 -0.1347633 -0.07895424 -0.30571356 -0.18367088 -0.0048548644 -0.30928916 -0.34078005 -0.06283518 0.14659351 -0.055959105 0.41517287 -0.20126992 -0.18256326 0.046578385 -0.45965007 0.17047177 0.18311751 -0.17800352 -0.22773813 0.27841803 0.37186778 -0.21244183 0.28936106 0.30197603 0.19048986 -0.18781812 -0.5134435 0.01741931 0.350228 -0.16007024 -0.34853715
301 -0.32056352 -0.5270841 0.011630674 -0.19071965 0.13522847 0.018115737 -0.044464827 -0.1334366 0.399387 -0.059313748 0.007338331 -0.15647392 -0.27820063 0.29429173 0.01804038 0.3877674 0.09466824 -0.52820724 0.0244038 0.23491988 -0.07688246 0.022194615 0.15185012 0.03234476 0.120749906 -0.06653865 -0.37803572 -0.20343463 -0.36871856 -0.32394457 0.24253292 0.011757205 -0.22118282 -0.32180226 -0.21659327 -0.41881198 0.03860136 -0.23999287 -0.51164675 -0.24644849 -0.19238245 0.29739496 -0.121079676 0.27248648 -0.034463838 -0.39597586 -0.12686512 -0.29193184 -0.081483774 0.17912307 -0.09291397 -0.284572 0.30137035 0.06475919 -0.30727696 0.14365362 0.12962954 0.10366018 0.40035895 -0.43554586 0.065224215 -0.053871214 -0.03407238 -0.45971608
439 -0.052138723 -0.32225433 0.11144491 0.29127672 0.13276237 0.054060977 0.06736777 0.24804227 0.15077765 -0.39891702 0.517625 -0.21853817 0.014702046 0.33320254 0.5276445 -0.06812447 -0.088964984 0.06680244 -0.42352962 -0.01632058 0.08060385 -0.06772205 0.37506163 0.05090462 0.1320394 -0.100535095 0.042645495 -0.275425 0.1520333 -0.43418548 -0.22129051 -0.10950603 -0.39369386 0.30566704 -0.8459295 0.007748296 0.21337219 0.6419185 0.4954613 0.6322678 0.3385743 0.20435739 -0.35552612 0.18216622 0.16248982 0.4911755 0.06376472 -0.09060913 -0.37230304 0.21878606 0.46459675 -0.3634977 0.14335679 0.25303224 -0.3491645 0.28685027 0.040676318 0.097797066 0.021199109 -0.053111356 0.18206206 0.16576189 0.3129814 -0.016387522
379 -0.12232647 -0.06511967 -0.25750598 -0.15436701 -0.36365038 -0.46628425 -0.26240787 0.43771505 0.19648612 -0.36739278 0.38277724 0.42228997 -0.48808968 0.36394945 0.9308858 0.6666244 -0.25223786 0.2319618 -0.0060386006 -0.119591296 0.9059996 0.40370587 0.37503633 -0.37115967 0.32670653 -0.18545017 -0.032086693 0.016074643 -0.18357664 0.1723921 -0.0582565 -0.7177955 -0.13265714 -0.013242761 -0.549575 -0.39688978 0.17542642 0.16568285 0.37215006 0.06448349 0.022059819 0.03981452 -0.02594173 -0.12904398 0.024059298 0.010498678 0.04464402 0.07467001 0.07140855 0.3549616 0.6541328 -0.32285878 0.06424486 0.39861408 -1.0410767 0.43419805 0.043088183 -0.08438621 -0.39756796 0.99292386 0.3305884 0.8091732 0.15808833 -0.24226385
331 0.10249467 0.48345524 0.03346495 0.07781675 -0.6973069 0.11898045 -0.26331908 0.21732005 0.020725682 -0.014370136 0.24715562 -0.18227108 -0.1589236 0.4635731 1.0023012 0.6238022 0.12262567 -0.46559924 0.047177065 -0.06609845 1.282582 0.35417318 -0.38541195 -0.16054781 -0.08475866 -0.60159075 0.39007583 -0.58619905 0.17313485 0.95754033 0.878766 2.0980463 0.11322411 0.55128884 -0.66130793 -0.45119637 0.51249486 -0.41927692 -0.26730877 0.47256482 -0.16628489 -0.40084836 -0.37788758 1.2148837 0.7091537 0.5930454 0.061069734 -1.0148216 -0.91580904 -0.41179636 0.49563268 -0.87005717 -0.1325602 0.25690997 -1.0348252 0.115882516 0.1920959 0.13524759 -0.5421503 -1.3807064 0.17943397 0.19890048 -0.074102715 -0.48086107
404 -0.36884797 -0.5668235 0.9171385 -0.20320667 -0.152788 -0.70741963 0.01987049 -0.26835907 0.22194734 -0.046632774 -0.09265664 -0.15444951 0.22453174 0.28815293 0.9371471 0.31579286 0.5437983 0.59279054 0.22111379 -0.15036446 0.098929696 0.32435137 -0.90021986 0.34016007 0.228431 -1.1103268 0.34421647 -0.74885774 -0.35910198 0.4420459 0.07822272 0.71920633 0.12559049 0.75218743 -0.021739183 -0.02144796 -0.25324404 0.57837516 0.1598893 -0.08347068 -0.24665031 0.13983436 0.12638691 0.19204737 0.14412771 -0.4654495 0.56565773 -0.17392528 -0.3151687 -0.35009345 -0.19728872 -0.23827375 0.093284965 0.4533261 -0.5985824 0.6207996 -0.10856104 0.08427578 -0.0075728158 0.09743439 0.7937391 0.3560724 0.5927548 0.115872316
497 -0.5051487 -0.3763182 0.7047558 -0.2665569 -0.030797374 -0.75079536 -0.070992336 -0.2939965 0.29058868 -0.32663357 -0.0790848 -0.28229937 0.1534315 0.2904485 1.0330236 0.19858685 0.61513376 0.5147604 0.21109723 -0.20656322 0.07522359 0.080545425 -0.7406976 0.2344569 0.1607039 -0.9384506 0.5970549 -0.68675345 -0.3241613 0.3929526 -0.11190553 0.77827454 0.025046306 0.44986323 0.10852026 -0.053965203 -0.068715096 0.6072117 -0.007937671 0.15098678 -0.25509468 0.08889893 0.066732064 0.221486 -0.01035853 -0.37970102 0.39457965 -0.16181058 -0.46806064 -0.45709795 -0.13085946 -0.3573435 -0.21136083 0.40554813 -0.63357276 0.37041238 0.051454667 0.16805574 -0.06903708 0.0036516488 0.89496243 0.34412143 0.6399416 -0.07222019
219 -0.28117964 -0.31528687 0.127686 -0.33135873 0.15766142 -0.04864431 -0.045025215 0.025133694 0.36561713 -0.30030665 -0.07606057 -0.054972153 -0.25160632 0.07561881 -0.17738546 0.36617658 -0.060680397 -0.50814 0.103415966 0.29643068 -0.14535125 0.27034584 0.2095806 0.15106282 0.039986756 -0.010644688 -0.433512 -0.32068747 -0.225002 -0.0077395965 0.27265728 -0.00073680026 -0.20845991 -0.033420637 -0.2534057 -0.37381443 -0.09574466 -0.06809998 -0.45698422 -0.36295012 -0.060811486 0.2560979 -0.13843827 0.26507288 -0.22765717 -0.2791805 -0.008686541 -0.22097225 -0.026336351 0.16357134 -0.24232928 -0.3417021 0.26515374 0.18452702 -0.18977053 0.26644287 0.12199231 0.12712067 0.21089755 -0.5108427 -0.06807445 0.16622703 -0.002079449 -0.18829718
444 -0.27276513 -0.44987616 0.7519069 -0.17741944 -0.17150983 -0.4975731 -0.08508161 -0.24299704 0.27808425 -0.3431433 -0.017503314 -0.20729399 0.0862991 0.4102197 0.9702793 0.26191235 0.6039553 0.45436856 0.33126947 -0.1367019 0.11184885 0.06419323 -0.7624409 0.41879514 0.1183346 -1.0986145 0.5947164 -0.681483 -0.22226843 0.5412299 -0.14145808 0.6698247 -0.16265737 0.50061953 0.15106204 -0.024954166 -0.031401623 0.69546103 0.11857408 0.010297981 -0.31594008 0.15797555 -0.05517236 0.17204523 0.018624734 -0.35908404 0.3855316 -0.33166996 -0.44557044 -0.43983692 -0.19376813 -0.29545826 -0.0011723804 0.31582195 -0.5254985 0.3760698 -0.039459527 0.27435574 -0.12663496 0.09896327 0.8456513 0.13785696 0.4800564 -0.014199311
445 0.08349722 -0.3744937 -0.20426042 0.21556166 0.09215352 0.04908049 -0.10060091 0.15362494 -0.08533377 -0.30169788 0.34653264 -0.15989248 -0.07048131 0.24500623 0.6731474 0.18582444 0.024637943 0.0009779283 -0.57141906 -0.047596723 0.02309076 0.03521026 0.26785168 0.18001802 0.11828586 -0.06420223 0.021943305 -0.4416257 0.11055838 -0.4449419 0.008577371 -0.30326447 -0.201132 0.259278 -0.6755367 0.12236089 0.09269096 0.6126666 0.57727826 0.5432908 0.4276749 0.050260752 -0.2544122 0.00571165 0.16202639 0.30810007 0.15752412 -0.1983829 -0.46947587 0.36141574 0.23564386 -0.51835144 0.20146376 0.2398024 -0.37888977 0.15758927 -0.053625394 0.25710982 0.1254164 0.04388148 0.2223876 0.1691353 0.3379772 0.22435984
326 0.035645694 0.43308425 -0.004621182 0.028951045 -0.84690624 0.33865532 -0.31350154 0.1799344 0.08035212 0.024730079 0.33051923 -0.16733694 -0.03446898 0.51569 1.0253474 0.9178386 -0.014733322 -0.6074608 0.0969859 -0.14639716 1.2971905 0.26799405 -0.34888956 -0.16385026 -0.09141864 -0.65557796 0.27606118 -0.42534408 0.07121425 1.1420758 0.7057508 1.9718825 0.20792063 0.7563149 -0.6536603 -0.46987978 0.5341521 -0.3745356 -0.44025785 0.51195985 -0.01562438 -0.32943794 -0.39824396 1.1125221 0.7371253 0.77766454 0.19424285 -1.0390143 -0.6144896 -0.53006387 0.55818546 -1.1329559 -0.096344545 0.1542764 -1.0604521 0.14380111 0.16702652 -0.110131286 -0.46380666 -1.3131244 0.15917875 0.25094837 -0.026453309 -0.2828892
282 0.21061534 -0.21472326 0.10522512 -0.03989279 0.45538798 0.09800561 0.1437135 0.13764885 0.28774726 -0.3542923 -0.036736432 -0.3977452 -0.44708678 0.14423628 0.02781985 0.40010956 0.25546095 -0.43484277 -0.040461507 0.40155557 -0.3316626 0.50107104 -0.110605665 0.14863865 0.1410569 -0.025503468 -0.4454637 -0.37856355 -0.31450123 -0.030190654 0.06295163 -0.050644103 -0.15259273 -0.46483245 -0.3296552 -0.32160333 0.032193203 -0.25092167 -0.24855521 -0.18131638 -0.3891465 0.12304666 -0.14215283 0.35632282 0.00048406623 -0.09636947 -0.13144735 -0.56039524 0.213778 0.22738822 -0.003778549 -0.15140979 0.31824532 0.29368994 -0.16261792 0.38272378 0.07180006 0.22477862 0.020386435 -0.4321746 0.1490796 0.21291462 -0.19578698 -0.70977813
455 -0.33785757 -0.4052607 0.6913126 -0.2547911 0.013523315 -0.6475434 -0.020647904 -0.19946107 0.27254057 -0.20395951 -0.04124859 -0.14587706 0.10034504 0.43688244 1.0278825 0.35962 0.6018377 0.5491059 0.3308348 -0.30883932 0.1229476 0.2099937 -0.72806466 0.4318384 0.14200616 -1.018693 0.46558994 -0.6995086 -0.32331717 0.50858074 -0.24495247 0.590354 0.13423996 0.58592284 0.009974841 0.0038535455 -0.061676573 0.63162345 -0.055392053 -0.0091510555 -0.24021362 0.10109868 -0.11580889 0.10768179 0.0059474376 -0.48026943 0.34847608 -0.24651657 -0.35950997 -0.49608883 -0.26499474 -0.30157802 -0.06618995 0.3647752 -0.5793672 0.3656462 -0.06992022 0.18451853 -0.16663274 -0.039842486 1.032536 0.25527146 0.627141 0.06377505
434 0.15564258 -0.56800705 0.12528871 -0.10151489 -0.095574655 -0.72095525 -0.46094656 0.10395585 0.64863664 -0.14851452 0.0015574 -0.30407292 -0.27532095 0.34250176 0.9423899 0.53710836 0.33544663 0.3604671 0.38244718 -0.5203475 0.0032356898 -0.42225888 -0.41423556 0.39572415 -0.05861779 -0.2250221 0.6657453 -0.7277099 -0.14774425 0.9535783 0.051602166 0.7262943 -0.09849141 -0.35478693 0.84014225 0.061851647 0.35982487 0.7375114 0.0651423 0.56377995 0.10709344 0.47645238 0.009064489 0.74554557 -0.13149673 -0.67583656 0.18380627 -0.38597053 -0.47011244 -0.64396584 -0.15754826 -0.49420708 -0.26619887 -0.10109078 -1.2475606 0.56553274 -0.8622844 0.06960986 -0.23172489 -0.22213635 0.86041766 0.4078837 0.7073992 0.015911873
418 -0.22161704 -0.4099997 0.10122159 -0.31013364 0.29312795 0.16031033 0.06607363 -0.032305986 0.31154695 -0.37174678 -0.09664519 -0.21778628 -0.442533 0.18373303 -0.11843852 0.36322466 0.013277244 -0.39418238 0.052850246 0.18937533 -0.14286307 0.3978936 0.1084618 0.029716088 0.049355064 0.019586926 -0.40711907 -0.36638767 -0.29536673 -0.10365988 0.20570917 -0.042318545 -0.14511764 -0.030439498 -0.074150726 -0.49815515 -0.10660311 -0.03576484 -0.39647603 -0.27706492 -0.11589543 0.18092284 -0.11063875 0.3378085 -0.05302968 -0.28058872 0.018343972 -0.3715766 0.14344667 0.15673034 -0.20653194 -0.20506649 0.3083279 0.12829529 -0.1526375 0.30447602 0.17183259 0.02141398 -0.012933261 -0.5397246 -0.07367066 0.3092682 -0.10519295 -0.4842196
302 -0.0054911426 -0.26543283 0.18202098 -0.051820207 0.4033021 -0.008068346 0.042706586 0.005954589 0.2464438 -0.21470736 -0.0086980965 -0.359271 -0.52990055 0.26296994 0.075276464 0.28502837 0.14648455 -0.4111974 -0.17215073 0.36121067 -0.20440641 0.535504 0.0012111575 0.13134484 0.05044571 0.02149191 -0.50181973 -0.25563937 -0.26407787 -0.039080117 0.20542519 0.03331884 0.055604916 -0.18349095 -0.06036235 -0.4114932 0.15261988 -0.10235605 -0.17132264 -0.21002242 -0.15843546 0.14083913 -0.15229917 0.31180632 -0.037212435 -0.32033965 -0.15434225 -0.5601999 0.09027371 0.25925773 0.0065100896 -0.18018465 0.4058255 0.19965315 -0.14009942 0.36925578 0.007536152 -0.00528269 -0.04050171 -0.6206189 0.16270296 0.24086253 -0.29753184 -0.68689656
258 -0.3984461 -0.63626355 -0.0117322225 -0.028443081 -0.12289339 0.17467855 -0.11682603 -0.32466525 0.3698669 0.0064047524 -0.07201541 0.013668182 -0.45711035 0.23563951 0.056709368 0.48266676 0.19383313 -0.38238472 0.113988414 0.43842298 -0.09760968 0.05393072 0.3184094 0.038395017 -0.067772955 -0.017126037 -0.18548767 -0.2620287 -0.31634656 -0.18664554 0.1892361 0.15070118 -0.3040267 -0.22129917 -0.38229254 -0.41705596 0.011756461 -0.22860658 -0.49758124 -0.41407838 -0.097364634 0.347611 -0.026823703 0.28207427 0.105861 -0.28584525 -0.21164638 -0.37625727 0.18098372 0.14390744 -0.19084503 -0.33782968 0.28688806 -0.059230782 -0.25428665 0.29651546 0.084798634 0.30179694 0.6815534 -0.18895487 0.13288443 -0.1260166 -0.13497877 -0.41875508
180 -0.12134338 -0.3139361 -0.1005356 0.10091818 -0.066326454 0.1720014 -0.013847884 0.05705837 0.09280225 -0.08895352 0.54078746 0.15407862 -0.17932718 -0.17358954 0.312292 0.03256404 -0.194191 -0.039422385 -0.19835624 -0.32134598 -0.025638409 -0.09033783 0.28381073 -0.028755812 0.3496315 -0.06276837 -0.03498722 -0.49603912 0.25984827 -0.34128982 -0.15406363 -0.21889266 -0.4657928 0.57933706 -0.5229716 0.026560137 0.42210746 0.5900616 0.4901495 0.4531618 0.3965502 0.35862705 -0.6864921 0.33598533 0.23725098 0.31225002 -0.17362085 -0.05381379 -0.2241343 0.39308143 0.2824368 -0.33975726 0.074807465 0.3369941 -0.2490103 0.3413014 0.12035253 0.24061015 0.19620803 0.19633296 0.12091054 0.28691602 0.42691085 -0.069855034
235 -0.048625052 -0.24710786 0.24456911 0.007389422 0.38157424 0.050623465 0.041647214 0.01519883 0.26396435 -0.27317291 -0.20812328 -0.38347623 -0.49010572 0.26958495 0.16043977 0.07309925 0.19373201 -0.52456343 -0.23234092 0.43978894 -0.29669428 0.4659598 -0.0519631 0.042918347 0.036927257 -0.0451757 -0.3617723 -0.36064515 -0.36684752 -0.020029925 0.24974886 -0.043298423 -0.102552675 -0.24265835 -0.15486036 -0.5231225 0.010221889 -0.15217015 -0.42352206 -0.14338884 -0.32042274 0.23644683 -0.19982079 0.41100153 -0.0062669655 -0.19623812 -0.022599386 -0.41009557 -0.0075105955 0.2643549 -0.054186456 -0.12553059 0.23410532 0.30407608 -0.19493759 0.37039036 -0.051756546 0.12911949 0.10824193 -0.5696254 0.03983725 0.23084278 -0.38268232 -0.6352922
208 -0.09976194 -0.28168085 -0.17483722 0.020501224 0.0073744496 0.25735605 0.06926944 0.070747346 -0.026011832 -0.12840551 0.41178325 -0.0019276926 -0.12539862 0.10157386 0.4620749 0.116406426 -0.3291906 0.0024202266 -0.1951756 -0.3520136 -0.19719623 0.048932213 0.15795991 -0.016236268 0.3968565 0.007881929 -0.054258887 -0.49743205 0.29447773 -0.21526483 -0.21267655 -0.25560927 -0.14123501 0.33174548 -0.65443444 0.15938851 0.4733084 0.5373123 0.55966246 0.52779377 0.43584144 0.3016855 -0.58824605 0.28928784 0.26741368 0.30622908 -0.15418516 -0.14351115 -0.07971479 0.20417216 0.3662595 -0.37827462 0.10981822 0.10217088 -0.06351771 0.37547237 0.20014486 0.07729182 0.06214572 -0.020227805 0.4018958 0.25047955 0.46036023 -0.12372376
408 0.08439118 -0.44141015 -0.0053648623 0.16802365 -0.11074778 0.038501035 0.08325164 0.15828793 0.21918541 -0.21089926 0.48856002 0.014504709 -0.0857543 0.22832684 0.38239807 0.25194246 -0.09296691 0.121998474 -0.49168316 -0.098227955 -0.045942683 -0.051212247 0.4392089 0.028871026 0.2651105 -0.0073836776 0.03512367 -0.58296204 0.15233313 -0.21796182 -0.12943439 -0.24830996 -0.16887528 0.30677494 -0.7200484 -0.14395213 0.26059693 0.5618965 0.62012076 0.6872012 0.40493837 0.004593752 -0.42616862 0.09199835 0.21246895 0.32148427 0.21946837 -0.06675131 -0.38922969 0.41333586 0.31552678 -0.4597287 0.13747261 -0.036171127 -0.37151137 0.41382906 -0.15913112 0.31329903 0.045505747 -0.015965804 0.33331934 0.0829819 0.28802782 0.20931411
328 -0.03775488 -0.2552972 -0.19126335 0.1829584 -0.015852781 0.19565098 0.09040638 0.09890734 0.18115453 -0.17068897 0.27747193 -0.12524946 -0.17359546 -0.08499942 0.39796525 0.009772278 -0.36710948 0.09620677 -0.3445122 -0.20699508 -0.03609832 -0.067064464 0.1805664 -0.009180679 0.13835241 0.002090961 -0.17253844 -0.51716137 0.07379542 -0.44930947 -0.10427837 -0.036397673 -0.28126502 0.22617254 -0.8498725 0.08247765 0.27919984 0.6215891 0.48985657 0.44172525 0.47843355 0.13768433 -0.36933786 0.12294115 0.4213573 0.3377083 0.0802234 -0.14823382 -0.30356222 0.48129162 0.13665748 -0.31464192 0.07213677 0.23356856 -0.24258776 0.36173198 -0.10463854 0.12554468 0.057707738 0.22399259 0.2439698 0.35854557 0.38070658 -0.15208866
267 -0.32059595 -0.42340252 -0.42747563 0.16987202 -0.1020967 0.14166297 0.14101686 0.06829279 0.1135433 -0.3711351 0.25290155 -0.3303998 -0.103067674 0.23192784 0.68024594 -0.06958699 -0.34203163 -0.11317817 -0.58170116 -0.22209202 0.04861687 0.19024116 0.5243949 0.34742993 0.051525913 -0.09730931 0.20770283 -0.5266635 0.5058402 -0.5967264 0.098256476 -0.32219946 0.103605546 0.2799478 -0.68869454 0.12001345 0.06108541 0.77669185 0.41913807 0.913859 0.4269967 0.068918 -0.48256898 0.27373642 0.019293174 0.0019695223 -0.064744234 0.20383054 -0.11262907 0.058263175 -0.21443932 -0.52119637 0.08437645 -0.040838722 -0.5463452 0.3200771 0.29511654 0.21153004 0.04191133 0.29067656 0.0758378 0.25270617 0.2167004 0.017531693
393 -0.389628 -0.63580954 0.99169594 -0.37033537 0.19610044 -0.7353117 0.031971388 -0.23228994 0.15324475 0.008848806 -0.12211806 -0.110599 0.32674742 0.18669733 1.0526872 0.31187534 0.43380117 0.54547113 0.217807 -0.015646314 0.14508909 0.33448994 -0.88435197 0.21159369 0.29416794 -1.0930601 0.29136503 -1.0468868 -0.37415335 0.5068891 0.09521749 0.73477787 0.07363774 0.8026617 0.12180324 0.057573136 -0.1886563 0.45164338 0.040352907 0.16241604 -0.32536328 0.3258241 0.050949678 0.094401486 0.18520792 -0.41315416 0.47690684 -0.05864249 -0.51971745 -0.2539075 -0.20644763 -0.3427299 0.20506056 0.41673234 -0.6007142 0.410441 -0.10820431 0.13836163 0.11558289 0.2729257 0.7006259 0.20840852 0.5633827 0.2176091
486 -0.37301803 -0.60335016 0.85425234 -0.47684038 0.016646719 -0.6844906 0.030669611 -0.3134164 0.15692063 -0.10191044 -0.1378069 -0.13085473 0.3247035 0.35667676 1.0666783 0.40275908 0.4976237 0.6113921 0.1416029 -0.013465753 0.028191444 0.21541142 -0.9250555 0.3273972 0.28566304 -1.1075194 0.3013833 -0.8449832 -0.41700554 0.61747646 0.06615259 0.7313027 0.24018596 0.7226307 -0.059112065 0.06154831 -0.28291538 0.53167194 0.086200505 0.13206473 -0.13210705 0.15796193 0.07386866 -0.08539018 -0.057126436 -0.2696008 0.6779443 -0.13009033 -0.49596512 -0.061892997 -0.16516992 -0.32245943 -0.0028003508 0.35918996 -0.53597635 0.47422916 -0.10370701 0.22310372 0.07211452 0.19450463 0.68915534 0.24190743 0.5172851 0.11561283
279 -0.23182441 -0.52611667 -0.057333358 -0.2872674 0.3817512 -0.100019716 -0.083100505 -0.07341049 0.20259622 -0.19161013 -0.1684142 -0.006479252 -0.1794137 0.30568123 -0.10813751 0.19038032 0.054059092 -0.33340394 0.043618318 0.25362626 -0.079962105 0.35231915 0.34908873 0.25301203 -0.0077866213 -0.17774525 -0.5774661 -0.36184028 -0.3200972 -0.037680622 -0.010622022 0.13647608 0.025228607 -0.041071918 -0.12703338 -0.47182965 -0.16612908 -0.18251927 -0.59915096 -0.40636772 0.27465898 0.5829309 -0.059730813 0.20058753 -0.37966824 -0.19257618 -0.20667578 -0.30027103 -0.05309883 0.16202065 -0.18802634 -0.4796951 0.4867283 0.08285662 -0.04707391 0.4281929 0.29326546 0.23469403 0.16780385 -0.4598544 -0.08496386 0.1461015 0.18291374 -0.4342087
251 -0.27869502 -0.6692086 -0.015686681 -0.014726806 0.15766113 -0.0007382433 -0.041352868 -0.27015764 0.3455537 0.06233423 -0.2060788 -0.08488986 -0.19858667 0.41503918 0.0788423 0.5005633 0.13779499 -0.32746807 0.045882232 0.3921672 -0.02720509 0.08213717 0.37857193 -0.058418684 0.030600866 -0.06239038 -0.16640873 -0.429897 -0.2753315 -0.11422991 0.22705512 0.07610334 -0.37193125 -0.42091292 -0.30402586 -0.4180431 0.028274033 -0.2673297 -0.5711165 -0.39905503 -0.20561446 0.15260713 -0.061995503 0.15947397 0.025570817 -0.27280384 -0.36070064 -0.49168438 0.070531346 0.14678858 -0.10708339 -0.37523144 0.2560726 -0.003335956 -0.25120243 0.17239508 0.11910749 0.36367723 0.566184 -0.2116871 0.21305144 -0.23265305 -0.22309868 -0.39221984
283 -0.27381358 -0.2808062 0.20596755 -0.09668017 0.14564124 -0.034611184 -0.10959663 0.034843177 0.2806303 -0.31255668 -0.08579233 -0.17931335 -0.22095433 0.24624576 -0.027104286 0.13229986 -0.005209498 -0.2708389 0.04946108 0.16376093 0.035513826 0.2226585 0.519698 0.21266542 0.035272792 -0.10587807 -0.67373836 -0.40409198 -0.25664315 0.0629942 0.011539951 -0.025414601 -0.18797944 -0.13788229 -0.20317288 -0.3181806 -0.25031784 0.018817006 -0.49083078 -0.41785976 0.033235434 0.45717707 -0.09494161 0.25095814 -0.27541387 -0.34332854 0.024044318 -0.3877604 -0.0510882 0.24231632 -0.3550855 -0.291623 0.37215507 0.0033960082 0.016769698 0.48938772 0.21213093 0.19990554 0.11796798 -0.52516943 -0.18360387 0.19121177 0.011013983 -0.3624876
400 -0.575932 -0.46987084 0.7669081 -0.2971952 -0.076664865 -0.57319784 0.3537746 -0.17587292 0.20146918 -0.09503934 -0.0596044 -0.1912209 0.31313962 0.2316332 1.0104086 0.31077132 0.45110583 0.6981377 0.12098047 -0.3602536 0.091284275 0.20459147 -1.0147766 0.19614422 0.48447412 -0.96439594 0.25164685 -0.882973 -0.5640892 0.6373002 -0.012624471 0.714584 0.286898 0.6731001 -0.14746429 -0.07994045 -0.17370065 0.655085 -0.19045536 0.096822254 -0.29099372 0.12489176 0.16584632 0.049153026 0.17007491 -0.45885617 0.54054564 -0.29377633 -0.16591123 -0.16769381 -0.36804226 -0.38697192 0.03403757 0.36728415 -0.41578 0.3657446 -0.08194269 0.12067179 0.25250155 0.3403926 0.8509037 0.38434625 0.6469232 0.24461523
270 -0.22445108 -0.534199 -0.3822615 0.30544758 0.007897597 -0.025806425 0.10011891 0.14411303 0.23080882 -0.36450636 0.28613645 -0.36770865 -0.019660825 0.22861741 0.63383114 0.088895686 -0.18606964 -0.1573026 -0.45313966 -0.12836409 0.073760696 -0.017158458 0.30235407 0.34123468 0.034526408 -0.036161806 0.30340755 -0.50024486 0.5201925 -0.62642515 0.08944341 -0.17001246 -0.08285008 0.5501243 -0.7088422 0.2927561 0.43209395 0.8945109 0.44144526 0.62903863 0.5296439 -0.11949829 -0.32527024 0.093643546 0.16045102 0.08635213 -0.24763036 0.06932389 -0.028918108 0.18885224 -0.02227592 -0.29303452 0.25040552 0.15759952 -0.5519152 0.24086255 0.22712345 0.27960283 -0.020950072 0.32061565 -0.12813276 0.38500085 0.19807902 -0.097196825
257 -0.14545858 -0.41098833 0.1946533 -0.10605625 0.3759282 -0.16769563 -0.069843255 0.051022384 0.24170424 -0.13102405 -0.15546727 0.032327432 -0.18629426 0.13349424 -0.27214974 0.08513386 -0.022973556 -0.34411183 0.22670853 0.28923836 -0.004777558 0.25530028 0.35106656 0.15022317 0.0546754 -0.074036404 -0.5372408 -0.311972 -0.44957668 -0.09888678 0.039840452 0.054049417 -0.28726438 0.01559917 -0.18192276 -0.33852366 -0.15294363 -0.064105205 -0.5532561 -0.45114148 0.14968705 0.5101613 -0.026314763 0.32422018 -0.1534519 -0.18882644 -0.080994576 -0.43982205 -0.20210396 0.27968618 -0.02918345 -0.29750028 0.50231093 -0.005002749 -0.21336332 0.3586792 0.27793223 0.18314748 0.24049298 -0.5242833 -0.09913409 0.28118727 0.15205577 -0.38654765
353 -0.61972654 -0.36864892 0.71533626 -0.43993318 0.08282814 -0.65944284 -0.07546969 -0.2071287 0.005164456 -0.22455877 -0.05146246 -0.20333342 0.04931366 0.36933067 1.0271711 0.20708807 0.5558242 0.5961815 0.29027903 -0.20091283 0.10304307 0.25560942 -1.0195702 0.3025157 0.4314109 -0.96569353 0.47890624 -0.7636666 -0.518191 0.49621898 -0.13083729 0.65202594 0.093770206 0.8075203 -0.12450918 -0.10647963 -0.13930291 0.75590974 -0.09773575 0.12068582 -0.16092929 0.16422363 0.05155137 0.17601563 0.11477422 -0.33754358 0.42981198 -0.2618902 -0.28635752 -0.35718888 -0.20376217 -0.28047803 -0.07967604 0.40998626 -0.505007 0.1928242 0.026739135 0.13377105 0.29039913 0.25336733 0.9265745 0.28322223 0.5916474 0.18079378
346 -0.15127927 -0.393228 -0.26262826 0.29612303 -0.1318982 -0.12462783 -0.033614382 0.3249649 0.17930634 -0.17167887 0.28861707 -0.309949 -0.10280543 0.30229378 0.6864858 -0.026631992 -0.27660188 -0.02831532 -0.50665754 -0.22671467 0.03752694 0.19800638 0.42395246 0.2770353 0.097813174 0.0049482193 0.13902311 -0.37053117 0.4139853 -0.50617224 0.032003082 -0.13681912 -0.039755654 0.4369186 -0.70016044 0.12567684 0.19936325 0.7772679 0.4848426 0.74298704 0.3142949 0.11646688 -0.35757706 0.17873949 0.15698197 0.16440146 -7.795922e-05 0.04565545 -0.18729346 0.28932405 0.015587601 -0.42999172 0.1442283 0.100374416 -0.56458604 0.26103124 0.21963236 0.19140702 0.060719047 0.11415811 -0.071826376 0.11178546 0.2694027 0.039598092
49 -0.19724195 -0.031284485 0.2722159 0.11157261 0.2588694 0.3712126 -0.35021076 -0.1333719 0.5161961 -0.02256497 -0.08130338 0.3771637 -0.08750553 0.03698705 0.54869926 0.06903873 -0.21235426 0.064671576 -0.34796643 0.41335356 -0.30656034 0.9505343 0.51604724 0.7690678 0.81398255 -0.5596768 0.094511814 -0.40355995 -0.14250371 0.5102478 -0.1649419 0.049748443 -0.43919665 -0.13037108 0.09572555 -0.39180076 0.3072046 0.37260336 0.14177984 -0.01038625 -0.029183444 -0.39380252 0.15382212 0.5443401 0.61868596 0.6745467 -0.31270945 0.67741865 -0.59322 -0.29169053 -0.9427862 0.32135227 0.3329231 0.19466461 -0.10040791 0.07971849 0.31813815 -0.43176177 0.006363144 -0.055799063 0.20466141 0.11802913 0.34266433 0.21794057
342 -0.62229455 0.9716291 -0.41557676 -1.4857192 0.41936225 -0.44142994 0.32313016 -0.61663157 -0.07968188 0.38612875 1.3041977 0.17080362 -0.008830761 0.2866006 1.5047369 -0.92854565 1.2428002 -0.37865934 -0.01599601 -0.46349218 -1.0862144 -0.7330878 1.0352343 0.40138844 -0.19991332 -1.3788717 -1.429538 -0.38923508 -0.86305803 0.12751831 0.5617133 0.2244972 -0.17262393 0.23043501 0.3707023 0.3508377 0.10647235 0.18020816 0.41119638 0.53490305 -1.2825929 -0.5528022 0.95525885 0.7429646 -0.7288067 0.27617455 -1.0008702 -1.3623312 -0.7188524 -0.2658114 -1.1649837 -0.08505925 0.995975 -0.514062 -1.096802 1.4690207 0.65052664 1.2011181 0.6626368 1.041643 0.17666344 1.8023438 -0.13133821 0.07881207
5 -0.8416548 -0.31948763 -0.41506156 0.06758148 0.13813582 -0.05865449 0.19234385 -0.016586257 0.4070262 0.6755887 1.0172042 0.68133456 -0.5681344 0.31386617 0.7684341 -0.9901249 0.039230168 -0.66860694 -1.4918023 -1.2537166 -0.4787061 0.81025773 0.40154925 1.0755773 0.42663074 0.01243951 0.070070885 -1.2605584 0.5419504 0.8908635 -0.14373305 0.5052605 -1.2070336 -0.5166137 0.054046296 -0.4689842 1.071569 -0.05259185 -0.9917669 -0.25942624 -0.51219034 -0.36903632 0.7557157 0.21418655 -1.1632655 0.21097027 1.3422043 -0.5864508 -0.14113237 -0.035476774 0.48599854 0.28528953 0.73747015 -0.041115716 -0.58937144 0.10784685 -0.3506697 -0.2698468 0.06433736 0.5959947 0.76023 0.18149789 0.6365014 -0.19074552
465 -0.6184766 0.9413686 -0.49969527 -1.503608 0.2898908 -0.27685624 0.23866695 -0.7234459 -0.09880998 0.43238264 1.3617542 0.18942593 -0.11003949 0.30051175 1.5458232 -1.0050976 1.0915642 -0.31143868 0.037833367 -0.5174148 -0.9235432 -0.6758336 1.1594828 0.5450744 -0.2734354 -1.3143545 -1.5160611 -0.43383878 -0.7972814 0.1318677 0.5671823 0.11419909 -0.3819762 0.45715278 0.42499846 0.42882895 0.07265701 0.19758378 0.5663055 0.5442405 -1.1746641 -0.5437586 0.9512011 0.7183416 -0.8423159 0.3714166 -0.86305016 -1.5331497 -0.64563733 -0.31987703 -1.3294102 -0.19195674 1.0215197 -0.5520567 -0.90183365 1.4437468 0.5307726 1.3114278 0.73388165 1.0868013 0.21180849 1.8490531 -0.2408716 0.024437519
322 -0.123259015 -0.7600913 0.29802027 -0.14331973 -0.22366302 -0.18859887 0.11899539 0.058259726 0.14363147 0.21292643 -0.1230451 -0.35042277 -0.45984858 -0.12673485 -0.04996931 0.34345755 -0.3160138 0.21015637 -0.13831638 -0.22580048 0.44650787 -0.33775857 0.23364437 0.34062314 -0.39992917 -0.5305369 -0.051761787 -0.16595633 -0.749427 0.24019036 0.5521442 -0.36397275 0.16855226 -0.2061492 0.0015846684 -0.5603926 0.21702752 0.43814734 -0.068640426 0.33823895 -0.6164885 0.027188383 0.040285707 0.059208505 -0.50153965 0.5629512 -0.7428238 -0.68257546 0.47651637 0.65370905 -0.7167068 0.008490513 0.2894614 0.079578444 -0.49844807 -0.051675003 0.34844416 0.21851024 -0.04730874 -0.34677637 0.419353 -0.19847621 0.10173636 -0.70324904
122 -0.23098062 -0.2830347 0.35167667 -0.1623301 0.42542836 0.18330938 0.087052755 -0.16967376 -0.017451683 -0.102877595 -0.46235907 0.03057791 -0.8103827 0.026457714 -0.153088 0.6241021 0.163608 -0.53674656 0.24110718 -0.06796986 -0.2923965 0.36183792 0.5343435 0.27076748 0.37918198 -0.27352768 -0.36106092 -0.19021653 -0.20167151 0.42841744 0.49309036 0.26506805 -0.3177275 -0.39739445 -0.5082804 0.13164026 0.3062202 0.23834577 0.17056233 -0.21817197 -0.10039666 0.36757767 0.07442238 0.33509654 -0.09288307 -0.034803994 0.22717549 0.1834409 -0.23434773 0.009342588 -0.35780144 -0.42390364 -0.09621903 0.22254004 0.038186796 -0.27600315 0.32873198 0.049803793 -0.44504887 -0.24342133 -0.14727375 0.38622573 -0.09295455 0.031947758
350 -0.418505 -0.21169253 0.8921488 -1.1274626 -0.2415094 0.10574739 0.6257612 -0.06858267 -1.2677857 0.32931545 -0.028726023 0.8674545 0.7390651 0.6637889 0.7009172 -0.14574556 -0.5245757 -0.7028729 -0.73663044 0.8147405 0.00050350424 -0.12332912 0.81492406 0.56658214 0.2751954 -0.4986601 -0.16867183 -1.3265002 -1.3864899 0.5938293 -0.63523257 0.20607804 0.29734072 0.8293041 -0.5615474 0.2932571 0.243016 1.8112682 -0.2087649 -0.40611637 -0.65602815 -1.6542197 -0.404759 1.6013736 -0.5370984 -0.28595275 0.6485384 -0.05777413 0.9158065 0.48639125 0.83064055 -0.38471878 0.3454975 0.6497592 -1.1638682 0.31275567 -0.4344059 0.34768564 -0.63131344 -0.3271513 -0.4904503 -1.0039306 0.9964008 -0.51843244
232 -0.12327316 -0.061239455 -0.31932455 -0.90136105 0.16422579 0.37541395 -1.6121162 -0.8840524 -0.9452225 0.27748767 -0.3124258 -0.6353994 -0.2220564 0.7030402 -0.12458768 -0.044236884 0.5218673 -0.18585029 0.4674719 0.6971333 1.1204407 -0.919236 -0.04019966 0.14942256 0.9732813 0.13104008 -0.61300665 -1.2224294 0.3758612 -0.67066413 0.5387018 -0.047353696 0.76108074 0.40572342 -0.23015822 0.32260498 0.8450914 1.1742029 -0.6957393 0.36150926 -1.7521268 -0.23040064 -0.11759891 0.26199913 -0.80313617 1.2779326 0.18641189 -0.010580728 -0.98711735 0.6190732 -0.29401767 -0.09670282 0.025345044 0.36847398 -1.1523501 1.2347955 -0.19026148 -0.3845533 -0.24236816 0.33535054 0.32946467 0.80876255 0.29080206 0.15697174
377 -0.11511787 -0.36107326 0.017639102 0.24627702 0.1062762 0.10042158 0.14634588 0.04538593 0.2839103 -0.25091097 0.41934043 -0.13620803 0.033352498 0.28222552 0.3088011 0.24249107 -0.2502546 0.028442468 -0.47331092 -0.101046465 -0.070947416 -0.0669433 0.4060147 -0.24482107 0.12779845 -0.16133192 0.13419494 -0.34585586 0.16098404 -0.33522508 -0.19911054 -0.13833898 -0.29111335 0.35525295 -0.71009547 0.038152304 0.20425236 0.5186914 0.55752814 0.7485348 0.28411344 0.31958058 -0.4512328 0.38336426 0.23734987 0.34232157 0.10645327 -0.13175926 -0.35028556 0.29383922 0.4734146 -0.5013165 0.27170384 0.16845617 -0.40373728 0.35774618 0.09599624 0.067199156 0.062484346 0.12654066 0.10705588 0.21693017 0.27949545 0.115715146
228 -0.17939584 -0.13868129 0.29471773 -0.45188978 0.45204163 0.12824626 -0.09312543 -0.041422267 0.40136793 -0.38185957 -0.2353799 -0.21557194 -0.583529 0.1267239 -0.33467248 0.5897066 -0.16300313 -0.29893824 -0.12300189 0.021293582 -0.43303978 0.4841826 0.16663614 -0.071235485 0.10358165 -0.0809665 -0.15754196 -0.31645542 -0.07663693 0.065274306 0.14412726 -0.019479705 -0.30832982 -0.057473328 -0.049205538 -0.31735766 0.048713915 0.057563253 -0.33792487 -0.46147853 0.048260305 0.102048 -0.18286814 0.23690836 -0.048879147 -0.10459921 -0.010241204 -0.33157933 0.11890024 0.16730514 -0.2726691 -0.16746321 0.15823552 0.43181166 -0.16272941 0.27181268 0.21419935 0.36889786 -0.14713895 -0.39130273 -0.15784027 0.51327056 -0.14945753 -0.35585722
354 -0.40714037 -0.2687367 0.7357649 -1.1382973 -0.15919515 0.089191444 0.67729044 -0.0897622 -1.16425 0.35835606 -0.072122164 0.79828423 0.6470241 0.606582 0.68466574 0.044418376 -0.32182327 -0.78600824 -0.8274761 0.9572702 0.015711725 -0.2505248 0.8951653 0.44361565 0.25547978 -0.5167927 -0.1379735 -1.4053823 -1.2789115 0.48226002 -0.57720226 0.3644146 0.38915616 0.8424999 -0.43395293 0.41163507 0.022589069 1.7164656 -0.11983439 -0.4508596 -0.5881477 -1.5352081 -0.47705358 1.6006023 -0.6225525 -0.16013652 0.5307823 -0.019846242 0.8692911 0.44751558 0.79770875 -0.23117223 0.56588745 0.5730694 -1.1965425 0.2946591 -0.46794966 0.2977833 -0.6529358 -0.16091117 -0.4038798 -1.0111412 1.1367383 -0.57039535
30 -0.220538 -0.78370535 0.33572197 -0.061945926 0.2603856 0.546472 -0.24458145 0.1610486 0.6945403 -0.38003844 -0.013630986 0.74124306 0.08340735 0.22473356 0.67586416 -0.5277921 -0.62532705 -0.37923387 -0.40064394 0.119806096 -0.14481953 0.85335976 0.5889495 1.0384929 1.195128 -0.83859193 0.11416713 -0.23349163 -0.00865937 0.3039196 0.18948436 0.12161312 -0.19167405 0.17040978 0.018158874 -0.15836762 0.12377755 -0.05999759 -0.11859404 -0.2638833 -0.15389837 -0.4150801 0.41814202 0.25672197 0.7907047 0.91911364 -0.0873084 0.47538942 -0.30314 -0.7571128 -1.0844328 0.22060719 0.07170704 -0.25827494 -0.4242264 0.49890912 -0.12570775 -0.5044672 0.2850264 0.21481635 0.10803851 0.4420428 0.8084936 0.02026637
303 -0.4005087 -0.39835203 -0.9706014 -0.26234835 0.2553888 -0.74791735 0.106390506 -0.7238991 -0.33121172 0.5813331 3.0173998 0.50509936 0.12490399 0.57474476 0.5974849 0.6026877 -0.41381028 1.0724733 0.11563188 -0.13124692 -0.51700115 0.10386108 0.097060814 0.8175283 1.255388 -0.58605915 -0.7894647 -0.8824221 -1.442695 -0.011985109 0.9158759 0.23677269 -0.04748951 0.6411624 0.5744475 0.20563748 1.2166939 0.24074692 0.58141935 -0.21900398 -0.9734001 -0.61136967 0.71465355 0.9368559 -0.7164428 1.2074038 0.5472508 -0.9825192 -0.115879685 -0.18742971 -0.4721475 -0.21609838 -1.012067 0.81573033 -0.8179258 0.7064995 -0.5796324 0.5185631 0.49865887 -0.7929718 -1.6239179 -0.06425592 -1.2433907 -0.3010715
9 -0.8700233 -0.44536895 -0.48144642 -0.006978538 0.1267083 -0.11000214 0.108957075 -0.06739936 0.41197824 0.66177344 0.8483056 0.5573824 -0.58871824 0.274873 0.8702286 -0.89177704 0.113089524 -0.7525528 -1.5232605 -1.1000535 -0.44296908 0.7999008 0.34161428 1.0107969 0.46098056 -0.15984912 0.029063411 -1.2511029 0.4809914 0.7958125 -0.22667748 0.5042586 -1.0351806 -0.454686 0.21130504 -0.5239894 1.2207934 -0.08373017 -0.89973533 -0.22390907 -0.46336442 -0.2605591 0.67066836 0.20140077 -1.0759572 0.3835133 1.2479126 -0.5268307 -0.16009147 -0.21631543 0.36964294 0.31251273 0.8206017 -0.086928606 -0.4153657 0.225976 -0.37650323 -0.22093797 0.09968517 0.89343226 0.55891526 0.28599483 0.66089904 -0.11147756
414 0.9024481 0.0979866 -0.8055031 0.15703517 -0.23027475 -0.95539635 0.041074026 0.014699049 -0.5079999 -0.56086427 1.1276177 -0.09513124 0.83817863 0.9547808 0.94033355 0.6389362 -0.60127014 0.4594903 0.8083118 0.055328816 -1.2950037 -0.5865834 0.36307314 0.6202704 1.335209 -1.7714492 -1.1292901 -0.53685236 0.12342643 -0.6974866 0.8175621 1.081021 0.011984956 -0.08228445 0.20060727 0.2572548 0.9860667 0.8392963 -0.27124435 0.7274726 -0.26756844 -0.23153065 0.1800122 0.4136068 -0.20770457 -0.8622493 0.8711619 -0.8104285 0.022342775 0.19779599 -0.4669311 0.44203526 -1.0142683 0.6962775 -1.9899071 -0.4225628 0.78135765 -0.13716736 0.96742195 -0.6207137 0.5181929 -0.33693254 -1.0170649 -0.17820206
130 -0.49950093 -0.2645118 0.43460503 -0.2772084 0.49770382 0.24574208 0.15907198 -0.122228764 0.046123493 -0.050604213 -0.24521442 -0.01374264 -0.713702 -0.1863019 -0.2200663 0.7347219 0.15910137 -0.6254114 0.122888245 -0.05177339 -0.28808105 0.36011687 0.5270569 0.22891933 0.23199515 -0.31974238 -0.35545978 -0.16628608 -0.13318813 0.13126966 0.41473657 0.18890773 -0.13850017 -0.44901702 -0.4254106 -0.062835455 0.3632712 0.17604637 0.111672096 -0.41570726 0.0014131431 0.30475852 0.051333636 0.4221052 -0.0028731935 -0.15258875 0.14956719 0.18699531 -0.073238 -0.106575005 -0.4323609 -0.5192579 0.12133602 0.34548622 -0.13549228 -0.1992836 0.21124154 0.14855665 -0.43370765 -0.37669963 -0.13881339 0.5838967 -0.0031346187 -0.0038938706
221 -0.22960058 -0.07459449 -0.28473246 -0.90410274 0.13432409 0.34772116 -1.4272674 -0.9041364 -0.89816177 0.1257561 -0.270774 -0.7334558 -0.2445516 0.6866958 -0.0917496 0.08156938 0.751649 -0.22478671 0.49341193 0.8341708 1.1303711 -0.9611008 0.07439528 0.033269998 0.8904369 -0.032610074 -0.56952846 -1.2344568 0.3638809 -0.69535285 0.354201 0.065002136 0.66323113 0.20951167 -0.024554368 0.31963226 0.6118884 1.1286898 -0.6276171 0.2647332 -1.6036892 0.014349368 -0.295761 0.2329278 -1.0682038 1.3995757 0.05722737 0.031494718 -0.88125336 0.26703945 -0.24608992 -0.11611304 0.14324722 0.33153525 -1.1690357 1.1612782 -0.0725808 -0.58548355 -0.13155438 0.51983565 0.3455915 0.7238153 0.64039 0.21592586
308 -0.35689235 -0.20030834 -1.0553515 -0.5225299 0.3527759 -0.7642165 0.29683074 -0.6163722 -0.24793226 0.65662205 3.2054596 0.44483167 0.06802226 0.6993391 0.5733872 0.46765417 -0.39157495 1.1074206 0.05428474 0.099166825 -0.36717597 0.2291127 0.022522936 0.9625096 1.3763077 -0.60144544 -0.6361935 -1.0087391 -1.4492208 -0.12421247 0.81768143 0.13080533 -0.022846295 0.6776099 0.6946556 0.20877102 1.1047199 0.26209897 0.4281649 -0.095356844 -1.0153747 -0.5292155 0.45956048 0.9691627 -0.9552674 1.0467995 0.6392212 -0.99245876 -0.2017941 -0.3067744 -0.48733252 -0.32258034 -1.057573 0.8774082 -0.8708623 0.648701 -0.49897003 0.385046 0.39634058 -0.9394049 -1.4567444 -0.060937434 -1.1006118 -0.26744026
443 -0.48544413 -0.48763478 0.73045915 -0.46443602 -0.041540287 -0.5852084 0.27720943 -0.16604196 0.1669189 -0.007467522 -0.02880691 -0.021676948 0.24640107 0.27899694 0.9777556 0.32645637 0.60939413 0.52512383 0.1576143 -0.0804389 -0.033718962 0.32275495 -0.9470491 0.08867006 0.367062 -0.8515371 0.27662537 -0.97042805 -0.5412356 0.5109098 -0.065516144 0.6603734 0.2019357 0.6805331 0.08067049 0.007883102 -0.30500293 0.69686884 -0.009691142 0.03419427 -0.18292353 0.2916806 0.046074606 0.12056668 0.015549816 -0.14516573 0.5314346 -0.27624738 -0.445484 -0.38647294 -0.21496204 -0.4624033 0.18165427 0.19246902 -0.5772871 0.24175766 0.09909414 -0.036130752 0.23556328 0.4150829 0.7073412 0.32166982 0.57256883 0.18788931
76 -0.23489216 -0.2949319 -0.0071798707 -0.26130676 0.32358164 0.503837 0.03489277 -0.23101492 0.46201906 0.32472646 -0.27907452 0.3151009 -0.16557463 0.099777386 0.4750278 0.44771722 0.22027962 0.011067154 -0.42896247 0.107751325 -0.15992905 0.27265617 0.15595117 0.12704806 0.43783343 -0.16632295 -0.33307153 -0.03201022 0.091584876 0.6515542 0.05305054 -0.16734684 -0.22066434 0.28698 -0.3922827 -0.2585793 0.4423942 0.43569055 0.22311018 0.14428124 0.48427472 -0.021418488 0.05044395 0.797349 0.31908703 0.2614188 0.13618913 0.41245195 -0.38483682 -0.009541956 -0.51432484 0.79642594 0.26356483 0.3556817 0.0045596054 -0.06287674 0.44698095 -0.100940645 0.1681457 -0.28427446 0.12743527 0.16963628 0.55797935 0.045346897
