500 64
0 -0.099064775 -0.022310056 -0.010677453 0.31052074 0.14990626 -0.100671075 0.07812961 -0.053119346 -0.09111297 0.05416632 0.09791325 -0.13524806 0.08876187 -0.08549377 -0.06351296 -0.08193235 -0.09381331 0.088254645 0.1303779 -0.045213662 -0.024916463 0.15029256 -0.14009558 0.18281883 0.08348476 0.110654965 -0.07915332 -0.18052696 -0.029226454 -0.1429999 -0.06856832 -0.016985778 0.13216329 0.022053089 0.25564745 0.03086802 0.12424166 -0.1453624 -0.15505262 0.09017609 0.031319663 0.10709731 0.17497227 0.07697024 -0.09630905 -0.028065428 0.121836245 -0.0067557325 -0.18473339 0.16262089 -0.045547117 -0.26075917 -0.1324214 0.0493497 -0.21938308 -0.09051654 -0.1958754 0.10950074 0.19003974 0.16229816 0.007819989 -0.18966727 0.086677626 0.0086953435
1 0.13338444 -0.007901591 0.0335473 -0.23447227 -0.004052959 0.019552914 0.008706756 -0.0044784234 0.055790205 0.037152465 -0.0559084 -0.040106155 0.015755748 -0.098007835 0.054563347 0.18723223 -0.15825734 0.1261091 0.14714243 0.29103842 -0.06603241 0.07764166 -0.012535357 0.025714206 -0.010107935 -0.25226688 0.010697772 0.084802054 0.08513541 0.041281074 -0.19378936 -0.17305261 0.048406385 0.123895094 0.12448799 -0.13497305 0.05185384 -0.111883625 0.021815421 0.074909404 -0.20473674 0.12268231 0.28889304 -0.066634394 0.007370515 -0.016444897 -0.02393433 0.11193081 -0.17361286 0.16967347 0.012129382 -0.22128558 -0.24368764 0.090260185 0.08033153 -0.09004148 -0.17971173 0.0887731 -0.057656065 0.189336 0.18487686 -0.1185668 0.115485966 0.019206913
2 -0.14813405 -0.064100906 -0.17515326 0.013619302 0.061783545 -0.08490215 -0.030639544 0.1275042 0.13998076 -0.21333508 0.14600033 -0.18617609 0.031087503 0.02274771 0.06871886 0.17687632 0.00481432 0.049990218 0.28594986 -0.065565184 -0.17615569 0.029379275 -0.2807899 0.14973429 0.17549816 0.070544764 -0.032194227 0.007859783 -0.15287457 0.032536834 -0.0033072256 0.007063537 0.19727255 0.10403874 -0.060086068 -0.16319473 -0.08407148 -0.120767966 -0.116923705 0.056537483 0.020703973 -0.048439898 0.10562471 -0.0007463627 0.030099832 0.021639604 0.12059555 0.08681361 0.05743032 -0.051500127 0.17228915 -0.008589415 -0.06566987 -0.0124096945 0.26337478 -0.21097615 -0.17510559 0.013029459 -0.027422396 0.04148331 -0.08159465 0.05204877 -0.13508621 -0.3198661
3 -0.18009976 -0.05775277 -0.07796147 -0.11267749 0.18770656 0.06826504 -0.05524264 0.012203641 0.028577592 -0.16472371 0.12797368 -0.3335746 0.00797538 0.023067418 0.077939175 0.16035336 -0.07711519 0.09226449 -0.13865495 0.057299387 0.01957137 0.029874122 -0.03439615 0.1867107 0.24991333 -0.12948835 -0.039796494 0.123543076 0.18648846 -0.1379582 0.037716117 -0.07605674 0.06575281 0.024042461 -0.14529282 0.26353398 -0.20373665 0.11123337 0.084320314 0.02646509 -0.04625702 0.023795977 0.30709162 0.0049080327 -0.091989115 0.12617484 -0.17169109 -0.1310153 0.17334086 -0.133699 0.0311121 0.12942445 0.10583693 0.09142009 -0.17439131 0.11239052 -0.11286938 0.037074365 -0.025875961 0.02550671 -0.089648515 -0.028723037 0.06744009 0.026439784
260 -0.057575308 0.17930973 -0.18380558 0.15303928 -0.034900595 0.1037956 0.22392207 0.0029658938 -0.107351735 0.17971258 0.047760747 0.027273467 0.12990846 0.106556214 -0.10320002 -0.12106131 -0.0810567 0.026223112 -0.13183613 -0.06809147 -0.0072252024 -0.13881966 -0.069461755 -0.16293958 -0.15604639 0.2448302 -0.10867375 0.013456272 -0.03799226 -0.09332895 0.06577474 0.029889226 0.030254405 0.10262722 0.29873914 -0.019432826 0.1946234 0.09828857 -0.013190083 0.018099686 0.0672931 0.06629731 -0.19083227 -0.21497269 -0.0020692595 -0.2372746 0.07090931 0.05604819 -0.16238904 -0.17406659 0.070802875 0.005346101 0.19626206 0.19170474 -0.114512496 -0.15131773 0.040439393 0.06916287 0.11068116 0.07106529 -0.16970126 -0.090586305 0.11729205 -0.023766175
5 -0.14578213 -0.047332156 0.38266936 0.01018776 0.19683327 -0.08269397 0.050932784 0.1549888 0.040151037 -0.03249203 0.08440292 0.013162408 -0.076505914 0.12406032 0.18569294 0.035121 -0.05972629 0.04674014 -0.050654765 0.14227536 -0.15098213 -0.026882017 0.1689338 0.22924104 0.06552285 0.041663438 -0.18391767 0.1467098 -0.35899386 0.06347279 0.01575821 -0.16928732 0.08080947 -0.113876045 0.039347846 -0.1118825 -0.116054915 0.22895806 0.049727138 0.032882378 0.037654594 -0.016778143 0.07426174 0.02264547 0.060787603 -0.12608223 -0.09283669 0.08707868 0.20445067 0.07409043 0.058827206 0.077721946 0.024569374 -0.05865276 0.05464667 0.059213966 -0.034461405 -0.10913374 -0.019093541 0.23442386 -0.09708798 0.20049134 0.032974403 0.03878439
6 0.024160106 -0.040666163 0.1644607 -0.11797634 0.19614357 0.065621965 -0.025339348 -0.024929522 0.04775198 -0.15106414 -0.20631911 0.03870404 -0.120375656 0.03463004 -0.19094212 0.09706142 -0.09166706 0.19616431 0.049992613 0.080536045 -0.12232529 -0.06546814 0.013426367 -0.040068455 0.098774604 0.06612797 0.28649652 0.14884032 -0.17699687 -0.3275158 -0.025561858 -0.04633948 -0.2087285 -0.08432752 -0.0028573046 -0.035926662 -0.058695044 0.06365204 -0.07351233 0.033947546 -0.17665014 0.2811548 0.15967967 0.015996018 0.10143298 -0.019177586 -0.11325744 0.05616632 0.10863574 0.0431041 -0.064742126 0.20383105 -0.08120322 0.16015252 0.11064811 0.046060644 -0.27600223 0.0042504845 -0.029463945 -0.03712365 0.09070911 -0.13818498 0.0010922666 0.0700674
7 0.10991811 0.06816014 0.0038495709 -0.07498822 0.063474745 -0.014159137 0.06602958 -0.13319953 -0.14531825 0.07203982 -0.0017815426 0.2243068 0.1813608 0.0940871 0.11772002 0.22759856 -0.12934585 0.11247862 0.20498721 0.11640825 0.12232723 -0.13717037 0.16439515 0.14499605 0.14990199 -0.07297861 0.06523981 -0.14971286 -0.16518874 -0.24535938 -0.056696087 -0.07916606 0.09479768 0.056107976 0.13329417 -0.0793625 0.0019284076 -0.13715613 0.22420351 0.05405468 -0.21692501 -0.04176563 0.22506069 -0.024986675 -0.10138056 0.14134619 0.00063270424 0.02886099 -0.044342935 0.023875866 0.049910977 -0.24087414 -0.09370247 -0.08622029 -0.072893 -0.020729944 -0.041094664 0.02908001 -0.08263004 -0.1337532 0.2464207 0.09729335 -0.16131365 -0.034868997
8 -0.2133629 0.023385203 -0.065841615 -0.09060179 0.20988981 0.032792225 -0.14243704 0.06679626 0.09345279 -0.09390439 0.13150874 -0.12686513 -0.001593088 -0.046724424 0.057364956 -0.1713872 0.0037482076 0.23540267 -0.1202527 0.045972 -0.17757489 -0.01897067 -0.023726664 0.10861385 0.42367262 -0.08084056 0.121311225 -0.044758998 0.000531059 0.1833183 -0.050818585 -0.060366295 0.21024144 0.05826665 0.049398497 0.010380805 -0.29003915 -0.04295779 -0.078005426 0.0059246924 0.056910284 -0.0522951 0.2996105 -0.03512774 -0.17200528 0.01145582 -0.047736112 0.08033452 0.19469413 -0.08129366 -0.0155885685 0.14924467 -0.09123602 -0.008468479 0.01695968 0.028586598 -0.023789564 -0.118267596 0.12822285 0.076581225 0.11626822 0.037341367 -0.14401285 -0.013238179
9 -0.13724858 -0.03128397 0.13287544 -0.033190712 0.08456626 -0.057550598 0.0068682367 -0.20318013 -0.04039627 -0.20631444 -0.007974901 0.10282699 0.16154973 -0.22646558 -0.036443036 0.21173123 -0.034669183 -0.075767376 -0.13938081 0.06406728 -0.1317055 0.16570589 0.16175805 0.09219557 0.33414242 0.18231396 0.071398154 -0.09258284 0.056087602 0.00423831 -0.019531049 0.050375562 0.10605191 0.22978836 -0.10618485 -0.08373192 0.0648737 0.11684318 -0.1235508 -0.11570464 -0.041382015 0.018143913 0.21091025 0.20486747 6.790873e-05 -0.122306615 0.20778051 0.1041937 0.08919888 -0.0840887 -0.015067835 -0.1632266 -0.12721649 -0.0663106 0.10150659 -0.021952294 -0.2678886 -0.04594115 -0.08047845 0.012033415 0.0040154033 -0.09331103 -0.08282646 0.031514682
10 -0.08450959 -0.072696604 -0.19977342 0.064308815 -0.0061759013 0.005190418 -0.13335855 0.04285653 -0.111046135 -0.22088264 0.20820929 -0.20653792 0.05105737 0.10462872 0.07140506 0.049026854 0.031053158 0.14291783 -0.019227667 -0.16531846 -0.24453932 0.07887741 -0.10091072 0.09576545 -0.056050282 -0.17788883 -0.055299766 -0.035960678 -0.06180383 0.076270506 -0.003803842 -0.09499591 0.22746113 0.07964536 0.039183307 -0.33399525 -0.08056865 -0.23293127 0.08197235 0.11833164 -0.06746408 0.15284353 0.07612779 0.029468767 0.12209864 0.14954475 -0.019821877 0.097761706 0.047493454 -0.023096405 0.18313326 -0.032743476 -0.07320582 -0.055528335 0.25210786 -0.10673888 -0.26575738 0.13711096 -0.02349532 -0.015327799 -0.06284719 0.026040135 -0.09549747 -0.06469865
11 0.02188923 -0.1466178 0.30467972 0.1800989 0.10479317 0.0073832716 -0.13812636 -0.004679375 -0.05066934 0.052898392 0.118346356 -0.2191539 0.011216183 -0.10175615 -0.00029984344 0.028638573 0.15646811 -0.09724745 0.2342999 -0.18036588 0.1552704 0.070172966 0.03990079 0.077916265 0.12667312 0.0644623 0.08252051 -0.1751401 0.1444819 -0.17200318 0.016793516 -0.07238569 -0.06076041 -0.024058139 0.07543501 -0.0043252516 0.13335282 -0.15568215 -0.020763049 0.26335913 0.023294697 -0.074429415 0.07492223 -0.07926894 0.021815753 0.10673036 -0.035518713 -0.10116372 -0.07532379 -0.0024669375 -0.066975005 -0.29056287 -0.22910869 -0.011963942 -0.24837635 -0.102977425 -0.022383085 -0.014971155 0.14675748 0.06539411 0.16165861 -0.10116505 0.12065421 0.10988128
12 -0.13547188 -0.10543531 -0.067914955 0.06874111 0.058953725 -0.011395569 -0.32339865 -0.019389201 0.1685973 -0.23665562 0.15394224 -0.22179435 0.1343716 0.057444222 0.09670766 0.20538397 0.07765599 0.09363209 -0.14876102 0.07875012 0.014558226 -0.09997691 0.049518943 0.10278553 0.27414405 -0.1091201 -0.047634017 0.030466298 0.07144259 -0.031321276 0.20827433 -0.039511796 0.025521483 0.05065058 0.019952254 0.08621702 -0.113615036 0.07127398 0.2655227 -0.07144596 0.0036694515 0.03043739 0.18403669 -0.1054076 0.02791544 0.1232102 -0.10429081 -0.2214521 -0.054554634 0.10415527 0.07133682 0.09380499 0.18954313 -0.085446924 -0.16425371 0.21575643 -0.09097409 0.060471438 0.059758317 -0.10565602 -0.09228687 0.019126056 0.05489261 0.07280373
13 -0.17438194 -0.05533693 -0.02898532 -0.12626281 0.022605797 0.28817198 -0.08801217 -0.12855564 0.21396153 -0.019643623 -0.038187455 -0.092197016 -0.029744023 0.16334957 0.027546339 -0.0748041 0.033675697 0.15406007 0.01610036 -0.17397153 -0.018085554 -0.10521088 -0.099314354 0.06063196 0.106305204 -0.14433137 -0.06408373 0.13435918 -0.08114652 0.20991027 0.1854536 -0.28963637 -0.07916281 0.16131769 0.02677814 0.1519969 0.109371446 0.20268902 0.10213624 0.011876041 0.04304685 -0.16224134 0.11170104 0.16550042 0.06576399 0.1473113 0.06736987 0.022166796 0.08028662 0.10645016 -0.16212168 -0.010257867 0.22973187 -0.01887496 -0.13576558 -0.0075378884 -0.1551759 -0.21554157 -0.022753935 0.087109774 0.0029557864 -0.01938468 -0.1765562 0.059225425
14 0.2059034 -0.18292198 -0.07699226 0.03333074 0.14652388 0.039666727 0.11864162 -0.20576756 -0.07562545 -0.07904141 0.10674489 -0.026589723 -0.060782637 -0.15342179 0.08626605 -0.08708053 0.26007143 0.049610198 -0.006093013 -0.034882993 0.2550155 0.02131958 0.16542912 0.17947462 0.20234056 -0.074584134 0.003607555 -0.1115251 -0.018197728 -0.049213044 0.22529519 -0.14501972 0.035483316 0.032283965 -0.18627344 -0.24051885 -0.07660276 -0.06394629 0.08170858 0.22647394 -0.17189956 -0.042000633 0.013836679 -0.009658281 0.11294171 0.013117829 -0.0062398543 0.14686055 -0.16645052 0.08601791 0.0003450514 -0.13158756 -0.09360979 -0.042479496 -0.030907454 -0.12584619 0.13663156 0.18670125 -0.096588686 0.05260838 0.19708788 2.4221272e-05 -0.0040580127 0.1680391
15 -0.10453294 -0.1793003 0.0755562 0.12520322 0.05380443 -0.15387852 0.019712843 -0.026721386 0.019353515 -0.10473804 0.1974448 -0.032499544 0.014119922 -0.11312027 -0.08612562 0.032044377 0.14613698 0.022731077 0.14670987 -0.038148142 0.2310497 0.15759699 0.15346174 -0.018645316 -0.19998704 -0.1269693 -0.010139553 -0.16995296 -0.27540466 -0.10674538 -0.03385843 -0.056152057 0.05859737 0.0023312734 -0.14648739 -0.21628886 0.013919386 -0.16743985 0.081541516 0.20851472 -0.2662905 0.04215619 -0.0881459 0.059044886 -0.15212032 0.010990712 -0.042846452 0.112569 -0.0011555639 -0.071388446 0.07072617 -0.16546677 -0.11202722 0.07152671 -0.064072095 -0.17649363 0.22495434 0.10494077 -0.062941305 -0.113825664 0.1263275 -0.121282905 0.13246433 0.15008017
16 -0.07539918 0.048480134 0.036332283 -0.14894867 0.1260637 -0.029150315 -0.077571094 -0.16812514 0.04008594 -0.008679875 0.22751409 0.033539742 0.1432001 -0.20004556 -0.10771291 0.013773074 0.18304525 0.18166369 -0.049681667 -0.03054662 0.10972392 0.033343345 0.0052089645 0.18331115 0.10178794 -0.09524029 0.002399879 0.14484999 -0.095305815 -0.043499023 0.1667936 0.06348723 0.16204454 -0.05108268 -0.067643225 -0.34778875 0.12642914 -0.25414968 0.08480018 0.16035022 0.016933646 -0.10665174 0.118821435 0.08795231 -0.16843411 0.25303677 -0.1256441 0.08896513 -0.013118555 0.15101175 -0.10703744 -0.12879062 -0.09020839 -0.031873375 0.039423242 -0.1603204 -0.115862 0.13193992 0.025494875 -0.113225594 0.010794186 0.066144645 0.02955139 0.18979041
17 0.07599068 0.119288355 0.081823796 -0.008242055 0.1021044 -0.06972345 0.082204044 -0.11766243 -0.033080764 -0.05249045 0.1957884 0.111279376 -0.090317786 -0.04309537 0.110652134 -0.11668255 -0.012715158 0.1541638 0.100845866 0.12783508 0.11205321 0.10253379 -0.15449528 0.19007377 0.041711077 -0.088691466 0.062327497 -0.2675514 0.10501937 -0.21167468 -0.047312092 0.015918298 0.18590197 0.09640614 -0.1069032 -0.010738363 -0.10073735 -0.2590339 0.16615176 -0.06019389 -0.07067327 -0.10225971 0.10568271 0.060166012 -0.079976395 0.0097624855 0.18285021 0.07210714 -0.041160766 0.3002525 -0.08701231 -0.20264657 -0.10477215 0.11745674 0.10674606 -0.01950676 -0.21858382 0.15404902 0.16877688 0.16306293 0.023146382 -0.07310065 0.013180305 0.14522076
18 -0.028681375 0.015285111 0.06173546 0.035388783 0.087681286 -0.100574575 -0.073910676 0.033014935 0.15362309 0.042302813 0.1308511 -0.12403228 -0.07370468 -0.08724467 -0.04067154 -0.07757324 0.10959248 -0.08410889 0.05950927 0.11244165 0.2394555 -0.09590094 -0.057336092 0.10429528 0.10639416 -0.03627794 0.104142256 -0.1287979 0.014213504 -0.19014677 0.16083613 0.101498745 0.30403727 -0.088563345 0.010160372 -0.15931389 0.16094132 -0.36313444 -0.021588972 -0.15558644 -0.05249759 0.2819976 0.14200877 -0.0498301 -0.084828116 -0.05965509 -0.047945287 0.08660827 0.18961765 -0.20264037 -0.04538375 -0.09923708 0.049322065 0.03431232 -0.012843984 -0.05684961 -0.029996254 0.12635697 -0.077368185 0.24455288 0.07589427 -0.12000719 -0.14793523 0.089535736
19 0.08490427 -0.070742734 -0.053798955 0.064139225 0.062879756 -0.28464177 0.086467795 0.0781553 -0.16392116 -0.073120646 0.16611911 -0.1601499 -0.041893106 -0.15448749 -0.0023019277 -0.038957167 0.107774995 0.18346938 -0.022549257 0.14622127 0.36042252 -0.13142304 0.020391103 0.13739368 0.13614634 -0.21227562 0.14400116 -0.025447236 0.07262176 0.061877947 -0.050336327 -0.26061884 0.017940091 -0.0017433194 -0.0114652375 -0.20704727 0.101151705 0.06754387 -0.053571902 0.2008203 -0.081429705 -0.034561373 0.07355828 0.04116786 0.00091167795 0.066099405 -0.0804764 0.23839906 0.18397564 -0.10969892 -0.12732194 0.070435576 0.117364176 0.10402166 -0.07645318 -0.07970031 0.03167287 0.1760479 -0.09430256 0.019808244 0.09367944 -0.01984184 -0.021301983 0.18100089
20 0.13341159 -0.081392564 0.05443489 0.073237956 0.049888566 -0.048952423 -0.061440308 -0.07069908 0.047097795 0.20113824 0.17873892 0.13217233 -0.103248514 0.008236697 0.056797083 0.08347905 0.07428392 0.21590953 -0.016669264 -0.238149 0.15130275 -0.15387683 0.26781958 0.21242522 0.09625189 0.033629134 0.24716826 -0.054186933 0.09993395 -0.12342532 -0.13084307 -0.1114183 0.09707148 0.17782913 0.052547656 0.08396611 -0.21639705 0.04749904 -0.10327409 0.15262534 -0.19096176 -0.06419849 0.011397266 0.12132046 -0.04341513 0.008206936 0.081428386 0.13607404 -0.22721368 0.09510397 0.08779091 -0.08975534 -0.10944184 -0.13481858 -0.011477232 0.066598095 0.038364496 0.22529183 0.10153211 0.06509649 0.12949929 -0.030653868 -0.08179616 0.1417096
302 -0.117388226 -0.088042304 -0.18420577 0.2810877 -0.1644984 -0.08018609 -0.17251153 -0.050215267 -0.12360803 0.17062253 -0.16782066 -0.16107476 0.062079784 -5.216672e-05 -0.015044911 -0.18382914 -0.09652069 -0.028164025 0.060099266 -0.013969824 -0.007458906 0.025235124 -0.26162198 0.16936791 -0.19414015 0.009336516 -0.086558394 0.11662773 0.031041726 -0.034781758 -0.0806047 0.06149767 0.086186394 -0.11710612 0.1097327 0.132174 0.0015530896 0.051376842 0.1539483 -0.10961708 -0.024988372 0.20433293 -0.15577662 0.052293625 -0.20726591 -0.025147017 0.1693379 0.013443236 -0.0029891378 -0.0010291893 -0.06562666 -0.090498954 0.121612795 -0.11386447 -0.04684355 0.12067376 0.17797732 -0.008756449 0.14550604 0.24118169 -0.037364285 0.034059003 0.223561 -0.16980536
22 -0.1242913 -0.004083723 -0.09161511 -0.09042376 -0.024699166 0.1425224 0.17813803 0.0095094675 0.1080652 -0.17322929 -0.082561605 -0.1430424 -0.16598411 -0.0708948 0.10008819 -0.06169612 -0.11517903 0.17320578 -0.20041317 -0.026658481 -0.03591975 -0.04636593 -0.20533822 0.17684788 -0.025211167 -0.20082586 -0.12559697 0.11959489 -0.21272726 0.29448095 0.1313725 0.016562035 0.12634052 -0.12884516 -0.035480518 0.13893859 0.0063638557 0.16043112 -0.12636356 0.044957705 0.124948144 0.0805273 0.10242739 0.17553383 0.026260348 -0.07806418 -0.12368113 -0.21177591 0.11807475 0.12895668 -0.012277823 0.10076974 0.13806927 -0.02932573 -0.07664772 -0.0013123197 -0.25212005 -0.008674755 -0.14275348 0.094381906 0.016321026 0.1584572 -0.02132416 0.0750175
23 0.00023350622 0.044000767 0.07412211 -0.04692339 0.12686299 0.0029180362 -0.05735943 -0.081637286 0.13565806 0.10177139 0.12815715 -0.07522065 0.09972805 -0.07523958 -0.075233094 0.084906325 -0.03604859 -0.06722906 0.13710433 0.085013 0.11781637 0.063606896 0.15077348 0.056144215 0.12999581 0.1948769 0.23840477 -0.20499603 -0.09902738 -0.18923162 0.27253765 -0.06088627 0.105480626 -0.027179431 0.067134395 0.10866092 -0.17207414 -0.10241876 0.13203412 -0.024529489 0.14352947 -0.0027367717 -0.0053572045 0.047720782 -0.13761444 -0.05194892 0.028807437 0.22577192 0.32128444 0.14028214 -0.27645132 -0.08994762 0.033152614 0.1254007 -0.023782458 0.11885346 -0.12872039 0.08557065 -0.006111018 0.16145216 -0.0641692 0.029048188 -0.20568578 -0.1146147
24 -0.02706687 0.06182559 0.18004146 0.102620184 0.14382312 -0.08526668 0.085875034 -0.09481059 0.16706258 0.14052711 0.2062855 -0.099737026 -0.034441516 0.015729738 -0.056990974 -0.049749345 0.23317629 -0.044770133 -0.036561225 0.17198837 0.19981803 -0.11021365 -0.019291228 0.14239538 0.034655225 -0.024165044 0.0062162527 -0.09824551 0.03002622 -0.18040729 0.05349667 0.060520004 0.2905694 0.14569166 0.07113358 -0.14919613 0.13943844 -0.22203696 -0.16917208 -0.24224953 -0.05427012 0.18699563 0.07507088 -0.0024937128 -0.13134508 0.008256624 -0.0791549 0.108579025 0.17357588 -0.22222707 -0.13278611 0.023996456 -0.15772817 0.088968426 0.095848724 0.0015024912 0.13840595 -0.038190577 0.0014401512 0.11203747 0.029073605 -0.18713461 -0.11162833 -0.015779054
25 -0.004195139 -0.10754213 0.06590563 -0.0777421 0.19869721 -0.21803945 -0.049440525 -0.19980709 -0.005936752 0.00029468906 0.2321916 0.15708967 -0.054353964 -0.23025508 -0.12929939 0.09092229 0.34041822 -0.009372413 0.02065619 0.061247006 0.11714775 -0.09572853 -0.03948184 0.029158095 -0.026888177 -0.0073183537 0.06497303 0.0029967467 -0.113389924 0.014205728 0.13689625 0.031154169 0.077559635 -0.04715934 -0.10886558 -0.23401183 0.043526776 -0.17512886 0.041551687 0.25131154 -0.005119706 -0.0814365 0.13304214 0.03330289 -0.05637491 0.05023794 -0.028304284 0.24324687 0.0019911653 0.07763837 -0.13058202 -0.26879215 -0.17010078 -0.011849197 0.09072212 -0.10095708 0.020303601 0.15605038 0.0054308767 0.11646958 0.23383048 -0.02811106 0.06364306 0.04107317
282 -0.11762574 -0.12734918 0.06341459 0.08156192 -0.002967147 -0.07323818 0.03871911 0.058134776 -0.12199473 0.22648741 0.009515698 -0.018737085 0.08967846 0.20546834 0.08496411 -0.14265706 -0.1336758 0.044698365 0.1456314 -0.03372664 -0.057671383 -0.03535279 -0.037130043 -0.039867513 -0.084871486 0.09311564 -0.17966782 -0.039835013 0.21333379 0.10960304 -0.053304188 0.19340336 -0.22769842 -0.11135485 0.16624498 -0.0021996456 0.059072528 0.15694512 -0.10650539 -0.01754166 0.16693026 0.13144842 -0.1706121 -0.13300748 0.10933825 -0.1589989 0.15902969 0.13186179 -0.042390715 -0.16010818 -0.2882365 0.021484716 -0.30523407 0.1283287 -0.13676879 0.011375307 0.13323937 0.021202074 0.0033385553 -0.079741076 -0.1508711 -0.055385336 -0.10513878 0.05369857
27 0.052217364 -0.048207168 -0.06395475 0.020169046 -0.08832125 -0.015929798 0.030078568 0.0905604 0.05922433 -0.032904334 0.09327836 0.06858399 0.0075886934 -0.028096931 0.05775276 0.1046744 0.22551098 0.15728928 -0.028573694 0.16159244 0.14254116 -0.01860458 0.1489769 0.16157159 0.27797687 -0.007382155 0.056714363 -0.091247246 -0.09848415 -0.13286315 -0.05344998 0.006113695 0.057059735 -0.0058415667 -0.10745858 -0.24002671 -0.037447974 -0.29256132 -0.15075551 0.15190367 -0.233581 -0.06884948 0.16964467 0.18371184 -0.0801611 0.056291368 -0.13028514 -0.041239318 -0.061717767 0.08929938 0.09498542 -0.2154388 0.12767932 -0.0046444577 -0.014251275 -0.2791654 0.11688599 -0.0830996 -0.022090692 -0.030687192 0.053784642 -0.12076889 0.04997181 0.30092975
28 -0.09677635 -0.055002887 0.1235665 -0.06539284 -0.10670954 -0.21300721 0.12691964 -0.04263946 0.045907564 0.03379267 0.095018245 -0.05102591 0.032320395 -0.1308232 -0.038781688 -0.084530145 0.06449888 0.266091 0.024855306 0.06629053 -0.074451506 -0.12627338 0.05405716 0.22865726 0.3509444 -0.11307557 0.123234056 0.08662975 -0.051520515 0.0970079 0.086882524 -0.071126685 -0.040819407 -0.009194925 -0.053213082 -0.24805564 0.04541054 -0.104301795 -0.21342224 0.0005914075 -0.075580016 -0.102961145 0.31386608 0.041129056 0.05044601 0.03351638 0.017850338 -0.029224716 -0.03500122 -0.07050542 -0.019419739 -0.021845324 0.1962349 -0.097482786 0.08092409 -0.11549009 0.019869728 0.111196205 0.056869283 0.11386904 0.2850528 -0.1348326 -0.2144075 0.12817886
29 -0.0897825 0.019040005 0.24112883 0.10864835 0.11948363 -0.2007175 0.06825155 -0.06596475 0.118393496 0.01609576 0.16226201 -0.20935635 0.0066776066 -0.07063242 -0.004288673 0.12562902 0.23393875 0.14011468 -0.03366351 0.112034075 0.093337126 -0.13398045 0.04507051 0.2306684 0.21001184 -0.08761985 0.038084887 -0.19876683 0.075873986 -0.13044536 0.11370728 -0.14251523 0.060465265 0.15696006 0.089644164 -0.206287 0.04167513 -0.15751706 0.050299983 -0.23385218 0.092064925 0.0029067502 0.057747502 0.008736375 0.27153605 0.20626748 0.00017793836 0.103149734 -0.02843315 -0.09723733 -0.129378 0.0032387744 -0.09355942 -0.08620309 0.1212419 0.14902635 0.11567845 -0.06670592 0.01530566 0.012445816 0.13645577 -0.1139956 -0.048794 -0.017385723
30 -0.0045375573 0.037081063 0.20890509 0.060847253 0.031476285 -0.19852306 0.103883706 -0.029675642 0.047409337 0.024821574 0.28532863 -0.11098338 -0.07690583 -0.09010907 -0.00854263 0.02202159 0.21549043 0.015102835 0.022405267 0.16222441 0.0738862 -0.117175505 0.010446837 0.16286343 0.028217278 -0.016680516 0.00087542436 -0.25355694 0.06793191 -0.11392902 0.13017361 0.02375375 0.1376838 0.18687038 0.08027255 -0.16456811 0.11321246 -0.2099028 -0.008181485 -0.2965194 0.0072998013 0.0039892085 0.19585711 0.017955253 -0.05372171 0.11564103 -0.101633266 0.20147708 0.115060076 -0.17346507 -0.12328302 0.13799171 -0.2116927 0.055555064 0.040662583 0.01952796 0.16442391 0.053210575 -0.034698308 0.13266946 0.20478731 -0.051600575 -0.014804107 -0.09500106
32 -0.009104775 0.018684661 0.07181642 0.029867005 0.0047701118 -0.030044792 -0.009867072 -0.16126774 -0.028663263 -0.16275245 0.22152938 0.10331327 -0.10819025 0.053551573 0.064489566 -0.06588739 -0.07012166 -0.06413869 0.10090773 0.083847746 -0.045946874 0.2250111 0.12464566 0.00792697 0.19759075 0.010779335 -0.058109585 -0.121131614 -0.026465485 0.18050472 0.09313823 -0.13086723 0.18607903 0.089680076 0.04510111 -0.04898321 -0.014044556 0.17872946 -0.0053289584 -0.06285366 0.017822668 -0.10067 0.1444524 0.18360062 -0.33168548 0.15955798 -0.24922498 0.16442937 0.23799467 -0.057547227 0.03169052 0.11954661 -0.22153738 0.18169934 -0.040014707 -0.0616427 -0.22077237 0.062070034 -0.10610187 0.17769161 -0.0018856677 -0.045317527 0.087438665 0.06882055
33 -0.23749606 -0.04133864 -0.12981807 -0.027148368 -0.029081758 0.18530448 -0.11727221 0.047607612 0.078431495 -0.20901883 -0.031732544 -0.04573342 0.17677985 0.030444257 0.008505234 0.107164256 0.009154818 0.10892536 0.037623793 0.11605509 -0.10093775 -0.12593947 -0.036658294 0.096599594 0.1524145 -0.1097745 -0.16310428 0.03661088 0.006391119 0.19715424 0.09600993 0.08060829 0.05183053 0.0036238746 0.17800304 0.06540576 0.022816293 0.2257758 0.07037805 0.035931848 0.039466076 -0.033677153 0.22885685 0.17652477 -0.15649523 -0.037538312 -0.04470176 -0.29621172 -0.17012836 0.3503562 0.091284744 0.053940747 0.16624205 0.10385553 -0.04750874 0.11512648 -0.024618903 -0.08171869 -0.05466022 -0.027947906 -0.16365334 0.019711168 -0.2006532 0.037267003
34 -0.22577402 0.025463633 -0.052979156 -0.08560658 -0.13414407 0.17357053 0.10704084 0.08564173 0.11636671 -0.20685318 0.10568599 -0.27012372 0.098480955 0.1992491 0.095335856 -0.035666794 -0.24954772 -0.022470323 -0.020266522 -0.0040388047 -0.12463425 0.07364329 0.15344916 0.070232965 0.22013111 -0.040872972 -0.10375689 0.16714269 -0.12557438 0.10918722 0.10274199 -0.044194624 0.037365347 -0.06564633 0.066109166 -0.13302085 0.0008810403 0.11126334 -0.0012148179 0.03323529 0.07164672 -0.13392681 0.30495572 0.10919078 -0.2620668 0.051739704 0.09374025 -0.14164528 0.1357522 0.12448308 0.024661077 0.020790994 0.110514976 0.042580564 -0.012835065 0.090843424 0.04403432 -0.10946513 -0.19686809 0.014255086 -0.09901872 -0.09501838 -0.13245581 -0.11535997
35 -0.23984489 -0.07032405 -0.13121001 -0.08657603 -0.04169949 0.11894042 -0.09240872 0.05609994 -0.033101924 -0.14950202 -0.10638225 -0.2345249 0.2695456 0.10883051 0.19185786 0.0055951197 -0.122776404 0.177873 -0.017841488 0.017723585 -0.08932847 -0.021555131 0.022035863 0.043292418 0.28152406 -0.12015216 -0.028631818 0.14733155 -0.09517153 0.08485176 0.03503199 0.004138989 -0.0801987 -0.019526195 -0.012188387 -0.1188696 0.14979477 0.21485157 0.07141381 -0.0034079407 0.020967107 -0.056859553 0.2467578 0.062057838 -0.1707546 0.08535751 0.0035838855 0.029938418 0.09980534 0.17695354 -0.035694867 0.06532736 0.14453077 0.066680685 -0.07136949 0.0334547 -0.1703757 -0.11531658 -0.0891811 -0.08989748 -0.10704913 -0.057573617 -0.3100117 0.18465084
36 -0.08720027 -0.14563225 -0.066873826 0.15253869 0.06800768 0.097366326 -0.20068438 -0.079139575 -0.14743456 -0.13875514 0.26786 0.042586904 0.09632478 -0.014815367 0.08629178 -0.056983493 0.055988345 -0.15341307 -0.073809244 0.12229563 -0.13581508 -0.16627939 0.044019468 0.18368034 0.045340016 0.028090965 -0.068561375 0.10075722 0.09089363 -0.25711077 0.014100633 -0.14346236 0.14904815 0.25920624 0.07565125 0.0018231274 0.12023759 -0.07675447 -0.095361695 0.11929648 -0.15833376 0.22122763 -0.123876296 0.042502623 0.05177567 -0.03580613 0.09355527 0.11537763 0.06808201 -0.15713736 -0.08774501 -0.07840832 -0.27127016 0.08955167 0.21824661 -0.03971438 -0.071553245 -0.10504041 -0.009493615 -0.039047163 -0.045512397 -0.011849009 0.18464923 -0.14936878
37 -0.048343945 0.041181203 0.09485358 0.058769744 0.069116235 -0.21774684 0.0009176891 0.0027266438 -0.005878921 0.01355081 0.3096167 0.06029867 0.087202236 -0.2780266 -0.0011264872 0.105933346 0.19071025 0.059214 -0.026491934 0.13150558 0.0903464 -0.09828417 0.08257208 0.078023165 0.19175804 0.08555289 0.14299029 -0.17124 -0.09691241 -0.20994015 0.030594386 0.045945287 0.0077823554 0.0010611919 0.031439446 -0.16302776 0.08147831 -0.20479575 0.0758859 0.03213401 -0.05865669 -0.028595075 0.14788859 0.08818069 0.08211761 0.0441525 -0.027735552 0.13312514 -0.022097377 -0.019927975 -0.30307138 -0.22966549 -0.1162029 0.024717284 0.11359427 -0.06094719 0.16073489 0.19321217 0.029733555 0.08099864 0.28553933 0.1263332 0.044102743 0.07839445
38 -0.039513044 0.0046485234 -0.08860731 0.098924465 0.03484318 0.15126856 -0.0028881412 0.005732263 0.08737106 0.059759643 0.14297612 -0.15105857 -0.2505296 0.07022957 0.009318201 -0.17608006 -0.25596046 -0.15582103 -0.00091612194 -0.26913652 -0.15469079 0.23435037 -0.008277639 0.027758626 0.0052859397 0.009865806 0.010500258 -0.17960806 0.0020918264 0.061289348 -0.08740123 0.2004102 0.26081678 0.13858661 -0.009663599 0.002336568 -0.18553907 -0.049514268 -0.019003158 -0.08342819 -0.034952447 0.042423736 0.06556451 0.0021218094 -0.20326096 -0.05293304 -0.05354197 -0.012719025 0.29352534 0.041839376 -0.19174422 0.039484415 0.040425412 0.27466965 -0.039947834 -0.124689326 0.014462777 0.013497054 -0.0061705424 -0.07186731 -0.08377812 -0.19762021 -0.13234591 -0.042141866
39 -0.11894249 -0.032142743 0.13881329 0.09920486 -0.053736877 -0.025729187 -0.059192356 -0.071145535 0.08696684 0.042314112 0.25765327 -0.10929136 -0.090451196 0.12294297 0.021144966 0.0040175077 0.07531372 -0.10246911 -0.114994965 -0.054075964 -0.20692383 0.026323533 0.19888192 0.12685864 0.13790175 0.0054781926 -0.10936686 -0.016902909 -0.09383779 -0.065047 0.10910319 0.04553216 0.17117073 0.20541121 0.16351141 -0.23259689 -0.16986386 -0.16953483 0.040811747 -0.16382018 -0.25378162 0.024417493 0.2618959 0.11697169 -0.14911683 0.10686951 -0.16081524 -0.025925055 0.03156694 -0.28725925 -0.10301538 -0.037610173 -0.1680597 -0.07584488 0.0190456 -0.04499498 0.02410436 -0.022655508 0.018041926 0.06636041 0.09519659 -0.21681784 0.051448934 -0.0023448956
40 -0.041012492 -0.19398636 0.19489253 -0.048213348 0.02916409 -0.07125914 0.047168233 -0.16475025 0.19483313 0.028077211 0.299162 -0.02256011 -0.0662573 0.07707845 -0.021777004 -0.07800074 0.11477181 0.019030323 -0.017999416 -0.050413344 -0.018460272 0.016842952 0.12911801 0.056496385 -0.00072336907 -0.022851814 0.10990233 -0.08812932 0.043691207 -0.11388408 0.060535923 0.05946635 0.17939772 0.2093192 0.13652049 -0.1675281 -0.027133843 -0.048954874 -0.10135925 -0.024333648 0.03160365 -0.059233095 0.22612135 -0.0023856077 -0.20152247 0.12990415 -0.110794194 0.20419131 0.3045627 -0.1664075 -0.2234274 0.089579426 -0.16969955 0.004154474 0.03892625 -0.16333583 0.06722647 -0.12043465 -0.07685786 0.13489254 0.12288985 -0.21608482 -0.097781084 -0.08011198
41 -0.12068217 0.058129165 0.103530996 -0.103206865 0.1530663 -0.16684754 -0.1709005 -0.05876808 0.04182043 0.09023038 0.24834359 -0.007334843 -0.075616285 -0.057515 -0.022910042 0.07625357 0.25754842 0.021452185 0.016135098 0.105911344 0.1734504 -0.15264426 0.080062024 0.065299146 0.0071278987 -0.071075775 0.14581743 -0.17572112 -0.0067036096 -0.12546834 0.13296996 0.03116211 0.19023381 -0.018676853 0.03708628 -0.15561844 0.0015044062 -0.07122765 -0.24754414 0.012961999 -0.024238568 -0.070606045 0.06041145 -0.1501591 -0.049889557 0.21288884 -0.10469403 0.21236841 0.038295683 -0.16219077 -0.028507505 -0.05884874 -0.2749806 -0.13519791 0.09941287 -0.16557956 -0.21333998 0.0032639555 0.06574412 0.062588535 0.12223778 -0.19110739 -0.029786812 0.1487066
42 -0.17486101 -0.10229664 -0.04134832 -0.089491695 -0.10675689 0.13257857 -0.11775949 -0.05533812 0.042838484 -0.092860386 -0.055626545 -0.1900226 0.3267178 0.124947585 0.012735232 0.13578674 -0.091777906 0.19321828 0.062085778 -0.014913407 -0.08233025 -0.08510725 0.18074057 0.082001045 0.2514535 -0.1409519 -0.101189695 0.19648138 -0.07145213 0.0402591 0.044981655 0.04053017 -0.075978376 -0.055646833 0.07871091 -0.05691052 0.031149037 0.17635366 0.037600018 -0.029251803 -0.05541957 -0.1587081 0.2614897 0.11463151 -0.17427048 0.049642473 -0.089905776 -0.12807126 -0.08225484 0.04033595 0.03405185 0.1282155 0.06104336 -0.06110713 -0.048663873 0.25245765 -0.22155374 -0.05711545 -0.06586753 -0.09366942 -0.2210769 0.019889567 -0.14253445 0.113124296
43 -0.1591658 0.004061764 0.042418044 0.10375692 0.013105652 0.12340013 -0.2031422 0.12729236 0.09926971 -0.2548803 -0.09787636 -0.10576771 0.20788726 0.054256044 0.047811642 0.041594975 -0.12604521 0.012655597 -0.062350806 -0.051277064 -0.23540653 0.08434654 -0.018945782 0.0021809612 0.14110488 -0.011311229 0.00947404 0.0029801796 0.009911979 0.17538212 -0.040582303 -0.03606664 -0.13467203 -0.06085021 0.08522171 -0.018521812 0.000113984075 0.19231081 0.047385354 0.16421588 0.0109040635 0.13235638 0.3400849 0.09346848 -0.16246195 -0.1149695 -0.033551704 -0.21959557 -0.038817257 0.311982 0.14381687 0.12980908 0.08658513 0.15908499 0.080868416 0.03603629 -0.06219363 -0.114579305 -0.10992007 -0.06724989 -0.21334746 -0.06504631 -0.113117814 -0.06526147
44 -0.10874582 0.06940622 0.047822848 -0.0022086012 0.17957143 -0.12981562 -0.2804093 0.02559284 0.07044574 0.056575343 0.25040674 -0.10076658 0.07404528 -0.18801405 0.065624185 0.14800964 0.15497732 -0.021383202 0.07214383 0.11821789 0.11288957 -0.021047829 0.14197627 0.085923314 0.0354406 0.07244575 0.058075637 -0.13598897 -0.05834913 -0.07575832 0.1639609 -0.07649052 0.13082325 -0.019524656 0.07355904 -0.033180762 -0.17478897 -0.2177904 0.025080433 -0.00990202 0.02447271 0.08228743 0.002229459 0.20357053 -0.08321575 0.05429432 -0.14467026 0.26048374 0.07641442 -0.26210392 -0.17932199 -0.19447999 -0.16726686 0.008073232 0.19607355 0.04491919 -0.0069327913 0.07753889 -0.16784354 0.20531751 0.06838515 -0.062117316 0.0088936845 -0.042112526
45 -0.119692095 0.06112496 -0.069208995 0.1444804 0.023659114 0.10311771 0.01342622 0.10816266 -0.16198726 0.04111513 -0.009455666 -0.11463181 -0.14528665 0.11784014 -0.030712863 -0.09953012 -0.1417578 -0.1161225 -0.2753034 -0.25543928 -0.2656676 0.2042675 -0.037824642 -0.045633413 0.006025779 -0.103023835 0.022691133 -0.13577534 -0.103054784 0.08082899 -0.3055028 0.1155117 0.10687003 0.015762735 0.19190218 0.02827915 -0.104233555 -0.06725653 -0.20260859 -0.2867742 -0.13197431 0.09312879 -0.19017856 -0.056340635 -0.09433937 -0.008596162 -0.06847374 0.01998853 -0.040488042 0.0987491 -0.15608548 -0.051288843 -0.10390989 -0.09401832 -0.023303969 -0.020754868 0.038692683 0.18013084 0.08284073 -0.14573485 -0.10058888 0.016118929 0.017844744 0.05590375
46 -0.100588344 -0.044621084 0.075827666 0.05237585 0.19388327 -0.20090964 -0.086139925 0.08061173 -0.09398146 -0.0762018 0.163527 -0.06803232 -0.011310137 -0.18174684 -0.10168157 0.07662122 0.20258814 0.032691937 0.06501246 0.08677619 0.19123499 -0.11423995 0.21990605 0.121721886 0.12647127 -0.11651261 0.20763831 -0.065212145 -0.02419994 -0.2644422 0.0024115662 -0.095804274 0.2454699 0.023536993 -0.06768623 -0.12611169 -0.08747544 0.011472937 -0.0907759 0.12836222 -0.052956183 -0.005219411 0.044458605 -0.0040565305 0.007676346 0.008521002 0.124599986 0.32481146 0.1439909 -0.24419488 -0.031635974 -0.026700834 -0.23224236 0.022926 0.095190376 -0.086550586 -0.0979056 -0.08884025 -0.047028977 0.18722686 -0.07265997 -0.052308112 0.10262071 0.051799048
47 -0.103565656 -0.050682765 -0.07119944 0.025339661 0.22442931 0.07602676 0.11026848 0.07038311 -0.08182469 0.06446064 0.0523614 -0.13235916 -0.1373877 -0.013895611 0.16461171 -0.095661655 -0.22172278 0.029148985 -0.20093663 -0.051792987 -0.15018228 0.15375954 -0.06824734 -0.0071431077 0.17387691 -0.12747355 -0.024787422 0.053662896 -0.05513544 0.14103879 -0.19543733 0.13277666 0.30059287 -0.056387737 0.012806101 -0.034985214 0.005882444 0.04659331 -0.24969156 -0.092921734 0.016348302 0.1623419 0.14494137 -0.026606979 -0.11764242 0.19801393 -0.1284724 0.068619296 0.2587052 0.03138415 -0.13228449 0.15374975 -0.084094994 0.16913678 -0.062030934 -0.21524648 -0.20676716 -0.01674039 0.009750855 0.011684462 -0.027557466 -0.112106934 -0.078301415 0.015914515
48 -0.048074536 0.083279334 0.040103476 -0.060800854 0.075314276 0.21401678 0.21150838 0.011980853 -0.037057586 -0.074344285 -0.02380684 -0.14711241 -0.15082192 0.160207 0.10542684 -0.10868968 0.003735381 -0.15428063 -0.10149147 -0.0041209687 -0.097236015 0.21047303 -0.18522869 0.0011626226 0.15511653 -0.06775364 0.16542046 -0.12579243 -0.04654441 0.21781172 -0.10941459 0.014908036 0.21095255 -0.11752986 -0.09240085 0.19091867 -0.1499233 0.04404051 -0.13406113 -0.19991337 -0.016780984 0.18319899 0.059799828 0.065153025 -0.14035016 0.008649732 0.048964806 -0.030825108 0.16240469 0.29404178 -0.01850185 -0.043478884 -0.06865237 0.2458936 0.03267673 0.16074096 -0.05915184 0.13237183 0.13160808 -0.023401925 -0.15353502 0.045094058 -0.06384086 -0.081477225
49 -0.047538795 0.1621833 0.020194042 -0.01746686 0.2725948 -0.05325849 -0.027705804 -0.022080349 0.06411615 -0.044373922 -0.027302878 -0.0046258667 -0.024421174 -0.021554949 0.14296602 -0.10497081 -0.19122137 -0.038897254 -0.18398318 -0.023530904 -0.17632122 0.037596844 0.027353117 -0.014857884 -0.002990641 -0.17955442 -0.017022343 -0.014828987 0.03967723 0.025568144 -0.16720906 0.11278359 0.2694294 -0.026053052 0.12805992 -0.011426621 -0.12256755 0.062482703 -0.121827446 -0.10075835 -0.10451588 0.20847195 0.16809553 -0.047748286 -0.10148822 0.17052017 -0.16918863 0.055763837 0.2844319 0.03310704 -0.08692487 0.1571734 -0.1676538 0.0099869445 0.013035067 -0.18984497 -0.34010327 0.055599496 0.028886028 -0.15306099 0.033827644 -0.14043905 -0.18848881 -0.059084542
50 0.014224541 -0.12074825 0.17138341 -0.029580658 0.13470662 -0.22032341 0.052765403 -0.053890403 0.121776044 0.11203978 0.10192836 0.050127544 -0.034554154 -0.19434796 -0.16560039 -0.1180731 0.13444558 0.028416658 0.071473464 0.1847024 0.14070827 -0.21839182 0.099849075 0.1298165 0.22121747 -0.07869604 0.29148552 -0.10541369 -0.07585747 -0.13062905 0.028671319 0.036576863 0.01539366 0.009945686 -0.027450057 -0.17842762 0.0033457698 -0.06857115 -0.1928345 -0.069039784 0.10865673 -0.12145512 0.1945026 -0.1825614 -0.117821045 -0.11729172 0.10839313 0.21978164 0.052258145 -0.01194185 -0.1778685 -0.029208312 0.06881897 -0.095096156 0.080198966 0.0082009975 0.09718109 -0.009236087 0.2177217 0.09125382 0.19639593 0.007859904 -0.08315534 -0.043842655
51 -0.11506556 0.13400418 0.0049902806 -0.10664937 0.12431068 -0.16383119 -0.21453275 0.017055292 0.17923568 -0.2436813 0.050685443 -0.08105989 -0.028481416 -0.05325237 -0.11467863 0.070916 0.16611767 0.15551193 0.11005311 0.27953857 0.16710374 -0.011255827 0.108471476 0.09401761 0.0072274776 0.07671252 0.2638547 -0.16618516 -0.16896383 -0.28847745 -0.031577166 -0.053893153 0.24745266 -0.0012956138 0.015316252 0.041176654 -0.17951155 0.12824538 0.0806324 -0.018445674 -0.039848406 0.11098803 -0.045725364 -0.054379653 -0.054542802 0.02949272 0.008355682 0.27410093 0.100492164 -0.114511974 0.022801768 -0.10408352 -0.20183158 -0.08610571 0.0682232 -0.13220164 0.04726779 0.010264899 -0.05636104 0.081381544 0.0059350776 0.04527263 0.02053608 -0.024896367
52 -0.15385799 -0.052578487 0.0053656003 -0.1477032 -0.12342617 0.22159413 0.09236047 0.11000663 0.04147493 -0.19253778 -0.14681536 -0.1858138 0.15395983 0.08524188 -0.11397225 -0.011119142 -0.06767767 0.07684509 -0.0018523097 -0.05337627 -0.10109942 0.047432955 0.16280887 -0.018045424 0.08396665 -0.08058674 -0.09328024 0.18061458 -0.1463873 0.1645035 -0.041506507 0.01036465 -0.05545441 -0.078334 0.13337873 0.0005070998 0.17954692 0.08606601 -0.26581258 0.17018433 0.06935936 -0.065897316 0.40549183 -0.002339969 -0.10948145 -0.1165373 0.054250784 -0.104896694 -0.041443177 0.11946986 0.03300232 0.12006377 0.023280857 0.029456975 0.0839111 0.02790544 -0.078500286 -0.16103818 -0.2254529 0.07973274 -0.059526805 -0.12184013 -0.14973056 -0.14067
53 0.026979683 -0.08871442 0.101694874 -0.069453865 0.029106745 -0.0958611 0.20462734 -0.015176626 0.19285716 0.06073837 0.2054582 0.110106654 -0.011952716 -0.13851717 -0.1336953 -0.10941453 0.13494463 0.03608092 0.25310987 0.19976987 0.20254336 -0.120670326 0.14067969 -0.07529252 0.042335264 0.178363 -0.10103554 0.007879471 0.0061595174 -0.016826654 0.023095215 -0.048802804 0.051907156 -0.027905429 0.09894018 -0.16959862 0.13326265 -0.0917857 -0.082356595 -0.037915796 -0.08583008 -0.0016892886 0.10835736 0.06247382 -0.1847089 -0.071740896 -0.2986888 0.106750205 0.19321045 -0.109326415 -0.11329136 0.03973216 -0.009256906 -0.07977308 -0.10202923 -0.09095629 0.21374863 0.22708142 0.17651445 -0.028863093 0.18335909 -0.14670195 0.06676788 0.105205856
54 -0.028873142 0.0007327993 0.17729962 -0.0041990224 0.0028177937 -0.089297794 -0.0139009245 -0.13477054 0.04301515 0.08712046 0.24282597 -0.08853721 -0.107391074 7.63982e-05 0.060507182 0.098645665 0.17893289 -0.12665796 0.0069224243 0.035108496 -0.018229729 -0.09090393 -0.12081248 0.084081806 -0.07596344 -0.09708966 -0.056196477 -0.16012661 -0.107344545 -0.16934842 0.06758535 0.078805044 -0.004966476 0.13355924 0.10013911 -0.15616661 0.08913877 -0.24922135 0.12986211 0.063283496 -0.16437086 0.14726247 0.0066156937 0.15631805 0.02449921 0.06702986 -0.15932982 0.035222046 -0.10609532 -0.29139897 -0.040666435 -0.21466772 -0.30534506 -0.091563374 0.062219605 -0.082906514 0.045837298 -0.22335744 -0.08711293 -0.14783756 0.21236773 -0.14699869 0.018506048 -0.11299247
55 -0.15112765 0.06380727 0.06876862 -0.12912175 0.058755223 -0.019143939 0.12011974 -0.14187592 0.108274944 0.020702444 -0.12155384 0.07554264 0.08922542 -0.07841585 -0.19888552 0.14297679 -0.1807217 0.09465697 -0.0016646722 0.04758067 -0.1893454 0.026439423 -0.01955707 0.18717791 0.06580208 -0.15982616 -0.018402081 0.040888622 0.022219978 0.23887868 0.12918518 -0.10080794 -0.06669615 -0.069023326 0.08375462 -0.13892329 -0.06056866 0.039271 -0.12188065 -0.08666222 -0.006837638 0.18699428 -0.1322419 -0.08121707 -0.030081837 0.08119196 0.009771506 -0.19713616 -0.3392752 -0.15110563 0.004792114 0.0101324 0.272577 -0.09188102 -0.22549474 -0.107616 -0.04373137 -0.048673004 -0.024188861 -0.06377087 -0.24767059 0.07567565 0.06587447 -0.20539929
56 0.10665792 -0.07847188 0.17879684 0.0014704876 -0.13945004 -0.12062715 0.12772138 -0.1306644 -0.08579781 0.049291547 0.17695065 -0.09523001 -0.17029047 -0.13176687 0.0803506 -0.039527852 0.15978375 -0.14475335 0.06988632 -0.053359758 0.14540704 -0.18555705 -0.17589428 0.18800884 0.08046046 -0.21977216 0.15114252 0.019127065 -0.051877778 -0.06509743 0.09925881 0.06465373 0.05730458 0.07728583 0.09630982 -0.2112739 0.2550374 -0.102792494 -0.07999226 0.08811963 -0.1496939 0.09317657 0.045375705 -0.16365325 0.017891167 -0.037468366 0.23473226 0.13305871 -0.010900065 -0.10053978 -0.11447884 0.09871728 -0.002909372 -0.0900578 0.0683187 -0.12243901 0.22715838 0.16821948 0.115465194 0.074517034 0.19472846 -0.13569644 -0.003645243 0.012341033
60 -0.15056755 0.008412178 0.15951951 0.032769497 0.07300355 -0.13012126 -0.13167128 0.09754032 0.060105976 0.014758417 0.19582927 -0.109224275 -0.13041072 -0.13040413 0.01041637 0.16552575 0.19026335 0.2040102 0.17602246 0.23382686 0.21489544 -0.12929517 0.1731496 0.11810214 -0.009543942 -0.0026033174 0.09239763 -0.14504811 -0.09012515 -0.18570533 0.1510052 -0.1461125 0.24923117 0.018001609 -0.01695637 -0.15566395 0.021740736 -0.15910514 -0.095111646 -0.21222596 -0.08262287 0.1455104 -0.007322701 0.038370274 -0.019249104 -0.057988215 0.10726703 0.16988933 0.14063948 -0.21955226 0.052545898 0.0019654268 -0.049750406 0.04600466 0.122870505 0.08096771 0.11101688 0.14954008 -0.10515047 0.0747332 -0.030807463 -0.038709138 0.004518017 0.08949027
61 0.17889981 -0.038688198 -0.096361466 -0.23807251 -0.015334669 -0.110174954 -0.06737487 0.089766055 0.06145395 0.001495467 0.15452306 0.17242101 -0.04689522 -0.17635766 -0.11062823 -0.21400093 -0.01228906 0.08613635 0.17464098 -0.017690094 0.16569766 -0.13487622 0.017841693 0.043082878 0.27635556 0.08110911 0.19264302 -0.0038667324 -0.09981571 0.005674807 -0.040410765 0.04034926 -0.25454676 -0.19060104 -0.06335542 -0.06210795 -0.032452747 -0.20627978 -0.06376344 0.2054128 -0.035873055 -0.07195626 0.055111114 0.0151201645 0.015308425 -0.1363254 0.07193176 0.08391733 0.12158636 -0.061293025 -0.037342757 -0.09957859 0.19147533 -0.06519255 -0.05463636 -0.08824402 0.15460926 0.25855935 0.21239047 0.07969685 0.20732285 -0.029581102 0.00060937874 0.008166744
62 -0.043592755 0.069208056 -0.01843512 -0.053952985 0.18018115 -0.05483979 -0.4096775 -0.06195392 0.10597393 0.0699217 0.110431015 -0.05367732 0.017380718 -0.1117353 -0.11899114 0.19413349 0.081258126 0.041838355 0.10207754 0.035293974 0.13597436 -0.042269357 0.12500104 0.036264244 0.060140498 0.09558659 0.20012641 -0.23549403 -0.028430821 -0.18483347 0.20960526 0.042692963 0.17961428 0.10784541 0.13153358 -0.09901742 -0.16507515 -0.22464205 0.14502738 0.15334821 -0.10641346 0.12850796 -0.00057570497 0.085545495 -0.019430945 -0.019223478 0.030761441 0.12940352 0.115532376 -0.1810421 -0.014851462 -0.22851475 -0.116330534 -0.07883323 0.15063342 -0.02912496 -0.10296099 -0.02747142 -0.053820956 0.055111118 -0.09892218 -0.15427928 0.018806918 0.030366365
63 -0.05333357 0.08790251 0.03157297 -0.012204521 0.083389804 0.050822027 0.022119183 0.29537645 0.044590034 0.033496745 -0.06818302 -0.27891657 0.036220185 0.05442032 0.10501942 -0.25805852 -0.19490448 -0.080430515 -0.16899127 -0.16212006 -0.20970663 -0.03984187 -0.2573368 0.11047175 0.07126274 -0.15541226 -0.0037045202 -0.11314219 -0.056074105 0.2877121 -0.2569531 0.18487541 0.2079535 -0.028069295 -0.03190943 -0.015879717 -0.24666023 0.11430868 -0.04750986 -0.053920016 -0.011449351 0.040340487 -0.05152181 -0.05875841 0.06378045 -0.10151325 -0.14715162 -0.0730454 0.029758036 0.112389125 0.003142192 0.11742602 0.031469658 0.0021063378 -0.0948398 -0.095353924 -0.120040245 0.04615709 -0.0041731778 -0.08479783 -0.09895214 0.10726129 -0.0567065 -0.06194916
64 -0.11469081 -0.014942136 -0.025826346 -0.15393983 0.09195309 -0.09547472 -0.15014505 -0.015288232 -0.11593036 0.09392326 0.25244486 -0.02472887 -0.03294461 -0.13101183 -0.014082254 0.06072468 0.089451656 0.016492622 0.12034809 0.0075044543 0.089198776 -0.0065478166 -0.13760516 0.011698719 0.18403275 -0.10037074 0.065545335 -0.06970835 -0.14563498 0.12336079 -0.02235783 0.075295866 -0.17826933 -0.011389034 -0.112862855 -0.026267609 0.15995224 -0.11954428 -0.121638395 0.19119228 -0.16991803 -0.05707713 -0.045752797 -0.06543011 0.14647773 0.05558261 0.20111158 0.06853272 -0.11893224 -0.24783555 0.16974361 -0.17173696 -0.12365354 -0.18339162 0.073058724 -0.09834407 -0.015991757 0.11375156 0.124659926 0.14883953 0.18630074 -0.24699351 0.03672879 0.2776355
65 -0.04766937 0.13627718 -0.024609985 -0.113528736 0.13827063 0.03259725 -0.2007874 -0.014928851 0.049691405 -0.07812145 0.09093829 0.17910467 0.025834966 -0.11168257 0.022615924 -0.052125707 0.041459277 0.1789856 0.06665817 0.11545848 -0.083133355 -0.1805218 0.012638228 0.06482461 -0.002091362 0.051616687 0.14551844 0.028754663 -0.20243633 0.03145654 -0.14919324 -0.09162051 0.23994507 -0.17776212 0.07442217 -0.079244845 -0.13168141 0.15804856 -0.100614995 0.0010404002 0.23119844 0.06431987 0.08226101 0.063542165 -0.04241446 -0.04807202 -0.01966411 0.3569879 0.11753963 0.050097078 0.104163185 0.048487242 -0.09661794 -0.13230085 0.01731869 -0.08051656 -0.32711345 0.07574792 0.17241508 0.10007196 -0.09684062 0.25087044 0.07232836 0.005171946
66 -0.11353456 -0.12720029 -0.030294199 0.0212046 -0.04929936 0.15410307 0.16300885 -0.01382181 0.11791272 -0.25420249 -0.012741028 -0.06086336 -0.20295085 -0.049342662 0.009826475 -0.1199645 -0.3039134 0.032259386 -0.21558987 -0.069956556 -0.26597327 0.21661662 0.024866197 -0.0113307275 0.169975 -0.026210146 -0.08566506 0.032479748 -0.024553454 0.06981376 -0.18842158 0.04984009 0.19537489 0.02722034 -0.0058920425 0.12133002 -0.12663236 0.005171617 -0.2120106 0.016800486 0.14199024 0.08048612 0.069201484 -0.024164945 -0.2018455 0.061667707 -0.06318811 0.0351243 0.12205845 0.09031904 -0.12195928 0.14806661 -0.28314683 0.14265878 0.03598701 -0.025383044 -0.2340557 -0.058269896 0.021376451 -0.058075525 -0.046636645 0.031039884 0.083588675 -0.017420994
67 0.08669527 -0.035538845 -0.0068224804 -0.01071467 0.009543624 0.00538618 -0.12487521 -0.15439194 0.18096176 0.13882317 0.21774586 -0.042031646 -0.035018764 0.0005215686 0.052521218 0.011064996 -0.07544556 -0.13567308 0.03955481 -0.12423662 -0.006671624 0.025333527 0.13802567 0.0113203535 -0.048901092 0.08714372 0.06641949 -0.18934217 -0.02080594 -0.0695238 0.08523823 0.05963649 0.28624937 0.20530228 0.031602338 -0.12313363 -0.18126538 -0.30317384 0.077657655 0.09385342 -0.15569745 0.007311598 0.15231809 0.16687973 -0.10149691 -0.029677399 -0.20205082 0.06126981 0.16448444 -0.117456555 -0.093317285 -0.28815293 -0.14384732 -0.037826557 0.079163685 -0.07924906 -0.0957518 -0.26456326 0.043222085 -0.036841884 -0.024404312 -0.23404309 -0.052199025 0.013855145
68 -0.09773085 -0.10758807 -0.031255856 0.080901384 0.03526937 0.12628978 0.14106895 -0.00023197847 0.0898254 -0.1555783 0.043963533 -0.009321498 -0.14724457 0.052465346 -0.11744134 -0.14138965 -0.1523594 0.02705964 -0.22523353 -0.033893336 -0.30747733 0.24785437 0.036696933 0.049433295 0.08704305 0.008023176 -0.042242195 0.060964357 -0.008160063 0.22139475 -0.15395404 0.0100622 0.09991774 0.019623315 -0.03540632 0.05835647 -0.10738909 0.083217666 -0.2124661 -0.029787447 0.18351714 0.28477415 0.14831938 0.12565869 -0.21605203 0.09239801 0.016128996 -0.041126184 0.11617674 0.15523842 -0.06499354 -0.030446922 -0.10046442 0.19150347 0.10043357 -0.19128229 -0.22932822 0.076801084 0.022682864 -0.029860383 -0.10724677 0.047326326 0.1016464 -0.10357166
69 -0.100955985 -0.0023722332 -0.14799407 -0.03402988 0.12746735 0.18081418 0.046901733 0.08814179 0.058440708 -0.23711002 0.03341772 -0.28483206 -0.02860726 0.04724 0.24100056 0.0015077834 -0.06372501 0.1416215 -0.118603006 0.14204225 -0.2428352 0.005923839 -0.1225875 0.0811088 0.19067147 -0.1687373 -0.15721092 0.091373846 -0.020140298 0.24214298 -0.0077930535 0.00884406 0.17906445 -0.026677372 0.006489089 0.16227885 -0.12804219 0.08990173 -0.051262297 -0.12152146 -0.032099824 0.042132564 0.2956431 0.01629057 -0.0027253283 -0.04324753 0.04890387 -0.17403206 -0.12731126 0.23796655 0.011482262 0.06340489 0.03798304 0.09525024 -0.0695655 0.1245494 -0.18335508 -0.03784069 0.041576475 0.083910674 -0.0549862 0.054852664 -0.15355335 -0.03782457
70 0.11474614 0.022893392 0.041973114 -0.062371258 -0.019545704 -0.13169949 -0.04487958 -0.1018022 0.08062136 0.22379835 0.28198764 0.17426294 -0.14456277 -0.0077177663 -0.012018854 -0.064860635 0.12496502 0.100683644 0.26602936 0.07948469 0.19898348 0.02961355 0.12647162 0.020237043 -0.018443592 -0.030158412 -0.008710009 -0.21670796 -0.10271701 -0.09005938 0.07188289 0.074455656 0.0032628602 -0.13512324 0.08032059 -0.11794023 0.080778316 -0.24195068 0.055047475 -0.13130853 -0.16626401 -0.047193985 -0.00221744 0.041247144 -0.31069982 0.018148404 -0.1464247 -0.032615826 0.050669983 -0.0230164 -0.014061983 -0.17305937 -0.17519942 -0.026898673 -0.23029077 -0.001042565 0.13741 0.089029476 0.10297311 0.13648403 0.19102545 -0.07687972 0.069064915 0.1599175
71 0.20382673 -0.19980451 -0.101771474 -0.10209006 -0.029561333 -0.13250946 0.04792246 0.0011801403 0.10553033 -0.0046360185 0.13799909 0.23563394 -0.12450669 -0.135641 -0.064238295 -0.19035177 -0.12893067 0.033946715 0.10813551 0.016046843 0.1576164 -0.13135651 -0.02902616 -0.0307343 0.12316107 0.014676076 0.050169222 -0.01825725 -0.074603565 0.04383018 -0.121403664 -0.023316272 -0.21392684 -0.21207751 -0.08152189 -0.10040085 0.086588 -0.17600508 -0.04323874 0.021662047 -0.14698224 -0.098220006 0.1357221 0.032477386 -0.068058 -0.1058305 -0.029004935 0.005807848 -0.011195691 0.056380518 -0.0143332975 -0.090804145 0.116309576 -0.066687934 -0.12491514 0.014372122 0.26218385 0.22134739 0.26655978 -0.16145615 0.2980684 0.0029492623 0.18408449 0.059737876
73 -0.02610792 -0.043763574 -0.095601134 -0.14735018 0.10192159 -0.19597994 -0.037750445 0.004716981 -0.21332967 -0.09700451 0.05760147 0.0066865524 -0.043229263 -0.041320566 -0.038688082 0.27337286 0.06485059 0.22519459 0.12273412 -0.07881089 0.034721196 0.11374601 -0.18525073 0.050144214 0.13043283 -0.08235194 0.16964497 -0.011851385 -0.12845102 0.03926005 -0.014488322 0.045807835 -0.09776563 0.0260836 -0.1418927 -0.09365192 0.137958 -0.14899904 0.09220977 0.19001871 -0.07887123 -0.019643772 -0.012643431 0.07811946 0.18020499 -0.039716747 0.11255978 0.087061174 -0.10441199 0.0038871497 0.04984807 -0.21480298 -0.074524656 -0.11084722 0.0762381 -0.3427895 -0.021631887 0.23739071 0.18436325 0.029131785 0.09969673 -0.094388485 0.07277595 0.26329935
75 0.1546761 -0.014578208 -0.060063116 -0.23310521 -0.04110673 -0.08679097 0.04143235 -0.0024118659 0.24795656 0.071265005 0.18599735 0.30947962 -0.062205818 -0.18840146 -0.07205093 -0.16742288 -0.002369542 0.003048234 0.094652474 0.0072131115 0.19868332 -0.06112304 -0.049066734 0.03373831 0.17630525 -0.046718247 0.008299233 -0.016475717 -0.022778232 0.07769105 -0.02044027 0.041427918 -0.15978537 -0.17692472 -0.091509715 -0.11585705 0.09700493 -0.17917103 -0.06241311 0.188755 -0.18020068 -0.047201935 0.022978885 0.05640745 -0.13386884 -0.10233288 0.08072876 -0.015420995 -0.018036176 0.03245307 -0.030481528 -0.071517 0.16263188 -0.12792471 -0.0641077 -0.09294264 0.19830067 0.19221355 0.30414206 -0.012232331 0.21342723 -0.112737 0.035615247 0.12130324
76 -0.06418113 -0.014891015 -0.10088617 -0.06306431 0.16271463 -0.10796007 -0.029752538 0.10215534 0.0014619688 -0.027317705 0.13261694 0.0638278 -0.11412803 0.068020724 -0.031119421 0.20060612 0.14756483 0.021301009 0.26369247 -0.1061435 0.27139565 -0.019354513 -0.11893483 0.033079393 -0.06470642 -0.12788656 -0.035411384 -0.10816973 -0.02166523 0.0069257286 0.030151555 0.037610207 -0.011438129 -0.06801814 -0.06251459 -0.109155454 0.13379323 -0.18030696 -0.09210235 0.20808104 -0.09356862 -0.040179163 -0.021102805 -0.032475356 0.009088334 0.041789945 0.1981061 -0.026030233 0.023227759 -0.062655345 0.115299955 -0.14474751 -0.058274064 -0.18808131 -0.04375631 -0.29498136 -0.065709166 0.17796168 0.16365209 0.18949021 0.015547375 -0.16428909 0.112562574 0.37517723
77 0.022011014 -0.0883857 -0.057487357 0.2085282 -0.095917754 0.083831325 0.091489114 -0.06098799 -0.07300551 0.016948286 0.16284701 0.06113744 -0.1339159 0.010419667 0.10852644 0.06335689 -0.20394707 0.013078333 0.02204846 -0.33953097 -0.121679366 0.12304009 0.20790455 -0.04442661 -0.03864734 0.35564297 -0.020432573 -0.046504594 0.015905155 0.059445262 -0.06341797 -0.083686136 0.102570884 0.24486068 0.09914762 -0.036534153 -0.25096756 0.03651183 0.029950997 0.11213299 -0.034912508 0.036890037 0.077195846 -0.05112858 -0.18208422 0.083482035 0.06258599 0.002221605 0.14958255 -0.044563018 -0.32264832 -0.056884818 -0.117925294 -0.046544734 0.038279273 -0.09000599 -0.12288611 -0.05880208 0.2250653 -0.044662796 -0.06898241 -0.08555485 -0.009870973 -0.11616489
78 -0.079495 0.088704005 0.11130517 -0.09193525 0.13288148 -0.09370669 -0.13233508 0.026324488 -0.11926627 -0.09508821 0.11309157 -0.024601774 -0.020634988 -0.22663377 -0.17864381 0.20378171 0.17868888 0.033273146 0.26084968 -0.046820827 0.16240145 0.03881541 0.11220568 -0.06525264 -0.027592016 0.09345447 0.14560856 -0.21373324 -0.07473501 -0.16838196 0.14456798 -0.07684649 0.062773 -0.012806511 -0.121828794 -0.14853705 -0.10260779 -0.16669872 -0.064541936 0.20585102 -0.01440489 0.020975187 -0.06497739 -0.03992039 0.05315767 -0.02292172 0.21418683 0.11636565 -0.01476031 0.0142533155 -0.08484295 -0.27475104 -0.024471736 0.0010751404 0.12899387 -0.16312018 -0.2171623 0.23804963 0.0074300487 0.15571211 -0.06234156 -0.047068425 0.08733616 0.096968725
80 0.13107994 -0.05438128 -0.12106337 -0.123142004 -0.030002818 -0.13296229 0.008640633 0.008461991 0.12777506 0.14904231 0.19647373 0.29201177 -0.11227183 -0.11013995 -0.06929336 -0.14700405 -0.10848935 -0.002663524 0.018143618 -0.034465946 0.23052548 -0.07947659 0.012450679 0.083816364 0.14409323 -0.06089762 0.050469074 -0.008412763 -0.10061141 0.07794417 -0.207522 -0.022876116 -0.112686895 -0.13932231 -0.1293287 -0.093266234 0.1834733 -0.087573 -0.11623442 0.23510957 -0.088132545 -0.08789609 -0.0058288723 -0.015085091 0.018988762 -0.123169184 0.106335 0.023053039 -0.0897081 0.04235502 -0.06527404 -0.17494 0.108556405 -0.1023724 -0.14391561 -0.091170624 0.18724331 0.2127771 0.25690657 -0.07987152 0.23850246 0.020322632 0.08530082 0.16397469
81 -0.090950966 -0.108307905 0.06285071 0.058629043 0.123959 0.115613826 0.28301358 -0.014004783 0.07026654 -0.22317061 0.016599415 -0.10055574 -0.14713584 -0.046009157 -0.03390498 -0.1375092 -0.2639369 0.045459136 -0.16127442 -0.021379856 -0.16092333 0.2429567 -0.15548973 0.019911708 0.10817426 -0.014317443 -0.058351055 -0.071033105 0.04525377 0.1313751 -0.057246976 -0.06279963 0.056946788 0.008042361 -0.2811825 0.10402345 -0.20648484 -0.0022946082 -0.09573992 0.03908359 0.07352036 0.09276388 0.21372972 0.12216838 -0.013943086 0.07336845 0.0029899927 -0.038606625 0.16974786 0.03869689 0.118927784 0.09435455 -0.13150215 0.30353788 0.044373214 -0.04230049 -0.1867937 -0.011659538 0.027652316 0.064351894 -0.14547919 0.06363138 0.108721904 -0.16828564
83 0.11015286 -0.078920834 0.03412447 0.1719074 0.044750355 -0.1443013 0.32132456 -0.19112502 0.07538861 -0.016252324 0.14649238 -0.15313573 -0.042323764 -0.03440365 -0.06678131 -0.19417888 0.07364025 -0.013012662 0.10770923 0.0012078825 0.22133864 -0.08070309 -0.083984986 0.07713257 -0.091849364 -0.053435527 0.06219277 -0.1056472 0.06887202 -0.04287655 0.04529203 0.13936251 0.04770137 0.17241216 0.08106242 -0.19494474 0.26253304 -0.04682247 0.09491343 -0.12341552 0.06846028 0.042175744 0.0116457185 0.056222655 -0.041474808 -0.20308341 -0.07749784 0.07131954 0.10829015 -0.05431305 -0.25086164 0.14992744 -0.05417568 0.11461954 -0.12766027 0.11591821 0.3064121 0.17283472 -0.012775744 0.05792746 0.16763449 -0.10801801 0.021675006 -0.055504918
84 -0.053926576 0.31096295 -0.12627953 -0.11369406 0.09562507 -0.035580285 -0.1285869 -0.037980292 0.053331617 -0.044538766 0.115967736 0.16801158 0.06713336 -0.14737491 -0.26964685 0.120070614 -0.08176239 0.12871067 0.15895268 0.048959143 0.07828629 -0.11846756 0.02137483 -0.107602276 -0.05846677 0.17593205 0.11195352 -0.026241941 -0.123170204 -0.30375683 0.072656915 0.094917245 0.12957458 -0.010861083 0.07654587 0.18168364 -0.062240858 0.028210955 -0.0745913 0.026307961 0.016388431 0.120150626 -0.005682955 0.1227936 -0.0357432 -0.09923564 0.2581157 0.28403834 -0.07604803 0.078381605 -0.082071476 -0.090266146 -0.11023983 -0.13511072 0.13142647 0.052795097 -0.16243342 0.13713787 -0.051380843 0.09904465 -0.07668681 0.10750665 0.14804325 -0.04031065
85 0.038067617 0.20744167 -0.10382783 -0.016133273 0.11408723 -0.009744656 -0.09906717 0.09097434 0.052450467 -0.15092726 -0.010882503 0.1642192 0.028303541 -0.057062846 -0.058151882 0.042272765 -0.11683494 -0.0498047 0.020325603 0.2645688 -0.18418294 -0.0821933 -0.0525035 0.09663463 -0.17241661 0.078556925 0.0565188 -0.048898824 -0.2178623 0.008079106 0.08594121 -0.05924482 0.20306006 -0.044687156 0.060236137 -0.068204425 -0.0767448 0.1667861 0.063273184 0.07608112 0.08274282 0.11536312 0.07776523 0.108255245 0.15455389 0.00059235183 -0.098931305 0.22620721 0.04528759 0.18471645 -0.10720077 -0.11289329 -0.11100823 0.048866116 0.10094612 -0.1275249 -0.40296727 0.007506664 0.011123112 0.05686202 -0.10123551 0.3181714 0.122496836 -0.02408498
86 -0.030457882 0.1656755 -0.032965653 0.030049456 -0.01744245 0.0728786 0.0049009114 0.03679027 -0.14307112 -0.012064945 0.08451873 0.033550084 0.009668577 0.06581075 0.10988056 0.22563098 -0.037814856 -0.0643382 0.18522163 -0.028167605 0.01291934 0.12240762 -0.14002661 0.049367297 -0.12846123 -0.15010567 -0.16213721 -0.020027198 -0.115712374 -0.07472506 -0.15879661 0.10533961 0.0048943856 -0.044281855 -0.00097494543 -0.017181855 0.17464708 -0.2465293 0.053080782 0.10062222 -0.07093821 -0.067304544 0.018867098 -0.05595147 0.053691722 0.37247872 0.11750957 -0.035124406 -0.1691213 0.055746246 -0.0542097 -0.25454664 -0.16997081 -0.068668656 0.0009710192 -0.2602588 -0.041935485 -0.0019201416 0.25827602 -0.08679993 0.10658439 0.07511106 0.18372011 0.25242415
87 -0.061751444 -0.0094491355 -0.18584512 -0.13861763 0.0415735 -0.034536816 -0.18451522 0.053818118 -0.16833384 0.11863871 0.29211554 0.11436051 0.010146189 0.06403968 -0.07818884 0.15169412 0.09629916 -0.050390765 0.17895834 -0.24760517 0.13415663 -0.17643903 -0.05066289 0.07590359 -0.052567437 0.03220813 -0.055475317 -0.12300564 -0.14658348 0.064616956 0.037959628 0.050284155 0.022264473 -0.10141158 -0.070834994 -0.09486015 0.07869916 -0.20764387 -0.17061643 0.29401466 -0.07310991 -0.03265885 0.037791878 0.065157816 0.12715466 0.124507084 0.12324476 -0.08750466 -0.10336839 -0.022407949 0.11548966 -0.2276996 -0.107039124 -0.15412004 0.027968964 -0.20331568 -0.09490537 0.08997001 0.08971774 0.08613251 0.07306269 -0.012628101 0.19249177 0.17030007
89 0.032961167 0.060954597 -0.13651809 -0.12533858 -0.05892646 0.053951126 -0.11865259 0.026908698 -0.1003515 -0.024509825 0.13794427 0.116199344 -0.05487971 0.1005569 0.0052223243 0.19807956 0.0886636 -0.07023275 0.2702828 -0.04236815 0.10533881 0.02623822 -0.030303301 0.120512135 -0.08772672 -0.021657431 -0.019510671 -0.02910704 -0.091532074 0.036726046 -0.01901095 0.053219274 -0.0047820015 -0.22653647 -0.061195835 -0.1259588 0.061072137 -0.081611246 -0.17377912 0.24483675 0.033841357 -0.2387676 0.04568381 -0.075987495 0.10585283 0.24581844 0.03343037 0.15319885 -0.14171033 0.06698831 0.123889305 -0.08063689 -0.12753211 -0.108628154 -0.101842344 -0.22882847 -0.11454132 0.119849086 0.23454918 0.017526474 0.07974113 -0.16311571 0.14119923 0.31662017
90 -0.14737561 -0.08242573 -0.01883556 0.03096234 0.19396001 -0.015540712 -0.14266011 0.03301109 -0.14292595 -0.0052129473 0.12624465 0.21208489 0.060349215 -0.031740922 -0.033942636 0.19881605 0.20934999 0.005868512 -0.03045993 -0.04187411 -0.07981817 -0.18778063 0.061176494 0.040378004 0.20290494 0.09378727 0.1378068 -0.023041574 -0.064811714 -0.059538543 0.16373314 0.06612938 -0.047832 -0.018531153 -0.07489166 -0.06834394 0.018525496 -0.093916774 0.006558695 0.20179057 -0.051084734 0.07711025 0.0403912 0.04405928 0.20940998 0.089841664 0.13463818 0.07619435 -0.040344536 -0.039741676 0.054632735 -0.35902578 -0.26338276 -0.20766412 0.073989116 -0.18469724 -0.21639462 0.23295607 0.08739966 0.0021325033 0.018216074 -0.0018533538 0.088249594 0.1653656
91 0.06345074 0.00081948546 0.10448616 0.19066763 -0.07320252 -0.113957204 -0.081385136 0.14843729 0.0058055297 -0.20717362 0.057583638 -0.086223625 0.04881523 -0.24613044 -0.11218776 -0.02808341 -0.3768281 -0.09701136 0.106868364 0.06033162 -0.31981042 0.11219963 0.032101043 -0.0578783 -0.08678509 0.23608631 -0.0567415 -0.07227057 -0.016518572 -0.023917569 -0.03285867 -0.11260854 0.025698736 0.13992687 -0.0065475963 0.013852323 -0.024818635 0.11133475 -0.036330014 0.02213823 -0.049488764 0.29559085 0.08289531 -0.043963164 0.021343144 -0.07578984 -0.012649287 0.17807232 0.15059468 0.16596606 -0.06625881 -0.0045436416 -0.18840215 0.22530183 0.058621045 -0.09194102 -0.13647288 0.009535636 0.023752782 0.19083129 -0.10582943 -0.040518146 0.028467497 -0.07415997
92 0.05868728 -0.14818121 -0.18894924 0.2761962 -0.054823063 -0.03809405 -0.09482978 0.020740582 0.015524191 -0.020956192 0.11333349 -0.12580568 -0.018457023 0.117154226 -0.1207439 -0.1938755 -0.20497596 -0.1636835 0.12231886 -0.1809506 -0.018171504 -0.007344453 -0.26075754 0.028107652 -0.13573109 0.050864052 -0.025408765 -0.07447056 0.060208477 -0.20931979 0.06902497 0.088775486 0.17800666 0.09944711 0.07284699 -0.0051648617 0.21252482 -0.20113856 -0.020900786 0.10850467 0.066212535 0.10510169 -0.11180837 -0.01110507 0.030027734 -0.026437845 0.19990739 -0.062449247 0.1966487 0.05982836 -0.2485719 -0.0003380633 0.14306818 -0.0735263 -0.05529582 -0.013500067 -0.11171994 -0.013237904 0.015177469 0.099562414 -0.23713872 -0.20574428 0.062890455 -0.058698937
93 0.23494011 -0.12994516 -0.1247824 0.029381184 0.04678994 -0.007004461 -0.045161016 0.11712389 0.053848896 0.09220826 0.17101233 0.13047798 0.03240694 -0.018536268 0.076318815 -0.12298133 -0.22427744 0.074322656 0.22809915 0.042186987 0.12282503 -0.01246974 0.12256318 0.0028708396 0.21863629 -0.025415272 -0.10418269 -0.1410383 0.003623509 0.07673552 -0.15113439 -0.01821064 -0.20119996 -0.19605309 -0.12003467 -0.012567435 0.014730072 -0.14376754 0.06067512 0.112155594 -0.27707735 -0.054494057 -0.065160885 0.15142244 -0.036525223 -0.034394626 0.047761943 -0.023226436 -0.10070372 0.09403416 0.08933519 -0.13955417 0.12810434 -0.055658024 -0.15228178 -0.018976508 0.27786765 0.1943426 0.095608324 -0.018509518 0.2551767 -0.058861494 0.16027428 0.11910691
94 0.08306406 -0.032741733 -0.17471965 -0.228709 0.026661793 -0.04127688 -0.08833399 0.015222749 -0.056814212 0.0012313884 0.1883212 0.16812786 -0.09603385 -0.19988409 0.04592823 0.0021325715 0.008791569 0.16781928 0.11250351 0.029348135 0.22287223 -0.0038095918 0.030015212 0.008512125 -0.04642372 -0.011393146 -0.010574589 -0.14255828 -0.12624972 -0.07807143 -0.27416483 0.063365765 -0.19024478 -0.10411351 -0.13402204 -0.114910685 0.06946775 -0.091762885 0.0023913314 0.10629188 -0.2323154 -0.116796084 0.0010100126 0.0024552818 0.10098592 0.038605854 0.09840027 0.055487446 -0.076058544 0.2045688 -0.17905834 0.005715185 0.06712481 -0.021910185 -0.03931079 0.07374955 0.1489488 0.26459014 0.034008693 -0.05911188 0.1178737 -0.061149463 0.37695515 0.14508595
95 0.1957034 0.02082375 -0.19838007 -0.20932232 -0.015976315 -0.047943357 -0.032557815 -0.10513735 0.08120921 0.07685648 0.10270699 0.3247418 -0.09805563 -0.24522354 -0.061355695 -0.06149669 -0.058435645 0.16319863 0.083921604 0.080943555 0.14449522 -0.20761122 -0.052682202 0.010211556 0.0024719324 0.0051221154 -0.11568368 0.03928524 -0.11802934 -0.058656257 -0.057936594 0.08586027 -0.15062317 -0.2752119 -0.11406783 -0.027030613 0.13197647 -0.15711528 -0.0104524605 0.040295236 -0.17799538 -0.039700877 0.00062291743 -0.020420058 -0.16222711 0.051951967 0.05779586 -0.029486164 -0.0034733799 0.14315276 -0.028695138 0.012072366 0.09542553 -0.14651442 -0.07036223 -0.002788777 0.045973703 0.22974694 0.25349915 -0.121584445 0.22421835 -0.079246745 0.13274898 0.12660888
96 -0.10005236 0.20106933 0.17141974 0.091804676 0.043427747 0.06527776 -0.045329303 -0.009629248 -0.019231355 0.08259154 -0.1335974 -0.03610153 -0.056923594 0.26209313 -0.07615629 -0.0022937355 -0.11562187 -0.10797237 0.13312057 -0.21502024 -0.10220625 -0.06481009 -0.17516194 0.12026758 0.053009942 -0.016641496 0.006047994 0.12330778 -0.1543749 -0.19852827 0.1578196 -0.052315407 0.03897835 0.049720213 0.31306064 -0.117763855 0.11167575 -0.13046789 -0.028597176 0.055398908 -0.20837136 0.3141562 -0.025697405 -0.10204967 0.06612149 0.110525936 0.008319789 0.034428768 -0.054785002 -0.18436915 0.010279207 0.065588824 0.10371702 -0.16513048 0.006157473 -0.012848533 0.03688976 -0.073507726 0.02017266 -0.22456422 -0.10469475 -0.12594292 0.06171732 -0.230745
98 -0.018028986 -0.02225669 0.09864968 0.1337755 -0.008600155 -0.07291932 0.107288 0.025071358 0.06627479 0.065405354 0.00029827052 -0.17498794 0.01013866 0.16724724 -0.016069273 -0.06925462 0.111004874 -0.1627094 0.060472634 -0.0024800303 0.05250031 -0.15404777 -0.43420556 0.26543793 0.10794492 0.0084821265 -0.1473965 -0.15436833 0.13008097 -0.21013425 0.030235117 0.07990916 0.106399104 0.22978954 0.07368022 -0.16881806 0.28107458 -0.15071481 -0.084499486 -0.06910713 -0.05702448 0.08757074 -0.0015915274 -0.072573364 0.039189123 -0.0046552 0.21708307 -0.09413049 -0.07426993 0.028123885 0.025447043 0.107731104 -0.10439102 -0.070877254 0.034659512 0.09291905 0.108854435 -0.12761612 0.089280725 -0.055642616 -0.07129149 -0.15879531 0.04416037 -0.16376834
100 -0.03415506 -0.061666925 -0.15402673 -0.14739756 0.14343932 -0.12264685 -0.07724302 0.04217201 -0.12458854 0.046250325 0.13796757 0.018999657 -0.08484 0.015766911 -0.022220558 0.1108915 0.13115601 0.041798 0.27032095 -0.1411652 0.13594887 -0.00060186133 -0.16716874 0.07507912 -0.07437107 -0.090655826 -0.15265822 0.0147908265 -0.10468669 0.18668145 -0.087162144 -0.043155033 -0.023143144 -0.14795645 -0.12814818 -0.13644823 -0.01728029 -0.19955657 -0.09540827 0.3474046 -0.13294078 -0.06997309 0.013190349 0.04072516 -0.03492133 -0.022101333 0.07085257 0.026165107 -0.016863743 0.11057419 0.1021962 -0.19603336 0.009935195 -0.049051277 0.015132683 -0.1853665 -0.028936466 0.22199485 0.0919897 0.0020380116 0.20534539 -0.061073337 0.33724102 0.1283731
102 -0.037758578 0.114519775 -0.042866804 -0.21727094 0.07238447 0.048584323 -0.24950813 -0.15879646 -0.2314454 0.0469135 0.15118244 0.15014808 0.024070961 -0.11996467 -0.07441638 0.10761221 0.02949928 -0.010624464 0.099468954 -0.09191682 -0.0331638 -0.110455774 0.07915305 0.0038395529 0.12086115 0.033592965 0.04389476 -0.043984786 0.09378034 -0.13934852 0.19122048 -0.17913598 0.14151026 0.055068884 0.04913115 0.0883195 -0.013432826 -0.07953795 0.07084023 0.23643847 -0.04587023 -0.028938664 -0.059286937 -0.048622414 0.0030413307 -0.032687 0.22427589 0.07539546 -0.12552157 0.12331933 -0.079024054 -0.3098147 -0.3270774 0.042780537 0.062046185 -0.0029997057 -0.10239743 0.17729189 0.21799226 0.11369804 -0.09080689 0.042449027 0.072758585 0.15021476
103 0.11333633 0.13001907 0.20312263 0.046557218 0.009954754 -0.11724659 0.18233708 -0.041644476 -0.23235111 -0.11376845 0.18422966 0.03319807 -0.024770439 -0.051520567 0.15388799 0.0406254 -0.20110789 0.070059694 0.1742504 -0.018705048 0.11192292 0.059127208 0.0034896918 -0.04579403 -0.09653071 0.098202094 -0.20271143 -0.16238189 0.15611926 -0.001473988 -0.026250936 -0.02996693 -0.13869521 0.08999354 0.067003675 -0.06628844 0.2866145 -0.07243315 0.18436041 0.091411375 0.006531738 -0.046939354 0.07512099 -0.09682867 -0.13659477 0.15343073 -0.10046914 -0.013077872 -0.09644176 0.12871794 -0.07396439 0.075752534 -0.17443658 -0.074162096 -0.2328827 -0.1494039 0.019959658 0.24139835 0.13522035 0.055714022 0.03888286 0.07316716 0.124242656 0.2307169
106 -0.027392454 -0.11566026 -0.0027585225 0.07652351 0.07215211 0.01290333 -0.123929635 -0.074008934 0.047035698 0.11740136 0.035220668 -0.030077236 -0.04138732 0.051813938 0.092683166 0.020695869 -0.0495656 -0.28052408 0.18701713 0.0025608288 -0.116435945 -0.062885955 -0.21854457 -0.08693796 -0.16745198 -0.08975688 -0.120376505 0.015980816 0.25976714 -0.01718697 0.03709759 0.016470138 0.30113396 0.04969744 -0.07094727 0.0022156232 0.09516678 -0.33090737 0.04360472 0.25100031 -0.08422831 0.16066782 -0.012682902 -0.13295902 -0.006906327 -0.11978027 0.09284285 -0.08891102 -0.0045363395 0.08265084 -0.05202608 -0.1509581 -0.024201022 -0.16054723 0.14444411 -0.07882877 -0.18024294 -0.14184429 0.01878129 0.08830247 -0.0016777326 -0.13064075 0.09815404 -0.27649882
109 -0.13445048 -0.099677436 -0.099828586 -0.074338496 0.06593973 0.12542994 -0.07251013 0.11218289 0.16991577 -0.13177632 -0.16569231 -0.35361075 0.13784857 0.04832977 0.066611424 0.07575771 -0.14604001 0.15833452 -0.0011105094 0.073580235 -0.23818934 -0.057290882 -0.09462921 0.13441417 0.0002920781 -0.08023619 -0.21647833 0.08122832 -0.06929414 0.17188036 -0.028364949 -0.059732977 -0.044522613 0.15878005 0.09822722 0.0705688 -0.06776692 0.1750877 0.078627095 0.049914103 0.037767228 0.17187668 0.32896513 0.016267529 0.06576611 -0.10564771 -0.17917345 -0.07080215 -0.20192716 0.26717675 0.05152784 0.09302239 0.11746059 0.06076933 -0.08052143 0.03248725 -0.042790405 -0.023771983 -0.02609042 0.04378477 0.008624513 0.035838466 -0.007936669 -0.13472892
110 0.244078 -0.0035118742 -0.23520859 0.025892146 0.009233697 0.031491928 0.062406763 0.02857658 0.09639146 0.14373398 0.11443416 0.10554198 -0.055568844 -0.06947456 0.19527154 0.032467324 -0.19579032 0.037149053 0.14364497 0.0457399 0.21909642 -0.0011563184 0.076862335 0.074494116 0.117198065 -0.07889268 -0.20725667 -0.1913091 0.0318552 0.044110075 -0.23071158 -0.11234019 -0.21828145 -0.045493945 0.02186949 0.087422155 -0.0363082 -0.027985863 -0.114941075 0.11974624 -0.16211164 -0.121561795 -0.07309445 -0.050880015 0.14390983 0.15661527 0.041754026 -0.042451803 -0.0960736 0.15481058 0.04439912 -0.03973347 -0.035830624 -0.052864634 -0.10402728 -0.008399961 0.2961915 0.15818061 0.1403343 -0.018530255 0.2067126 -0.018077536 0.2485025 0.11200583
111 -0.08799622 0.18278193 0.17446394 -0.0056278617 0.07059876 -0.05491011 0.066109404 -0.14344837 -0.08760478 0.1264459 0.055826377 -0.052476827 0.064759515 -0.07667064 0.120025836 0.05875289 0.074487045 0.053010803 0.15887018 0.14135565 0.08647334 -0.030099014 -0.09104281 0.18616474 -0.003405041 0.08079376 -0.014345171 -0.20496294 0.17135023 -0.13974091 0.15280032 0.03943462 -0.09878897 0.03270578 0.11406315 -0.17311706 0.16995166 -0.2968239 0.11416022 -0.1938299 0.21954124 -0.014034268 0.00302038 0.04214169 -0.01676378 0.13611314 -0.034909192 -0.017407825 -0.10980149 0.041001756 -0.29094148 -0.24078533 -0.17485672 0.14667971 0.036947884 0.16197237 0.22609375 0.05118037 0.035611227 -0.0018071092 0.12758455 0.07467147 -0.055235963 0.05134414
275 -0.029249135 -0.14806281 -0.22579975 0.16038175 0.019336946 0.0060302806 -0.097810544 0.05124353 -0.051112995 -0.045287 -0.21996015 0.12447345 0.19196554 0.09841496 0.0017510814 -0.20847698 -0.097145006 -0.087689415 -0.13229902 -0.08487265 -0.020491775 -0.03643096 0.010040462 0.19748347 -0.14392337 0.20084275 -0.11844809 0.09787109 0.064710155 -0.026828839 -0.008356266 -0.0055298787 -0.050962213 -0.13754183 0.16610336 0.35259852 0.20025356 -0.22512624 -0.036829486 0.018729135 0.077222265 0.12860207 -0.15247881 -0.101504155 0.06125748 -0.20655288 0.092545345 0.13974515 -0.07933483 -0.029700512 0.08117397 0.09701015 -0.211257 0.03639861 -0.012129028 -0.0462794 0.08264717 -0.11357074 0.074179284 0.014024556 -0.10613062 -0.015993237 0.09024424 -0.20981784
116 0.0011330293 -0.20260301 0.0074027563 0.20749289 0.12451227 0.004525455 0.015380252 -0.1254688 -0.20180258 0.038277935 -0.00037982978 -0.09614264 0.036454946 -0.042511195 0.012638187 0.010161142 -0.16088355 -0.10677509 0.34207764 -0.20821106 -0.10192221 0.17106514 -0.017051144 -0.07394675 0.005810853 -0.06187763 -0.11604597 -0.006711782 -0.07718643 0.093157 0.0051835626 -0.08214422 -0.036770158 0.16603182 0.024765303 -0.0957447 0.18088162 0.066194825 -0.08759451 0.19428878 -0.04741136 0.13858365 -0.1603365 0.03243251 0.061472833 0.12535787 -0.018685415 -0.09922503 0.0051504252 -0.15971628 0.12286479 -0.30719674 -0.2257502 -0.009704159 0.107269 -0.13963032 -0.14595813 0.023965998 -0.12165075 0.060216468 -0.15536584 -0.0037560835 0.2446373 0.08469393
117 0.13380548 0.21288538 0.026474128 -0.052492317 0.01664984 -0.04663306 0.010437498 -0.16091944 -0.19258076 0.10502946 0.05272669 0.1994918 0.022104928 0.014638812 -0.07008712 0.2915859 -0.16684096 0.1520458 0.21817073 0.09686403 0.072068974 -0.032494187 0.116075486 -0.06943336 0.019576719 0.18838482 0.02247866 -0.035538692 0.04178805 -0.21935031 -0.031073326 -0.09434036 0.07442046 0.025511453 0.07309287 0.23792186 -0.026963968 0.11717141 0.07362405 -0.1117885 -0.010886427 -0.0005050375 0.07018281 0.0749438 0.122708924 -0.10777379 0.1392073 -0.04986681 0.045862403 0.23953152 -0.080465816 -0.0297719 -0.0124450065 0.054949354 0.08508209 0.27926955 -0.24139883 0.2786811 0.15871088 -0.100826204 0.01090569 0.014538171 -0.0055328337 -0.08412145
118 0.117951825 -0.07200705 -0.0548439 -0.06518104 -0.04268073 0.09645258 -0.14136937 -0.05420545 -0.2338453 0.3026692 -0.09410381 0.12310157 -0.045185436 0.023723094 -0.08679808 -0.03851691 -0.12505221 -0.0736155 0.26179552 -0.061719395 0.009334189 -0.0050773206 0.03502805 0.051109344 -0.03848867 0.012371842 0.05449522 -0.21263473 0.25874877 -0.18846513 0.010435714 -0.19986977 0.1050827 -0.068703435 0.21256244 0.24520932 0.0739837 -0.2591664 -0.02052468 0.11745606 -0.10916672 0.09363642 0.06542701 -0.08484839 -0.124856986 -0.19444472 0.21011853 -0.08952043 -0.054473903 0.020462485 0.079290204 -0.062575705 0.047111753 -0.04488244 -0.2206403 -0.12685958 -0.14184636 0.07043986 0.064704046 0.005609487 0.063813515 -0.04773641 0.063675486 0.0034822805
4 -0.075617045 -0.023595594 -0.046766955 -0.058262475 -0.0010942398 0.17873928 0.0055896947 0.10623026 0.093997695 -0.24726637 0.08835945 -0.198219 0.099121615 -0.015767258 0.0016559061 -0.065925576 0.09871768 -0.03339735 -0.121007115 0.17887929 -0.0136025995 -0.14497153 0.17743118 0.07657276 0.32054365 0.06398941 -0.03450681 0.09960362 0.007556831 0.0064381263 -0.05322768 -0.07120776 0.12377572 0.17150527 0.08153044 -0.042629436 -0.31153837 0.036982637 0.044962946 0.05000653 0.18787733 0.017156955 0.2821597 0.049022507 -0.012316827 0.012659599 -0.3217557 0.062520705 0.26535958 -0.049736224 -0.14375329 0.040891603 0.024175018 -0.013265073 -0.054848183 -0.084199086 -0.13406876 -0.101054564 0.19411635 0.05967095 -0.06640428 -0.04753083 -0.085268565 0.020546595
120 -0.068086006 -0.1676212 -0.19381113 0.30426067 -0.15066053 0.068370044 -0.0602288 0.19912204 -0.2391627 0.01269234 -0.016665202 -0.14423612 0.042038977 0.018110864 -0.11044151 -0.052517626 -0.18157774 -0.044741273 0.20261498 -0.2824914 -0.16588858 0.16701552 -0.15315211 -0.07668669 -0.037252434 0.032658473 -0.045944314 0.016847296 -0.015466499 0.21947178 -0.115076154 0.07539832 0.1891591 0.07851343 0.042320807 0.04499165 0.18962541 -0.058089044 -0.19403002 -0.06760933 -0.1016941 0.20858626 -0.05749575 0.07879865 -0.037304413 0.05985066 0.1304917 -0.021312568 -0.05445184 0.043963946 -0.08623029 -0.050990846 0.17594548 -0.11532079 0.1681648 -0.18722822 0.012168734 -0.010190676 -0.01517859 0.021899559 -0.042312328 -0.008335786 0.034301613 -0.13628674
122 -0.045280147 -0.16710368 -0.08537463 -0.04118639 0.04420582 0.04265288 -0.3154096 -0.017519383 -0.13950713 -0.08076495 0.06455477 -0.2204879 0.11258053 -0.03664266 -0.014572174 0.050092205 0.107510135 -0.22590199 0.15059848 -0.2017059 -0.19628608 -0.0008930542 -0.17562526 0.012832979 -0.10778309 -0.05830778 -0.24615723 0.07686277 0.033878766 0.16969194 -0.00091755355 0.099350706 0.1251184 -0.039290432 0.04323371 0.046437003 0.042679455 -0.04678272 -0.07732241 0.19802366 -0.07151335 0.11769149 -0.03089965 -0.2339695 0.21707605 0.03008932 0.09403038 0.076705486 -0.17734143 0.093581244 0.036435034 -0.29034323 -0.10407813 0.003837481 -0.046447515 -0.06863106 0.01740642 -0.0113698635 0.0734216 0.12014675 0.13267112 -0.004924195 0.20123456 -0.124000475
21 0.16398403 -0.28584802 0.037881285 0.07807041 0.1610922 -0.16288835 0.12134189 -0.12441621 0.151221 -0.018691018 0.10165857 -0.026733989 -0.19775425 -0.15608507 -0.18118109 0.029160528 0.15048964 0.06964348 -0.09954922 -0.17803879 0.10791904 0.0856606 -0.06068387 0.2218388 0.11030457 -0.04043771 0.1835032 -0.05222991 0.063856244 0.078359924 0.10277304 0.16507626 0.025334721 0.1292909 -0.012081972 -0.20159099 -0.06090471 -0.16593096 0.15824111 -0.0037339004 0.03485428 0.06922457 0.17843027 0.045096595 -0.029132497 0.010663741 -0.07468752 0.07704653 0.29803947 -0.013335533 -0.12622435 -0.097802825 -0.08352436 -0.076577835 0.09618723 -0.14226218 -0.02610266 0.16440894 0.06211897 0.11537959 0.20460081 -0.12370104 -0.063640505 -0.028765019
126 -0.056321654 0.112161905 -0.029519401 -0.08961252 -0.08415033 0.10657206 -0.053187538 -0.13036376 0.03312564 -0.1120047 -0.13178627 0.0056228247 -0.0027356432 0.13743255 -0.11302433 -0.040341597 -0.12951861 0.08583706 0.024824614 0.18308406 0.07174714 0.07227832 -0.15473035 -0.021169621 -0.16938655 0.086388364 0.121166684 -0.029450186 -0.05945594 -0.40886304 -0.042032782 -0.08647909 0.062016465 -0.25643694 0.15462966 0.33145598 0.04158028 -0.059709903 0.20102939 -0.09847983 0.009435171 0.18530844 -0.21248679 -0.009383408 -0.10364259 0.0058639096 0.07353969 0.15814734 0.0013736363 0.17820902 -0.040520262 0.017361935 -0.027824262 0.0145082865 0.027288925 0.19474277 -0.16660859 0.0989173 -0.0020812892 0.17241438 0.08875594 0.06141957 0.06881958 -0.106708966
127 0.042643145 0.1634437 0.04314731 -0.047482885 0.14145909 -0.05046144 -0.09973173 0.01625832 -0.13828188 0.06058507 0.15398827 0.13516305 -0.004744882 -0.23586996 -0.029658802 0.39957884 -0.24669068 -0.03859382 0.16291688 0.03852088 -0.18966238 -0.050755814 -0.13128224 -0.086849034 0.055296298 0.055187553 0.015909608 -0.07949916 0.025332013 0.026998099 -0.093599364 0.034259282 -0.08495573 0.007135929 0.23652661 0.03826903 0.002183776 0.0077100345 -0.06004094 -0.021289341 0.010318512 -0.042979315 0.17682484 0.17658341 0.028951185 -0.2783329 0.11636552 -0.010689889 -0.25970057 -0.0024155858 -0.079213165 -0.24601628 -0.05513153 0.010300866 0.18200935 0.03304285 -0.0495966 0.118721314 0.07120173 0.17947356 -0.027146142 0.0149716465 -0.04726008 -0.1487355
128 0.13201468 -0.041260738 -0.16317119 -0.11114056 0.01947181 0.005928663 0.025486002 0.030220887 -0.02444537 0.15026884 0.034895755 0.13726953 -0.1444063 -0.15589991 0.15394092 -0.02731358 -0.020915251 -0.015317073 0.22444658 -0.09578605 0.06316458 -0.009409996 0.002362616 0.003816969 0.13371442 -0.05164875 -0.0037934927 -0.23862104 0.002765209 0.035107814 -0.038224 -0.02570645 -0.24866873 -0.08386488 0.11317486 -0.06299734 0.06973589 -0.15894356 0.13214396 0.12539457 -0.10900212 -0.043124236 0.10156048 0.006112791 0.18298487 0.19756672 0.050978445 -0.12440273 -0.06140773 -0.0261418 0.013029915 -0.24072984 -0.04415263 -0.1919525 0.04244276 -0.13831303 0.040156215 0.25851005 0.31150654 0.20507652 0.11500107 0.019423917 0.2082608 0.17730466
129 -0.22658046 -0.0046430225 -0.13273013 0.12681544 -0.2079837 -0.11341986 0.026275175 0.009726066 -0.059558522 -0.06971431 0.10490817 -0.044691376 0.108215325 0.12130558 -0.030763004 -0.0020737827 -0.045881502 -0.30105194 0.14129685 -0.40397575 -0.25191757 -0.00094481907 -0.05120103 0.12879409 0.12727237 0.022642812 -0.1709049 0.0362607 -0.01785822 -0.020467957 0.035455503 0.092929475 0.22514991 0.06588872 0.07764307 -0.042522747 0.32487032 0.07419566 -0.015045868 0.010999417 -0.14171015 0.17062995 -0.058282927 8.400952e-05 0.075674176 -0.023786556 0.15865682 0.029354002 0.0029848786 -0.12620038 -0.057627317 -0.12712342 0.03928835 -0.0059403605 0.13821265 0.13014294 -0.10096947 -0.04799282 0.111298464 0.0076531265 -0.1695367 0.016622873 0.07510385 -0.03144772
130 0.14765681 0.004366207 0.011996728 0.15809184 -0.117768176 0.009764663 -0.080379866 0.12072163 -0.04652688 -0.017461225 0.03962741 -0.37596318 0.080278985 0.14683764 -0.036468275 -0.068054974 -0.038276814 -0.102763705 0.05770207 -0.11348233 -0.1703364 -0.11189866 -0.2138238 -0.04238737 -0.081906304 0.2148073 -0.057024177 -0.08623045 0.16356489 -0.13734373 -0.05852553 -0.039486807 0.12552957 -0.07311032 -0.045361172 -0.011897312 0.35664067 -0.075985886 -0.21930899 0.10135936 0.00022481577 0.09020793 0.07156031 0.051202983 0.07179362 0.02730656 -0.016454661 -0.0073960265 0.09212271 0.07731268 0.13717633 -0.08710916 0.16069427 -0.15612018 -0.015767513 0.06399021 -0.073040195 -0.18428622 0.15210691 0.06938395 -0.074766345 0.12640162 0.27380463 -0.10641611
179 -0.069576494 0.13494478 -0.095835574 0.13781428 0.110894054 0.013124475 0.10079036 0.022894163 -0.06646034 0.17540514 -0.054906327 0.026657201 -0.14058957 0.07456991 -0.11014423 -0.27209356 -0.045322184 -0.091786794 0.029239774 0.18698178 0.05059391 -0.14128415 -0.15185618 0.013384328 -0.13116373 0.060294334 -0.24919997 0.017717697 0.23579039 -0.27934667 -0.031529475 0.21146922 0.1965312 0.13324463 0.0371731 0.045008454 0.2405717 -0.13560726 0.040446177 0.086558014 0.06512068 0.21182437 -0.09354301 -0.16745485 -0.0024536266 -0.043995637 0.08984534 -0.09949313 0.090677224 0.11577514 0.07387005 -0.024151348 0.053528845 0.12276212 -0.018502163 0.10905606 -0.0013455341 -0.063576646 0.14582711 0.059290513 -0.14815953 -0.2133201 -0.040601265 0.117478825
132 0.21668601 0.18757531 0.039513398 -0.21214351 0.078815214 0.10903338 -0.050426796 0.07790518 -0.07349364 0.11660186 0.18932293 0.027173609 0.01925778 -0.12621444 0.099806994 0.081063904 -0.27112812 0.046797626 0.29250604 0.12403565 0.026802968 -0.015819367 -0.111526154 0.061868902 -0.16557343 0.0066137807 0.012177102 -0.17929962 -0.085683845 -0.1686877 -0.14380558 -0.06937527 -0.04505871 -0.06930198 0.19533241 0.1908357 -0.17597567 -0.12581632 0.13948205 -0.06605787 -0.025366023 -0.04227188 -0.08888883 -0.0065597105 -0.1256494 -0.046093993 -0.024002552 0.07125221 -0.04237966 0.07087038 -0.14401291 -0.13966201 0.08481239 0.0014697653 -0.069371805 0.36785954 -0.044330157 0.18850183 -0.0033307883 0.13003239 -0.006209011 -0.079701036 -0.008976882 -0.0018901902
133 0.098271735 0.014343638 -0.1716188 0.14085856 0.0017189392 -0.009389846 0.10583705 -0.19511011 0.010704296 -0.09743119 0.06786761 -0.07226951 0.093631886 0.21567287 -0.018804168 -0.25870678 -0.00970346 -0.11964499 -0.10957999 -0.05623086 0.034079507 -0.013096218 -0.2165217 0.09106639 -0.21548238 0.046328172 -0.11851532 0.042803973 0.030424105 0.025890218 -0.06183965 -0.011607242 0.06407804 0.20511144 0.09905663 -0.083270125 0.21236339 -0.26712555 -0.16238621 -0.11726019 -0.010620774 0.22191137 -0.13558736 -0.06466574 0.0091433255 0.0006995146 0.100506686 0.004316848 -0.21180579 -0.22857422 0.14349021 0.18555027 -0.09138998 -0.05743165 0.1040348 0.22481142 -0.009495797 -0.2185524 0.03880032 -0.07019192 0.07723801 -0.025744827 0.073283456 -0.018236784
135 -0.15723702 -0.054706607 -0.05020723 0.13982703 0.061487153 -0.058060132 -0.005802957 -0.049135685 0.11628918 0.2130486 0.04749887 0.0056420825 0.09726492 0.22499421 -0.02059787 -0.15569091 -0.113645054 -0.07679267 0.10245773 0.06505315 0.17293191 -0.07993265 -0.35740325 0.14583275 0.042158302 0.21677223 -0.23327719 -0.030141277 -0.027408963 -0.11426116 0.02478298 0.047179263 0.16740365 0.13223664 -0.14320397 0.00232403 0.13261685 -0.10651559 -0.20026009 -0.11113945 0.11556982 0.2030668 -0.16765511 -0.17157292 0.03044987 0.026024165 0.17567682 0.057094246 0.04938604 -0.014768877 -0.05769768 0.06303061 0.04913585 0.15018284 0.09796923 0.110837765 -0.049341045 -0.09541891 0.1208665 0.012271141 -0.20693947 -0.15454817 0.08208283 -0.056998685
136 -0.14070886 0.18927668 0.045165975 -0.23200062 0.04862009 0.016067483 -0.027687322 0.08187061 -0.024923192 0.18388963 0.19375865 0.025029968 -0.073005624 -0.067417555 0.12354775 -0.0023076227 -0.109159075 -0.06781571 0.008527779 -0.21555993 0.16832267 -0.048042864 -0.18640295 -0.08248343 -0.26027557 -0.01647442 0.07874153 0.051809277 0.09935063 -0.029173996 0.0012994873 0.12709737 0.029172728 -0.11154337 -0.18229273 0.020239035 0.18870758 -0.12613375 -0.04605282 0.003428273 0.1457487 -0.22845368 -0.120921955 0.005590239 -0.09042836 0.07933173 -0.008714782 -0.19836317 -0.10924029 0.028578185 0.101250574 -0.095364556 -0.2951076 -0.07150543 -0.11931969 -0.00065599807 -0.17791411 -0.0040722163 0.17451109 0.060144097 -0.12197077 -0.088216975 0.12522797 0.2376212
138 0.094261505 0.031055503 0.07558283 0.07990588 -0.042247724 0.10873226 -0.064835876 0.11028017 -0.052576307 0.1376511 0.12639472 -0.04076093 -0.084286086 0.122618794 0.10032061 -0.07458019 -0.004340906 -0.13350445 0.24661934 0.08257441 -0.08473456 0.0074730953 -0.18706954 -0.014209172 0.014474653 -0.03537357 -0.21073109 0.074054874 0.27400723 -0.102380514 -0.22724465 -0.063511066 -0.053811055 0.24088733 0.033244383 0.0648185 0.20412293 -0.12031611 0.07062405 0.18239611 0.10401216 0.20132437 -0.03868338 -0.0223313 -0.06233158 -0.057644855 0.09806893 -0.15765361 0.034265578 0.13261695 -0.056247473 -0.090805806 -0.17858982 -0.061552536 -0.06463614 0.06665789 -0.14020596 0.007977666 0.19286376 0.0019855665 -0.05896491 -0.21411642 0.31857184 0.11225814
139 -0.16820104 -0.17395665 -0.03148709 -0.07056464 0.19075957 0.10568923 -0.093895175 0.02901492 -0.11797813 0.14507218 0.13642533 -0.12231515 -0.03163121 -0.13109234 -0.0027117245 -0.1209034 0.13033743 -0.14564979 -0.02086426 -0.03427174 0.18540615 0.01023578 -0.1183503 -0.19853303 -0.08304235 0.089791864 -0.036611 -0.09433744 -0.021671439 0.006397276 0.15553169 -0.18304656 -0.05594741 -0.3413258 -0.07628615 0.028490476 0.114365555 0.0016826012 0.28016868 0.11234822 0.020705232 0.24306343 -0.28893107 0.0688193 -0.029990768 -0.08542087 0.048781864 -0.05861741 -0.1319643 -0.072170794 0.040390793 -0.10689661 -0.12531273 -0.11689398 -0.027627984 0.025108479 0.054456383 0.06130044 0.021696525 0.19993782 0.06409838 -0.19103101 0.051165238 0.12945648
398 0.18918057 -0.039662737 0.19736308 0.27886003 0.07759109 -0.17464481 -0.022616653 0.04857742 0.1172765 0.07036353 -0.07546411 -0.12888314 0.09702661 0.28838408 0.07631049 0.20333886 -0.076899596 0.25305516 0.11727488 0.0049995324 0.026799383 0.038553894 -0.0807125 -0.113063306 -0.04901245 0.11697039 -0.09126435 -0.010703626 0.19839735 0.20569137 -0.06224074 0.19093475 -0.009737425 -0.03787989 -0.0073495707 0.2933512 0.20808259 0.03670711 0.062349517 0.15442741 0.11313572 0.061898634 -0.049230095 0.017877785 -0.20130943 -0.10620282 0.01774625 0.013769772 -0.14042237 0.09913153 -0.025601257 0.05805524 -0.06335549 -0.095634915 -0.23280625 -0.06788037 0.05549401 -0.02574862 0.05425855 0.08459214 0.111207806 0.023853848 0.09291162 -0.036852248
143 -0.02593384 0.096746236 0.165841 0.21687138 0.065210484 0.029986074 0.124110416 0.0017840227 0.020909168 0.21538638 0.053378306 -0.092835605 0.022520171 0.013757893 -0.090302825 -0.003552726 0.025156543 0.044753157 0.056505855 0.08770784 0.24676618 -0.04290972 -0.11909324 -0.08064683 -0.010850408 0.11365433 -0.10877681 -0.14728892 -0.055998843 -0.05099762 -0.08568837 -0.095905565 0.098136604 0.14748998 0.1120036 -0.012809473 0.23829281 -0.1166683 -0.14933687 -0.25770533 0.23894367 0.19563513 -0.04851598 -0.0684284 0.12688875 0.17287518 0.1249622 -0.19749974 0.015390201 -0.036650885 0.16550946 -0.013590751 -0.006783463 0.16287328 0.045687575 0.2214197 0.2710612 -0.012735504 0.0617963 -0.0067993826 -0.1404195 -0.043013237 -0.17162855 0.14264208
146 0.061495762 -0.14124729 0.08928552 0.0429205 0.13283472 0.19651388 -0.06801949 -0.17644747 -0.044419155 0.20310783 0.27423614 0.09097059 -0.09445454 0.15658769 0.030153064 -0.23735967 -0.13979998 0.08366197 -0.017026871 -0.2441926 -0.03795337 -0.0053507877 0.13467659 -0.017424537 -0.024552258 0.24476992 -0.08009677 -0.119198434 0.25097618 -0.17549273 -0.12021843 -0.14618772 -0.08996986 0.13130678 0.058159847 -0.033329397 0.113285474 0.06276681 -0.12018651 0.13918838 -0.07586558 -0.04926879 -0.086288914 -0.16074063 -0.047832955 -0.13558207 0.19370896 -0.0908846 0.104554005 0.06611586 -0.1318921 0.13207443 -0.058179498 0.01042947 -0.028359968 -0.09546461 -0.04431568 -0.028940983 0.20342503 0.028057588 -0.14587648 -0.041669376 0.13402863 0.045448508
149 0.035140898 0.13193682 0.102365755 -0.0819052 0.099321716 0.020128421 0.04029619 -0.17447568 -0.019419342 0.12378969 0.05450724 0.2694694 0.2431911 0.022757925 -0.029427411 -0.069444895 -0.2961198 0.07910991 -0.085474886 -0.0076404084 -0.06293013 -0.08845781 0.099156804 0.17554003 -0.093951166 0.048570786 -0.14868324 -0.018885048 -0.059796654 0.10029726 -0.2986079 -0.048328 0.048551172 0.2629811 0.030607387 0.25796083 0.07814167 -0.021824434 0.05007869 0.039459493 -0.14403331 -0.048927616 0.037499595 -0.036098465 0.09775791 -0.18755093 0.2261637 -0.021187218 -0.19388288 0.035538614 -0.13627803 -0.093013324 -0.11786205 -0.028006617 0.016362142 0.021803955 -0.14313036 0.15026873 0.14755689 -0.02415467 -0.073467635 -0.035326917 0.16154389 -0.14556131
151 0.14683457 0.08291071 0.08182787 -0.019288093 0.06032936 0.06831158 0.06436238 -0.09707439 -0.11868641 0.25479785 0.066182815 0.16777761 -0.17318271 -0.1748023 -0.054027855 -0.04785277 0.015727978 0.18012433 0.02858208 -0.038378343 0.018183583 -0.064828165 -0.071123995 0.046832904 0.06253342 0.023558082 -0.20397484 0.06614278 0.06580341 -0.12084815 0.020601375 -0.054037258 0.019610744 0.046263997 0.18432623 0.27973092 -0.037897024 0.054182872 -0.037050962 0.16355993 -0.13399634 -0.08359269 -0.09219632 -0.15565488 -0.057539653 -0.04127692 0.16887264 -0.07966814 -0.1634229 0.34606022 0.10739862 -0.09244896 0.12476711 -0.19521277 0.089085184 -0.049085747 -0.026812738 0.17518707 0.3223188 0.0673722 0.06503765 -0.15621547 0.00031168782 0.044755448
152 0.08884323 0.03940107 0.20715618 -0.0030936308 0.030868772 -0.24792586 0.044622283 0.03643655 -0.014091285 0.034307614 -0.36252454 0.16873977 -0.10010992 0.04790087 -0.0906042 0.2620071 -0.13941602 0.13878931 -0.009080206 0.14712742 -0.06321639 0.13437563 0.047648516 0.03202124 -0.042593878 0.18983778 -0.19033211 0.01908217 -0.20925818 -0.1753865 -0.08186731 -0.09423943 -0.024522027 0.024830015 0.119233854 0.09053525 0.029332438 0.14920206 0.11756723 -0.007906093 0.03610111 0.21438271 0.13919167 -0.08785357 0.10427187 -0.15506656 0.055222448 0.050033793 -0.17581055 0.043793816 -0.11989644 -0.1208966 0.00956068 -0.027110599 -0.027100945 0.23791924 -0.1978061 -0.034848347 -0.06829696 -0.12313724 0.011927534 -0.032468542 0.11663221 -0.10332333
154 0.09407088 -0.14228688 0.21503644 0.09674128 0.07570457 0.115684845 -0.14645845 0.11544533 -0.13446127 0.079097696 -0.13265757 0.08388979 0.017341435 0.09008849 0.0071148034 -0.10195755 0.09599628 0.05612299 0.23211963 0.011867672 -0.10739673 0.034104694 -0.017994607 0.09208988 -0.056829516 0.0821582 -0.09436495 0.017928591 0.3612611 0.06620044 -0.054331474 0.0057674116 0.01846916 -0.1861927 0.087289006 0.08913216 0.3219568 0.103899695 0.01775861 0.15503122 0.17814058 -0.004327199 -0.09465783 -0.057948675 -0.16704625 0.16991226 0.032061435 -0.047407158 -0.03783127 -0.18571922 0.13368388 -0.12360475 -0.09762156 0.1166466 -0.31655172 -0.17824574 -0.0018481109 -0.066093214 0.096372895 -0.028995944 -0.053458128 0.1146331 0.016115487 -0.013061633
155 0.14987975 -0.013010653 -0.040622868 -0.09867457 0.019508349 -0.029405193 -0.051055327 -0.06105471 -0.0782722 0.008712445 -0.23039734 0.008408347 0.013996577 -0.06935142 -0.025855308 0.3404375 -0.23247877 0.035254486 0.011310373 0.021131136 0.057985358 -0.014722928 0.03415625 -0.05230131 0.027698565 0.17431153 -0.1589116 -0.14236884 -0.1462705 -0.05228056 -0.18094409 -0.05084831 -0.0039354586 -0.14000049 0.0628074 -0.031171776 0.27536026 0.029085414 -0.086426005 -0.3065612 -0.0145856505 0.20354106 0.23450454 -0.12252599 -0.02772413 -0.13424668 0.06369807 -0.027780626 -0.15356469 -0.055982478 0.048117574 -0.08925546 -0.08527797 -0.06960948 -0.14829616 0.27059668 -0.16585682 0.074544154 -0.12751861 0.074258365 0.00019221376 0.13155894 -0.12436118 -0.090211466
157 0.18092954 -0.060181994 0.062081225 0.26049346 0.13616869 0.019068554 0.01976245 -0.07198763 0.077322386 0.017913174 0.061457634 -0.06591005 0.015765037 0.18005234 0.027831515 -0.16066441 0.07546723 0.015026196 0.13432504 0.0033804497 0.04199863 -0.012972613 0.07742376 -0.06050392 -0.17571361 0.03730404 -0.15800987 -0.3115946 -0.00087291916 -0.063330024 -0.0034961074 -0.0046529667 -0.16634296 0.040450044 -0.2821026 0.07955306 -0.07845311 -0.09825163 -0.038793907 0.21354194 -0.19718555 -0.12163161 -0.05279736 0.08686349 -0.08619918 -0.045807257 0.17696375 -0.06545338 -0.18432331 0.23207599 0.104645 -0.18654518 0.07722612 -0.039630253 -0.14347322 -0.12659565 0.09239605 0.054378234 0.21035351 0.17946346 -0.0973541 -0.044115636 0.13906199 0.127021
161 -0.020172974 -0.10203435 -0.0032753698 0.18494284 -0.071090564 0.055007678 -0.1121612 0.14155962 -0.14313869 0.054546334 -0.032965112 -0.20011117 0.18828484 0.1336278 -0.008525239 -0.1740186 -0.15074863 -0.18671611 0.2661525 -0.16764271 -0.06243467 -0.29977664 -0.292277 0.058850743 0.13633054 0.12140624 -0.03603792 0.053243767 0.11329806 -0.1624442 -0.013709544 0.1793324 -0.0013773452 0.07324671 0.05149628 0.0009882475 0.12590005 -0.14154665 -0.13357343 0.19381522 0.17513882 -0.09549698 -0.22757412 0.045859605 -0.016887488 0.06439725 0.12709558 -0.111006886 -0.055330474 0.038344488 -0.12252589 -0.038971808 -0.07147729 -0.04890444 0.023566442 -0.03102494 -0.115409605 -0.045936786 -0.0021166368 -0.022329029 -0.1438231 0.13236295 0.082838774 -0.028422125
172 0.047685076 0.1846763 -0.006076225 0.041497193 0.020096498 0.034838967 -0.02640099 -0.1840373 -0.060536418 0.24474733 0.03636811 0.021974815 -0.11286112 0.038286783 -0.15880159 -0.22761363 -0.0041657323 -0.114465 0.12394966 0.24791978 0.035101518 -0.06551382 -0.16523984 0.08303709 -0.0962511 0.0028179002 -0.10200023 0.06400325 0.026772477 -0.110635936 -0.008336797 0.13234878 0.17022532 -0.030367145 -0.06455109 -0.15847065 0.21667393 -0.18134463 -0.059775382 -0.135318 0.17688039 0.03230907 -0.04137908 -0.018392423 -0.31358048 -0.08775688 0.028058933 -0.2502864 -0.032959294 0.045266572 -0.12787646 -0.021968445 -0.012912684 0.13209863 -0.08699332 0.0018962843 -0.053713083 0.21621938 0.1024366 0.00057363615 -0.098549284 0.059352104 -0.19989637 0.24873145
173 0.06285721 0.14154486 0.049748972 0.18368219 0.06468478 0.09366869 -0.025953285 -0.013066752 -0.060393192 0.23093855 -0.002468902 0.00593823 -0.16540317 0.083149746 0.017227076 -0.31931156 -0.040268596 -0.024168348 0.14985892 0.060507435 0.104588404 -0.0028854022 -0.14653854 0.007825056 -0.07941877 0.062190983 -0.16831979 -0.12762623 0.010806953 -0.05446064 0.05216828 0.296189 -0.048020676 0.22321062 0.02999549 -0.084703505 0.16204838 -0.15508567 -0.03341261 -0.23847407 0.054738738 0.13425721 -0.06540556 -0.015522229 -0.036093928 -0.068788044 0.18223046 -0.17356522 0.023704292 -0.05819569 -0.14414044 -0.013616741 0.08982335 0.2197051 -0.10350107 0.18313058 -0.18014038 0.017164614 -0.012262604 0.02885612 -0.12768692 -0.12856135 0.07622826 0.24907082
174 0.051985946 -0.10797239 0.103459634 0.13851935 0.016302895 0.04822953 0.17421298 0.24924687 0.13100496 -0.012101184 -0.051851977 -0.19371793 0.11821246 -0.12928988 -0.07394198 -0.066254914 -0.17767449 0.17276183 -0.18263787 -0.08579 -0.29197383 -0.07223418 -0.086914055 -0.1638771 -0.15097095 -0.035325047 -0.20115466 -0.004156644 -0.15546289 0.023572272 0.08471758 -0.03857049 -0.09491847 -0.0797285 0.071782045 -0.14419627 -0.046036903 0.10716285 -0.09595847 0.05887093 -0.048549823 0.16483082 0.020525478 -0.12185604 0.16708927 -0.06722962 0.060821574 0.15073597 -0.21591005 0.13066217 0.13592859 0.11908741 -0.14864299 0.14476404 0.02627711 -0.0453312 -0.24501544 0.043707233 -0.060051236 0.10767197 -0.20299883 0.05629526 0.04538589 -0.026915338
176 0.021814713 0.01464282 0.19950016 0.29390317 -0.0847031 0.20165007 -0.0054403273 0.14978968 -0.1615589 0.011047163 -0.03707263 0.020827746 0.12434391 0.0333558 0.16203566 0.04877563 0.009788363 0.045963433 0.13425303 0.09636728 0.093095474 0.14600834 -0.036466606 0.047172755 -0.23509951 -0.07313506 0.09660938 0.026724538 0.038998775 -0.024471883 0.14874737 0.11663192 0.00054614735 -0.064295836 -0.024336888 0.07197084 0.13611525 -0.030660145 -0.16595085 -0.12656026 0.18445055 -0.21983695 -0.042016346 -0.2616802 0.08178173 0.06614073 0.013945665 0.03442901 -0.17231447 0.049160905 0.1210839 -0.15120284 0.049058747 0.032378316 -0.24851175 0.029047642 0.081132375 -0.1178657 0.31136408 -0.116122454 0.0915093 -0.08261343 0.18135518 -0.07320896
177 0.18659316 0.11439339 -0.19272575 -0.02801919 0.11746002 0.12330776 0.13698183 -0.16177616 -0.030237138 -0.086194694 -0.132388 0.08090377 -0.025729613 0.20666566 0.19128726 0.031109573 -0.015851108 0.14759728 0.09502725 0.24737243 -0.0138872145 0.055828936 0.04626392 0.029322367 -0.14402173 0.060177103 -0.15523043 0.075711235 0.036607977 0.025206039 -0.15835351 -0.06970578 0.07964663 -0.14596906 -0.13165012 -0.08412687 0.1505829 -0.19412059 -0.08961724 0.08982267 -0.055650353 0.01026356 0.0030714953 0.07732111 0.017670821 -0.015145842 0.041720692 -0.016089424 -0.23923163 0.27925903 -0.11070903 -0.18015638 -0.05986029 -0.03631908 -0.1501843 -0.21051534 0.07297393 0.045822706 0.10696715 0.072196566 0.045203034 0.021248179 0.20146117 0.28826886
