5105 64
199 -0.16702849 -0.1071935 0.44087616 0.270586 -0.63063085 0.041181937 -0.037896927 0.36529404 0.04765048 0.34506014 0.26658693 -0.016897917 -0.06588687 -0.43640214 0.55656344 -0.17963582 -0.21858999 0.19218229 -0.018542523 -0.11863919 -0.029209195 0.4407998 0.3378603 -0.1973996 0.28787234 0.031249829 -0.26654634 0.4399853 0.41130528 -0.6592331 0.2146085 -0.10735772 0.16138247 0.13342412 -0.9883775 0.3654036 0.05235757 0.26652506 -0.11577623 0.2679864 -0.07145608 -0.033242367 0.238593 -0.63954467 0.08258051 -0.82332516 0.6211193 0.07784581 0.24954304 -0.16699852 0.6518251 -0.2920908 0.6917559 0.37671143 -0.08383242 -0.320235 0.13838068 -0.25169215 0.17275928 0.21721224 0.027223004 -0.3957581 -0.10273905 0.2492167
70 -0.13591929 -0.09349 0.046426848 0.2592025 -0.09638286 0.46355522 0.27367863 0.06684642 -0.043350153 0.012369335 0.2228542 0.28955206 -0.08764927 -0.58206123 -0.03762455 0.37226045 -0.5658555 -0.102446444 0.77205104 -0.0637421 -0.20820746 0.717891 -0.40477392 -0.5406927 0.47444746 -0.13577189 -0.24985895 0.20332965 0.74474615 -0.4800773 -0.05546567 0.14578922 -0.095449954 0.28139699 -0.40738264 -0.07593271 -0.2234707 -0.41440338 -0.46444014 0.11932381 0.16503187 0.07557098 0.5989857 -0.21060856 0.17580651 -0.74036825 0.16272041 -0.115664534 0.29211035 -0.48420778 0.14269589 -0.25355676 0.36435208 0.21049765 -0.3882988 0.0518256 0.087546445 -0.046092518 0.1380012 -0.06786903 0.02389025 -0.04674985 -0.14544259 0.5316079
182 -0.111255094 0.12953429 -0.20541845 0.23312786 -0.1579405 0.20672944 -0.20774724 -0.11981031 -0.1045369 0.41031638 0.22625867 0.31469285 -0.4288004 -0.3901224 0.53090036 0.21708044 -0.36475846 -0.093077235 0.044482037 0.041376118 -0.22207315 0.39163175 -0.32276902 -0.2337811 0.28748122 -0.13412203 0.0077034873 0.1658705 0.72790396 -0.46922064 0.18053252 -0.078956336 -0.10567141 -0.13333406 -1.0301534 0.10090607 0.07408672 0.08137677 -0.39858463 0.31219834 -0.33851597 0.26853085 0.34200236 0.09279132 0.20105132 -0.63025415 0.33290666 0.016696317 0.20486261 -0.49589953 0.23370211 -0.27025735 0.33118504 0.15912004 -0.3658747 0.17480423 0.25000057 -0.04813689 0.38586536 0.25999677 -0.22261634 0.011062046 -0.33076483 0.7611408
72 -0.24015573 -0.087555245 0.27731717 0.3123564 -0.12015617 0.45381832 0.3157883 0.22750184 0.058528785 0.121442005 0.06897841 0.34558585 -0.19145791 -0.4046986 0.029998805 0.12306162 -0.38793796 0.15803999 0.6865444 -0.19341867 -0.12433784 0.5502592 -0.310113 -0.44942567 0.59225 -0.14799458 -0.069200665 0.8289702 0.79393005 -0.6056414 0.18916875 -0.13123849 -0.06390247 0.27551138 -0.35508728 -0.43934733 -0.29663545 -0.3494096 -0.30402717 0.13052885 0.080705315 -0.02310281 0.5318415 -0.4219239 0.053988066 -0.8694245 0.21076915 -0.07315529 0.26633158 -0.31667352 0.12827243 -0.24109073 0.6508429 0.14384821 -0.19444051 -0.35720626 -0.19066091 0.17961122 -0.026911665 -0.1774559 -0.19804552 -0.13148773 -0.14194852 0.57440877
694 -0.21807231 -0.12275297 0.44528964 -0.009637654 0.7067541 -0.53129566 -0.48940903 -0.23658453 0.61983925 0.22364657 0.3299104 -0.23132853 -0.1920283 -0.022615876 -0.17899302 0.42590868 -0.32676008 -0.020159699 0.45023695 -0.46010244 0.1804468 0.26537552 -0.2823162 -0.39134994 0.5605938 -0.5223558 0.19776368 -0.25892714 0.3982154 -0.1306645 -0.24077691 0.5688273 0.405232 -0.46966684 0.35477474 0.42246264 -0.14071316 0.5039513 -0.032009963 0.5477432 0.7983125 -0.10292467 0.4929924 -0.37561002 -0.5192059 -0.49973172 -0.2751554 -0.13841458 0.149895 -0.59129435 0.50415677 -0.44177666 0.35292274 0.12652652 0.066202015 -0.30929175 -0.20747541 0.07583754 -0.11457067 0.4065832 -0.097289026 0.319368 0.066801935 0.17278604
192 0.1521762 -0.06949392 0.053421862 0.15420423 0.27053365 0.073453896 0.060155634 0.023967177 -0.012376771 0.019287296 0.021746268 0.40574607 -0.1620811 -0.36897504 -0.13942283 0.19527423 -0.47808412 -0.022741282 0.71221614 -0.14465 -0.35416964 0.6076805 -0.11951233 -0.5845639 0.64120984 -0.28517488 -0.33610454 0.13718255 0.6588288 -0.4642726 -0.006483403 0.23825927 0.17638682 0.12741187 -0.54192865 0.16711167 -0.16547471 -0.020191925 -0.37610146 0.2412784 -0.0654704 -0.030986112 0.37321645 -0.27585274 -0.11299599 -0.5915209 0.20833923 -0.12399605 0.3510875 -0.44119328 0.27766284 -0.64486724 0.6206682 0.3462055 -0.15142824 -0.022472104 0.2064496 0.006492176 0.33839566 0.16731001 0.014249254 0.31642792 -0.113012746 0.7087036
156 -0.0020107506 -0.007848821 0.34447166 0.2655703 -0.10158283 0.119145155 0.4772393 0.17448315 0.052594107 0.24562295 -0.22546318 0.35325122 -0.36790693 -0.060935315 0.26013625 -0.001760768 -0.26102263 0.3576823 0.5348665 -0.06468969 0.15791972 0.24085478 -0.20148863 -0.036709037 0.29491016 -0.0559435 0.16013387 0.26602858 0.53497446 -0.66432583 0.114424475 -0.194644 -0.044168647 -0.015481638 -0.69674003 0.121198 0.02196396 0.24954379 -0.01775174 0.22877397 -0.22797824 0.28987136 0.15977606 -0.2688129 0.22293773 -0.7248937 0.6355641 -0.037735578 0.53322273 -0.33638752 0.09932062 -0.5338162 0.66900826 0.22205202 -0.3111085 0.06405231 0.2343989 -0.64511985 -0.08934509 0.23413144 0.25159484 -0.14694937 -0.21733342 0.481357
375 0.031058444 -0.22260775 0.9359473 -0.14365716 -0.10355174 0.43656227 0.53912127 0.37372193 0.28215146 0.67516804 0.47954756 -0.33870897 -0.16950637 0.114941105 -0.019389682 0.46260816 -0.012251919 -0.2726447 0.31069133 -0.55070496 -0.051619925 -0.035545275 0.5593949 -0.42847028 0.07041516 -0.13040194 -0.1468562 0.6233479 -0.22325127 -0.8134575 0.105909124 0.32128987 0.05774119 0.041484095 0.24043624 -0.3737887 -0.4419649 0.9616806 -0.609824 0.27265278 0.18011667 -0.010380532 -0.13092138 -0.4201176 -0.006948793 0.004370359 0.4289498 -0.21544127 -0.5092499 0.29835418 0.45101905 0.43432385 -0.17752798 0.22409457 -0.48889112 -0.72607493 0.19138372 -0.48694715 -0.05274777 0.39859128 -0.12033129 -0.039165273 -0.39332315 0.4117609
76 0.21209918 0.7523537 -0.000482043 0.28048453 0.7344181 0.2560279 0.41645092 0.08910795 -0.21161956 -0.21618238 0.17143096 0.27026612 0.110038154 0.6672435 0.87229836 0.66013485 -0.07294059 -0.0070714643 -0.26012865 0.32880676 0.63040113 -0.5245993 -0.65995455 0.5607047 0.18082647 -0.061344836 0.10234914 -0.52177185 0.77232337 -0.3964387 -0.11838602 0.7533836 0.2539288 0.7302971 -0.34651405 0.20985623 0.11248677 -0.47488317 -0.51167756 0.11078911 -0.18024716 -0.74260867 -0.065594204 0.0011980732 -0.017947176 -0.5785484 0.07616597 0.09678888 0.09182657 -0.24355792 0.7817455 0.5780874 0.7950487 0.014703883 0.005984162 -0.34621897 0.008872611 -0.52834874 0.0066462955 -0.22472073 -0.042376295 0.21405093 -0.29219246 -0.105072826
97 -0.12764445 -0.02986148 -0.106220886 0.4189087 0.022283817 0.30721188 0.037584823 0.259628 0.098410636 0.5503333 0.26961932 0.36507675 -0.4359757 -0.32200032 0.2082004 0.24241579 -0.30174783 -0.025044523 0.13490278 -0.33479133 -0.04811187 0.36133826 -0.4484389 -0.21359426 0.36513454 -0.023372848 -0.22917153 0.4201677 0.6688961 -0.49384248 0.23538706 0.25454262 0.09036603 0.19186814 -1.133405 0.05993394 -0.20629358 0.03947899 -0.24888648 -0.08600246 -0.037848722 0.059396014 0.3268087 -0.3127826 0.39541742 -0.8826301 0.39200595 -0.065602094 0.65584046 -0.4087538 0.18941812 -0.203264 0.320231 0.21751866 -0.5335213 0.17597204 0.38162988 -0.23173445 0.38632783 0.08574822 -0.002221384 0.014043072 -0.075498916 0.4274642
179 0.070812955 0.012950582 -0.10489603 0.2688033 -0.18094279 0.15759961 0.29265183 0.3710049 0.06775482 0.66158944 0.061959337 0.5789861 -0.5204745 -0.3063352 0.35073984 0.113347605 -0.19863585 0.2589748 0.3473623 -0.34915426 -0.16420603 0.26338896 -0.31554598 -0.22250149 0.43283862 0.08712889 -0.16621715 0.011113081 0.32664445 -0.66060853 0.47629064 -0.04705317 0.12671416 0.016141376 -0.91337115 0.11172448 0.118935585 -0.00072281604 -0.0048620254 -0.18351625 -0.102495536 -0.05250347 0.24640927 -0.31879854 0.33199295 -0.79870313 0.51016635 -0.11806343 0.5643628 -0.32085735 0.29032668 -0.26470387 0.59991556 0.3321322 -0.5333229 0.37381706 0.21688819 -0.37258515 0.19162075 0.29135457 0.35748574 0.12402252 -0.12784745 0.41244873
69 -0.008549192 0.14484031 0.3232986 0.29435706 -0.2726358 0.57275444 0.30796126 0.19688506 -0.026750036 0.3415048 0.1258375 0.28768882 0.019563198 -0.17051719 0.050649647 -0.059248354 -0.3565467 -0.11361225 0.48109037 -0.09714244 -0.22763483 0.58589506 -0.14786845 -0.37915403 0.6547998 -0.052887682 -0.3631144 0.25718713 0.55100197 -0.69869053 0.0040443144 0.028526207 -0.0026687854 0.3198363 -0.7995026 0.09667631 -0.23016067 0.02183556 -0.3910989 0.3071117 -0.09549295 -0.034132607 0.1824201 -0.44640398 -0.123544045 -0.76326317 0.7101827 -0.05943391 0.09089195 -0.038850605 0.21040635 -0.54961616 0.6564857 0.33577257 -0.05554453 -0.03806169 0.10259553 -0.33939853 0.25300908 0.28748497 -0.13416691 -0.41626152 -0.100665614 0.2882203
200 -0.29009682 -0.09623634 -0.05234583 0.32486835 -0.04508826 0.35091713 -0.0091343215 0.36741263 -0.02223182 0.44833505 0.29438603 0.299503 -0.6024474 -0.3707873 0.23500183 0.20993017 -0.3349663 0.017257214 0.031016601 -0.4243213 0.25911582 0.32367224 -0.6768737 -0.123392634 0.43590268 0.0733938 -0.30899897 0.45986468 0.65737134 -0.6205423 0.10094173 0.44169396 0.025041811 0.08288465 -1.2507386 0.11372125 -0.08003355 0.05482521 -0.32422993 -0.0058739837 0.09607214 0.024607135 0.34440377 -0.37549266 0.22387762 -0.84512615 0.56959134 -0.08322544 0.50814855 -0.32198802 0.18640062 -0.24110031 0.27181235 0.07616697 -0.60937303 0.2153637 0.3400986 0.021412194 0.5007201 -0.02368971 -0.076483786 0.031325668 -0.052718926 0.33106795
985 -0.09201203 -0.13926233 -0.13340653 0.25523135 -0.10620333 0.40377948 0.14837055 0.14767279 -0.05565056 0.1658171 0.23029949 0.3616239 -0.255115 -0.68183625 0.2538656 0.31681222 -0.4465649 -0.12132746 0.57919633 -0.03329293 -0.107045434 0.61946565 -0.36094046 -0.4575662 0.37594995 -0.11943695 -0.21050045 0.39466134 0.69341075 -0.47212645 0.10367821 0.106333464 -0.13421775 0.051717658 -0.7199037 -0.012890365 -0.10098276 -0.21828718 -0.3423252 0.1580394 0.038825072 0.096339725 0.4993923 -0.0756348 0.16900605 -0.6625387 0.33607882 -0.035497505 0.28688666 -0.63019854 0.17164253 -0.22726871 0.394284 0.17670354 -0.33959103 0.07368194 0.1429145 -0.16588229 0.32816076 0.04348446 -0.08261888 0.18536489 -0.18838467 0.35650343
114 -0.13170184 0.2888486 0.33509088 0.20476781 -0.058264237 0.7195082 0.7527228 0.1201292 0.6780907 -0.20771818 0.14959149 0.018664718 0.028831445 -0.39875358 0.7518559 0.20948474 -0.013525422 0.03084632 -0.5615211 -0.20420805 -0.09087031 0.24778707 0.296509 -0.6389583 -0.13809872 -0.4093565 0.3239723 0.56370145 0.3235651 -0.28620932 -0.031533726 0.48107898 0.2297365 0.26465014 0.8288035 0.10704485 -0.1839059 0.07353178 0.34598908 0.1648227 0.8724708 0.5434233 -0.2717043 0.07646174 0.11248864 0.07213297 0.24008577 -0.128054 0.78987235 0.02819115 -0.41477922 0.27848104 0.12647413 0.119301945 -0.65070164 -0.14077121 -0.10961953 -0.5511893 0.9127733 0.60580426 -0.58249354 0.44438097 0.1958369 0.20172343
175 0.1775218 -0.10281153 -0.13755101 0.43375316 -0.13578431 0.49331018 0.13131247 0.25735807 -0.08789531 0.20579252 0.2424485 0.5268265 -0.36388075 -0.44376928 0.16017187 0.12929644 -0.27716646 -0.2175108 0.3597067 -0.023323309 -0.30452445 0.5216938 -0.44894034 -0.23974927 0.5768206 -0.15025279 -0.3404744 0.32801124 0.5063057 -0.5784181 0.34256482 0.00048079048 -0.15673885 0.2566382 -0.85899454 0.10168784 0.19037612 0.11309062 -0.2525324 0.17881402 -0.13099448 -0.12404105 0.27013302 -0.34824654 0.16822718 -0.7058293 0.4353534 -0.10189753 0.37805665 -0.57067615 0.17055424 -0.2783097 0.5130095 0.17831516 -0.34051448 -0.07072167 0.33825848 -0.13419102 0.2669457 0.34580413 -0.104108766 -0.036973096 -0.33569542 0.61721814
185 0.13701405 -0.0049916664 -0.10359947 0.47870648 -0.21107626 0.3634905 0.052923653 0.22646984 0.0064429985 0.31210312 0.2256418 0.47909737 -0.5413506 -0.47690752 0.25459784 0.07202965 -0.21372709 0.08549065 0.21675043 -0.021059077 -0.37475562 0.5449302 -0.52346194 -0.11962455 0.5791835 -0.042208664 -0.34100774 0.39514264 0.34298846 -0.5248967 0.41420606 -0.095929034 -0.09449237 0.113089755 -0.9310925 -0.096596524 0.10567936 0.16558532 -0.36245912 0.22747336 -0.15200031 -0.1653605 0.25241727 -0.33412418 0.2295824 -0.7155199 0.46933737 -0.063243076 0.41268632 -0.5166462 0.0990304 -0.14959699 0.4437069 0.2861073 -0.3548558 -0.12526067 0.26508775 -0.025345966 0.2569966 0.61736536 -0.047779232 0.006194206 -0.27988428 0.4777426
1682 0.11475113 0.13334042 0.45429456 0.64398885 0.16122285 0.16862082 0.015839586 -0.10428434 0.94975144 -0.42458817 0.15340728 0.39159083 0.5285961 -0.29280278 0.57483256 -0.5317104 -0.25867826 -0.08839426 0.5972626 0.26724187 1.1602292 0.2304505 0.12414087 -0.7218404 0.15076381 -0.28838244 0.3057197 -0.51194704 0.32541046 0.24061154 0.43377542 -0.3067003 -0.43492347 0.4608412 -0.22442967 0.80445814 -0.42561185 0.547553 0.4912734 -0.41832936 0.4998912 -0.23308638 0.6137545 0.46052644 -0.16604477 0.37694797 0.90809053 -0.97740525 -0.03591812 0.172129 0.43695742 0.43575686 0.03203806 -0.625374 -0.35476926 -0.19407827 0.2675956 0.4674174 0.10423507 0.41408595 -0.43135715 -0.03761527 -0.59440595 0.6494021
41 -0.5571812 0.9211628 1.1263685 -0.122208185 -0.14531906 0.42769673 0.10264577 0.1521475 0.47925606 0.26898468 0.6346458 0.13365039 0.086952664 0.3133345 0.16289344 0.39481533 -0.16658415 -0.12163295 -0.09645884 -0.6214896 -0.065270826 0.053630028 -0.21469529 0.14454786 0.022812791 -0.34635434 0.12284949 -0.025912708 0.32658675 -0.5452747 0.2617463 -0.011891053 0.11614505 0.6537758 0.02189289 -0.2641033 0.059637163 -0.4762733 -0.6929884 -0.19431438 0.1883683 0.12521508 -0.42567527 0.112958066 0.22843197 -0.39761195 0.1003492 -0.3038414 0.012153046 0.41058114 0.74673533 0.3310967 -0.34839082 -0.13106541 -0.06461469 -0.4358061 0.22615375 0.023312068 -0.2631253 0.13197955 -0.09853352 0.5837252 0.31801414 -0.13754307
907 0.108147115 0.39724034 0.46064454 1.0605822 0.13812487 -0.89667034 -0.002848197 -0.74082893 0.4847965 -0.35450253 0.7319595 -0.2742975 1.0444546 -0.0072290855 0.38615212 -0.97565824 -0.06939966 0.055692036 0.34273186 -0.58736444 0.29350653 -0.5803466 -0.75921005 -0.36421776 0.80584764 -0.015353141 -0.56566185 0.017016737 0.51978576 0.7063222 -0.021852607 0.3878767 -0.974554 -0.1184912 -1.0377467 -0.5103257 -0.98693925 0.049988724 -0.29924896 0.7198045 -0.056431767 0.34907216 -0.52290154 -0.33223185 1.1990262 -0.5980585 -0.22020824 0.016184047 -0.3325156 0.3961312 -0.43423116 -0.058730893 0.05302597 0.3359089 -1.6029565 -0.79988456 -0.69793534 -0.79811865 -0.7992905 1.9108307 -0.050745886 -0.3839334 -0.9217454 0.20559828
316 -0.3550857 0.5334038 -0.37648046 -0.22586007 0.4899755 0.30514458 0.7724053 -0.49763048 0.5667371 -0.11023271 0.39863423 0.21402198 0.070370786 0.18503757 0.04152964 0.26877308 -0.27193034 -0.11153386 -0.16299544 -0.04069422 0.4711157 0.36413383 0.39711106 -0.5995219 -0.08575419 0.77182394 0.39141157 -0.023053285 0.18784222 -0.4816124 0.31233275 0.66494006 -0.33124876 0.32866323 0.10931017 -0.0012605049 0.07761221 -0.3914886 -0.34088662 -0.560463 0.7220602 0.25138077 -0.5133717 -0.7854405 0.25863868 0.28612587 0.039079573 -0.227347 -0.30339554 -0.091408625 0.66606617 -0.37326717 -0.12392551 0.20449713 -0.10756181 -0.5813877 0.49624112 -0.91829103 -0.28750792 0.6092069 -0.09137539 0.55433404 0.16380079 0.4765365
368 -0.13571975 0.3152879 0.7464545 0.29341578 -0.19812074 0.26147357 0.29397336 0.03133239 -0.18844199 -0.17372948 0.033835776 0.0028816238 -0.16829377 0.266993 0.40090823 0.13309617 -0.33290106 -0.319865 -0.2848927 -0.35642096 0.26319078 -0.26502973 -0.002836465 -0.2512823 -0.14494348 0.07068412 0.04628737 0.24335483 -0.17611633 -0.5751171 0.62016124 -0.053141546 -0.13020346 0.548274 0.07939134 -0.11112954 -0.08118555 -0.53699636 -0.3590189 0.20355625 0.06666403 0.36702943 -0.5131618 -0.46124578 0.3685163 -0.26160088 0.24041422 -0.23285076 0.2878628 -0.60890967 1.0546747 0.3382214 -0.31363454 0.42366144 -0.12340375 -0.8982988 0.62645584 -0.1418595 -0.26901135 0.59398603 -0.46574503 0.3739878 -0.0026039016 0.113033
982 -0.07780909 -0.16075894 0.057558935 0.27725273 0.04275164 0.24528554 0.13068062 0.026820686 -0.027224246 0.32254392 0.22497034 0.47271836 -0.2715321 -0.45953962 0.0744135 0.034116875 -0.4471417 -0.07207218 0.36750823 -0.13799635 -0.1441677 0.6335923 -0.48715574 -0.3853539 0.670776 -0.24884601 -0.13913915 0.5439388 0.46965545 -0.5718307 0.27022684 -0.02138379 -0.11245285 0.16241944 -0.80915785 -0.06098881 -0.100999005 0.12665504 -0.39085072 0.08311148 0.031390514 0.262576 0.53233373 -0.42727867 0.12504196 -0.8731025 0.3986478 0.05742953 0.36466894 -0.49524498 0.2713734 -0.47020447 0.4773169 0.34579712 -0.41613653 -0.034963757 0.14985277 -0.16470264 0.24131167 0.13059944 -0.034016468 -0.029608054 -0.26412714 0.5752175
983 -0.07256632 0.071344785 0.2987354 0.13277926 -0.35244638 0.52649677 0.15708745 0.52318186 -0.17725803 0.37593943 0.20141108 0.44220567 -0.19862483 -0.41662648 0.45690745 0.050166324 -0.3413141 -0.044193055 0.28401044 -0.050346125 -0.121576354 0.3721871 -0.19537555 -0.46301365 0.5686771 -0.12739304 -0.32435307 0.49425587 0.350272 -0.70397437 0.15962513 -0.16560662 0.06653155 0.25849837 -1.0465257 0.42085823 -0.035297576 0.2567393 -0.29147717 0.28694406 0.043097306 0.056794304 0.3200933 -0.5373825 0.009064725 -0.62133974 0.51782364 -0.017859405 0.19814795 -0.16997719 0.28177202 -0.46749386 0.58897805 0.19359733 -0.26197436 -0.42638677 0.24788143 -0.30052462 0.17842057 0.18799224 -0.05058939 -0.3247642 -0.080538094 0.33247375
132 0.34128574 0.2166008 0.010790199 -0.24351165 0.0071325074 0.107806236 0.70921403 0.10980298 0.5167867 -0.07843731 0.06621898 -0.38830426 0.39651698 -0.33440575 0.65222704 -0.035519097 0.2108606 -0.35719356 -0.003477641 -0.030447733 0.38543895 0.39297247 -0.303721 -0.5971895 0.2527153 -0.38273105 -0.11284559 -0.2203166 0.2700006 0.27690557 -0.038295146 0.32682535 -0.40435797 0.16466366 0.5472023 0.19277793 -0.22805093 0.4900221 0.6283659 0.40620133 0.5338767 -0.32918185 -0.05892197 -0.24844302 -0.43906066 -0.08324902 0.40596375 -0.87001675 0.47945556 0.38813463 0.061177615 -0.14044514 0.07201182 -0.009325466 -0.005043817 0.052566513 0.22919069 0.0016431246 -0.10832734 0.19992466 -0.27764714 0.7331945 0.38801908 0.78128844
206 0.08068231 -0.014605193 -0.116637446 0.47567987 -0.015669899 0.4351359 0.1306051 0.17953712 -0.014403945 0.20115672 0.35174024 0.4442993 -0.30804354 -0.43760067 0.19357243 0.06367216 -0.41346157 -0.19011682 0.32518256 0.010951189 -0.10188501 0.51077 -0.21085578 -0.19542865 0.57659984 -0.18780753 -0.39499646 0.39056653 0.5258711 -0.47419307 0.26477996 0.06972632 -0.084258184 0.075811096 -0.9488266 0.09229695 0.23569958 0.18425706 -0.2339312 0.21928032 -0.26912332 -0.018374447 0.35747322 -0.3278387 0.15005563 -0.73644775 0.49247965 0.020047305 0.37473312 -0.5924254 0.19098882 -0.35289893 0.64758044 0.27545172 -0.343022 0.008067828 0.33095977 -0.15337631 0.1342996 0.20489283 -0.04010531 -0.037119165 -0.20992313 0.55493915
188 -0.051352866 -0.15852617 -0.08200543 0.4126989 -0.036650155 0.27193543 0.09625658 0.08225034 -0.004015845 -0.06901762 0.12002827 0.12860622 -0.30930695 -0.5756355 0.070680626 0.24630238 -0.62318236 0.020669352 0.60555065 0.057446435 -0.15717699 0.8314305 -0.33075798 -0.5383134 0.5373537 -0.09233026 -0.47808558 0.38759914 0.61687696 -0.37120914 0.18656565 0.15638253 -0.07212732 0.4920902 -0.4756918 0.007959435 -0.16051245 -0.16476664 -0.24368805 0.11738925 0.04876394 -0.28897768 0.46649614 -0.26940128 0.43567172 -0.8353938 0.45183665 -0.20138134 0.39370638 -0.3699725 0.45791394 -0.42262116 0.44993326 0.1965144 -0.499113 -0.038025998 0.0988851 -0.00011035226 0.3025058 0.15589315 0.21785885 -0.0053218165 -0.14654805 0.18768302
207 0.090739034 -0.022445248 0.07343094 0.38004187 -0.1396856 0.21401362 0.027018663 0.043685023 -0.11934308 0.07647721 0.2609331 0.6089869 -0.29353547 -0.34026906 0.100470126 0.06389007 -0.45832017 -0.15477127 0.10602911 -0.00795673 0.019886477 0.53807807 -0.36251846 -0.064868964 0.4768257 -0.25927332 -0.35509935 0.27983487 0.30598247 -0.6610833 0.2303676 0.07800616 0.022789676 0.15635145 -0.94694966 0.18480185 0.14380227 0.1631675 -0.3303693 -0.17650437 0.009415901 -0.05081532 0.27324042 -0.14812228 0.2226666 -0.8788028 0.21980263 0.17865422 0.44541588 -0.39267552 0.4459612 -0.4874663 0.57573164 0.4722104 -0.63530207 -0.16929266 0.50195193 -0.3637542 0.39267907 0.14481409 0.255304 -0.21792819 -0.23465581 0.44000468
204 0.18800624 -0.067185685 0.37207216 0.19663109 -0.2935976 0.37727585 0.19510542 0.17442147 0.018472333 0.16626021 0.044138882 0.33706123 -0.27595475 -0.3021022 0.17962539 -0.15265353 -0.3285421 0.09211283 0.28443345 -0.18228264 -0.25607607 0.4326606 -0.20094122 -0.17691746 0.19468708 -0.01650672 -0.06250421 0.35699227 0.61002 -0.7121855 0.3682639 0.23573925 -0.15353927 0.404704 -0.87833804 0.23966968 0.16180295 0.12787609 -0.23268111 -0.12485153 -0.29508886 0.3140053 0.27857012 -0.5130382 0.43301845 -0.8065655 0.57103074 0.02307797 0.5277695 -0.3990029 0.4201728 -0.23818488 0.48104474 0.47062954 -0.25395495 -0.08029663 0.31239527 -0.34687388 0.018348068 0.47246936 -0.048511375 -0.0900728 -0.19122778 0.30244276
988 0.01268082 -0.03783508 0.27846602 0.41298303 -0.13849694 0.038514327 0.28464252 0.4360852 -0.19868512 0.18611881 0.5225885 0.46423706 -0.36859778 -0.24807468 0.3841925 0.2341313 -0.044328004 -0.05038763 0.36600992 -0.32197148 -0.035578705 0.71487975 -0.37495166 -0.31136426 0.42197457 -0.029071394 -0.295658 0.42998475 0.33823353 -0.62715507 0.3069403 -0.08923426 0.0012281857 0.1816961 -1.2380544 0.203668 -0.01960538 0.11409903 -0.21645455 -0.054935247 -0.23680629 -0.031088473 0.10635859 -0.48665324 0.52121913 -0.7384048 0.1338817 -0.023554554 0.66997945 -0.5312213 0.23857856 -0.47308075 0.48019943 0.2638232 -0.5052983 -0.19942604 0.31374067 -0.18807098 0.116205744 -0.034518257 0.21689242 -0.12013457 -0.2234636 0.44439617
874 0.4826566 0.5735024 -0.23723711 0.80569834 0.29828894 0.18791762 0.053456545 0.090743646 0.2718317 0.1206659 0.47556782 -0.09794971 0.49571782 -0.3982171 0.53020155 0.6544763 -0.24763452 -0.18298988 0.31333128 -0.8843198 0.15878738 0.18736693 -0.115501486 -0.12543648 0.32902274 -0.23283261 -0.23165573 0.23721285 0.5874594 -0.15485884 -0.014044057 -0.38831076 -0.010662084 -0.16410773 0.45245516 0.47768712 0.16581759 0.10408596 -0.03271211 -0.35545236 0.6184935 0.6600302 0.23604476 -0.375359 0.011731607 -0.18544973 0.14177093 -0.24576278 -0.104406685 0.20580162 -0.6817021 0.414136 -0.39070198 -0.3224626 0.07280334 -0.67138666 -0.71675307 -0.26439422 0.4538916 0.51351064 0.1900243 0.40324995 0.20474602 0.4927736
399 0.049469918 0.12765694 -0.3957435 0.1479608 -0.003468363 0.08854392 -0.2844206 -0.044068433 -0.06751571 0.42786017 0.2864362 0.23829849 -0.5924316 -0.5577072 0.66265 0.5191745 -0.3662687 0.16166034 0.2268337 0.09118219 -0.04281102 0.09394047 -0.43224296 -0.3697451 0.25874302 0.185657 0.077820234 0.3551402 0.45756912 -0.42607442 0.05199849 -0.2550474 -0.32882762 -0.43602887 -0.77571833 -0.3860261 -0.0037225208 -0.002824416 -0.3608335 0.18678269 -0.4847695 0.15343972 0.21902487 0.043353487 0.3412946 -0.7208944 0.23555745 -0.06246968 -0.027443746 -0.7561834 0.29698327 0.22628377 0.22369541 -0.043754056 -0.32661986 0.36689848 0.25477886 -0.06261528 0.24385603 0.43667504 -0.6588275 0.20477988 -0.19582075 0.5959549
278 -0.11627971 0.2264562 0.129906 0.7449565 -0.2671232 -0.63393444 -0.47930452 0.6276827 0.97397774 0.5618318 0.7549062 -0.20562525 -0.32178837 0.065325305 0.48871946 -0.47053063 0.42514247 -0.80903655 -0.01354703 -0.10438572 0.8405276 -0.7121841 -0.20483907 0.4461787 0.08107251 -0.33940467 0.19835214 0.05678399 0.6980803 -0.7520373 0.32183513 -0.84293205 -0.091621146 -0.14464045 1.0205991 -0.35043204 -0.2159618 0.25802144 0.14247015 -0.16762327 -0.43416956 -0.75221163 0.55460566 -1.5187598 0.1974468 -0.2809094 -0.507703 -1.0692854 0.13784324 -1.2112398 0.52092105 0.08169387 0.07858317 -0.14967154 -0.3828338 0.020602778 -0.1389802 0.631684 -0.042878274 0.3791865 -0.14497702 0.8865544 0.23810229 1.0887177
1051 0.3114301 0.47744048 0.66507435 -0.055831995 0.13337915 -0.76048154 0.49807528 -0.92469376 -0.30986363 0.08222295 0.4337871 0.38674334 -0.047100574 -0.38807374 0.10642576 0.3730087 -0.18193077 -0.0013728188 0.6705949 -0.22280389 0.11539601 -0.22333705 -0.045676444 -0.30203503 0.5503219 -0.8304076 0.23916319 -0.7084221 0.29357696 -0.4813503 -0.15219751 0.3088402 0.0949348 -0.25043276 -0.34713402 0.15026258 -0.22101945 0.15133534 -0.5853334 0.16391036 0.14094482 -0.2137397 -0.055519033 0.32331407 0.075715184 0.18167286 -0.78006864 -0.16682184 0.56902224 -0.38497806 0.36227387 -0.23655038 0.75211644 0.34510815 0.2869523 -0.63708836 -0.22232376 0.27595624 0.2433384 0.2641057 -0.07254819 0.4296339 0.059909273 0.5241383
235 -0.29059833 -0.25604963 0.20630606 0.21938895 -0.3057681 -0.26711997 0.0901119 -0.5845228 0.71469396 0.07956863 -0.0029610374 -0.30075327 0.5270834 -0.6136774 0.16604227 0.1914958 0.12281394 0.1722604 -0.12298305 -0.09267816 0.59175426 0.737171 -0.41947728 -0.6589925 0.07606551 0.046807397 -0.22463815 -0.03980974 0.23447037 -0.5009248 -0.41820616 0.32736757 0.05351767 -0.05296918 0.80715036 -0.1551494 0.04474709 0.524245 -0.09399242 -0.25752908 0.19354662 -0.5030766 0.14643952 -0.22246268 0.5475563 -0.100269735 0.104595646 -0.29413268 -0.4180664 -0.93904155 0.67276716 -0.4333579 -0.15399021 0.24254349 0.040920835 -0.6897134 -0.44714576 -0.3093194 0.35958228 0.382539 0.013926751 0.4917659 0.17770252 0.039573845
309 0.022850696 0.48491624 0.24198708 0.24403429 -0.20690025 0.07271638 0.2843806 0.0111669395 0.42052084 0.14944603 -0.09919725 -0.039839335 0.15864992 0.35397086 0.6447227 -0.023314249 -0.7737715 0.25299463 0.13884176 0.2903887 0.374035 0.098652 0.083385065 0.006652062 -0.5359137 0.2693282 0.49842656 -0.44775373 1.2272162 -0.57421166 0.08978892 0.21704103 0.08185718 -0.29978368 -0.671414 0.12691614 0.12459502 0.29653475 -0.11173094 0.41407236 -0.35775065 0.4607021 0.058265455 0.65047115 -0.020307021 -0.12306754 0.61317414 -0.20718475 0.0049410127 -0.15272388 0.6379376 -0.36650127 0.06403636 0.28814936 0.24631408 0.03966673 -0.01832589 -0.48353538 0.15126151 0.22479187 -0.08986029 0.044575013 -0.20116733 0.44818184
205 -0.03341112 -0.0762039 0.036670174 0.3228343 -0.02871981 0.36079544 0.16750953 0.19663982 -0.0912121 0.08604053 0.23613368 0.45042405 -0.24097374 -0.5011324 0.15333372 0.16009048 -0.52337444 0.08258126 0.513929 -0.09455134 -0.09863279 0.73745966 -0.38993874 -0.44149837 0.47965127 -0.14715563 -0.32735628 0.64128727 0.62649465 -0.566465 0.2970882 0.054739412 -0.12911466 0.21984054 -0.89170337 0.012532161 -0.094041 -0.033049617 -0.27819365 0.0914802 0.12783207 0.017419174 0.4859029 -0.3093139 0.26121572 -0.805721 0.41590244 -0.021846501 0.41506907 -0.48236766 0.27314594 -0.46265885 0.61111915 0.22228666 -0.4619086 -0.047294233 0.1460205 -0.14108394 0.19296834 0.14706032 0.12980549 0.008289266 -0.19153528 0.51003766
198 0.09541774 -0.11190321 0.12773132 0.35139313 -0.20505655 0.36661515 0.26960585 0.20590469 -0.090967804 0.25279796 0.28489336 0.53750646 -0.35141113 -0.40107894 0.28544167 -0.03887386 -0.42554992 -0.012786735 0.35381523 -0.040411677 -0.18827303 0.6038723 -0.36132994 -0.3727408 0.46716598 -0.20330273 -0.2657576 0.49361864 0.5394595 -0.62529415 0.2911217 0.015425057 -0.025333446 0.31277177 -1.0318501 0.19701868 0.042513832 0.09044708 -0.4017761 -0.18487021 0.0039092456 0.035350155 0.39132175 -0.42743894 0.31597334 -0.76921654 0.51416737 0.016648207 0.48032105 -0.42130873 0.31700724 -0.44241816 0.64360785 0.33539125 -0.47920826 -0.19711986 0.15030994 -0.26846594 0.18005173 0.30683646 0.012661629 -0.16714282 -0.22443399 0.4769753
987 0.026207788 -0.021356715 0.16443205 0.39676717 -0.12041984 0.33360693 0.15204577 0.11854774 -0.03645248 0.2958458 0.2593806 0.46332124 -0.25789902 -0.40256098 0.21509874 0.08796686 -0.46913913 0.10416325 0.40616733 -0.03915751 -0.24900624 0.72457975 -0.36609063 -0.44388878 0.5868517 -0.18899637 -0.2059372 0.46245182 0.5636961 -0.55853486 0.19012351 -0.010192013 -0.014918469 0.23537073 -0.9872201 0.1823341 -0.07982306 0.036018338 -0.27850485 -0.0059731277 -0.10328296 0.061902545 0.5013314 -0.44079125 0.23723134 -0.86535937 0.42508534 0.03224656 0.46125725 -0.39713746 0.32353938 -0.3926911 0.5690504 0.3680275 -0.41122523 -0.1165651 0.16191436 -0.106900364 0.1480033 0.11426384 0.060544293 -0.1721623 -0.3302067 0.58567506
241 0.27839833 -0.0399536 0.19519478 -0.06561435 0.133666 -1.0736122 0.16776922 0.37993997 -0.0071645062 -0.035599362 0.32824966 -0.17328358 0.3077345 -0.69842595 0.7736345 -0.13612452 -0.9881188 -0.27027997 -0.27350214 0.17135544 -0.26199365 0.6681214 -0.39281148 -0.21438494 0.23875816 -0.32759753 0.08678584 -0.49524057 0.39699754 -0.35972273 -0.07393116 0.6219764 0.1953457 -0.60499966 0.5337429 -0.5592349 0.2294913 -0.48575994 0.009095843 -1.0426936 0.07554993 -0.09590493 -0.10588875 -1.1221732 0.18071732 -0.051205497 -0.4489343 -1.1029938 -0.15248297 0.627753 0.173777 -0.29069728 0.7693617 -0.55819577 -0.55159616 -1.139894 0.6718257 0.08203326 0.37508813 -0.14571549 -0.25608838 0.7300993 -0.71022034 0.34367877
653 0.47587493 -0.4998574 0.43370453 0.3241987 0.08254869 -0.2943445 -0.0978597 -0.31816453 0.06508471 -0.71172917 0.1981462 0.15392141 0.41725835 -0.6010929 0.3614676 -0.80723304 0.51295835 0.22912377 0.03312393 0.10180034 0.7221092 0.0864603 -0.17304902 -1.1107166 -0.021852473 -0.37330395 0.4809441 -0.6088855 0.29250553 -0.85432285 -0.27191472 0.29215202 -0.15825891 0.4270348 0.47437212 0.53560096 -0.23364995 0.3971767 0.22362562 -0.34960276 0.17088199 -0.12506327 0.24468616 -0.07146874 0.07938909 -0.30386367 1.1866047 -0.6908762 0.20113966 -0.13830759 0.24461873 0.30109993 0.4772783 -0.31421095 -0.5163735 0.6630421 -0.21495785 0.79610616 0.35299763 0.55261576 -0.3429401 0.7796741 0.069201 0.36794293
992 0.07683255 0.061038155 0.2160176 0.36363173 -0.19497056 0.5075016 0.14001255 0.24659128 -0.09279458 0.322402 0.21717232 0.5782215 -0.33880657 -0.43178353 0.25525382 0.0773374 -0.40646264 -0.06772519 0.27373073 -0.038106993 -0.22900482 0.6508941 -0.37293902 -0.39618146 0.61767316 -0.26850286 -0.28727844 0.42465422 0.5604234 -0.67872024 0.3207648 0.02150705 -0.008391459 0.26534197 -1.1294175 0.07102221 0.054782584 0.27920994 -0.22908913 0.015685275 -0.12139292 0.04632152 0.3344925 -0.45642227 0.22335488 -0.7288036 0.6005707 0.04315275 0.42100412 -0.42878696 0.26860356 -0.5077627 0.61362195 0.37466273 -0.5037637 -0.017689206 0.24504577 -0.22033429 0.15178853 0.28868353 0.030856239 -0.17743546 -0.1518733 0.5466535
287 0.10228085 0.028553894 -0.15892015 0.6110155 0.24389851 -0.28397447 -0.45874944 0.520161 0.48992816 0.00095538766 0.2074764 -0.22587548 -0.38389534 -0.26977152 0.32655847 -0.55725455 -0.03450565 -0.64454234 0.36281416 -0.31238228 0.9100814 -0.7380907 -0.5100556 -0.39857063 0.39019015 -0.071036346 0.25446662 -0.017160024 0.8906076 -0.53580123 0.35828575 -0.095619336 0.2872256 -0.1280735 0.90641767 0.81566167 -0.3524639 0.15156786 -0.0009917506 -0.17076623 0.39127067 -0.12586115 0.40004012 -0.32946128 -0.4464072 -0.07638287 0.029120127 -0.22058827 -0.467064 -0.9106869 0.33840102 -0.10597883 0.77004534 -0.49655214 -0.3998301 -0.056299612 -0.86801845 0.41838515 -0.14514452 0.24962297 -0.40533492 0.32338005 0.13830084 0.41917557
203 0.0997585 -0.014029679 0.13812482 0.56901586 -0.07496338 0.28235504 0.19792165 0.12256719 -0.014328925 0.27412677 0.26025513 0.5709692 -0.29557717 -0.3211405 0.14935306 0.0018429509 -0.48193946 0.022354104 0.33944455 0.028814692 -0.17050743 0.6315131 -0.2892059 -0.2790506 0.63788897 -0.09972818 -0.39991972 0.43952632 0.5015789 -0.55601424 0.100702465 0.14899114 -0.038229015 0.2554702 -0.9260456 0.1399365 0.05045757 0.18787563 -0.25410533 0.055949416 -0.14675812 -0.052154165 0.35021698 -0.37059426 0.20055354 -0.71138746 0.5450475 0.15325053 0.46062154 -0.42661178 0.16630991 -0.49333873 0.56800914 0.41726485 -0.37347415 -0.117758535 0.17072073 -0.09377153 0.17639494 0.20263675 0.09932895 -0.110647805 -0.20057377 0.44320014
986 0.074250326 -0.035954513 0.17896594 0.4209854 -0.14323926 0.33174536 0.1673392 0.24291724 -0.030984202 0.33388355 0.29236332 0.56831425 -0.36670858 -0.44111103 0.26208848 0.025312066 -0.38199556 0.0022639316 0.3057678 -0.13628101 -0.19612807 0.666854 -0.3342619 -0.39335272 0.61020833 -0.15298428 -0.31032902 0.47694385 0.5411071 -0.611491 0.3024859 0.07958404 -0.0507794 0.23338585 -1.0538888 0.21346843 0.077177785 0.11347516 -0.3163749 0.004494448 -0.044950135 0.003791881 0.34845227 -0.45973304 0.2663171 -0.7711695 0.56066597 -0.011762749 0.45922634 -0.48620483 0.27062196 -0.5066112 0.56288415 0.324523 -0.4684261 -0.098971084 0.2401445 -0.16479693 0.21588783 0.26840162 0.03775831 -0.1204814 -0.2641322 0.49140617
724 -0.35664976 0.19799443 0.21185362 0.0350952 0.014820156 0.39316168 0.22864969 0.4227041 0.4171671 0.1732162 0.35616124 -0.5282377 -0.21145302 -0.35548484 0.33833313 0.112455025 -0.036739387 -0.1957478 0.14899305 -0.34799397 0.41948766 0.38385105 0.41223577 -0.02436821 -0.5902275 -0.07758241 -0.39210236 0.27375445 0.30106813 -0.07534657 -0.67082244 -0.14807096 -0.45341644 -0.19620244 -0.38998914 -0.6798654 -0.389075 0.49733618 -1.0306337 0.4048122 0.2611737 -0.015001047 0.4173229 0.102309555 -0.30497858 0.1893456 0.10377123 -0.1106453 0.031459637 0.11810683 0.8194723 0.26027274 0.42845973 -0.39398414 -0.0010447222 -0.6841245 0.2219754 -0.6616313 -0.18822877 0.23459351 0.32244268 -0.23212683 0.31917524 0.6183052
201 -0.030860258 -0.037396953 0.12855071 0.39925906 -0.03409693 0.3334224 0.2669646 0.24959822 0.031208226 0.35074142 0.27067018 0.58830816 -0.23968858 -0.4235006 0.14312288 -0.020064283 -0.43173596 0.09916262 0.37710804 -0.14204109 -0.1644985 0.70741814 -0.3712809 -0.448968 0.53539824 -0.18129937 -0.31101656 0.616905 0.5072748 -0.6433691 0.43236697 0.067985944 0.022020984 0.17696378 -0.95742506 0.17079796 -0.048648816 0.024800844 -0.26214412 0.032783292 -0.06769934 0.024588197 0.46218517 -0.42848602 0.26591197 -0.81091535 0.5193168 0.015601622 0.4776713 -0.38712502 0.33461627 -0.48743677 0.5930892 0.3758228 -0.4840432 -0.17064364 0.10239919 -0.14503652 0.11521441 0.09318779 0.039748546 -0.09705243 -0.32737455 0.5044725
183 -0.03265225 0.08247493 0.07401739 0.36936295 -0.12700282 0.35252637 0.19570886 0.03126818 0.11530355 0.4419734 -0.0019356986 0.423696 -0.33575863 -0.3409198 0.40803105 0.103746735 -0.39686066 0.14025837 0.37640834 0.10177104 -0.22516142 0.41061616 -0.37354782 -0.40471974 0.7858217 -0.12748168 -0.34901926 0.3913819 0.45719814 -0.4753237 0.3845967 -0.038877733 0.18032107 0.37738574 -0.9210569 0.0015087001 -0.03826409 0.18697129 -0.23488997 0.032822017 -0.21276028 0.1488938 0.32123777 -0.52073514 0.31487072 -0.7089112 0.53925943 0.018222036 0.48990175 -0.3949443 0.30511516 -0.48205984 0.43732187 0.37476346 -0.42172274 0.10141831 0.31318423 -0.22294626 0.17808089 0.38822034 0.08273656 0.031393547 -0.07207742 0.476032
177 0.063581616 -0.021158945 0.13886747 0.38526163 -0.120980084 0.31095788 0.20478101 0.191689 -0.039331123 0.2868105 0.19354388 0.55120903 -0.33666545 -0.41667688 0.249047 0.09083212 -0.36205637 0.024459483 0.37345937 -0.10833957 -0.18652613 0.642955 -0.34068456 -0.4106647 0.5647825 -0.15737218 -0.25840598 0.5068779 0.5070421 -0.6038724 0.31658927 -7.1487757e-06 -0.023245463 0.26365167 -1.019728 0.14958785 0.05344181 0.135752 -0.28596205 -0.03374708 -0.054663148 0.03735568 0.33095008 -0.46257374 0.25533065 -0.6998353 0.5332334 0.022322502 0.5215047 -0.4140552 0.28385106 -0.56431615 0.569338 0.38582745 -0.4476815 -0.15014228 0.24225461 -0.21213129 0.17802484 0.23144084 0.028514937 -0.07944593 -0.24198838 0.5382251
1851 0.02487966 -0.07455681 -0.019513149 0.15884201 -0.20382603 0.23306684 0.14205733 0.1246136 -0.19219995 0.20581861 0.39296314 0.63698936 -0.2819815 -0.5380754 0.17665368 0.19653991 -0.39635044 -0.118315406 0.353259 -0.17170285 -0.09707026 0.43311104 -0.48550266 -0.3556239 0.52644485 -0.20784199 -0.25299266 0.44081798 0.48772648 -0.7300738 0.23438999 -0.18232101 -0.11998049 0.13543892 -0.8786375 0.036862396 -0.017999815 0.08633468 -0.47749218 -0.1041471 -0.13689141 0.039415162 0.3600099 -0.38525656 0.25819394 -0.7624555 0.40817365 0.23632437 0.4148074 -0.5195589 0.3753431 -0.32129714 0.55542797 0.25527632 -0.49818844 -0.2376922 0.24261704 -0.28485906 0.3985991 0.18856815 -0.095983334 -0.13832222 -0.2719503 0.36067843
809 -0.5336165 0.63176304 -0.010307148 0.2434652 -1.0430776 -0.44385785 -0.3807033 -0.2541488 0.80114084 0.5520621 0.45451683 -0.121024646 0.35051712 -0.81630164 0.3854525 -0.47080672 0.3499231 -0.37336332 0.09143513 0.03628249 0.79084605 0.3847043 -0.02667777 -0.2555965 0.32908013 0.03930199 0.43428016 -0.4808586 -0.011829233 -0.6830809 -0.13868858 -1.0766011 -0.1930717 -0.042223588 0.8665303 -0.12480871 -0.011933951 0.4885147 0.33154967 -0.45558771 -0.5482648 -0.6864594 0.13869429 -1.0988996 0.40733033 -0.14904842 -0.22384006 -0.76251256 0.117649935 -0.9686731 0.31571156 -0.017681377 -0.1981687 -0.18639424 -0.29582062 -0.21463928 -0.22567882 -0.103926025 0.08583884 0.17429839 0.012420888 0.6737101 0.6064255 0.7786148
618 -0.28094888 0.6865007 0.48116726 -0.25307736 0.40098798 -0.06094974 0.108711764 -0.09828303 0.8521362 0.09904579 0.559 -0.089911014 0.16046871 -0.25739488 -0.0022224425 -0.042233825 -0.23865272 -0.25356498 -0.08278938 -0.24891496 0.26903397 0.15934443 0.58834803 -0.28442734 -0.3902208 -0.054450907 0.11816134 0.5297117 0.0525541 -0.3599171 0.34836423 0.22781184 0.061078522 0.12936048 -0.18567169 -0.47260267 0.3382555 0.2629346 -0.8678155 -0.081844956 0.7959388 0.14142221 -0.00082121516 0.059698097 0.02980387 0.10651574 -0.10848173 -0.1031415 0.21647169 0.07480519 0.7776687 -0.10226066 -0.22488257 -0.4404494 -0.514401 -0.61850864 0.22670797 -0.84565294 -0.012735806 0.2879813 0.49731898 0.7882171 0.63159484 0.14697248
180 0.17519708 -0.09107102 0.18503207 0.32594943 -0.1887058 0.33372492 0.45818546 0.24456249 -0.16320993 0.19989032 0.28926414 0.55060583 -0.29554304 -0.365623 0.2707124 -0.080826454 -0.518459 -0.01831666 0.42168605 -0.06840297 -0.2018291 0.571267 -0.29521474 -0.24642104 0.2892077 -0.20911 -0.058751434 0.39785928 0.692442 -0.70917743 0.25561437 -0.15781423 0.032023594 0.4121528 -0.9444624 0.10238729 0.05372535 0.12630494 -0.34669775 0.003215937 0.040667403 0.08411123 0.3961499 -0.19831814 0.1973947 -0.64178085 0.36490482 -0.008884634 0.4600019 -0.4565766 0.22721544 -0.36814874 0.58800673 0.32950026 -0.4268975 -0.20999429 0.10685042 -0.20817658 0.16830923 0.22755584 0.0048718406 -0.3484502 -0.18266732 0.60826725
181 -0.00015172457 -0.057105307 0.11332841 0.35851043 -0.13648424 0.3704254 0.21254799 0.23789746 -0.044923242 0.3148632 0.25780365 0.52278066 -0.2827574 -0.4021517 0.31646436 0.075840324 -0.40826094 -0.02245025 0.35960227 -0.14839907 -0.24180882 0.65178704 -0.3666863 -0.4312472 0.66011316 -0.15334083 -0.28405678 0.47946495 0.5662418 -0.59735894 0.32529566 0.070735 -0.02226424 0.2756757 -1.0327463 0.14040841 0.08141864 0.13400844 -0.29957107 0.00017394449 -0.113641925 0.08295528 0.30303025 -0.5112546 0.20092402 -0.74594045 0.5548208 0.037408777 0.525015 -0.3865545 0.25303313 -0.44188833 0.5595905 0.40088826 -0.49514115 -0.0784123 0.31410334 -0.20906128 0.1927765 0.22082 0.05196691 -0.14420111 -0.23247059 0.6265168
31 0.22059597 0.49903354 -0.2903416 0.09875151 0.17730616 -0.08970608 0.23702243 -0.05179755 0.95654804 0.22253433 0.16160679 0.14227045 0.34659904 0.13309693 0.5323532 -0.14080109 -0.65983063 -0.01998933 0.26735726 0.1494625 0.077916965 0.13630347 -0.16339202 0.22989194 -0.38915718 -0.13321367 0.054716907 -0.64978987 1.0217187 -0.7654874 0.2563503 0.17254563 0.42883658 -0.07662049 0.13656525 -0.42774582 0.6519166 0.061932582 -0.007922885 0.8497164 0.2564998 -0.18438765 -0.28978485 0.6376197 -0.3066303 -0.3269355 0.57706106 -0.61074525 0.7718987 -0.14716332 0.26287097 -0.09724369 -0.023432128 -0.44851914 -0.05933171 -0.47231078 -0.1137525 -0.39431095 -0.017910456 0.46848416 -0.20083308 -0.76430666 -0.38969827 0.67277706
16 -0.53344786 0.41296864 -0.09791369 -0.013555469 -0.083100796 0.33963725 -0.36529678 0.07440484 0.12322494 -0.034466557 0.34629038 -0.07195492 -0.035178628 -0.2267611 0.30659375 0.095377125 -0.9607746 0.18599418 0.2550222 0.09046679 -0.25171193 0.20528987 -0.357285 -0.082566544 -0.2584018 -0.03266285 0.24217896 0.038615413 0.579029 -1.0660044 0.5382466 -0.20798817 -0.21356645 0.4572304 0.25059605 0.06407049 0.30451003 0.12788408 0.20935352 -0.12972583 0.6965822 -0.6809823 -0.3583137 0.44715393 -0.13163051 -0.28583056 -0.28893968 -0.20632955 0.27763245 0.0981684 -0.22388059 0.38210523 0.1260742 -0.14364225 -0.2689835 -0.6879121 -0.4197597 -0.08394036 -0.33877128 0.5436362 0.4957698 -0.18138684 0.18317336 0.6335446
984 0.10509653 -0.03515047 0.07133433 0.43893614 -0.18430296 0.3639249 0.16017838 0.23375273 0.009055406 0.3103903 0.3198829 0.56517273 -0.37969393 -0.52515626 0.2110731 0.11293812 -0.33810928 0.07297525 0.4005208 -0.047543775 -0.24437755 0.5439385 -0.45329565 -0.36005723 0.66021127 -0.1391419 -0.38394397 0.4760745 0.5642052 -0.5953435 0.17344137 0.047788844 0.07853366 0.29384655 -0.9520896 0.075184286 0.11199836 0.20802005 -0.34671685 0.071990676 -0.14696972 -0.10860116 0.2991193 -0.48537675 0.20664136 -0.7195439 0.56071234 0.0423292 0.4630879 -0.31838205 0.32422003 -0.45282444 0.57000583 0.2912256 -0.47775266 -0.14645568 0.33630335 -0.2050842 0.24832664 0.27559343 0.0595843 -0.11378591 -0.22990094 0.5537241
21 -0.64598244 0.91717213 -0.2118449 -0.31356546 -0.16194041 0.61094457 -0.83839023 0.17876402 0.022546293 -0.20016894 0.8060058 0.021622453 -0.5469006 0.6799238 0.64971256 0.6046864 -0.444439 -0.5632302 0.54332006 0.2172205 0.17512397 -0.45517743 -0.5717979 -0.41538325 0.0033411987 0.041055135 0.37750807 -0.49538442 0.10371336 -0.8154997 0.81736654 -0.28038928 -0.4152715 0.9138218 0.046544027 0.24168642 0.12449346 -0.0034749892 0.016915409 -0.38224715 0.3800325 -0.3056806 -0.0969592 0.44089544 -0.2902376 -0.9917662 -0.21298286 -0.21500982 0.46537957 0.29924145 -0.11683138 0.2986168 0.5899336 -0.44518322 -0.8980344 -0.9004232 -0.28394702 -0.36213946 0.121187374 0.48093984 0.2190914 0.0057017016 0.26373187 -0.022969158
174 -0.033709317 -0.015236257 0.13675135 0.38296774 -0.17341715 0.45225087 0.24388826 0.25582278 -0.04302764 0.25096163 0.32980105 0.5554682 -0.22973213 -0.45555112 0.2352928 0.076437704 -0.4563854 -0.026461126 0.38402867 -0.08847765 -0.22206281 0.6958336 -0.38459426 -0.44055578 0.5822669 -0.19869538 -0.30953857 0.53394055 0.569185 -0.6272765 0.24396163 0.050277825 -0.050321713 0.29432556 -1.0584483 0.13464636 0.07504311 0.16461003 -0.38597962 -0.026441101 -0.067735806 0.036586933 0.33570194 -0.5001959 0.2770582 -0.8156681 0.5716327 0.050139785 0.51842904 -0.44550785 0.36550546 -0.4909413 0.54760826 0.37784672 -0.46844837 -0.17121139 0.23940276 -0.18932907 0.21530892 0.23463795 0.05977352 -0.16883877 -0.28021616 0.5395953
991 0.03215489 0.006244046 0.08296235 0.36861798 -0.27611014 0.41504717 0.16519101 0.26315463 -0.027024198 0.315198 0.24359547 0.5131505 -0.35471526 -0.4000809 0.27091348 -0.017805357 -0.3468671 -0.08686788 0.22436772 -0.12727405 -0.1678125 0.62310874 -0.36109948 -0.41977873 0.55834866 -0.16765645 -0.2393177 0.53245854 0.56560296 -0.6582035 0.19622245 -0.06383065 -0.011099836 0.22196195 -1.0800643 0.13827936 0.017898675 0.16271606 -0.294659 0.001700605 -0.15325563 0.0055387053 0.310906 -0.4580543 0.22357537 -0.7487053 0.5085231 0.05649708 0.49288294 -0.44483274 0.27323243 -0.48406884 0.6322415 0.3327401 -0.48424748 -0.12916219 0.23103645 -0.27805755 0.17887206 0.24004792 0.009401032 -0.20870526 -0.22713637 0.53616166
990 0.1498431 -0.11809801 0.13085176 0.44019172 -0.11966714 0.28472888 0.24940927 0.20713414 -0.104694605 0.27461365 0.30292624 0.54289335 -0.33997843 -0.379792 0.23781958 -0.07488789 -0.41043842 -0.025799407 0.30452606 0.0010108356 -0.19137031 0.60649735 -0.33803308 -0.37994328 0.5475186 -0.13152625 -0.32750422 0.4588347 0.45418128 -0.6781201 0.22613594 0.040412724 -0.075459436 0.2612556 -1.1533853 0.22719814 0.01319436 0.22509773 -0.34985328 -0.08814626 -0.16456482 0.09624029 0.36277008 -0.49245757 0.34754956 -0.73808414 0.50153244 0.035511415 0.46125504 -0.43156418 0.37264413 -0.5576231 0.6341158 0.36316 -0.45572007 -0.23017304 0.2157641 -0.34348816 0.12579726 0.42541018 0.040885534 -0.19892578 -0.2602323 0.4682458
189 0.013721652 -0.04519208 0.13902563 0.3687618 -0.18079093 0.33506995 0.20077138 0.2687814 -0.061211888 0.24646354 0.2595414 0.58072823 -0.37809518 -0.45349532 0.27521273 0.06884991 -0.40205732 0.005142624 0.34859836 -0.088665456 -0.17325488 0.67778945 -0.301374 -0.44321808 0.5614263 -0.18345714 -0.31055048 0.49404585 0.5552954 -0.6858885 0.325692 0.013488681 -0.002498159 0.28463414 -1.0395625 0.1504681 -0.025857713 0.1000158 -0.3232849 -0.108740866 -0.0454129 0.02661041 0.33060753 -0.5094525 0.22638275 -0.7878066 0.5131511 0.05892672 0.4910996 -0.44917798 0.3781631 -0.54224867 0.6157963 0.40147617 -0.47971562 -0.15028629 0.16635442 -0.28675693 0.20081729 0.22283003 0.036293577 -0.15344083 -0.24506716 0.53352886
673 -0.06701887 0.38506016 0.5224691 0.078719795 0.23388234 0.23030938 0.4092409 -0.0061700423 0.3129366 -0.31590953 0.6295614 0.26598036 0.29087043 0.0028150463 0.72921354 -0.2981815 -0.18615642 -0.2559538 0.34596485 0.32010648 0.5651258 -0.5009552 -0.39654276 -0.427408 -0.22834632 -0.19606473 0.47203416 -0.2871078 0.36421263 0.12260509 0.3729035 0.29475996 -0.15454543 0.22281055 -0.08422826 -0.27267823 -0.07563092 -0.02888053 -0.41774523 0.7651812 0.45701146 0.36440435 -0.13798627 -0.6306785 0.17324695 -0.46359128 0.19211896 0.6975624 -0.31451842 -0.85000896 -0.04582139 0.9588245 -0.17824519 -0.16804211 -0.048781563 -0.31911257 0.45193884 -0.18172185 0.13436288 -0.60948396 0.6432155 0.6004507 -0.08741695 0.70148206
2290 0.35338613 -0.20992632 0.5368469 -0.05550783 0.1540955 0.20489445 -0.30007166 -0.41733032 1.0237604 0.31871063 0.40941107 -1.0633596 0.031901177 0.1349149 0.14906333 0.5725087 -0.50396705 -0.2771991 -0.23823692 -0.61658347 0.12604344 0.2850583 -0.1397711 -0.1686448 0.04279788 -0.39312887 -0.15222725 -0.1921704 0.40755433 0.14891818 -0.17036815 0.28396606 -0.8682722 -0.2681557 0.2794953 0.28218853 0.32966226 0.5898191 0.006800579 0.13803095 0.05876442 0.23193988 0.4307322 -1.0059485 0.28679222 -0.55074656 0.12471989 -0.19149673 0.11862287 -0.29354876 -0.43961817 -0.056429032 0.61289936 -0.72045743 0.42939633 -0.6218247 -0.34770206 0.064995736 0.0034535683 0.17742078 0.41943568 0.57828665 0.055540998 0.37126425
193 0.05781695 -0.05524467 0.010522845 0.33866462 -0.1389322 0.35343125 0.18730688 0.23270708 -0.0060418053 0.29975033 0.24598488 0.58973545 -0.32982627 -0.35987985 0.2695376 0.036739692 -0.4309664 0.046288215 0.39487767 -0.0947914 -0.17843033 0.59440845 -0.2826816 -0.4286725 0.5226826 -0.15996099 -0.25542212 0.4245982 0.49590054 -0.6689057 0.26208952 0.042193115 -0.044249173 0.19949608 -1.0442398 0.14962499 0.028121298 0.14612299 -0.32920715 -0.02738306 -0.12884104 -0.013544205 0.38529518 -0.45708036 0.32281348 -0.75533944 0.4971193 0.05456084 0.48780423 -0.3728268 0.3207596 -0.50128573 0.5477312 0.3843762 -0.40424198 -0.12941134 0.24405442 -0.20791924 0.17489575 0.23120427 0.054420516 -0.11474526 -0.20893542 0.5330231
631 0.21985257 1.1804458 0.7652278 -0.2454115 0.103190295 -0.23100734 0.12042504 0.0159619 0.8034669 -0.021293338 0.47562358 0.2797755 -0.11298363 -0.05021788 0.07083194 -0.16364257 -0.05701472 -0.48720855 0.029203266 -0.5597136 0.30636853 0.17121005 0.23267198 -0.097892664 -0.5762279 -0.59478086 -0.46234682 0.08166969 0.22837803 -0.2802917 0.44100043 -0.038058277 -0.018456863 0.79577863 0.023847835 -0.44488636 0.18747075 -0.06252831 -0.85441333 -0.18056484 0.69832325 0.17514288 -0.36965185 0.04528889 0.3773421 -0.47834522 -0.010262435 0.47435626 0.055611517 0.02498542 0.9056514 0.13817742 -0.30821335 -0.26875356 -0.7302336 -0.5117155 0.852911 -0.44481933 -0.12615755 0.15307619 0.33217537 1.4570605 0.7563869 -0.09161889
1411 -0.60737425 -0.0045354553 -0.17740472 1.4410435 -0.55882597 -0.10683236 -0.44517958 0.5113901 0.6185306 0.076825574 0.48848253 -0.16549362 0.5109563 -0.46450824 0.19692442 0.32308555 0.09627599 1.0255209 0.33407602 0.29510912 0.53630733 -0.35195318 -0.4974016 -0.26288274 0.78704655 -0.5310302 -0.072786234 -0.21571665 0.66921896 -0.49689928 0.34219792 0.54804254 -1.089479 -0.42117938 -0.28381267 -1.1932151 -0.32131287 -0.84841895 0.14585574 -0.894526 0.20364244 0.25795463 0.093876705 -0.34807763 0.37234965 0.31228408 0.098094754 0.014291988 -0.117271915 0.48034284 0.0962463 0.40913975 0.39695683 0.24757013 0.13927066 -1.3320963 -0.012148623 -0.46697396 -0.26195037 0.6174821 -0.3177723 0.9981826 0.5293876 0.32972875
981 0.062292445 -0.04919863 0.25088948 0.38721964 -0.33542156 0.34224346 0.32894382 0.06350033 -0.2052754 0.214348 0.3942388 0.50951934 -0.25478745 -0.4798262 0.068830974 0.13651982 -0.4869655 0.030766144 0.30827883 -0.13464478 -0.11264919 0.4601224 -0.41834298 -0.15109053 0.39658886 -0.13186803 -0.27343458 0.61477315 0.47555932 -0.6423049 0.21918443 0.0019314542 0.06708089 0.36470863 -0.9932308 -0.06933408 -0.09845514 0.15706186 -0.4614102 -0.21984404 -0.21829136 -0.13042721 0.27747992 -0.372858 0.35782534 -0.7976803 0.53559476 0.19222006 0.5347869 -0.42464826 0.31596562 -0.40847203 0.6027248 0.34333184 -0.492691 -0.24954148 0.22683994 -0.1305064 0.26342344 0.45763382 -0.035028998 -0.020254737 -0.07693426 0.35618356
186 0.106026 0.003369008 0.13558082 0.4138138 -0.13375747 0.3606859 0.13016528 0.23986576 -0.14022578 0.30936146 0.24173348 0.5471382 -0.32525015 -0.4389454 0.25253776 0.02634919 -0.4064343 0.011994737 0.28961647 -0.117985934 -0.20274575 0.62140465 -0.41122967 -0.28670523 0.5336917 -0.1328786 -0.25992745 0.50198287 0.61197346 -0.61986583 0.32320622 0.04735428 0.00011009197 0.23777825 -1.0598409 0.23017344 0.05944168 0.09896588 -0.32711437 -0.049944073 -0.1525453 0.042842604 0.27754462 -0.43313488 0.29028106 -0.7580878 0.4809719 0.09829917 0.48683232 -0.41649023 0.30147314 -0.4816162 0.5888112 0.4179175 -0.5064044 -0.17319985 0.29840007 -0.3311131 0.24286819 0.29623416 0.04639907 -0.1553983 -0.31681043 0.6015876
196 0.01795668 -0.042672064 0.15839903 0.3169579 -0.15106747 0.2936854 0.21075107 0.28675038 -0.050382093 0.25374237 0.23557504 0.49491093 -0.32004037 -0.34473017 0.2610567 0.024840744 -0.41627887 -0.025513714 0.3641289 -0.07206924 -0.15228347 0.6141742 -0.4642499 -0.40304938 0.4711362 -0.13836558 -0.269684 0.45082408 0.46329623 -0.6846635 0.27543885 0.027577585 -0.030524261 0.29997316 -1.0935594 0.20106483 0.05853416 0.16730395 -0.26433644 -0.06768101 -0.13823417 0.04302792 0.34590504 -0.44603616 0.23987857 -0.74732894 0.5287725 0.031470675 0.4776031 -0.40386042 0.33253554 -0.47144282 0.61993784 0.32617342 -0.4770791 -0.08297575 0.22973493 -0.25532725 0.19478336 0.31537843 0.07197998 -0.12111868 -0.17722501 0.5932821
1561 -0.3087687 0.96032614 0.46966407 0.77154124 -0.06562224 0.21230085 -0.040825672 -0.31956583 -0.14335643 0.33855173 1.1813395 -0.01644135 -0.3993242 -0.055106442 0.024676653 0.018528044 -0.85195345 0.35046303 0.19923419 0.43565285 0.2580158 -0.4036431 0.7188981 0.10673802 -0.051219333 0.14497985 -0.6880036 0.3030401 0.7430686 0.029598858 -0.21789044 1.1222882 -0.7853585 0.41823757 0.14642124 0.20450124 0.0753466 -0.20406371 -0.20200466 0.37825304 -0.16678602 -0.44444653 0.3408666 0.31922594 0.042572185 -0.3018346 0.3847068 -0.40830114 0.14983036 -0.50373036 -0.24892925 0.30773324 0.1914098 0.21064329 -0.94242877 -0.62570757 -0.20308031 -0.10609021 -0.1885129 0.05690677 0.28842828 0.90134674 0.25484154 -0.2534314
1433 -0.0005905012 -0.09323296 -0.56184256 0.82221985 -0.143625 0.15658583 -0.12102546 0.14209482 0.049158704 0.69403774 0.60274154 0.22325104 0.6444753 -0.27831522 0.19385782 -0.28024885 -0.768472 0.024913892 -0.28152964 0.49345452 0.6252303 0.6217902 -0.13696449 -0.05073333 0.8454046 -0.24419142 -0.21506564 -0.75387186 0.19888932 0.0579746 -0.13301039 -0.11716714 -0.15612513 -0.7532545 0.66217035 -0.5887852 -0.4372802 -0.15369558 0.42934507 -0.6775578 -0.046869196 0.65885663 0.40477273 -0.81190354 0.94984007 0.09791899 -0.60580605 -0.21742438 -0.13575959 0.6724182 -0.035676975 0.33074534 1.0997831 -0.5934613 -0.50539684 -1.0894274 -0.23106483 0.050252542 0.09485275 -0.47093955 0.16412397 0.72383857 0.22694615 0.9636314
197 0.018362492 -0.055794645 0.15458964 0.41146895 -0.12703297 0.34071118 0.19936164 0.22740728 -0.08363943 0.2455394 0.27853468 0.6015052 -0.30718434 -0.3643169 0.2195296 0.049697887 -0.47944507 0.00082719704 0.34867066 -0.07028305 -0.21756619 0.66772276 -0.37875223 -0.42322552 0.60247743 -0.20026532 -0.29869118 0.583612 0.61552095 -0.6217818 0.26739812 -0.026537608 -0.040329766 0.28846735 -0.96096915 0.15834527 0.052596487 0.1263877 -0.32471275 0.00021516712 -0.08495952 -0.014354278 0.3167061 -0.4850686 0.2395415 -0.794193 0.5087227 0.026185488 0.42111486 -0.444821 0.32157964 -0.4886174 0.58007306 0.3678619 -0.41561422 -0.19669779 0.206663 -0.21597655 0.17198071 0.19908279 0.055230223 -0.13257456 -0.22589566 0.465644
1468 -0.46789584 0.4396259 0.37713248 0.1134511 -0.19591641 0.33661076 0.75573796 -0.102330215 0.1169437 0.26266542 0.40240163 -0.16216151 0.1495379 -0.049675036 0.31860703 0.14865746 0.04814244 -0.4615274 0.31601706 0.3162664 0.48517427 0.9497881 -0.101608686 -0.37039548 0.32880685 -1.0138187 -0.36315855 -0.0026260503 -0.059636742 -0.5727169 -0.009873681 0.50573915 -0.0723384 -0.2777884 0.22101672 0.20957288 0.0994383 0.27518 0.4119599 0.14358176 0.34679005 0.41908765 0.095973685 -0.1617293 -1.0626277 -0.35396957 -0.3199655 -0.96268123 0.20259203 0.50316924 0.09183071 0.38182074 -0.49243194 -0.051902145 -0.031046363 -0.3200498 0.17244297 -0.13147561 -0.6157231 0.51603633 -0.41673705 0.7425345 0.43507865 0.33875045
847 -0.12829776 0.6772574 -0.23858623 0.11283441 0.13005017 0.3856098 -0.072257794 0.398721 0.26500663 -0.5034826 -0.16312177 0.16261573 -0.15025629 -0.49110675 -0.1512181 -0.022753844 -0.20498273 0.33764416 0.06195754 0.104404524 0.2608456 -0.12262554 -0.42886528 0.04879401 0.5166007 -0.4165874 -0.2825956 -0.26094067 0.028802907 -0.25118023 0.24374822 -0.41093084 0.17487551 0.043061156 0.016861597 -1.0714966 -0.31498772 -0.347177 -0.58736414 0.59820133 -0.25001085 -0.11507473 0.29456636 -0.17852303 0.02944318 -0.49305445 0.34071496 -0.3423541 0.5571558 -0.28688776 -0.9343964 0.46731117 0.2303489 0.53781116 -0.2730624 -0.3495504 -0.13278534 -0.02888533 0.046594333 1.4911046 0.20196003 0.35331866 -0.3076992 0.10217013
195 0.04255895 -0.12642689 0.13866001 0.3764154 -0.11096522 0.3144876 0.17292078 0.16240747 0.04573704 0.28119686 0.17751943 0.48871693 -0.28431892 -0.4845211 0.24223065 0.03374572 -0.41347322 -0.011668709 0.40549058 -0.06606525 -0.21724342 0.55215436 -0.39355907 -0.40759787 0.5269139 -0.21932055 -0.3277866 0.51284003 0.62081695 -0.65684676 0.30604008 -0.018892251 -0.0029731444 0.2918305 -0.99058115 0.17494224 0.044357542 0.20142797 -0.2894951 0.014522604 -0.061593693 -0.038274318 0.36450478 -0.4602689 0.22934186 -0.79472476 0.59196717 0.024135532 0.41071525 -0.4268133 0.40057454 -0.41850317 0.5538738 0.3968374 -0.38687935 -0.103040256 0.20896855 -0.22220188 0.25842914 0.2829413 0.039419983 -0.154524 -0.23614578 0.54609084
236 0.76358426 0.022370446 0.30778104 -0.23167017 0.15345384 0.08576803 -0.058841527 -0.44540986 0.37271464 -0.6178742 0.46704775 -0.50008535 -0.61847925 0.08557021 0.35549426 -0.72547764 0.02636138 -0.57836336 -0.035358373 -0.76576644 0.77086306 0.57783794 -0.03733214 -0.066320986 0.1794238 -0.021182746 0.036262497 -0.14306763 -0.051529564 0.3132132 -0.16204521 0.11533485 -0.3228564 -0.29874578 0.4578279 -0.33060002 0.7393972 0.4916734 -0.6065077 -0.47664315 0.1056874 -0.057931427 0.30292505 -0.6134546 0.19965793 -0.64488894 0.22139502 -0.9175217 0.2627268 -0.6677056 -0.032743663 0.028015025 0.662861 -0.49708852 0.5383655 -0.7364317 0.025381496 -0.35490885 0.0713219 -0.08759791 -0.49307182 0.47859076 -0.6248846 1.015677
2606 0.40139967 -0.02175115 -0.11300617 0.24753414 -0.7722562 -0.9769541 0.33953825 0.6004211 -0.042617142 0.44395477 0.17328006 0.32243526 0.32847404 -0.3254034 0.57980907 -0.46772364 -1.4745427 -0.945435 -0.8183176 0.92048836 0.15296052 0.35980442 -0.18625416 -0.19667909 0.6176687 0.15923215 -0.1378551 -0.8483043 0.6546853 -0.6278347 -0.9273208 0.5096624 0.01595143 -0.35982358 0.57789016 -1.0407251 -0.010583187 -0.4052334 0.08378153 -1.4178902 -0.13458547 0.69991165 -0.47231412 -0.9342815 0.31380704 -0.37025425 -0.31085542 -0.44262585 -0.26852763 0.7505784 0.19881539 0.26561865 0.69753325 0.13846593 -0.5392208 -1.1997098 0.24314778 -0.29498693 -0.099119134 0.12794362 0.19613016 0.6030807 -0.81089056 0.078855895
3585 0.09732831 -0.12730733 0.120118886 0.39450902 -0.1012632 0.3697139 0.15222481 0.21163428 -0.058889356 0.31840208 0.24320811 0.49204808 -0.374929 -0.38612556 0.30520523 0.0492524 -0.36853787 0.055497505 0.26230383 -0.09530669 -0.2248859 0.6583712 -0.26760748 -0.42054147 0.5452791 -0.19535396 -0.2647339 0.5320743 0.61781085 -0.572115 0.3335275 0.07002809 -0.0011129328 0.26904178 -1.0222493 0.22935784 0.13255312 0.14178316 -0.29756635 0.007187919 -0.1006619 0.04509356 0.3465638 -0.51787233 0.28591278 -0.7812283 0.5606053 -0.0742732 0.489843 -0.48302388 0.35984397 -0.5187228 0.55694497 0.30348426 -0.49514928 -0.13369733 0.26295024 -0.2354392 0.16571526 0.23940396 0.12693182 -0.13520925 -0.25865838 0.6063352
194 0.078948654 0.15877414 0.27054483 0.2521533 -0.23236157 0.3724016 0.19949609 0.2215177 -0.10593627 0.109095484 0.25451773 0.55656993 -0.35050783 -0.36412287 0.29191872 0.05533281 -0.32315353 -0.07317148 0.3000523 -0.19836184 -0.13949025 0.46232134 -0.47505355 -0.34966356 0.5056378 -0.011506276 -0.219132 0.51071477 0.4502869 -0.6365495 0.3058818 -0.12696376 -0.04835334 0.48341012 -1.1306385 0.18026845 0.07082959 0.07786047 -0.4036632 -0.039211627 -0.14752285 0.09634081 0.21556766 -0.3796186 0.33876178 -0.5960314 0.5440539 -0.048537575 0.5194428 -0.4527477 0.27268463 -0.3985284 0.39558804 0.28294072 -0.42210034 -0.25071403 0.477494 -0.21392396 0.126919 0.3312872 -0.0028554588 -0.052707903 -0.1775674 0.42467645
795 0.038332593 0.5501873 0.23022299 0.41127023 0.116089426 -0.5282712 -0.14146346 -0.1460818 0.4848248 0.27458355 -0.18638113 -0.07595103 -0.16938354 0.06840877 -0.025025113 -0.09080431 -0.7225525 -0.21509886 -0.14691038 -0.111594416 0.20423627 0.0818223 -0.29714948 -0.4163245 0.7766164 -0.018097412 0.6429473 -0.18345708 0.4153765 0.13752776 -0.41576082 0.7037054 -0.059504777 0.122749865 0.34419662 -0.4766159 -0.5527097 1.0787911 -0.43022648 0.67932236 0.6354679 0.08556798 0.36395895 -0.030506367 -0.4840135 -0.7213587 -0.09071464 0.33613425 0.012400533 -0.93233335 -0.091929965 -0.3042296 0.33053467 0.22276182 0.08110903 -0.056985863 0.09998744 0.578143 -0.47963873 0.72988415 0.48064378 0.532023 -0.25507617 -0.026486635
234 0.13903955 -0.106141165 0.14291516 -0.5070094 0.05092876 -0.28841624 0.3852628 -0.395407 0.6834258 0.09115386 0.011759316 -0.27517468 0.14152458 -0.45335108 0.22310922 -0.09481584 -0.12650211 -0.27935693 -0.49935547 -0.76119024 0.61103404 0.4866012 -0.19930093 -0.28972226 0.02628544 0.07172803 0.20051281 0.19359262 0.05886161 0.04227761 -0.26001728 0.4491812 -0.31677893 -0.19710036 0.34264255 -0.23782505 0.43093365 0.5343041 -0.18371496 -0.05507348 0.4653823 -0.2427565 0.21925332 -0.82828474 0.39748815 0.04508351 0.12223688 -0.9999649 0.093688756 -0.12704115 0.50947356 -0.6611558 0.024198538 -0.39373356 0.10034043 -0.751989 0.034098245 -0.42440587 0.1158754 0.3194761 0.011340505 0.6708362 0.0760312 0.26122698
1524 0.34797108 0.32212022 -0.106217474 0.6243835 0.19148831 0.72436684 0.1492638 0.31244847 0.53467816 0.95495903 0.94991803 0.79518235 0.16189907 0.18066554 -0.044426106 -0.98837215 -0.068913855 -0.69151735 -0.15269381 0.3232077 1.2738655 0.5781868 -0.2515646 -0.32660192 0.65421796 0.09748734 0.1942121 -0.38827813 -0.2666342 -0.015638737 -0.600521 -0.5536701 -0.2383229 -0.38445795 1.1241845 -0.5337115 0.40625224 -0.0075022522 0.30570006 0.22035496 -0.08503834 0.0460731 0.15777405 -0.12701923 0.7572611 -0.10176032 -0.06119167 -0.44819885 0.36984783 1.0321467 -0.3540256 -0.058800433 1.9595767 -0.7342203 -0.44304252 -0.54661864 -0.03555401 0.34921777 0.5025304 -0.3938925 -0.35076138 0.93409795 -0.27773926 0.06597144
725 -0.18542117 0.9513148 -0.0145628555 0.18001798 0.15125273 0.27226254 0.20188366 -0.47738922 0.3446701 0.21234655 0.23411837 -0.007162106 -0.16739652 -0.43773863 0.2366585 -0.040994838 -0.05115316 0.5014491 0.3540293 0.416164 0.50324094 -0.88575244 -0.44226706 -0.12010755 0.9869825 -0.14160113 -0.08032368 -0.33436167 0.25259656 -0.027342537 -0.48393568 -0.11060651 -0.022813963 0.44787285 -0.12223409 -0.43395564 0.3438256 0.21671045 -0.3814629 0.13993132 -0.17749692 0.17156705 0.477578 0.06796182 0.5345859 -0.93022156 0.109102994 -0.12703952 -0.34276733 -0.3361486 -0.03702317 0.24591066 0.00087481696 0.54954964 0.13967367 0.116628066 -0.11436612 -0.5073541 0.014344026 1.0380285 -0.50818014 0.20040534 0.35027474 -0.07175453
71 0.18604085 0.42460248 0.3141436 0.26778364 -0.016535029 0.37628752 0.33489022 0.10428308 -0.31093255 0.18698055 -0.07992542 0.1445555 0.18446317 -0.5278284 -0.06502826 -0.06796358 -0.45722473 0.031501573 0.9363611 0.24800645 -0.28865537 1.0563276 0.19494334 -0.6233557 0.03994426 0.08475915 -0.089652404 -0.02424403 0.8491255 -0.46563154 -0.0762825 0.151821 -0.08497342 -0.12517066 -0.55931234 -0.10628488 -0.20389454 -0.14542024 -0.60847235 0.42569068 -0.43440065 -0.10813544 0.5411497 -0.20043989 -0.1812794 -0.75960726 0.023839239 -0.39034513 -0.24332295 0.23790942 -0.10731468 0.116028465 0.2072532 0.29894796 0.27440917 -0.094377406 -0.2314456 0.1699558 -0.010396485 0.2595283 -0.007505761 -0.08748954 0.01085856 0.78784525
165 0.3045721 0.3650345 0.23702186 0.06413248 -0.12458966 0.057553552 0.32875437 0.28457308 0.7882722 0.5037622 0.13566953 -0.29017058 -0.23025122 0.09064129 0.72064024 -0.031978294 -0.5533443 0.2970003 0.5997667 0.02010143 0.029658256 0.24039929 0.13943097 0.009477573 -0.7332037 0.42477456 0.20098746 -0.61584705 1.2792903 -0.6389091 0.5145824 0.09842774 0.4034176 -0.11761042 -0.16033244 -0.11457947 0.29685524 0.25993612 -0.21610373 0.88935816 -0.25366187 0.46196637 0.091764525 0.5089148 -0.11475935 -0.44018155 0.25692186 -0.36980206 0.34514353 0.117767066 0.8168028 -0.254257 0.30447716 0.25096068 0.100023255 -0.34859124 -0.20408706 -0.3658798 0.10218123 0.005212188 0.16674297 -0.27512708 -0.19908987 0.44900063
495 0.15192387 0.9196231 0.08279153 0.35417956 0.60749906 0.52449423 -0.018286824 0.11735905 0.39703682 -0.3366654 -0.04110825 -0.6292542 0.45819288 -0.15021305 0.41005173 -0.07167899 -0.68549097 -0.38415188 -1.3671422 0.39192986 0.65572304 -0.4233196 0.84532815 -1.04081 0.12545465 -0.005111845 0.44148377 -0.042954374 0.3048342 -0.98376757 -0.26920915 -0.2001386 0.57448 -0.91286254 -0.5050892 0.20087223 -0.8875798 -0.28473708 -1.0433336 -0.23365268 0.029792 0.60817707 -0.08129479 0.13613275 0.47458065 -0.75677466 -0.23301202 -0.91554475 0.38785788 -0.08556722 0.92224264 -0.37599176 0.6089275 0.7829371 -0.48454577 -0.11367094 0.4306225 0.08388171 -0.37263864 -0.46626574 -0.93538016 0.30209938 -0.5275119 0.10652256
187 -0.032631624 0.020591319 0.18075414 0.3031508 -0.14481677 0.35083574 0.20377037 0.19433923 -0.0023516575 0.111739226 0.31572664 0.5405444 -0.33560872 -0.41223818 0.22159846 0.17427278 -0.34898636 -0.017049542 0.42094764 -0.158018 -0.1322817 0.6465895 -0.3200252 -0.38425085 0.4392041 -0.15830511 -0.29687154 0.41625085 0.41408303 -0.7082566 0.4200995 -0.0009249466 -0.058673788 0.31583717 -0.96851444 0.22175033 0.011096477 0.15427491 -0.3830901 0.0690042 -0.15488204 -0.011390183 0.25613397 -0.5457245 0.32401568 -0.7486191 0.48178527 -0.12202164 0.5611254 -0.41002044 0.20253637 -0.4694269 0.4835597 0.3449034 -0.34860292 -0.18354964 0.30655852 -0.14720252 0.18650375 0.24904057 0.06623539 -0.1923269 -0.15061271 0.4225835
35 -0.4714879 0.8471626 0.09911082 -0.0050393785 -0.60311264 0.365047 0.11052382 -0.32986248 0.32733572 0.089846455 0.33492 -0.6575659 0.09996446 -0.55827796 0.67359614 0.27612662 -0.44246703 0.27602202 -0.4362311 0.42481095 0.1887792 0.7746307 0.21740624 -0.57155627 0.56195885 -0.4541836 0.0040310896 0.60262626 0.6625914 -0.40871894 0.2819692 0.21621914 -0.48880154 0.0083092395 0.39050528 -0.23240718 -0.303208 -0.2723004 0.22515841 -0.19214512 0.68676585 -0.8488707 -0.13948506 0.7483603 -0.07728901 0.2093079 -0.37191725 0.5974907 0.021811992 -0.32948872 0.6129788 0.5882333 0.27749312 -0.33793294 -0.45631358 -0.17948557 0.40145525 -0.84112865 -0.8134809 0.5255703 0.19498265 0.4945944 0.114753135 0.32649925
723 0.30746555 0.15270476 0.718131 0.4866251 -0.3223768 -0.3291305 0.72286606 -0.054372694 0.60974485 0.6543913 0.6733801 0.5417582 0.41027182 -0.8720018 0.8366873 0.5556182 -0.4791441 -0.2940562 0.50273126 -0.73167336 0.08198146 -0.15416712 -0.51058054 -0.32802945 -0.16133569 0.05429454 0.050353285 0.2231076 0.4442308 -0.6822697 -0.64200485 -0.1074548 -0.57397145 -0.044582684 0.50813895 0.38616398 -0.70883423 -0.3539132 -1.0341738 0.70216715 0.49344474 0.34012285 0.7516303 -0.026343616 -0.04731326 -0.016853612 0.611984 0.3330262 0.19511569 -0.5359056 -0.64998096 -0.069032475 -0.5411846 0.79435885 -0.38550365 0.03527969 -0.22423123 0.06878223 0.40036023 -0.54637694 0.08573461 0.13148735 -0.43815944 -0.14036644
1131 0.015781024 0.8470009 -0.06421092 0.044111066 -0.012813153 -0.34816694 -0.35304695 0.40901858 1.1819074 -0.8995889 0.1727307 -0.09265222 0.053245462 1.0986931 0.3861112 0.18357998 -0.28126523 -0.27250198 0.5946132 -0.023161557 0.33666673 0.67340726 -0.7596908 -0.38535 -0.080232285 1.0798277 0.11380476 -0.26127487 0.67221314 -0.91630924 -0.49714944 -0.012769284 -0.8357847 -0.55112374 -0.6884677 0.17007996 -0.14398736 0.082781196 -0.3502521 -0.06578433 0.6181653 0.5467808 -0.3101882 -0.5736172 0.7247818 0.8437151 0.49480748 0.16398562 -0.8222795 0.9465937 -0.04426208 0.82874274 1.2736491 0.7834638 -0.031226555 0.017364038 -0.4208788 -0.20826297 -1.0708127 0.7458215 -0.33388704 0.50275564 -0.61620086 1.8104246
169 -0.14372154 0.27889657 0.49307534 0.22084153 -0.05404537 0.39324614 0.6308246 -0.1244358 0.2642092 -0.11958821 0.11010896 -0.39749473 -0.2826472 0.46800655 0.5091299 -0.30896145 0.019317547 0.6248121 0.55125916 -0.052212775 0.63506365 0.5289713 -0.017541397 0.38061127 -0.15534389 0.3604414 0.19994186 0.48063654 1.0612463 -0.72877645 -0.3949418 -0.038750228 0.06251097 -0.47294632 -0.117287405 0.044014502 -0.5000535 0.19360457 -0.12395175 0.75891227 -0.54633844 0.5668215 0.23125207 0.099062905 0.21459271 -0.583169 0.40514836 -0.014250029 0.40222755 -0.014813492 0.56449115 0.15575932 0.5665078 0.085133985 -0.184412 -0.22080065 -0.220908 -0.60288554 -0.5707657 0.19009702 -0.25760487 -0.41169617 -0.02409827 0.18173124
3123 0.44999513 -0.32113078 0.28348204 0.051710498 -0.19807962 -0.29474625 0.4418513 0.1704502 0.33254024 -0.86805564 0.16317178 -0.18334824 0.25381058 -0.6981229 0.33894613 -0.39391208 0.47508752 0.15117279 0.13038003 -0.060393676 0.5272585 0.07184494 -0.21285088 -1.2855957 0.28764793 -0.22501947 -0.1705894 -0.5652076 0.3580083 -0.83489484 -0.6634638 0.1393808 -0.1309522 0.42710623 0.2429099 0.26149172 -0.32451537 0.5557993 0.12933518 -0.023365512 0.4802553 -0.2678383 0.12633562 -0.20583491 -0.26924554 -0.5370298 1.2580414 -0.8248734 0.71992725 0.13368382 0.2579254 -0.34761304 0.17388225 -0.25947285 -0.31893826 0.60462207 -0.17016742 0.6190501 0.2697728 0.5118018 0.080089174 0.9297843 0.47921625 -0.13567579
1778 0.17552444 0.5129431 0.2612982 0.06514822 -0.22859134 -0.08500002 0.4488508 0.11326102 0.84727824 0.5198577 0.21299464 -0.17290688 0.064649045 0.20158416 0.72488695 -0.16345401 -0.8329664 0.26299983 0.36549318 0.35902762 -0.24229345 0.5563775 -0.0013577718 -0.050433088 -0.56122214 0.16691142 0.21326646 -0.67772806 1.4045528 -0.6140194 0.1983201 0.3105151 0.23597145 0.06462759 -0.14357069 0.2920556 0.37865183 -0.00126861 -0.04744612 0.50675094 0.1977214 0.61310744 -0.32729954 0.4000804 0.09192531 -0.042501826 -0.004947512 -0.2466713 0.37154368 -0.0853274 0.69030863 0.081400916 0.03403623 -0.06747865 0.037996724 0.056105167 -0.25170192 -0.3594768 -0.1601547 -0.16932784 -0.09394219 -0.10517095 0.0852717 0.7560942
218 0.03361525 0.21298237 0.36344236 0.43997687 -0.056863584 -0.102666214 -0.5008093 0.12362826 -0.24548244 0.3866855 0.6070403 -0.08866424 0.45865995 -0.31863108 0.046292864 0.3498167 -0.40567642 0.09551581 0.23665601 0.5921243 0.5846868 0.2844244 0.30588305 0.00016001036 0.24926919 0.08633071 0.22018783 -0.21151938 1.0093523 -0.32863 0.13614924 0.6360893 -0.52714026 0.557064 -0.07832668 -0.16080149 0.34357765 -0.20891708 -0.25559476 0.35498205 -0.6801494 0.28197458 -0.03756089 0.7154971 0.4437886 -0.3034431 0.87248325 -0.64083177 -0.06393998 -0.043802336 -0.23878613 0.5101308 0.3141252 0.22570428 -0.7200152 0.55831724 -0.01632148 -0.9782874 0.2771949 0.5184202 -0.4904113 0.294123 0.19047411 -0.31637287
697 -0.16753574 0.18447591 0.50198877 0.33873364 -0.12979726 -0.74237835 0.21319555 -0.39617354 0.5278908 0.356694 0.20819078 -0.26948544 0.64994735 -0.4465123 0.36897504 0.36606336 0.08329204 -0.06322605 0.32370564 -0.09405778 0.14611395 0.21390355 -0.41407546 -0.71782756 0.41519785 -0.023706207 0.31693584 -0.142344 0.31670687 -0.9598253 -0.48267478 0.335267 -0.27067718 -0.17635012 0.53034055 0.106476024 -0.9797212 0.6892554 -0.25837287 0.38718176 0.70318055 -0.08842336 0.29509923 -0.19215226 -0.033570275 0.031042604 -0.049192555 -0.11708486 0.09289211 -1.1834358 -0.29162964 -0.37356496 -0.12172647 0.69236207 0.27349022 -0.17720906 -0.24953379 0.5865658 0.08500616 0.17068721 0.21823211 0.58985555 0.020434365 0.016408928
505 0.084601775 0.16777335 0.44875184 0.94142324 -0.31389377 0.13689847 -0.027923422 0.25224805 -0.102367274 0.42970094 1.2515908 0.97444 -0.6071171 -0.26059 -0.55116445 -0.03436067 -0.32075322 -0.15762463 0.66573286 0.14213021 0.7620147 0.14796254 0.014641575 -0.31300363 0.73920494 -0.06013364 0.8375008 -0.82136375 -0.29751956 0.021083493 -0.18671985 -1.2451862 -0.39067146 -0.180929 0.10427954 0.26836875 0.59281886 0.6760304 0.37780777 0.8772994 0.0074626105 0.23043483 0.32371506 -0.68000865 0.2813633 0.30928668 -0.039710406 -0.46866634 0.59420526 0.42188266 0.62684834 0.5700848 0.99843997 -0.20139831 -0.015883358 -1.3704679 -0.11744484 0.12889959 0.9120447 -0.41466236 -0.9181079 0.94132656 -0.30758595 -0.08220636
672 -0.2549701 1.292657 0.39484218 -0.6046304 0.4485785 0.6933189 0.27579698 -0.36223572 -0.037885994 0.40251943 0.3045347 0.06952279 0.4624546 -0.3267424 0.2229784 0.32045546 0.7351982 0.4630495 0.11490544 0.2902819 0.11445666 -0.7504011 -0.8075864 -0.18462524 0.39174622 0.06410422 -0.12974104 -0.07077422 0.6158571 -0.09145515 0.068217196 0.5787672 -0.12369158 0.78017104 -0.19578603 0.30865464 0.21466477 0.31163993 -0.63303256 -0.22339143 -0.062016264 -0.29561588 -0.33968797 0.15259282 0.7106385 -0.87044406 -0.69641703 -0.3184296 0.13407779 -0.08278854 0.091887966 0.57778454 0.72853655 -0.040241983 0.5317875 -0.4242294 -0.40641132 -0.34397233 -0.11602762 0.33169705 -0.31428403 0.75652486 -0.4337192 0.27584106
1199 -0.4397661 0.04629565 0.9202382 -0.1209176 0.3920533 0.15174767 0.740925 -0.09978832 0.18136768 0.20987679 0.38921148 -0.807127 -0.19377443 -0.11507106 0.31646875 0.12539694 0.12461272 -0.04583805 0.15355057 -0.23911658 0.3690787 0.9182984 0.31363747 0.008661718 0.4710527 -0.99506956 -0.09052749 0.14532675 0.40798256 -0.7238972 0.20156762 0.67442495 -0.14113241 -0.5071217 0.5058572 0.3815695 0.39708313 0.5005406 -0.1797594 0.8314305 0.34645024 0.5654203 -0.16185004 -0.41603884 -0.70503515 -0.3128577 -0.08421565 -0.21832375 0.0043076403 0.2576248 0.38586903 -0.108439684 -0.082070805 0.09530327 -0.14930351 -0.40994164 0.27384368 0.17561044 -0.3651939 0.3913481 -0.38227725 0.4377575 0.66648555 0.11999547
223 0.55604833 0.18532957 0.5424411 0.37520543 0.69302094 -0.7498831 0.2112719 -0.15829901 -0.28759918 -0.36633244 -0.1347853 -0.12263432 -0.13016571 0.3336328 -0.013849927 0.26672578 -0.5678824 -0.074370064 0.03635807 -0.011852387 0.20014194 -0.41219306 -0.33199424 0.1311846 0.19125219 -0.7320304 0.0064852145 -0.36818773 0.66569585 -0.55258083 -0.24769756 0.5302655 -0.19592398 -0.759279 -0.18282811 -0.24835232 -0.5053514 0.49356195 -0.07599701 0.0044492567 0.34061453 0.24198934 -0.02253493 0.32882836 0.10822489 -0.975449 -1.2187802 -0.2778784 0.26816583 0.2538316 0.7089418 -0.3291488 0.47475123 0.6003125 -0.11369386 -0.25967833 0.26552543 -0.8476237 0.47854325 0.22409642 0.010051936 0.31161833 -0.2929493 0.16590597
647 0.5370899 -0.718618 0.6277534 -0.37174502 -0.21382643 0.20714231 0.35170418 -0.08346948 0.0735736 -0.7207106 -0.16452982 0.0956326 -0.30379865 -0.5866717 0.36754146 -0.5417327 0.4207472 0.37893602 0.31834635 -0.1984208 0.6774312 -0.16929336 0.15265636 -0.35146052 0.09385875 -0.398664 0.6699948 -0.5707739 0.2797978 -0.9650525 -0.1614755 0.53455985 -0.5888419 0.33954808 0.13847369 0.25103074 -0.5766139 0.3872777 0.28689402 -0.42447418 0.6815424 0.34366035 0.6140906 -0.4820626 -0.1379126 -0.57572925 0.6505186 -0.5268806 0.19421597 0.2159755 0.21523547 0.08011189 0.055204634 0.16379926 -0.6537038 0.32454008 -0.1820304 0.65489125 0.7365858 0.13985795 -0.6934 1.1688277 -0.40012196 0.13618518
157 0.14717989 0.024601575 0.31569037 0.24870384 -0.49930093 -0.026161123 0.36313808 -0.04995235 0.22329193 0.13785022 -0.1751714 -0.14898004 -0.17440599 0.32270917 0.29258305 0.0087549165 -0.33563378 0.34601775 0.40194806 -0.017215831 0.25486323 0.22947818 0.43006968 0.4716387 -0.20218305 0.4432094 0.6404417 0.0045940466 1.1993377 -0.8294025 0.12987378 0.47461954 0.026527701 -0.17461182 -0.35558233 0.11808382 -0.09609739 0.2215781 0.119782545 0.523715 -0.46139523 0.56647384 0.081918806 0.21631126 0.5110217 -0.57439107 0.7791879 -0.18521737 0.45593727 -0.20154189 0.47286335 0.34847856 0.4831064 0.32527074 -0.19805755 0.31442976 -0.04773834 -0.9014128 -0.03676294 0.569709 -0.020770784 0.05383124 -0.11049226 0.3680062
1015 0.17264315 -0.12572145 0.4650949 -0.31496158 0.13975786 0.09965252 0.10605172 -0.56953424 0.7193726 0.07374842 -0.05353104 -0.33295143 -0.030055834 -0.47227395 0.29882956 -0.039749604 0.09872356 0.15402077 -0.3820871 -0.89141375 0.5440576 0.8768861 -0.061339904 -0.1264523 0.090516634 0.15596047 0.37262934 0.06372827 -0.32404464 0.0049329125 -0.21937484 0.53740245 -0.15351488 -0.5929712 0.7155663 -0.26406792 0.7528276 0.59804755 -0.45971736 -0.24007413 0.27189395 -0.22835422 -0.08095501 -0.56251293 0.7046586 -0.41215238 0.16016157 -0.45893455 0.35761815 -0.52552503 0.36520374 -0.061939273 0.18848687 -0.47611585 -0.08726879 -0.86292374 -0.6094084 -0.6598252 0.30372304 0.5454762 -0.01409182 0.63108194 -0.1386463 0.2253234
289 0.1837101 0.09816492 0.17535345 0.42203307 0.22021015 -0.07326171 0.033396766 0.5438578 0.7878252 0.6792683 0.727859 -0.32274687 -0.521311 0.1070963 0.15855886 -0.5661791 0.26687142 -0.5454732 -0.47778168 -0.12796327 0.42745715 -0.68473864 -0.33792195 1.1349845 0.27063826 0.16907734 0.23680921 -0.24784048 1.1066788 -0.51107776 0.04535483 -0.37661225 -0.13211632 0.09572421 0.7248941 -0.43660057 -0.10885255 0.2831786 -0.027690701 -0.21275161 -0.13667725 -0.8542166 0.78025734 -1.8683138 0.40292558 0.14681719 -0.25686735 -0.9614898 -0.080464974 -0.765842 0.74219096 0.051395394 -0.29041243 -0.27519888 -0.7300795 -0.31006092 0.054002002 0.10325156 0.1072462 0.3938291 -0.20011407 0.47730413 0.5339305 0.8558501
2133 0.22928482 0.08518009 0.9994684 -0.3430629 -0.08538031 0.15764064 0.38210723 -0.0819893 0.30074954 -0.070430286 0.6809825 -0.54344887 -1.2659941 -0.26697013 0.3363685 0.6698033 -1.1993252 -0.0932452 -0.90342736 -0.07865028 1.0767281 -0.2123855 0.47351813 -0.88632405 1.1371082 -0.5220021 -0.1533237 -0.11923279 -0.02225494 -0.9992031 0.16726539 -0.2597689 0.7344936 0.45994827 0.18785818 -0.55339223 -0.1723212 0.9812063 -0.25341383 0.011151227 -0.75832856 0.18259332 -0.0767712 0.0456339 0.5311004 0.15197313 0.37951514 0.45984453 -0.45909736 1.0621389 0.5341467 0.094620116 -0.25095788 -0.34930533 -0.41962114 -0.4544999 -0.52905995 0.13922568 -0.34425718 0.33073324 0.23492002 0.08598514 -0.9997214 1.0126724
950 -0.16259086 0.42055804 -0.18963581 0.52802914 -0.9161883 -0.23838298 -0.36903152 0.3730553 -0.4428704 -0.56870735 0.537429 0.29586077 -0.29708958 -0.18501651 -0.013078114 0.30208474 -0.25408623 -0.7629697 0.35620937 0.44282967 1.5526998 0.41450456 0.07316337 0.098768026 0.14200291 -0.06687041 0.41808292 -0.26752895 0.5358815 -1.1083791 -0.07105649 -0.17556916 -0.6104779 0.653342 -0.06920196 -0.23667204 -0.15835139 0.3772509 -0.26307854 0.41438946 0.32848683 -0.52893335 -0.8747775 0.45310032 0.5527386 -0.16938505 0.38108647 -0.29575434 0.06129245 -0.48584655 -0.38353825 0.13743956 0.40861583 0.26026917 -0.26788694 0.107315205 -0.29049224 -0.31159034 0.665151 0.3147727 0.13474496 -0.21845321 0.060043104 -0.4664381
166 -0.036407202 0.073467925 0.61866623 0.3766109 -0.15594803 -0.21415482 0.41915378 0.027334332 0.11292254 -0.006810446 -0.109969504 -0.32579467 -0.12817457 0.30083296 0.38703015 -0.022318365 -0.4974434 0.4844845 0.5921267 -0.090362504 0.4515162 0.26577523 0.36330158 0.46887878 -0.101778895 0.13899603 0.6889372 0.14953989 1.2600446 -1.1767316 0.016216397 -0.00858042 -0.14587197 -0.65790653 -0.17543373 -0.071013235 -0.4262029 0.34999153 -0.14971828 0.5800783 -0.110844634 0.5666287 0.2900629 0.49298275 -0.19305424 -0.6607092 0.32487217 -0.13559166 0.16066407 -0.24081297 0.64155096 -0.3576415 0.075212255 0.25585967 -0.06680493 -0.32680267 0.19748755 -0.97176504 -0.16554023 0.13787678 -0.016658038 -0.20866226 -0.19168372 0.35756946
220 -0.5503438 -0.030045254 0.4777376 -0.11948376 0.2571086 0.09326267 0.38943952 -0.20901044 0.86311036 0.53089553 0.33718568 -0.45302978 -0.21853453 -0.015798125 0.09940016 0.23843877 -0.048121713 -0.038550965 0.09745465 -0.47039965 0.26812187 0.33348688 0.5705654 0.14014883 -0.13817541 -0.32745427 -0.08774416 0.461374 0.3994602 -0.8396037 -0.5181098 0.22110534 -0.41093025 -0.46254185 -0.014957266 -0.17729753 -0.19294156 0.4265983 -0.6707582 0.67606205 0.5095129 -0.06559561 0.54628384 0.056769125 -0.2695761 -0.08530891 0.17212121 0.04441885 -0.0077227196 0.18305275 0.9085498 0.12761568 0.2991001 -0.53021467 0.029327566 -0.66657805 0.22199534 -0.41233316 -0.2944976 0.32723227 0.15353839 -0.13048917 0.37915754 0.32550505
728 -0.36009797 0.42676747 0.6206129 0.8317197 0.25739306 0.08903522 0.53322506 -1.4316931 0.21420154 0.3992056 0.09235157 0.7325203 -0.111404546 -0.12434628 0.114678174 -0.010205794 -0.1577926 0.26399237 0.29551452 -0.6105533 0.8058979 -0.30923843 0.10878377 0.3077373 0.88488823 -0.62008095 -0.43541205 -0.4473955 0.5256631 -0.47802916 -0.39715698 0.26968986 -0.19704746 0.050413355 -0.41761652 0.17068239 0.3457775 0.42220148 -0.13638073 0.14552143 -0.5549164 0.32987148 0.31167048 0.4222212 -0.26488096 -0.38069108 -0.20408969 -0.061939333 -0.15609954 0.0779378 -0.026654907 0.8946264 -0.08878533 0.7531141 -0.5850787 -0.1391655 0.021763716 -0.13969716 -0.40573433 0.7497702 -0.00065435487 0.58131266 0.4631905 -0.04763364
208 -0.058482047 0.61883754 0.19914207 0.18356358 -0.36362076 0.29965925 0.63500255 0.11368905 0.29031917 0.12826523 0.37357926 -0.2805732 0.07102452 0.26390156 0.18383932 -0.4251179 -0.9826186 0.120732985 0.13944133 0.5089047 0.17792375 0.27005318 0.20303434 0.067870975 -0.16263714 0.060558748 -0.0074877255 -0.42602667 1.1892152 -0.5422455 -0.254286 0.21479404 0.38285652 0.10460344 -0.3056428 -0.022322461 0.22846657 0.021315351 -0.049912035 0.79021925 -0.22326225 0.072413065 -0.05267143 0.2923397 0.0009531394 -0.33321753 0.2978903 -0.3606852 0.21400714 -0.047282945 0.6592136 -0.41126418 0.41443905 0.4120326 0.024531113 -0.21313536 -0.16095409 -0.8179895 0.23598097 0.18810076 0.2887857 -0.47640482 0.066773646 0.33105567
1195 -0.7085458 0.8705229 0.8832255 -0.19913164 -0.13693374 0.25161928 0.039682984 0.115801625 0.76523393 -0.048308976 0.44048446 0.6144249 0.21101943 0.17749572 0.10726517 0.079309985 -0.091017954 -0.7091315 0.030623717 -0.5811494 -0.1894515 0.46572658 -0.037076678 0.17170109 0.11969741 -0.03184419 0.648815 0.38312513 0.46422058 -0.91485727 0.4890966 0.33629727 0.15881705 0.35371417 0.1803015 -0.3833251 0.40172184 0.09104165 -0.70659375 0.0337504 -0.07103522 0.66012585 -0.20086709 -0.5718321 0.44802114 0.22004342 0.049157232 -0.800873 -0.11415855 0.08889402 0.3952814 0.53763026 -0.17899798 0.49099255 -0.31702068 -0.61052233 0.5281853 0.13191648 -0.22467498 0.29718128 -0.22803693 0.1504674 -0.04314422 -0.0899039
17 -1.0625811 1.0337485 0.4374226 -0.46461254 0.3511067 0.51514333 -0.5579523 0.36785135 0.7401068 -0.2031273 0.91851526 -0.14232917 -0.16935481 0.37949398 0.4422663 0.36656407 -0.33525708 -0.18047513 0.5147484 -0.27155593 -0.4113951 -0.20382307 -0.45243537 0.03110411 0.26735252 -0.07996756 0.47482166 -0.35337156 0.5135283 -0.70109534 0.75255996 -0.0033062098 -0.014601256 0.7009336 0.052110925 0.10743736 0.22298971 0.1869591 0.084183924 -0.5334948 0.30280274 -0.49352634 -0.39167982 0.4618867 0.004507018 -0.8127535 -0.03249622 -0.5010429 0.62022805 0.8035264 0.03715773 0.5602063 0.3024614 -0.37041903 -0.84409434 -0.72352535 -0.10705272 0.70061344 -0.38116762 0.20845757 0.07154647 0.24510427 0.07705818 0.20251694
3561 0.017341632 0.042252205 -0.0057393317 0.1063694 0.071825355 0.6399981 -0.0068634585 0.19393493 0.066018626 -0.39653623 -0.11105542 0.30919364 -0.10351442 -0.7602449 -0.14986439 0.38955244 -0.5509556 0.04528536 0.5689352 -0.21229193 0.21905209 0.6480791 -0.1169185 -0.8885332 0.16120519 -0.08401749 0.24902213 0.041059434 1.1886526 -0.45300233 -0.20221898 0.24554622 -0.17325675 0.20298193 -0.18768632 -0.4790613 -0.12220551 -0.61144054 -0.29425153 0.078037485 0.036563776 -0.15110497 0.6308463 0.14445037 0.36616945 -1.0698817 0.1409275 -0.32595003 -0.041251555 -0.68576163 0.219864 -0.2660015 -0.069172576 0.22906443 -0.26506397 0.093677655 0.014589616 -0.23406585 0.18853389 -0.23132542 -0.024057165 0.19819252 0.05027642 0.46678457
551 -0.7154994 1.0362931 0.17127387 0.82691455 -0.0032188469 0.050831195 0.06696682 0.064975835 0.0026108217 -0.11097497 0.09156248 -0.4166212 0.039126296 -0.29214147 0.5414252 -0.02544218 -0.7078561 0.15203069 -0.21298736 -0.5996575 0.13005373 -0.75494736 -0.45413092 0.31052774 0.3065782 0.15379967 -0.3108636 0.036587503 0.6564504 -0.6471157 0.056687053 0.5517 -0.37016234 0.49514973 -0.62348795 -1.0845492 -0.502086 -0.15663734 0.109707594 -0.18227379 0.42484605 -0.0073297927 0.38845563 0.124934055 -0.26617512 0.16693787 0.281973 -0.54902464 1.0040426 -0.1563226 0.03437787 0.784961 0.29467806 0.06230501 0.20978704 0.21287961 0.888524 -0.30543908 -0.09223638 0.5029514 -0.3633896 0.4842203 0.11313043 -0.072846055
776 -0.06816181 0.39987704 0.3184047 0.6482787 0.2831599 0.069471344 -0.024814643 0.32434088 -0.3583746 -0.5275114 -0.028395299 -0.010844157 0.29077333 0.019645452 0.4558843 0.13955 -0.7605021 -0.5098734 -0.29121464 -0.7405933 0.22818175 -0.28724816 -0.3039792 0.33981222 -0.009850268 -0.13176902 -0.11975407 -0.3564061 -0.05859446 -0.62278825 0.5479593 0.08236766 -0.53487486 0.0066775396 -0.10929871 -1.0762842 -0.21965641 0.100007325 -0.36425415 0.09126336 -0.12165854 0.009699584 0.4074831 0.43672267 0.23878358 -0.4394154 0.10139426 -0.47424677 0.92726827 -0.3917972 0.21648021 0.7288705 0.5398544 0.67077965 0.45194256 -0.44817814 0.39357847 -0.2991866 -0.048224773 0.82094777 -0.4151732 0.16539736 0.26487324 0.43825096
530 -0.6970789 0.091896474 -0.043367635 -0.6526903 0.37687716 0.15346847 -0.03794587 -0.6161881 -0.17793453 -0.5794936 0.35251498 -0.05470279 -0.11067231 -0.0016544203 1.3188065 -0.8687525 -0.059485156 -1.293486 0.4577039 -0.36723268 1.0011705 0.33635172 -0.30836585 -0.5386887 0.11370973 0.43947616 0.03082431 -0.06666392 1.5864155 0.039052293 -0.4541562 -0.52772284 -0.14679699 -0.5501686 0.5544482 -0.0032414943 0.014898015 0.4858463 -0.27069917 0.037953258 0.59960127 0.19546878 0.4836234 -0.07390151 0.6774813 -0.7480948 -0.70465535 0.0007295704 -0.87491614 -0.49535272 0.48683622 0.11877175 0.45467734 -0.22902472 -0.007907206 0.26917922 -0.9081002 -0.59320056 1.9295478 0.5763623 0.84173185 1.2410378 -0.7703031 1.2117319
2367 -0.16718072 0.71465474 0.17856108 1.6217972 -0.064681865 0.16511141 0.9001447 -0.103856236 0.58356845 0.60182846 0.70521 0.5163977 0.16619731 -0.39270577 0.1516288 -0.48050216 0.3116731 0.4081828 -0.35856846 -0.7817881 0.7894901 1.1004102 -0.831621 -0.6302797 0.21837646 -0.76014024 -0.015803644 -0.1360596 -0.29264846 -0.72701305 0.1332667 -0.040687375 -0.48276 1.0852724 0.58247805 -0.3462801 -0.9002075 0.16875644 -0.026743472 -0.1998541 0.3865413 -0.7460155 -0.09701499 0.70127136 -0.08578832 -0.1149343 0.075313255 -0.3802956 -0.34765485 -0.7919385 0.19383407 0.88906866 -0.5642384 0.1664816 0.22402789 0.3693331 -0.5118094 -0.7915425 0.66671556 -0.8508425 -0.03291229 0.9858402 -1.3736988 0.11934162
34 -0.44293258 0.64671737 -0.54369456 -0.103268325 0.47139934 0.26456657 -0.037221763 -0.3393482 0.49998316 0.17225252 -0.13321029 -0.4698729 0.31017822 -0.24436192 0.11052797 0.076864436 -0.73408425 0.5202832 0.39059198 -0.022456463 0.28108788 0.35234395 -0.1094876 -0.016528444 0.27906743 -0.09619669 0.2260349 0.012036336 0.20576017 -0.35618246 0.6703959 0.13621591 -0.0011370586 0.23853073 0.40048546 0.21542834 -0.10464386 0.3257403 -0.049811866 -0.39100444 0.54554754 0.1417923 -0.102885686 -0.73382694 0.1523054 0.21717443 -0.0575781 -0.09178101 0.21167125 0.07193157 0.02354376 0.63306236 -0.06848588 -0.23576757 -0.12426757 -0.5298043 -0.8018286 -0.8169449 0.41615146 0.27183667 0.16071291 0.35269594 0.31551266 0.7677322
1835 0.06557912 0.2530138 0.38719666 0.4506074 -0.14430246 -0.18086864 -0.055830438 -0.03341272 0.34531847 -0.13034582 -0.20781693 -0.5374768 -0.33293468 -0.3095858 0.3774143 0.20552494 0.09379149 -0.101628974 0.3756612 0.33049887 -0.036609996 0.7646793 -0.5991804 -0.83643645 0.6909377 0.6234147 -0.29011193 0.010162213 0.49127743 -0.17400992 -0.43741965 0.4816657 0.535675 0.42535466 0.7882025 0.036822062 -0.08848266 0.27961385 -0.2574033 0.24514803 0.47823107 -0.7054485 0.38612613 0.23839201 0.2959214 -0.33392125 0.13375087 -0.30269903 -0.66473264 -0.31245083 1.1865482 -0.38118666 -0.07575248 -0.0007014634 -0.40804577 -0.8635395 0.062484134 -0.051499348 0.40954933 0.7484441 0.51263994 0.0020585242 0.22566393 -0.28771448
2561 -0.4522705 0.01912487 0.4253349 0.09152263 -0.5568242 0.31664252 0.2988141 0.43577465 0.5463203 -0.19288938 0.5544173 -0.69674355 0.21595876 -0.2118677 0.37769645 0.23776188 -0.09250889 0.30962747 -0.054414522 -0.333693 0.0065513803 0.2865768 0.7513725 0.16320549 -0.23397304 -0.096605845 -0.5472774 0.4620445 0.5594102 -0.57528293 -0.15117005 -0.094877236 0.2730032 -0.219123 -0.3144091 -0.51651525 0.038349185 0.6704378 -0.6202876 0.3583066 0.30996808 -0.30361366 0.36692178 -0.40319172 -0.09688671 -0.59730536 0.3193869 -0.08166311 0.030246817 0.33967587 0.9513366 -0.104386 0.44251513 0.006658399 0.17489153 -0.6623808 -0.09781432 -0.31040332 0.2403785 0.33479035 0.4105074 -0.41521275 0.07386455 0.49780038
754 0.5204042 0.4347583 0.26721737 0.34365407 -0.037500124 -0.108946234 -0.3556771 -1.2497308 -0.9706259 -0.7758944 0.081302434 0.12992829 0.14059922 -0.1483614 1.0495957 -0.7951882 0.94518566 0.21512628 -0.08418919 -0.33056167 0.3697567 0.27735308 -0.5127484 -1.3774874 0.17257671 -0.7731555 -0.34855318 -0.44846603 0.010378755 -0.36775368 -0.048438225 0.359391 0.075425535 0.73204917 0.45068944 -0.3356998 0.08017224 0.96334237 -0.5577979 0.22166388 0.030727886 0.13120273 0.31155753 -0.4803348 0.8637363 -0.097008765 0.38950977 -0.6412647 -0.51451325 -0.39510444 0.4239538 0.82796824 0.66022855 0.07702939 0.20614243 -0.6263299 -0.81326514 -0.024248272 0.6097271 1.0388668 -0.8377376 -0.004624159 0.49435964 0.42876685
210 -0.0033486916 0.64608246 -0.06831108 0.5796821 -0.297139 0.1377649 -0.14379618 -0.29445797 -0.3528443 -0.14543995 0.053881865 -0.05853664 -0.14988726 -0.07718342 0.17957984 0.07454415 -0.53356117 -0.12070157 -0.35888726 -0.21221165 0.071705036 -0.27395764 -0.4142945 -0.18703404 -0.028503094 0.07965239 0.14931963 0.042160038 0.21481626 -0.40616354 0.1815907 -0.07157701 -0.3385974 0.0317738 -0.050314493 -0.44541174 -0.27442387 -0.08784953 -0.26624513 -0.020049289 -0.27865082 0.3692743 0.10078992 0.1749933 0.42590508 -0.41144264 0.766316 -0.23136345 0.2437447 -0.46724427 0.41276538 0.85118836 0.041333396 0.5009161 -0.078081384 -0.027471352 0.47330174 -0.61192304 0.017779907 0.66545737 -0.6829907 0.3418585 0.27574727 -0.0016161704
857 0.5954614 0.50495356 -0.31706685 1.0408434 0.5281583 0.3905768 0.015747868 0.14518252 0.23484816 0.2768238 0.47038412 -0.8274767 0.06450871 -0.28952518 0.63436943 0.5398546 0.05023979 0.07370364 -0.3899035 -0.977695 -0.027648684 0.30242538 0.19598654 -0.19712561 0.3359493 -0.70600724 -0.18717082 0.15442362 0.5796075 -0.37327847 -0.28749827 -0.37628245 0.04209455 0.006183255 0.098758236 0.48566929 0.31293663 0.023931284 0.005840291 -0.21050254 0.50567895 0.7028527 -0.3217519 -0.34126163 -0.03088221 -0.37561098 0.38052332 -0.060566943 -0.048355833 -0.2839702 -0.5387712 0.275333 -0.48079816 -0.3970277 -0.18052223 -0.71432734 -0.51330924 -0.119152024 0.3766983 0.5534553 0.46789542 0.6479483 -0.034917336 0.62398845
637 -0.50832325 0.5489271 0.9206098 -0.18501312 -0.37142065 0.6483715 0.33180815 0.43344828 0.56073165 0.2499261 0.59747356 -0.15390912 0.24217167 0.11423707 -0.09483547 0.41746238 -0.105420664 -0.24397998 0.039441805 -0.5360605 0.014268429 -0.10359574 0.46128473 0.013529263 0.20319283 -0.36364642 -0.06157446 0.56421405 0.116993874 -0.8766877 -0.08965579 0.17595647 0.40491787 -0.12509412 -0.04948538 -0.6579679 -0.10979697 0.62386197 -0.6100574 0.13730718 0.04264293 0.025636382 0.16827336 -0.16767299 -0.10987215 -0.18135364 0.6801271 -0.21790363 -0.2323649 0.23000418 0.6028126 0.49924332 -0.0463537 -0.11594961 -0.29938522 -0.6512214 0.264256 -0.21168855 -0.04269586 0.20913294 0.2879129 -0.33031958 -0.14133915 0.3141502
1020 0.030104047 0.585061 0.105394654 0.4428989 0.11491675 0.8217574 -0.59004587 -0.039497398 0.7143536 -0.60025626 -0.3915224 -0.17305595 5.943488e-05 -1.3245597 -0.2041399 0.24466027 0.27329922 0.20795313 0.24520297 -0.032129932 0.61743844 0.34059918 -0.11699388 -0.9131476 0.113515645 -0.39335012 0.09682649 0.14979073 0.73886883 -0.56074446 -0.16342011 0.1701726 -0.2068328 -0.6324834 0.514256 -0.42044848 0.37799022 0.11310109 -0.01081717 -0.6622803 -0.83726335 -0.5328368 0.66811895 -0.68477017 0.23596714 -0.2600825 0.37749323 -0.25856653 -0.43986422 -1.1272833 0.19689974 -0.18855855 0.09956381 0.40350807 -0.42623812 -0.15641716 -2.4436196e-05 -0.0028434815 -0.039573353 0.4969308 -0.10496189 0.16968425 0.2568336 0.18917663
232 0.06805618 -0.17160802 0.4401385 -0.20088327 0.3638789 -0.29454494 0.13246255 -0.47714722 0.85482013 0.1253408 -0.08954326 -0.38123885 -0.03801141 -0.3649941 -0.15782459 0.23327665 -0.048656233 -0.11421267 -0.34697694 -0.8156291 0.3882345 0.47043023 0.13736255 -0.22939402 0.21554913 0.118709736 0.17453426 0.17259349 -0.1759463 -0.36768526 -0.20015848 0.69684166 0.09810475 -0.266533 0.5591466 -0.16029869 0.21709323 0.5010615 -0.4989561 0.3107473 0.6608356 -0.3180955 0.27513078 -0.4014175 0.4411719 -0.08097427 -0.050805584 -0.21713617 0.32550266 -0.09262487 1.1043526 -0.30407864 0.035848368 -0.031705752 -0.34383655 -0.78110355 -0.30748406 -0.64073646 0.22443536 0.3053356 0.013840724 0.4889324 0.26896763 0.1836461
158 -0.19156803 0.588184 0.05109394 0.37734333 0.22383635 -0.14397335 -0.37018833 0.6862633 -0.85369873 -0.52146024 0.20889297 0.24936071 -0.20735405 -0.103144415 0.94453776 0.85194856 -0.2947773 0.5443277 0.7039367 -0.17177156 1.5246463 -0.041647937 0.1310727 0.31591505 -0.25442427 0.6999663 0.84773797 -0.07020735 0.2492496 -0.9548296 0.17434844 0.103606 0.066603474 0.24847665 -0.59175724 -0.112017505 -0.025049305 0.32118657 -0.51386505 0.46205148 -0.033059303 -0.7207864 -0.47754812 -0.03052522 0.6811596 -0.90216094 0.1768337 0.5332712 -0.031930316 -0.07461184 0.459156 0.3136823 -0.031721197 0.07052677 -0.3848243 -0.8785866 0.17701316 -0.20395847 -0.00059382897 -0.1430378 0.093132146 -0.16965514 0.016622847 -0.39446604
1129 -0.17025135 0.5437952 -0.109929785 0.35359874 0.08566269 -0.16094917 -0.35471472 0.58327806 1.2046204 -0.8107868 0.41017336 0.30663165 -0.1510416 0.9402244 0.26930627 -0.033067018 0.045003664 -0.064230524 0.6939749 0.33556873 0.5450934 0.6208305 -0.53466874 -0.78867614 -0.20628472 0.7827308 -0.12345213 -0.036388125 0.3283233 -0.48877937 -0.6316973 0.15269141 -0.538683 -0.4913038 -0.6392394 0.123148076 -0.10278671 -0.12880433 -0.21062386 -0.28744003 0.7202823 0.45064726 -0.60601926 -0.6319706 0.8333815 0.794511 0.21982147 0.2678097 -0.48431888 0.8832647 0.056618266 0.74229246 0.97172946 0.28981194 0.12835592 -0.38046145 -0.45256945 -0.3296472 -0.43699077 0.7570315 -0.4114765 0.46286315 -0.22820152 1.2749814
312 0.34748182 0.67064744 0.107344076 0.10718888 -0.12832204 0.09129294 0.6758306 0.059011314 0.5246067 0.2018768 0.10381869 0.0090251 -0.014273538 0.529633 0.6691433 -0.22526214 -0.6156041 0.41207892 0.17106262 0.36773208 0.32329112 -0.11711114 -0.023172058 0.56865156 -0.64614666 0.12912062 0.20485331 -0.7758802 1.0950191 -0.9337596 0.099031664 0.30442467 0.43498343 0.24687527 -0.5141537 -0.12193089 0.43320498 -0.037636325 -0.018890291 0.525693 -0.18214568 0.047440987 -0.08225549 0.2866881 -0.023335084 -0.53693974 0.3905615 -0.05076444 0.33902195 0.0013051179 0.92304677 -0.009508691 0.4222946 -0.09167514 0.019115647 0.016098667 -0.22534217 -0.7910462 0.119024664 0.24152243 0.011499513 -0.2905175 0.0045864526 0.34719902
361 0.09779918 0.05530952 0.29487222 0.20249656 -0.07061855 0.18837842 0.09753429 -0.12642121 -0.08496662 -0.18694063 -0.14724667 0.11948941 -0.2076453 -0.6018216 -0.23959035 -0.08515199 -0.8138542 -0.07781484 1.0268878 -0.027985321 -0.17746885 0.9182002 -0.021883463 -1.0181398 0.18310903 0.09197738 -0.3595972 0.1354007 0.9137866 -0.5559625 -0.16904335 0.10847259 -0.06728223 0.1801308 -0.22598064 -0.109067634 -0.45282948 -0.74561346 -0.5391247 0.38079104 0.3656388 -0.33216915 0.3802612 -0.10602598 -0.029948223 -0.66573805 0.0011635644 -0.3857811 0.1100087 -0.11924077 0.13868183 -0.1821653 0.29479077 0.16793796 -0.05870873 0.09114937 -0.13596742 -0.017340513 0.50960964 0.15697257 0.11247813 0.35686257 0.17342588 0.76550984
1125 -0.31048018 0.61694455 -0.03951802 0.0018992164 0.36034787 -0.04311047 -0.03090183 0.14501332 1.1941373 -0.59051394 0.35523868 -0.042747945 -0.2818744 0.9118335 0.20890844 0.13512073 -0.2520575 -0.22953738 0.40597665 0.11973902 0.37566456 0.8149079 -0.22951747 -0.4955705 -0.27852705 0.9853437 0.1022258 0.11724078 0.25767708 -0.78218013 -0.27299744 -0.06803972 -0.6761241 -0.2747031 -0.29222316 0.27578908 -0.06579583 0.0006668318 -0.36798412 -0.3114959 0.68669826 0.3430607 -0.44618332 -0.957189 0.5682949 0.82729733 0.37527895 0.11081441 -0.69588166 0.82761693 0.40438542 0.41387436 0.6679369 0.5884993 -0.02928432 -0.17164622 -0.45670158 -0.4675125 -0.8648299 0.6758937 -0.23049028 0.45945764 -0.20682389 1.2717174
397 0.002023071 0.9736896 -0.41454992 0.4110432 -0.03767743 0.21502617 0.07952235 -0.46319032 0.13755736 0.4588356 0.027742518 -0.26682395 -0.50371146 -0.08754843 0.5098134 0.23892619 -0.28725454 0.2596272 0.22703871 0.07167914 0.47823694 -0.73041 -0.36374366 -0.27402937 0.6060468 0.17637077 0.102030635 -0.3008295 0.18051243 -0.08250973 -0.20488267 -0.39635694 0.019373054 -0.45539016 -0.17264768 -0.34408024 -0.16030236 -0.11699439 -0.07938928 0.13631092 -0.1593098 0.045660138 0.48687875 -0.16010234 0.9998487 -1.0636417 0.580144 0.06540386 -0.34192717 -0.5974073 0.5561356 0.6251918 0.20007993 0.65318704 0.015483816 0.021971669 0.16637427 -0.68188894 -0.1335511 1.0976095 -1.3612698 -0.12945695 0.5415646 0.19698617
330 0.17767455 0.6679833 -0.109922834 -0.020946836 0.32874063 0.621982 -0.39469412 0.68385315 0.7318418 -0.41183728 -0.33246437 -0.130571 0.027251793 -0.8609237 0.017485153 0.059137393 0.03286182 0.10390453 -0.112147495 -0.03936375 0.8436961 -0.20070979 0.12132827 -0.8200031 0.47826955 -0.1732063 -0.030419165 -0.030101622 1.3039267 -0.7417288 -0.61050355 0.3356781 -0.17007303 -0.18163115 0.06958997 -0.48066863 0.29618904 0.056124195 0.24967858 -0.4563844 -0.51746845 -0.21995674 1.0508484 -0.07939732 -0.37375206 -0.35635763 0.20539814 -0.47943404 -0.23892725 -0.6271485 0.23959999 -0.38989744 0.103188254 0.4877367 -0.39691398 0.15739773 0.25313312 -0.18710245 0.21169357 0.19757164 -0.46071786 0.16880968 0.3227621 -0.13821709
1639 0.6043249 -0.09404352 0.21156496 -0.513619 0.28067046 -0.20954303 0.4320985 0.08565475 0.6964775 -0.17352943 -0.31808686 -0.27801892 0.34337285 -0.42551017 1.1810511 -0.09392862 0.061349157 -0.6665123 -0.3122018 0.554995 0.23841663 0.29201394 0.010203446 -0.06973886 0.9721976 -0.9295677 0.39053586 -0.47927326 0.87025845 -0.80066174 -0.38723013 0.13988829 -1.0799024 -0.53860563 -0.073999375 0.12660892 -0.6416642 0.17508388 0.8574502 0.120058924 0.1491851 -1.065956 -0.084829316 -0.33239937 -0.3751742 -0.13285077 0.17928548 -0.41040522 0.32976204 0.55280966 0.083474636 0.21806277 -0.1585427 0.4617693 -0.16243145 -0.5912292 0.41826144 -0.27550697 0.37883252 -0.18639155 -0.07441356 0.73682976 -0.47589508 0.29563868
677 0.5256604 0.65286964 -0.004581306 -0.31039414 0.6945386 0.12898411 -0.1642107 0.12515786 -0.20893152 0.6896925 0.4939098 0.22059177 0.39171606 -0.90084267 -0.30432233 0.19184262 -0.07930069 -0.32307792 -0.2649531 -0.05065665 0.8116051 -0.5191412 -0.30766046 0.029241078 -0.49130583 0.067015104 0.022669297 0.4044876 0.6861672 -0.62110746 0.2582868 -0.11773215 -0.46937996 -0.4521498 -0.40293828 -0.47770092 0.14712372 0.43676054 -0.55924505 -0.4410525 0.016577851 0.020368434 0.29088262 0.25698948 -0.41639382 -0.097706445 -0.12992087 -0.24076156 -0.191334 -0.2697183 0.44222316 0.6384052 -0.08899973 0.50236785 0.4572599 -0.596899 -0.18187279 -0.6693152 0.3236886 0.745305 -0.32557014 0.64743704 0.40258887 0.56969666
947 -0.14918914 0.07635884 1.0477465 -0.11901268 -0.034128234 0.577886 0.29694465 0.004632099 0.85777855 -0.5425818 0.6793359 -0.6117108 -0.8062768 -0.17103052 0.72091806 0.59569025 -1.1490219 0.11895769 -0.7339069 -0.10333196 1.0911752 -0.32124153 0.28552777 -0.5320627 0.9906218 -0.6761064 -0.0133201545 -0.2839625 -0.24282183 -0.72090554 0.104675926 -0.0054588667 0.97642434 0.41410357 0.39619952 -0.27536002 -0.02427224 1.0676634 -0.22593696 -0.3581857 -1.1065807 0.38599566 0.33659476 0.28659692 0.3297394 0.0013771945 0.4060968 0.06247873 0.46347907 0.71462214 0.36293742 0.33173853 0.17837909 0.014940532 -0.44689864 -0.64729744 -0.57914424 0.606208 -0.4263302 0.49884716 -0.13965249 -0.040082097 -1.0443047 0.8805736
12 0.100374244 0.5747625 0.1286811 0.42335263 -0.18335213 0.17477946 0.55381536 -0.1697471 0.018517766 0.49464038 -0.6369188 0.44156975 -0.38455874 0.29994726 0.52719176 0.20703442 -0.39126086 0.76330733 0.7777888 0.35080376 0.15073654 -0.10153342 0.030889578 0.09748524 0.25136328 0.18556565 0.4087753 -0.38945663 0.30070254 -0.90305173 0.3882668 0.018577795 0.11422973 -0.23502032 -0.19825177 -0.18990514 0.13869037 0.12105157 0.26254594 0.12486171 -0.011025982 0.40740484 0.13553277 -0.038676612 0.13247089 -0.35943544 0.28351513 -0.1719165 0.48989084 -0.18312667 0.769966 0.19657849 0.21812522 0.22653498 -0.24311379 0.73890364 0.45426926 -0.38488236 -0.12254117 0.60324776 0.45534962 0.248853 0.15918893 0.6011273
